svm_type c_svc
kernel_type rbf
gamma 0.5
nr_class 2
total_sv 6009
rho 5.90832
label 1 -1
nr_sv 1138 4871
SV
26.328064265344 1:-0.82167346 2:-0.056763843 3:0.18377331 4:0.32691538 5:-0.37798006 6:0.045022423 7:-0.37927766 8:0.38203015 9:0.17083915 10:0.65872967 11:0.16956493 12:0.089154584 13:0.29089404 
26.328064265344 1:-0.58447717 2:-0.023580152 3:0.14369423 4:0.20953474 5:-0.33460508 6:0.16182614 7:-0.35683633 8:0.28071538 9:0.18095994 10:0.61501583 11:0.15605514 12:-0.13215086 13:-0.093021862 
26.328064265344 1:-0.06556976 2:0.37960093 3:0.31865028 4:0.15697623 5:-0.44093469 6:-0.17489386 7:-0.42605463 8:0.11075688 9:-0.030536258 10:0.20856884 11:0.12082627 12:-0.029165783 13:0.24149873 
26.328064265344 1:0.50006247 2:0.51853104 3:0.10820384 4:-0.30328085 5:-0.52577655 6:-0.16966085 7:-0.16989889 8:-0.16989652 9:-0.15690458 10:-0.10883749 11:0.31184515 12:-0.23129838 13:0.15742962 
26.328064265344 1:-0.3695153 2:0.44269689 3:0.30544151 4:0.16549471 5:-0.36088721 6:-0.19558728 7:-0.35315466 8:0.10330858 9:-0.024453102 10:0.19681533 11:0.17686926 12:-0.033978073 13:0.2790081 
15.86589743792032 1:0.67520987 2:0.74356181 3:0.52952416 4:-0.25824342 5:-0.74385187 6:-0.13807662 7:0.16936966 8:-0.03663452 9:-0.21738183 10:-0.045803935 11:0.59958213 12:-0.097888687 13:0.26414834 
21.06593045085078 1:0.6719442 2:0.57069414 3:0.37161522 4:0.0083371084 5:-0.49343116 6:-0.26247136 7:-0.092478017 8:0.2045123 9:0.021392586 10:0.088072229 11:0.29745571 12:0.071407903 13:0.3819134 
26.328064265344 1:0.37351788 2:-0.11536281 3:0.22787837 4:0.30352875 5:-0.74588343 6:-0.26737027 7:-0.47825326 8:0.32291807 9:-0.20501258 10:0.16000471 11:-0.035548932 12:0.2191432 13:0.33059745 
26.328064265344 1:0.34659617 2:0.2398955 3:0.31244682 4:0.19646574 5:-0.5859059 6:-0.26900579 7:-0.33597895 8:0.25324351 9:-0.071821335 10:0.15594179 11:0.12436154 12:0.16435465 13:0.45217019 
1.732825970626818 1:0.58299674 2:0.21676034 3:0.25275194 4:0.17563395 5:-0.60402284 6:-0.32669532 7:-0.36809693 8:0.23613154 9:-0.14027924 10:0.060741947 11:0.11968972 12:0.24354927 13:0.48494697 
26.328064265344 1:0.34028877 2:0.59765644 3:0.36265707 4:-0.19473987 5:-0.64880325 6:-0.44124086 7:-0.24516768 8:-0.01430405 9:-0.13009941 10:-0.2720954 11:0.067897138 12:0.048632578 13:0.56584864 
14.57668274184005 1:0.34315384 2:0.25919359 3:0.52481323 4:0.14929848 5:-0.88398283 6:-0.26370699 7:-0.123738 8:0.23501812 9:-0.38819252 10:-0.12574257 11:0.33707035 12:0.33182081 13:0.35963575 
1.211437203364996 1:0.65715744 2:0.4137354 3:0.2558926 4:-0.25804899 5:-0.87684802 6:-0.59251602 7:-0.42099851 8:-0.24733949 9:-0.50700052 10:-0.44004 11:-0.045234559 12:-0.20703006 13:0.0095921725 
26.328064265344 1:0.26430557 2:0.29225626 3:0.24095073 4:-0.038274867 5:-0.68073216 6:-0.38661036 7:-0.3759338 8:0.014962146 9:-0.3040142 10:-0.15572285 11:0.19111009 12:0.22002794 13:0.4564666 
24.86429828355239 1:0.23244815 2:-0.17896589 3:0.21019668 4:0.34805272 5:-0.73160828 6:-0.26007737 7:-0.591965 8:0.19593559 9:-0.32493009 10:0.16942051 11:0.014223514 12:0.2915531 13:0.39933349 
9.578936601713222 1:0.68058126 2:0.49208075 3:0.27640287 4:-0.23689518 5:-0.70399953 6:-0.46240105 7:-0.2690785 8:-0.13498619 9:-0.38486588 10:-0.3981904 11:0.27764463 12:0.13946514 13:0.34993776 
26.328064265344 1:0.56492011 2:0.1300079 3:0.18808054 4:0.3121869 5:-0.47599357 6:-0.097273002 7:-0.38218282 8:0.23295593 9:-0.15404618 10:0.25430474 11:0.1370654 12:0.17385818 13:0.21369654 
26.328064265344 1:0.70903426 2:0.19955012 3:0.22110697 4:0.18747103 5:-0.47261189 6:-0.15954873 7:-0.32995445 8:0.16330037 9:-0.14869679 10:0.17628429 11:0.17956731 12:0.12315397 13:0.31746495 
26.328064265344 1:0.3249116 2:0.056097159 3:0.2111762 4:0.34129068 5:-0.39066789 6:0.006149462 7:-0.35689825 8:0.23551851 9:-0.099762418 10:0.34567637 11:0.17927781 12:0.081033258 13:0.097482556 
25.74296793556195 1:0.73450449 2:0.64530784 3:0.26708932 4:-0.20105316 5:-0.46484433 6:-0.2966263 7:-0.033949725 8:0.052263349 9:-0.035114006 10:-0.024774902 11:0.6434183 12:0.29744326 13:0.56586242 
26.328064265344 1:0.40919256 2:0.2722898 3:0.19121151 4:0.097303579 5:-0.43143907 6:-0.12829953 7:-0.16747602 8:0.175665 9:-0.085111334 10:0.23513147 11:0.27123857 12:0.079649679 13:0.17783799 
5.501086493066933 1:0.71489814 2:0.18912539 3:0.15108733 4:-0.075548152 5:-0.71829455 6:-0.38427194 7:-0.27720494 8:0.12879777 9:-0.20210943 10:0.067223717 11:0.58032337 12:0.47194304 13:0.58760255 
26.328064265344 1:0.3660243 2:0.14719197 3:0.26540922 4:0.22853414 5:-0.5268605 6:-0.10296642 7:-0.24838045 8:0.2915828 9:-0.12882497 10:0.14234686 11:0.20226502 12:0.25850399 13:0.30058547 
25.08225538848915 1:0.39096929 2:0.035188821 3:0.11063907 4:0.11202464 5:-0.63098806 6:-0.33071808 7:-0.51616179 8:0.081902261 9:-0.25779358 10:0.089262797 11:0.080721833 12:0.1485294 13:0.17371515 
24.75829243040064 1:0.72425367 2:0.065427713 3:0.11611024 4:0.114022 5:-0.5581762 6:-0.21165489 7:-0.35139787 8:0.15331915 9:-0.15886036 10:0.30454251 11:0.46142013 12:0.36734187 13:0.47552926 
26.328064265344 1:0.71451237 2:0.44903687 3:0.23465002 4:0.054532977 5:-0.35721188 6:-0.2153265 7:-0.25963834 8:0.064572245 9:-0.056089709 10:0.1708269 11:0.34584128 12:0.17067231 13:0.46321157 
2.453707406867931 1:0.62610407 2:0.48737575 3:0.18476006 4:-0.15296346 5:-0.50662952 6:-0.36934426 7:-0.25150187 8:0.030039211 9:-0.022504002 10:0.10076839 11:0.4451215 12:0.22831833 13:0.55554875 
26.328064265344 1:0.73221782 2:0.13519276 3:0.15218065 4:0.10745316 5:-0.53370239 6:-0.19596069 7:-0.351692 8:0.15810244 9:-0.11939073 10:0.24217652 11:0.3697657 12:0.32279338 13:0.52294041 
26.328064265344 1:0.6275567 2:0.62483141 3:0.40853684 4:-0.21434463 5:-0.62003109 6:-0.29492666 7:-0.0093841998 8:0.082919328 9:-0.20065491 10:-0.21850065 11:0.48984044 12:0.14146655 13:0.28299937 
26.328064265344 1:0.69588163 2:0.65849767 3:0.21390228 4:-0.10176726 5:-0.47739905 6:-0.19274072 7:-0.063523405 8:0.045521832 9:0.028799962 10:-0.011425978 11:0.364113 12:-0.13360805 13:0.42190898 
4.538434594730576 1:0.71034483 2:0.68651038 3:0.38660104 4:-0.27870245 5:-0.46981042 6:-0.15300788 7:0.028391417 8:0.03315853 9:-0.080280952 10:-0.090756908 11:0.27998691 12:-0.10794713 13:0.20693869 
26.328064265344 1:0.70818511 2:0.037220636 3:0.1264061 4:0.12828087 5:-0.55166259 6:-0.16271436 7:-0.25774697 8:0.21380198 9:-0.20756352 10:0.017210315 11:-0.0052553362 12:-0.0061274998 13:0.15143971 
26.328064265344 1:0.41531507 2:-0.12496317 3:0.16851601 4:0.21704927 5:-0.6898671 6:-0.097169807 7:-0.29292825 8:0.3235687 9:-0.24801082 10:0.0878942 11:0.012280233 12:0.16450434 13:0.24042293 
26.328064265344 1:0.74213229 2:0.16744809 3:0.16700966 4:0.08992674 5:-0.45145358 6:-0.018400533 7:-0.13275655 8:0.19321613 9:-0.16565141 10:0.10280655 11:0.24544578 12:0.077875725 13:0.19762698 
26.328064265344 1:0.73520072 2:0.18017151 3:0.15007582 4:0.10041991 5:-0.4553857 6:0.017118262 7:-0.072421497 8:0.24140489 9:-0.13122736 10:0.097274644 11:0.22727755 12:0.017775267 13:0.15273078 
26.328064265344 1:0.61988957 2:0.47363707 3:0.20270173 4:-0.14711896 5:-0.49182122 6:-0.084910192 7:0.079435779 8:0.153782 9:-0.0337477 10:-0.015529696 11:0.4029137 12:-0.046133965 13:0.30903274 
26.328064265344 1:0.70333133 2:0.40175585 3:0.31280193 4:-0.1626087 5:-0.67315589 6:-0.11917999 7:0.18813727 8:0.28940038 9:-0.079623452 10:-0.064331525 11:0.38903713 12:-0.017895113 13:0.23550892 
26.328064265344 1:0.67792567 2:0.20231845 3:0.14119408 4:-0.022777175 5:-0.59814357 6:-0.12295014 7:-0.02069113 8:0.36284241 9:0.019452069 10:0.12070232 11:0.20582324 12:-0.063085158 13:0.067513264 
26.328064265344 1:0.35115294 2:0.18768425 3:0.20182528 4:-0.033592727 5:-0.62482708 6:-0.075783818 7:0.084016315 8:0.44248518 9:0.014563686 10:0.075959909 11:0.24674492 12:0.046275554 13:0.24273899 
26.328064265344 1:0.58770114 2:0.15479591 3:0.089703027 4:0.020770587 5:-0.54720693 6:-0.069978721 7:-0.096296776 8:0.30328971 9:-0.012247427 10:0.23590392 11:0.33345007 12:0.02346418 13:0.078250838 
26.328064265344 1:0.64887649 2:0.05713651 3:0.096170238 4:0.1349647 5:-0.43929205 6:0.011137321 7:-0.10097669 8:0.38626875 9:0.0016762238 10:0.2157638 11:-0.013395934 12:-0.17345725 13:-0.20247547 
26.328064265344 1:0.26694789 2:-0.03958844 3:0.12742281 4:0.32958232 5:-0.34222879 6:0.074169635 7:-0.23508185 8:0.35007696 9:-0.04194284 10:0.31122893 11:0.031778552 12:-0.01852182 13:-0.054451647 
26.328064265344 1:0.25752224 2:0.11917506 3:0.091525469 4:-0.1063258 5:-0.6940062 6:-0.20584504 7:-0.054992436 8:0.30699473 9:-0.092000514 10:0.012913337 11:0.07671189 12:-0.12586476 13:-0.017497851 
26.328064265344 1:0.14337523 2:0.093512501 3:0.079626748 4:0.0022083748 5:-0.57409923 6:-0.034128151 7:0.062228818 8:0.48075952 9:0.062398138 10:0.11642302 11:-0.025871845 12:-0.26099323 13:-0.21279191 
26.328064265344 1:0.15803376 2:0.55311963 3:0.30674104 4:-0.11747597 5:-0.54782433 6:-0.37147879 7:-0.21819305 8:0.15237798 9:0.11151347 10:0.16130045 11:0.19103543 12:-0.12156663 13:0.23089167 
4.919394882467235 1:-0.24705498 2:0.57308275 3:0.28383695 4:-0.17894884 5:-0.31744089 6:0.059480594 7:-0.25902058 8:0.21142888 9:0.25764172 10:0.15496739 11:0.2226769 12:-0.2907924 13:0.0083798001 
26.328064265344 1:0.39737814 2:0.30593432 3:-0.20727075 4:-0.43861866 5:-0.18445995 6:-0.17635651 7:-0.20371134 8:0.050062016 9:0.32639934 10:0.098908454 11:0.2145109 12:-0.41083485 13:-0.41674684 
26.328064265344 1:0.32184254 2:0.22112754 3:-0.12536512 4:-0.090110816 5:0.021667747 6:-0.1785188 7:-0.21842125 8:0.22282469 9:0.37668079 10:0.22212717 11:0.098831377 12:-0.16130589 13:-0.058009782 
26.328064265344 1:0.33237017 2:0.41555984 3:-0.2095725 4:-0.65501951 5:-0.27436804 6:-0.53682511 7:-0.30659666 8:0.18210705 9:0.35746946 10:-0.029396994 11:0.12529331 12:-0.060413275 13:0.22687792 
26.328064265344 1:-0.11801952 2:-0.45850254 3:-0.16738701 4:0.18268128 5:-0.42940768 6:0.13060057 7:-0.29663534 8:0.46963889 9:0.1588083 10:0.43173752 11:-0.13817368 12:-0.14719671 13:-0.020987868 
26.328064265344 1:0.20461133 2:0.27943351 3:-0.18449455 4:-0.56073211 5:-0.45708522 6:-0.37252112 7:-0.28774467 8:0.15226973 9:0.35075443 10:0.032796626 11:0.062055277 12:-0.15179171 13:0.25890678 
26.328064265344 1:0.23853161 2:0.61906241 3:0.24078869 4:-0.16133759 5:-0.25638252 6:-0.076956574 7:-0.046604255 8:0.11431519 9:0.11680291 10:-0.101032 11:-0.13756036 12:-0.43643994 13:-0.31518844 
26.328064265344 1:0.52400536 2:0.59889741 3:0.20507491 4:-0.3216148 5:-0.51438756 6:-0.16281312 7:-0.056297085 8:0.015572467 9:0.091906721 10:0.0097591239 11:0.084691269 12:-0.65006935 13:-0.49524196 
4.580392032558146 1:0.40812413 2:0.4588229 3:0.20812228 4:-0.18818372 5:-0.56118957 6:-0.15951956 7:-0.066515393 8:0.11874395 9:0.023685533 10:0.049403704 11:0.03043052 12:-0.62442088 13:-0.50146593 
26.328064265344 1:0.67366951 2:0.39656157 3:0.27804763 4:-0.22425286 5:-0.76024255 6:-0.3779805 7:0.00044519754 8:0.2837865 9:0.042725087 10:-0.080201684 11:0.06394109 12:-0.34642814 13:-0.086964738 
26.328064265344 1:0.61213079 2:0.3342606 3:0.18838059 4:-0.16965937 5:-0.68973608 6:-0.44877207 7:-0.18783682 8:0.28793896 9:0.017457617 10:-0.14412975 11:-0.093804117 12:-0.25884951 13:-0.14324633 
20.53815838257181 1:0.26687134 2:0.52656223 3:0.2201765 4:-0.15976645 5:-0.50599236 6:-0.52408325 7:0.18350987 8:0.23164378 9:0.11336247 10:0.041091431 11:-0.14429931 12:-0.30292434 13:-0.30511405 
26.328064265344 1:0.51917755 2:0.52860135 3:0.18384513 4:-0.28812621 5:-0.59436216 6:-0.57869119 7:-0.15772755 8:0.18682477 9:0.12190175 10:-0.24463667 11:-0.10600685 12:-0.25639215 13:-0.1574284 
26.328064265344 1:0.68837434 2:0.34349281 3:0.22681386 4:-0.15528058 5:-0.7074506 6:-0.37886643 7:-0.11637572 8:0.25511397 9:0.046218005 10:0.047538987 11:0.10513855 12:-0.2467831 13:-0.10817861 
26.328064265344 1:0.6488193 2:0.22657945 3:0.0664901 4:-0.1642294 5:-0.70209661 6:-0.37512162 7:-0.3675499 8:0.069460899 9:-0.11514881 10:0.0065575505 11:-0.058402544 12:-0.35372832 13:-0.24240407 
15.42078579457508 1:0.55862368 2:0.2134529 3:0.065322582 4:-0.17031428 5:-0.70167819 6:-0.37516173 7:-0.36414847 8:0.070999181 9:-0.13746484 10:-0.029915241 11:-0.11592598 12:-0.39031072 13:-0.31386793 
26.328064265344 1:0.66353079 2:0.50185039 3:0.20238331 4:-0.19096048 5:-0.49042287 6:-0.21925955 7:-0.14932813 8:0.13701575 9:0.07898813 10:0.053988395 11:0.26428541 12:-0.13805501 13:0.086068952 
21.42761642815496 1:0.65353888 2:0.42119916 3:0.18753961 4:-0.10829029 5:-0.60631731 6:-0.23363911 7:-0.15108948 8:0.13592538 9:-0.0033462465 10:0.15037917 11:0.33534252 12:-0.15970077 13:0.099644333 
26.328064265344 1:0.2864853 2:0.29483723 3:0.18374246 4:-0.037842428 5:-0.56061383 6:-0.20127929 7:-0.1643376 8:0.22998096 9:-0.00084526459 10:0.1587438 11:0.1492271 12:-0.12351364 13:-0.027566858 
26.328064265344 1:0.6968893 2:0.70391574 3:0.21255545 4:-0.46239027 5:-0.4192084 6:-0.47476888 7:-0.26758518 8:-0.015114879 9:0.24437417 10:-0.27230593 11:-0.038240571 12:0.058072289 13:0.16875037 
26.328064265344 1:0.32405714 2:0.58735482 3:0.10568475 4:-0.25171153 5:-0.4095019 6:-0.67864446 7:-0.075366527 8:-0.0081395469 9:0.10814208 10:-0.00070884103 11:-0.22250103 12:-0.0054411478 13:-0.032401281 
6.86281152132787 1:0.59691333 2:0.69620821 3:0.076821432 4:-0.78140897 5:-0.52306413 6:-0.69798503 7:-0.5755905 8:-0.46674688 9:0.075529751 10:-0.71090776 11:-0.60405297 12:-0.24810756 13:-0.48685228 
15.49320588842879 1:0.68130296 2:0.21456724 3:0.12983211 4:-0.100644 5:-0.68055717 6:-0.30821076 7:-0.32966496 8:0.066803885 9:-0.15401985 10:0.066744304 11:0.067647399 12:-0.18106046 13:-0.0052190617 
26.328064265344 1:0.58525719 2:0.34743219 3:0.1773018 4:-0.13527443 5:-0.61181407 6:-0.29625239 7:-0.32766337 8:0.014771245 9:-0.075245463 10:0.054213793 11:0.028550722 12:-0.25839057 13:0.06461361 
26.328064265344 1:0.6844505 2:0.60521955 3:0.23379429 4:-0.32081777 5:-0.48722218 6:-0.32153065 7:-0.36622741 8:-0.04726654 9:0.15859281 10:-0.062517153 11:0.046169965 12:-0.12417841 13:0.26936097 
26.328064265344 1:0.6695576 2:0.42441469 3:0.20972298 4:-0.14169829 5:-0.49250556 6:-0.27753509 7:-0.30193735 8:0.090122969 9:0.046500823 10:0.070446918 11:0.13365581 12:-0.022002055 13:0.18568029 
26.328064265344 1:0.29960908 2:0.13715088 3:0.2173559 4:0.041149579 5:-0.71620367 6:-0.22674204 7:-0.45201042 8:0.1446827 9:-0.080450378 10:0.15062438 11:-0.052026146 12:-0.15489642 13:0.07175243 
26.328064265344 1:0.5846755 2:0.41686254 3:0.20053612 4:-0.11509574 5:-0.49739906 6:-0.2882309 7:-0.32075356 8:0.08628675 9:0.047259363 10:0.078000354 11:0.085719948 12:-0.079214868 13:0.19311693 
26.328064265344 1:0.6993748 2:0.61071512 3:0.25508759 4:-0.23410694 5:-0.46323311 6:-0.33197622 7:-0.2038429 8:0.0063062662 9:0.069489898 10:-0.00092444739 11:0.1776112 12:-0.056905551 13:0.23122574 
26.328064265344 1:0.6647056 2:0.35111389 3:0.15816252 4:-0.070051673 5:-0.52859909 6:-0.33302714 7:-0.3755791 8:0.071822156 9:0.0051385051 10:0.075548137 11:0.090644539 12:-0.074289859 13:0.17803306 
26.328064265344 1:0.30945374 2:0.10875946 3:0.21587336 4:0.096700675 5:-0.69042027 6:-0.1970546 7:-0.39095547 8:0.18648097 9:-0.13733317 10:0.1471502 11:0.018383733 12:-0.059740171 13:0.08680686 
26.328064265344 1:0.57814083 2:0.38768724 3:0.17152933 4:-0.086172275 5:-0.4985001 6:-0.31611857 7:-0.37156116 8:0.055359551 9:0.026160326 10:0.065220201 11:0.065513952 12:-0.095969238 13:0.19606245 
26.328064265344 1:0.6754878 2:0.47794478 3:0.18556579 4:-0.22940697 5:-0.47248375 6:-0.29113773 7:-0.37519308 8:-0.075763442 9:0.034064719 10:0.00037572042 11:0.038346776 12:-0.081502882 13:0.27609164 
26.328064265344 1:0.66242941 2:0.52719088 3:0.21419972 4:-0.25429584 5:-0.49894795 6:-0.35772702 7:-0.35183423 8:-0.02011096 9:0.072660575 10:-0.0087343286 11:0.080233707 12:-0.04814599 13:0.23010797 
26.328064265344 1:0.28461595 2:0.18973662 3:0.16400032 4:-0.0022268711 5:-0.60966585 6:-0.23227551 7:-0.45470233 8:0.071314362 9:-0.11782547 10:0.061035037 11:-0.00021352116 12:-0.030793072 13:0.16886231 
26.328064265344 1:0.56987696 2:0.43917463 3:0.20919266 4:-0.16144972 5:-0.56241434 6:-0.34355157 7:-0.34127281 8:0.016894266 9:-0.021238051 10:0.0044837662 11:0.099337335 12:-0.078786789 13:0.18987328 
26.328064265344 1:0.2775924 2:0.23908955 3:0.24610946 4:0.021172404 5:-0.67859534 6:-0.31453645 7:-0.41114846 8:0.13716076 9:-0.12454383 10:0.029408244 11:0.063178116 12:-0.021607299 13:0.12479148 
26.328064265344 1:0.66925993 2:0.20198957 3:0.096463936 4:-0.089753809 5:-0.7615592 6:-0.57053978 7:-0.52667374 8:0.061346371 9:-0.14829693 10:-0.07085429 11:-0.086730748 12:-0.12486264 13:0.13916082 
26.328064265344 1:0.27117415 2:0.2007261 3:0.16116178 4:-0.014281311 5:-0.64240139 6:-0.28096117 7:-0.38473195 8:0.13744345 9:-0.084104337 10:0.16477506 11:0.25099822 12:0.12960199 13:0.33979447 
26.328064265344 1:0.24740626 2:0.35899831 3:0.099113007 4:-0.19668124 5:-0.58958464 6:-0.44784635 7:-0.39243078 8:-0.019192503 9:-0.050365696 10:0.076585642 11:0.095525587 12:-0.059154672 13:0.26816751 
13.09309590865546 1:0.52612786 2:0.64461543 3:0.16848555 4:-0.33265167 5:-0.3491778 6:-0.37576345 7:-0.33403029 8:-0.10764855 9:0.14696209 10:0.0057290068 11:0.21753303 12:0.041561312 13:0.37350765 
26.328064265344 1:0.65685151 2:0.44888103 3:0.19183998 4:-0.12863746 5:-0.48303362 6:-0.32271879 7:-0.31219309 8:0.068702545 9:0.019969387 10:0.022747658 11:0.17316023 12:0.046297649 13:0.40343682 
26.328064265344 1:0.65865899 2:0.44843088 3:0.16358082 4:-0.14912187 5:-0.46491043 6:-0.33226037 7:-0.32556882 8:0.041235454 9:0.013697577 10:-0.02896852 11:0.15132988 12:0.022802949 13:0.38095161 
26.328064265344 1:0.24254364 2:0.027548159 3:0.17311449 4:0.18281782 5:-0.6222159 6:-0.19915548 7:-0.4118597 8:0.25791392 9:-0.13146404 10:0.16399358 11:0.048320198 12:0.11378802 13:0.21537468 
26.328064265344 1:0.55093055 2:0.62241699 3:0.15425512 4:-0.31583326 5:-0.33876733 6:-0.3729564 7:-0.31803852 8:-0.064408969 9:0.13743243 10:-0.12615476 11:0.14745053 12:0.045195237 13:0.44589818 
26.328064265344 1:0.67592942 2:0.28407227 3:0.12541659 4:-0.11183678 5:-0.59096812 6:-0.35568481 7:-0.40738408 8:0.0098172664 9:-0.16465847 10:-0.076696952 11:0.031549493 12:-0.029887165 13:0.26859896 
26.328064265344 1:0.25882481 2:0.32974087 3:0.20988357 4:-0.10890631 5:-0.62947185 6:-0.259154 7:-0.4065994 8:0.019617184 9:-0.12025324 10:-0.059199617 11:0.067809182 12:-0.043648876 13:0.32392809 
15.12868622662575 1:0.27078924 2:0.66791708 3:0.28107908 4:-0.37540844 5:-0.45288043 6:-0.24125914 7:-0.46610766 8:-0.099947287 9:0.2083678 10:-0.13088028 11:0.14804242 12:0.033308167 13:0.56595068 
26.328064265344 1:0.68196185 2:0.39948232 3:0.14706329 4:-0.19897889 5:-0.59705266 6:-0.38201505 7:-0.4667093 8:-0.1441903 9:-0.16355634 10:-0.037854463 11:0.061307215 12:-0.16508162 13:0.20002391 
26.328064265344 1:0.28435505 2:0.53719053 3:0.20815731 4:-0.26192742 5:-0.52518603 6:-0.28686072 7:-0.32421259 8:-0.16382355 9:-0.082978509 10:-0.022667836 11:0.16421315 12:-0.043964252 13:0.38880347 
26.328064265344 1:0.28150822 2:0.65200931 3:0.31998534 4:-0.28669354 5:-0.51709211 6:-0.22027589 7:-0.31927021 8:-0.11114627 9:0.064047985 10:-0.074393014 11:0.23915168 12:0.10993483 13:0.4856718 
26.328064265344 1:0.30483735 2:0.16285481 3:0.20350386 4:-0.019906936 5:-0.75268921 6:-0.29957874 7:-0.44624566 8:0.076843145 9:-0.17859613 10:0.01172194 11:-0.078887433 12:-0.12256162 13:0.15800015 
26.328064265344 1:0.6223218 2:0.44186779 3:0.24171073 4:0.010640446 5:-0.43136909 6:-0.109483 7:-0.14417997 8:0.12608372 9:-0.045626261 10:0.058859226 11:0.26911297 12:-0.020029505 13:0.15500163 
26.328064265344 1:0.5438665 2:0.66935508 3:0.26694081 4:-0.17868985 5:-0.34519164 6:-0.16589621 7:-0.097797624 8:0.0069281707 9:0.048764566 10:-0.050279875 11:0.31188596 12:-0.021997211 13:0.21491723 
26.328064265344 1:0.59274463 2:0.42543068 3:0.18844232 4:-0.24064142 5:-0.54521237 6:-0.19832782 7:-0.30036471 8:-0.15638106 9:-0.18131165 10:0.017056093 11:0.24568155 12:-0.15977818 13:0.074030674 
25.61899433992188 1:0.60430461 2:0.81675986 3:0.26934192 4:-0.32552213 5:-0.27808913 6:-0.15899889 7:-0.067689118 8:-0.15939849 9:0.054735256 10:0.031777852 11:0.50607482 12:-0.13449892 13:0.021787891 
26.328064265344 1:0.60717219 2:0.60068454 3:0.17626031 4:-0.25399311 5:-0.35922449 6:-0.28151361 7:-0.2679657 8:-0.14905241 9:0.028780568 10:0.090803216 11:0.31801835 12:-0.14850786 13:-0.15171292 
26.328064265344 1:0.56575527 2:0.48176209 3:0.24244311 4:0.0043876478 5:-0.3352099 6:-0.087593329 7:-0.19258864 8:0.087625817 9:0.048690856 10:0.28358976 11:0.31576093 12:-0.20208428 13:-0.070390611 
26.328064265344 1:0.27937496 2:0.67438128 3:0.25378496 4:-0.37878714 5:-0.35849995 6:-0.13873166 7:-0.33926646 8:-0.20644034 9:0.14999367 10:0.0020218099 11:0.22783945 12:-0.17429916 13:-0.058723922 
26.328064265344 1:0.50776018 2:0.35769861 3:0.22501493 4:0.092129612 5:-0.40394492 6:-0.0648003 7:-0.21143771 8:0.1444725 9:-0.0084402368 10:0.26826416 11:0.2948757 12:-0.15186521 13:-0.14508804 
26.328064265344 1:0.5226217 2:0.097656944 3:0.18374986 4:0.31609825 5:-0.40641917 6:0.078353462 7:-0.12557721 8:0.48101859 9:0.045795447 10:0.34355823 11:-0.031897562 12:-0.22269833 13:-0.45842775 
26.328064265344 1:0.42952963 2:0.38760226 3:0.30196627 4:0.11851973 5:-0.4974301 6:-0.096465637 7:-0.040350766 8:0.38155296 9:0.082839924 10:0.20275258 11:0.16145722 12:-0.17115901 13:-0.045726513 
26.328064265344 1:0.50929538 2:0.68822471 3:0.23924634 4:-0.21571978 5:-0.33493653 6:-0.35182618 7:-0.14920625 8:0.019750611 9:0.20706755 10:0.12525011 11:0.15233906 12:-0.016749391 13:0.19808371 
26.328064265344 1:0.15357104 2:0.28794949 3:0.27240759 4:0.065670761 5:-0.58174296 6:-0.11270614 7:-0.28737104 8:0.19873785 9:0.02434679 10:0.28966027 11:0.21224965 12:0.005699915 13:0.1904105 
26.328064265344 1:-0.80135047 2:-0.14601139 3:0.0932578 4:0.18121642 5:-0.52584602 6:-0.049570941 7:-0.35889897 8:0.32109018 9:-0.031741858 10:0.37018693 11:0.0021538981 12:0.14132668 13:0.10867956 
26.328064265344 1:-0.39963963 2:0.2801323 3:0.24943543 4:-0.092353766 5:-0.41708521 6:0.11794096 7:-0.41100193 8:0.12484961 9:0.14687757 10:0.21035127 11:0.13605107 12:0.082518965 13:0.39862447 
26.328064265344 1:0.039539948 2:0.32716908 3:0.45546595 4:0.45958818 5:-0.35318602 6:-0.057934962 7:-0.32890747 8:0.34938259 9:0.047101978 10:0.38334154 11:0.10495428 12:0.023092041 13:0.074035807 
26.328064265344 1:0.27119704 2:0.69515057 3:0.59210948 4:0.25284203 5:-0.30734262 6:-0.16449121 7:-0.40245697 8:0.11747908 9:0.11047036 10:0.059097696 11:0.070426255 12:0.083239575 13:0.18144297 
26.328064265344 1:-0.20928572 2:0.48661717 3:0.43691461 4:0.39620742 5:-0.25611445 6:-0.21915532 7:-0.21720012 8:0.29589053 9:0.0663797 10:0.33621128 11:0.078951876 12:0.047166012 13:0.10813782 
26.328064265344 1:0.20881633 2:0.6203812 3:0.58840149 4:0.31986783 5:-0.42251416 6:-0.14930387 7:-0.21940779 8:0.28283664 9:0.13036095 10:0.14819992 11:0.15218777 12:0.0046623254 13:0.15361892 
26.328064265344 1:0.44408396 2:0.69580786 3:0.60236976 4:0.18514816 5:-0.46372492 6:-0.16057597 7:-0.20524069 8:-0.004874298 9:-0.18901898 10:-0.11900212 11:0.098016702 12:-0.062243517 13:0.23655381 
26.328064265344 1:0.49665008 2:0.22827785 3:0.31851977 4:0.35923448 5:-0.43367722 6:-0.15672886 7:-0.49701969 8:-0.040949125 9:-0.46960969 10:-0.13343378 11:-0.15156489 12:0.0024866874 13:0.19413425 
26.328064265344 1:0.040008881 2:0.72766081 3:0.48815774 4:0.11740539 5:-0.37409335 6:-0.19795074 7:-0.1000632 8:0.14134753 9:0.00076379598 10:0.079889679 11:0.42314123 12:-0.0084820051 13:0.18128919 
26.328064265344 1:0.51076288 2:0.77304473 3:0.48409447 4:-0.28576114 5:-0.63967284 6:-0.021398633 7:-0.19041015 8:-0.38658538 9:-0.20526943 10:-0.16638533 11:0.028204166 12:-0.19865866 13:0.31256013 
26.328064265344 1:0.11970964 2:0.4665726 3:0.45119684 4:-0.1085971 5:-0.76616726 6:0.057324579 7:-0.10771617 8:-0.12973763 9:-0.2671011 10:0.19252854 11:0.36566881 12:-0.30547843 13:0.16143585 
26.328064265344 1:0.24191382 2:0.21286977 3:0.31175625 4:0.30408923 5:-0.43578485 6:-0.076545705 7:-0.23465165 8:0.23605633 9:-0.18247625 10:0.15532319 11:0.1844671 12:0.19204181 13:0.21275504 
26.328064265344 1:0.50574315 2:0.51138251 3:0.43041921 4:0.1689728 5:-0.41516372 6:-0.11150005 7:-0.065408776 8:0.22684061 9:-0.089644151 10:-0.041832395 11:0.15345278 12:0.0956048 13:0.5187712 
26.328064265344 1:0.62861432 2:0.27768985 3:0.35811866 4:0.25206181 5:-0.49767382 6:-0.16724338 7:-0.19803871 8:0.27528437 9:-0.14140514 10:0.04512157 11:0.1076054 12:0.20787918 13:0.55272575 
26.328064265344 1:0.28427955 2:0.27703792 3:0.32188343 4:0.30010841 5:-0.39330636 6:-0.15284447 7:-0.17687897 8:0.28438051 9:-0.1200436 10:0.10168631 11:0.063963799 12:0.17568789 13:0.41251829 
26.328064265344 1:0.52908815 2:0.16879546 3:0.27401703 4:0.30585331 5:-0.49083047 6:-0.13759537 7:-0.30328005 8:0.28281462 9:-0.12506375 10:0.18180869 11:0.11402674 12:0.18063239 13:0.39479999 
24.08428976395255 1:0.68783205 2:0.69840114 3:0.24318907 4:-0.26516742 5:-0.36952402 6:-0.4801903 7:-0.12493348 8:-0.025847122 9:0.13672739 10:-0.068813525 11:0.19163428 12:0.32808896 13:1 
26.328064265344 1:0.35353726 2:-0.10588947 3:0.27506532 4:0.36044602 5:-0.69309955 6:-0.16827209 7:-0.41784646 8:0.30945256 9:-0.28269663 10:0.04763976 11:-0.13446067 12:0.2228476 13:0.44072161 
2.584111552869295 1:0.59355371 2:0.42096867 3:0.38284353 4:0.0030832403 5:-0.65203833 6:-0.35109736 7:-0.17597025 8:0.16251944 9:-0.17476923 10:-0.16778184 11:0.15312293 12:0.18236815 13:0.74617069 
26.328064265344 1:0.64015589 2:0.12600558 3:0.25739862 4:0.25921305 5:-0.56978586 6:-0.27624602 7:-0.40340449 8:0.21201539 9:-0.18158167 10:0.10603465 11:0.12102716 12:0.25437826 13:0.51958903 
7.748896432929273 1:0.34942691 2:-0.34566158 3:0.040000928 4:0.23406715 5:-0.79591745 6:-0.33181965 7:-0.69016849 8:0.077505368 9:-0.49245581 10:-0.051144516 11:-0.24784525 12:0.17500178 13:0.28235226 
8.9822530996605 1:0.67556656 2:0.8110398 3:0.51124968 4:-0.28472305 5:-0.63977178 6:-0.19866507 7:0.042583925 8:-0.13256294 9:-0.13432014 10:-0.18039474 11:0.39380118 12:0.21019282 13:0.65798211 
26.328064265344 1:0.30339085 2:0.099449741 3:0.33871053 4:0.29429675 5:-0.62744736 6:-0.15192638 7:-0.31848496 8:0.28147108 9:-0.21791983 10:0.068868952 11:0.090593191 12:0.27942028 13:0.52302952 
26.328064265344 1:0.30367864 2:0.17705279 3:0.39584149 4:0.27449637 5:-0.65333506 6:-0.16662731 7:-0.288135 8:0.26727898 9:-0.22476446 10:0.044257667 11:0.11078485 12:0.23761659 13:0.5075718 
8.59930831571646 1:0.71307886 2:0.7883899 3:0.51303019 4:-0.4006712 5:-0.81734432 6:-0.39077201 7:-0.046081432 8:-0.17885719 9:-0.10927888 10:-0.19111303 11:0.23540158 12:0.16978877 13:0.70025719 
2.910864906734201 1:0.38199923 2:0.013630553 3:0.099313971 4:0.071781004 5:-0.70038724 6:-0.41502101 7:-0.49628105 8:0.095263771 9:-0.29441339 10:-0.021248952 11:-0.074815013 12:0.083068874 13:0.28043611 
26.328064265344 1:0.36832591 2:0.16915827 3:0.18074666 4:0.11596635 5:-0.5869543 6:-0.4335784 7:-0.37134857 8:0.12511838 9:-0.22744132 10:-0.0035469882 11:-0.021304131 12:0.16063405 13:0.46285454 
26.328064265344 1:0.66546133 2:0.31848629 3:0.29505553 4:0.097704788 5:-0.64146647 6:-0.39806662 7:-0.40400261 8:0.16449809 9:-0.097083112 10:0.042274681 11:0.012098866 12:0.041752854 13:0.4145758 
26.328064265344 1:0.37707527 2:0.69850826 3:0.39875667 4:-0.13331449 5:-0.4899453 6:-0.51294596 7:-0.068836437 8:0.17003201 9:0.014981547 10:-0.30365037 11:0.15428948 12:0.24292069 13:0.77174236 
26.328064265344 1:0.57563462 2:0.49204481 3:0.3914726 4:0.054535674 5:-0.60384565 6:-0.38565903 7:-0.32331701 8:0.13495257 9:-0.048807978 10:-0.048997098 11:0.037335547 12:0.062486335 13:0.56037589 
15.97618491203328 1:0.35719556 2:0.46532632 3:0.53458574 4:0.018419762 5:-0.80891025 6:-0.28045859 7:-0.20917017 8:0.17310777 9:-0.13591332 10:-0.1054739 11:0.15777185 12:0.076914817 13:0.5802256 
26.328064265344 1:0.55552049 2:0.49738438 3:0.39003065 4:0.06371172 5:-0.56081762 6:-0.25803787 7:-0.34450122 8:-0.018308555 9:-0.16080909 10:0.18613338 11:0.3369878 12:-0.03713527 13:0.10386434 
0.6870773617463784 1:0.68732887 2:0.73271929 3:0.35331037 4:-0.35609263 5:-0.71217937 6:-0.4153929 7:-0.25658193 8:-0.24351565 9:-0.050697526 10:0.07902409 11:0.33210605 12:-0.26271504 13:0.029659111 
26.328064265344 1:0.60750276 2:0.45674216 3:0.27937191 4:0.090715823 5:-0.55143805 6:-0.29342332 7:-0.32493397 8:0.12458047 9:0.03723683 10:0.25742638 11:0.33418168 12:-0.16609196 13:-0.034115854 
26.328064265344 1:0.6543119 2:0.083415645 3:0.14245733 4:0.12652454 5:-0.63002541 6:-0.38031651 7:-0.54740619 8:0.12949501 9:-0.094941348 10:0.27564593 11:0.028161467 12:-0.1799166 13:-0.24961938 
26.328064265344 1:0.32403821 2:0.17917647 3:0.19336313 4:0.18331662 5:-0.51692932 6:-0.33929526 7:-0.44781894 8:0.17266666 9:-0.035250705 10:0.32183009 11:0.084164595 12:-0.13865024 13:-0.20500321 
26.328064265344 1:0.6337299 2:0.21705483 3:0.27053959 4:0.13614135 5:-0.61020538 6:-0.21803663 7:-0.23645888 8:0.31818496 9:-0.025660303 10:0.23148128 11:0.14246436 12:-0.093303141 13:-0.11581055 
26.328064265344 1:0.63003616 2:0.15491503 3:0.27562343 4:0.21303034 5:-0.60591567 6:-0.27184052 7:-0.28377182 8:0.37220475 9:0.033518843 10:0.28804587 11:0.13716033 12:-0.065814776 13:-0.18753369 
26.328064265344 1:0.31363236 2:-0.21683136 3:0.20171547 4:0.34507156 5:-0.76301969 6:-0.20978919 7:-0.41204404 8:0.47964839 9:-0.09579165 10:0.31307324 11:-0.037792612 12:0.090917305 13:-0.098071358 
26.328064265344 1:0.56236701 2:0.55293003 3:0.37024186 4:-0.025395379 5:-0.54774878 6:-0.29162473 7:-0.12308678 8:0.26053639 9:0.15994518 10:0.27836616 11:0.44692967 12:-0.12430052 13:-0.018116186 
26.328064265344 1:0.67222198 2:0.15847625 3:0.2290965 4:0.14123793 5:-0.65046444 6:-0.37240084 7:-0.41243123 8:0.28803577 9:0.065085908 10:0.40132972 11:0.20102109 12:-0.1155661 13:-0.25755579 
14.46791704663962 1:0.34769814 2:-0.18199391 3:0.2032869 4:0.22154252 5:-0.92793651 6:-0.42362925 7:-0.58944323 8:0.31924784 9:-0.10276291 10:0.44198785 11:0.21768778 12:0.11192679 13:-0.14888043 
26.328064265344 1:0.55188808 2:0.68026228 3:0.42276734 4:0.0094358331 5:-0.45101743 6:-0.35851734 7:-0.10210267 8:0.22898504 9:0.20406439 10:0.32576 11:0.37989691 12:-0.19082227 13:-0.02503169 
26.328064265344 1:0.63316731 2:0.073802772 3:0.18557634 4:0.17849359 5:-0.59420459 6:-0.25413466 7:-0.31709585 8:0.36453373 9:0.057278469 10:0.34274355 11:0.011073959 12:-0.25882866 13:-0.51194918 
26.328064265344 1:0.6747226 2:0.43543724 3:0.34743723 4:-0.068123903 5:-0.72084173 6:-0.50231 7:-0.15687654 8:0.29156918 9:0.17624716 10:0.15052895 11:0.18169859 12:-0.31122693 13:-0.13255008 
9.901387512080895 1:0.55923385 2:0.58993579 3:0.38306763 4:-0.10761604 5:-0.57143788 6:-0.48466141 7:-0.076111864 8:0.26802772 9:0.27953277 10:0.22199002 11:0.24295849 12:-0.32076655 13:-0.18486323 
26.328064265344 1:0.62864698 2:0.29795842 3:0.27835696 4:-0.019298504 5:-0.73350555 6:-0.44594108 7:-0.21755043 8:0.33059559 9:0.1454321 10:0.23228713 11:0.21389321 12:-0.27370479 13:-0.27893428 
19.73862446889731 1:0.28373032 2:-0.0067291825 3:0.20209358 4:0.00086786586 5:-0.94776313 6:-0.60439745 7:-0.46596439 8:0.29269862 9:-0.051236943 10:0.044382705 11:-0.23314291 12:-0.41799385 13:-0.49391748 
26.328064265344 1:0.54512611 2:0.25380721 3:0.27545978 4:-0.019392551 5:-0.75175576 6:-0.4604882 7:-0.20835601 8:0.37010816 9:0.16259196 10:0.24205097 11:0.19786449 12:-0.25014375 13:-0.21563361 
26.328064265344 1:0.57642369 2:0.51119689 3:0.45643331 4:0.011938352 5:-0.64183669 6:-0.33853778 7:-0.011113052 8:0.40171964 9:0.17885809 10:0.15189305 11:0.26499161 12:-0.21842323 13:-0.16806905 
26.328064265344 1:0.57969302 2:0.1265469 3:0.20510355 4:0.11813798 5:-0.66474836 6:-0.39105561 7:-0.37228576 8:0.3353495 9:0.095570714 10:0.40904157 11:0.27661824 12:0.027548018 13:-0.028404183 
26.328064265344 1:0.57105668 2:0.13842633 3:0.24014334 4:0.23889051 5:-0.60467872 6:-0.29486088 7:-0.35829268 8:0.41678701 9:0.11641954 10:0.45770642 11:0.16095547 12:-0.034978269 13:-0.14118731 
26.328064265344 1:0.26867463 2:-0.062424154 3:0.19220666 4:0.18799956 5:-0.7869935 6:-0.38838046 7:-0.45260527 8:0.40227034 9:0.044103348 10:0.36804433 11:0.046562451 12:-0.069242081 13:-0.21026483 
26.328064265344 1:0.49969438 2:0.082569258 3:0.22906891 4:0.24601776 5:-0.61068082 6:-0.27881513 7:-0.29723797 8:0.52359403 9:0.21379843 10:0.52453979 11:0.19232669 12:-0.01604896 13:-0.12498316 
26.328064265344 1:0.56620498 2:0.21274863 3:0.34996595 4:0.28435346 5:-0.6046763 6:-0.33332887 7:-0.33963476 8:0.41886186 9:0.0979138 10:0.33467694 11:0.050087653 12:-0.048849938 13:-0.067170869 
26.328064265344 1:0.17622076 2:0.37352126 3:0.38746303 4:0.2660359 5:-0.52095019 6:-0.43269034 7:-0.25179542 8:0.36468098 9:0.059396516 10:0.22347726 11:0.035051152 12:0.045736291 13:0.23332706 
26.328064265344 1:0.4696176 2:0.24417626 3:0.35044217 4:0.18039018 5:-0.64803772 6:-0.2969568 7:-0.18827793 8:0.42408326 9:0.045535871 10:0.19355514 11:0.039243276 12:-0.16831149 13:-0.3173935 
26.328064265344 1:0.47465101 2:0.20008954 3:0.30989465 4:0.23493259 5:-0.5908303 6:-0.26783894 7:-0.2703706 8:0.39513723 9:0.021697812 10:0.2324995 11:-0.029414787 12:-0.1714797 13:-0.27421219 
26.328064265344 1:0.45729674 2:0.37036515 3:0.48889213 4:0.081415877 5:-0.73489169 6:-0.32026841 7:0.013471576 8:0.45136158 9:0.056256191 10:0.038961405 11:0.13214755 12:-0.1308052 13:-0.29736141 
26.328064265344 1:0.13708799 2:-0.22732506 3:0.19926808 4:0.4355517 5:-0.64156853 6:-0.14364196 7:-0.44998659 8:0.48468966 9:-0.029022257 10:0.38557813 11:-0.18593764 12:-0.12371597 13:-0.37218467 
6.128692347036362 1:0.26348336 2:0.094301327 3:0.16193348 4:0.097502525 5:-0.63580749 6:-0.28350597 7:-0.26132353 8:0.32253925 9:-0.028070659 10:0.1338798 11:-0.03988313 12:-0.24890417 13:-0.3753295 
26.328064265344 1:0.5449336 2:0.7296669 3:0.53963854 4:-0.38487674 5:-0.80904446 6:-0.39338812 7:0.20200234 8:0.24468869 9:0.28173744 10:0.029456028 11:0.12353235 12:-0.38561772 13:-0.11492448 
26.328064265344 1:0.2846563 2:0.085615162 3:0.20635716 4:0.22003524 5:-0.59860446 6:-0.25634522 7:-0.32378209 8:0.37646378 9:0.028847053 10:0.23761588 11:-0.17535305 12:-0.36077597 13:-0.54093385 
26.328064265344 1:0.18712348 2:0.35530768 3:0.39369399 4:0.17985655 5:-0.55343669 6:-0.23272256 7:-0.14241777 8:0.45264515 9:0.18852728 10:0.28331839 11:0.10189132 12:-0.19264319 13:-0.17727029 
6.804333776882177 1:0.21497107 2:0.13044257 3:0.26641021 4:0.18033933 5:-0.65377812 6:-0.4021855 7:-0.29420718 8:0.46917739 9:0.19302144 10:0.27404071 11:-0.1902959 12:-0.56129526 13:-0.71643441 
26.328064265344 1:0.23145126 2:0.14350443 3:0.3114739 4:0.29039873 5:-0.56397187 6:-0.28282144 7:-0.26080211 8:0.53091816 9:0.2326847 10:0.39387092 11:-0.089890066 12:-0.24502729 13:-0.32654796 
26.328064265344 1:0.095064598 2:0.57551084 3:0.61052771 4:0.15110833 5:-0.47787842 6:-0.12826786 7:-0.039137196 8:0.49417757 9:0.31384166 10:0.16192424 11:-0.16167469 12:-0.34081358 13:-0.084198053 
26.328064265344 1:-0.1061855 2:0.044641211 3:-0.010759063 4:0.054777258 5:-0.3388451 6:0.077878929 7:-0.16862684 8:0.21558706 9:-0.0014568705 10:0.42072515 11:0.4712914 12:0.12303685 13:0.055153069 
26.328064265344 1:0.08240825 2:0.62626039 3:0.42035647 4:-0.058702997 5:-0.23755439 6:0.06560244 7:-0.34805149 8:-0.2437384 9:-0.23196616 10:-0.10137482 11:0.28800587 12:0.06461739 13:0.067771812 
26.328064265344 1:0.1453733 2:0.62393602 3:0.5582869 4:0.15237161 5:-0.44225945 6:-0.16930437 7:-0.2523201 8:-0.11788085 9:-0.28342393 10:-0.1931648 11:0.062764594 12:0.2238388 13:0.53106211 
26.328064265344 1:-0.016938348 2:0.27072361 3:0.53560892 4:0.28742893 5:-0.71923971 6:-0.22695057 7:-0.30486115 8:0.086454964 9:-0.45811068 10:-0.28425249 11:-0.090020097 12:0.067225947 13:0.20354233 
12.01339493539722 1:0.37999493 2:0.49133095 3:0.38580479 4:0.0096863187 5:-0.62709706 6:-0.38031787 7:-0.3262922 8:-0.14365947 9:-0.39389383 10:-0.24663833 11:0.2065862 12:0.096156863 13:0.37841871 
26.328064265344 1:0.11195619 2:0.024213025 3:0.30272825 4:0.15886338 5:-0.85590902 6:-0.35321278 7:-0.38525223 8:0.21877661 9:-0.31578465 10:-0.0049320628 11:0.17503759 12:0.37946346 13:0.61885406 
26.328064265344 1:0.21920297 2:-0.16523051 3:0.10490182 4:0.30976765 5:-0.5806857 6:-0.21553339 7:-0.50729966 8:0.24312083 9:-0.20443945 10:0.22513594 11:-0.0032652834 12:0.19127186 13:0.19020418 
26.328064265344 1:0.58708283 2:0.41485816 3:0.2706391 4:0.17491317 5:-0.35406528 6:-0.14819327 7:-0.23308176 8:0.17746577 9:-0.018976022 10:0.24800097 11:0.29409598 12:0.047336593 13:0.14265606 
26.328064265344 1:0.73398585 2:0.032717616 3:0.15029898 4:0.21653752 5:-0.55396149 6:-0.21836913 7:-0.41151131 8:0.22407314 9:-0.13889709 10:0.2626386 11:0.14127717 12:0.1342704 13:0.17321716 
26.328064265344 1:0.36529231 2:-0.10597728 3:0.11792837 4:0.33328807 5:-0.45472804 6:-0.062707528 7:-0.37587025 8:0.31504187 9:-0.077446204 10:0.3740489 11:0.10116125 12:0.074647755 13:0.002235585 
26.328064265344 1:0.68675298 2:0.35448009 3:0.26836539 4:0.015285564 5:-0.54246857 6:-0.18829359 7:-0.16808112 8:0.21407979 9:-0.043057056 10:0.20409823 11:0.30562099 12:0.071765856 13:0.20825489 
26.328064265344 1:0.45894312 2:0.16688704 3:0.24966907 4:0.13949666 5:-0.59373881 6:-0.11058017 7:-0.17421827 8:0.29948596 9:-0.11914376 10:0.15196103 11:0.18535205 12:0.092435754 13:0.17028318 
26.328064265344 1:0.81554825 2:0.011877805 3:0.094212109 4:0.16137712 5:-0.53752948 6:-0.16090134 7:-0.32431166 8:0.23907553 9:-0.10589641 10:0.254293 11:0.19907334 12:0.11545569 13:0.21049218 
26.328064265344 1:0.84100417 2:0.27172145 3:0.19449994 4:-0.0068757331 5:-0.55565105 6:-0.16917047 7:-0.13907242 8:0.19087242 9:-0.10019382 10:0.1341919 11:0.28760349 12:0.049596186 13:0.20334229 
26.328064265344 1:0.40088003 2:-0.022436241 3:0.20180786 4:0.18303432 5:-0.69831958 6:-0.11753862 7:-0.27702464 8:0.35914162 9:-0.098240327 10:0.28111816 11:0.15720255 12:0.070472124 13:0.015189941 
26.328064265344 1:0.76293453 2:0.095118393 3:0.12302731 4:0.027571198 5:-0.64333565 6:-0.24160837 7:-0.25163457 8:0.25328324 9:-0.093163739 10:0.18886647 11:0.1855155 12:0.039068284 13:0.079451283 
26.328064265344 1:0.39466223 2:0.18747852 3:0.022218091 4:-0.013193176 5:-0.48607728 6:-0.46173127 7:-0.16197702 8:0.15293707 9:-0.081170603 10:0.2050736 11:0.038080334 12:0.049873074 13:-0.07501115 
26.328064265344 1:0.38673105 2:0.015353097 3:0.1556287 4:0.10115781 5:-0.70074181 6:-0.2444349 7:-0.30663026 8:0.2886068 9:-0.1457136 10:0.14360613 11:0.10694019 12:0.075147212 13:0.080899108 
26.328064265344 1:0.67942961 2:0.6302698 3:0.2356527 4:-0.28417995 5:-0.54949083 6:-0.1225788 7:-0.054664567 8:-0.1266067 9:-0.13847803 10:-0.001607256 11:0.45991144 12:-0.27826937 13:0.10063897 
10.94744187655177 1:0.69421201 2:0.88052403 3:0.44912261 4:-0.67535291 5:-0.51697641 6:0.092190482 7:-0.003097196 8:-0.37348269 9:0.071699776 10:-0.0029699144 11:0.33896045 12:-0.084383428 13:0.21937734 
26.328064265344 1:0.70530666 2:0.75853369 3:0.26761948 4:-0.49865841 5:-0.56269114 6:-0.1217195 7:0.016933415 8:-0.22810695 9:-0.1308662 10:-0.070244474 11:0.65466452 12:-0.23211743 13:0.14715929 
26.328064265344 1:0.65319178 2:0.50296793 3:0.076498949 4:-0.42984961 5:-0.55180549 6:-0.28032167 7:-0.21699209 8:-0.26318335 9:-0.21482664 10:-0.025332317 11:0.47135306 12:-0.3116531 13:-0.03094548 
0.7031685025280412 1:0.58255026 2:0.56033986 3:0.12391632 4:-0.44710216 5:-0.53433571 6:-0.19504039 7:-0.13317238 8:-0.28425832 9:-0.20563572 10:-0.016846998 11:0.5335509 12:-0.34291153 13:-0.083421754 
8.755799602279843 1:0.65899342 2:0.87450019 3:0.19854673 4:-0.72091583 5:-0.46598666 6:-0.088365223 7:-0.082836254 8:-0.45113116 9:0.059076943 10:-0.064774505 11:0.40476148 12:-0.25363327 13:-0.014554082 
26.328064265344 1:0.60666408 2:0.72593152 3:0.27081911 4:-0.34462851 5:-0.36907917 6:-0.035301432 7:0.065978291 8:-0.093021452 9:0.026872754 10:-0.016062397 11:0.3834893 12:-0.24614993 13:-0.094091124 
26.328064265344 1:0.53621605 2:0.1327329 3:0.1080041 4:0.17439881 5:-0.35532116 6:0.09371277 7:-0.14773501 8:0.20895286 9:-0.087642692 10:0.22072507 11:0.14997206 12:-0.20701862 13:-0.25053159 
26.328064265344 1:0.43963938 2:0.24646992 3:0.13175437 4:0.045540949 5:-0.42316156 6:0.026389911 7:-0.091997316 8:0.17580872 9:-0.13095169 10:0.05118661 11:0.097212053 12:-0.24442173 13:-0.19334324 
26.328064265344 1:0.49203033 2:0.38087602 3:0.20035018 4:-0.086669056 5:-0.43651103 6:-0.028633299 7:0.010221266 8:0.1245376 9:-0.078418414 10:0.062546061 11:0.29544204 12:-0.12339716 13:-0.089459243 
26.328064265344 1:0.41056324 2:0.18118556 3:0.13059793 4:0.12251221 5:-0.3722907 6:0.099613598 7:-0.062045137 8:0.26822214 9:-0.035679494 10:0.19423879 11:0.1422069 12:-0.20673971 13:-0.23808024 
26.328064265344 1:0.29590193 2:0.2743413 3:0.18540061 4:0.083267149 5:-0.38633431 6:0.097119302 7:0.021582979 8:0.27926882 9:-0.009352841 10:0.20490096 11:0.32557482 12:-0.091540561 13:-0.11595463 
26.328064265344 1:0.24859604 2:0.040854457 3:0.15787727 4:0.24959624 5:-0.45319337 6:-0.090496641 7:-0.30592004 8:0.26455596 9:-0.10953465 10:0.20990641 11:-0.046034141 12:-0.13207283 13:-0.24343856 
26.328064265344 1:-0.24757313 2:0.39007919 3:0.38854438 4:-0.023466197 5:-0.77739549 6:-0.47320673 7:-0.45575922 8:0.10673909 9:0.12142515 10:0.33441307 11:0.3057417 12:-0.050399504 13:0.2214129 
26.328064265344 1:0.16328588 2:0.065749037 3:0.19784561 4:0.19960556 5:-0.66556158 6:-0.40772544 7:-0.53748729 8:0.21529983 9:-0.096739483 10:0.30697164 11:0.16931182 12:0.14720508 13:0.18390118 
26.328064265344 1:0.43031351 2:0.39012693 3:0.27684656 4:-0.21380391 5:-0.85960085 6:-0.52632336 7:-0.21760495 8:0.15873813 9:-0.019291236 10:0.12955522 11:0.44609437 12:0.035674918 13:0.42170334 
26.328064265344 1:-0.25929918 2:-0.10408274 3:0.21239433 4:0.33159982 5:-0.69505373 6:-0.28613964 7:-0.57641862 8:0.27894769 9:-0.13840876 10:0.38461896 11:0.18549366 12:0.25981832 13:0.23586766 
26.328064265344 1:0.32455964 2:0.31437742 3:0.2513699 4:-0.1462857 5:-0.83832487 6:-0.53183994 7:-0.28047462 8:0.20461 9:0.0058673975 10:0.18092677 11:0.3850121 12:0.062966321 13:0.4273914 
26.328064265344 1:0.50540709 2:0.65958567 3:0.36884623 4:-0.2093424 5:-0.41876681 6:0.01842959 7:0.02596754 8:-0.019841387 9:0.0023692709 10:0.26071608 11:0.60627254 12:-0.13371186 13:0.017610929 
26.328064265344 1:0.28504886 2:0.13725258 3:0.08464305 4:-0.090332665 5:-0.66114077 6:-0.24429442 7:-0.28327176 8:0.11536414 9:-0.11671731 10:0.24199176 11:0.36949295 12:0.037533867 13:0.12262679 
18.52026757903038 1:0.33043026 2:0.81807651 3:0.33513759 4:-0.31498051 5:-0.50315356 6:-0.042003875 7:0.029418112 8:-0.10350903 9:0.11239509 10:0.2591978 11:0.76393649 12:-0.15330019 13:0.065992517 
16.08205001734903 1:0.10787957 2:0.18451304 3:0.11991947 4:-0.19095329 5:-0.81641118 6:-0.37112163 7:-0.34300751 8:0.051072969 9:-0.1338435 10:0.23367723 11:0.46433692 12:0.030710262 13:0.10351275 
22.51716827403047 1:0.48098937 2:0.54708942 3:0.082423349 4:-0.634666 5:-0.84864428 6:-0.45877911 7:-0.21754426 8:-0.31043069 9:-0.18802455 10:0.042881838 11:0.79052296 12:-0.00054188142 13:0.33280395 
7.603879467015211 1:0.24503759 2:0.11792673 3:0.12321824 4:-0.16921361 5:-0.82884255 6:-0.24106716 7:-0.32297188 8:0.0067939226 9:-0.20361926 10:0.30431083 11:0.61108032 12:0.087363564 13:0.16349858 
4.243174978887478 1:0.57746671 2:0.83293144 3:0.28442875 4:-0.62787188 5:-0.6365697 6:-0.15984124 7:-0.0081831219 8:-0.3447401 9:0.038048736 10:0.22560704 11:0.75413181 12:-0.070695795 13:0.16788296 
26.328064265344 1:0.68231796 2:0.29146194 3:0.29379033 4:0.12222344 5:-0.60448179 6:-0.28712117 7:-0.30875085 8:0.23016246 9:-0.053393175 10:0.22173882 11:0.24843906 12:0.036697107 13:0.15225896 
2.879819813940037 1:0.58780066 2:0.19708966 3:0.27360923 4:0.15165739 5:-0.64873861 6:-0.2856516 7:-0.33775227 8:0.19317473 9:-0.12836045 10:0.31255383 11:0.43878416 12:0.1772175 13:-0.015912419 
24.37938014401038 1:0.70829278 2:0.50938782 3:0.13184667 4:-0.21113802 5:-0.47429754 6:-0.43233417 7:-0.36257585 8:-0.22008833 9:-0.066491921 10:0.34676146 11:0.71341748 12:0.091142925 13:0.16860304 
26.328064265344 1:0.36665713 2:0.36525554 3:0.22150896 4:0.0065461292 5:-0.5106128 6:-0.26237368 7:-0.42313321 8:-0.080016425 9:-0.11025709 10:0.36016362 11:0.54338915 12:0.020304675 13:0.04818024 
26.328064265344 1:0.66122242 2:0.060044665 3:0.10072172 4:0.22849121 5:-0.48396314 6:-0.16417224 7:-0.5066447 8:0.10571532 9:-0.058960684 10:0.53404496 11:0.45670231 12:0.10315659 13:0.0078393292 
26.328064265344 1:0.55829494 2:0.13952335 3:0.09803244 4:0.092859006 5:-0.54939159 6:-0.21992528 7:-0.45675341 8:0.04313995 9:-0.061858477 10:0.50600003 11:0.59890478 12:0.095806298 13:0.023173909 
9.601233944496897 1:0.65095164 2:0.62951303 3:0.13417792 4:-0.084084333 5:-0.15492599 6:-0.41622075 7:-0.13765006 8:-0.1478786 9:0.080294329 10:0.47284833 11:0.59316208 12:0.12437352 13:0.0058684548 
26.328064265344 1:0.63392054 2:0.10653825 3:0.1438895 4:0.28794431 5:-0.4201997 6:-0.1365309 7:-0.50255001 8:0.12903991 9:-0.014529041 10:0.54442801 11:0.43561331 12:0.072505637 13:-0.055122187 
26.328064265344 1:0.32427618 2:-0.22537811 3:0.060685709 4:0.21218671 5:-0.6720377 6:-0.19315156 7:-0.59186871 8:0.12068559 9:-0.18242036 10:0.48498846 11:0.35884451 12:0.15807749 13:-0.077269968 
26.328064265344 1:0.53327918 2:0.14300722 3:0.080701189 4:0.0812304 5:-0.52237137 6:-0.19949845 7:-0.44257062 8:0.080695378 9:-0.010947818 10:0.50442316 11:0.5956386 12:0.13739803 13:0.12901552 
26.328064265344 1:0.61706162 2:0.12307849 3:0.096614169 4:0.034725901 5:-0.56298667 6:-0.23434168 7:-0.45621316 8:0.050393639 9:-0.065825256 10:0.42655998 11:0.41351996 12:-0.00074069953 13:0.0017124053 
26.328064265344 1:0.28041404 2:0.50573933 3:0.22382398 4:-0.31734655 5:-0.62303525 6:-0.037336172 7:-0.42700566 8:-0.33997895 9:0.0041789911 10:0.38199979 11:0.37658868 12:-0.31837263 13:0.15795722 
26.328064265344 1:0.55913386 2:0.32486387 3:0.18543272 4:0.065486829 5:-0.36681398 6:-0.067170049 7:-0.26822739 8:0.068618832 9:0.04129028 10:0.43889933 11:0.46243845 12:-0.12911674 13:-0.14960054 
26.328064265344 1:0.49964316 2:0.52993002 3:0.15953399 4:-0.1199272 5:-0.28563684 6:-0.15796105 7:-0.23913165 8:-0.091227972 9:0.067062064 10:0.36897234 11:0.50357363 12:-0.21085737 13:-0.10690083 
26.328064265344 1:0.58859384 2:0.25735754 3:0.185384 4:0.11406398 5:-0.36706155 6:-0.057237268 7:-0.28373131 8:0.084968578 9:0.01466155 10:0.46917296 11:0.46140802 12:-0.11215908 13:-0.25714063 
26.328064265344 1:0.55812426 2:0.12481827 3:0.14678472 4:0.24578726 5:-0.41903839 6:-0.05305548 7:-0.32248489 8:0.23675433 9:0.04207352 10:0.49903028 11:0.35813921 12:-0.058538047 13:-0.21260953 
23.23467787300193 1:0.27143649 2:-0.0329636 3:0.16262173 4:0.23570901 5:-0.51492208 6:-0.027609204 7:-0.41231553 8:0.14054762 9:-0.10750868 10:0.48599844 11:0.37708212 12:-0.053738759 13:-0.36743263 
26.328064265344 1:0.58955177 2:0.12583664 3:0.15283518 4:0.14901872 5:-0.46087699 6:-0.085468281 7:-0.27751591 8:0.19314393 9:-0.048371846 10:0.38893434 11:0.35193632 12:0.0026868479 13:-0.1836384 
26.328064265344 1:0.58608426 2:0.13968198 3:0.13504424 4:0.12700735 5:-0.42625957 6:-0.071756306 7:-0.28993007 8:0.14765705 9:-0.033742504 10:0.39424275 11:0.30354045 12:-0.11871133 13:-0.26607082 
26.328064265344 1:0.49468495 2:0.59682517 3:0.1820406 4:-0.19925506 5:-0.30689194 6:-0.077007405 7:-0.072387473 8:-0.092519556 9:0.042844514 10:0.28111517 11:0.49354265 12:-0.35358591 13:-0.19217478 
14.8127834212695 1:0.58083835 2:0.67053672 3:0.077184215 4:-0.18068341 5:-0.12781468 6:-0.38669857 7:0.030345017 8:-0.047159855 9:0.13192309 10:0.32868823 11:0.24679936 12:-0.17468675 13:-0.26799117 
26.328064265344 1:0.57678329 2:0.514097 3:0.13706975 4:-0.16833433 5:-0.3346108 6:-0.15143719 7:-0.13233921 8:0.024285418 9:0.10970674 10:0.33533972 11:0.43866328 12:-0.29221147 13:-0.19970351 
26.328064265344 1:0.24706179 2:-0.080999348 3:0.13461946 4:0.24227158 5:-0.56409847 6:-0.04079573 7:-0.3984803 8:0.25704854 9:-0.0871514 10:0.37286073 11:0.029966569 12:-0.18527409 13:-0.35927696 
26.328064265344 1:0.50605905 2:0.46149537 3:0.14269846 4:-0.11958195 5:-0.40586229 6:-0.065787745 7:-0.18061949 8:-0.0084275949 9:0.037767545 10:0.31334818 11:0.4145582 12:-0.40630737 13:-0.24889196 
26.328064265344 1:0.6067317 2:0.59045612 3:0.15821018 4:-0.22243543 5:-0.33013336 6:-0.13111911 7:-0.12812322 8:-0.0411477 9:0.10968683 10:0.3164175 11:0.48450523 12:-0.35382133 13:-0.15518648 
26.328064265344 1:0.55194352 2:0.21402926 3:0.082233221 4:-0.034774145 5:-0.50380529 6:-0.095952639 7:-0.26427418 8:0.084740045 9:0.020180271 10:0.41229251 11:0.39916032 12:-0.27656335 13:-0.29574924 
26.328064265344 1:0.47110371 2:0.3776531 3:0.16842978 4:-0.19039007 5:-0.49972754 6:-0.054244578 7:-0.15792653 8:-0.069255198 9:-0.063442082 10:0.2941363 11:0.44083339 12:-0.38814067 13:-0.34378527 
26.328064265344 1:0.55347779 2:0.12828857 3:0.098032182 4:-0.053453982 5:-0.55221447 6:-0.02902176 7:-0.16535282 8:0.099843814 9:-0.12138677 10:0.27295083 11:0.33005395 12:-0.26588941 13:-0.42139459 
26.328064265344 1:0.52563814 2:-0.045492724 3:0.054011141 4:0.24015404 5:-0.37654177 6:0.037639322 7:-0.21989294 8:0.35506289 9:0.11410851 10:0.53535131 11:0.30658891 12:-0.15838936 13:-0.41219636 
26.328064265344 1:0.5162045 2:0.5196979 3:0.18029739 4:-0.10335881 5:-0.15546769 6:0.014801673 7:-0.011332268 8:0.19863509 9:0.35279356 10:0.40041873 11:0.51216467 12:-0.29750289 13:-0.4768934 
26.328064265344 1:0.15621926 2:-0.23231834 3:0.10653574 4:0.31966305 5:-0.50798035 6:0.12169188 7:-0.26344919 8:0.40851274 9:0.028969311 10:0.5724316 11:0.16255067 12:-0.186347 13:-0.49698294 
26.328064265344 1:0.30329763 2:0.57741762 3:0.27585988 4:-0.16027706 5:-0.40290147 6:0.11176825 7:0.12776217 8:0.14651879 9:0.15065808 10:0.31259918 11:0.47463657 12:-0.4023022 13:-0.31587434 
26.328064265344 1:-0.008354502 2:-0.0082119094 3:0.15205255 4:0.26338275 5:-0.45568722 6:-0.023666768 7:-0.31578427 8:0.32428804 9:0.063803768 10:0.51543725 11:0.20595019 12:-0.13175465 13:-0.3104529 
26.328064265344 1:0.15447594 2:0.32007849 3:0.21665622 4:0.056755061 5:-0.41779891 6:0.1192693 7:0.083996408 8:0.35001576 9:0.083635297 10:0.28888586 11:0.31790795 12:-0.20667897 13:-0.21821557 
26.328064265344 1:0.17336855 2:0.22768459 3:0.33433004 4:0.23458717 5:-0.49722939 6:-0.029742138 7:0.027594662 8:0.56594026 9:0.18467183 10:0.34845503 11:0.17644369 12:-0.071204895 13:0.0025180859 
26.328064265344 1:0.14072217 2:0.70852911 3:0.45859575 4:-0.15932503 5:-0.46437012 6:0.059573147 7:0.0059265292 8:0.17910049 9:0.27882654 10:0.25921635 11:0.33920273 12:-0.12569029 13:0.088946093 
26.328064265344 1:-0.21776882 2:-0.097820659 3:0.2434617 4:0.41344528 5:-0.55291348 6:-0.039746435 7:-0.23326205 8:0.59848833 9:0.11449135 10:0.46983343 11:0.067115646 12:0.041030183 13:-0.10252052 
26.328064265344 1:-0.01670166 2:0.65582358 3:0.44254114 4:-0.12853621 5:-0.43766299 6:0.11564011 7:-0.036422174 8:0.20864364 9:0.34569641 10:0.3205165 11:0.3191006 12:-0.16525846 13:0.14129235 
26.328064265344 1:0.12983338 2:0.45552571 3:0.38729036 4:0.17938855 5:-0.42297445 6:0.029581985 7:0.043902075 8:0.42772722 9:0.18228649 10:0.23842325 11:0.16270198 12:-0.15095405 13:0.080776881 
26.328064265344 1:0.00036904879 2:0.33805699 3:0.35409867 4:0.25090172 5:-0.45063595 6:-0.00024756491 7:-0.028069151 8:0.46556796 9:0.14638368 10:0.32745528 11:0.19394077 12:-0.035610414 13:0.11261401 
26.328064265344 1:0.1352534 2:0.47805131 3:0.44272621 4:0.17721016 5:-0.47053479 6:-0.089448298 7:-0.030130544 8:0.38388057 9:0.2101669 10:0.33814634 11:0.19807658 12:-0.13000367 13:-0.059377301 
26.328064265344 1:0.1265526 2:0.4394472 3:0.41178346 4:0.071836365 5:-0.5302123 6:-0.12759496 7:0.0038234454 8:0.4008772 9:0.063085052 10:0.026937646 11:-0.024094424 12:-0.17595898 13:0.26260666 
26.328064265344 1:-0.26257628 2:0.21855733 3:0.36645565 4:0.27141174 5:-0.54551303 6:-0.067014876 7:-0.13433634 8:0.51346259 9:0.22084681 10:0.46041943 11:0.21231348 12:-0.066348738 13:-0.12035613 
26.328064265344 1:0.0034221871 2:0.19205729 3:0.28016955 4:0.19713822 5:-0.52954611 6:-0.11562807 7:-0.10656822 8:0.49280877 9:0.073465511 10:0.18794133 11:-0.040707085 12:-0.063330147 13:0.19445494 
26.328064265344 1:0.1348374 2:0.34554161 3:0.38777077 4:0.20596649 5:-0.51344687 6:-0.12138131 7:-0.10982526 8:0.42136476 9:0.12255038 10:0.30657682 11:0.18080032 12:-0.13544243 13:-0.020967647 
26.328064265344 1:0.1169425 2:0.35053363 3:0.40058425 4:0.23994171 5:-0.49627634 6:-0.068381414 7:-0.0042754108 8:0.48807637 9:0.13116973 10:0.21584074 11:0.0359998 12:-0.21683748 13:-0.085955532 
26.328064265344 1:-0.26344514 2:-0.063217032 3:0.30101742 4:0.4213141 5:-0.60254697 6:-0.046221993 7:-0.30988715 8:0.51756738 9:0.049870696 10:0.48309458 11:0.10520688 12:0.028612607 13:-0.11470329 
26.328064265344 1:0.055121373 2:0.33361955 3:0.39576339 4:0.30402325 5:-0.40745293 6:0.030787914 7:-0.047913794 8:0.51528571 9:0.1178566 10:0.2096023 11:-0.047159129 12:-0.21290734 13:-0.084605962 
15.24475182860103 1:-0.30192944 2:0.33586455 3:0.33460162 4:0.29849528 5:-0.34639897 6:-0.060956302 7:-0.041008402 8:0.52069288 9:0.16726044 10:0.25928287 11:-0.056794663 12:-0.20992231 13:-0.14139669 
26.328064265344 1:0.019350896 2:0.64844381 3:0.569709 4:0.071060554 5:-0.37700076 6:0.16803048 7:0.015427232 8:0.29967145 9:0.19600989 10:0.082943212 11:-0.048142944 12:-0.12837513 13:0.04016283 
26.328064265344 1:0.026225464 2:0.45483871 3:0.45180336 4:0.28007808 5:-0.47910512 6:-0.12637185 7:-0.17595897 8:0.36837438 9:0.12666418 10:0.26348323 11:0.20447249 12:0.060336839 13:0.26830022 
26.328064265344 1:-0.57562179 2:-0.097067487 3:0.062398622 4:0.14238951 5:-0.43193702 6:0.17924084 7:-0.17701755 8:0.23483945 9:-0.049788842 10:0.41014171 11:0.39402804 12:0.15477424 13:0.13017011 
26.328064265344 1:-0.29459401 2:0.14688454 3:0.056172588 4:-0.084395327 5:-0.33175867 6:0.060127875 7:-0.29030426 8:-0.0094828021 9:-0.074846456 10:0.29140232 11:0.36175981 12:-0.078989914 13:-0.076712369 
26.328064265344 1:-0.32311366 2:0.17928464 3:0.16159065 4:-0.18023763 5:-0.42738685 6:0.12414062 7:-0.36413597 8:0.11343226 9:0.15411426 10:0.5236872 11:0.42217526 12:0.24021402 13:0.58552522 
26.328064265344 1:-0.076943692 2:0.45687935 3:0.48398268 4:0.28890978 5:-0.22338521 6:0.020357688 7:-0.32812597 8:0.42214946 9:0.18964846 10:0.32568199 11:0.31093425 12:0.25505015 13:-0.07795885 
26.328064265344 1:-0.70404308 2:-0.051293773 3:0.074188005 4:0.074968268 5:-0.54771092 6:0.028535066 7:-0.29312445 8:0.33575117 9:0.090396095 10:0.51505366 11:0.56878217 12:0.1751865 13:0.17996232 
26.328064265344 1:-0.0677332 2:0.40626501 3:0.50437815 4:0.44394633 5:-0.21986705 6:-0.038610704 7:-0.31736439 8:0.46134112 9:0.12589534 10:0.34929699 11:0.29573194 12:0.26670135 13:-0.10736356 
26.328064265344 1:0.38440788 2:0.2785295 3:0.61781697 4:0.83325024 5:-0.11439938 6:0.29037364 7:-0.15142732 8:0.51104511 9:0.097356503 10:0.48824498 11:-0.0075253902 12:0.10153926 13:-0.23176021 
23.15578773291096 1:0.2200639 2:0.31111749 3:0.63771258 4:0.74679121 5:-0.091856445 6:0.49383227 7:-0.077234399 8:0.39674662 9:0.13800412 10:0.64009264 11:0.29329344 12:0.4801489 13:-0.011554648 
26.328064265344 1:0.0056248081 2:-0.080303432 3:0.50495258 4:0.91808008 5:-0.18561483 6:0.33363379 7:-0.24485805 8:0.57756406 9:-0.0024865763 10:0.51832277 11:0.015364187 12:0.14400163 13:-0.057373723 
23.34823954082004 1:0.055874013 2:0.40664814 3:0.6881345 4:0.61883006 5:-0.20396165 6:0.47617101 7:-0.028681449 8:0.41055945 9:0.13766485 10:0.59608651 11:0.40649849 12:0.57020655 13:0.052139085 
26.328064265344 1:0.13064135 2:0.54702303 3:0.82050492 4:0.68037162 5:-0.14996903 6:0.36264425 7:-0.38306073 8:0.084535033 9:0.11413261 10:0.56399473 11:-0.023406593 12:0.30027788 13:-0.23332989 
26.328064265344 1:0.13955919 2:0.63573928 3:0.9053072 4:0.52136893 5:-0.227909 6:0.41926015 7:-0.34511859 8:-0.024293311 9:0.13386565 10:0.41206026 11:-0.25009514 12:0.36333827 13:-0.17910042 
26.328064265344 1:-0.19941332 2:-0.23942692 3:0.4714809 4:0.98199289 5:-0.20083094 6:0.27907573 7:-0.42364325 8:0.42104027 9:-0.14620231 10:0.48866954 11:0.032876315 12:0.1744782 13:-0.15812789 
26.328064265344 1:0.061181731 2:0.31794346 3:0.65111419 4:0.81198569 5:-0.15637046 6:0.12676743 7:-0.31008138 8:0.36535817 9:-0.020768134 10:0.47247734 11:0.079585222 12:0.1537717 13:-0.07512633 
26.328064265344 1:0.087412448 2:0.2923568 3:0.58867337 4:0.65044574 5:-0.17866955 6:0.41274415 7:-0.10230831 8:0.53358052 9:0.26385761 10:0.68256742 11:0.31997988 12:0.38742252 13:0.11122591 
26.328064265344 1:-0.15599027 2:0.27993913 3:0.46979589 4:0.55569655 5:-0.22065069 6:0.21768631 7:-0.23324315 8:0.36988129 9:0.10813248 10:0.50574389 11:0.26019803 12:0.17863449 13:0.069593187 
24.15858336621335 1:-0.34616094 2:-0.3990919 3:0.2854965 4:0.82415179 5:-0.25387756 6:0.34280227 7:-0.20058501 8:0.74687812 9:0.27054319 10:1 11:0.60186798 12:0.52458951 13:0.28318561 
26.328064265344 1:-0.21917453 2:0.29553542 3:0.47958731 4:0.60428241 5:-0.20478703 6:0.18394781 7:-0.24601775 8:0.37401588 9:0.11348459 10:0.48883323 11:0.16003371 12:0.15230273 13:0.12545301 
26.328064265344 1:-0.12021638 2:0.32778394 3:0.52419867 4:0.46978611 5:-0.24197421 6:0.27945033 7:-0.1756709 8:0.40600273 9:0.21783378 10:0.61433247 11:0.25714277 12:0.23904704 13:0.21037298 
26.328064265344 1:-0.22875819 2:0.36815837 3:0.46032348 4:0.34685877 5:-0.22605638 6:0.13468036 7:-0.33904456 8:0.16179959 9:0.020279009 10:0.42787544 11:0.098211363 12:0.056347899 13:0.13933045 
12.98610621526213 1:-0.58798765 2:0.18311976 3:0.15031319 4:-0.221502 5:-0.41518275 6:0.24240012 7:-0.17552881 8:0.28422618 9:0.0073742379 10:0.069641833 11:0.0043437831 12:-0.24707197 13:-0.0037283189 
26.328064265344 1:0.16363186 2:-0.21831996 3:0.038818071 4:0.33856044 5:-0.42839239 6:-0.095357435 7:-0.40788099 8:0.354119 9:-0.017284098 10:0.36910362 11:-0.10917293 12:-0.10544359 13:-0.16103761 
26.328064265344 1:-0.17547141 2:-0.2533103 3:0.090761792 4:0.45662232 5:-0.35023961 6:0.016754817 7:-0.41582823 8:0.34944561 9:-0.023711751 10:0.44916088 11:0.016665408 12:-0.0042328192 13:-0.12880594 
26.328064265344 1:0.36692457 2:0.25270453 3:0.13029384 4:-0.16479067 5:-0.52803206 6:-0.033825316 7:0.20521575 8:0.30385593 9:-0.13645161 10:-0.27550208 11:-0.15693076 12:-0.36533691 13:-0.064605336 
26.328064265344 1:0.78032768 2:0.085499394 3:0.11649262 4:-0.043562035 5:-0.52875493 6:0.081093612 7:0.22563738 8:0.4244274 9:-0.14794905 10:-0.25074387 11:-0.26776552 12:-0.37438854 13:-0.1623243 
26.328064265344 1:0.7229532 2:0.026751804 3:0.082264991 4:0.13371104 5:-0.34606768 6:0.29817404 7:0.25088876 8:0.51925406 9:-0.057759451 10:-0.075499646 11:-0.26646344 12:-0.37978013 13:-0.23268633 
26.328064265344 1:0.4449424 2:0.013734195 3:0.10732213 4:0.032232196 5:-0.51576956 6:0.11540589 7:0.18509473 8:0.48607908 9:-0.10977567 10:-0.17205714 11:-0.30294975 12:-0.34559336 13:-0.15183777 
23.84378931736467 1:0.68484371 2:0.52780002 3:0.14755326 4:-0.23132271 5:-0.24269942 6:0.14739247 7:0.34219906 8:0.094388392 9:-0.066756039 10:-0.16947577 11:-0.10356521 12:-0.51035416 13:-0.18419115 
12.75957896590165 1:0.6914889 2:0.40380013 3:0.16251812 4:-0.13168972 5:-0.22213437 6:0.35987617 7:0.38725625 8:0.20992286 9:-0.095052348 10:-0.1807656 11:0.040626245 12:-0.44983833 13:-0.10473127 
26.328064265344 1:0.55602817 2:0.11015089 3:0.052593949 4:0.030230159 5:-0.42977694 6:0.079694699 7:-0.022057237 8:0.20294089 9:-0.18890846 10:-0.056365697 11:-0.047656325 12:-0.28446597 13:-0.11009136 
26.328064265344 1:0.71350278 2:0.20244568 3:0.10933071 4:-0.051793163 5:-0.37407939 6:0.22957638 7:0.25369585 8:0.31422785 9:-0.10462785 10:-0.10859438 11:-0.046343526 12:-0.37362518 13:-0.131128 
26.328064265344 1:0.76239744 2:0.1707069 3:0.046538424 4:-0.15445043 5:-0.39701768 6:0.18532764 7:0.27365075 8:0.28061962 9:-0.15093785 10:-0.21572256 11:-0.066635191 12:-0.3564276 13:-0.023192498 
26.328064265344 1:0.34304925 2:-0.18341161 3:0.032109093 4:0.10906726 5:-0.49046222 6:0.26881458 7:0.10649807 8:0.43262089 9:-0.23372308 10:-0.16824148 11:-0.40301897 12:-0.36306626 13:-0.21852584 
10.82187572610721 1:0.57143627 2:-0.088141847 3:-0.092075258 4:-0.16976065 5:-0.53328945 6:0.065043457 7:0.14878805 8:0.36518304 9:-0.10890992 10:-0.16443454 11:-0.27838384 12:-0.44456214 13:-0.2075082 
26.328064265344 1:0.43076053 2:-0.10739542 3:-0.1197538 4:-0.075608037 5:-0.49429326 6:0.085912006 7:0.060546667 8:0.33931469 9:-0.14153106 10:-0.094655562 11:-0.18010106 12:-0.30260655 13:-0.1267825 
26.328064265344 1:0.17190887 2:-0.20580878 3:-0.039475945 4:0.0073708324 5:-0.46359068 6:0.31999215 7:0.28391537 8:0.59013781 9:0.011398927 10:0.018550555 11:-0.18360919 12:-0.3018473 13:-0.079092821 
26.328064265344 1:0.30847187 2:0.0044461816 3:-0.063483379 4:-0.086318657 5:-0.46467668 6:0.083178644 7:0.093596847 8:0.32091522 9:-0.10751187 10:-0.081919393 11:-0.10508642 12:-0.30936974 13:-0.092135418 
17.78843445518301 1:-0.40150057 2:-0.33228183 3:-0.2815399 4:-0.1707411 5:-0.53901135 6:0.052351307 7:-0.22191807 8:0.21843302 9:0.052424892 10:0.49290826 11:0.42015384 12:-0.070565392 13:-0.1395993 
26.328064265344 1:-0.31978943 2:0.26269309 3:0.12985152 4:-0.15146248 5:-0.052165314 6:0.39361775 7:-0.15837528 8:0.17924463 9:0.20705409 10:0.30072685 11:-0.065207997 12:-0.1700456 13:0.30943922 
26.328064265344 1:0.017755899 2:0.44954643 3:0.40953919 4:0.23362791 5:-0.22378422 6:0.17564096 7:-0.12626893 8:0.27913965 9:0.05218448 10:-0.017033585 11:-0.31668045 12:-0.31824675 13:0.029993554 
26.328064265344 1:0.17574227 2:0.6408151 3:0.47913623 4:0.04995346 5:-0.36806232 6:0.035142443 7:0.068890392 8:0.36734501 9:0.25972005 10:0.073241728 11:-0.13656459 12:-0.34392071 13:0.1176728 
26.328064265344 1:-0.30012295 2:0.53249012 3:0.41283067 4:0.28435003 5:-0.11275579 6:0.086316298 7:0.051793141 8:0.22102704 9:0.0047644679 10:-0.06729106 11:-0.45313503 12:-0.2300295 13:-0.064828403 
26.328064265344 1:0.11846332 2:0.66241685 3:0.53513325 4:0.030352896 5:-0.42919583 6:0.026264101 7:0.13337146 8:0.36245179 9:0.22685132 10:0.043760627 11:-0.16069128 12:-0.37191623 13:0.053408907 
26.328064265344 1:0.26296608 2:0.46072956 3:0.47129814 4:0.16819617 5:-0.44834339 6:0.019842321 7:0.21446675 8:0.54949133 9:0.15017081 10:-0.026604861 11:-0.10967918 12:-0.25968356 13:0.068564571 
26.328064265344 1:0.31366496 2:0.31337858 3:0.37661502 4:0.19792144 5:-0.49420216 6:-0.028043048 7:0.056522165 8:0.51029015 9:0.051333197 10:0.01925806 11:-0.152199 12:-0.24113892 13:0.041390735 
26.328064265344 1:-0.068665576 2:0.0029655964 3:0.40923818 4:0.47332927 5:-0.57235058 6:0.044232201 7:-0.075301833 8:0.65436385 9:-0.040873577 10:0.092329907 11:-0.30851669 12:-0.11907566 13:-0.10248915 
26.328064265344 1:0.24273722 2:0.49891657 3:0.39832134 4:0.046651907 5:-0.46598769 6:-0.1173652 7:0.060131897 8:0.3948034 9:0.081911054 10:-0.057716535 11:-0.12724577 12:-0.29394 13:0.15035534 
5.167716034364432 1:0.40772135 2:0.4928566 3:0.24732854 4:-0.076632074 5:-0.36082727 6:0.036440841 7:0.22638706 8:0.28771712 9:0.06083913 10:0.06986356 11:0.17298187 12:-0.30255625 13:-0.21364879 
26.328064265344 1:0.58158442 2:0.63226426 3:0.20708902 4:-0.19702084 5:-0.22644701 6:0.00020579147 7:0.39081701 8:0.24152893 9:0.093853178 10:-0.036519583 11:0.014269319 12:-0.50497647 13:-0.40055325 
0.1887267643696738 1:0.62008922 2:0.92025103 3:0.48310822 4:-0.56102209 5:-0.53356867 6:0.37989601 7:0.5851002 8:-0.20296756 9:0.093309227 10:-0.023090284 11:0.032462765 12:-0.48226127 13:-0.32860975 
26.328064265344 1:0.21416272 2:0.18423681 3:0.21209858 4:0.13215573 5:-0.40086113 6:0.15191572 7:0.11281688 8:0.49693259 9:0.096049841 10:0.17953513 11:-0.07663984 12:-0.41570454 13:-0.41347138 
26.328064265344 1:0.69187986 2:0.8691003 3:0.33197339 4:-0.43111209 5:-0.38640531 6:0.060989941 7:0.60026692 8:0.013779041 9:0.10809737 10:-0.037371071 11:0.082085484 12:-0.42730965 13:-0.39783561 
26.328064265344 1:0.59577129 2:0.072902193 3:0.11200851 4:0.13840258 5:-0.43038864 6:0.12851163 7:0.061292907 8:0.43678439 9:-0.045385428 10:0.056861654 11:-0.13684358 12:-0.3326248 13:-0.35588441 
26.328064265344 1:0.49288626 2:0.26855398 3:0.19329225 4:0.10739175 5:-0.40434515 6:0.078140237 7:0.06433398 8:0.39149062 9:0.021019613 10:0.097810363 11:-0.021991096 12:-0.35531968 13:-0.27571399 
26.328064265344 1:0.0039275944 2:-0.23847795 3:0.096115088 4:0.30565769 5:-0.51156818 6:0.16740537 7:-0.14990747 8:0.46169613 9:-0.12138488 10:0.21398536 11:-0.18810185 12:-0.20791266 13:-0.37534772 
26.328064265344 1:0.171279 2:0.027859409 3:0.11465337 4:0.099983634 5:-0.52185773 6:0.033762875 7:0.11422577 8:0.62963436 9:0.15089844 10:0.24698615 11:0.069962982 12:-0.12256951 13:-0.10797168 
26.328064265344 1:0.28287109 2:-0.0037922187 3:0.031949471 4:-0.022291792 5:-0.6310387 6:-0.19541987 7:-0.13235431 8:0.36647879 9:-0.082221582 10:-0.050072486 11:-0.32925144 12:-0.37481502 13:-0.27819763 
26.328064265344 1:0.29366367 2:0.1869961 3:0.19029409 4:0.028211704 5:-0.54440776 6:-0.039951431 7:0.18612442 8:0.60133837 9:0.18666551 10:0.064072108 11:-0.042138143 12:-0.22593338 13:0.086299451 
25.17898859458767 1:-0.40375433 2:0.38379757 3:0.36530145 4:0.30875295 5:-0.37774817 6:-0.27930802 7:-0.1458782 8:0.43228117 9:0.062024629 10:0.40218086 11:0.17644947 12:0.16139331 13:0.36462471 
26.328064265344 1:-0.095194918 2:0.49280817 3:0.44356615 4:0.13174026 5:-0.49865142 6:-0.076414447 7:-0.10923497 8:0.29216421 9:0.083426275 10:0.4094856 11:0.46545685 12:0.087577897 13:0.31962112 
26.328064265344 1:0.051726327 2:0.352824 3:0.42834719 4:0.30064426 5:-0.46612099 6:-0.077481399 7:-0.20591323 8:0.39015774 9:0.10182919 10:0.44107647 11:0.39917771 12:0.25191291 13:0.35535104 
26.328064265344 1:0.17093901 2:0.28677116 3:0.32802159 4:0.22646683 5:-0.51571103 6:-0.095084519 7:-0.14965179 8:0.36572597 9:-0.022048557 10:0.30092602 11:0.3657983 12:0.21491679 13:0.28068383 
26.328064265344 1:-0.27157313 2:0.1716948 3:0.40113598 4:0.40875828 5:-0.51777234 6:-0.056659373 7:-0.29306592 8:0.41984088 9:0.011519043 10:0.44238449 11:0.31073619 12:0.28688988 13:0.30733724 
26.328064265344 1:0.13702673 2:0.14226356 3:0.20342514 4:0.18472033 5:-0.56661253 6:-0.12264057 7:-0.18055089 8:0.40630328 9:-0.024548151 10:0.33549752 11:0.33668465 12:0.25552266 13:0.31049038 
26.328064265344 1:0.42913757 2:0.51701133 3:0.030502192 4:-0.18854955 5:-0.26392522 6:-0.44906513 7:0.034756084 8:-0.011854806 9:0.0019083794 10:0.21042433 11:0.26076351 12:0.054387494 13:0.10130735 
26.328064265344 1:0.52105915 2:0.068836369 3:-0.016791769 4:0.015635632 5:-0.46848019 6:-0.055177579 7:-0.21037009 8:0.1514042 9:-0.11702717 10:0.082716466 11:0.052911604 12:-0.25007598 13:-0.13005933 
26.328064265344 1:0.13460574 2:0.35182881 3:0.042595052 4:-0.062854573 5:-0.32866714 6:-0.32117972 7:-0.085056687 8:0.10694634 9:0.0051081081 10:0.27315245 11:0.25685378 12:0.012752139 13:0.044245706 
2.122124543055651 1:0.44527751 2:-0.12234736 3:-0.12090176 4:0.055433521 5:-0.4743333 6:-0.084536463 7:-0.35587155 8:0.10966405 9:-0.15131514 10:0.17990591 11:0.10896805 12:-0.11256997 13:-0.044117335 
26.328064265344 1:0.61696307 2:-0.064863102 3:-0.034243991 4:0.048313678 5:-0.33692129 6:0.20071832 7:0.017983973 8:0.31006402 9:-0.033259242 10:0.19662776 11:0.049216912 12:-0.26760042 13:-0.31236881 
26.328064265344 1:0.63948708 2:0.31469404 3:0.093723348 4:-0.21615538 5:-0.36057186 6:0.21240385 7:0.26718794 8:0.20363664 9:-0.038652183 10:0.036266725 11:0.19429207 12:-0.44333506 13:-0.20047262 
26.328064265344 1:0.29120433 2:-0.24060393 3:-0.082523241 4:0.130919 5:-0.3825408 6:0.20989651 7:-0.054021326 8:0.40636517 9:0.004507759 10:0.34720982 11:0.11077593 12:-0.12171475 13:-0.25394912 
26.328064265344 1:0.53559669 2:0.037887518 3:0.014947112 4:0.033891279 5:-0.39698063 6:0.18972212 7:0.12488834 8:0.44182911 9:0.046917551 10:0.26330592 11:0.17939167 12:-0.17354879 13:-0.20810478 
26.328064265344 1:0.6742595 2:-0.04905421 3:-0.019286147 4:0.012028114 5:-0.40788981 6:0.21048936 7:0.16387287 8:0.455595 9:0.0060277709 10:0.16111335 11:0.010392127 12:-0.27014843 13:-0.27535045 
26.328064265344 1:0.35404095 2:-0.15913611 3:-0.084797199 4:0.038445112 5:-0.38699841 6:0.25071311 7:0.16948378 8:0.54067449 9:0.12156181 10:0.39752429 11:0.24579849 12:-0.11674922 13:-0.2830777 
7.084087682308854 1:0.65025754 2:-0.10802083 3:-0.074743076 4:-0.036138638 5:-0.4772485 6:0.14983476 7:0.10241247 8:0.37108082 9:-0.14403631 10:0.01313164 11:0.007008953 12:-0.12490585 13:0.0019240813 
26.328064265344 1:0.76054363 2:0.18383987 3:0.0099372706 4:-0.22820357 5:-0.44420184 6:0.11783451 7:0.21228424 8:0.21445423 9:-0.10758625 10:-0.070336166 11:0.12834234 12:-0.24388204 13:0.066696523 
26.328064265344 1:0.43211648 2:0.071585655 3:0.04196182 4:-0.080422419 5:-0.46315223 6:0.1620187 7:0.10399829 8:0.26620509 9:-0.12688374 10:0.020410477 11:0.15635914 12:-0.12156184 13:0.055832342 
26.328064265344 1:0.80281052 2:0.57931982 3:0.045410702 4:-0.67136054 5:-0.42118567 6:0.30472479 7:0.31865155 8:-0.22568735 9:-0.013543684 10:-0.094974407 11:0.25017123 12:-0.5108081 13:0.48338677 
26.328064265344 1:0.70756135 2:0.023373194 3:-0.078176873 4:-0.13654981 5:-0.37319021 6:0.30604634 7:0.27027253 8:0.32683817 9:-0.065469452 10:-0.0040347656 11:0.12388672 12:-0.23007806 13:0.073605616 
26.328064265344 1:0.81840199 2:-0.10672797 3:-0.11662195 4:-0.071955895 5:-0.34412011 6:0.32259719 7:0.25929003 8:0.45050303 9:0.03659798 10:0.14762006 11:0.067122767 12:-0.20786666 13:-0.042066844 
26.328064265344 1:0.79978435 2:-0.014780642 3:-0.16821117 4:-0.17331655 5:-0.45685462 6:0.015823633 7:-0.044202254 8:0.19495294 9:-0.10032163 10:0.012741457 11:0.057226325 12:-0.16178521 13:0.067303488 
26.328064265344 1:0.70898147 2:0.084932243 3:-0.19374534 4:-0.30636408 5:-0.34267709 6:0.18954259 7:0.15383869 8:0.15611082 9:-0.026731196 10:-0.12141841 11:0.046121386 12:-0.29065422 13:0.12212253 
26.328064265344 1:0.80280399 2:0.37924443 3:-0.031106786 4:-0.34091532 5:-0.21051186 6:0.15665331 7:0.38380564 8:0.14356888 9:-0.010013435 10:-0.05008827 11:0.37319311 12:-0.18570958 13:0.26647059 
26.328064265344 1:0.78968383 2:0.69779721 3:-0.074535293 4:-0.7662874 5:0.020094099 6:0.18069118 7:0.35988972 8:-0.18170031 9:0.22576753 10:-0.49874819 11:-0.23364768 12:-0.28136806 13:0.2565431 
26.328064265344 1:0.75361125 2:0.27435758 3:-0.10383076 4:-0.3432438 5:-0.19140826 6:0.31234095 7:0.36600091 8:0.073190607 9:-0.11974152 10:-0.35745881 11:-0.044635637 12:-0.41075558 13:0.27346685 
26.328064265344 1:0.6809812 2:0.46261825 3:-0.075718093 4:-0.65932397 5:-0.13747735 6:0.28863124 7:0.18991598 8:-0.13474093 9:-0.00045699987 10:-0.46259837 11:-0.18245527 12:-0.41491681 13:0.32094802 
26.328064265344 1:0.72808629 2:-0.15816437 3:-0.20028376 4:-0.2127282 5:-0.52564662 6:0.053507491 7:-0.013168097 8:0.064938968 9:-0.43009222 10:-0.43855123 11:-0.37236119 12:-0.42029548 13:-0.1552548 
8.191079381487274 1:0.64734573 2:-0.055813427 3:-0.18852166 4:-0.34432738 5:-0.51139631 6:0.04962221 7:0.041865912 8:-0.050841228 9:-0.49702422 10:-0.61987126 11:-0.41414663 12:-0.51198717 13:-0.17366135 
26.328064265344 1:0.7041084 2:0.20016316 3:-0.052308186 4:-0.27989497 5:-0.37921818 6:0.17309224 7:0.18071988 8:0.049498015 9:-0.20728817 10:-0.20822225 11:0.17836833 12:-0.19028599 13:0.35238296 
26.24940495128479 1:0.67409374 2:0.57251542 3:-0.024601852 4:-0.55861369 5:-0.20594686 6:0.13061594 7:0.26170852 8:-0.18796064 9:-0.099474718 10:-0.42053949 11:-0.058073691 12:-0.48795784 13:0.22057231 
26.328064265344 1:0.26508355 2:0.071046545 3:0.010902284 4:-0.17730547 5:-0.43044259 6:0.32097944 7:0.13619954 8:0.10672657 9:-0.23419266 10:-0.19074747 11:-0.11259913 12:-0.35311209 13:0.20815688 
21.2995273729271 1:0.44331254 2:0.052764016 3:-0.053228242 4:-0.20748984 5:-0.55289192 6:-0.0093442018 7:0.032417681 8:0.13114281 9:-0.27400986 10:-0.20090467 11:0.040699962 12:-0.20845165 13:-5.4225532e-005 
0.9148674216447766 1:0.46127097 2:0.48979579 3:0.059755471 4:-0.33508794 5:-0.56055786 6:-0.11711955 7:0.065597554 8:-0.06212788 9:-0.12492651 10:-0.21836002 11:0.16007589 12:-0.51692262 13:-0.18594909 
26.328064265344 1:0.26619939 2:0.42599126 3:0.091195047 4:-0.40144219 5:-0.63295915 6:-0.32804118 7:-0.14701214 8:-0.04505589 9:-0.20830809 10:-0.23020688 11:0.064949488 12:-0.30644493 13:0.023302107 
26.328064265344 1:0.16315832 2:0.51430779 3:0.36795494 4:0.038952752 5:-0.44173789 6:-0.059098587 7:0.082892818 8:0.37096943 9:0.14034342 10:0.090019336 11:0.057527233 12:-0.22974012 13:-0.010508185 
26.328064265344 1:0.067510087 2:0.57985473 3:0.36481599 4:-0.028390858 5:-0.42260984 6:-0.073134733 7:0.14481182 8:0.38265498 9:0.25223915 10:0.11213219 11:0.12011476 12:-0.16806794 13:0.028252261 
26.328064265344 1:0.14066638 2:0.34651344 3:0.40390378 4:0.24830417 5:-0.43749972 6:-0.0038539584 7:0.011728105 8:0.53558048 9:0.15305201 10:0.25536627 11:-0.016593763 12:-0.173654 13:0.0098142913 
26.328064265344 1:-0.27955729 2:0.14390276 3:0.44295016 4:0.43677074 5:-0.54605619 6:0.0077583586 7:-0.14831944 8:0.60461774 9:0.10243237 10:0.34507441 11:-0.053777053 12:-0.04435033 13:0.029118597 
26.328064265344 1:-0.28667661 2:0.12057294 3:0.38874942 4:0.3545329 5:-0.59457433 6:-0.023509665 7:-0.12967606 8:0.58972253 9:0.11514016 10:0.38022008 11:0.11611916 12:-0.022854557 13:-0.041132262 
26.328064265344 1:0.15983235 2:0.76003438 3:0.58241445 4:-0.12658852 5:-0.40345137 6:0.099114002 7:0.10591078 8:0.31759685 9:0.31129861 10:-0.0073480716 11:-0.03587707 12:-0.17151872 13:0.064947341 
26.328064265344 1:0.17112568 2:0.34570788 3:0.33033304 4:0.10750151 5:-0.47732914 6:-0.041930967 7:0.060529125 8:0.44357802 9:0.12455299 10:0.090247537 11:-0.057845625 12:-0.23946394 13:0.19945569 
26.328064265344 1:-0.24112314 2:0.053235529 3:0.38621838 4:0.39266344 5:-0.58705277 6:0.047050328 7:-0.10402549 8:0.6115825 9:0.089559696 10:0.34088617 11:-0.08301789 12:-0.17726269 13:-0.18195908 
26.328064265344 1:0.12252609 2:0.56980823 3:0.4430248 4:-0.025817697 5:-0.43671656 6:0.019333073 7:0.18974589 8:0.38196881 9:0.21784894 10:0.073526281 11:0.023337863 12:-0.27779099 13:0.3362005 
7.63425151956419 1:0.17123327 2:0.72068726 3:0.53489157 4:-0.1221857 5:-0.37310637 6:0.059482244 7:0.098017249 8:0.40488415 9:0.35769368 10:0.16999143 11:0.086162129 12:-0.23313302 13:-0.074941313 
26.328064265344 1:0.092152409 2:0.42211766 3:0.49598071 4:0.23149405 5:-0.48158969 6:-0.044317483 7:-0.0084631937 8:0.50228806 9:0.21836868 10:0.30274714 11:0.10192965 12:-0.15691567 13:-0.011623771 
26.328064265344 1:-0.18056514 2:0.034751476 3:0.40300721 4:0.47963294 5:-0.53369474 6:0.084255609 7:-0.097128823 8:0.67231391 9:0.12846482 10:0.38274744 11:-0.09909452 12:-0.16806845 13:-0.27850211 
9.185861053197582 1:0.038114863 2:0.55006688 3:0.44660479 4:0.14741147 5:-0.46514628 6:-0.11815341 7:-0.049175381 8:0.39617793 9:0.24696607 10:0.28552776 11:0.092961442 12:-0.31385223 13:0.072772568 
26.328064265344 1:0.15638427 2:0.34744312 3:0.3037254 4:0.10248019 5:-0.47061358 6:-0.062778374 7:0.0073661526 8:0.43636377 9:0.19685534 10:0.23016886 11:-0.05368051 12:-0.26651713 13:-0.027227479 
26.328064265344 1:0.17637632 2:0.26922905 3:0.41878637 4:0.21652803 5:-0.48273388 6:0.015468428 7:0.16279857 8:0.64419329 9:0.21799276 10:0.11839503 11:-0.18570199 12:-0.29173137 13:0.11651957 
26.328064265344 1:-0.51850595 2:-0.057045347 3:-0.0085442127 4:0.0081443353 5:-0.52190771 6:-0.022655001 7:-0.27943382 8:0.34432928 9:0.18088252 10:0.5123763 11:0.38538702 12:0.10409864 13:0.10062889 
26.328064265344 1:-0.26421828 2:0.066366691 3:0.11239289 4:0.22995936 5:-0.38673767 6:0.08150785 7:-0.14629738 8:0.50941536 9:0.1911569 10:0.51942437 11:0.32071783 12:0.076314961 13:0.17372407 
26.328064265344 1:0.27235637 2:0.17240298 3:0.10948187 4:-0.0046259893 5:-0.43872644 6:0.0617779 7:0.099957571 8:0.40217562 9:0.06900708 10:0.24659306 11:0.32283433 12:-0.035479174 13:-0.019173827 
26.328064265344 1:0.44075734 2:0.19819011 3:0.078346055 4:0.012166093 5:-0.44600687 6:-0.057715463 7:-0.10968697 8:0.17940246 9:-0.091566917 10:0.059372915 11:0.16452134 12:-0.11418267 13:0.025990899 
26.328064265344 1:0.010789873 2:0.095999648 3:0.084704606 4:-0.0036161578 5:-0.4769517 6:0.10398995 7:0.087312901 8:0.43926367 9:0.088557707 10:0.3067891 11:0.35307522 12:-0.011484283 13:0.022113052 
26.328064265344 1:0.41054494 2:0.17206276 3:0.039935394 4:-0.011928873 5:-0.45403941 6:-0.10670883 7:-0.14663997 8:0.16468328 9:-0.076801923 10:0.10109129 11:0.21430561 12:-0.049472538 13:0.12736359 
26.328064265344 1:0.57020445 2:-0.09920676 3:-0.037989265 4:0.035546415 5:-0.54001155 6:-0.13652222 7:-0.31738459 8:0.11733303 9:-0.29246297 10:-0.020205496 11:-0.14131716 12:-0.18426644 13:-0.27776978 
26.328064265344 1:0.63030205 2:0.35443614 3:-0.055102374 4:-0.27150854 5:-0.32827896 6:-0.25987314 7:-0.036297807 8:-0.061668216 9:-0.16476736 10:-0.094467412 11:0.12760614 12:-0.13668193 13:0.14893759 
26.328064265344 1:0.28831171 2:0.26784375 3:0.070086186 4:-0.1346445 5:-0.39873329 6:0.039207786 7:-0.24371081 8:0.050881089 9:-0.033873412 10:0.082632784 11:0.29349062 12:-0.12504746 13:0.15607949 
26.328064265344 1:0.67084075 2:0.28418089 3:-0.0014450443 4:-0.2256411 5:-0.39604498 6:-0.099048286 7:-0.05509436 8:-0.01318287 9:-0.1658984 10:-0.0020740025 11:0.18388992 12:-0.26588947 13:-0.12891468 
26.328064265344 1:0.31592792 2:0.20100149 3:0.052684629 4:-0.056966882 5:-0.35686817 6:0.042583819 7:-0.25731807 8:0.062656602 9:-0.036551787 10:0.19113585 11:0.32605856 12:-0.076998657 13:0.13432427 
26.328064265344 1:0.58128967 2:0.22535692 3:-0.00014855194 4:-0.091428651 5:-0.35006506 6:-0.13269344 7:-0.14521924 8:0.076557236 9:-0.079363616 10:0.15825148 11:0.21600384 12:-0.12639311 13:-0.015126289 
26.328064265344 1:0.69951929 2:0.069659078 3:-0.065249681 4:-0.19142405 5:-0.55093964 6:-0.15300384 7:-0.19428189 8:0.033781086 9:-0.23496434 10:-0.056558062 11:-0.046169841 12:-0.31747293 13:-0.19917355 
26.328064265344 1:0.67668389 2:0.014758615 3:-0.089637288 4:-0.10129335 5:-0.55020163 6:-0.074733758 7:-0.16284801 8:0.14332135 9:-0.17380003 10:0.010034559 11:-0.029276923 12:-0.30370196 13:-0.1051713 
26.328064265344 1:0.32694528 2:-0.061970567 3:0.027669924 4:0.073319456 5:-0.54924829 6:-0.032759668 7:-0.30440277 8:0.21037036 9:-0.11595913 10:0.2381248 11:0.064543036 12:-0.10949459 13:-0.071220097 
21.44878115266465 1:0.57032865 2:-0.11269935 3:-0.10897517 4:0.023291163 5:-0.52075346 6:-0.087181034 7:-0.29632453 8:0.15947303 9:-0.14952171 10:0.16293215 11:0.049054172 12:-0.15078496 13:-0.062287325 
26.328064265344 1:0.68935728 2:-0.10274059 3:-0.084138481 4:-0.012777993 5:-0.50884886 6:-0.091799454 7:-0.2768549 8:0.15541073 9:-0.1415635 10:0.19152164 11:0.056176409 12:-0.15722425 13:-0.12989977 
26.328064265344 1:0.72604723 2:-0.078095311 3:-0.12959466 4:-0.078447351 5:-0.53927018 6:-0.029476839 7:-0.16983667 8:0.14767807 9:-0.21348345 10:0.0046221085 11:-0.080706966 12:-0.35536939 13:-0.28637297 
3.214651811749495 1:0.34127122 2:-0.19462237 3:-0.098625354 4:0.090338223 5:-0.46234575 6:-0.085092196 7:-0.35260232 8:0.18498419 9:-0.097784144 10:0.32157324 11:0.11538959 12:-0.057010812 13:-0.099092591 
23.80218052553623 1:0.61140959 2:-0.24259251 3:-0.19840843 4:0.0028496379 5:-0.55722264 6:-0.10621648 7:-0.35719285 8:0.1468843 9:-0.19218599 10:0.15412889 11:-0.057587208 12:-0.247621 13:-0.28713976 
26.328064265344 1:0.73935349 2:-0.021130219 3:-0.019353257 4:0.014653322 5:-0.37412261 6:0.18358725 7:0.074393644 8:0.34655233 9:-0.035801286 10:0.17092651 11:0.054143754 12:-0.27453637 13:-0.29799421 
26.328064265344 1:0.72249129 2:0.37336582 3:0.053891265 4:-0.21225973 5:-0.32568862 6:0.16963644 7:0.29138088 8:0.18952663 9:-0.016217278 10:-0.039641152 11:0.21821016 12:-0.42378792 13:-0.19430406 
26.328064265344 1:0.39845094 2:-0.14422748 3:-0.052402231 4:0.092439499 5:-0.37531244 6:0.21369581 7:0.042027354 8:0.45675992 9:0.060359133 10:0.36152601 11:0.18658047 12:-0.10664404 13:-0.2312476 
26.328064265344 1:0.61130713 2:0.26222523 3:0.028294735 4:-0.099494803 5:-0.3150863 6:0.14755483 7:0.19437288 8:0.29367529 9:0.092793242 10:0.20860828 11:0.34163747 12:-0.26354631 13:-0.17399682 
26.328064265344 1:0.71964653 2:0.097967313 3:0.033527448 4:-0.06093253 5:-0.38315758 6:0.20507392 7:0.15100411 8:0.2717765 9:-0.066486381 10:0.13909597 11:0.19743093 12:-0.2957177 13:-0.29974196 
26.328064265344 1:0.39263119 2:-0.019913779 3:-0.043429985 4:-0.0144259 5:-0.35336794 6:0.20843214 7:0.16229424 8:0.40365996 9:0.061189834 10:0.33129264 11:0.31445025 12:-0.13759882 13:-0.25792915 
26.328064265344 1:0.74312493 2:0.13846237 3:-0.016494453 4:-0.06044979 5:-0.2449147 6:0.27479446 7:0.28890569 8:0.44337457 9:0.1656618 10:0.24894326 11:0.17943014 12:-0.34171661 13:-0.30192788 
25.21381097455026 1:0.41836965 2:-0.30567174 3:-0.08886212 4:0.047362093 5:-0.56087666 6:0.1689397 7:-0.088091864 8:0.32411739 9:-0.20279461 10:0.10797228 11:-0.069747109 12:-0.1815523 13:-0.1943162 
26.328064265344 1:0.63946275 2:0.27634927 3:0.0040008629 4:-0.15007729 5:-0.20602999 6:0.26318679 7:0.35718192 8:0.30297186 9:0.049912149 10:0.021451322 11:0.11477474 12:-0.41938544 13:-0.13620461 
26.328064265344 1:0.73296488 2:-0.14433912 3:-0.12163666 4:-0.037940629 5:-0.4441659 6:0.090223424 7:-0.047693254 8:0.279695 9:-0.12393935 10:0.055832222 11:-0.14246034 12:-0.31973626 13:-0.25967946 
26.328064265344 1:0.72487127 2:-0.0084185425 3:-0.12588457 4:-0.10054048 5:-0.49169486 6:-0.056050692 7:-0.13711725 8:0.19742982 9:-0.10928561 10:0.082616026 11:0.041392955 12:-0.19854612 13:-0.030332827 
26.328064265344 1:0.72422063 2:-0.071195635 3:-0.040795959 4:0.029982173 5:-0.39088761 6:0.16463501 7:0.056105108 8:0.37480373 9:-0.050809134 10:0.12532766 11:-0.034098567 12:-0.21472493 13:-0.13509978 
26.328064265344 1:0.70494703 2:0.26106556 3:0.057188363 4:-0.040262761 5:-0.30437089 6:0.063423471 7:0.087221833 8:0.29159595 9:0.048765597 10:0.16561548 11:0.23672553 12:-0.16133819 13:-0.012160587 
26.328064265344 1:0.39236099 2:-0.049766138 3:-0.0062303374 4:-0.019136424 5:-0.42683789 6:0.26928277 7:0.16650018 8:0.39886227 9:-0.051817045 10:0.091263685 11:0.024763326 12:-0.2326166 13:-0.10716555 
26.328064265344 1:0.63741948 2:0.11354873 3:-0.0012529331 4:-0.06560218 5:-0.36380889 6:0.20090343 7:0.18027823 8:0.34340267 9:-0.0024312534 10:0.11102574 11:0.2108132 12:-0.18932066 13:-0.020284522 
26.328064265344 1:0.72559221 2:-0.17611467 3:-0.08638714 4:0.056237485 5:-0.39171136 6:0.19585081 7:0.053113595 8:0.41580497 9:-0.054078766 10:0.15525861 11:-0.014674989 12:-0.17036609 13:-0.13894313 
26.328064265344 1:0.68671101 2:0.50809301 3:0.16604379 4:-0.39247187 5:-0.46312706 6:0.1950295 7:0.30648475 8:0.016674534 9:-0.064592399 10:0.0013729854 11:0.35690606 12:-0.47554019 13:-0.21622734 
0.1161939226931932 1:0.69839729 2:0.83238299 3:0.27522498 4:-0.57519071 5:-0.43156742 6:0.2577173 7:0.53408144 8:-0.26273987 9:0.006596176 10:0.067816607 11:0.20558045 12:-0.55451075 13:0.0008068747 
5.222804977502518 1:0.67164956 2:0.6960676 3:0.16422027 4:-0.49138531 5:-0.33658916 6:0.17761943 7:0.32241383 8:-0.11598155 9:-0.0087082793 10:-0.084855813 11:0.29167347 12:-0.57113711 13:-0.21383724 
26.328064265344 1:0.62441791 2:0.25408918 3:0.063710903 4:-0.099467353 5:-0.41062673 6:0.14142914 7:0.10291596 8:0.16700025 9:-0.087538525 10:0.030595788 11:0.19001055 12:-0.3663715 13:-0.21176294 
26.328064265344 1:0.63215813 2:0.41342752 3:0.094566486 4:-0.3115816 5:-0.38203167 6:0.17330563 7:0.18514914 8:0.0027103089 9:-0.1168729 10:-0.0864589 11:0.1841986 12:-0.58317035 13:-0.34590916 
25.54721369975046 1:0.5065041 2:0.35620928 3:0.11070369 4:-0.21513468 5:-0.38448973 6:0.19252143 7:0.14443772 8:0.017902064 9:-0.14653015 10:-0.057489968 11:0.12896816 12:-0.55662773 13:-0.34165559 
26.328064265344 1:0.4181006 2:0.43198014 3:0.2062969 4:-0.082009763 5:-0.35014229 6:0.091657184 7:0.074124491 8:0.13421166 9:0.011562386 10:0.20546755 11:0.46242687 12:-0.25281941 13:-0.15115184 
26.328064265344 1:0.18456787 2:-0.028781576 3:0.096336792 4:0.14123591 5:-0.46964383 6:0.08751169 7:-0.14693089 8:0.27425412 9:-0.10723172 10:0.23277162 11:0.10980883 12:-0.15810479 13:-0.24332289 
26.328064265344 1:0.36255828 2:0.2795062 3:0.22716603 4:0.08000779 5:-0.35246941 6:0.095031538 7:-0.020060174 8:0.16108403 9:-0.072338425 10:0.19624831 11:0.28942655 12:-0.18165274 13:-0.20526561 
26.328064265344 1:0.32967274 2:0.32189753 3:0.20967037 4:0.10219877 5:-0.1978675 6:0.15700747 7:0.057087742 8:0.26552961 9:0.085293562 10:0.28319362 11:0.19251363 12:-0.39746376 13:-0.42772626 
15.23773232057897 1:0.24375486 2:0.41599803 3:0.30197741 4:0.00071858894 5:-0.29801382 6:0.14936024 7:0.086410891 8:0.17333555 9:-0.054183986 10:0.18497549 11:0.23032109 12:-0.37893295 13:-0.35523488 
21.42770455317939 1:-0.19107221 2:0.051889675 3:0.38212721 4:0.46568697 5:-0.53806503 6:0.03960588 7:-0.19684915 8:0.51069102 9:-0.012474445 10:0.40906217 11:0.15636597 12:0.036459881 13:-0.26503556 
26.328064265344 1:-0.046156191 2:0.25235721 3:0.38879599 4:0.31526392 5:-0.45039187 6:-0.03223486 7:-0.066596613 8:0.51496402 9:0.11375617 10:0.26713203 11:-0.054463442 12:-0.22843082 13:-0.2003811 
26.328064265344 1:-0.036388637 2:0.36080679 3:0.38666031 4:0.20762136 5:-0.42835327 6:0.03245629 7:-0.076840299 8:0.3813024 9:0.025787495 10:0.069488713 11:-0.26697932 12:-0.37527964 13:-0.13298982 
26.328064265344 1:-0.40734138 2:0.11802612 3:0.35316575 4:0.37952372 5:-0.49534451 6:0.010905996 7:-0.19591694 8:0.50063215 9:0.060987131 10:0.28879501 11:-0.1736748 12:-0.17954762 13:-0.14218403 
26.328064265344 1:-0.15881585 2:0.24512003 3:0.30035162 4:0.21703798 5:-0.45255828 6:-0.0052107473 7:-0.14149602 8:0.38599494 9:0.005125763 10:0.14617207 11:-0.1610583 12:-0.2301914 13:-0.062883813 
26.328064265344 1:0.020076633 2:0.60526904 3:0.58247797 4:0.076341236 5:-0.34075829 6:0.29866451 7:-0.013719717 8:0.27839093 9:0.14759698 10:0.034687832 11:-0.1921674 12:-0.24469227 13:0.15343163 
26.328064265344 1:0.028214072 2:0.46830316 3:0.46584015 4:0.23642829 5:-0.31915872 6:0.16616341 7:0.0043860336 8:0.36509796 9:-0.029974979 10:-0.033343936 11:-0.11453174 12:-0.16774785 13:0.15352315 
22.34206915388124 1:-0.3879898 2:0.29416964 3:0.5369681 4:0.41309255 5:-0.44391585 6:0.19998517 7:0.028967581 8:0.50371276 9:-0.017217978 10:0.18516115 11:-0.030683615 12:-0.13211378 13:-0.070201891 
26.328064265344 1:-0.10619568 2:0.59715125 3:0.55645211 4:0.10087321 5:-0.29273274 6:0.26700797 7:-0.010284175 8:0.33404066 9:0.089783167 10:-0.064936345 11:-0.139249 12:-0.11806558 13:0.14948014 
8.415620197279285 1:-0.0076438061 2:0.66800091 3:0.61827311 4:-0.089204214 5:-0.4878972 6:0.13589467 7:-0.21789083 8:0.014874563 9:0.096604736 10:0.31359346 11:0.14640082 12:-0.059656331 13:0.31506954 
2.726334305286226 1:-0.55449968 2:0.061228117 3:0.30032695 4:0.26051413 5:-0.49913566 6:0.26939666 7:-0.024458699 8:0.44205068 9:-0.074257814 10:0.15099432 11:0.0044457009 12:-0.14882913 13:-0.080278663 
26.328064265344 1:0.049875186 2:0.23324781 3:0.3351674 4:0.37519941 5:-0.31219132 6:0.048086618 7:-0.22787378 8:0.29368572 9:-0.04824272 10:0.18704145 11:-0.20547465 12:-0.25204138 13:-0.1233311 
26.328064265344 1:0.21988896 2:0.30942586 3:0.26393364 4:0.025141585 5:-0.48914143 6:0.050305822 7:0.2035069 8:0.4813659 9:0.089430492 10:-0.047784616 11:-0.12025358 12:-0.34085257 13:0.062561081 
16.23966064388807 1:-0.32467267 2:0.36426531 3:0.28956862 4:0.33969888 5:-0.18912721 6:-0.10799555 7:-0.130868 8:0.20603168 9:-0.039122879 10:0.23705516 11:-0.13661669 12:-0.18411491 13:-0.16903974 
26.328064265344 1:0.056698194 2:0.27100902 3:0.23476174 4:0.046552361 5:-0.46072981 6:0.071960651 7:0.1799409 8:0.49687786 9:0.07613329 10:-0.02760439 11:-0.14820722 12:-0.36898641 13:0.01599397 
26.31490064890722 1:0.49278771 2:0.22381711 3:-0.19815999 4:-0.60288942 5:-0.48805587 6:0.16100382 7:0.18411651 8:-0.14366876 9:-0.17214532 10:-0.15741118 11:0.015856793 12:-0.77509649 13:-0.14042704 
26.328064265344 1:0.64130486 2:-0.05047964 3:-0.095047475 4:-0.05714172 5:-0.42341829 6:0.050470064 7:-0.058335599 8:0.28818894 9:-0.038213321 10:0.13917717 11:-0.0072771869 12:-0.20536166 13:-0.019891489 
26.328064265344 1:0.27156577 2:-0.12593269 3:-0.078230225 4:0.085106857 5:-0.38583333 6:0.036184363 7:-0.16617878 8:0.32829758 9:0.0058769137 10:0.2894977 11:0.059050483 12:-0.066991995 13:0.045515521 
26.328064265344 1:0.62415787 2:-0.031963961 3:-0.052040655 4:-0.064395078 5:-0.43015427 6:0.13835727 7:0.027034574 8:0.24047044 9:-0.1796163 10:-0.093597845 11:-0.2149553 12:-0.36954342 13:-0.13002447 
26.328064265344 1:0.2432361 2:0.31308743 3:-0.054675434 4:-0.25217787 5:-0.30300811 6:-0.11640947 7:0.13280533 8:0.022851172 9:-0.16922857 10:-0.17316999 11:-0.22850398 12:-0.45238099 13:-0.148989 
9.3483734786358 1:0.48265009 2:0.24135907 3:0.065063442 4:-0.20278051 5:-0.50804527 6:-0.045102429 7:0.088662235 8:0.21390146 9:-0.13708655 10:-0.17422024 11:-0.051038283 12:-0.38935483 13:-0.13581207 
26.328064265344 1:0.43372836 2:0.11420699 3:0.11328022 4:-0.051092347 5:-0.61337816 6:-0.096211172 7:-0.04966114 8:0.28632086 9:-0.15638189 10:-0.12438346 11:-0.24069691 12:-0.36246305 13:-0.18769659 
26.328064265344 1:0.68012186 2:0.2182564 3:0.081284294 4:-0.11379056 5:-0.51126013 6:-0.017730389 7:0.031573731 8:0.20903031 9:-0.13529907 10:-0.10617203 11:-0.12540656 12:-0.47560916 13:-0.27639668 
8.918316144327848 1:0.77852262 2:0.15433392 3:0.10942259 4:-0.022266769 5:-0.4346214 6:0.15841503 7:0.15120432 8:0.33366266 9:-0.09746719 10:-0.048931108 11:-0.17442847 12:-0.49061926 13:-0.33365506 
26.328064265344 1:0.42507368 2:-0.20450694 3:0.04638512 4:0.17935415 5:-0.51171665 6:0.2209419 7:0.013955432 8:0.47802094 9:-0.16763121 10:-0.030904986 11:-0.44011823 12:-0.42660169 13:-0.44090254 
26.328064265344 1:0.74920035 2:0.22809028 3:0.14799615 4:-0.052166552 5:-0.45523236 6:0.10417792 7:0.13767918 8:0.27495123 9:-0.11898577 10:-0.10458338 11:-0.15879701 12:-0.45145918 13:-0.22917105 
26.328064265344 1:0.39034223 2:-0.10016023 3:0.12285487 4:0.12455333 5:-0.61549245 6:0.091356436 7:-0.060929369 8:0.37291132 9:-0.23120273 10:-0.095633272 11:-0.37036623 12:-0.35608489 13:-0.27585458 
10.0984375114104 1:0.27553415 2:-0.0054150386 3:0.13302295 4:0.063305477 5:-0.63586055 6:-0.0087575494 7:-0.14052035 8:0.25065898 9:-0.29309836 10:-0.17293895 11:-0.39971235 12:-0.45752201 13:-0.33283778 
26.328064265344 1:0.73670185 2:0.5015567 3:0.15068153 4:-0.32163015 5:-0.4481269 6:0.06740999 7:0.14384701 8:0.021092071 9:-0.08543266 10:-0.13273717 11:-0.021350442 12:-0.68364266 13:-0.30288046 
18.44553248627319 1:0.58631928 2:0.50175365 3:0.15378952 4:-0.22050932 5:-0.47490058 6:0.035264766 7:0.15763643 8:0.11077419 9:-0.092719566 10:-0.25388737 11:-0.16972115 12:-0.68863732 13:-0.10373862 
2.869010722671119 1:0.72524618 2:0.53535527 3:0.16383947 4:-0.35957729 5:-0.42685141 6:0.17500399 7:0.22809368 8:-0.01552279 9:-0.08129799 10:-0.1080256 11:0.01792581 12:-0.68001651 13:-0.18085366 
26.328064265344 1:0.20519326 2:-0.032568964 3:0.0033538095 4:-0.01885865 5:-0.51761136 6:0.06825832 7:-0.15569648 8:0.15648004 9:-0.25526718 10:-0.13775945 11:-0.46274199 12:-0.64608959 13:-0.48067459 
26.328064265344 1:0.19889677 2:0.10333568 3:0.094291961 4:0.037124375 5:-0.43577149 6:0.07071156 7:-0.040607094 8:0.26933385 9:-0.17181755 10:-0.18156267 11:-0.45381848 12:-0.54982433 13:-0.24525272 
6.820867532362269 1:0.68082186 2:0.80206188 3:0.19852752 4:-0.64873805 5:-0.41568643 6:0.16996864 7:0.1925683 8:-0.33938168 9:0.10518803 10:-0.13457388 11:-0.36869416 12:-0.69747176 13:-0.35048818 
6.833029178179843 1:0.22537148 2:0.54944327 3:0.070546048 4:-0.24216051 5:-0.18153473 6:-0.044149489 7:0.38497943 8:0.038538682 9:-0.05053802 10:-0.19241681 11:-0.47250883 12:-0.59761256 13:-0.35643929 
11.03369916278957 1:0.50035767 2:0.54604751 3:0.074411261 4:-0.43059928 5:-0.40934063 6:0.069764897 7:0.025478569 8:-0.22940352 9:-0.12505019 10:-0.30689536 11:-0.31301878 12:-0.83522999 13:-0.52060132 
26.328064265344 1:0.50610817 2:0.15154961 3:0.11441937 4:0.0092801179 5:-0.52627513 6:-0.032646201 7:-0.1127021 8:0.20952374 9:-0.19271979 10:-0.079351457 11:-0.22416304 12:-0.36705991 13:-0.11897985 
26.328064265344 1:0.15800641 2:0.20789884 3:0.13635889 4:-0.0093563041 5:-0.44261064 6:-0.020189857 7:-0.22513341 8:-0.045495571 9:-0.29697469 10:-0.023047883 11:0.052905144 12:-0.3995797 13:-0.43532413 
26.328064265344 1:0.34716299 2:0.1578437 3:0.17769805 4:0.12825119 5:-0.46918732 6:0.031745278 7:-0.085715328 8:0.28597158 9:-0.19046334 10:-0.054416389 11:-0.27211752 12:-0.37417019 13:-0.23982372 
26.328064265344 1:0.36928479 2:0.28789377 3:0.061731595 4:-0.31252302 5:-0.28008851 6:0.41114835 7:0.66563632 8:0.44900293 9:0.072949557 10:-0.4929146 11:-0.13799602 12:-0.47581567 13:0.33210415 
26.328064265344 1:0.22275829 2:0.3585107 3:-0.032427653 4:-0.3078953 5:-0.11670113 6:0.1727847 7:0.73096318 8:0.31657999 9:0.068093783 10:-0.1931869 11:0.07244398 12:-0.16301546 13:0.22701643 
26.328064265344 1:0.54804355 2:-0.070491901 3:-0.16779667 4:-0.24129592 5:-0.19063406 6:0.65145468 7:0.66300627 8:0.2781497 9:-0.15142038 10:-0.1143807 11:0.44334578 12:-0.15652675 13:0.17168604 
2.240473753794102 1:0.60458408 2:0.089309676 3:-0.18918673 4:-0.32951209 5:-0.15235248 6:0.52327851 7:0.4705751 8:-0.061376345 9:-0.30565778 10:-0.31610808 11:0.40985661 12:-0.28373687 13:0.19849958 
26.328064265344 1:0.47736691 2:0.24895813 3:-0.085375522 4:-0.20108251 5:-0.032860578 6:0.24174216 7:0.41981214 8:0.18725643 9:0.050706089 10:0.12307446 11:0.55983404 12:-0.019623649 13:0.15202059 
26.328064265344 1:0.088100356 2:0.14376958 3:0.0048164174 4:-0.0029950787 5:-0.18044573 6:0.22291051 7:0.04866953 8:0.24611183 9:0.050107119 10:0.21238219 11:0.35161594 12:-0.092956295 13:0.045655162 
26.328064265344 1:0.48186019 2:0.074183071 3:-0.094034716 4:-0.16064723 5:-0.25265015 6:0.20469126 7:0.10965499 8:0.062058563 9:-0.14168597 10:0.078188887 11:0.37500864 12:-0.094307381 13:0.13026155 
26.328064265344 1:0.16110879 2:0.15602128 3:-0.10423176 4:-0.15222561 5:-0.21526433 6:0.047642042 7:0.052543848 8:0.065032979 9:-0.08566489 10:0.11442025 11:0.31931519 12:-0.055227389 13:0.17849959 
13.65834503736942 1:0.11151779 2:-0.26907245 3:-0.19553233 4:-0.12636277 5:-0.53138796 6:0.051892099 7:0.01987794 8:0.24744089 9:-0.27832129 10:-0.10499587 11:-0.035691438 12:-0.10377618 13:-0.082745225 
3.343325503781525 1:0.44988579 2:0.023580342 3:0.015302207 4:-0.027748582 5:-0.35105331 6:0.30240629 7:0.26856786 8:0.32957415 9:-0.17104143 10:-0.10822646 11:0.075625604 12:-0.097277329 13:0.19144151 
26.328064265344 1:0.33525964 2:-0.025503137 3:0.009857964 4:0.00055574042 5:-0.43087445 6:0.19128766 7:0.16976231 8:0.37207357 9:-0.15456221 10:-0.044184899 11:0.084934227 12:-0.009229906 13:0.21648581 
26.328064265344 1:0.41113114 2:0.055374126 3:0.07938681 4:-0.0084537612 5:-0.37408833 6:0.29679923 7:0.35348065 8:0.43250802 9:-0.12069006 10:-0.092807059 11:0.077515999 12:-0.10187134 13:0.16727656 
26.328064265344 1:0.039353314 2:-0.17993449 3:0.040228769 4:0.11099089 5:-0.49721712 6:0.23605982 7:0.14625206 8:0.4667647 9:-0.2107341 10:-0.080832664 11:-0.11492883 12:-0.087908181 13:-0.034850743 
26.328064265344 1:0.20477813 2:0.069850085 3:0.18061856 4:0.20460057 5:-0.23145265 6:0.4233069 7:0.3249387 8:0.38824602 9:-0.20747987 10:-0.11471451 11:0.087409507 12:-0.0068073431 13:0.238803 
22.43806764990516 1:-0.094741999 2:0.03306514 3:0.16823287 4:0.10588213 5:-0.41403535 6:0.33121272 7:0.2074538 8:0.35279626 9:-0.25178302 10:-0.16072645 11:-0.076433459 12:-0.16239305 13:0.02502591 
26.328064265344 1:0.12718724 2:0.0050988586 3:0.10821061 4:0.14894455 5:-0.3010218 6:0.38483563 7:0.34892068 8:0.55651688 9:0.012151149 10:0.18714889 11:0.30464041 12:0.087162691 13:0.17275601 
26.328064265344 1:0.34653525 2:0.054154851 3:0.13453632 4:0.073877249 5:-0.27814778 6:0.44414198 7:0.54761004 8:0.58980601 9:-0.073419051 10:-0.28767945 11:-0.25081808 12:-0.28074526 13:0.12039592 
26.328064265344 1:0.19557266 2:0.28540481 3:0.27102436 4:0.040370273 5:-0.29475368 6:0.37270303 7:0.46305633 8:0.57766509 9:0.078861012 10:-0.11730468 11:-0.19288619 12:-0.39046862 13:0.01959206 
26.328064265344 1:0.45964391 2:0.0029168349 3:-0.25929737 4:-0.10559017 5:0.10368231 6:-0.046235731 7:-0.19260495 8:0.19681322 9:0.29724629 10:0.11872163 11:-0.0044375607 12:-0.04704377 13:0.15544875 
26.328064265344 1:0.095630048 2:-0.019396288 3:-0.32268022 4:-0.012277051 5:0.13966207 6:-0.29811884 7:0.0073885427 8:0.14490592 9:0.22418387 10:0.25481443 11:-0.20292232 12:0.15503479 13:-0.048505347 
26.328064265344 1:0.36891997 2:-0.64821204 3:-0.67710327 4:-0.19438788 5:-0.1797501 6:0.039489528 7:-0.17667572 8:0.31133803 9:0.26015515 10:0.18052652 11:-0.090480519 12:-0.22311735 13:0.11541414 
2.868094276975364 1:-0.01666125 2:-0.29690589 3:-0.51871885 4:-0.26956708 5:0.12701573 6:0.081775362 7:-0.021443815 8:0.4729593 9:0.48627525 10:0.018479576 11:-0.17363872 12:-0.17830853 13:-0.094258551 
26.328064265344 1:0.31651828 2:-0.38904105 3:-0.40501227 4:0.078290833 5:0.055836727 6:0.098442678 7:-0.23499927 8:0.11193166 9:0.10476902 10:0.21827765 11:0.34643726 12:0.0043009026 13:0.031582315 
26.328064265344 1:0.48017823 2:-0.55163648 3:-0.71530995 4:-0.39441045 5:0.15199741 6:-0.030300584 7:-0.22705171 8:0.30383301 9:0.61030962 10:0.16881343 11:-0.0719462 12:-0.14472514 13:0.10283109 
26.328064265344 1:0.45345624 2:-0.3138865 3:-0.40411374 4:-0.025489677 5:0.26440038 6:0.082792112 7:-0.25981245 8:0.095030111 9:0.29517389 10:0.21958144 11:0.097841278 12:-0.071869253 13:0.13492245 
10.6628513538071 1:0.12317906 2:-0.81851182 3:-0.80400766 4:-0.31323996 5:0.065787666 6:0.037249694 7:-0.14883666 8:0.46993784 9:0.75449589 10:0.57934507 11:0.24716578 12:0.050416446 13:0.38608471 
26.328064265344 1:0.37488931 2:-0.31874634 3:-0.33969029 4:0.060848513 5:0.16337369 6:0.1116389 7:-0.29720188 8:0.10889135 9:0.2977051 10:0.31645501 11:0.10644207 12:-0.15379851 13:0.098018922 
26.328064265344 1:0.085095121 2:-0.17543679 3:-0.24175535 4:-0.012834021 5:0.11498859 6:0.21298984 7:-0.24890251 8:0.20373418 9:0.37069089 10:0.3134944 11:0.19568241 12:-0.039235293 13:0.11249469 
26.328064265344 1:0.46246954 2:-0.43216255 3:-0.45284823 4:-0.066062657 5:0.16862835 6:0.13029896 7:-0.28927496 8:0.14839235 9:0.30647163 10:0.17275349 11:0.0012436327 12:-0.033228738 13:0.22218261 
26.328064265344 1:0.49124227 2:-0.10415389 3:-0.55175195 4:-0.49656007 5:0.62861884 6:-0.069518232 7:-0.29606459 8:0.14717523 9:0.52170717 10:-0.13704422 11:0.055290623 12:-0.2236952 13:-0.15609965 
26.328064265344 1:0.075374743 2:-0.5135709 3:-0.40294385 4:0.018934706 5:0.067949203 6:0.15170745 7:-0.38834825 8:0.17402351 9:0.25555083 10:0.17377165 11:-0.028278432 12:0.038797568 13:0.20177439 
26.328064265344 1:0.37832709 2:-0.36997464 3:-0.4464674 4:-0.083941714 5:0.27603942 6:0.18483543 7:-0.29583709 8:0.015669395 9:0.28171559 10:0.049466145 11:-0.075295417 12:-0.17254476 13:0.17759466 
26.328064265344 1:0.51302131 2:0.080561793 3:-0.32259892 4:-0.24340641 5:0.49313505 6:0.28646881 7:-0.017365213 8:0.040706408 9:0.33939683 10:-0.14174433 11:-0.09331689 12:-0.24614357 13:-0.020211617 
6.812186846890128 1:0.49827729 2:0.16477844 3:-0.2361942 4:-0.2554543 5:0.56255191 6:0.25404839 7:-0.11190654 8:0.10994593 9:0.60510013 10:0.024710695 11:0.032505646 12:-0.17135252 13:0.056714267 
26.328064265344 1:0.15956652 2:-0.077536513 3:-0.25769137 4:-0.065783042 5:0.2591364 6:0.37356084 7:-0.063158802 8:0.082017628 9:0.20982933 10:0.062071486 11:-0.073406713 12:-0.24888724 13:0.042403149 
7.2168955344639 1:0.38207619 2:-0.12597278 3:-0.24809664 4:0.038718269 5:0.3312413 6:0.30986971 7:-0.094127798 8:0.20486157 9:0.47141769 10:0.28640803 11:0.10937831 12:-0.19341422 13:0.1312267 
26.328064265344 1:0.43829966 2:-0.4016295 3:-0.48582664 4:-0.090715287 5:0.42952965 6:0.33520649 7:-0.096744424 8:0.20437713 9:0.55332868 10:0.31817962 11:0.35960348 12:0.22077736 13:0.54802329 
24.75669699314349 1:0.044879469 2:-0.027991602 3:-0.37150802 4:-0.030482347 5:0.49310303 6:-0.13094055 7:0.048888535 8:0.13862659 9:0.38022306 10:0.32518789 11:0.1365051 12:0.093886999 13:0.19351746 
