svm_type c_svc
kernel_type rbf
gamma 0.5
nr_class 2
total_sv 10471
rho 3.28772
label 1 -1
nr_sv 2156 8315
SV
25.5754189944 1:0.052632429 2:0.33239778 3:0.19920925 4:-0.11025261 5:-0.51933209 6:-0.0913086 7:0.17857823 8:0.4456346 9:0.11430926 10:-0.033671918 11:-0.034909972 12:-0.18456304 13:0.40722873 
25.5754189944 1:-0.00099909869 2:0.38493459 3:0.17037122 4:-0.19511273 5:-0.47612731 6:-0.07288739 7:0.19707927 8:0.37780328 9:0.060946022 10:0.012427933 11:0.018559309 12:-0.26487533 13:0.20513864 
25.5754189944 1:-0.11656259 2:0.44150362 3:0.21234377 4:-0.057128431 5:-0.32376169 6:0.040611622 7:0.035287303 8:0.23230769 9:0.0045432031 10:0.14525396 11:0.13904682 12:-0.077087347 13:0.35674116 
25.5754189944 1:0.34388349 2:0.63846112 3:0.30743721 4:-0.28362381 5:-0.47173694 6:-0.14058953 7:0.31286508 8:0.27388086 9:0.083792106 10:-0.20649859 11:0.025706986 12:-0.41804786 13:0.23358394 
25.5754189944 1:-0.42467238 2:0.30360999 3:0.2151224 4:0.11173992 5:-0.31927045 6:0.08712939 7:0.018255437 8:0.26508003 9:-0.10354068 10:0.092037075 11:0.037790799 12:-0.057458491 13:0.27606841 
25.5754189944 1:0.30064473 2:0.52180977 3:0.2576893 4:-0.21617384 5:-0.45157385 6:-0.12022106 7:0.29050912 8:0.34417707 9:0.068609734 10:-0.1845992 11:-0.04787792 12:-0.45103181 13:0.18081823 
25.5754189944 1:0.15011326 2:-0.033531716 3:0.084029443 4:0.1973081 5:-0.38327493 6:0.17259656 7:0.10590514 8:0.57073781 9:0.0046308373 10:0.24544864 11:0.0062370659 12:-0.0076999128 13:0.11012859 
25.5754189944 1:-0.10052519 2:0.37213485 3:0.33654032 4:0.16244721 5:-0.2943458 6:0.28895959 7:0.21077987 8:0.46512637 9:0.092280108 10:0.36896008 11:0.2885174 12:-0.065002172 13:-0.024541952 
25.5754189944 1:-0.27759265 2:-0.33046749 3:0.057457705 4:0.36393421 5:-0.40228871 6:0.39097494 7:0.1214397 8:0.70230762 9:-0.041331644 10:0.32954938 11:0.0074572506 12:0.13954287 13:0.12387773 
25.5754189944 1:-0.17986267 2:0.48930323 3:0.37872403 4:0.042326554 5:-0.26093438 6:0.33530793 7:0.29958176 8:0.53484989 9:0.22885604 10:0.33871729 11:0.24921434 12:-0.064752015 13:0.042937111 
25.5754189944 1:0.019001517 2:0.26067989 3:0.24706185 4:0.082277842 5:-0.31211941 6:0.34902715 7:0.43260626 8:0.65222901 9:0.16782514 10:0.11100438 11:-0.12269156 12:-0.3909852 13:-0.036896556 
25.5754189944 1:-0.11248775 2:0.31729017 3:0.31031135 4:0.15444498 5:-0.24186754 6:0.42099224 7:0.26655608 8:0.40985811 9:-0.046781977 10:0.13112437 11:0.10288958 12:-0.20169747 13:-0.070585152 
25.5754189944 1:-0.5167536 2:-0.036344367 3:0.39262474 4:0.57635035 5:-0.49994265 6:0.045601693 7:-0.45208489 8:0.28123141 9:-0.26143654 10:0.31743732 11:-0.051486161 12:0.060826764 13:-0.13586536 
25.5754189944 1:-0.062806555 2:0.24575638 3:0.41784509 4:0.47047475 5:-0.41871506 6:-0.23161535 7:-0.61463288 8:0.034337051 9:-0.2563449 10:0.25697471 11:0.029963911 12:0.026956729 13:-0.058486131 
25.5754189944 1:-0.13123226 2:0.24400185 3:0.29432716 4:0.2483907 5:-0.49801631 6:-0.12943491 7:-0.32278641 8:0.058278393 9:-0.18859321 10:0.28885831 11:0.22910719 12:0.039830555 13:-0.055158971 
25.5754189944 1:-0.41195344 2:0.2899421 3:0.35027544 4:0.39998921 5:-0.36581978 6:-0.27452598 7:-0.50315759 8:-0.010148463 9:-0.25263436 10:0.25999034 11:0.17300676 12:0.18178833 13:0.046558323 
25.5754189944 1:-0.19100424 2:0.33420353 3:0.32260799 4:0.27275483 5:-0.41936306 6:-0.016678676 7:-0.18027315 8:0.02970225 9:-0.17140024 10:0.18190389 11:0.21989023 12:-0.0020228867 13:-0.048757185 
25.5754189944 1:0.39088911 2:0.66074075 3:0.1731625 4:-0.45360878 5:-0.50200811 6:-0.063113688 7:-0.029765785 8:-0.30400993 9:-0.15593352 10:0.1393186 11:0.65978787 12:-0.29224523 13:0.044638102 
25.5754189944 1:0.13549251 2:0.27320269 3:0.089764085 4:-0.16672765 5:-0.60656426 6:-0.25839361 7:-0.34047991 8:-0.19457456 9:-0.41017827 10:-0.050760287 11:0.20362169 12:-0.12370598 13:-0.014880362 
25.5754189944 1:-0.0046640658 2:0.27047879 3:0.18515089 4:-0.069647473 5:-0.52314986 6:0.049041139 7:-0.13545286 8:-0.028444096 9:-0.24701902 10:0.20534958 11:0.49467046 12:-0.055826115 13:0.048239549 
25.5754189944 1:-0.014633697 2:0.44722776 3:0.27157356 4:-0.11385167 5:-0.55870388 6:-0.13210553 7:-0.11281388 8:-0.074259091 9:-0.30135752 10:0.10107015 11:0.49414001 12:-0.008519041 13:0.03544693 
25.5754189944 1:-0.058570502 2:0.035306341 3:0.13809868 4:0.23836083 5:-0.42077911 6:-0.057215532 7:-0.33355477 8:0.145595 9:-0.23617305 10:0.2432056 11:0.11919956 12:0.029736102 13:0.010296445 
25.5754189944 1:-0.08656131 2:0.3998656 3:0.29374219 4:0.25142418 5:-0.33834005 6:-0.031528734 7:-0.33152476 8:0.002893937 9:-0.19361908 10:0.2306616 11:0.33849885 12:0.023800564 13:0.12305838 
25.5754189944 1:-0.35910827 2:0.23128812 3:0.13421607 4:0.21374383 5:-0.22601795 6:-0.14806653 7:-0.13559859 8:0.087205291 9:-0.2052339 10:0.23823118 11:0.088516726 12:0.054729213 13:-0.070320976 
25.5754189944 1:-0.19798894 2:0.64352931 3:0.44961247 4:-0.010258015 5:-0.30432981 6:0.11528182 7:-0.38905855 8:-0.17238072 9:-0.037870196 10:0.24561534 11:0.32448819 12:0.0045604755 13:0.23444568 
25.5754189944 1:0.016768987 2:0.19482425 3:0.00095257939 4:-0.12192146 5:-0.38983845 6:-0.087634436 7:-0.27581062 8:-0.15240641 9:-0.25584822 10:0.15557183 11:0.34109438 12:-0.086487584 13:0.056871408 
25.5754189944 1:0.53607314 2:0.642727 3:0.11554989 4:-0.53553927 5:-0.63451124 6:-0.14058194 7:-0.064202337 8:-0.32393762 9:-0.091990068 10:0.27873328 11:0.75603077 12:-0.26079207 13:0.18068515 
25.5754189944 1:-0.26016705 2:0.014785453 3:-0.0014749533 4:-0.0026944694 5:-0.45875217 6:-0.047856963 7:-0.37069924 8:-0.076810397 9:-0.27196871 10:0.24225419 11:0.35118396 12:0.051771906 13:0.12408418 
25.5754189944 1:0.41344786 2:0.48156121 3:0.11583739 4:-0.30929927 5:-0.57177852 6:-0.099828226 7:-0.0825394 8:-0.13646559 9:-0.12013974 10:0.28060765 11:0.68507156 12:-0.17812181 13:0.12739079 
25.5754189944 1:0.51217024 2:0.68928692 3:0.0057830712 4:-0.55844536 5:-0.16624526 6:-0.17037296 7:-0.014008363 8:-0.38351621 9:0.19551753 10:0.52816158 11:0.69416391 12:-0.27320641 13:-0.17062865 
25.5754189944 1:0.2649457 2:0.20622111 3:-0.14069314 4:-0.23548189 5:-0.31233051 6:-0.12532775 7:-0.30622983 8:-0.1306205 9:0.059004342 10:0.39776047 11:0.49821787 12:-0.13718112 13:0.24572078 
25.5754189944 1:0.12643323 2:0.17550214 3:0.046143212 4:-0.1474882 5:-0.46774638 6:0.011532132 7:-0.2674183 8:-0.09351121 9:-0.048276085 10:0.51095253 11:0.55954038 12:-0.23028646 13:-0.2160892 
25.5754189944 1:0.15229294 2:0.048828557 3:-0.10110429 4:-0.050535494 5:-0.39708631 6:-0.056786531 7:-0.37539269 8:-0.052988028 9:-0.077996096 10:0.41394703 11:0.41931488 12:-0.083043583 13:0.14147705 
25.5754189944 1:0.38786343 2:0.34183313 3:0.18603366 4:-0.0021781021 5:-0.42312545 6:-0.04243035 7:-0.32591937 8:0.027324974 9:0.037804493 10:0.43328951 11:0.16937428 12:-0.2772921 13:0.18028561 
25.5754189944 1:0.43277645 2:0.778669 3:0.22024246 4:-0.27613094 5:-0.1709057 6:-0.093770749 7:-0.26071298 8:-0.45012418 9:0.049466984 10:0.37178673 11:0.32694658 12:-0.23290633 13:0.2203145 
25.5754189944 1:0.15194862 2:0.19706446 3:0.2057047 4:0.10471204 5:-0.52720454 6:-0.045855454 7:-0.39906388 8:0.091306124 9:-0.04080801 10:0.43183727 11:0.099570579 12:-0.23266731 13:0.090978918 
25.5754189944 1:0.26861273 2:0.67900478 3:0.28662972 4:-0.19334508 5:-0.18838613 6:0.11885405 7:-0.20947583 8:-0.42179104 9:-0.01268914 10:0.36417439 11:0.42475322 12:-0.24410305 13:0.17941304 
25.5754189944 1:0.53000725 2:0.67629868 3:0.39772006 4:-0.16912372 5:-0.56548311 6:-0.066708353 7:-0.1044904 8:-0.15853872 9:-0.14083903 10:0.23076101 11:0.45953438 12:-0.29583508 13:0.014420185 
25.5754189944 1:0.37771693 2:0.37711594 3:0.1881581 4:-0.092424635 5:-0.39287226 6:0.010674237 7:-0.14216954 8:-0.022786459 9:-0.074861858 10:0.33839223 11:0.49839014 12:-0.022733248 13:0.26008103 
25.5754189944 1:0.21120915 2:0.37973255 3:0.35514648 4:0.069862534 5:-0.5815413 6:-0.071781865 7:-0.17633159 8:0.092605374 9:-0.189516 10:0.23112863 11:0.34212164 12:-0.13142991 13:-0.06868062 
25.5754189944 1:0.22654717 2:0.37075859 3:0.23422115 4:0.030072894 5:-0.34387035 6:0.089823253 7:-0.084372673 8:0.051373231 9:-0.10341285 10:0.28036533 11:0.4321618 12:-0.035013095 13:0.19616458 
25.5754189944 1:0.49750574 2:0.67868108 3:0.32819105 4:-0.20845386 5:-0.45504597 6:-0.022583525 7:-0.20586366 8:-0.27503416 9:-0.092550577 10:0.28860641 11:0.46734948 12:-0.27905572 13:0.17510209 
25.5754189944 1:0.45775106 2:0.46611765 3:0.29633708 4:-0.066465176 5:-0.53379547 6:-0.068831318 7:-0.12924636 8:-0.10107074 9:-0.24866176 10:0.22554592 11:0.49397643 12:-0.16995142 13:-0.12008524 
25.5754189944 1:0.11608318 2:0.49880717 3:0.28813079 4:-0.076447081 5:-0.45329868 6:6.2589383e-005 7:-0.14980568 8:-0.12271285 9:-0.17701383 10:0.27479485 11:0.48481677 12:-0.20874071 13:0.11557036 
25.5754189944 1:0.44808241 2:0.43365219 3:0.24388363 4:-0.093615808 5:-0.55044027 6:-0.13205502 7:-0.2203379 8:-0.17091248 9:-0.28409584 10:0.19623686 11:0.44619624 12:-0.20204539 13:-0.12125502 
25.5754189944 1:0.48154867 2:0.025642047 3:0.11734913 4:0.21990841 5:-0.4077545 6:-0.02864608 7:-0.30736445 8:0.19938995 9:-0.12515288 10:0.34164514 11:0.11575074 12:-0.04253784 13:0.13296448 
25.5754189944 1:0.4775179 2:0.51127059 3:0.22585505 4:-0.054766689 5:-0.4061915 6:-0.095685718 7:-0.1826335 8:-0.087799095 9:-0.20146651 10:0.1103744 11:0.32841435 12:-0.16775992 13:0.13809856 
25.5754189944 1:0.083030843 2:-0.12645756 3:0.20408338 4:0.30692832 5:-0.55621583 6:0.16569568 7:-0.14045894 8:0.39180915 9:-0.17337506 10:0.32541848 11:0.036756796 12:-0.067272244 13:-0.028072597 
25.5754189944 1:0.41007727 2:0.52214253 3:0.24287168 4:-0.056464384 5:-0.40703148 6:-0.090075628 7:-0.1702323 8:-0.092294685 9:-0.21783502 10:0.094422763 11:0.30926465 12:-0.19038943 13:0.093452764 
25.5754189944 1:0.33233999 2:0.49941874 3:0.30966945 4:-0.036677596 5:-0.42835886 6:0.080200744 7:0.056851148 8:0.14128372 9:-0.095355594 10:0.17396636 11:0.35331179 12:-0.12954618 13:0.2632676 
25.5754189944 1:0.48479621 2:0.67461127 3:0.24668767 4:-0.20872131 5:-0.3602334 6:0.019813289 7:-0.023010656 8:-0.20625063 9:-0.14394345 10:0.13711099 11:0.47559754 12:-0.29077773 13:0.060241253 
25.5754189944 1:-0.0085973697 2:-0.30846937 3:0.15549156 4:0.42527781 5:-0.60277515 6:0.090084901 7:-0.24303301 8:0.52370134 9:-0.16695189 10:0.40027502 11:0.043360665 12:0.18178119 13:0.034385192 
25.5754189944 1:0.36879847 2:0.50453314 3:0.21190397 4:-0.11424024 5:-0.39521734 6:0.027446325 7:-0.04936745 8:-0.081242955 9:-0.17377696 10:0.14447854 11:0.38958433 12:-0.2315431 13:0.085330148 
25.5754189944 1:0.46112397 2:0.54426479 3:0.3382075 4:-0.13320794 5:-0.47113871 6:0.10674655 7:0.010170573 8:-0.24643825 9:-0.33457344 10:0.15045658 11:0.50277789 12:-0.29149941 13:-0.075957454 
25.5754189944 1:0.46369061 2:0.22186805 3:0.17236054 4:0.23578609 5:-0.24115985 6:0.10118038 7:-0.25901312 8:0.038358366 9:-0.16859158 10:0.29027451 11:0.23534168 12:-0.11119169 13:0.087003669 
25.5754189944 1:0.20764323 2:0.14336904 3:0.24741461 4:0.036935468 5:-0.6195147 6:0.073952127 7:-0.30772096 8:-0.20374375 9:-0.48484824 10:0.091292372 11:0.16267357 12:-0.33409561 13:-0.28401556 
25.5754189944 1:0.28238882 2:0.25690747 3:0.15403397 4:0.14462587 5:-0.2500495 6:0.13749674 7:-0.16393399 8:0.020151633 9:-0.16987696 10:0.26583256 11:0.34844387 12:-0.083076629 13:0.15234943 
25.5754189944 1:0.43665572 2:0.43782502 3:0.21400497 4:-0.045044923 5:-0.29541642 6:0.070365733 7:-0.16299329 8:-0.20537955 9:-0.24163963 10:0.16963752 11:0.40090964 12:-0.30353193 13:-0.060288743 
25.5754189944 1:0.28835552 2:0.44791365 3:0.24562702 4:0.050442848 5:-0.25913211 6:0.20386186 7:-0.057291673 8:-0.10975169 9:-0.22489977 10:0.15738534 11:0.39173199 12:-0.31013546 13:-0.094756105 
25.5754189944 1:0.12886052 2:0.1001658 3:0.15763169 4:0.14902827 5:-0.37383843 6:0.10336532 7:-0.30874039 8:-0.070170873 9:-0.31693507 10:0.1994657 11:0.20918467 12:-0.1828986 13:-0.050183486 
25.5754189944 1:0.13939044 2:0.54205485 3:0.30767719 4:0.059277008 5:-0.18912997 6:0.3124864 7:0.05980124 8:-0.079708115 9:-0.15677963 10:0.2389103 11:0.5114722 12:-0.21234441 13:0.050773223 
0.003499393586539702 1:-0.1932275 2:0.36469884 3:0.40396006 4:0.036503648 5:-0.44612273 6:0.52982741 7:0.26775136 8:0.21536596 9:-0.053954297 10:0.45866013 11:0.6715638 12:0.09831553 13:0.39683198 
25.5754189944 1:-0.0088648339 2:0.38519409 3:0.28855929 4:0.040151781 5:-0.35446087 6:0.19949539 7:0.17586753 8:0.32403323 9:-0.014519413 10:0.16190918 11:0.23552006 12:0.01792497 13:0.2040933 
25.5754189944 1:-0.080206234 2:0.5912537 3:0.4629493 4:0.11388771 5:-0.36732361 6:0.1168926 7:0.089023969 8:0.18752277 9:-0.085970521 10:0.090091789 11:0.24418319 12:0.048652132 13:0.27208429 
25.5754189944 1:-0.34749765 2:-0.31029233 3:0.16745918 4:0.52682858 5:-0.39537777 6:0.32338311 7:-0.09193632 8:0.59294021 9:-0.1407484 10:0.31513228 11:-0.12258541 12:0.09432327 13:0.053725397 
25.5754189944 1:-0.16363388 2:0.5913592 3:0.50350212 4:0.029164066 5:-0.34891571 6:0.16649575 7:0.019013392 8:0.11551862 9:-0.13844929 10:0.09885182 11:0.21095802 12:0.073153878 13:0.16583164 
25.5754189944 1:-0.057010029 2:0.3464999 3:0.41609871 4:0.38004807 5:-0.35097315 6:-0.0050836035 7:-0.20379987 8:0.38693579 9:0.049268741 10:0.43885885 11:0.14240569 12:0.055911316 13:0.1265782 
25.5754189944 1:-0.035378269 2:0.63749222 3:0.46540603 4:0.023217817 5:-0.31862576 6:0.081655699 7:-0.11553402 8:0.30609667 9:0.36548631 10:0.46405876 11:0.19763228 12:-0.15412147 13:-0.010075338 
25.5754189944 1:-0.38538885 2:0.027861795 3:0.43091628 4:0.62428593 5:-0.44515467 6:0.059003635 7:-0.31888983 8:0.53236225 9:-0.016596653 10:0.5032865 11:0.018095733 12:0.12200753 13:0.088469764 
25.5754189944 1:-0.097371178 2:0.64157669 3:0.4605524 4:-0.057038085 5:-0.38662167 6:0.062522856 7:-0.11928679 8:0.22855447 9:0.33163192 10:0.53475389 11:0.24471256 12:-0.11260272 13:0.16572667 
25.5754189944 1:-0.018560996 2:0.42804885 3:0.38473101 4:0.10935058 5:-0.53363887 6:-0.13388378 7:-0.1312574 8:0.36298281 9:0.16735827 10:0.48707119 11:0.45009745 12:0.118594 13:0.17646235 
25.5754189944 1:0.01697639 2:0.69020728 3:0.33572716 4:-0.24472059 5:-0.44516045 6:-0.066015057 7:-0.093973429 8:0.11001926 9:0.14560911 10:0.089689112 11:0.19860712 12:-0.19152117 13:0.00071771372 
25.5754189944 1:-0.064399456 2:0.68188012 3:0.30643491 4:-0.23143335 5:-0.42145665 6:-0.13260625 7:-0.10651475 8:0.094163249 9:0.087849331 10:0.091759925 11:0.12633093 12:-0.25605459 13:0.026155902 
25.5754189944 1:0.017087134 2:0.70126126 3:0.41850929 4:-0.19913373 5:-0.39302815 6:0.10403564 7:-0.03520302 8:0.21435949 9:0.29066812 10:0.18345989 11:0.16878939 12:-0.077632298 13:0.14470219 
25.5754189944 1:0.021504991 2:0.45540997 3:0.29802108 4:-0.018948214 5:-0.54597275 6:-0.18142585 7:-0.091558339 8:0.34668364 9:0.090266818 10:0.22718047 11:0.23464934 12:-0.017107007 13:0.27678497 
25.5754189944 1:-0.33298289 2:0.70824745 3:0.44379076 4:-0.22832407 5:-0.36340053 6:0.17234652 7:-0.070853066 8:0.21153385 9:0.32049592 10:0.13564822 11:0.081927115 12:-0.0087354832 13:0.34235818 
25.5754189944 1:-0.018566111 2:0.4607417 3:0.32685759 4:0.035432185 5:-0.50085143 6:-0.15184912 7:-0.00010190868 8:0.37184386 9:0.030595662 10:0.20481404 11:0.20421868 12:-0.077986571 13:0.10354652 
25.5754189944 1:0.12667693 2:0.17308201 3:0.19823783 4:0.086327006 5:-0.62218636 6:-0.27820401 7:-0.18138073 8:0.48423448 9:0.17374428 10:0.46673519 11:0.24947809 12:0.025338421 13:0.15942174 
25.5754189944 1:0.13385871 2:0.3096023 3:0.33127261 4:0.14715186 5:-0.56454587 6:-0.18265952 7:-0.028407086 8:0.53849609 9:0.18321572 10:0.29335508 11:0.020865799 12:-0.32087992 13:-0.17726006 
25.5754189944 1:-0.1792117 2:0.26016609 3:0.092716105 4:0.049298942 5:-0.4996999 6:-0.58786293 7:-0.15998786 8:0.31393314 9:0.14402653 10:0.51405296 11:0.15511824 12:0.11942791 13:0.012426807 
25.5754189944 1:0.040393454 2:0.41677494 3:0.33124062 4:0.062903822 5:-0.53533896 6:-0.16664475 7:0.02790809 8:0.49092912 9:0.1852806 10:0.22313069 11:0.10857805 12:-0.25229762 13:-0.046487539 
25.5754189944 1:0.12830658 2:0.19850073 3:0.26024754 4:0.13094232 5:-0.56696245 6:-0.16939708 7:-0.012250476 8:0.63025492 9:0.2539642 10:0.3910229 11:0.059594848 12:-0.17828629 13:-0.018096605 
25.5754189944 1:0.10315135 2:0.15946809 3:0.22795831 4:0.099889323 5:-0.61990929 6:-0.14196294 7:0.029137613 8:0.6093586 9:0.21333516 10:0.53840341 11:0.55141065 12:0.24868399 13:0.25056444 
25.5754189944 1:-0.19730055 2:0.22892568 3:0.26764427 4:0.17796426 5:-0.50697386 6:-0.17087141 7:-0.043390542 8:0.58732804 9:0.23998802 10:0.4267875 11:0.073684198 12:-0.1984965 13:-0.1603119 
25.5754189944 1:0.018750736 2:0.33451176 3:0.28275707 4:0.042789678 5:-0.55612506 6:-0.11415969 7:0.0372481 8:0.48378757 9:0.17075233 10:0.39455323 11:0.47932005 12:0.080218089 13:0.17283839 
25.5754189944 1:0.060164981 2:0.6137939 3:0.36282316 4:-0.060434967 5:-0.35990371 6:0.028154191 7:0.028117834 8:0.2179286 9:0.047310865 10:0.12725406 11:0.14468302 12:-0.20318837 13:0.097664987 
25.5754189944 1:0.080151276 2:0.43285612 3:0.36594157 4:0.064609555 5:-0.5308332 6:-0.15877243 7:-0.074142381 8:0.30848879 9:-0.069181058 10:0.014785195 11:-0.063984207 12:-0.20218162 13:0.18418292 
25.5754189944 1:-0.26100566 2:-0.00016918955 3:0.38407903 4:0.36411931 5:-0.65932342 6:0.1148926 7:-0.001978069 8:0.57266711 9:-0.14534916 10:0.22973384 11:-0.010977012 12:-0.04811306 13:-0.18939963 
25.5754189944 1:-0.015188924 2:0.54937266 3:0.36865997 4:-0.01183865 5:-0.45056218 6:-0.11237858 7:-0.074910551 8:0.25457378 9:0.00099673642 10:0.055263377 11:-0.0065747778 12:-0.29487934 13:0.1778852 
25.5754189944 1:0.03367026 2:0.45312237 3:0.30640718 4:-0.023123666 5:-0.50989556 6:-0.11818683 7:-0.14105384 8:0.12390948 9:-0.057163221 10:0.30104112 11:0.41158062 12:0.00068017533 13:0.17314685 
25.5754189944 1:0.057648761 2:0.46650837 3:0.39967124 4:0.1343734 5:-0.52250962 6:-0.15123825 7:-0.10040825 8:0.32429027 9:0.04189559 10:0.202073 11:0.11443601 12:-0.11439334 13:0.063631921 
2.562865467731695 1:-0.54294317 2:0.23082872 3:0.3852354 4:0.28586548 5:-0.45761983 6:0.21682814 7:-0.16566794 8:0.36110568 9:0.045350955 10:0.54163716 11:0.3620002 12:-0.012244207 13:-0.027478319 
25.5754189944 1:-0.28277917 2:0.38383475 3:0.39202515 4:0.093906749 5:-0.4169998 6:0.070072644 7:-0.21811343 8:0.36057937 9:0.15693392 10:0.43645229 11:0.18297331 12:-0.016132308 13:0.28213446 
25.5754189944 1:-0.027019964 2:0.1960534 3:0.22239052 4:0.17653349 5:-0.3678924 6:0.12657936 7:-0.0066727844 8:0.37613604 9:-0.027468284 10:0.32065027 11:0.42067486 12:0.1643338 13:0.096296228 
25.5754189944 1:0.48749455 2:0.27444417 3:0.19451261 4:0.1220341 5:-0.2807572 6:0.18452034 7:-0.02951862 8:0.13633169 9:-0.18787903 10:0.13918034 11:0.27295747 12:-0.049070677 13:0.047285319 
25.5754189944 1:-0.29111519 2:-0.097897261 3:0.12360661 4:0.2671654 5:-0.39855541 6:0.26114216 7:-0.011563885 8:0.45797074 9:-0.10242433 10:0.30269141 11:0.22570602 12:0.11102412 13:-0.0078830883 
25.5754189944 1:0.4346485 2:0.19539658 3:0.24355701 4:0.26783397 5:-0.2898756 6:0.17685842 7:-0.075716773 8:0.19170386 9:-0.22976587 10:0.1885505 11:0.26608813 12:0.020284606 13:-0.034499011 
9.808212768743797 1:0.54275366 2:0.55208209 3:0.34583903 4:0.13287529 5:-0.089039622 6:0.25161712 7:-0.017778731 8:-0.06758551 9:-0.10403754 10:0.23612313 11:0.5336225 12:0.22481659 13:0.39670985 
25.5754189944 1:0.20548191 2:-0.13964381 3:0.3087971 4:0.60215296 5:-0.33515452 6:0.26543942 7:-0.29134744 8:0.29173056 9:-0.28064127 10:0.41044597 11:0.26306429 12:0.31243066 13:0.15457526 
25.5754189944 1:0.46896126 2:0.25570048 3:0.14003636 4:0.17394881 5:-0.14557379 6:-0.02416007 7:-0.35551526 8:-0.10584939 9:-0.19469881 10:0.30269235 11:0.32840645 12:-0.20228239 13:-0.11011795 
25.5754189944 1:0.40877245 2:-0.0036449489 3:0.20185066 4:0.20677097 5:-0.55068856 6:-0.032110933 7:-0.3720128 8:-0.07832115 9:-0.55176368 10:-0.038635618 11:0.082229409 12:0.024786806 13:-0.031490563 
25.5754189944 1:0.37522155 2:0.16686182 3:0.14458989 4:0.11927735 5:-0.52044189 6:-0.34767356 7:-0.49413068 8:0.081301248 9:-0.33332172 10:0.055695815 11:0.080803813 12:-0.30592018 13:-0.15269347 
25.5754189944 1:0.35120839 2:-0.048445842 3:0.13863006 4:0.20022778 5:-0.59338465 6:-0.15615277 7:-0.46094021 8:0.048903245 9:-0.45638029 10:-0.0075757783 11:-0.023861406 12:-0.055597948 13:-0.060756973 
25.5754189944 1:0.5373427 2:0.81538858 3:0.28246302 4:-0.38889922 5:-0.23632143 6:-0.082761348 7:-0.28709298 8:-0.31724003 9:0.13673665 10:-0.021367051 11:0.0088788363 12:-0.055676363 13:0.15636538 
25.5754189944 1:0.5943313 2:0.50454782 3:0.2113945 4:-0.14589523 5:-0.39466969 6:-0.088213136 7:-0.26027129 8:-0.21268657 9:-0.23281073 10:-0.051774958 11:0.10286062 12:-0.26804467 13:0.027763431 
25.5754189944 1:0.23758312 2:0.44163057 3:0.20455009 4:-0.050657184 5:-0.40438198 6:-0.16876721 7:-0.25161532 8:-0.087472015 9:-0.22779324 10:0.0061266992 11:0.11243356 12:-0.27550088 13:-0.072511672 
25.5754189944 1:0.44587153 2:0.56518408 3:0.20930657 4:-0.11878006 5:-0.30767994 6:-0.24276685 7:-0.35101951 8:-0.13559975 9:-0.072486256 10:-0.010960777 11:0.010798012 12:-0.3268676 13:-0.0060194491 
25.5754189944 1:0.17967708 2:0.24412669 3:0.065268721 4:-0.11849117 5:-0.26495595 6:0.11870318 7:-0.27577867 8:-0.10200683 9:-0.028794771 10:0.16431013 11:0.034046678 12:-0.37893832 13:-0.025714415 
14.72029008079104 1:0.43922598 2:0.061412917 3:0.081726505 4:0.17290544 5:-0.33202971 6:-0.082149807 7:-0.36756345 8:0.17214276 9:-0.1101686 10:0.13169732 11:0.042339924 12:0.10516464 13:-0.17594776 
25.5754189944 1:0.20761892 2:0.18966305 3:0.090288601 4:0.082152193 5:-0.29927245 6:-0.071043071 7:-0.11686707 8:0.026684375 9:-0.077220948 10:0.28098061 11:-0.17541895 12:-0.19032138 13:-0.30025966 
25.5754189944 1:0.54002782 2:0.43790626 3:0.21983444 4:-0.078572977 5:-0.2542162 6:0.07575901 7:-0.22363397 8:0.025158216 9:0.20236908 10:0.36146232 11:0.059416278 12:-0.31090583 13:0.092795303 
25.5754189944 1:0.44543308 2:0.13253192 3:0.11758224 4:0.21904443 5:-0.31446154 6:0.068130356 7:-0.20451005 8:0.24107083 9:-0.01277039 10:0.41158891 11:0.16739803 12:-0.21168336 13:-0.17905104 
25.5754189944 1:0.24482566 2:0.19782001 3:0.20022225 4:0.12376266 5:-0.34556588 6:0.14487832 7:-0.2219054 8:0.18923695 9:0.068307227 10:0.39673568 11:0.11500759 12:-0.24667774 13:-0.099110355 
25.5754189944 1:0.32434593 2:0.28230276 3:0.18059287 4:0.14866643 5:-0.33147415 6:0.029624933 7:-0.21771104 8:0.12435011 9:-0.053623064 10:0.31977715 11:0.15088834 12:-0.25326211 13:-0.10996599 
5.321397586234153 1:0.35345687 2:0.84897901 3:0.38632118 4:-0.31327551 5:-0.031950155 6:0.1273382 7:-0.057636081 8:-0.059202632 9:0.50583421 10:0.13965008 11:-0.19798757 12:0.18438902 13:-0.24786293 
25.5754189944 1:0.14582508 2:0.71429159 3:0.31797508 4:-0.19134753 5:-0.24247163 6:0.18480425 7:0.10552675 8:0.038498083 9:0.21378919 10:0.43540228 11:0.54565114 12:-0.13682681 13:-0.14428758 
25.5754189944 1:-0.050566943 2:0.018525588 3:0.26588616 4:0.35284929 5:-0.41437652 6:0.2254535 7:-0.10548981 8:0.40549374 9:-0.077630579 10:0.38120128 11:0.092281342 12:-0.14456464 13:-0.29614315 
25.5754189944 1:0.044634142 2:0.78079223 3:0.38551222 4:-0.20043216 5:-0.28431182 6:0.21055455 7:0.096731519 8:-0.011633571 9:0.25274618 10:0.48621837 11:0.53469647 12:-0.11605215 13:-0.098244032 
25.5754189944 1:-0.036178503 2:0.55331245 3:0.27912007 4:0.028152432 5:-0.10932681 6:0.19120895 7:0.15638714 8:0.18136081 9:0.031052499 10:0.30226883 11:0.41455898 12:0.087924051 13:0.17202278 
25.5754189944 1:-0.36719991 2:-0.23695371 3:0.19191886 4:0.49946191 5:-0.3837935 6:0.32388625 7:-0.07871726 8:0.54314295 9:-0.15085923 10:0.33809761 11:0.021295309 12:0.18240679 13:0.13504484 
25.5754189944 1:-0.071316171 2:0.64090744 3:0.53906408 4:0.039813019 5:-0.37060164 6:0.14169113 7:0.0050055793 8:0.31967665 9:0.24821312 10:0.30958507 11:0.22165283 12:0.085843649 13:0.42141028 
25.5754189944 1:-0.41766224 2:0.5518066 3:0.48076626 4:0.14192074 5:-0.43391746 6:-0.15734613 7:-0.20858599 8:0.2737755 9:0.048521606 10:0.32069151 11:0.074062932 12:-0.21104617 13:-0.032949537 
25.5754189944 1:-0.14157733 2:0.19913732 3:0.25094742 4:0.23353602 5:-0.56400232 6:-0.23786868 7:-0.30057393 8:0.34425293 9:0.029012976 10:0.48819905 11:0.32680845 12:0.1902048 13:0.15279757 
25.5754189944 1:0.016333774 2:0.41088968 3:0.39771036 4:0.16446981 5:-0.46997174 6:-0.065178594 7:-0.12956513 8:0.17507591 9:-0.1701376 10:0.14306047 11:0.28719127 12:0.16061768 13:0.38092211 
25.5754189944 1:0.021698573 2:0.26524748 3:0.28337978 4:0.24537418 5:-0.44816738 6:-0.076181168 7:-0.22288832 8:0.1969685 9:-0.21014836 10:0.1441599 11:0.15926841 12:0.07446862 13:0.12249382 
25.5754189944 1:-0.27258698 2:0.26423332 3:0.39559681 4:0.28100807 5:-0.49597454 6:-0.0068144979 7:-0.19795043 8:0.2292116 9:-0.22456813 10:0.14721268 11:0.21000687 12:0.15216741 13:0.22984196 
25.5754189944 1:-0.074655836 2:0.24568494 3:0.28307443 4:0.24410502 5:-0.43112224 6:-0.025259615 7:-0.13210062 8:0.2703871 9:-0.15465629 10:0.18461904 11:0.21348052 12:0.11074534 13:0.12992055 
25.5754189944 1:0.052764906 2:0.46599331 3:0.31942237 4:-0.081793501 5:-0.51153744 6:-0.040495766 7:-0.035066284 8:-0.019555155 9:-0.29483828 10:-0.12127859 11:0.25175021 12:-0.13631314 13:0.027299474 
25.5754189944 1:0.094623345 2:0.14299861 3:0.1527788 4:0.13180412 5:-0.47157738 6:-0.0016960788 7:-0.094313243 8:0.25830787 9:-0.21856438 10:0.057633819 11:0.04901967 12:-0.093140937 13:-0.091340778 
25.5754189944 1:-0.28564162 2:0.035418519 3:0.24902108 4:0.23253139 5:-0.56417626 6:0.050091324 7:-0.18663833 8:0.19923391 9:-0.39183594 10:-0.0091913903 11:-0.0011260307 12:-0.0024798985 13:-0.0063392913 
25.5754189944 1:0.038860239 2:0.064118969 3:0.12581388 4:0.2311665 5:-0.40157444 6:0.067347454 7:-0.14503257 8:0.26268722 9:-0.22334838 10:0.15508692 11:0.10765953 12:0.028487389 13:-0.046897992 
25.5754189944 1:0.22986982 2:0.30552663 3:0.17591744 4:-0.05664095 5:-0.38614377 6:0.048790615 7:0.16197259 8:0.19691132 9:-0.24429129 10:-0.30602799 11:-0.17791242 12:-0.2502942 13:0.25149275 
25.5754189944 1:0.24726678 2:0.28345886 3:0.24160983 4:-0.11131885 5:-0.59285268 6:-0.065274702 7:0.16631974 8:0.2394646 9:-0.24001925 10:-0.18732063 11:0.17265849 12:0.020844834 13:0.42038489 
25.5754189944 1:-0.11040403 2:0.19209558 3:0.12159576 4:0.040973298 5:-0.42276976 6:-0.059801952 7:-0.017897868 8:0.24713844 9:-0.19830791 10:-0.089307431 11:-0.14938304 12:-0.15345443 13:0.15649624 
25.5754189944 1:0.16410313 2:0.097817508 3:0.13433597 4:0.039449735 5:-0.53196698 6:-0.02606873 7:0.022526996 8:0.33037602 9:-0.19062962 10:-0.013862932 11:0.091743922 12:0.099947891 13:0.37269594 
25.5754189944 1:0.24475328 2:0.55080199 3:0.16979107 4:-0.22899731 5:-0.29080805 6:-0.22718305 7:0.22378023 8:0.079857723 9:-0.16869855 10:-0.24491231 11:0.22418571 12:0.034926043 13:0.50698401 
25.5754189944 1:0.29027023 2:0.17600111 3:0.061593065 4:-0.082113985 5:-0.52530101 6:-0.082717429 7:-0.021328094 8:0.16459939 9:-0.26186216 10:-0.22640497 11:-0.13203143 12:-0.28457658 13:0.050883254 
25.5754189944 1:-0.087843009 2:0.10374881 3:-0.0076272738 4:-0.022340347 5:-0.35015522 6:-0.15076124 7:0.070170556 8:0.17187849 9:-0.24462085 10:-0.065848239 11:0.05050636 12:0.13049228 13:0.28981435 
25.5754189944 1:0.17473084 2:0.015437594 3:0.0083840027 4:0.022678001 5:-0.56102878 6:-0.10134654 7:-0.18287547 8:0.18959075 9:-0.30497829 10:-0.11727081 11:-0.20914474 12:-0.25730757 13:-0.13583587 
25.5754189944 1:0.23911893 2:0.19743818 3:0.19873691 4:0.038319673 5:-0.48841007 6:0.042971404 7:0.13432859 8:0.39299261 9:-0.11657633 10:-0.017830069 11:0.043317423 12:-0.11391435 13:0.1239824 
25.5754189944 1:0.20955815 2:0.0029263364 3:0.084768081 4:0.11106849 5:-0.42187373 6:0.13030374 7:0.034889071 8:0.29942387 9:-0.21412774 10:0.067872082 11:0.11182965 12:-0.062419164 13:-0.077634357 
25.5754189944 1:-0.085818841 2:0.048960118 3:0.22795809 4:0.14583143 5:-0.55814915 6:0.10399404 7:0.068667113 8:0.4352049 9:-0.1790182 10:-0.013019392 11:-0.029700572 12:-0.081382387 13:0.071061162 
25.5754189944 1:0.141026 2:-0.0025481816 3:0.060020888 4:0.096393642 5:-0.41089252 6:0.17011572 7:0.076029982 8:0.32218699 9:-0.2109796 10:0.048307189 11:0.076629042 12:-0.068342867 13:0.0082860623 
25.5754189944 1:0.26147924 2:0.0081698856 3:0.025602324 4:-0.00072910554 5:-0.48624681 6:0.057822591 7:0.026742156 8:0.30870796 9:-0.18099229 10:0.077650759 11:0.11865919 12:-0.041683301 13:0.049126255 
25.5754189944 1:0.20090795 2:0.1179357 3:0.078275379 4:0.11699047 5:-0.36994519 6:0.18503924 7:0.10521813 8:0.37805937 9:-0.11677788 10:0.04950899 11:-0.015868047 12:-0.19106891 13:0.010902535 
25.5754189944 1:-0.084219617 2:0.037748355 3:0.067702732 4:0.064952591 5:-0.46962111 6:0.044237948 7:-0.008286649 8:0.34301286 9:-0.13353794 10:0.17924976 11:0.17315566 12:-0.0070855945 13:0.019807594 
25.5754189944 1:0.15092605 2:0.058476899 3:-0.0063026334 4:0.058077676 5:-0.34259702 6:0.25394299 7:0.18466161 8:0.39033421 9:-0.10653617 10:0.0086947576 11:-0.026026442 12:-0.2252825 13:0.040907056 
25.5754189944 1:0.27329446 2:0.27746005 3:0.090766135 4:-0.12052361 5:-0.3650279 6:0.093021465 7:0.19424921 8:0.21536439 9:-0.10658848 10:0.071176745 11:0.3760972 12:0.026571793 13:0.18905062 
25.5754189944 1:0.25404445 2:0.23380428 3:0.10628912 4:-0.03777197 5:-0.38248423 6:0.14892879 7:0.17855697 8:0.22392961 9:-0.1895827 10:-0.12881233 11:0.11725701 12:-0.13053219 13:0.1991179 
25.5754189944 1:-0.047599816 2:0.13547976 3:0.050534182 4:-0.046113389 5:-0.41765349 6:0.03728433 7:0.043549231 8:0.21668699 9:-0.15780014 10:0.089229692 11:0.28564922 12:0.093802282 13:0.22672315 
25.5754189944 1:0.16626926 2:0.51871741 3:0.16408204 4:-0.18645058 5:-0.33423073 6:0.21845388 7:0.34395774 8:0.13791696 9:-0.090938435 10:-0.10692981 11:0.35208203 12:-0.23078757 13:0.23557044 
25.5754189944 1:0.23131628 2:0.35015629 3:0.11296065 4:-0.25161987 5:-0.43709738 6:0.12677145 7:0.28320913 8:0.23732616 9:-0.043158685 10:0.1032595 11:0.53296057 12:0.016784793 13:0.46293844 
25.5754189944 1:0.16396011 2:0.63350901 3:0.18709336 4:-0.38055569 5:-0.2551738 6:0.29782935 7:0.40090396 8:0.08883731 9:0.043232028 10:0.038564298 11:0.37572989 12:-0.21920036 13:0.18340418 
25.5754189944 1:-0.096079015 2:-0.08983693 3:0.036224185 4:0.054074413 5:-0.47557853 6:0.25177763 7:0.10705099 8:0.39405102 9:-0.12331858 10:0.21814769 11:0.29465725 12:0.1414428 13:0.25595544 
25.5754189944 1:0.035334779 2:0.56046458 3:0.21818677 4:-0.26747444 5:-0.36699445 6:0.23258993 7:0.4275009 8:0.23079932 9:0.018841969 10:0.075278487 11:0.48798757 12:-0.17953539 13:0.026631164 
25.5754189944 1:0.018038948 2:0.24965007 3:0.17305356 4:0.016289581 5:-0.37228209 6:0.14164758 7:0.10943399 8:0.23916764 9:-0.10340848 10:0.23215266 11:0.33693586 12:-0.13687282 13:-0.17916423 
25.5754189944 1:0.096699981 2:0.21991702 3:0.1937059 4:0.082794598 5:-0.34588183 6:0.26119538 7:0.25335395 8:0.3415973 9:-0.17912145 10:-0.011930355 11:0.20330069 12:-0.019042806 13:0.18669139 
25.5754189944 1:-0.31122206 2:0.083795609 3:0.21158373 4:0.1705007 5:-0.41870117 6:0.25240063 7:0.033212922 8:0.28468635 9:-0.17486304 10:0.24964247 11:0.28552485 12:-0.037876879 13:-0.11873547 
25.5754189944 1:0.014653473 2:0.22827999 3:0.19355254 4:0.10356937 5:-0.32692711 6:0.25855018 7:0.27888487 8:0.40762423 9:-0.15182836 10:-0.067623198 11:0.058935658 12:-0.12174796 13:0.087690916 
25.5754189944 1:0.14498279 2:0.67603382 3:0.29135752 4:-0.44462135 5:-0.41543419 6:0.19552512 7:0.22812778 8:-0.042879431 9:-7.7721857e-005 10:0.067369785 11:0.52572238 12:-0.043957299 13:0.62656123 
25.5754189944 1:0.11716789 2:0.15129938 3:0.091281524 4:0.077260815 5:-0.36053379 6:0.080689028 7:0.0055008302 8:0.20491107 9:-0.25235411 10:-0.10630278 11:-0.067943807 12:-0.14091222 13:0.12997609 
17.10683643052956 1:-0.19596966 2:-0.25700722 3:0.14057181 4:0.1762282 5:-0.76652747 6:0.054484464 7:-0.0099850006 8:0.5347654 9:-0.19236125 10:0.28541008 11:0.32277689 12:0.33938318 13:0.23952263 
25.5754189944 1:0.021977324 2:0.19025875 3:0.12920858 4:0.092357223 5:-0.34860579 6:0.08220112 7:0.041478661 8:0.27219968 9:-0.17005781 10:0.0019859619 11:0.052633291 12:-0.083806476 13:0.13027627 
25.5754189944 1:0.087375066 2:0.23230363 3:0.20417899 4:0.083869515 5:-0.26581211 6:0.25880931 7:0.17171225 8:0.1696399 9:-0.24573234 10:-0.030903319 11:0.3397992 12:0.21268677 13:0.56512346 
25.5754189944 1:0.0029723348 2:0.26405308 3:0.22900663 4:0.12226482 5:-0.39987016 6:0.1453003 7:0.10028003 8:0.34756491 9:-0.089871254 10:0.22464716 11:0.36919024 12:0.071705725 13:0.17216864 
25.5754189944 1:-0.24321309 2:0.040588999 3:0.25824206 4:0.25434064 5:-0.35629173 6:0.32545708 7:0.099268535 8:0.2384104 9:-0.37889167 10:-0.028184836 11:0.3085868 12:0.28998835 13:0.39412209 
25.5754189944 1:-0.11393546 2:0.42866879 3:0.32676106 4:0.038119524 5:-0.43810309 6:0.094439322 7:0.10323129 8:0.31135375 9:-0.034166415 10:0.23031642 11:0.29801586 12:-0.10572 13:0.064295876 
25.5754189944 1:0.0016863323 2:0.49264464 3:0.45198252 4:0.1830803 5:-0.42429603 6:0.0063087254 7:-0.057215262 8:0.22811158 9:-0.16180479 10:0.037734615 11:-0.0092522741 12:-0.18696326 13:-0.071157886 
25.5754189944 1:-0.086091644 2:0.27633966 3:0.29380322 4:0.16719148 5:-0.46619372 6:0.007855938 7:-0.030795231 8:0.36693437 9:-0.090516091 10:0.13811664 11:0.10179177 12:0.080930793 13:0.2267681 
25.5754189944 1:-0.35962235 2:0.4609949 3:0.39406005 4:0.16242607 5:-0.41312549 6:-0.10079915 7:-0.10889073 8:0.22175083 9:-0.15558327 10:0.037601809 11:-0.013381659 12:-0.18623976 13:-0.18253849 
25.5754189944 1:-0.13229603 2:0.049803037 3:0.1123507 4:0.20032455 5:-0.47463781 6:0.020257215 7:-0.11540587 8:0.39418997 9:-0.12136939 10:0.19838726 11:0.030122484 12:0.053359766 13:0.16310583 
25.5754189944 1:0.25341744 2:0.042232411 3:0.018208691 4:-0.013998381 5:-0.57930385 6:-0.15718167 7:-0.25795261 8:0.21995356 9:-0.055740696 10:0.41226178 11:0.31099745 12:-0.0088706106 13:-0.050121304 
25.5754189944 1:0.20437099 2:0.008688844 3:0.080576343 4:0.13405747 5:-0.57294054 6:-0.13115293 7:-0.16552381 8:0.44107786 9:-0.0041200676 10:0.34378387 11:0.16815923 12:0.016326399 13:-0.10845677 
25.5754189944 1:-0.0044494611 2:-0.013323072 3:0.002196063 4:0.027293062 5:-0.58344405 6:-0.18258411 7:-0.29709987 8:0.26067169 9:-0.046427365 10:0.41417905 11:0.22610316 12:-0.022314445 13:-0.10465228 
25.5754189944 1:0.042496182 2:0.14199371 3:0.090269709 4:0.05122892 5:-0.53719337 6:-0.095670382 7:-0.079826451 8:0.38834882 9:-0.0057735915 10:0.23662974 11:0.1455853 12:-0.099286379 13:-0.10870586 
25.5754189944 1:0.25577613 2:0.35827425 3:0.10545289 4:-0.16023849 5:-0.4198 6:0.0023169772 7:-0.040811491 8:0.20312537 9:0.22518694 10:0.5628302 11:0.35959956 12:-0.38902467 13:-0.050622191 
25.5754189944 1:0.11989802 2:0.35494104 3:0.16527319 4:-0.02283401 5:-0.43896387 6:-0.25518092 7:-0.097525974 8:0.27257304 9:-0.0086657971 10:0.094250187 11:0.12037596 12:-0.053431452 13:0.26006316 
25.5754189944 1:-0.4978442 2:0.33969283 3:0.25788286 4:0.032376657 5:-0.44162787 6:-0.046655474 7:-0.16691716 8:0.38221138 9:0.1413392 10:0.2631749 11:0.077134908 12:-0.1651647 13:0.015147305 
25.5754189944 1:-0.27816064 2:0.15168304 3:0.24053678 4:0.32368314 5:-0.30741813 6:0.11946822 7:-0.16410061 8:0.24600231 9:-0.18714667 10:0.26046649 11:0.23611348 12:0.023946154 13:-0.11670452 
25.5754189944 1:0.0015981706 2:0.60994837 3:0.3669092 4:-0.16088946 5:-0.39034607 6:-0.034574411 7:-0.042593299 8:0.19167559 9:0.094960208 10:0.18414232 11:0.38302189 12:-0.0028480943 13:0.029920434 
25.5754189944 1:0.028254724 2:0.56132831 3:0.27877456 4:-0.097231091 5:-0.43159483 6:-0.16877362 7:-0.11534601 8:0.0079912964 9:-0.14418402 10:0.019841105 11:0.18672642 12:-0.17494303 13:-0.17178092 
23.06876675318909 1:-0.32108196 2:0.22822039 3:0.34274316 4:0.16372971 5:-0.57982115 6:-0.037707451 7:-0.10973149 8:0.34081417 9:-0.055088108 10:0.21017879 11:0.21956365 12:-0.0052501798 13:-0.010373384 
25.5754189944 1:-0.04044985 2:0.49876245 3:0.21701806 4:-0.18930442 5:-0.47166156 6:-0.29723653 7:-0.31876705 8:-0.10220668 9:-0.23008426 10:-0.071398616 11:0.093097876 12:-0.17303485 13:-0.21185493 
25.5754189944 1:0.042529583 2:0.49608036 3:0.39082935 4:0.040894192 5:-0.53475091 6:-0.1248307 7:-0.076994124 8:0.2458065 9:-0.056386721 10:0.20367501 11:0.39099618 12:-0.040865589 13:0.024380812 
25.5754189944 1:0.049703489 2:0.12427754 3:0.19822796 4:0.19089668 5:-0.59758884 6:-0.19044107 7:-0.28538681 8:0.28856009 9:-0.17550164 10:0.23476236 11:0.078472763 12:0.029282309 13:-0.091087138 
25.5754189944 1:-0.2891333 2:-0.020422306 3:0.28800882 4:0.37661539 5:-0.63525355 6:-0.12000049 7:-0.41509445 8:0.32763847 9:-0.19494706 10:0.34106558 11:0.052797112 12:0.015956029 13:-0.16907987 
25.5754189944 1:-0.022271753 2:0.11789422 3:0.15667032 4:0.14532056 5:-0.61119591 6:-0.1978839 7:-0.28077673 8:0.27342956 9:-0.16167197 10:0.26189091 11:0.1460679 12:0.052070384 13:-0.047362588 
25.5754189944 1:0.048194019 2:0.24613499 3:0.25645175 4:0.098859642 5:-0.60219681 6:-0.20908811 7:-0.171854 8:0.28208304 9:-0.068964816 10:0.29221472 11:0.31995474 12:0.12310336 13:0.0066227056 
25.5754189944 1:0.074884071 2:0.5590586 3:0.25272295 4:-0.15197486 5:-0.47528555 6:-0.23679013 7:-0.1171237 8:0.097080227 9:0.018061422 10:0.33735916 11:0.66532317 12:0.070711967 13:0.10693344 
25.5754189944 1:-0.28211297 2:-0.055884543 3:0.25082499 4:0.32466014 5:-0.67381727 6:-0.15818579 7:-0.40598873 8:0.3270697 9:-0.17689217 10:0.37774694 11:0.19826849 12:0.18338955 13:-0.10518562 
25.5754189944 1:-0.025625874 2:0.53044466 3:0.21926453 4:-0.17381906 5:-0.45769717 6:-0.2201368 7:-0.093199183 8:0.090687759 9:-0.0049747569 10:0.3102803 11:0.60696039 12:0.034166616 13:0.087300928 
25.5754189944 1:0.085059506 2:0.37626829 3:0.16218938 4:-0.18842123 5:-0.55628274 6:-0.20298054 7:-0.15181165 8:0.030407774 9:-0.11932731 10:0.17380322 11:0.35852545 12:-0.15741614 13:-0.12482788 
25.5754189944 1:0.050187114 2:0.41783674 3:0.22886233 4:-0.041081885 5:-0.51100484 6:-0.13217083 7:-0.16407672 8:0.054184712 9:-0.14602117 10:0.10626052 11:0.31041626 12:-0.073252967 13:-0.012619916 
25.5754189944 1:-0.10141202 2:0.61764862 3:0.33218774 4:-0.14492049 5:-0.45872437 6:-0.071995187 7:-0.0057860919 8:0.027943154 9:-0.13777757 10:-0.082242399 11:0.3608916 12:-0.034075246 13:0.2118531 
25.5754189944 1:0.010604834 2:0.26519121 3:0.22290414 4:0.070966804 5:-0.37609263 6:0.06016151 7:-0.063756111 8:0.01604744 9:-0.3523928 10:-0.064757544 11:0.2864044 12:0.047962831 13:0.15164539 
25.5754189944 1:0.051911749 2:0.14688882 3:0.073114136 4:0.020957013 5:-0.47851703 6:0.02477355 7:0.0055317284 8:0.3375249 9:-0.013813837 10:0.28098381 11:0.42793182 12:0.06627637 13:0.020493645 
25.5754189944 1:-0.29485093 2:0.06674264 3:0.21186823 4:0.082309301 5:-0.56380748 6:0.12794862 7:-0.12918933 8:0.063415402 9:-0.40952462 10:-0.016590495 11:0.18491314 12:0.011721639 13:0.093534544 
25.5754189944 1:-0.056112296 2:0.17804644 3:0.13442056 4:0.10068832 5:-0.43163371 6:0.084803837 7:0.02675641 8:0.34686737 9:-0.03627 10:0.29454674 11:0.43474432 12:0.065421812 13:-0.0041333288 
25.5754189944 1:0.32950921 2:0.28796452 3:0.038315363 4:-0.18738358 5:-0.37473908 6:-0.066666234 7:0.10421315 8:0.46027528 9:0.22282229 10:0.062344257 11:-0.087667177 12:-0.21855958 13:0.22785245 
25.5754189944 1:0.25202966 2:0.064489174 3:0.051646326 4:-0.1066877 5:-0.61608174 6:-0.10801158 7:0.14587923 8:0.4994957 9:-0.021169699 10:0.042453438 11:0.029392272 12:-0.14294792 13:-0.017448366 
25.5754189944 1:-0.35146324 2:-0.10066832 3:0.17959571 4:0.29282513 5:-0.5726091 6:0.052238172 7:-0.14879326 8:0.51325916 9:-0.073446796 10:0.35468066 11:0.11363282 12:0.083719343 13:-0.11662909 
25.5754189944 1:-0.10191467 2:0.45376661 3:0.20572462 4:-0.12337416 5:-0.39625931 6:-0.06154402 7:0.035351074 8:0.21969424 9:-0.070112234 10:0.16344472 11:0.39369609 12:-0.093242157 13:0.12357674 
25.5754189944 1:-0.01379605 2:0.31845195 3:0.18434579 4:0.076228633 5:-0.35731009 6:-0.11086977 7:-0.12703739 8:0.14941755 9:-0.13268053 10:0.2308487 11:0.38524812 12:0.01523978 13:-0.14127985 
25.5754189944 1:0.57006583 2:0.40530313 3:-0.086058368 4:-0.44461024 5:-0.30187015 6:0.13720329 7:0.093282843 8:-0.09260022 9:0.016575217 10:0.068413708 11:0.072419242 12:-0.70243402 13:0.01094466 
25.5754189944 1:-0.33190182 2:-0.086334582 3:0.15272192 4:0.30703434 5:-0.49445737 6:0.048385777 7:-0.24225132 8:0.34273664 9:-0.18258803 10:0.32243505 11:0.11896856 12:0.0039961353 13:-0.26025444 
25.5754189944 1:0.5131227 2:0.3364581 3:-0.056543785 4:-0.33203321 5:-0.36866485 6:0.093430129 7:0.063344208 8:-0.023371153 9:-0.050475258 10:0.089056024 11:0.12086862 12:-0.58710219 13:0.009143363 
18.41691556417086 1:0.53940778 2:-0.06520397 3:-0.14212087 4:-0.064886167 5:-0.32241868 6:0.030127917 7:0.32449627 8:0.21590546 9:-0.28623251 10:0.069860546 11:-0.090099931 12:-0.33303967 13:-0.42644932 
25.5754189944 1:0.35211921 2:0.010192683 3:0.062963775 4:0.0025538352 5:-0.2730629 6:0.50119117 7:0.23336098 8:0.168608 9:-0.20274999 10:0.052802711 11:0.088563774 12:-0.45270244 13:-0.34489686 
25.5754189944 1:0.75783253 2:-0.04101193 3:-0.020622615 4:-0.1702218 5:-0.61802294 6:0.17080816 7:0.092442615 8:0.28603272 9:-0.11922659 10:0.19205244 11:0.22467285 12:-0.2628121 13:-0.10782285 
8.661459531857632 1:0.31319601 2:-0.50490406 3:-0.13880664 4:0.15066124 5:-0.53449709 6:0.3804279 7:0.17024681 8:0.73632149 9:0.058131223 10:0.49040347 11:0.0879641 12:-0.054767931 13:-0.1561103 
7.274797483538833 1:0.54454868 2:-0.037199062 3:-0.093338751 4:-0.057870357 5:-0.33197734 6:0.33423287 7:0.33236748 8:0.53035025 9:0.11441745 10:0.26289293 11:0.10541995 12:-0.37882732 13:-0.18978883 
25.5754189944 1:0.42470333 2:0.10646157 3:0.027720321 4:-0.033996507 5:-0.29525479 6:0.31311327 7:0.26917662 8:0.39662096 9:0.027190794 10:0.14092191 11:-0.042660727 12:-0.45867699 13:-0.1771323 
25.5754189944 1:0.3719515 2:0.3809892 3:0.095894566 4:-0.13548776 5:-0.32379655 6:0.069303933 7:0.26533336 8:0.38190503 9:0.17460747 10:0.25015401 11:0.29839173 12:-0.23460802 13:0.26260969 
25.5754189944 1:0.097849154 2:-0.12907488 3:0.075982886 4:0.11463438 5:-0.5148907 6:0.30785675 7:0.12396511 8:0.50227168 9:-0.049988113 10:0.26584681 11:-0.022965577 12:-0.28519541 13:-0.21495613 
25.5754189944 1:0.23154918 2:0.39624075 3:0.13429803 4:-0.086710942 5:-0.25460181 6:0.20259048 7:0.39438667 8:0.44915018 9:0.20493863 10:0.24205315 11:0.22768223 12:-0.29765735 13:0.17290666 
25.5754189944 1:0.20153817 2:0.59052774 3:0.26445945 4:-0.13994781 5:-0.26756545 6:0.33253368 7:0.46676465 8:0.27377129 9:0.18888419 10:0.28212575 11:0.30959784 12:-0.25783202 13:0.10410751 
25.5754189944 1:0.12887949 2:0.34069044 3:0.27130675 4:0.037879896 5:-0.3201454 6:0.36133448 7:0.29216709 8:0.33366114 9:0.0024773273 10:0.24262582 11:0.14407986 12:-0.29618788 13:-0.043867532 
25.5754189944 1:-0.12365363 2:0.35831356 3:0.17065516 4:0.058779977 5:-0.2340473 6:0.063920222 7:0.43053401 8:0.47201176 9:0.10720187 10:0.30890824 11:0.14474336 12:-0.10454327 13:0.037678121 
25.5754189944 1:0.032141988 2:0.73763898 3:0.27243514 4:-0.23070689 5:-0.046966631 6:0.47858824 7:0.30906885 8:0.044659763 9:0.23459663 10:0.15036785 11:0.1860138 12:-0.30064859 13:-0.28666187 
25.5754189944 1:0.086383993 2:0.027433392 3:0.11917691 4:0.24529511 5:-0.19402848 6:0.46615491 7:0.25426407 8:0.57893405 9:0.087803071 10:0.3836012 11:0.077868618 12:-0.23634275 13:-0.21448174 
25.5754189944 1:0.013674506 2:0.6134041 3:0.36067723 4:-0.021062803 5:-0.20599592 6:0.3120424 7:0.28796351 8:0.34821463 9:0.29858082 10:0.50449564 11:0.27825336 12:-0.066073527 13:-0.26329608 
25.5754189944 1:-0.28795958 2:-0.14162065 3:0.098472976 4:0.34656992 5:-0.25956074 6:0.4584508 7:0.18501184 8:0.72144949 9:0.14414134 10:0.51669387 11:0.07814129 12:-0.10317327 13:-0.15947255 
25.5754189944 1:-0.0011737797 2:0.28089003 3:0.340846 4:0.25935102 5:-0.36604789 6:0.23943336 7:0.095601338 8:0.43667968 9:-0.024554778 10:0.27030687 11:0.12715644 12:-0.17145461 13:-0.14183725 
25.5754189944 1:0.025669096 2:0.49345196 3:0.37889873 4:0.11881502 5:-0.23912065 6:0.37166988 7:0.27056301 8:0.42211028 9:0.17703787 10:0.32940946 11:0.28104886 12:-0.09822326 13:-0.067863827 
25.5754189944 1:-0.30923797 2:-0.032442576 3:0.3157124 4:0.48279441 5:-0.40279927 6:0.29887011 7:-0.048526872 8:0.51740949 9:-0.1358641 10:0.31338184 11:-0.015518048 12:-0.062442838 13:-0.23488968 
25.5754189944 1:-0.029207849 2:0.35062617 3:0.3635288 4:0.2864149 5:-0.23842837 6:0.28842919 7:0.075654827 8:0.3725076 9:0.0063659727 10:0.35460916 11:0.21438848 12:-0.084605574 13:-0.096031659 
25.5754189944 1:-0.05466004 2:0.47695755 3:0.37733951 4:0.20120805 5:-0.11556075 6:0.35857463 7:0.04008422 8:0.41607165 9:0.35709391 10:0.56436649 11:0.14759785 12:-0.17533277 13:-0.37291501 
25.5754189944 1:-0.31766943 2:-0.29603801 3:0.2650064 4:0.69377385 5:-0.31989816 6:0.28481201 7:-0.27091568 8:0.51454867 9:-0.09969542 10:0.53524911 11:0.004127225 12:0.027752123 13:-0.27102549 
8.580309981129151 1:-0.13725612 2:0.60703748 3:0.46599489 4:-0.013528853 5:-0.052078464 6:0.58444817 7:-0.065329378 8:0.32645806 9:0.63019431 10:0.51538176 11:-0.15837648 12:-0.042592527 13:-0.27651193 
25.5754189944 1:-0.074875907 2:0.2718912 3:0.39835346 4:0.51671574 5:-0.12074021 6:0.33349908 7:-0.11949771 8:0.39134421 9:0.067841246 10:0.47361167 11:0.086509205 12:-0.014593513 13:0.088301521 
25.5754189944 1:-0.071183226 2:0.44101712 3:0.43510284 4:0.29669762 5:0.047174127 6:0.59059826 7:0.046703897 8:0.3927806 9:0.30810148 10:0.43752264 11:-0.1895109 12:0.083700814 13:0.0041072608 
25.5754189944 1:-0.35256603 2:-0.30248814 3:0.32091874 4:0.79614828 5:-0.27122344 6:0.28189877 7:-0.31764619 8:0.52913575 9:-0.084703399 10:0.54261583 11:0.0001145663 12:0.14189528 13:-0.045433246 
25.5754189944 1:-0.16342062 2:0.52502792 3:0.50646276 4:0.18272444 5:0.025780742 6:0.67725553 7:-0.036133949 8:0.28329248 9:0.42438099 10:0.41179844 11:-0.27465427 12:0.19170451 13:0.061636383 
25.5754189944 1:-0.093394485 2:0.20662231 3:0.41209507 4:0.57264118 5:-0.20999309 6:0.22500762 7:-0.076996597 8:0.56039606 9:0.052310915 10:0.35234605 11:-0.11560842 12:-0.041939562 13:0.065490118 
25.5754189944 1:-0.081521321 2:0.35304963 3:0.45092974 4:0.42402877 5:-0.092368208 6:0.45666065 7:-0.015151699 8:0.3970481 9:0.13297153 10:0.46694051 11:0.10289834 12:0.0059568883 13:0.015495522 
25.5754189944 1:-0.38311463 2:-0.29118282 3:0.35363085 4:0.81618647 5:-0.29758867 6:0.30622922 7:-0.22771923 8:0.61492894 9:-0.1254241 10:0.39731247 11:-0.15865729 12:0.13798263 13:-0.00071151747 
25.5754189944 1:-0.16441646 2:0.46435551 3:0.51439392 4:0.31218854 5:-0.017499786 6:0.59008384 7:-0.083833117 8:0.2589943 9:0.2774347 10:0.43357205 11:-0.061441656 12:0.089830196 13:0.083333244 
25.5754189944 1:-0.10230206 2:0.29499407 3:0.43668558 4:0.51189117 5:-0.16682287 6:0.25676664 7:-0.19607721 8:0.24564598 9:-0.085882616 10:0.42931012 11:0.2056918 12:-0.057645122 13:-0.1894677 
25.5754189944 1:-0.047878084 2:0.57346133 3:0.48696246 4:0.27394998 5:-0.21344482 6:0.090500791 7:-0.26078106 8:0.17958312 9:0.16563234 10:0.3741573 11:0.15191016 12:0.13722472 13:0.11812015 
25.5754189944 1:-0.37384409 2:-0.23102605 3:0.34008743 4:0.74521604 5:-0.32672144 6:0.24106462 7:-0.30567079 8:0.4946341 9:-0.14765305 10:0.48668567 11:0.0027948124 12:0.060202381 13:-0.29126929 
25.5754189944 1:-0.12541307 2:0.47560345 3:0.43830009 4:0.32394896 5:-0.28595685 6:-0.031775591 7:-0.30435663 8:0.20393266 9:0.11238672 10:0.45724965 11:0.21933251 12:0.1212128 13:0.22999575 
25.5754189944 1:0.016192345 2:0.42398058 3:0.43144507 4:0.32499302 5:-0.29597469 6:0.14908269 7:0.015277825 8:0.53403393 9:0.21021582 10:0.42972386 11:0.088431348 12:-0.12818064 13:-0.061196551 
25.5754189944 1:-0.079355194 2:0.18488396 3:0.28751733 4:0.36183506 5:-0.29024646 6:0.21314037 7:0.0025566658 8:0.60733962 9:0.22001176 10:0.63940887 11:0.37936737 12:0.26149698 13:0.24761484 
25.5754189944 1:-0.31303409 2:-0.08520877 3:0.36080185 4:0.63247004 5:-0.38826473 6:0.23417176 7:-0.16179131 8:0.66127652 9:0.047987177 10:0.55503893 11:-0.04909163 12:-0.062892694 13:-0.26354939 
25.5754189944 1:-0.17396474 2:0.42759117 3:0.38776613 4:0.26765867 5:-0.14680729 6:0.32642983 7:-0.017785228 8:0.42794657 9:0.261007 10:0.4784889 11:0.21840985 12:0.198609 13:0.23039922 
25.5754189944 1:-0.12701101 2:0.16931504 3:0.35566622 4:0.48254812 5:-0.24372991 6:0.2493044 7:-0.10615403 8:0.36238883 9:-0.13296129 10:0.26625191 11:-0.056708374 12:-0.18083199 13:-0.23160666 
25.5754189944 1:-0.41145016 2:-0.21193126 3:0.29758361 4:0.68174893 5:-0.30287736 6:0.26271096 7:-0.30255903 8:0.4252896 9:-0.17173744 10:0.39889313 11:-0.13529797 12:-0.1074948 13:-0.315217 
25.5754189944 1:-0.091214564 2:0.38328737 3:0.43992441 4:0.29123881 5:-0.24401085 6:0.38004442 7:0.12582164 8:0.52711246 9:0.17500751 10:0.43000346 11:-0.013058612 12:-0.10565123 13:-0.093188771 
25.5754189944 1:-0.12510718 2:0.32435748 3:0.40707864 4:0.37689452 5:-0.21870735 6:0.25799743 7:0.061106036 8:0.49960025 9:0.10064655 10:0.28395678 11:0.0088610469 12:-0.079810365 13:-0.00038676897 
25.5754189944 1:-0.39454048 2:-0.16247155 3:0.40139393 4:0.74643428 5:-0.36950561 6:0.25175318 7:-0.18973926 8:0.67225908 9:-0.047616773 10:0.42319981 11:-0.22993743 12:-0.038805392 13:-0.16410619 
25.5754189944 1:-0.21608019 2:0.33148988 3:0.42907743 4:0.40137505 5:-0.15759255 6:0.32576762 7:0.07308668 8:0.46676712 9:0.064297297 10:0.33925273 11:0.066119012 12:-0.034265104 13:-0.044414339 
25.5754189944 1:-0.39479584 2:-0.22695831 3:0.37454119 4:0.782458 5:-0.30878583 6:0.35090423 7:-0.16668865 8:0.61022277 9:-0.14990456 10:0.36201146 11:-0.15111694 12:0.12372736 13:-0.012195802 
25.5754189944 1:-0.18009671 2:0.27865211 3:0.40430202 4:0.467336 5:-0.09185918 6:0.42326644 7:0.044446028 8:0.42652232 9:-0.083205973 10:0.22781421 11:0.025563832 12:0.062196427 13:0.080657976 
25.5754189944 1:-0.13566577 2:0.13142873 3:0.35782639 4:0.56933954 5:-0.17177042 6:0.25891059 7:-0.15621942 8:0.37038909 9:-0.10472481 10:0.36684169 11:0.097694646 12:0.095538991 13:0.025659281 
25.5754189944 1:-0.39605146 2:-0.37921316 3:0.2732775 4:0.78260482 5:-0.28851754 6:0.26098035 7:-0.33357259 8:0.52066753 9:-0.12354324 10:0.46823425 11:-0.10560189 12:0.098664474 13:-0.067183487 
25.5754189944 1:-0.13855583 2:0.19198344 3:0.36438739 4:0.46822048 5:-0.17679674 6:0.28287783 7:-0.028748352 8:0.42237954 9:0.018441447 10:0.52190735 11:0.31215945 12:0.16140095 13:-0.12085787 
25.5754189944 1:-0.15692228 2:0.36672951 3:0.50750456 4:0.44219589 5:-0.21541182 6:0.24957274 7:-0.075661699 8:0.28199549 9:-0.074191228 10:0.38972486 11:0.45741209 12:0.1896477 13:-0.11269923 
25.5754189944 1:-0.72964178 2:0.079793363 3:-0.00015886066 4:-0.02368103 5:-0.20511857 6:0.19411175 7:-0.23017417 8:0.22150079 9:0.10135306 10:0.34071517 11:0.025427965 12:-0.10628684 13:0.22450231 
25.5754189944 1:-0.24011349 2:0.12220969 3:0.059958707 4:0.064911002 5:-0.36309955 6:-0.037801964 7:-0.22728427 8:0.30667978 9:0.063643596 10:0.40755892 11:0.24412559 12:0.12617894 13:0.2264569 
25.5754189944 1:0.44214655 2:0.40403956 3:-0.0037908932 4:-0.23815591 5:-0.2978029 6:0.11616673 7:0.086518983 8:0.11397488 9:0.093613928 10:0.16344953 11:0.13284285 12:-0.44190251 13:0.086301402 
25.5754189944 1:-0.52351541 2:-0.11531041 3:0.029628487 4:0.18349367 5:-0.48963102 6:-0.027431339 7:-0.30403053 8:0.38517687 9:0.029926798 10:0.50951976 11:0.25531872 12:0.185498 13:0.18095271 
25.5754189944 1:0.41880924 2:0.39595767 3:0.032309016 4:-0.16097201 5:-0.28696282 6:0.11667397 7:0.086058727 8:0.15788115 9:0.089627088 10:0.17755163 11:0.091352678 12:-0.43437769 13:0.11308366 
25.5754189944 1:0.38198795 2:0.62846078 3:0.2732572 4:0.07038587 5:-0.10444306 6:-0.0096052518 7:-0.0484428 8:0.020225302 9:0.0014211724 10:0.20692501 11:0.14449062 12:-0.023748068 13:0.19325941 
25.5754189944 1:0.057918463 2:0.3434385 3:0.30829653 4:0.17902974 5:-0.40257402 6:0.050868997 7:-0.33738849 8:0.068248726 9:-0.12804051 10:0.29965444 11:0.30801751 12:0.049710489 13:0.44894099 
4.470431128111745 1:0.79007918 2:0.15834686 3:-0.19433977 4:-0.32021744 5:-0.1449342 6:0.28614591 7:0.39160171 8:0.16264602 9:-0.074912224 10:-0.15829537 11:0.19193892 12:-0.22851605 13:0.15693329 
25.5754189944 1:0.55879838 2:-0.0047201636 3:-0.040378817 4:-0.23665059 5:-0.28107785 6:0.68915281 7:0.55474068 8:0.27510202 9:-0.11979402 10:-0.049527269 11:0.3544084 12:-0.19166504 13:0.16355653 
25.5754189944 1:0.36999722 2:-0.39947726 3:-0.055728016 4:0.14024602 5:-0.36554732 6:0.59187802 7:0.33479547 8:0.44646898 9:-0.29491826 10:0.03074153 11:0.11293361 12:0.035207123 13:0.04270251 
25.5754189944 1:0.52666608 2:0.11304534 3:-0.10541233 4:-0.4102801 5:-0.14863624 6:0.6081271 7:0.4714267 8:0.30301724 9:0.14323376 10:-0.19672288 11:0.22962617 12:0.013730207 13:0.53517981 
2.239135986914977 1:0.42746034 2:-0.022702022 3:-0.17102536 4:0.058793696 5:-0.13788234 6:-0.072111503 7:0.15419202 8:0.15556763 9:-0.13832429 10:0.29988177 11:0.026590693 12:0.057318462 13:-0.24050389 
25.5754189944 1:0.65604908 2:0.092493894 3:-0.079403483 4:-0.19120767 5:-0.1921595 6:0.47250299 7:0.49907142 8:0.27290024 9:-0.11258343 10:-0.1372657 11:0.29033953 12:-0.042000853 13:0.41062576 
25.5754189944 1:0.74593999 2:0.018121427 3:-0.22247846 4:-0.27118272 5:-0.20545858 6:0.43841656 7:0.44304096 8:0.22775365 9:-0.075542965 10:-0.13956639 11:0.22029484 12:-0.21053661 13:0.26694408 
25.5754189944 1:0.42981501 2:0.34049372 3:-0.18233618 4:-0.33302706 5:0.17119214 6:0.28445845 7:0.80860472 8:0.085642225 9:-0.069635292 10:-0.20059435 11:0.10670408 12:-0.018092674 13:0.21938497 
25.5754189944 1:0.48276503 2:-0.01443247 3:-0.075774252 4:-0.079741543 5:-0.27713556 6:0.2616477 7:0.17515849 8:0.25018109 9:-0.093282359 10:0.1227687 11:0.33017937 12:0.090410037 13:0.34699351 
25.5754189944 1:0.57033941 2:0.22891836 3:-0.066333768 4:-0.21677141 5:-0.13586546 6:0.40780751 7:0.43220428 8:0.26731392 9:0.04199017 10:0.066096988 11:0.40113101 12:0.005087591 13:0.54304611 
25.5754189944 1:0.70401867 2:-0.01367508 3:-0.20336764 4:-0.18843444 5:-0.14928769 6:0.47262366 7:0.35901171 8:0.23191628 9:-0.053012888 10:-0.096751157 11:0.059077614 12:-0.18320032 13:0.36309843 
25.5754189944 1:0.38156561 2:0.23817287 3:-0.066245376 4:-0.26328535 5:-0.092391798 6:0.32755832 7:0.28005069 8:0.11362995 9:0.014743534 10:-0.04786536 11:0.10581282 12:-0.13303549 13:0.41764496 
25.5754189944 1:0.71696943 2:0.18095047 3:-0.2253127 4:-0.42945712 5:-0.016791607 6:0.35524501 7:0.39314111 8:0.15289345 9:0.071804097 10:-0.24179243 11:-0.05460329 12:-0.28572214 13:0.22736745 
25.5754189944 1:0.43355229 2:-0.14916365 3:-0.1337411 4:-0.099230423 5:-0.20159858 6:0.59286897 7:0.36734229 8:0.32957552 9:-0.11343083 10:-0.11628287 11:-0.075935691 12:-0.2063462 13:0.24272196 
2.938296032917087 1:0.60437556 2:-0.37275689 3:-0.27871488 4:0.071288572 5:-0.31592411 6:0.31949479 7:0.047433045 8:0.40399326 9:-0.12390851 10:0.13807415 11:-0.062007527 12:-0.071667493 13:0.020145102 
25.5754189944 1:0.28702763 2:0.30602402 3:-0.071388735 4:-0.22668716 5:0.063197124 6:0.45530184 7:0.57040902 8:0.29750148 9:0.043144815 10:-0.16117861 11:0.11107721 12:-0.22232006 13:0.27226285 
25.5754189944 1:0.67022372 2:0.047051673 3:-0.21252465 4:-0.23718157 5:-0.10129671 6:0.41094301 7:0.28024122 8:0.24576139 9:0.067346784 10:-0.020116032 11:0.059426297 12:-0.21889067 13:0.24089877 
25.5754189944 1:0.36688949 2:-0.10424245 3:-0.10251655 4:-0.047491068 5:-0.24149352 6:0.43082154 7:0.31156373 8:0.45527973 9:0.017658477 10:0.10557522 11:0.18563979 12:0.10260394 13:0.46092293 
25.5754189944 1:0.63419129 2:-0.14301265 3:-0.2294076 4:-0.15116889 5:-0.2730151 6:0.32771205 7:0.19248162 8:0.27395041 9:-0.10127501 10:-0.082815531 11:-0.079684349 12:-0.24076323 13:0.080143036 
25.5754189944 1:0.32333337 2:-0.12313844 3:0.0028845249 4:0.19190389 5:-0.32682327 6:0.20477518 7:-0.14560399 8:0.26353765 9:-0.09168116 10:0.37652749 11:0.046400647 12:-0.1991613 13:-0.10567376 
25.5754189944 1:0.54419261 2:0.098217817 3:-0.14171394 4:-0.1404474 5:-0.031204856 6:0.52072322 7:0.32731726 8:0.22561602 9:0.052827153 10:-0.0038303324 11:0.046700172 12:-0.17150609 13:0.49095319 
2.522223634543046 1:0.65959018 2:0.050237366 3:-0.1485832 4:-0.20255174 5:-0.030826123 6:0.46086578 7:0.33558003 8:0.24289603 9:0.012009657 10:-0.10984964 11:-0.12008135 12:-0.2272458 13:0.31084718 
25.5754189944 1:0.32982741 2:-0.074795078 3:-0.15080289 4:-0.051425972 5:-0.047549772 6:0.56844026 7:0.30072027 8:0.38901366 9:0.047903655 10:0.00063919999 11:-0.054208966 12:-0.10978687 13:0.34365783 
25.5754189944 1:0.56754358 2:-0.01421411 3:-0.13855471 4:-0.05722766 5:-0.2304763 6:0.27182513 7:0.08788562 8:0.25702827 9:-0.054898743 10:0.11754384 11:0.011807351 12:-0.20306974 13:0.068888598 
25.5754189944 1:0.23252158 2:0.10341892 3:-0.044769999 4:-0.12169598 5:-0.082113061 6:0.5905368 7:0.2116808 8:0.23298559 9:0.11973478 10:0.21620618 11:0.25724851 12:-0.063421834 13:0.4139135 
25.5754189944 1:0.32829218 2:-0.16783082 3:-0.069470523 4:0.036064526 5:-0.18044958 6:0.65597164 7:0.36394187 8:0.42510828 9:-0.073793706 10:0.018404903 11:0.013372135 12:-0.04531826 13:0.34172692 
25.5754189944 1:0.42297832 2:-0.02883282 3:-0.095107942 4:-0.075838709 5:-0.25112727 6:0.32276725 7:0.15364873 8:0.27684845 9:-0.084933481 10:0.014257882 11:0.061257459 12:-0.115644 13:0.16515742 
25.5754189944 1:0.28675911 2:-0.03187752 3:-0.047518486 4:0.0024300817 5:-0.2631494 6:0.38016232 7:0.21358226 8:0.42465703 9:0.011022993 10:0.14680538 11:0.051610408 12:-0.091819178 13:0.21560487 
25.5754189944 1:0.38048875 2:0.23658791 3:-0.068391144 4:-0.16454797 5:-0.073949811 6:0.26995442 7:0.26327706 8:0.33518775 9:0.18392827 10:0.071838066 11:-0.056219587 12:-0.20279717 13:0.20160582 
25.5754189944 1:0.42760006 2:0.0311798 3:-0.080190499 4:0.063836376 5:-0.12222339 6:0.44009431 7:0.23909247 8:0.42682894 9:0.10090425 10:0.17148181 11:0.014820875 12:-0.17694829 13:0.29838669 
25.5754189944 1:0.075111529 2:0.1529646 3:-0.097571284 4:0.0010268454 5:0.095080388 6:0.35542569 7:0.41118067 8:0.46229851 9:0.25305044 10:0.27626635 11:-0.0004970748 12:-0.0081261524 13:0.33961356 
25.5754189944 1:0.39128128 2:0.47726638 3:-0.10474371 4:-0.24390561 5:0.31528867 6:0.21749495 7:0.36303896 8:0.11564104 9:0.28523541 10:0.16106587 11:-0.019118977 12:-0.16602849 13:0.29863507 
25.5754189944 1:0.30641732 2:0.39397286 3:0.012057483 4:-0.18828734 5:0.088198707 6:0.34269889 7:0.1465586 8:0.14039403 9:0.33553692 10:0.36979256 11:0.22251885 12:-0.05477656 13:0.34637251 
25.5754189944 1:0.094187685 2:-0.27600758 3:-0.022805068 4:0.30134023 5:-0.058960785 6:0.77749865 7:0.24178963 8:0.43633562 9:-0.09854025 10:0.20133722 11:-0.097120711 12:-0.18657319 13:0.017979673 
25.5754189944 1:0.20669815 2:0.14336108 3:-0.060582638 4:0.027609512 5:-0.02733163 6:0.36652238 7:0.11956668 8:0.35011818 9:0.27339517 10:0.41534578 11:0.25180626 12:-0.041492589 13:0.38702833 
25.5754189944 1:0.4813476 2:-0.11280751 3:-0.16779276 4:0.011920528 5:-0.123794 6:0.28273356 7:0.037484932 8:0.3741762 9:0.13656989 10:0.28485266 11:0.10897538 12:0.11280927 13:0.54620971 
25.5754189944 1:0.4806707 2:-0.24285765 3:-0.26449443 4:0.0095801649 5:-0.25207324 6:0.15587343 7:-0.094969195 8:0.33858602 9:0.074994582 10:0.23306358 11:0.042059156 12:0.051260237 13:0.54025185 
25.5754189944 1:0.19724676 2:-0.00039462282 3:-0.32231099 4:-0.091465671 5:0.072508376 6:-0.029119074 7:0.29037636 8:0.26715106 9:0.17022418 10:0.30056605 11:-0.07193434 12:0.25153711 13:0.4620083 
25.5754189944 1:0.40208511 2:-0.22527456 3:-0.29732031 4:-0.039241789 5:-0.25089592 6:0.1207383 7:-0.10896223 8:0.34411915 9:0.14888085 10:0.26685224 11:0.030815889 12:-0.026311197 13:0.44084326 
25.5754189944 1:0.52342509 2:0.35628607 3:-0.22116206 4:-0.45128257 5:0.33404905 6:0.10073299 7:-0.15886202 8:-0.074941576 9:0.4348067 10:-0.061652624 11:-0.069021723 12:-0.12978581 13:0.39416663 
25.5754189944 1:0.17210588 2:0.22634378 3:-0.038440507 4:-0.29854294 5:0.23583388 6:0.43959506 7:-0.35119495 8:-0.027886837 9:0.49910177 10:-5.0069225e-005 11:-0.20599302 12:-0.11137202 13:0.42637612 
16.60534460376907 1:0.24253583 2:-0.092285576 3:-0.44212315 4:-0.2038782 5:0.35577651 6:-0.22065512 7:-0.16059634 8:-0.0085975771 9:0.35961826 10:0.27868789 11:-0.0016215607 12:0.011815816 13:0.47185538 
25.5754189944 1:0.30098197 2:-0.2049421 3:-0.33823854 4:-0.10262574 5:0.11858667 6:-0.041098851 7:-0.25704417 8:0.045696777 9:0.31268962 10:0.36633944 11:-0.14464283 12:-0.29953324 13:0.19398903 
25.5754189944 1:0.286804 2:-0.16772608 3:-0.5248967 4:-0.50296652 5:0.097987187 6:-0.27330086 7:-0.58637227 8:-0.213295 9:0.26794475 10:-0.22113226 11:-0.55237352 12:-0.47237783 13:-0.096339163 
17.85253557000765 1:0.56622642 2:0.098512417 3:-0.61853988 4:-0.61857126 5:0.68734548 6:-0.54675079 7:-0.28946606 8:-0.22401574 9:0.55748822 10:0.0070582945 11:0.12487837 12:-0.11504366 13:0.16840665 
25.5754189944 1:0.54290201 2:-0.38830177 3:-0.66094855 4:-0.42090556 5:0.12451337 6:-0.25309005 7:-0.50407912 8:-0.12201314 9:0.35087381 10:0.09107226 11:-0.054587693 12:-0.2478914 13:0.02373052 
25.5754189944 1:0.26998077 2:-0.33278716 3:-0.21471263 4:0.19277535 5:0.010410693 6:0.15372582 7:-0.35578268 8:0.1358091 9:0.062781992 10:0.30365079 11:-0.059600797 12:-0.11489272 13:0.19046669 
22.69212113173896 1:0.61251328 2:-0.38743547 3:-0.44640927 4:-0.12621415 5:0.21958559 6:0.12568002 7:-0.251034 8:0.13165683 9:0.43127139 10:0.38140258 11:-0.06341704 12:-0.36448573 13:-0.10449774 
25.5754189944 1:0.26389983 2:-0.56433558 3:-0.45390148 4:0.00065416758 5:0.056722765 6:0.11657368 7:-0.35743007 8:0.15643341 9:0.29155785 10:0.43277743 11:-0.059358525 12:-0.31193037 13:-0.072321427 
15.24389169751932 1:0.2860249 2:0.11294475 3:-0.35027119 4:-0.31879008 5:0.55711968 6:-0.068239042 7:-0.30905644 8:0.34653945 9:0.57389912 10:-0.25756775 11:0.22510561 12:-0.27059067 13:0.36817812 
25.5754189944 1:0.32064097 2:-0.37949212 3:-0.42946544 4:-0.072250674 5:0.2093073 6:0.28450118 7:-0.12370764 8:0.27304745 9:0.3143327 10:0.20096004 11:-0.021234955 12:-0.06108894 13:0.2826116 
25.5754189944 1:0.28272138 2:-0.23985871 3:-0.57861546 4:-0.22024566 5:0.41943949 6:-0.25944681 7:-0.15028763 8:0.10554231 9:0.46280167 10:0.31845191 11:0.10717976 12:0.095927015 13:0.0692182 
25.5754189944 1:0.32156625 2:-0.39573125 3:-0.38824079 4:-0.015240982 5:0.2824444 6:0.11812382 7:-0.33736641 8:0.1445688 9:0.35878848 10:0.19598096 11:-0.077114191 12:-0.090326696 13:0.21098712 
25.5754189944 1:0.5223152 2:-0.20653634 3:-0.44307027 4:-0.16673248 5:0.38284031 6:-0.010282393 7:-0.15834331 8:0.24828733 9:0.48926193 10:0.039097066 11:-0.23454745 12:-0.29362206 13:0.092800972 
4.421459068071862 1:0.28427007 2:-0.3084811 3:-0.3985554 4:0.032109506 5:0.16760013 6:-0.094502767 7:-0.18180619 8:0.17804614 9:0.22960826 10:0.35891312 11:-0.001275663 12:0.053873966 13:0.34485674 
9.826911115132525 1:0.53099632 2:-0.079401914 3:-0.61035951 4:-0.54114663 5:0.40574743 6:-0.17116246 7:-0.15004867 8:0.13083076 9:0.55914223 10:-0.072241825 11:-0.14302612 12:-0.2664312 13:-0.026647732 
25.5754189944 1:0.32127477 2:-0.13580537 3:-0.48899874 4:-0.21288468 5:0.40203752 6:-0.26391229 7:-0.24624029 8:0.056221342 9:0.31819719 10:0.084260626 11:0.15196548 12:0.016907552 13:0.12173913 
25.5754189944 1:0.33368468 2:-0.23819876 3:-0.67628053 4:-0.326736 5:0.45120858 6:-0.30450081 7:0.037507381 8:-0.0083917621 9:0.34570784 10:0.15192255 11:-0.24623534 12:0.07155992 13:0.25018488 
21.66661588324717 1:0.53334283 2:0.15515504 3:-0.58254944 4:-0.49066696 5:0.64052244 6:-0.19313617 7:-0.10794159 8:-0.024066496 9:0.51525005 10:-0.51042991 11:-0.046453111 12:-0.18885793 13:0.2379527 
25.5754189944 1:0.27471392 2:0.027647279 3:-0.4668913 4:-0.29994507 5:0.45399474 6:-0.29131932 7:-0.11467295 8:0.03555433 9:0.40686177 10:-0.030900038 11:-0.28941539 12:0.0080791628 13:0.14040731 
25.5754189944 1:0.44851111 2:-0.068598652 3:-0.43705924 4:-0.27384177 5:0.39531224 6:-0.15987207 7:-0.26964945 8:0.017010138 9:0.50152669 10:-0.10353773 11:-0.12761381 12:-0.077700537 13:0.58461968 
25.5754189944 1:0.2519748 2:-0.069844888 3:-0.37068212 4:-0.14848788 5:0.47926348 6:-0.3484152 7:-0.29614652 8:0.033973708 9:0.50468563 10:0.089777807 11:-0.28887703 12:-0.15930569 13:0.31406831 
25.5754189944 1:0.071962646 2:-0.46835933 3:-0.32337898 4:0.064950543 5:-0.11452951 6:0.1228695 7:-0.38446737 8:0.23508556 9:0.15207248 10:0.22553347 11:-0.29328619 12:-0.24994332 13:0.10889295 
11.29492224931932 1:0.27563585 2:-0.21768881 3:-0.28556457 4:-0.021712171 5:0.035516392 6:-0.028591191 7:-0.42622669 8:-0.0034977557 9:0.27860271 10:0.27400555 11:-0.15048195 12:-0.35363282 13:0.30676565 
25.5754189944 1:0.12875029 2:0.058956948 3:-0.18364889 4:-0.083636837 5:-0.041561857 6:-0.31468422 7:-0.43089455 8:0.17000719 9:0.40780726 10:0.24407775 11:0.026348207 12:-0.052754333 13:0.37344031 
25.5754189944 1:-0.3597707 2:-0.0055118788 3:0.061805541 4:0.22411268 5:-0.22466074 6:0.26462505 7:-0.07842473 8:0.17666943 9:-0.19733791 10:0.2416021 11:0.2302548 12:-0.036413469 13:-0.020793139 
25.5754189944 1:0.36102497 2:0.57530732 3:0.015481072 4:-0.38614946 5:0.05140599 6:0.094606455 7:-0.2867997 8:-0.96200032 9:-0.40182344 10:-0.13657527 11:0.41242941 12:-0.27096845 13:0.25235628 
25.5754189944 1:0.28698575 2:0.11450568 3:0.09753279 4:0.15852751 5:-0.260087 6:0.12780423 7:-0.26514915 8:-0.19306933 9:-0.47482635 10:-0.012853319 11:0.25671233 12:0.051300343 13:0.28435028 
25.5754189944 1:0.060621781 2:0.35980441 3:0.048712808 4:-0.18640783 5:-0.076690895 6:0.21466616 7:-0.2808734 8:-0.69571253 9:-0.48194002 10:-0.10891122 11:0.38662445 12:-0.23646488 13:0.25920703 
25.5754189944 1:0.19347669 2:0.21717471 3:0.20459331 4:0.18029137 5:-0.2750644 6:0.073149188 7:-0.34145574 8:-0.2770686 9:-0.5269603 10:-0.06909487 11:0.20752582 12:0.010215892 13:0.22839936 
25.5754189944 1:0.61658989 2:0.27058767 3:0.16120026 4:-0.067552502 5:-0.40132639 6:0.095747493 7:-0.11165799 8:-0.28415162 9:-0.60806707 10:-0.28526164 11:0.17140693 12:-0.090245559 13:0.37161374 
25.5754189944 1:0.30614581 2:0.063820272 3:0.18385928 4:0.15839243 5:-0.4238832 6:0.13498743 7:-0.17650903 8:-0.065726388 9:-0.58527263 10:-0.22212028 11:0.027832227 12:0.025775871 13:0.27020105 
25.5754189944 1:0.28158722 2:0.21573034 3:0.22332826 4:0.096667854 5:-0.28548058 6:0.36353998 7:-0.059813599 8:-0.16867332 9:-0.53676926 10:-0.26562524 11:-0.091979783 12:-0.26913167 13:0.15881696 
25.5754189944 1:0.33586345 2:0.077488722 3:0.14225071 4:0.35909366 5:-0.18160264 6:0.056972817 7:-0.18983491 8:0.22512119 9:-0.19026337 10:0.17099672 11:-0.093183495 12:-0.023281138 13:0.039705471 
25.5754189944 1:0.35131694 2:0.72709768 3:0.24644757 4:-0.30958514 5:-0.094116714 6:0.16001426 7:0.060581585 8:-0.45461158 9:-0.26509081 10:-0.37705081 11:-0.091465891 12:-0.036634309 13:0.42688054 
25.5754189944 1:0.39810956 2:0.028666697 3:0.10523282 4:0.17694696 5:-0.30014038 6:0.17452414 7:-0.16603939 8:-0.0056908284 9:-0.44640292 10:-0.077795428 11:0.046346025 12:-0.013076461 13:0.10179026 
25.5754189944 1:0.40774715 2:-0.054174639 3:0.023799237 4:-0.0054892182 5:-0.58147645 6:-0.052890369 7:-0.34454209 8:-0.018559815 9:-0.38445584 10:-0.026206113 11:0.085269858 12:0.18552197 13:0.66706595 
25.5754189944 1:0.5701093 2:0.011416833 3:0.12133606 4:0.38495368 5:-0.38017674 6:-0.032894246 7:-0.39221834 8:0.29075318 9:-0.16011509 10:0.23711758 11:-0.090658089 12:0.080182854 13:0.23080768 
25.5754189944 1:0.37153469 2:0.013240126 3:0.14885705 4:0.1762602 5:-0.53334283 6:-0.099433003 7:-0.36890978 8:0.039069608 9:-0.456319 10:-0.1110771 11:-0.0039093451 12:0.24724394 13:0.58047981 
25.5754189944 1:0.56785936 2:0.240612 3:0.17380083 4:0.073351801 5:-0.36937533 6:-0.061682582 7:0.080216204 8:0.038944022 9:-0.40547795 10:-0.21091134 11:-0.1081997 12:0.22867542 13:0.44431986 
25.5754189944 1:0.3741921 2:0.21769895 3:0.29692218 4:0.1294489 5:-0.45548867 6:0.15706908 7:-0.029671922 8:0.17771131 9:-0.28723504 10:-0.12233605 11:0.073764822 12:0.13191749 13:0.4835337 
25.5754189944 1:0.30677596 2:-0.04552166 3:0.22443811 4:0.23006102 5:-0.57708412 6:0.059050434 7:-0.20506566 8:0.18043491 9:-0.39040657 10:0.033678478 11:0.14080718 12:0.17513029 13:0.19832086 
25.5754189944 1:0.61223844 2:0.40865674 3:0.13748081 4:-0.14050925 5:-0.37215936 6:-0.063786031 7:-0.13653891 8:-0.079953436 9:-0.26889332 10:-0.3128654 11:-0.081324607 12:-0.18095128 13:0.26134321 
25.5754189944 1:0.4358708 2:0.18826065 3:-0.019846864 4:0.048049659 5:-0.29058889 6:-0.40835673 7:-0.021502441 8:-0.0012237973 9:-0.2844948 10:0.24422683 11:0.10622952 12:0.24198263 13:0.1928874 
25.5754189944 1:0.38718474 2:0.12511497 3:0.15021045 4:0.081042376 5:-0.41493108 6:0.13828685 7:-0.12236117 8:0.15292023 9:-0.19765198 10:0.064631401 11:0.081537074 12:0.01720377 13:0.30753618 
25.5754189944 1:0.38530249 2:-0.13424552 3:0.064663842 4:0.24129888 5:-0.47366446 6:0.046030019 7:-0.27977775 8:0.26577478 9:-0.16994842 10:0.37058652 11:0.089524977 12:-0.063887153 13:-0.14013233 
25.5754189944 1:0.5604712 2:0.18661354 3:0.1081775 4:0.035960238 5:-0.42745734 6:0.029613245 7:-0.061307515 8:0.26743141 9:-0.081710482 10:0.08883088 11:0.032676882 12:-0.15233661 13:-0.0094428503 
25.5754189944 1:0.65912859 2:0.17611509 3:0.090823291 4:0.0096666408 5:-0.45253833 6:-0.044624024 7:-0.10229294 8:0.31636259 9:-0.0035606578 10:0.17692799 11:0.003354904 12:-0.19240842 13:-0.091005287 
25.5754189944 1:0.62637406 2:0.38208494 3:0.091895959 4:-0.10318643 5:-0.32543783 6:-0.089500077 7:-0.15687432 8:0.215983 9:0.13682977 10:0.15664989 11:0.052534074 12:-0.16028267 13:-0.0012203347 
25.5754189944 1:0.33167779 2:0.13415394 3:0.02591879 4:0.020287519 5:-0.41465904 6:-0.14348866 7:-0.029746683 8:0.3553477 9:-0.014978882 10:0.18570239 11:-0.013193885 12:-0.11600358 13:-0.10713524 
25.5754189944 1:0.58249953 2:0.43822761 3:0.016049966 4:-0.21473575 5:-0.22526457 6:-0.15677291 7:-0.17767511 8:0.11386256 9:0.15671372 10:0.042366064 11:-0.027482727 12:-0.27429814 13:-0.14869037 
10.90589082644544 1:0.62362863 2:0.5412209 3:0.073044039 4:-0.26435748 5:-0.090885279 6:-0.049822999 7:-0.029881939 8:0.18552845 9:0.30924101 10:-0.069273316 11:-0.091845643 12:-0.18047717 13:0.017696603 
25.5754189944 1:0.52882438 2:0.6542122 3:0.10158993 4:-0.33254153 5:-0.022717825 6:-0.049676814 7:0.010965556 8:0.15296492 9:0.39121678 10:-0.073427738 11:-0.03346384 12:-0.096204398 13:0.065137585 
25.5754189944 1:0.59571089 2:0.46075223 3:-0.034483424 4:-0.30855742 5:-0.084612284 6:-0.17541215 7:0.030989722 8:0.11394134 9:0.13593652 10:-0.17432078 11:-0.20562435 12:-0.35548952 13:-0.38761973 
25.5754189944 1:0.54245394 2:0.38633974 3:0.032677893 4:-0.19879247 5:-0.10496644 6:0.13433964 7:0.15332651 8:0.20496401 9:0.20914459 10:0.26340015 11:0.29339665 12:-0.21545021 13:0.048327102 
25.5754189944 1:0.32123973 2:0.306509 3:0.029190231 4:-0.12013069 5:-0.19743576 6:0.022131324 7:-0.010428497 8:0.21185863 9:0.085435834 10:0.056120558 11:0.023786574 12:-0.25425979 13:-0.22722333 
25.5754189944 1:0.36224627 2:0.43068893 3:0.095741827 4:-0.21818921 5:-0.047812268 6:0.1601577 7:0.13129927 8:0.28182294 9:0.28667542 10:0.19350617 11:0.19159434 12:-0.15171204 13:0.058115209 
25.5754189944 1:-0.0068580764 2:-0.17517107 3:0.26894873 4:0.46899467 5:-0.49617802 6:0.2417455 7:-0.0075275635 8:0.6334733 9:-0.1592626 10:0.12809151 11:-0.30423173 12:-0.075972344 13:-0.035776069 
11.44113912554553 1:0.24046645 2:0.4017229 3:0.50059074 4:0.093056031 5:-0.39556458 6:0.27269481 7:0.59292921 8:0.62586317 9:0.02415074 10:-0.087179499 11:0.14116675 12:-0.0026047511 13:0.35635513 
25.5754189944 1:0.30021025 2:0.086261641 3:0.22833132 4:0.28699124 5:-0.31685011 6:0.27008353 7:0.30362432 8:0.76738131 9:0.12874714 10:0.14016279 11:-0.19737276 12:-0.21321872 13:0.069427602 
25.5754189944 1:0.22978923 2:-0.0045644178 3:0.17567846 4:0.30060202 5:-0.29143788 6:0.3321679 7:0.33802639 8:0.79421049 9:0.092158205 10:0.066096466 11:-0.37668028 12:-0.36038868 13:-0.11919534 
25.5754189944 1:0.25405173 2:0.54043801 3:0.38668066 4:0.08619422 5:-0.25950348 6:0.072276835 7:0.43898049 8:0.58860945 9:0.2646925 10:0.11496631 11:0.082956787 12:0.035161305 13:0.41537679 
25.5754189944 1:0.24707807 2:0.27501304 3:0.34397282 4:0.21075347 5:-0.37287007 6:0.083259525 7:0.216623 8:0.56900229 9:0.05002824 10:-0.032973248 11:-0.25831239 12:-0.30177326 13:0.10268068 
25.5754189944 1:0.22217544 2:0.49203769 3:0.38243196 4:0.17257224 5:-0.32620484 6:0.16409099 7:0.34462975 8:0.54141872 9:0.10658247 10:0.01621088 11:-0.095942742 12:-0.27335188 13:0.24323012 
25.5754189944 1:-0.033388846 2:-0.046793296 3:0.36168498 4:0.44817784 5:-0.48881764 6:0.19678283 7:0.091666225 8:0.71634903 9:-0.020500981 10:0.12596789 11:-0.30434416 12:-0.14488079 13:0.056995395 
25.5754189944 1:0.10477092 2:0.30826113 3:0.30813645 4:0.26080684 5:-0.33658256 6:0.19305138 7:0.22116525 8:0.60888688 9:0.083336956 10:0.11183641 11:-0.13966366 12:-0.25763101 13:0.095385963 
25.5754189944 1:0.23924044 2:0.22212484 3:0.29441135 4:0.25594938 5:-0.38081359 6:0.13314448 7:0.21216523 8:0.6022648 9:0.044548402 10:0.01786913 11:-0.21671926 12:-0.20860962 13:0.21658374 
25.5754189944 1:0.16809601 2:0.36721836 3:0.3856833 4:0.23586442 5:-0.35574031 6:0.13513587 7:0.29734107 8:0.56901678 9:0.067421039 10:-0.096421123 11:-0.25384981 12:-0.27393779 13:0.27346957 
25.5754189944 1:-0.14672859 2:-0.29189437 3:0.21148707 4:0.58448562 5:-0.34926607 6:0.36212637 7:-0.035287791 8:0.6503147 9:-0.14431216 10:0.17665393 11:-0.39231471 12:-0.083077315 13:-0.026141434 
25.5754189944 1:0.10253462 2:0.22546058 3:0.37189494 4:0.38290286 5:-0.33200222 6:0.13267346 7:0.016856552 8:0.44387076 9:-0.1362228 10:-0.066649079 11:-0.37714008 12:-0.29197395 13:-0.076888198 
25.5754189944 1:-0.15047176 2:0.048845443 3:0.36533855 4:0.52645592 5:-0.20316481 6:0.44965719 7:0.24751911 8:0.64801482 9:-0.11460156 10:-0.024874778 11:-0.32363903 12:-0.039344005 13:0.33793069 
25.5754189944 1:0.044743518 2:0.22724118 3:0.4061605 4:0.41951819 5:-0.31633163 6:0.13455067 7:0.067032175 8:0.52145694 9:-0.077429995 10:-0.027246793 11:-0.36883519 12:-0.2841112 13:0.0095125577 
4.386924161898149 1:0.11409778 2:0.27205768 3:0.40406708 4:0.43120737 5:-0.253834 6:0.23937509 7:0.054199138 8:0.47930007 9:-0.086151859 10:0.12330371 11:-0.067683055 12:-0.030360262 13:0.20075088 
25.5754189944 1:0.13569457 2:0.50585278 3:0.51360263 4:0.17572863 5:-0.30202038 6:0.29128971 7:0.39338164 8:0.46523773 9:-0.019406213 10:-0.16740654 11:-0.049003298 12:-0.013223598 13:0.32216651 
25.5754189944 1:-0.24804316 2:0.29369495 3:0.28371918 4:0.47624942 5:-0.025232452 6:0.068050085 7:0.068463153 8:0.28531049 9:-0.1781581 10:0.14914202 11:-0.2207007 12:0.070099096 13:0.020333836 
25.5754189944 1:0.054100254 2:0.26802052 3:0.39696193 4:0.30792328 5:-0.28312239 6:0.27793733 7:0.29661829 8:0.5870171 9:-0.036035617 10:-0.015870471 11:-0.066421639 12:0.0013849662 13:0.40318538 
25.5754189944 1:0.081331785 2:0.3773308 3:0.39596612 4:0.20299798 5:-0.1883358 6:0.46604483 7:0.42746322 8:0.55735236 9:0.011189373 10:-0.037526715 11:-0.060405107 12:-0.15760593 13:0.21813989 
25.5754189944 1:-0.084177719 2:0.56711039 3:0.5337146 4:0.24192342 5:-0.2050712 6:0.38130408 7:0.16445054 8:0.31135997 9:0.039654442 10:0.064764274 11:-0.019644988 12:0.28027832 13:0.40007286 
25.5754189944 1:0.020309234 2:0.22233928 3:0.3958674 4:0.44156162 5:-0.31873502 6:0.13065115 7:-0.10711051 8:0.3660591 9:-0.22906364 10:0.029337351 11:-0.20256397 12:-0.046196336 13:0.01092281 
25.5754189944 1:-0.01606996 2:0.20885403 3:0.39225094 4:0.47331643 5:-0.27260255 6:0.22537623 7:0.014082094 8:0.48603904 9:-0.16083387 10:0.10176561 11:-0.18735336 12:-0.0379878 13:0.050660691 
25.5754189944 1:0.045433878 2:0.41686586 3:0.51895826 4:0.35311459 5:-0.402576 6:0.069094644 7:0.04843415 8:0.54309072 9:0.054434031 10:0.18460104 11:0.065919691 12:0.020205838 13:0.26401887 
4.520213290566684 1:0.033601068 2:0.45381163 3:0.53999022 4:0.47771728 5:-0.35288904 6:0.018725467 7:-0.17119269 8:0.3674613 9:0.020175983 10:0.45595604 11:0.27913522 12:0.25580075 13:0.25541323 
25.5754189944 1:-0.31338475 2:-0.12126762 3:0.36636263 4:0.64093804 5:-0.45941182 6:0.12098809 7:-0.26784281 8:0.57457044 9:-0.095698847 10:0.39435686 11:-0.11139679 12:0.091204733 13:-0.077363894 
25.5754189944 1:-0.022691768 2:0.14720698 3:0.33935645 4:0.42747759 5:-0.47120793 6:-0.13966613 7:-0.37537567 8:0.30390711 9:-0.15210119 10:0.25727955 11:-0.057417061 12:-0.0081416652 13:-0.066254662 
25.5754189944 1:-0.1101686 2:0.18476466 3:0.39306423 4:0.55140517 5:-0.31423083 6:0.060129018 7:-0.23046711 8:0.43151829 9:-0.06294548 10:0.35536049 11:0.010828562 12:0.051536696 13:0.051139915 
25.5754189944 1:-0.3491988 2:0.017329294 3:0.50639403 4:0.6857441 5:-0.49080501 6:0.10158298 7:-0.2317441 8:0.6045633 9:-0.072467658 10:0.43797267 11:0.01978107 12:0.20681559 13:0.1289482 
25.5754189944 1:-0.061394698 2:0.19407617 3:0.35794166 4:0.41216865 5:-0.40449043 6:-0.031981489 7:-0.26270273 8:0.40417144 9:-0.065519014 10:0.31710087 11:0.062454613 12:0.055635745 13:0.11704609 
25.5754189944 1:-0.022767546 2:0.71150064 3:0.67825794 4:0.10671648 5:-0.4209523 6:0.20260443 7:0.089583768 8:0.27336258 9:0.11575255 10:0.18911778 11:0.13730967 12:0.20921778 13:0.1287205 
25.5754189944 1:-0.33255378 2:-0.099649558 3:0.30372498 4:0.57223337 5:-0.42646368 6:0.10682738 7:-0.27913108 8:0.51621233 9:-0.062953096 10:0.43096483 11:-0.050221774 12:0.07077346 13:-0.062853688 
25.5754189944 1:-0.13421327 2:0.4201602 3:0.52966587 4:0.35409572 5:-0.36981525 6:0.092832801 7:-0.049274463 8:0.31648247 9:-0.17471607 10:0.23003987 11:0.24882245 12:0.19238216 13:0.18269733 
25.5754189944 1:-0.13234116 2:0.10387688 3:0.3249241 4:0.57900001 5:-0.18623877 6:0.27157145 7:-0.16767316 8:0.38367403 9:-0.12072981 10:0.35528413 11:0.035633583 12:0.023376974 13:-0.085605281 
25.5754189944 1:-0.18288631 2:0.19119174 3:0.38280153 4:0.60134996 5:-0.16031276 6:0.34293737 7:-0.080817851 8:0.45588837 9:-0.082535445 10:0.34652607 11:-0.0064006754 12:0.011225318 13:0.0078390119 
25.5754189944 1:-0.10101953 2:0.35894588 3:0.47334756 4:0.47795509 5:-0.33833142 6:0.000684453 7:-0.25406726 8:0.26700546 9:-0.078343746 10:0.39947946 11:0.21427522 12:0.18956442 13:0.15784138 
25.5754189944 1:-0.36517123 2:-0.14771095 3:0.40597296 4:0.73075579 5:-0.44319056 6:0.049104708 7:-0.46167122 8:0.43074594 9:-0.14155532 10:0.52455493 11:0.059950018 12:0.21480711 13:-0.044471528 
25.5754189944 1:-0.0436798 2:0.38419701 3:0.51311683 4:0.48849353 5:-0.32696903 6:0.055142785 7:-0.23436038 8:0.34983809 9:-0.013866919 10:0.47066774 11:0.25714303 12:0.11785124 13:0.15084689 
25.5754189944 1:-0.073414399 2:0.41657038 3:0.45875961 4:0.34633877 5:-0.37141545 6:-0.012732437 7:-0.15019561 8:0.34689525 9:-0.052840204 10:0.17881707 11:0.023961301 12:0.0027579604 13:0.20716498 
25.5754189944 1:-0.16149312 2:0.33738688 3:0.44229226 4:0.43929702 5:-0.37078293 6:-0.019138275 7:-0.22621438 8:0.39447748 9:-0.05260065 10:0.28652096 11:0.029281257 12:0.022236107 13:0.12344988 
25.5754189944 1:-0.098650101 2:0.54039494 3:0.53914354 4:0.36436355 5:-0.28351286 6:0.12844019 7:-0.14998347 8:0.18100822 9:-0.063942137 10:0.26591242 11:0.17770371 12:0.096250992 13:0.13154525 
25.5754189944 1:-0.10812605 2:0.57055074 3:0.57640662 4:0.33091532 5:-0.22248222 6:0.35568575 7:-0.11024701 8:0.175474 9:0.016312519 10:0.32278715 11:-0.0034654706 12:-0.039436605 13:-0.076484913 
25.5754189944 1:-0.18074225 2:0.56911354 3:0.53515433 4:0.37375466 5:-0.21397244 6:0.26044131 7:-0.080122624 8:0.20661434 9:0.02197145 10:0.41288355 11:0.075494189 12:-0.062940312 13:-0.10383542 
25.5754189944 1:-0.089236059 2:0.64982323 3:0.58767957 4:0.2193021 5:-0.2942879 6:0.27348173 7:-0.077919369 8:0.10941723 9:-0.063177785 10:0.20387993 11:0.051802178 12:-0.043063517 13:0.12775874 
25.5754189944 1:-0.086685551 2:0.64300462 3:0.61535029 4:0.055309527 5:-0.46788381 6:0.12288282 7:-0.10068241 8:0.12190937 9:0.041262909 10:0.24439721 11:0.0038266187 12:0.0082650425 13:0.12256003 
25.5754189944 1:-0.36258385 2:-0.16531981 3:0.38271201 4:0.74240512 5:-0.35910769 6:0.23506233 7:-0.26642499 8:0.54425811 9:-0.15571704 10:0.34209531 11:-0.24929814 12:-0.017463026 13:-0.1486498 
25.5754189944 1:-0.18608398 2:0.6553177 3:0.5717291 4:0.078755584 5:-0.42529908 6:0.061661285 7:-0.16123642 8:0.21994247 9:0.052524456 10:0.16930707 11:-0.013770275 12:-0.017396717 13:0.10970433 
25.5754189944 1:-0.10243095 2:0.53255668 3:0.52769004 4:0.24333142 5:-0.37657333 6:0.041917054 7:-0.051807628 8:0.35120596 9:0.02499006 10:0.28814515 11:0.10663696 12:0.051960911 13:0.14788179 
25.5754189944 1:-0.42876678 2:0.03355017 3:0.4204143 4:0.52952689 5:-0.54238073 6:0.038344378 7:-0.27287946 8:0.47996407 9:-0.13756558 10:0.36257919 11:0.0077570526 12:0.14071335 13:0.064609055 
25.5754189944 1:-0.14692713 2:0.29244883 3:0.36993618 4:0.35676019 5:-0.37021823 6:0.099027086 7:-0.0030703701 8:0.47584169 9:-0.018624274 10:0.30384856 11:0.11263348 12:0.059067403 13:0.075754916 
25.5754189944 1:-0.70524385 2:-0.08670406 3:0.042257164 4:0.1627142 5:-0.30393822 6:0.24294527 7:-0.18106159 8:0.3435849 9:-0.045610018 10:0.29631281 11:0.14741684 12:0.045861241 13:0.077254209 
25.5754189944 1:-0.41335574 2:0.22425203 3:0.19708637 4:-0.021120163 5:-0.02207893 6:0.49924654 7:-0.10605627 8:0.44587563 9:0.22360971 10:0.17891374 11:0.1683092 12:0.3126478 13:0.43771305 
25.5754189944 1:0.59226871 2:0.11813499 3:-0.097318983 4:-0.13794538 5:-0.20597799 6:0.30727496 7:0.29779628 8:0.29029457 9:0.016044489 10:0.14676906 11:0.26014071 12:-0.1445373 13:0.16647277 
9.499699220895364 1:0.23977215 2:-0.22566172 3:-0.038850114 4:0.092872705 5:-0.2522407 6:0.65675324 7:0.50218579 8:0.62232777 9:0.00088219971 10:0.18595002 11:0.073238849 12:-0.21892492 13:-0.17649192 
2.475918665142355 1:0.55741861 2:0.037972431 3:-0.071255973 4:-0.061171086 5:-0.26318675 6:0.25959915 7:0.20187133 8:0.27773674 9:-0.059985874 10:0.16246674 11:0.35429566 12:0.037215718 13:0.26008418 
25.5754189944 1:0.32081115 2:-0.14521447 3:-0.044645616 4:0.010702773 5:-0.26939373 6:0.52032101 7:0.3597302 8:0.43031793 9:-0.033986611 10:0.25225881 11:0.42818424 12:0.082610931 13:0.23326663 
25.5754189944 1:0.48312673 2:-0.092714773 3:-0.098556011 4:-0.056531691 5:-0.16873833 6:0.58055575 7:0.35188649 8:0.33095708 9:-0.031367964 10:0.1190248 11:0.15586797 12:-0.18454097 13:0.13706877 
25.5754189944 1:0.47233892 2:0.031286082 3:-0.10753098 4:-0.12609784 5:-0.061179501 6:0.53835031 7:0.48986339 8:0.34263015 9:0.013882431 10:0.010376232 11:0.14331199 12:-0.24924673 13:0.065331178 
25.5754189944 1:0.38632856 2:-0.036065785 3:0.092037807 4:0.27438893 5:-0.33065766 6:0.061054422 7:-0.17047465 8:0.43941074 9:-0.01195111 10:0.244716 11:-0.019268744 12:0.060203651 13:0.15321259 
25.5754189944 1:0.74218412 2:0.28868983 3:-0.048144217 4:-0.26099881 5:-0.3976058 6:0.062070024 7:0.12055673 8:0.25456588 9:0.1024939 10:0.057450023 11:0.026859876 12:-0.41960154 13:0.057460925 
10.86610482655857 1:0.72951823 2:0.17609242 3:-0.038804815 4:-0.19529225 5:-0.34988536 6:0.18776716 7:0.35791587 8:0.61400362 9:0.38055936 10:0.33254894 11:0.24194789 12:-0.30738561 13:-0.07407369 
25.5754189944 1:0.52296906 2:0.35742773 3:-0.045896023 4:-0.26214223 5:-0.23822469 6:-0.060398359 7:0.32528982 8:0.28701891 9:0.14715461 10:0.099344866 11:0.020694506 12:-0.25833781 13:-0.026525722 
25.5754189944 1:0.65991979 2:0.24613744 3:-0.05431592 4:-0.17490572 5:-0.25896687 6:-0.022336888 7:0.10057119 8:0.35573567 9:0.2250248 10:0.26557555 11:0.24139059 12:-0.10497033 13:0.14022255 
17.78816564089276 1:0.31860506 2:-0.28725374 3:0.036841359 4:0.15599295 5:-0.58064075 6:0.15009861 7:0.019129036 8:0.56256357 9:-0.053327091 10:0.17898928 11:-0.1330957 12:-0.25049148 13:-0.3942042 
25.5754189944 1:0.4057892 2:0.022842353 3:0.13609113 4:0.11156286 5:-0.42567229 6:0.26989722 7:0.0070238678 8:0.38107577 9:-0.027784057 10:0.15844741 11:-0.050180529 12:-0.21384756 13:-0.083396523 
25.5754189944 1:0.55332278 2:0.083358868 3:-0.0057953803 4:0.069824544 5:-0.30514511 6:0.12384194 7:-0.0065042897 8:0.34119894 9:0.028108901 10:0.18294505 11:0.071448372 12:-0.11233913 13:0.1761655 
9.346731413782809 1:0.29656602 2:0.034066015 3:0.1409572 4:0.2143237 5:-0.30698532 6:0.18793607 7:-0.092109117 8:0.30101772 9:-0.1147603 10:0.073212587 11:-0.051394175 12:0.0060311977 13:0.19311769 
25.5754189944 1:0.24746884 2:0.03406779 3:0.16251445 4:0.23934936 5:-0.25677413 6:0.2741485 7:-0.11098346 8:0.23916803 9:-0.19440753 10:-0.0082891677 11:0.058318064 12:0.20891637 13:0.41326643 
25.5754189944 1:0.42946477 2:0.21929428 3:0.056372156 4:0.12094966 5:-0.22406503 6:-0.0011035205 7:-0.18123893 8:0.13157252 9:-0.13142155 10:-0.056347928 11:0.067513998 12:0.1608168 13:0.57211307 
25.5754189944 1:0.17525636 2:-0.069966594 3:0.13848976 4:0.19317377 5:-0.43423897 6:0.046077628 7:-0.2496595 8:0.031368434 9:-0.46455805 10:-0.14451265 11:0.049976796 12:0.026152867 13:-0.032434115 
25.5754189944 1:0.41833103 2:0.28196977 3:0.20364842 4:0.19984968 5:-0.11850327 6:0.21075375 7:0.0050451672 8:0.21618914 9:-0.15536046 10:-0.11989861 11:0.070462881 12:0.13935577 13:0.50468757 
25.5754189944 1:0.47062995 2:0.30836773 3:0.17637904 4:0.14165057 5:-0.27514215 6:0.033778454 7:-0.17529421 8:0.11047563 9:-0.16476223 10:-0.0017459639 11:0.076083893 12:-0.010608068 13:0.25290434 
25.5754189944 1:0.36918836 2:0.62210332 3:0.21577074 4:-0.14183464 5:-0.15048214 6:-0.057092066 7:-0.21882261 8:-0.044443919 9:0.066002903 10:-0.030805877 11:-0.009715451 12:-0.026916727 13:0.33709185 
25.5754189944 1:0.15253119 2:0.67138773 3:0.25630363 4:-0.0909803 5:0.046934191 6:-0.0091660755 7:-0.020106157 8:0.033478456 9:0.018297033 10:-0.39965683 11:0.0094092231 12:0.14027537 13:0.3595433 
25.5754189944 1:0.20339877 2:-0.097533196 3:0.15368214 4:0.33951731 5:-0.35799095 6:0.22558147 7:-0.1371972 8:0.28934532 9:-0.30237511 10:0.054726474 11:-0.087638655 12:0.032061853 13:0.12693465 
10.67102906422154 1:0.3519424 2:0.3766797 3:0.2996184 4:0.10055046 5:-0.21560096 6:0.16485423 7:0.010508312 8:0.19821307 9:-0.13638078 10:-0.17834932 11:-0.17983115 12:-0.019746116 13:0.47374088 
25.5754189944 1:0.17794636 2:0.038264269 3:0.29385579 4:0.30909545 5:-0.47911641 6:0.12960128 7:-0.11205112 8:0.34489023 9:-0.22896701 10:0.040446676 11:-0.018608025 12:0.093878024 13:0.21488934 
25.5754189944 1:0.50394172 2:0.2325844 3:0.18560243 4:0.11767163 5:-0.33763723 6:0.029838173 7:-0.082646753 8:0.18901876 9:-0.16466584 10:0.044477432 11:0.084986555 12:0.0033957641 13:0.19584738 
25.5754189944 1:0.2205626 2:-0.32054214 3:-0.042788142 4:0.19442445 5:-0.56034419 6:-0.037511217 7:-0.43004766 8:0.14623377 9:-0.34459926 10:0.1702701 11:0.043468874 12:0.17487287 13:0.27388311 
25.5754189944 1:0.51680384 2:0.69152084 3:0.18682454 4:-0.30496877 5:-0.026631514 6:-0.012898172 7:0.042753035 8:-0.0030047884 9:0.1093116 10:-0.30752193 11:0.03589644 12:0.21949521 13:0.34534317 
25.5754189944 1:0.21185756 2:0.46650073 3:0.24647344 4:-0.0050521694 5:-0.24629206 6:-0.010221656 7:0.2223739 8:0.20929805 9:-0.12735347 10:-0.101851 11:0.21497241 12:0.026933044 13:0.34209327 
25.5754189944 1:0.46319116 2:0.51794926 3:0.16387696 4:-0.09490133 5:-0.12566871 6:0.05688595 7:0.097744883 8:0.079579611 9:-0.0042955793 10:-0.16730392 11:0.26262364 12:0.13263407 13:0.37885651 
25.5754189944 1:0.21128544 2:-0.16621543 3:0.12146604 4:0.26008983 5:-0.57156901 6:0.045057609 7:-0.27685624 8:0.26659652 9:-0.2849714 10:0.25885191 11:0.15038926 12:0.11440802 13:0.025522243 
25.5754189944 1:0.4229649 2:0.34189446 3:0.1197114 4:-0.032096396 5:-0.17741537 6:0.12443015 7:0.068444554 8:0.046978752 9:-0.092048459 10:-0.053019133 11:0.35988137 12:-0.025600484 13:0.11092245 
25.5754189944 1:0.49327575 2:0.33998028 3:0.056716888 4:-0.090636204 5:-0.15645742 6:0.0011075778 7:-0.17210965 8:0.059383258 9:0.022427185 10:0.043801768 11:0.00043542029 12:-0.14941733 13:0.1094822 
25.5754189944 1:0.45855264 2:0.3737814 3:0.01825323 4:-0.16233755 5:-0.14201615 6:-0.036624786 7:-0.13569579 8:0.038311156 9:0.053146419 10:0.04655273 11:0.0099645697 12:-0.18065868 13:0.14563669 
25.5754189944 1:0.55783937 2:0.45751893 3:0.0052441427 4:-0.19377328 5:-0.028281459 6:-0.034595292 7:-0.011443199 8:0.14309346 9:0.15166388 10:-0.16292704 11:-0.0070407506 12:-0.089239464 13:0.10161728 
14.13128961585223 1:0.10518946 2:-0.35551581 3:0.070000535 4:0.41225267 5:-0.28823939 6:0.52669877 7:0.088990839 8:0.44958968 9:-0.29118861 10:0.12897171 11:-0.11270273 12:-0.038742051 13:-0.14657877 
25.5754189944 1:0.42330911 2:0.46087836 3:0.029940696 4:-0.16037247 5:-0.0055088836 6:0.0086293832 7:0.057714974 8:0.15190172 9:0.099182611 10:-0.23554728 11:-0.042969179 12:-0.099362941 13:0.013558255 
22.45942770759907 1:0.52700494 2:0.71855173 3:-0.022970485 4:-0.32090961 5:0.18320454 6:-0.24120888 7:0.21213108 8:0.0038997567 9:0.29325913 10:-0.089330716 11:-0.15800107 12:0.010806393 13:-0.074953195 
25.5754189944 1:0.4260453 2:0.50864337 3:0.11712771 4:-0.13256647 5:-0.15316174 6:-0.083173736 7:0.088373283 8:0.27609943 9:0.062313854 10:-0.091450492 11:0.10029957 12:-0.16959141 13:-0.079675217 
25.5754189944 1:0.20176471 2:0.45630408 3:0.17615004 4:-0.16191074 5:-0.11908255 6:0.25840877 7:-0.097527833 8:0.18623564 9:0.2339379 10:-0.12046296 11:-0.10907301 12:-0.075875389 13:0.19963094 
25.5754189944 1:0.34673477 2:0.21384671 3:0.045640904 4:-0.10840964 5:-0.43479632 6:-0.058236532 7:-0.11011462 8:0.21153796 9:-0.015866523 10:0.091190253 11:0.065719825 12:-0.23342262 13:-0.19864578 
25.5754189944 1:0.33345351 2:0.33915292 3:0.20532653 4:-0.018027268 5:-0.31529638 6:0.26728469 7:0.25621209 8:0.45904324 9:0.1633178 10:0.19926836 11:0.10355229 12:-0.23803267 13:-0.10724334 
25.5754189944 1:0.28627593 2:0.29738942 3:0.39222827 4:0.31965984 5:-0.36142316 6:0.12055284 7:-0.087662618 8:0.27588999 9:-0.22088389 10:0.1893815 11:0.10422316 12:0.001276245 13:0.0056512291 
25.5754189944 1:-0.0605368 2:-0.20131494 3:0.13802132 4:0.33377554 5:-0.45704952 6:0.34161302 7:0.049284557 8:0.58991664 9:-0.090313268 10:0.27511704 11:-0.15888314 12:-0.22490033 13:-0.40998693 
25.5754189944 1:0.2584645 2:0.1718116 3:0.377298 4:0.45574079 5:-0.31167735 6:0.15073387 7:-0.15144609 8:0.28424264 9:-0.27165932 10:0.23418792 11:0.13324524 12:0.093232194 13:-0.032928432 
25.5754189944 1:0.50115636 2:0.24846135 3:0.42418413 4:0.58645241 5:-0.075998196 6:0.2338517 7:-0.35815921 8:0.067606958 9:-0.18765602 10:0.35672628 11:0.11584786 12:-0.12029769 13:-0.025773529 
25.5754189944 1:0.4834286 2:0.16548832 3:0.24913515 4:0.45902206 5:-0.014291438 6:0.076209619 7:-0.50061293 8:-0.0049728677 9:-0.12798214 10:0.1139735 11:-0.17076122 12:-0.16548844 13:-0.039479305 
25.5754189944 1:0.23136064 2:0.40285421 3:0.43130869 4:0.56734901 5:-0.059279738 6:-0.078950939 7:-0.3477228 8:0.081667398 9:-0.10983945 10:0.367633 11:-0.013317967 12:-0.11712488 13:-0.12739158 
25.5754189944 1:0.33290207 2:0.20023816 3:0.13447643 4:0.32277333 5:0.18055063 6:0.089122369 7:-0.44418499 8:-0.054110861 9:-0.0258289 10:0.039902626 11:-0.10688582 12:-0.19142886 13:-0.10991948 
25.5754189944 1:0.41253567 2:0.19465764 3:-0.10892168 4:0.01382344 5:0.35331762 6:-0.14616523 7:-0.27837784 8:0.1529856 9:0.23919647 10:-0.22982384 11:-0.37000593 12:-0.29954994 13:-0.23280929 
5.625784893906809 1:0.51123267 2:0.46777025 3:0.020383902 4:0.030326472 5:0.53434824 6:-0.02401093 7:-0.26631278 8:-0.076786531 9:0.29064785 10:-0.24425567 11:-0.21757092 12:-0.066086104 13:-0.15398624 
25.5754189944 1:0.091821319 2:-0.15461763 3:-0.0074102796 4:0.31233822 5:0.047960492 6:0.12467684 7:-0.42640512 8:0.21732508 9:0.070608463 10:0.053328469 11:-0.29455278 12:-0.178723 13:-0.13037495 
25.5754189944 1:0.43356289 2:0.37524626 3:0.031664643 4:0.16139473 5:0.48095238 6:0.010428063 7:-0.19586675 8:-0.0064352467 9:0.18689497 10:-0.062273737 11:-0.1001632 12:-0.062445199 13:-0.041469835 
25.5754189944 1:0.52688271 2:0.028099371 3:0.0015022772 4:0.25636802 5:0.27478627 6:0.24122686 7:-0.30039378 8:0.066280362 9:0.10642985 10:0.1175018 11:-0.11689806 12:-0.071247741 13:0.28774589 
25.5754189944 1:0.56863075 2:0.10920852 3:0.020332678 4:0.30161597 5:0.32906749 6:0.068168479 7:-0.3092869 8:0.11631144 9:0.27519677 10:0.11910322 11:-0.05089405 12:-0.082353634 13:0.2821718 
25.5754189944 1:0.22162917 2:-0.018551305 3:0.045592177 4:0.3360355 5:0.22663803 6:0.30228646 7:-0.32328513 8:0.042227537 9:-0.011024478 10:0.021837891 11:-0.25494327 12:-0.070867946 13:0.35825153 
25.5754189944 1:0.47727522 2:0.27407492 3:-0.02782037 4:0.15804118 5:0.50440208 6:-0.10257811 7:-0.30939775 8:0.049809079 9:0.31976625 10:-0.0517706 11:-0.0069946213 12:-0.014119925 13:0.23291463 
6.719525994852127 1:0.54780236 2:0.29440549 3:-0.17132563 4:-0.13532707 5:0.61075029 6:-0.14070882 7:-0.23159326 8:0.11495848 9:0.53265562 10:-0.04336635 11:0.039450094 12:0.02265116 13:0.10562673 
25.5754189944 1:0.21311505 2:0.29229512 3:-0.22383634 4:-0.16774621 5:0.6140141 6:-0.31215274 7:-0.31846349 8:0.19589531 9:0.54156768 10:-0.10344915 11:0.34021176 12:-0.0047286602 13:0.20139919 
11.10130414012379 1:0.27527429 2:-0.52976567 3:-0.46200468 4:0.012355785 5:0.19082959 6:0.29871742 7:-0.050655802 8:0.49447734 9:0.45106444 10:0.33772668 11:-0.011546551 12:0.05524377 13:0.26157567 
25.5754189944 1:0.3143496 2:-0.28025463 3:-0.49703027 4:-0.18752364 5:0.26720253 6:0.069247367 7:-0.096433997 8:0.14812614 9:0.36740105 10:0.29236559 11:-0.0077334579 12:-0.12241117 13:0.051408989 
25.5754189944 1:0.28878802 2:-0.51860372 3:-0.45538546 4:-0.061339931 5:0.11684989 6:0.18502522 7:-0.32918691 8:0.13087836 9:0.35955463 10:0.47874127 11:0.10403818 12:-0.12992993 13:0.13051902 
25.5754189944 1:0.52087574 2:-0.2171472 3:-0.34252918 4:0.0072213026 5:0.27075705 6:0.059121865 7:-0.24580041 8:0.057405979 9:0.20640563 10:0.25454303 11:0.066542128 12:-0.066000563 13:0.23257293 
25.5754189944 1:0.32194476 2:-0.48467421 3:-0.51524669 4:-0.11608775 5:0.025595546 6:0.086861103 7:-0.1535634 8:0.2831073 9:0.21269057 10:0.15965406 11:-0.13038153 12:-0.014868336 13:0.50562131 
25.5754189944 1:0.23064755 2:-0.060634132 3:-0.36222968 4:-0.183218 5:0.24139475 6:-0.09435048 7:-0.25620849 8:0.15183 9:0.30824018 10:-0.018922471 11:-0.091561401 12:-0.020358121 13:0.21387387 
25.5754189944 1:0.65616475 2:-0.44048989 3:-0.65771751 4:-0.33047011 5:0.18007993 6:0.1085962 7:-0.10561138 8:0.13909996 9:0.25578261 10:0.12528732 11:0.010585862 12:-0.047836052 13:0.31357658 
25.5754189944 1:0.36243763 2:-0.5861895 3:-0.6824244 4:-0.21972502 5:0.246009 6:0.27791024 7:0.0024504595 8:0.19959386 9:0.2444058 10:0.19737114 11:-0.026693916 12:-0.1448943 13:0.2615904 
25.5754189944 1:0.53720974 2:-0.37399056 3:-0.71449895 4:-0.51198708 5:0.053309613 6:-0.27275491 7:-0.45370296 8:-0.051422071 9:0.27477288 10:-0.069635477 11:-0.097639829 12:-0.098834471 13:0.2209234 
25.5754189944 1:0.32655226 2:-0.66834331 3:-0.57584848 4:-0.054805667 5:0.11903364 6:0.17762975 7:-0.21654255 8:0.20288583 9:0.14299929 10:0.068675749 11:-0.29001893 12:-0.22718929 13:0.24919713 
7.501260329331837 1:0.52090046 2:-0.48382686 3:-0.55861879 4:-0.10483669 5:0.13412274 6:0.090111155 7:-0.21110266 8:0.089553467 9:0.27853637 10:0.17673433 11:-0.019455761 12:-0.18640168 13:0.44945277 
25.5754189944 1:0.55298541 2:-0.11465459 3:-0.58962884 4:-0.42631658 5:0.45408423 6:-0.072255888 7:-0.099772894 8:0.12169297 9:0.476759 10:-0.11930536 11:-0.15507391 12:-0.19527218 13:0.19172373 
7.917126544337706 1:0.58059563 2:-0.45371728 3:-0.69754498 4:-0.37619259 5:0.063774595 6:-0.15994723 7:-0.27767686 8:0.064413957 9:0.41990771 10:0.1370025 11:-0.015970571 12:-0.17681364 13:0.20080004 
25.5754189944 1:0.29292142 2:-0.64977375 3:-0.55001241 4:-0.052954917 5:-0.087185876 6:0.048772701 7:-0.26015961 8:0.31687454 9:0.13254085 10:0.13430964 11:-0.24912326 12:-0.088247556 13:0.25623659 
6.445167099873816 1:0.2964982 2:-0.3820416 3:-0.30201228 4:0.15203212 5:0.021469784 6:0.049949455 7:-0.31841266 8:0.19863508 9:0.069418196 10:0.26422102 11:-0.0040691473 12:0.031849651 13:0.15555378 
3.007063731686693 1:0.4786044 2:-0.11740102 3:-0.63719778 4:-0.57332189 5:0.36537377 6:-0.16375378 7:-0.19256658 8:0.12255001 9:0.60665613 10:0.04350413 11:0.076552577 12:-0.084491403 13:0.18139867 
17.19614869512778 1:0.57133463 2:-0.23927936 3:-0.718852 4:-0.48869885 5:0.28527368 6:-0.2831174 7:-0.19527367 8:0.0971692 9:0.44635397 10:0.0788373 11:0.17262184 12:0.027165679 13:0.22746816 
25.5754189944 1:0.27741369 2:-0.40317338 3:-0.44098274 4:-0.0024393763 5:0.2255893 6:0.021286186 7:-0.27462734 8:0.15334945 9:0.21661224 10:0.15258992 11:-0.10462261 12:0.0024415273 13:0.20621592 
16.64082430272615 1:0.14260214 2:-0.43275502 3:-0.46012418 4:-0.13802413 5:-0.17722773 6:0.00086460274 7:-0.2878665 8:0.29803878 9:0.28758784 10:0.48408594 11:0.1893206 12:0.017996141 13:0.13471465 
25.5754189944 1:0.087637073 2:-0.54943465 3:-0.58446589 4:-0.17817435 5:-0.13856501 6:-0.2695461 7:-0.49742976 8:0.056298679 9:0.13428915 10:0.27207628 11:-0.029763534 12:-0.026491061 13:0.2777367 
25.5754189944 1:0.33937652 2:-0.30778545 3:-0.58570372 4:-0.3832245 5:0.063665487 6:-0.074420762 7:-0.34401212 8:-0.0032858235 9:0.40279106 10:0.2416904 11:0.071187726 12:-0.20669286 13:0.11444664 
25.5754189944 1:0.36087888 2:-0.20432152 3:-0.39525399 4:-0.13640304 5:0.080656771 6:0.0024596408 7:-0.2980536 8:0.053568372 9:0.25978092 10:0.34377487 11:0.22553564 12:-0.12190179 13:0.057557438 
25.5754189944 1:0.05259128 2:0.052807999 3:-0.40040047 4:-0.19425075 5:0.30330153 6:-0.21243723 7:-0.047198185 8:-0.049808669 9:0.25655724 10:0.28684973 11:-0.01174559 12:-0.021639117 13:0.15871237 
25.5754189944 1:0.27833951 2:-0.20865852 3:-0.35934188 4:-0.064737771 5:0.093053357 6:0.023351474 7:-0.34002992 8:0.0010368545 9:0.23797793 10:0.34787807 11:0.22891122 12:-0.14604024 13:0.056212946 
25.5754189944 1:0.34243516 2:-0.30240366 3:-0.49988748 4:-0.25301958 5:0.20089353 6:-0.019139069 7:-0.36264044 8:0.009045162 9:0.37635896 10:0.32191128 11:0.18123977 12:-0.086619724 13:0.16554161 
13.22349652770041 1:0.27065372 2:-0.072847066 3:-0.41031803 4:-0.27373822 5:0.27449567 6:-0.42032811 7:-0.52285564 8:0.0085739642 9:0.57182424 10:0.36132021 11:0.20544221 12:-0.068402064 13:0.10000871 
25.5754189944 1:-0.57111433 2:0.011311472 3:0.16505111 4:0.02226338 5:-0.69036386 6:0.058240998 7:-0.30847024 8:0.16228603 9:-0.16079969 10:0.22443699 11:-0.18905299 12:-0.3557934 13:-0.30933119 
15.37933689379868 1:-0.15809959 2:0.62703229 3:0.29266388 4:-0.21999901 5:-0.17404035 6:0.020962228 7:-0.37414537 8:0.2092035 9:0.2876973 10:0.30375325 11:0.35405377 12:0.13775146 13:0.24362736 
25.5754189944 1:-0.087175717 2:0.58176291 3:0.47922143 4:0.052471427 5:-0.32959654 6:0.031697718 7:-0.25285109 8:0.36217373 9:0.37853966 10:0.48164964 11:0.23526528 12:0.22945731 13:0.15447992 
25.5754189944 1:0.084935009 2:0.45907573 3:0.58909612 4:0.49812949 5:-0.25056069 6:0.12105676 7:-0.19239381 8:0.26371602 9:-0.20988978 10:-0.1008029 11:-0.4562613 12:-0.20808644 13:0.068205305 
25.5754189944 1:-0.41909235 2:0.095626095 3:0.45888252 4:0.50696625 5:-0.57310207 6:0.0379653 7:-0.22440183 8:0.55982083 9:0.095653805 10:0.69117589 11:0.36231229 12:0.19473288 13:0.10844781 
25.5754189944 1:0.073190123 2:0.3097399 3:0.54706314 4:0.6096334 5:-0.22350309 6:0.12659229 7:-0.23461846 8:0.29541405 9:-0.29268053 10:-0.10206679 11:-0.46599359 12:-0.19297747 13:0.038517116 
25.5754189944 1:0.2183329 2:0.42116192 3:0.47398093 4:0.43403801 5:-0.15591163 6:0.20959496 7:-0.10897719 8:0.10492624 9:-0.34880255 10:-0.18336771 11:-0.21942612 12:-0.029775401 13:0.34911543 
25.5754189944 1:-0.01098008 2:-0.11041622 3:0.47083138 4:0.76946575 5:-0.38030071 6:0.22471916 7:-0.26737697 8:0.4265711 9:-0.38002983 10:0.052974439 11:-0.30182566 12:0.16216635 13:0.17528916 
25.5754189944 1:0.25751164 2:0.67049114 3:0.33247868 4:-0.036287821 5:-0.0096766453 6:0.11170991 7:-0.0097554631 8:-0.1877756 9:-0.049479636 10:-0.16836425 11:-0.40063312 12:-0.20387932 13:0.46206598 
25.5754189944 1:0.18131703 2:-0.015289981 3:0.12632869 4:0.30083712 5:-0.22734614 6:0.22971363 7:-0.16580089 8:0.14845833 9:-0.35582432 10:-0.11309274 11:-0.17757469 12:0.043071379 13:0.33438339 
