svm_type c_svc
kernel_type rbf
gamma 0.76923
nr_class 2
total_sv 2281
rho 0.123396
label 1 -1
nr_sv 1219 1062
SV
1.145481192427896 1:-0.47022945 2:-0.17658713 3:0.55056911 4:0.77572024 5:-0.26095756 6:0.34585163 7:-0.34426476 8:0.4834747 9:-0.03406412 10:0.51436539 11:-0.092440483 12:0.12344931 13:0.23054406 16:-0.52648351 17:-0.093000916 18:-0.10408685 19:-0.079567756 20:-0.16379308 21:0.06691307 22:-0.10582433 23:0.0106269 24:0.081017007 25:0.21273068 26:0.10905402 27:0.07856216 28:0.15171973 29:0.052280841 30:0.68777451 31:0.10642194 32:0.14203744 33:0.51273766 34:0.21925427 35:-0.087872341 36:-0.44330797 37:-0.19567988 38:-0.7767081 39:-0.27005591 
1.315437087942239 1:-0.21853957 2:-0.36649798 3:0.48188263 4:0.8308049 5:-0.25107431 6:0.29495761 7:-0.21892694 8:0.60345136 9:-0.071423628 10:0.46573722 11:0.014068065 12:0.10833251 13:0.098262135 16:-0.60747367 17:-0.014147144 18:-0.32509141 19:0.19918854 20:-0.16890074 21:0.24384837 22:-0.13707984 23:0.093495807 24:-0.275099 25:0.43282035 26:-0.088057873 27:0.23352428 28:0.40055575 29:0.32958917 30:0.33356465 31:0.16026539 32:0.058207279 33:0.62999634 34:0.11982488 35:0.27101987 36:-0.49330317 37:-0.18155505 38:-0.62178379 39:-0.31656565 
0.1962818682164654 1:-0.12694388 2:-0.5152421 3:0.072720673 4:0.54606945 5:-0.35303821 6:0.14407412 7:-0.45085682 8:0.44370361 9:-0.053066742 10:0.45228595 11:-0.0011665715 12:0.10901644 13:0.1055174 15:1 16:0.3040177 17:-0.20165478 18:0.38230215 19:-0.010533834 20:-0.21096742 21:0.19721532 22:-0.069051079 23:0.06748981 24:0.0018592687 25:0.4557066 26:-0.093712702 27:0.25889355 28:0.12279768 29:0.25974284 30:0.24389252 31:0.16264393 32:0.46733422 33:0.22614077 34:0.30083795 35:-0.0075635382 36:-0.39682027 37:-0.36902854 38:-0.50194568 39:-0.35372159 
0.7094100588288215 1:-0.088417604 2:-0.541999 3:0.098939089 4:0.55069045 5:-0.46579231 6:0.18252077 7:-0.29715844 8:0.5504676 9:-0.049368558 10:0.53131668 11:0.051189471 12:0.30011668 13:0.079865755 16:0.14156607 17:-0.096845053 18:0.24468846 19:0.19206896 20:0.20380384 21:-0.085828543 22:-0.015738169 23:0.26425776 24:-0.2402617 25:0.28586278 26:0.23280859 27:0.13189615 28:0.32683391 29:0.25002996 30:0.19230763 31:0.3659123 32:0.14150236 33:0.29940405 34:0.24869641 35:-0.18159467 36:-0.22611575 37:-0.33986417 38:-0.71841758 39:-0.29130028 
2.895145720074944 1:-0.4081543 2:-0.26917817 3:0.50496522 4:0.79144339 5:-0.26329126 6:0.28881851 7:-0.26018447 8:0.47269083 9:-0.10188426 10:0.50740931 11:0.010856439 12:0.16641139 13:0.1272905 16:-0.48990133 17:-0.10226188 18:-0.10011132 19:-0.084035798 20:-0.063191251 21:0.073914279 22:-0.021666246 23:0.093865279 24:-0.016203876 25:0.11195957 26:0.020051734 27:0.14007055 28:0.32335556 29:0.21210957 30:0.3503775 31:0.16917976 32:0.15432547 33:0.30410348 34:0.34377944 35:-0.24046381 36:-0.26456179 37:-0.22465571 38:-0.71985015 39:-0.16167082 
1.372054903552826 1:-0.086138045 2:-0.65081631 3:0.077948657 4:0.60980467 5:-0.39268501 6:0.13393052 7:-0.3202358 8:0.67732917 9:0.14268999 10:0.68559111 11:0.087640786 12:0.19816526 13:0.075183755 16:-0.36296959 17:0.10797511 18:-0.086116481 19:0.80155684 20:-0.34585275 21:-0.024269275 22:0.12443156 23:0.13266461 24:-0.12556988 25:0.23745374 26:0.53412948 27:0.089153953 28:0.40040673 29:0.0051365437 30:0.71492844 31:-0.12762326 32:0.25890459 33:0.44718913 34:0.1325139 35:0.08946821 36:-0.31899391 37:-0.30863984 38:-0.61066614 39:-0.48575131 
1.760882677634794 1:-0.38863763 2:-0.32941459 3:0.52403808 4:0.82447165 5:-0.24000973 6:0.29864491 7:-0.35167516 8:0.49713617 9:-0.071207977 10:0.43228085 11:0.030236164 12:0.15330834 13:0.28077848 16:-0.48934439 17:-0.076192845 18:-0.055045177 19:-0.046397024 20:-0.26710599 21:-0.0021193455 22:0.15173087 23:0.048100811 24:-0.15318557 25:0.40956473 26:0.29840749 27:-0.18341237 28:0.48935534 29:-0.06453302 30:0.67249591 31:-0.19382408 32:0.21161428 33:0.64589258 34:0.18408091 35:0.041371367 36:-0.49818777 37:-0.1842112 38:-0.62265625 39:-0.20716558 
1.110569309422499 1:-0.10548037 2:-0.64219215 3:0.044732262 4:0.59910189 5:-0.31847094 6:0.16273507 7:-0.29100316 8:0.68610644 9:0.18643299 10:0.7499146 11:0.12240676 12:0.067635026 13:-0.030736013 16:-0.96974628 17:0.10154261 18:0.099942121 19:0.92916063 20:-0.20374751 21:-0.027371708 22:-0.13568098 23:0.26622262 24:0.2851879 25:0.36300675 26:-0.032038119 27:0.1676955 28:0.47349938 29:0.030805882 30:0.3839955 31:0.10450666 32:0.27061936 33:0.18605485 34:0.44412304 35:-0.14762634 36:-0.27729182 37:-0.317714 38:-0.5498812 39:-0.48976643 
1.575825114641539 1:-0.40984069 2:-0.38752903 3:0.46845663 4:0.85153064 5:-0.22272019 6:0.22342911 7:-0.22018426 8:0.51727413 9:-0.099084017 10:0.44713775 11:-0.11408711 12:0.20385897 13:0.17781344 16:-0.48283969 17:-0.080974453 18:-0.12729409 19:-0.1233459 20:-0.30426517 21:0.46714067 22:0.071122201 23:-0.23243535 24:-0.09896774 25:0.40495736 26:0.18537214 27:0.082215361 28:0.11605231 29:0.34382048 30:0.25552306 31:0.090861994 32:0.32489114 33:0.27557009 34:0.14207565 35:-0.0021830308 36:-0.14964445 37:-0.35495696 38:-0.64686229 39:-0.14329181 
0.1484924668266024 1:-0.11391458 2:-0.70132148 3:-0.12173909 4:0.38754403 5:-0.46039221 6:0.13624302 7:-0.34042223 8:0.65619846 9:0.11885827 10:0.59294362 11:0.16022892 12:0.21545456 13:0.17551711 16:0.12497399 17:0.58377379 18:0.029386838 19:0.20818437 20:0.12414256 21:-0.32919239 22:0.15302161 23:-0.026163083 24:0.27990335 25:-0.30784049 26:0.26525124 27:0.33217366 28:0.15927249 29:0.11836405 30:0.40366938 31:0.14195197 32:0.27534726 33:0.031482945 34:0.66477727 35:-0.19551803 36:-0.41253046 37:-0.40353166 38:-0.44211548 39:-0.4139713 
0.6953030741748579 1:-0.12946843 2:-0.52445971 3:0.2101577 4:0.68815145 5:-0.26315018 6:0.20251712 7:-0.35086009 8:0.53654261 9:0.074328588 10:0.64442898 11:0.023625338 12:0.077821586 13:-0.034169906 16:-0.21891049 17:-0.061632187 18:-0.14930759 19:0.68101153 20:0.024429887 21:-0.31790229 22:-0.23151009 23:0.22101209 24:-0.12095694 25:0.28376372 26:0.071686626 27:-0.0025039845 28:0.40283192 29:0.068852729 30:0.51116342 31:0.060682178 32:0.3085926 33:0.14743671 34:0.4930131 35:-0.22063183 36:-0.19335724 37:-0.39454288 38:-0.54207636 39:-0.42160675 
0.6782168657286432 1:0.40136753 2:-0.57297062 3:0.2349803 4:0.72365167 5:-0.3218122 6:0.27197873 7:-0.43618461 8:0.28099612 9:-0.33829269 10:0.31445179 11:-0.17386883 12:0.34556433 13:0.30079783 16:-0.13477925 17:0.30292164 18:-0.41089927 19:-0.077259154 20:-0.32960305 21:0.68401382 22:0.072590662 23:0.04124681 24:0.16652001 25:0.25947754 26:0.007877637 27:0.38316296 28:0.10672454 29:0.23204081 30:0.58259517 31:0.4060333 32:0.10742608 33:0.11756203 34:0.49446945 35:-0.21197473 36:-0.26173208 37:-0.2860626 38:-0.81917695 39:-0.28752155 
0.3414470607090244 1:0.6332379 2:-0.66227221 3:-0.12577408 4:0.36191197 5:-0.52263953 6:-0.11236193 7:-0.64725913 8:0.25177735 9:-0.11040169 10:0.53040407 11:-0.105838 12:0.18570458 13:0.20829529 16:0.93823002 17:0.060731458 18:-0.070567267 19:0.18095224 20:-0.12205473 21:-0.15537097 22:0.1771685 23:0.23398017 24:-0.038612576 25:0.36953388 26:0.085994227 27:-0.048964068 28:0.35921141 29:0.21130684 30:0.53251228 31:0.037284808 32:0.28676375 33:0.28433077 34:0.16965187 35:-0.25693902 36:-0.069742187 37:-0.44250817 38:-0.54368613 39:-0.44050382 
7.222536233976725 1:0.16178176 2:-0.56334457 3:0.033701018 4:0.5352246 5:-0.3613025 6:-0.062867039 7:-0.31334957 8:0.4798399 9:-0.1015507 10:0.36508838 11:-0.17781455 12:0.010451929 13:-0.10326596 16:-0.87177902 17:0.11368324 18:0.42634834 19:-0.13512337 20:0.09697491 21:-0.0121274 22:0.14724102 23:0.020475988 24:-0.038249623 25:0.208716 26:0.41808424 27:0.057454946 28:0.29937232 29:0.23637137 30:0.24566379 31:-0.20499128 32:0.33064485 33:0.043453278 34:0.4918573 35:-0.29972001 36:-0.14126079 37:-0.19474072 38:-0.50654043 39:-0.34787685 
3.615226191353933 1:0.0705999 2:-0.71448412 3:-0.090333843 4:0.48222335 5:-0.37314731 6:0.075586712 7:-0.42020986 8:0.32565425 9:-0.18150072 10:0.48864639 11:-0.037848811 12:0.25346 13:0.37754676 16:-0.71456512 17:0.39667994 18:0.1255209 19:-0.0030744626 20:0.23178353 21:0.27858324 22:0.26374582 23:-0.31370093 24:0.36385028 25:0.39249295 26:0.15962761 27:0.0081268084 28:0.13699778 29:0.27067977 30:0.36551661 31:0.17609748 32:0.15746865 33:0.32762389 34:0.1908655 35:-0.19137481 36:-0.17140555 37:-0.20152185 38:-0.68102665 39:-0.25745871 
5.779309754104148 1:-0.022804869 2:-0.55023139 3:0.14760797 4:0.62880558 5:-0.29177884 6:0.08977364 7:-0.39174799 8:0.37048091 9:-0.14401731 10:0.49105033 11:-0.1401111 12:0.054643753 13:0.12313457 16:-0.25441329 17:-0.1540121 18:0.34303467 19:-0.29539293 20:0.0097180694 21:0.085916461 22:0.17862428 23:-0.32752259 24:0.27299313 25:0.3441024 26:0.20503277 27:-0.051954991 28:0.14666765 29:0.29728 30:0.33360501 31:0.10147358 32:0.18002048 33:0.32697499 34:0.21047325 35:-0.14660472 36:-0.20137869 37:-0.12714975 38:-0.675213 39:-0.34149662 
2.743098846168125 1:-0.020097937 2:-0.62552629 3:-0.011971901 4:0.59366234 5:-0.17260209 6:-0.057204115 7:-0.34615929 8:0.40516031 9:-0.23822195 10:0.18563536 11:-0.11317532 12:0.12390471 13:0.10889423 16:0.03506001 17:0.42047712 18:-0.68207541 19:0.23666247 20:-0.084397464 21:-0.17742706 22:0.097608624 23:0.069337237 24:0.28039211 25:0.045810551 26:0.46600453 27:0.076085276 28:0.39906767 29:0.10418069 30:0.2197819 31:-0.1585112 32:0.4788601 33:0.027796178 34:0.45275103 35:-0.16690446 36:-0.1816341 37:-0.019387833 38:-0.40667432 39:-0.56727336 
3.229316457105756 1:-0.31083857 2:-0.54715946 3:0.053417008 4:0.60579601 5:-0.13650889 6:-0.11615746 7:-0.4105436 8:0.32712478 9:-0.14990351 10:0.44795957 11:0.17252809 12:0.18775299 13:0.0027432053 16:0.12096917 17:0.22975353 18:-0.056603357 19:0.046053044 20:-0.14154868 21:-0.024995677 22:0.011495693 23:0.35959594 24:0.36542483 25:-0.10809234 26:0.37210408 27:0.0054453455 28:0.49785764 29:0.0084068253 30:0.22023901 31:-0.075528752 32:0.22705654 33:0.14146018 34:0.34919478 35:-0.16864433 36:-0.14845191 37:-0.026585525 38:-0.36437792 39:-0.51935612 
2.007598129481275 1:0.13353895 2:-0.45188521 3:0.2227806 4:0.61140587 5:-0.2682562 6:0.11400698 7:-0.34704213 8:0.46033226 9:-0.17222324 10:0.19553409 11:-0.11318796 12:0.17570958 13:0.13808 14:-1 16:-0.25111588 17:-0.016990866 18:-0.25373628 19:0.039445313 20:0.25663443 21:0.13980401 22:-0.088221788 23:0.11543074 24:-0.11614846 25:0.26239882 26:0.17058096 27:0.37428327 28:0.16862246 29:0.15396935 30:0.29370605 31:0.13441485 32:0.33980908 33:0.19773473 34:0.27750197 35:-0.021656461 36:-0.28912498 37:-0.33053535 38:-0.40284754 39:-0.28983165 
5.510707213274225 1:-0.1849423 2:-0.48287948 3:0.21172059 4:0.64916875 5:-0.19392178 6:0.033076735 7:-0.39749655 8:0.43223741 9:-0.12077911 10:0.25343164 11:-0.073390899 12:0.064080385 13:-0.044070924 16:-0.2143583 17:-0.08702037 18:-0.094210627 19:0.038430671 20:0.30436513 21:-0.064801164 22:0.090210659 23:0.11553063 24:0.042493724 25:0.17975799 26:0.17810272 27:0.34304708 28:0.21881758 29:0.071199443 30:0.21730219 31:-0.062949296 32:0.51837982 33:0.40462142 34:0.024166592 35:-0.071886774 36:-0.18619519 37:-0.28256436 38:-0.40007183 39:-0.17411346 
4.288253562274507 1:0.084229554 2:-0.33992967 3:0.33145528 4:0.58504724 5:-0.29549505 6:0.12006153 7:-0.38994807 8:0.42604337 9:-0.13947172 10:0.31866662 11:-0.14575352 12:0.079353017 13:0.13781873 16:-0.29470309 17:-0.012829646 18:-0.11589053 19:-0.15103303 20:0.25111141 21:0.047988632 22:-0.13397787 23:0.047367684 24:0.024410319 25:0.23515506 26:0.016123493 27:0.3273292 28:0.12038328 29:0.19590617 30:0.37126517 31:0.16706713 32:0.194323 33:0.27649474 34:0.31452702 35:-0.092505429 36:-0.29399187 37:-0.28490155 38:-0.4687787 39:-0.16704081 
5.140078233852096 1:0.21715967 2:-0.5507073 3:0.030340589 4:0.50566893 5:-0.39070331 6:-0.11192193 7:-0.41123277 8:0.36352972 9:-0.15857024 10:0.47360255 11:-0.06306254 12:0.14148091 13:0.022877115 16:-0.36657068 17:0.054259111 18:0.4708902 19:0.052158275 20:-0.24354261 21:0.3628922 22:-0.075895953 23:-0.22527845 24:0.23471357 25:0.093946612 26:0.1386949 27:0.26867969 28:0.40581787 29:-0.029906979 30:0.45535651 31:-0.0072552712 32:0.14438111 33:0.18501236 34:0.23984152 35:0.0066053377 36:-0.23849103 37:-0.090266164 38:-0.59196772 39:-0.31224077 
2.622228046845866 1:0.27845048 2:-0.57532671 3:0.04975232 4:0.52722897 5:-0.32516952 6:-0.008493696 7:-0.26958033 8:0.59931144 9:-0.051458718 10:0.30182542 11:-0.24257836 12:-0.081120293 13:0.14266856 16:-0.051815026 17:-0.070630827 18:-0.091676 19:0.20165617 20:0.19879219 21:0.22873018 22:-0.45717607 23:0.098831299 24:0.11218822 25:0.18555717 26:0.27855232 27:0.083777114 28:0.47040092 29:0.095264116 30:0.23998624 31:0.040716936 32:0.15717652 33:0.25114612 34:0.42896031 35:-0.10958669 36:-0.41902548 37:-0.0089416062 38:-0.52077291 39:-0.26507254 
3.345764851093428 1:0.036466818 2:-0.41728367 3:0.20823607 4:0.51684433 5:-0.2720517 6:0.059828987 7:-0.35731642 8:0.35965856 9:-0.086096261 10:0.40143487 11:-0.049751056 12:0.043361663 13:0.15777459 14:-1 16:-0.30409116 17:0.091858003 18:0.036992524 19:0.060401074 20:-0.026758821 21:0.093129461 22:-0.054852771 23:0.094538012 24:0.0028824937 25:0.26785793 26:-0.0092654629 27:0.13326709 28:0.25888904 29:0.16772482 30:0.37256659 31:0.052488521 32:0.11335507 33:0.39142802 34:0.28011992 35:-0.1168641 36:-0.31975128 37:-0.15334452 38:-0.48382793 39:0.078141722 
3.166015761574156 1:0.26449601 2:-0.26050992 3:0.27239079 4:0.61449371 5:-0.33339397 6:0.10497276 7:-0.29361212 8:0.45232923 9:-0.14921018 10:0.43234572 11:-0.11526561 12:0.019450505 13:0.14820126 16:-0.44301215 17:0.056607272 18:-0.019076201 19:0.087718974 20:0.078032887 21:0.047031835 22:-0.080663105 23:-0.013930739 24:-0.080450424 25:0.30200002 26:0.15415687 27:-0.09681798 28:0.3473687 29:0.14180147 30:0.37090922 31:0.13612111 32:-0.11677347 33:0.28266769 34:0.40226277 35:-0.1352095 36:-0.29874787 37:-0.21617308 38:-0.67395265 39:0.060711378 
0.5108877812117615 1:0.2894672 2:-0.65901624 3:0.02943942 4:0.54047916 5:-0.51428847 6:0.076735004 7:-0.48737445 8:0.30854576 9:-0.21567333 10:0.38407277 11:-0.15625239 12:0.12191284 13:0.16567533 16:-0.55404711 17:0.40608006 18:-0.60107883 19:0.092436212 20:-0.11884836 21:0.11769314 22:0.14112085 23:-0.13326838 24:0.34944167 25:0.20607489 26:-0.16721911 27:0.34611761 28:0.012305732 29:0.24120159 30:0.56938582 31:0.11071452 32:0.25633187 33:0.23367452 34:0.23515251 35:-0.10985396 36:-0.25421961 37:-0.3802758 38:-0.69471394 39:-0.10323361 
0.3185160650016383 1:0.371923 2:-0.57638969 3:-0.036338203 4:0.4808628 5:-0.42935432 6:0.2163517 7:-0.33294496 8:0.40650998 9:-0.21120965 10:0.37076535 11:-0.023624947 12:0.24345281 13:0.078835362 15:1 16:-0.73466976 17:0.407346 18:0.10508867 19:-0.60834657 20:0.043064792 21:0.27789085 22:-0.030414444 23:0.11261283 24:0.27953394 25:-0.072909615 26:0.0042548802 27:0.16774474 28:0.44574937 29:-0.0383974 30:0.4055839 31:0.40230176 32:0.16196473 33:0.2030385 34:0.18644159 35:0.014489906 36:-0.26233812 37:-0.48149586 38:-0.52334644 39:-0.42613899 
0.7644899649594699 1:0.37326256 2:-0.61878349 3:-0.12143932 4:0.46236787 5:-0.44039227 6:0.00042584026 7:-0.4687675 8:0.37241345 9:-0.17468871 10:0.40249663 11:-0.047574314 12:0.20101057 13:-0.071273144 16:-0.11381396 17:0.36191017 18:0.050117125 19:-0.093740601 20:-0.19923924 21:0.58000293 22:-0.27653459 23:0.074514213 24:0.22250272 25:0.086963673 26:0.36896242 27:0.15278923 28:0.37816588 29:-0.0087611174 30:0.54800575 31:0.039267819 32:0.1481971 33:0.41477002 34:0.12660778 35:0.099026439 36:-0.25935763 37:-0.31571998 38:-0.56378181 39:-0.49810151 
0.0178069085762234 1:0.27942013 2:-0.49045849 3:0.16577402 4:0.57453821 5:-0.32455457 6:0.13091002 7:-0.32759097 8:0.43409321 9:-0.21041481 10:0.2930223 11:0.010172936 12:0.26599253 13:0.11380707 15:-1 16:-0.097115359 17:-0.013158386 18:-0.019638056 19:0.65392287 20:-0.55312399 21:0.41425541 22:0.10653642 23:-0.12808554 24:0.1057708 25:-0.1789634 26:0.38162868 27:0.13552337 28:0.48576505 29:-0.13676354 30:0.40493167 31:0.10218446 32:0.23716018 33:0.3592507 34:0.23527849 35:0.043195473 36:-0.31445118 37:-0.30161893 38:-0.57310718 39:0.10616403 
1.240474446094564 1:0.36546317 2:-0.57017158 3:0.051658808 4:0.53578817 5:-0.43627308 6:0.06778188 7:-0.36267071 8:0.57804646 9:-0.02565994 10:0.56765292 11:-0.097059597 12:0.048108735 13:0.026939302 15:1 16:0.4590269 17:-0.74036275 18:0.42437984 19:0.019225257 20:-0.082514548 21:0.20025126 22:-0.3708587 23:0.4072409 24:0.13165931 25:0.24929738 26:0.048977501 27:0.28499565 28:0.24236637 29:0.16823232 30:0.41433616 31:0.10505506 32:0.14199111 33:0.14818831 34:0.51782146 35:-0.164422 36:-0.31090832 37:-0.2391827 38:-0.69560833 39:-0.3398205 
0.3147795328095736 1:0.34877524 2:-0.66855123 3:-0.041722056 4:0.47737677 5:-0.45985142 6:0.042043633 7:-0.49123736 8:0.39005375 9:-0.18704545 10:0.29667165 11:-0.27140911 12:0.040072277 13:0.086971453 16:-0.85806944 17:0.48847962 18:0.11161524 19:-0.33374018 20:0.33933282 21:0.27565315 22:-0.02067822 23:-0.086970359 24:0.18794959 25:0.32770061 26:0.044335349 27:0.45701117 28:0.051533429 29:0.33228707 30:0.47845874 31:0.10509061 32:0.26952975 33:0.051543011 34:0.57269718 35:-0.18626339 36:-0.36081972 37:-0.21736391 38:-0.64930079 39:-0.39139035 
1.428427770054517 1:0.28796734 2:-0.49067641 3:0.24425189 4:0.64547963 5:-0.34423327 6:0.17681234 7:-0.43005138 8:0.39284259 9:-0.14430349 10:0.38694863 11:-0.12184613 12:0.14075241 13:0.18899993 16:-0.54778819 17:-0.22633084 18:0.28215419 19:-0.29415169 20:-0.097436969 21:0.49487502 22:0.036816395 23:-0.013703745 24:0.14856767 25:0.12816077 26:0.074464034 27:0.36771902 28:0.019933934 29:0.42582355 30:0.45181271 31:0.14732214 32:0.33072465 33:-0.002610908 34:0.59817377 35:-0.1759402 36:-0.36184081 37:-0.26485526 38:-0.64324075 39:-0.20022857 
0.9345122434821503 1:0.36530053 2:-0.59620771 3:-0.08351561 4:0.35607024 5:-0.5500923 6:-0.02105646 7:-0.3857566 8:0.43592825 9:-0.1219736 10:0.47826154 11:-0.069873727 12:0.15780134 13:0.16801323 16:-0.75179156 17:0.36023913 18:0.33414904 19:0.36891423 20:-0.14210696 21:0.37119213 22:-0.076367657 23:-0.047234869 24:-0.015717698 25:0.30869408 26:-0.018054107 27:0.17398466 28:0.2051747 29:0.48193247 30:0.19220286 31:0.088678706 32:0.11216634 33:0.52690133 34:-0.259882 35:0.4925721 36:-0.304786 37:-0.27901198 38:-0.56251877 39:-0.5067836 
0.4678756066247022 1:0.33190757 2:-0.64616037 3:-0.027644667 4:0.49602799 5:-0.44909943 6:-0.055216203 7:-0.43531333 8:0.33223004 9:-0.25396488 10:0.33464665 11:-0.32675408 12:0.21197056 13:0.079767466 14:-1 16:0.50183285 17:-0.063813448 18:0.19933035 19:0.12225876 20:-0.094077477 21:0.47396134 22:-0.20147325 23:0.33046245 24:0.018311964 25:0.060101077 26:0.27739191 27:0.068446641 28:0.39232449 29:0.23529116 30:0.28005866 31:0.2326704 32:0.27510964 33:0.038989241 34:0.19660813 35:0.003588028 36:-0.027888329 37:-0.32346004 38:-0.62731797 39:-0.38973691 
1.260077359861372 1:0.27107793 2:-0.47504649 3:0.28208742 4:0.6857472 5:-0.37654296 6:-0.033654831 7:-0.33657025 8:0.49171246 9:-0.07838199 10:0.4878191 11:-0.25535758 12:0.19094789 13:0.041168206 16:-0.36232169 17:-0.12224316 18:0.083980607 19:0.20908531 20:-0.19531397 21:0.23220614 22:-0.13097264 23:-0.36103308 24:0.31387292 25:-0.17512487 26:0.24319116 27:0.11967025 28:0.39198454 29:0.25518334 30:0.25682164 31:0.2756865 32:0.2289871 33:-0.03565319 34:0.29009504 35:-0.04561962 36:0.017759015 37:-0.36527594 38:-0.65950312 39:-0.094893974 
2.900103246534158 1:0.34789997 2:-0.58055423 3:-0.033653586 4:0.46723832 5:-0.42800942 6:0.01706272 7:-0.50344365 8:0.44246264 9:-0.096332136 10:0.39192287 11:-0.17437002 12:0.18633177 13:0.27647745 16:0.61744699 17:0.035927054 18:-0.024761585 19:0.12264915 20:0.43370078 21:-0.14486351 22:0.18880628 23:-0.10115161 24:0.23047891 25:0.25683425 26:0.038518596 27:0.075620915 28:0.43307233 29:0.05165545 30:0.3846668 31:0.19702475 32:0.070098234 33:0.15447542 34:0.64037648 35:-0.34028387 36:-0.27881077 37:-0.24166424 38:-0.67309942 39:-0.38232691 
2.267950237794927 1:0.24863045 2:-0.45776754 3:0.22800164 4:0.6540874 5:-0.25972119 6:0.14251071 7:-0.387297 8:0.31412654 9:-0.18438585 10:0.32065558 11:-0.24818142 12:0.14399627 13:0.063910013 16:-0.153588 17:-0.089328761 18:-0.055517186 19:0.24208776 20:-0.033777876 21:0.12580998 22:0.0002044897 23:-0.10870773 24:0.023012649 25:0.31277056 26:0.11185485 27:0.11410075 28:0.34861842 29:0.12234412 30:0.24537488 31:0.30703687 32:0.29956485 33:0.14476938 34:0.12008374 35:0.046993839 36:-0.058234852 37:-0.41003695 38:-0.6228708 39:0.053712601 
3.531417951398345 1:0.27851375 2:-0.42612159 3:0.24844329 4:0.65297123 5:-0.19892579 6:-0.06018988 7:-0.41023746 8:0.34969797 9:-0.14755194 10:0.479671 11:-0.051812262 12:0.14262177 13:0.011138085 16:-0.35937947 17:0.19457385 18:-0.038475239 19:-0.032907708 20:-0.35746271 21:0.3036337 22:0.050021968 23:-0.089426858 24:0.31842719 25:0.45732636 26:0.024750949 27:-0.024503885 28:0.53324388 29:0.10483159 30:0.21895949 31:-0.058868897 32:0.43946858 33:0.065445541 34:0.16465756 35:0.19989758 36:-0.0054205606 37:-0.25389189 38:-0.51734332 39:-0.31924801 
0.7142345431022187 1:0.2931455 2:-0.65785204 3:-0.03312433 4:0.51000106 5:-0.38661637 6:-0.066322349 7:-0.52741509 8:0.40590275 9:-0.037942248 10:0.53007963 11:-0.050229153 12:0.0076889672 13:-0.053055633 16:-0.052168812 17:0.039987679 18:-0.052570764 19:0.3646859 20:0.033223103 21:-0.35212125 22:0.26577212 23:-0.32999562 24:0.50157606 25:0.26807592 26:0.03804878 27:0.28503386 28:0.21470734 29:0.19617836 30:0.26027327 31:0.07731832 32:0.26100186 33:0.19819513 34:0.3487802 35:-0.044910068 36:-0.26717503 37:-0.29208826 38:-0.49755119 39:-0.46331656 
0.1466787132370152 1:0.20213134 2:-0.5591188 3:0.036893794 4:0.52290712 5:-0.31695414 6:-0.007039063 7:-0.32740876 8:0.4340364 9:-0.16234985 10:0.43566108 11:-0.076019258 12:0.12944967 13:0.10219679 16:0.18010826 17:0.32825503 18:-0.19950598 19:0.42908855 20:0.091082656 21:0.053639553 22:0.28957078 23:-0.087782147 24:0.22029722 25:0.020609499 26:0.21602312 27:0.49560757 28:-0.18661748 29:0.63343151 30:0.22114198 31:-0.080314424 32:0.35311711 33:0.10520479 34:0.44458732 35:-0.25746588 36:-0.15526428 37:-0.086589994 38:-0.6044885 39:-0.27000753 
6.920982081042603 1:-0.045494436 2:-0.44518628 3:0.15187834 4:0.49224469 5:-0.30487813 6:0.076383221 7:-0.28892564 8:0.34767631 9:-0.10767925 10:0.4643567 11:-0.026573692 12:0.057472345 13:0.091479568 16:-0.32143821 17:0.044623762 18:0.18098893 19:-0.17585963 20:0.22749773 21:-0.15623944 22:0.078299923 23:0.19034605 24:0.036063824 25:0.17020391 26:-0.046666113 27:0.22581032 28:0.1065958 29:0.26522482 30:0.52159719 31:-0.089270747 32:0.37120738 33:-0.072095734 34:0.5236666 35:-0.23220198 36:-0.10860109 37:-0.14065332 38:-0.61835027 39:0.079466368 
1.072042869462399 1:0.20360793 2:-0.63552472 3:-0.061061529 4:0.46303793 5:-0.38468581 6:-0.0609447 7:-0.42966077 8:0.29958104 9:-0.3065857 10:0.27594408 11:-0.18718753 12:-0.031788376 13:-0.039341383 14:-1 16:-0.4015274 17:-0.0034659951 18:0.067735632 19:0.12878064 20:-0.18539934 21:0.20649891 22:-0.49162461 23:0.23021091 24:-0.09154907 25:0.37741577 26:0.10023562 27:0.18666139 28:0.28129188 29:0.18766541 30:0.20764722 31:0.31814617 32:0.076926995 33:0.042636028 34:0.48063734 35:-0.12871665 36:-0.3055212 37:-0.20394601 38:-0.49312368 39:-0.3955755 
4.939938786338474 1:0.17108698 2:-0.33234015 3:0.28300471 4:0.59562119 5:-0.21346174 6:0.0066782656 7:-0.36335963 8:0.40703413 9:-0.11502307 10:0.33047316 11:-0.01022227 12:0.066488883 13:0.033900484 16:-0.31858825 17:-0.0012555746 18:-0.079877795 19:0.074612668 20:0.055212374 21:-0.20136285 22:0.032475749 23:0.17821716 24:-0.065491968 25:0.26745044 26:0.12971144 27:0.36674417 28:0.0023142188 29:0.18047998 30:0.20906765 31:-0.098660424 32:0.34914915 33:0.16879487 34:0.34723835 35:-0.10854625 36:-0.23296592 37:-0.084950567 38:-0.42209259 39:-0.37809472 
8.108145383187894 1:0.1055812 2:-0.45397434 3:0.19274084 4:0.62693198 5:-0.15041386 6:0.015194604 7:-0.36816669 8:0.42956043 9:-0.11389263 10:0.29976339 11:0.01187381 12:0.032932149 13:0.0046836324 16:-0.31289164 17:-0.015476791 18:-0.028561969 19:-0.096159491 20:0.24973127 21:-0.27279717 22:0.22832634 23:0.18701459 24:0.064992442 25:0.25354844 26:-0.0030808731 27:0.53587789 28:0.030250354 29:0.14245102 30:0.15757826 31:0.092298769 32:0.19730033 33:0.30463142 34:0.35481459 35:-0.10705483 36:-0.35259617 37:0.016571969 38:-0.38673266 39:-0.36848288 
2.701126385739913 1:0.082540685 2:-0.40291578 3:0.27811558 4:0.64158274 5:-0.26001088 6:0.02381204 7:-0.35515459 8:0.35685601 9:-0.16426982 10:0.47712729 11:-0.010529977 12:0.083427693 13:-0.01128451 16:-0.44256963 17:0.02401031 18:-0.04649818 19:0.011741631 20:-0.031408646 21:0.13497597 22:-0.15599376 23:0.29106285 24:0.11969609 25:0.00091052288 26:0.22299004 27:0.058133958 28:0.29303217 29:0.26231326 30:0.34732089 31:-0.26702764 32:0.32013454 33:0.14770767 34:0.25249178 35:0.10583812 36:-0.23828916 37:-0.1089902 38:-0.61472777 39:-0.16810856 
1.412844083640483 1:0.10723572 2:-0.71173223 3:-0.12366272 4:0.48871358 5:-0.30390658 6:-0.1257782 7:-0.54820796 8:0.40786281 9:-0.078647647 10:0.21317522 11:-0.22167928 12:0.022865662 13:-0.091879592 16:-0.11592321 17:-0.18697131 18:-0.064738086 19:0.67162699 20:0.48302841 21:-0.11370913 22:-0.38338395 23:0.32382714 24:0.15243025 25:0.4745726 26:0.2926358 27:0.15441076 28:0.36006551 29:-0.039411035 30:0.22440767 31:0.080873221 32:0.31335804 33:0.38127115 34:0.10006592 35:-0.051779685 36:-0.24538739 37:-0.3391612 38:-0.26503498 39:-0.59737957 
5.313711728390813 1:0.090333697 2:-0.40024481 3:0.27056569 4:0.63883091 5:-0.29923894 6:0.010734339 7:-0.32192871 8:0.40385884 9:-0.14717989 10:0.51368547 11:-0.040649697 12:-0.016333877 13:-0.057363622 16:-0.33892144 17:-0.096201446 18:0.21127285 19:-0.13829071 20:0.12342968 21:0.010364805 22:-0.37581446 23:0.36313648 24:-0.05695966 25:0.2390759 26:0.066875328 27:0.079307308 28:0.55591727 29:0.10898115 30:0.30101662 31:-0.1795993 32:0.35180391 33:0.23096434 34:0.26966393 35:-0.15722111 36:-0.19707642 37:-0.057452584 38:-0.62175311 39:-0.26887085 
2.471566167057616 1:0.019158723 2:-0.36304384 3:0.28811887 4:0.60626385 5:-0.3204258 6:0.048546085 7:-0.32354297 8:0.38663248 9:-0.14408393 10:0.50032827 11:-0.020910299 12:-0.001616555 13:-0.070429849 16:-0.31816033 17:-0.099006603 18:0.19825652 19:-0.14738279 20:0.10219099 21:0.0013530632 22:-0.37706149 23:0.33926082 24:-0.056425082 25:0.17469953 26:0.12330518 27:0.01125055 28:0.51966736 29:0.15134389 30:0.27236831 31:-0.043387007 32:0.30260026 33:0.18877739 34:0.31804555 35:-0.1673057 36:-0.16045327 37:-0.18501941 38:-0.62631277 39:-0.12880207 
0.09349491703018931 1:0.10232543 2:-0.57067783 3:-0.070270696 4:0.41825724 5:-0.43549054 6:-0.12574011 7:-0.49016567 8:0.30688602 9:-0.11082798 10:0.45576139 11:-0.018606573 12:-0.075254728 13:-0.071374039 16:0.31233416 17:0.13105469 18:0.14971875 19:0.34070285 20:0.071747729 21:-0.068379377 22:-0.24860635 23:0.22305158 24:0.015358555 25:0.2946971 26:-0.26556183 27:0.70295413 28:0.011429812 29:0.27410775 30:0.22853184 31:0.33871513 32:-0.11568103 33:0.15499223 34:0.58703813 35:-0.36711384 36:-0.35077684 37:0.0097025543 38:-0.55516759 39:-0.33065428 
2.162813589368736 1:0.07795543 2:-0.71214945 3:-0.21549648 4:0.31308129 5:-0.43677392 6:-0.077982102 7:-0.41111464 8:0.56100303 9:0.07345569 10:0.54362107 11:0.10288916 12:0.12401445 13:0.14581701 16:0.41289976 17:-0.042689768 18:0.53018048 19:0.0046752906 20:0.3101445 21:-0.30018167 22:0.4260865 23:-0.17271395 24:0.10432884 25:0.32091755 26:0.32183988 27:0.1359163 28:0.24589513 29:0.080893626 30:0.3568271 31:-0.032920157 32:0.25441038 33:0.27610929 34:0.31270276 35:0.084537303 36:-0.37849533 37:-0.11215544 38:-0.44973999 39:-0.41905917 
3.853106917868829 1:0.054383301 2:-0.47364291 3:0.18716128 4:0.59390685 5:-0.2792238 6:0.094414055 7:-0.33881519 8:0.43461559 9:-0.18716509 10:0.33969364 11:-0.0052449386 12:0.093392023 13:0.066449799 16:-0.18154053 17:-0.040689365 18:-0.11231534 19:0.48554153 20:-0.038985576 21:0.088729696 22:0.15298505 23:0.0097497239 24:0.30473699 25:0.11857509 26:0.055125617 27:0.25485889 28:0.21533083 29:0.43351792 30:0.25512801 31:-0.1074232 32:0.2202598 33:0.32035079 34:0.25953766 35:0.16113294 36:-0.38140841 37:-0.11095709 38:-0.53447563 39:-0.36467173 
2.032734717945561 1:-0.19518883 2:-0.54029386 3:0.11196843 4:0.49978251 5:-0.38417055 6:0.075899831 7:-0.34866268 8:0.46230257 9:-0.090496544 10:0.36992451 11:-0.14531753 12:0.12411028 13:0.16891103 16:-0.30825706 17:0.15351981 18:0.24438544 19:-0.28012749 20:0.093359905 21:-0.034648707 22:0.28798648 23:-0.12061114 24:0.051383555 25:0.18017486 26:0.18948407 27:0.23090356 28:0.21019177 29:-0.0327577 30:0.67794468 31:0.10075378 32:-0.3097759 33:0.6231768 34:0.086226114 35:0.5948684 36:-0.46518256 37:-0.0039914833 38:-0.63363204 39:-0.1736703 
4.849452101543626 1:-0.029541368 2:-0.59765869 3:-0.020082647 4:0.48459773 5:-0.27793545 6:-0.0071299238 7:-0.34974185 8:0.48097352 9:-0.085236202 10:0.40148546 11:0.070127503 12:0.069722286 13:0.022225874 16:-0.55273391 17:0.42484948 18:0.16475257 19:0.34634426 20:0.32847283 21:-0.1663201 22:0.20959323 23:0.086473648 24:0.34766811 25:0.078867489 26:0.21151482 27:0.24856654 28:0.19841283 29:0.39864495 30:0.16503491 31:-0.094516921 32:0.18742812 33:0.43038177 34:0.23137933 35:0.12221977 36:-0.42555934 37:0.0088949464 38:-0.4687729 39:-0.33622421 
20.96544114090263 1:-0.051559793 2:-0.4441472 3:0.14024316 4:0.53972695 5:-0.24481178 6:0.029839579 7:-0.32283618 8:0.38009987 9:-0.10283469 10:0.41047231 11:-0.065357976 12:0.022224098 13:0.097434754 16:-0.42823144 17:0.092806601 18:-0.099471369 19:0.21740541 20:-0.13602115 21:0.19343831 22:-0.060543046 23:0.16273608 24:-0.030828587 25:0.2048878 26:0.13672616 27:0.030504331 28:0.55239219 29:-0.017368427 30:0.43095712 31:-0.10062214 32:0.24627839 33:0.19583718 34:0.46892681 35:-0.24497077 36:-0.19695887 37:-0.14272996 38:-0.45206779 39:-0.24883787 
0.7428543757639226 1:-0.096197433 2:-0.44457962 3:0.12522462 4:0.50280196 5:-0.17579302 6:0.16822877 7:-0.36278329 8:0.27537191 9:-0.17486403 10:0.33760543 11:0.12771902 12:0.065683973 13:0.095426966 16:-0.28265741 17:0.12699962 18:0.086401292 19:-0.16753799 20:-0.29082857 21:0.082477887 22:0.33346931 23:0.20873473 24:0.10678096 25:0.088131751 26:-0.11982774 27:0.11193539 28:0.3096683 29:0.11885651 30:0.25409036 31:-0.06121368 32:0.35436738 33:0.29828542 34:0.37721418 35:-0.19217392 36:-0.29634626 37:-0.23713821 38:-0.39347233 39:-0.14850084 
0.1805611882620706 1:-0.019796475 2:-0.50356387 3:0.090823331 4:0.53494143 5:-0.24204245 6:0.012999571 7:-0.34587434 8:0.39939646 9:-0.15299329 10:0.35056728 11:0.075664434 12:0.14431422 13:0.030752132 14:1 16:-0.56791692 17:0.26138349 18:-0.11629376 19:0.1738558 20:-0.1372132 21:0.32449278 22:-0.35188024 23:0.54575228 24:-0.015124815 25:0.033111118 26:0.12207832 27:0.051362788 28:0.42291426 29:0.26529576 30:0.050770463 31:-0.14623349 32:0.49741669 33:0.24322408 34:0.20897189 35:-0.30798401 36:-0.08724824 37:-0.28736759 38:-0.43581159 39:-0.30740674 
0.5595959577561185 1:-0.31131207 2:-0.53073277 3:-0.01905011 4:0.36184417 5:-0.35774279 6:-0.043591998 7:-0.47809903 8:0.30695602 9:-0.13591276 10:0.32782886 11:0.11377549 12:0.12200468 13:0.09015265 16:-0.72875174 17:0.66713382 18:-0.042662211 19:-0.026271191 20:0.24807229 21:0.13757314 22:-0.16853712 23:0.19471084 24:0.089667554 25:0.20457472 26:0.1554698 27:0.13041176 28:0.1743261 29:0.031473498 30:0.28622978 31:-0.049630837 32:0.57314115 33:0.34050603 34:0.14562364 35:-0.25101918 36:-0.19452772 37:-0.29201662 38:-0.36967522 39:-0.16421927 
1.738719647894263 1:-0.14456767 2:-0.51166027 3:0.098258243 4:0.55247183 5:-0.22710885 6:0.10673333 7:-0.27711256 8:0.41378667 9:-0.13733831 10:0.31884157 11:-0.11651214 12:0.12629434 13:0.068815103 16:-0.28541604 17:-0.036209265 18:0.12278323 19:-0.22942625 20:0.19076646 21:0.05855479 22:0.2069918 23:0.21473065 24:-0.21772841 25:0.33318142 26:0.083758128 27:0.28810309 28:0.11661551 29:0.1822531 30:0.19625034 31:0.31300094 32:-0.034381549 33:0.55081209 34:0.15107279 35:-0.080412205 36:-0.3683405 37:-0.16342442 38:-0.4156966 39:-0.30958423 
0.5011679723899071 1:-0.33866628 2:-0.61107736 3:-0.12132926 4:0.33791303 5:-0.43942745 6:-0.12434901 7:-0.28087666 8:0.40854958 9:-0.055100001 10:0.42763908 11:-0.27037812 12:0.12493285 13:0.0032008037 16:0.89875645 17:-0.15014829 18:0.47605154 19:0.17828867 20:0.02484812 21:0.097278801 22:0.019888046 23:-0.099675474 24:0.0066010204 25:0.46038784 26:-0.26330429 27:0.48567488 28:0.29189343 29:-0.098578421 30:0.292378 31:0.40190477 32:-0.080369342 33:0.25233467 34:0.029743329 35:-0.0034801259 36:-0.042859499 37:-0.21828164 38:-0.50445568 39:-0.22763741 
1.332042902095538 1:-0.035410097 2:-0.68847098 3:-0.29388686 4:0.21795242 5:-0.38792561 6:-0.14363649 7:-0.51668829 8:0.26075711 9:-0.12662239 10:0.45495153 11:0.28503167 12:0.27394791 13:0.27354449 16:-0.3824717 17:0.18937559 18:0.13137324 19:-0.12283801 20:0.070383995 21:-0.43644272 22:0.35354574 23:0.41118434 24:-0.13878467 25:0.11325679 26:0.11631893 27:0.086149578 28:0.3174544 29:0.055362579 30:0.32838048 31:-0.034515007 32:0.16552796 33:0.23581013 34:0.42473914 35:-0.1359032 36:-0.37251991 37:-0.13066272 38:-0.33156004 39:-0.30030414 
3.761026112313772 1:-0.031814014 2:-0.49569622 3:0.049108568 4:0.51189711 5:-0.11736623 6:0.11351447 7:-0.27657872 8:0.34848483 9:-0.10473777 10:0.38318482 11:-0.082957892 12:-0.094305094 13:-0.018918261 16:-0.27417833 17:-0.20140472 18:0.39074638 19:0.61034011 20:-0.17288748 21:0.26440288 22:-0.02784486 23:0.10501232 24:0.19564458 25:0.13322491 26:0.14324633 27:0.056773456 28:0.24255741 29:0.17296498 30:0.25915526 31:-0.32905367 32:0.65201956 33:-0.12878601 34:0.55697008 35:-0.29490517 36:-0.014023328 37:-0.12862895 38:-0.45010587 39:-0.22925959 
1.713343526355543 1:-0.13214119 2:-0.46077689 3:0.24699404 4:0.69636749 5:-0.20072282 6:0.019174294 7:-0.38839145 8:0.3715493 9:-0.25014799 10:0.39758995 11:0.1468647 12:0.21499804 13:0.14395061 16:-0.4080818 17:-0.071344255 18:0.4686126 19:-0.13282639 20:-0.5932106 21:0.57011907 22:0.012305813 23:-0.00049185553 24:-0.083552505 25:0.27892241 26:0.21726687 27:0.43016465 28:0.12307806 29:0.45197597 30:0.19037018 31:-0.42292031 32:0.35527018 33:-0.0073336862 34:0.4968663 35:0.036255348 36:-0.39694422 37:-0.029744882 38:-0.55604636 39:-0.40741288 
2.090940360912999 1:-0.0044424645 2:-0.42627923 3:0.24695306 4:0.71652384 5:-0.3301025 6:0.13906603 7:-0.41748077 8:0.35047146 9:-0.14344404 10:0.42294389 11:-0.042867759 12:0.11191999 13:0.040117186 16:-0.24463851 17:0.047619337 18:-0.19626855 19:-0.0071391941 20:0.25623462 21:-0.18960193 22:0.015129174 23:0.093642661 24:0.15275202 25:0.13890324 26:0.088010199 27:0.18573063 28:0.33878745 29:0.10760127 30:0.34540452 31:0.17060663 32:0.28358969 33:0.19706481 34:0.34130324 35:-0.37639491 36:-0.21990854 37:-0.29744587 38:-0.5807615 39:-0.42721543 
1.529885759232644 1:-0.010831308 2:-0.46350743 3:0.21914706 4:0.67933853 5:-0.17698884 6:0.059349277 7:-0.36522015 8:0.27439443 9:-0.25731882 10:0.37286656 11:-0.027310112 12:0.17789578 13:0.024924648 16:-0.37149936 17:0.34022401 18:-0.22413808 19:-0.5852258 20:0.11857678 21:-0.1648035 22:0.32130011 23:0.17000972 24:-0.034403617 25:0.20431684 26:0.010230836 27:0.26331404 28:0.37034299 29:0.24970534 30:0.018084085 31:0.23036595 32:0.31241089 33:0.012722131 34:0.30944003 35:0.04299037 36:-0.062341167 37:-0.29663862 38:-0.48760004 39:-0.30879145 
0.007827850893433524 1:-0.25240704 2:-0.49511069 3:0.090718398 4:0.46802632 5:-0.27370674 6:0.05901395 7:-0.27024067 8:0.39501324 9:-0.11867895 10:0.5184806 11:0.20589272 12:0.11478516 13:0.017631487 15:1 16:-0.23068291 17:0.07157864 18:0.051724107 19:0.16421059 20:-0.37937614 21:0.14117588 22:0.33166385 23:0.039971123 24:0.024926032 25:0.25486595 26:-0.08773638 27:0.085805517 28:0.5838835 29:0.11040687 30:0.073178794 31:0.29111993 32:-0.031389329 33:0.2223326 34:0.3109071 35:0.30954821 36:-0.32559557 37:-0.23066548 38:-0.45071174 39:-0.1021954 
3.587971704706659 1:-0.10756792 2:-0.52720387 3:0.16847773 4:0.70401543 5:-0.17240783 6:-0.025627582 7:-0.40063898 8:0.28912429 9:-0.25084271 10:0.38155238 11:0.039238931 12:0.26731715 13:0.00147297 16:-0.38486264 17:0.47744759 18:-0.19418266 19:-0.33715286 20:0.18036549 21:-0.10194317 22:0.21857463 23:0.27296492 24:-0.060444533 25:0.10446773 26:0.17469638 27:0.28508274 28:0.39316736 29:0.17641493 30:0.034839549 31:0.22893212 32:0.35343523 33:-0.047930553 34:0.39771024 35:-0.10328375 36:0.0083974143 37:-0.28250196 38:-0.4533574 39:-0.48582963 
1.098723228402635 1:-0.041064235 2:-0.71753683 3:-0.14663275 4:0.46386313 5:-0.35929401 6:-0.15478486 7:-0.47235201 8:0.37711438 9:-0.1448029 10:0.34174296 11:-0.15046307 12:0.13578213 13:0.15814905 16:0.030153955 17:0.47334923 18:-0.5693938 19:0.91252948 20:-0.52060065 21:0.39258022 22:-0.23898457 23:0.36056853 24:0.03192303 25:0.35543766 26:0.019993412 27:0.34898584 28:0.2030723 29:0.26651778 30:0.18515429 31:-0.048424206 32:0.53802668 33:0.11326826 34:0.20178945 35:-0.041127886 36:-0.10689303 37:-0.17901656 38:-0.4783504 39:-0.52891824 
0.6708220798642108 1:0.029437888 2:-0.66000155 3:-0.072621859 4:0.49814617 5:-0.36073017 6:-0.13708626 7:-0.4763313 8:0.38313489 9:-0.10660234 10:0.45045504 11:-0.043222916 12:0.2439114 13:0.040309394 14:-1 15:-1 16:-0.030352019 17:0.064029724 18:0.76998747 19:-0.090924707 20:0.029708327 21:0.05982221 22:0.17920115 23:0.13233584 24:-0.10384093 25:0.48466276 26:0.099782849 27:0.42215467 28:0.20796348 29:0.10279107 30:0.32758703 31:-0.067824576 32:0.15053128 33:0.37099384 34:0.055555307 35:0.072353263 36:-0.17746423 37:-0.20632162 38:-0.49338801 39:-0.54267751 
4.914634079445083 1:-0.019795508 2:-0.49334129 3:0.15754026 4:0.62832586 5:-0.21041895 6:-0.022651358 7:-0.34411521 8:0.44962228 9:-0.070142023 10:0.47454828 11:-0.07517523 12:0.0018047551 13:0.03077701 16:-0.46116981 17:0.16916388 18:0.11447445 19:0.41583191 20:-0.47843737 21:0.445649 22:-0.26186344 23:0.088281668 24:0.3736116 25:0.10623334 26:-0.052870299 27:0.4957904 28:0.16686308 29:0.027279286 30:0.31655411 31:-0.21359995 32:0.32307299 33:0.05017917 34:0.43385701 35:-0.084400039 36:-0.19118402 37:0.006949213 38:-0.54962628 39:-0.4009735 
6.856023494639396 1:-0.29380294 2:-0.62490399 3:0.037140435 4:0.62009504 5:-0.25899781 6:-0.048348334 7:-0.36899341 8:0.38256853 9:-0.18247937 10:0.44512118 11:-0.087432667 12:0.10924608 13:-0.053224005 16:-0.29636379 17:-0.074354032 18:0.32202576 19:0.31855625 20:-0.012432363 21:-0.10464368 22:0.096278134 23:0.43550755 24:-0.21336467 25:0.41016425 26:0.12643185 27:0.41965425 28:0.28355885 29:0.14202403 30:0.30482331 31:-0.15797386 32:0.065051958 33:0.36598026 34:0.2742425 35:0.087437204 36:-0.32663031 37:-0.014819392 38:-0.58483772 39:-0.47144706 
0.02722175406035159 1:-0.1104201 2:-0.56437063 3:0.072358785 4:0.58995531 5:-0.19915181 6:0.065733729 7:-0.34538086 8:0.51135724 9:-0.03655903 10:0.39307774 11:0.00074597419 12:0.03483064 13:0.048329031 15:-1 16:-0.56202478 17:0.29537389 18:0.053048546 19:0.54588925 20:-0.71050553 21:0.74297897 22:-0.3131236 23:0.12947918 24:0.53688417 25:0.011646293 26:-0.023422858 27:0.54738446 28:0.21282192 29:-0.14387058 30:0.31213125 31:-0.062397762 32:0.32256495 33:0.19728387 34:0.38955858 35:-0.083713268 36:-0.31117895 37:-0.12378879 38:-0.42636351 39:-0.44167146 
0.2761833208476965 1:-0.039671656 2:-0.71900279 3:-0.2487291 4:0.34513368 5:-0.33841596 6:-0.19400617 7:-0.59710588 8:0.15479359 9:-0.3219454 10:0.28200982 11:0.097642952 12:0.13627595 13:0.067770687 16:0.75452676 17:0.82607317 18:-0.38034636 19:0.23176239 20:-0.49045045 21:0.58475229 22:0.017842306 23:0.26406099 24:0.27871449 25:0.27269016 26:-0.093730995 27:0.34189338 28:0.47025567 29:-0.056202525 30:0.33818925 31:-0.18359285 32:0.24651135 33:0.18413062 34:0.37380319 35:-0.016913998 36:-0.35715491 37:-0.087530199 38:-0.39013551 39:-0.45770087 
0.2944792616279515 1:-0.37495253 2:-0.69998561 3:-0.14917179 4:0.38163107 5:-0.46114464 6:-0.020672404 7:-0.34607873 8:0.46107496 9:-0.021018189 10:0.54667369 11:-0.20332664 12:-0.079289934 13:-0.11254195 16:-0.32710645 17:0.14592623 18:0.0081714837 19:0.90110664 20:0.41569417 21:0.045385598 22:-0.4223877 23:0.092746988 24:0.23386877 25:0.25616331 26:0.039206147 27:0.23027204 28:0.34630649 29:0.27030542 30:0.43284955 31:-0.066570803 32:0.23689786 33:0.28808836 34:0.09614198 35:-0.075288324 36:-0.13810839 37:-0.23187326 38:-0.6322903 39:-0.25812527 
12.03266085410486 1:-0.18972141 2:-0.52856863 3:0.13532229 4:0.57923743 5:-0.32464947 6:-0.0067814795 7:-0.40439009 8:0.40532662 9:-0.12936585 10:0.47256633 11:-0.060978609 12:-0.060141178 13:0.20277925 16:-0.53705269 17:0.34226981 18:-0.30407075 19:0.043192746 20:0.10375441 21:0.27612598 22:0.053004909 23:-0.094522401 24:0.15110336 25:0.38776378 26:0.14937404 27:-0.10574865 28:0.44587642 29:0.40449798 30:0.2425685 31:-0.14234969 32:0.27110946 33:0.19868503 34:0.53948913 35:-0.2080743 36:-0.40854239 37:0.03383893 38:-0.6230153 39:-0.30107885 
3.934217875543399 1:-0.04764958 2:-0.62319886 3:-0.0023934938 4:0.59664248 5:-0.17917795 6:-0.0040579951 7:-0.30992901 8:0.45403891 9:-0.064479505 10:0.40245063 11:-0.10688842 12:0.14053406 13:0.078733406 16:-0.2302977 17:0.015365427 18:0.23908107 19:-0.32111745 20:0.42907853 21:0.14083548 22:-0.14226332 23:-0.055635244 24:0.070980352 25:0.4271004 26:0.10046231 27:0.36186946 28:0.16640696 29:0.36179073 30:0.25092517 31:-0.12247518 32:0.43925893 33:-0.0030837625 34:0.29355465 35:-0.030534871 36:-0.050163841 37:-0.18001233 38:-0.44204617 39:-0.48486636 
2.023247246902855 1:-0.3691159 2:-0.5925379 3:0.028217627 4:0.61224895 5:-0.13615567 6:-0.04579544 7:-0.35855714 8:0.43779475 9:-0.052692915 10:0.32173528 11:-0.19705442 12:0.016842152 13:-0.016211967 16:-0.039276122 17:-0.16452392 18:0.3609404 19:-0.53793702 20:0.44786243 21:0.18230136 22:-0.27065988 23:-0.039721746 24:0.097344984 25:0.44402595 26:0.18710998 27:0.2528033 28:0.16891285 29:0.30411548 30:0.26074471 31:-0.14098684 32:0.36989661 33:-0.001832377 34:0.34501831 35:-0.060498734 36:-0.098822162 37:-0.15088521 38:-0.35330779 39:-0.4944986 
9.222949793481318 1:-0.018790007 2:-0.50808883 3:0.15235801 4:0.63542223 5:-0.17236909 6:0.010850256 7:-0.34491977 8:0.48058805 9:-0.086204755 10:0.2895813 11:-0.022358221 12:0.11606108 13:0.12854167 16:-0.39274477 17:0.34149671 18:-0.30268068 19:0.15868598 20:-0.11694124 21:0.3743992 22:0.068713924 23:-0.046447751 24:0.14133382 25:0.23595568 26:0.15396593 27:0.18874805 28:0.44880797 29:-0.031882431 30:0.20705604 31:0.0068065445 32:0.26988669 33:0.35129592 34:0.26771024 35:-0.068955218 36:-0.33872523 37:-0.14668229 38:-0.34515343 39:-0.31904693 
0.583131410521044 1:-0.32422141 2:-0.53188278 3:0.13194264 4:0.6160393 5:-0.17714767 6:0.054360676 7:-0.37660559 8:0.48548801 9:-0.069332254 10:0.22955482 11:-0.0087586572 12:0.21103886 13:0.18315728 16:-0.43219362 17:0.50457795 18:-0.2638983 19:-0.044278822 20:0.19035901 21:-0.027827443 22:0.24107284 23:0.0096458823 24:0.12136243 25:0.17221461 26:0.12902844 27:0.138763 28:0.48214093 29:-0.16318554 30:0.24007305 31:-0.079976316 32:0.63786369 33:0.25800348 34:0.23047672 35:-0.17956169 36:-0.20704753 37:-0.38318135 38:-0.25267399 39:-0.37863522 
0.2035496427169183 1:-0.12174994 2:-0.55670804 3:0.062749797 4:0.59305066 5:-0.15872204 6:0.23034104 7:-0.15112973 8:0.67857059 9:0.079629294 10:0.38746734 11:0.11033486 12:0.28013574 13:0.2500089 16:-0.7163362 17:0.19955223 18:0.091498029 19:-0.31813321 20:0.48484472 21:-0.050836034 22:0.03287196 23:-0.19844613 24:0.40495762 25:-0.095001409 26:0.20284003 27:0.41003911 28:0.16905424 29:0.2470538 30:0.020119089 31:-0.0049127359 32:0.34319188 33:0.1405346 34:0.4177702 35:-0.13003484 36:-0.28907561 37:-0.4465292 38:-0.29959798 39:-0.15420907 
0.2027207761570224 1:-0.0056005403 2:-0.42607036 3:0.30147848 4:0.70199582 5:-0.22468438 6:0.077700108 7:-0.32867484 8:0.52218233 9:-0.050460579 10:0.45107556 11:0.11542487 12:0.13217892 13:0.18633834 16:-0.13781789 17:-0.052942516 18:0.094901918 19:0.20836438 20:-0.048866557 21:-0.11586042 22:0.12469103 23:0.12539131 24:-0.05622278 25:0.28449089 26:0.11943287 27:0.3405774 28:0.32544144 29:0.26821051 30:0.16650576 31:0.060429396 32:0.24753691 33:0.40299519 34:0.29749262 35:-0.094374365 36:-0.36678791 37:-0.16853189 38:-0.48138807 39:-0.16859432 
0.8930643696215201 1:-0.2878562 2:-0.54275948 3:0.0015424386 4:0.47160329 5:-0.28832362 6:0.040775729 7:-0.32832261 8:0.48210033 9:0.060496292 10:0.53865025 11:0.070215841 12:0.23710592 13:0.24073803 14:-1 16:0.25633354 17:0.0010327218 18:0.055966779 19:0.44450211 20:-0.080980227 21:-0.063837571 22:-0.083012687 23:0.20707662 24:0.2188231 25:0.251698 26:0.12073508 27:-0.039107934 28:0.44824739 29:-0.15430492 30:0.44049587 31:-0.10254435 32:0.45016015 33:0.11635684 34:0.34293846 35:-0.15755319 36:-0.11449829 37:-0.28885692 38:-0.39945181 39:-0.29606487 
5.412606248190383 1:-0.11326878 2:-0.43107732 3:0.29997381 4:0.72532772 5:-0.24671318 6:0.0031141875 7:-0.38405448 8:0.46753971 9:-0.054179243 10:0.5273101 11:0.041335675 12:0.16879387 13:0.12949232 16:-0.44783965 17:0.10422113 18:0.0029806235 19:-0.0021353858 20:0.01718713 21:-0.052949127 22:-0.074481446 23:0.20675117 24:-0.061344928 25:0.26967151 26:0.13994192 27:0.15427583 28:0.42556023 29:0.077368832 30:0.28825101 31:-0.26863877 32:0.36920493 33:0.12403656 34:0.45055676 35:-0.25583616 36:-0.11045369 37:-0.21669794 38:-0.5490319 39:-0.22898746 
12.70494515093448 1:-0.058165302 2:-0.40007302 3:0.25422967 4:0.6126119 5:-0.25237913 6:0.051444434 7:-0.29018915 8:0.42330392 9:-0.071938763 10:0.45597624 11:-0.063925858 12:0.090749855 13:0.18098903 16:-0.47368586 17:0.12001926 18:0.014761651 19:-0.23302902 20:-0.16941375 21:0.25729545 22:-0.28676273 23:0.31555483 24:0.038394193 25:0.18995593 26:0.022088758 27:0.019015342 28:0.40765239 29:0.13829238 30:0.39324598 31:0.077278701 32:-0.081067342 33:0.30536874 34:0.27734654 35:0.11912612 36:-0.32872254 37:-0.042962142 38:-0.57640479 39:-0.14552573 
0.2465769554442561 1:-0.12594487 2:-0.49449615 3:0.14216201 4:0.60664684 5:-0.17256153 6:0.054496657 7:-0.39711361 8:0.3425411 9:-0.05656964 10:0.49087792 11:-0.031974925 12:0.0023421268 13:0.09509505 16:-0.014673375 17:-0.035532526 18:0.092130772 19:0.078272493 20:0.12786398 21:0.039181406 22:-0.079827223 23:0.39814453 24:0.091405352 25:0.44362325 26:-0.13608385 27:0.26225497 28:0.22781126 29:0.2859557 30:0.35092655 31:0.0059482758 32:-0.059439738 33:0.30662005 34:0.28575499 35:0.088760828 36:-0.33213144 37:-0.036292768 38:-0.51341236 39:-0.18811538 
0.0514858793191767 1:-0.02300198 2:-0.59746135 3:-0.020380123 4:0.52986044 5:-0.1557408 6:0.088998699 7:-0.25297129 8:0.62091748 9:0.23495563 10:0.72416933 11:0.31485599 12:0.32466523 13:0.29552483 16:-0.93241414 17:0.45285775 18:0.29999065 19:0.75000851 20:-0.36607776 21:-0.18740654 22:0.16075167 23:-0.014030617 24:0.17737444 25:0.48694884 26:0.077426675 27:0.40590287 28:-0.026094149 29:0.2006894 30:0.30112323 31:-0.040972872 32:0.31935844 33:0.23508933 34:0.23216578 35:-0.052910036 36:-0.22704778 37:-0.11574436 38:-0.35993438 39:-0.35241546 
4.980016910086768 1:-0.030834999 2:-0.44686581 3:0.21024801 4:0.65527101 5:-0.19708292 6:-0.065157519 7:-0.33526164 8:0.40237156 9:-0.099195138 10:0.40881658 11:0.062080852 12:0.28080922 13:0.02748424 16:-0.30069653 17:0.044781784 18:0.18506747 19:-0.17703336 20:-0.10394723 21:0.48694947 22:-0.2684802 23:0.16244986 24:-0.1590093 25:0.50614738 26:-0.23424931 27:0.2000533 28:0.58698838 29:-0.11932006 30:0.2768574 31:0.093971126 32:0.21957051 33:0.061493168 34:0.33068473 35:-0.050099211 36:-0.047532228 37:-0.25933097 38:-0.3491564 39:-0.47498141 
4.245079332197401 1:-0.33261115 2:-0.54605356 3:0.094321397 4:0.62191657 5:-0.14392611 6:0.020771668 7:-0.34635958 8:0.49525804 9:0.056792461 10:0.48581437 11:0.098448301 12:0.24331921 13:0.12482398 16:-0.33759285 17:0.064556328 18:0.067052321 19:0.41714986 20:-0.17103035 21:-0.27176577 22:0.12757712 23:0.13203636 24:0.23854742 25:0.33024948 26:0.071512449 27:0.4591869 28:0.09994638 29:0.12727695 30:0.40683691 31:-0.11212644 32:0.40641382 33:0.10239383 34:0.26769967 35:-0.03441997 36:-0.1393596 37:-0.22350509 38:-0.3178966 39:-0.37886798 
4.826337515507672 1:-0.32023002 2:-0.53506764 3:0.13369065 4:0.64816576 5:-0.20405789 6:-0.0092038282 7:-0.18294141 8:0.47913011 9:-0.15429974 10:0.48159818 11:0.13201847 12:0.17547107 13:-0.19084754 16:-0.10176156 17:-0.27030421 18:0.25158178 19:0.21496698 20:-0.20808894 21:0.19647071 22:0.14402882 23:0.22134361 24:0.11712143 25:-0.033082272 26:0.26222648 27:0.3010946 28:0.40997285 29:0.28061871 30:0.078185276 31:-0.074511845 32:0.30859691 33:0.18664016 34:0.093428713 35:0.035055495 36:-0.042622486 37:-0.13468613 38:-0.51992181 39:-0.27022065 
2.255877908982922 1:-0.042988729 2:-0.33778012 3:0.29366579 4:0.61026183 5:-0.27790778 6:0.0077319509 7:-0.36207936 8:0.46958882 9:-0.11373199 10:0.27073855 11:-0.10944967 12:0.10814409 13:0.044289693 16:-0.50290037 17:0.038338217 18:-0.059327536 19:0.12541562 20:-0.15517163 21:0.17955411 22:0.046297813 23:-0.21111041 24:0.14068058 25:0.1995469 26:0.060517124 27:0.48961658 28:0.15682656 29:0.15687495 30:0.11544722 31:0.13479788 32:0.23861476 33:0.32056595 34:0.20711762 35:-0.054577325 36:-0.23663358 37:-0.25966906 38:-0.43524789 39:-0.3464825 
1.055952408941099 1:-0.32884453 2:-0.65313836 3:-0.03632823 4:0.54339311 5:-0.33218 6:-0.13564287 7:-0.53654983 8:0.19254001 9:-0.35770439 10:0.36062764 11:0.07439098 12:0.33662495 13:0.1869555 16:0.84861601 17:0.55939388 18:-0.073618282 19:-0.33684955 20:0.13919181 21:0.038751595 22:0.36248059 23:0.11065603 24:0.10165538 25:0.35639163 26:0.12217246 27:0.29553861 28:0.4004602 29:0.13293912 30:0.20069815 31:0.013539994 32:0.16358926 33:0.31667039 34:0.17873181 35:-0.12271317 36:-0.16757258 37:-0.10703059 38:-0.56420552 39:-0.4906964 
5.282498490277413 1:-0.17175901 2:-0.45412213 3:0.18251973 4:0.60219711 5:-0.23977316 6:0.042897833 7:-0.26910677 8:0.40875698 9:-0.13445756 10:0.33287593 11:-0.26811408 12:-0.015444898 13:0.039610961 16:-0.26964737 17:-0.06818883 18:-0.30894925 19:0.55077826 20:-0.025059351 21:0.016487034 22:0.098701335 23:-0.0088719174 24:-0.049599743 25:0.35293716 26:0.017752733 27:0.10933353 28:0.40466177 29:0.20813697 30:0.16979448 31:0.22550547 32:-0.075666393 33:0.41945127 34:0.075338567 35:-0.11690076 36:-0.19885795 37:-0.13484599 38:-0.52277204 39:-0.249219 
1.085345204970861 1:-0.058432157 2:-0.65536696 3:-0.12611165 4:0.43409791 5:-0.31412973 6:-0.06903139 7:-0.37578999 8:0.33550422 9:-0.19754781 10:0.38062283 11:0.11010365 12:0.33864426 13:0.16330303 16:0.45405635 17:0.18766992 18:0.74544663 19:-0.80532778 20:0.29384518 21:0.12334524 22:0.18772427 23:0.081694446 24:0.080752927 25:0.17140265 26:0.12438375 27:0.28512702 28:0.38380824 29:0.025719774 30:0.20934067 31:0.00086058307 32:0.4594684 33:0.05891916 34:0.31369243 35:-0.14963433 36:-0.035257213 37:-0.22760648 38:-0.43462815 39:-0.42269605 
2.859402765880583 1:-0.072424223 2:-0.33459304 3:0.2690805 4:0.62003122 5:-0.16965613 6:-0.046431067 7:-0.40911398 8:0.40693014 9:-0.083346273 10:0.32355074 11:-0.029463702 12:0.16704446 13:-0.018464063 16:-0.26710584 17:-0.039645314 18:0.022538686 19:-0.036368178 20:-0.099476992 21:0.023538697 22:0.004402753 23:0.13861471 24:0.15748692 25:0.10397373 26:-0.11856509 27:0.43867983 28:0.3176267 29:-0.16028228 30:0.16854543 31:0.31698749 32:0.1552039 33:0.29920475 34:0.13021074 35:-0.03371533 36:-0.17702955 37:-0.30013602 38:-0.22973124 39:-0.56177387 
1.584962060752633 1:-0.36922374 2:-0.6418865 3:-0.10568137 4:0.47782386 5:-0.24808618 6:-0.11074152 7:-0.31031111 8:0.36428597 9:-0.18832111 10:0.35355073 11:0.084398435 12:0.34769711 13:0.039543618 16:-0.23074831 17:0.27294036 18:0.76665408 19:-0.83679249 20:0.42412516 21:0.15301178 22:0.20095265 23:0.021030573 24:0.18641138 25:0.069097072 26:0.22272913 27:0.26246536 28:0.50379599 29:-0.07773622 30:0.27729654 31:-0.11456332 32:0.51326743 33:0.040684158 34:0.1450435 35:0.073120924 36:0.0037662339 37:-0.17208475 38:-0.37515903 39:-0.53089316 
2.392829873298293 1:-0.16524581 2:-0.49929989 3:0.12124255 4:0.62480279 5:-0.13704026 6:0.021559994 7:-0.36700338 8:0.38313186 9:-0.072470381 10:0.37306543 11:-0.12549145 12:0.11851796 13:0.010005589 16:-0.032987684 17:-0.086232076 18:-0.011626543 19:-0.26102363 20:0.26589941 21:-1.4023782e-005 22:0.11602349 23:0.25129835 24:0.22265322 25:0.12840029 26:-0.083410544 27:0.32913577 28:0.30544032 29:-0.026212217 30:0.12916815 31:0.39076344 32:0.11626903 33:0.28975256 34:0.08346312 35:-0.12809906 36:-0.15515289 37:-0.24981481 38:-0.31581277 39:-0.46777808 
0.5429498769180002 1:0.14343971 2:-0.42607753 3:0.044160766 4:0.46878745 5:-0.057577891 6:-0.13815405 7:-0.30332741 8:0.28992734 9:-0.096152554 10:0.19547153 11:-0.31749791 12:-0.17510272 13:-0.010697671 14:-1 16:-0.60951762 17:0.21917599 18:-0.47892905 19:0.34502828 20:0.066290359 21:0.40576725 22:-0.23704773 23:-0.31323672 24:0.56829002 25:-0.18862299 26:0.58809503 27:-0.027654768 28:0.14387881 29:0.56734791 30:-0.16814274 31:0.12823709 32:0.33771857 33:-0.062870379 34:0.30418952 35:-0.046719771 36:-0.011036709 37:-0.017028569 38:-0.26262968 39:-0.19529412 
0.9343591470701842 1:0.097448774 2:-0.42149742 3:0.17008532 4:0.59503475 5:-0.034826527 6:-0.066948323 7:-0.38470353 8:0.13055594 9:-0.16195395 10:0.25970528 11:-0.43675603 12:-0.27173183 13:-0.36609461 16:-0.56733065 17:-0.55785293 18:-0.31175974 19:0.2013769 20:-0.22831918 21:0.31854436 22:-0.056388061 23:0.14405696 24:0.22218979 25:0.12784926 26:0.41598502 27:-0.12179753 28:0.14182133 29:0.61510043 30:-0.23452721 31:0.4773869 32:0.16843301 33:-0.076926392 34:0.22319942 35:-0.054661228 36:0.094100761 37:-0.32859325 38:-0.34985039 39:0.18974027 
1.106422630069773 1:0.40362945 2:-0.24931093 3:0.27219946 4:0.30122048 5:-0.3467368 6:-0.38243194 7:-0.15396925 8:0.10358298 9:-0.39468691 10:0.080536963 11:-0.11860077 12:-0.31899615 13:-0.19626454 16:-0.25365303 17:-0.74172187 18:0.03069102 19:0.5564279 20:-0.37374116 21:0.31040618 22:-0.20824742 23:0.033692102 24:-0.074683049 25:-0.06872672 26:0.15481387 27:-0.016902135 28:0.60841742 29:0.57818537 30:-0.1808523 31:-0.0071826733 32:0.24419131 33:-0.10307209 34:0.36146072 35:-0.18370849 36:-0.032527524 37:0.11353303 38:-0.54643959 39:0.81962082 
0.6984980222475329 1:0.46619773 2:-0.20301744 3:0.34160767 4:0.4264737 5:-0.19528544 6:-0.23519893 7:0.023742497 8:0.39116 9:-0.18731466 10:-0.014558316 11:-0.1234074 12:-0.39225683 13:-0.32901054 16:-0.31533517 17:-0.89938933 18:0.67417561 19:-0.033694419 20:-0.20736303 21:0.23773464 22:-0.3311557 23:-0.086459852 24:0.023938523 25:-0.32569981 26:0.28604552 27:-0.18964496 28:0.83555708 29:0.12649164 30:-0.26698167 31:0.18411169 32:0.24607334 33:0.045173799 34:0.30318436 35:-0.064604243 36:-0.14378379 37:0.036984517 38:-0.33965446 39:0.74404908 
0.1350147438800195 1:0.12298588 2:-0.21352296 3:0.3265266 4:0.33895792 5:-0.30062945 6:-0.31815738 7:-0.18984359 8:0.087057503 9:-0.36510224 10:0.13533083 11:-0.027565503 12:-0.30577985 13:-0.11340205 16:-0.24532998 17:-0.55159317 18:0.0055646768 19:0.37643601 20:-0.44905957 21:0.26440341 22:-0.14044147 23:0.0072263971 24:-0.012845499 25:-0.21245304 26:0.034605951 27:0.049542108 28:0.64535443 29:0.37805874 30:0.017927262 31:-0.08874824 32:0.2258106 33:0.0061715635 34:0.43622017 35:-0.21554505 36:-0.17273382 37:0.2110012 38:-0.55189232 39:0.82427395 
0.7463676460325329 1:0.4500067 2:-0.28157586 3:0.1689215 4:0.29781748 5:-0.35374224 6:-0.69324758 7:-0.14861288 8:0.22054803 9:-0.29295021 10:-0.13385167 11:-0.059133944 12:-0.38132611 13:-0.48413144 15:1 16:0.31715903 17:-0.62142353 18:0.37580097 19:0.30192299 20:-0.27717599 21:0.21200732 22:-0.32464083 23:0.2841703 24:0.028710098 25:-0.092884364 26:-0.020144032 27:0.27869418 28:0.78527736 29:0.24214255 30:-0.73264098 31:0.42609705 32:0.075204761 33:-0.18321809 34:0.44476893 35:-0.57295339 36:0.15937551 37:-0.20818601 38:-0.33775858 39:0.70460607 
0.06052719857600108 1:0.1567429 2:-0.23596924 3:0.31403306 4:0.36859583 5:-0.29997266 6:-0.64333105 7:-0.057305005 8:0.33758752 9:-0.31673839 10:-0.14445785 11:-0.040973853 12:-0.35196359 13:-0.46380516 16:0.24424438 17:-0.60570713 18:-0.068857209 19:0.81330978 20:-0.2537302 21:0.0036062943 22:-0.26951435 23:0.030517552 24:0.0090338378 25:-0.21897918 26:0.076640641 27:0.27648798 28:0.70218136 29:0.2170798 30:-0.76727652 31:0.37444065 32:0.10179629 33:-0.24926093 34:0.58113744 35:-0.38970543 36:0.14081427 37:-0.20166464 38:-0.32289938 39:0.78438786 
0.1420489569555912 1:0.084065034 2:-0.23564826 3:0.16054477 4:0.259126 5:-0.24342897 6:-0.57408206 7:-0.26809744 8:0.099024232 9:-0.40038633 10:-0.2173165 11:-0.14937725 12:-0.1599579 13:-0.40094011 15:-1 16:-0.27056755 17:0.090461751 18:-0.70524074 19:0.085463301 20:0.12186501 21:0.075621077 22:-0.33899488 23:-0.017911301 24:0.2397562 25:-0.55878238 26:0.48552667 27:0.37453506 28:0.38407088 29:0.24868501 30:-0.56888456 31:0.27302412 32:0.25150623 33:-0.034798384 34:0.036464985 35:0.17868821 36:0.089868324 37:-0.24190369 38:-0.24843604 39:0.61198348 
0.02424227802839175 1:0.43957988 2:-0.24066128 3:0.1307907 4:0.21642647 5:-0.23275281 6:-0.53022526 7:-0.20831077 8:0.12100911 9:-0.44302064 10:-0.32261971 11:-0.08545835 12:-0.014938258 13:-0.11468332 16:-0.44905379 17:0.082584233 18:-0.78550209 19:-0.20306733 20:0.35143844 21:0.10177466 22:-0.12309524 23:-0.11609759 24:-0.022336952 25:-0.093786434 26:0.43478879 27:0.80382727 28:0.044207209 29:0.38227829 30:-0.51249197 31:0.39660068 32:-0.23819601 33:0.29253548 34:-0.012369299 35:-0.0045995273 36:-0.016632778 37:-0.0016956679 38:-0.22495657 39:0.64623652 
0.4506539349654202 1:0.36108901 2:-0.2236947 3:0.16080079 4:0.23467602 5:-0.18900645 6:-0.43608895 7:-0.20399096 8:0.099198349 9:-0.43937749 10:-0.30608915 11:0.024492976 12:0.065966416 13:-0.00012711345 15:1 16:-0.33835078 17:0.087613862 18:-0.83352889 19:-0.13830428 20:0.31701242 21:0.08553211 22:-0.021052791 23:-0.011875048 24:-0.14444638 25:-0.087882987 26:0.39491014 27:0.63854359 28:0.06585096 29:0.45385297 30:-0.5728303 31:0.33442634 32:-0.013923602 33:0.23949901 34:0.050331902 35:-0.050230725 36:0.065019644 37:-0.12359067 38:-0.2435699 39:0.68012162 
0.1031995147515659 1:0.45299268 2:-0.2750609 3:0.09534226 4:0.19044322 5:-0.19723247 6:-0.39750759 7:-0.22742539 8:-0.060150633 9:-0.67242102 10:-0.36356866 11:0.089535601 12:-0.10681793 13:-0.2364192 15:-1 16:0.24205099 17:0.0056013406 18:-0.34473569 19:-0.16714906 20:0.15418024 21:0.47360975 22:-0.081244971 23:0.23500144 24:0.13257446 25:-0.42629609 26:-0.030031953 27:0.49387077 28:0.41073966 29:0.29739225 30:-0.39501057 31:0.5024602 32:-0.13062417 33:0.27778555 34:0.15020389 35:0.017084443 36:-0.14052503 37:0.17655343 38:-0.29722123 39:0.58984802 
0.05332592706620894 1:0.41047126 2:-0.18915232 3:0.26299236 4:0.34284555 5:-0.12677929 6:-0.4237617 7:-0.19209112 8:0.26708072 9:-0.21955375 10:-0.11617374 11:0.076625746 12:-0.019132583 13:-0.18839195 16:0.67417932 17:0.028087 18:-0.74623522 19:-0.014289838 20:-0.25570902 21:0.049318493 22:-0.13060234 23:0.35169724 24:-0.24319037 25:-0.0019500827 26:0.22772983 27:0.35435252 28:0.38392227 29:-0.18042804 30:-0.090827837 31:0.3859999 32:0.00048831565 33:0.24510879 34:0.15665261 35:0.068717536 36:-0.17963471 37:0.023758843 38:-0.12228623 39:0.67507829 
0.1967802842729978 1:0.12935295 2:-0.26612901 3:0.16364396 4:0.2140593 5:-0.34871788 6:-0.58395965 7:-0.4715462 8:0.083303322 9:-0.37115324 10:-0.19499989 11:0.0074896604 12:0.022705005 13:-0.014040708 15:-1 16:0.83229875 17:0.06309606 18:-0.43586722 19:0.10320794 20:-0.16911937 21:-0.051308844 22:-0.028612821 23:0.23279224 24:-0.15050917 25:-0.038425773 26:0.085449855 27:0.50628643 28:0.26752519 29:-0.038869324 30:-0.023742479 31:0.25475785 32:-0.10540101 33:0.51341944 34:0.17712631 35:-0.17200586 36:-0.26407879 37:0.056608594 38:-0.19958332 39:0.70626503 
0.1767651969247558 1:0.3153704 2:-0.18898534 3:0.29446012 4:0.34275728 5:-0.17870569 6:-0.52724937 7:-0.26260498 8:0.3075839 9:-0.14829688 10:0.01191279 11:0.30727742 12:0.11889157 13:-0.11902301 16:-0.74133929 17:0.10897453 18:-0.75144548 19:0.11237396 20:-0.27325797 21:-0.13964037 22:-0.18693291 23:0.41295609 24:-0.14545782 25:-0.031842078 26:0.36465435 27:0.37222536 28:0.41048496 29:-0.28387898 30:-0.034795124 31:0.34843536 32:0.021418277 33:0.19617311 34:0.27862258 35:-0.047649579 36:-0.19026887 37:0.18113381 38:-0.10852551 39:0.60370446 
0.1328168564098131 1:0.35250112 2:-0.22376852 3:0.1307185 4:0.15635378 5:-0.29112084 6:-0.40666997 7:-0.18218481 8:0.21866702 9:-0.21344384 10:-0.041296076 11:-0.072195433 12:-0.021588339 13:-0.1491653 14:-1 16:-0.68860097 17:0.2245033 18:-0.42430764 19:0.84400518 20:-0.094137 21:-0.29232998 22:0.33878231 23:-0.43179663 24:0.13483184 25:-0.22720513 26:-0.21663018 27:0.60862901 28:0.0035528083 29:0.23593425 30:0.061671698 31:0.11994775 32:0.091459796 33:0.41432897 34:-0.21291191 35:-0.22855496 36:-0.12260668 37:0.16355394 38:-0.20816644 39:0.50247669 
0.2201212879759179 1:0.023774126 2:-0.27707118 3:0.051538933 4:0.20070303 5:-0.21221209 6:-0.49951948 7:-0.19936832 8:0.14063753 9:-0.38417714 10:-0.068473344 11:-0.056323038 12:0.005813537 13:-0.15737942 16:-0.99705068 17:0.29251741 18:-0.77614631 19:0.50769112 20:-0.0021140962 21:-0.24051321 22:0.33942453 23:-0.58546442 24:0.28002941 25:-0.14848056 26:0.33828779 27:0.63505159 28:0.19508239 29:0.20915315 30:-0.014105352 31:-0.078455027 32:-0.041430259 33:0.13998766 34:0.41589516 35:-0.30894819 36:0.0069466104 37:0.19928301 38:-0.20437977 39:0.30058858 
0.1373285294821292 1:0.27638054 2:-0.22144408 3:0.12332252 4:0.12959778 5:-0.32667112 6:-0.45887863 7:-0.18960281 8:0.23035476 9:-0.22235189 10:-0.11092384 11:-0.034900642 12:0.034151953 13:-0.17552348 15:1 16:-0.43960063 17:0.16715804 18:-0.35375707 19:0.8256731 20:-0.13451291 21:-0.21269495 22:0.35304103 23:-0.50491401 24:0.12712389 25:-0.3511861 26:0.15441054 27:0.5428309 28:0.044088416 29:0.17010534 30:-0.032418841 31:0.17644178 32:0.1952141 33:0.35775709 34:-0.27355669 35:-0.177431 36:-0.072407817 37:0.022238138 38:-0.15161636 39:0.51476582 
0.1866797128294579 1:0.37636716 2:-0.27397779 3:0.05504179 4:0.11080911 5:-0.38221585 6:-0.67878236 7:-0.31394728 8:0.17166304 9:-0.26051966 10:-0.13069125 11:-0.16894474 12:0.15959483 13:-0.057017756 15:1 16:0.24613984 17:0.21994365 18:-0.34621046 19:-0.12036893 20:-0.18777307 21:-0.19346343 22:0.33311891 23:-0.39671791 24:-0.055638861 25:-0.025719916 26:0.1691569 27:0.31195884 28:0.27465101 29:-0.3654729 30:0.25368078 31:0.10294846 32:0.018015943 33:-0.13296054 34:0.26884765 35:-0.13757885 36:0.079668598 37:-0.025369188 38:-0.035797404 39:0.4169051 
0.1305282175926373 1:0.39095376 2:-0.15334898 3:0.25139144 4:0.26928463 5:-0.16271763 6:-0.42949635 7:-0.26257953 8:0.33147215 9:-0.095843747 10:0.060852402 11:0.26034093 12:0.21121712 13:0.00014938414 16:-0.93841216 17:0.27962463 18:-0.44034635 19:-0.14979867 20:-0.19952488 21:-0.010295439 22:0.22230744 23:-0.32442142 24:0.041915872 25:0.034968842 26:-0.1701605 27:0.54494952 28:0.38637728 29:-0.4077229 30:0.11163185 31:0.18743259 32:0.058160519 33:0.36809196 34:0.075551322 35:-0.086087476 36:-0.083103295 37:-0.061986539 38:-0.069351832 39:0.46624972 
0.1402806850320487 1:0.30716538 2:-0.15866186 3:0.24538005 4:0.31427973 5:-0.109395 6:-0.36582164 7:-0.065696056 8:0.28100545 9:-0.22558485 10:0.15951302 11:0.2739337 12:-0.030568505 13:-0.21309347 16:0.2743555 17:0.24673887 18:-0.91656816 19:0.9510994 20:-0.27630067 21:-0.2193188 22:0.16149122 23:-0.41714767 24:0.22104233 25:-0.15230192 26:-0.030318805 27:0.42861195 28:0.52649288 29:-0.23655494 30:0.18428408 31:-0.65542195 32:0.25574237 33:0.16857892 34:0.12012208 35:0.17980165 36:-0.18953742 37:0.51919346 38:-0.2572131 39:0.44174475 
0.06358721487019875 1:0.40022428 2:-0.25176516 3:-0.015210371 4:0.0013113813 5:-0.32665093 6:-0.53754816 7:-0.20948769 8:0.052795943 9:-0.34372282 10:0.044965229 11:0.15906024 12:-0.06976502 13:-0.14851951 14:-1 16:0.90120111 17:0.33085377 18:-0.85773147 19:0.34396851 20:-0.083939007 21:-0.29623709 22:0.12779185 23:-0.25674974 24:0.21076358 25:-0.17155632 26:-0.12621216 27:0.53807271 28:0.42319945 29:-0.30242423 30:0.28981256 31:-0.73983341 32:0.19403455 33:0.22449302 34:0.080331526 35:0.11844592 36:-0.1398907 37:0.47021083 38:-0.26763865 39:0.42393661 
0.1865016299487174 1:0.036265593 2:-0.35768764 3:0.030118723 4:0.084558978 5:-0.57448153 6:-0.66061782 7:-0.4890883 8:0.1352729 9:-0.33265504 10:-0.11943004 11:-0.21148728 12:-0.29364282 13:-0.35611295 16:0.90891288 17:0.56788556 18:-0.67529549 19:0.95555239 20:-0.11978804 21:-0.57818077 22:0.17465565 23:-0.41269506 24:0.15852757 25:0.069236722 26:-0.028343332 27:0.46033232 28:0.5938722 29:-0.17035495 30:0.029816524 31:0.061562388 32:0.3155582 33:0.0013880788 34:0.33419913 35:-0.23107551 36:-0.013630486 37:-0.14047005 38:-0.24787628 39:0.54048301 
0.184526468629334 1:0.24770999 2:-0.29696925 3:0.023264171 4:0.084085051 5:-0.41480243 6:-0.68811843 7:-0.45125335 8:0.013614407 9:-0.40784169 10:-0.036911765 11:0.14774309 12:-0.13567343 13:-0.40091588 16:-0.83016289 17:0.84700804 18:-0.66546679 19:-0.5183494 20:-0.13528128 21:-0.50088028 22:0.13649666 23:-0.093430133 24:0.2321736 25:-0.21473082 26:-0.2072444 27:0.72333515 28:0.43068946 29:-0.14904273 30:0.14390442 31:-0.48183542 32:0.10439936 33:0.47070652 34:-0.12667663 35:0.098254451 36:-0.18504523 37:0.32638657 38:-0.21671708 39:0.44542158 
0.47550736286972 1:0.42197718 2:-0.2057362 3:0.17506564 4:0.12103393 5:-0.38417896 6:-0.74124206 7:-0.38801426 8:0.12049342 9:-0.27873714 10:-0.13803136 11:0.12952418 12:-0.043485814 13:-0.1595428 15:-1 16:0.92971998 17:0.55478611 18:-0.74444436 19:0.81476257 20:0.22846244 21:-0.65291071 22:0.030557838 23:-0.28136967 24:0.35069511 25:-0.2620293 26:-0.20976462 27:0.52360955 28:0.44365828 29:-0.35513997 30:0.16843811 31:-0.40021428 32:0.49750193 33:0.055913404 34:0.17135629 35:0.029042763 36:-0.024561488 37:0.080112976 38:-0.095565925 39:0.70450557 
0.4117440538434206 1:0.080564912 2:-0.30711167 3:0.12820708 4:0.092834504 5:-0.5572282 6:-0.61779332 7:-0.53273353 8:0.1411 9:-0.31035691 10:-0.13756256 11:0.11116143 12:-0.10702868 13:-0.011558196 14:-1 16:0.87247832 17:0.4784118 18:-0.90948593 19:0.41844506 20:0.29722172 21:-0.50929037 22:-0.14554326 23:-0.051502847 24:0.24768575 25:-0.35685573 26:-0.025646807 27:0.41716567 28:0.50377242 29:-0.36227959 30:0.32815485 31:-0.17045223 32:0.23597924 33:0.28397416 34:0.44712971 35:-0.22030403 36:-0.29269132 37:-0.07749477 38:-0.16469463 39:0.70138444 
0.251958687138614 1:0.45391028 2:-0.098738656 3:0.42193509 4:0.4173889 5:-0.20759438 6:-0.4227447 7:-0.28742386 8:0.22718505 9:-0.091766552 10:0.032016309 11:0.28747115 12:0.044869787 13:0.12122619 16:0.051949034 17:0.80376772 18:-0.82748812 19:0.3949745 20:-0.016490855 21:-0.58767614 22:0.032310563 23:0.17835754 24:-0.14442386 25:-0.045004123 26:0.058203758 27:0.54074584 28:0.2954772 29:-0.0282161 30:-0.0060164948 31:0.01808672 32:0.12712294 33:0.31047426 34:0.16714487 35:-0.05840901 36:-0.31080012 37:0.037560277 38:-0.24427849 39:0.84738502 
0.02858606635214298 1:0.30492714 2:-0.10191307 3:0.39143875 4:0.27095969 5:-0.29144754 6:-0.45643904 7:-0.28250331 8:0.21387802 9:-0.10027388 10:0.010277824 11:0.36617555 12:0.10353512 13:-0.0064917746 16:0.030942556 17:0.48120844 18:-0.31161786 19:-0.25782717 20:-0.13190229 21:-0.25658634 22:0.19486351 23:-0.12199216 24:0.13069324 25:-0.094270963 26:-0.64331858 27:0.73464165 28:0.24146937 29:-0.070137206 30:-0.16715407 31:0.19895746 32:0.046986921 33:0.39263189 34:0.33050803 35:-0.46572057 36:-0.12409871 37:-0.22023531 38:-0.075368099 39:0.71373647 
0.2941190762485654 1:0.4993701 2:-0.20412572 3:0.21876235 4:0.11684784 5:-0.41514512 6:-0.5778613 7:-0.55863736 8:-0.033736555 9:-0.25593833 10:-0.20443969 11:-0.079322508 12:-0.06709472 13:0.047323157 16:0.52209733 17:0.67134046 18:-0.75005142 19:0.33087625 20:-0.10953703 21:-0.26794584 22:0.043041669 23:-0.034694354 24:-0.12502148 25:0.15119966 26:-0.15947609 27:0.53470975 28:0.22785597 29:-0.33590209 30:0.19270946 31:0.16674399 32:0.099218824 33:0.29388498 34:0.10311662 35:0.061146986 36:-0.19099588 37:-0.15124298 38:-0.057604309 39:0.85126556 
0.04043653141987307 1:0.38177896 2:-0.1034869 3:0.39682764 4:0.19312376 5:-0.35249609 6:-0.44762406 7:-0.16414247 8:0.14426869 9:-0.11273986 10:0.090621927 11:0.30332039 12:0.10441904 13:-0.18729529 16:-0.36850667 17:0.29175963 18:-0.55663936 19:-0.28129096 20:0.18212358 21:-0.74622073 22:0.046789996 23:-0.053656213 24:0.30725596 25:-0.40873662 26:-0.27421365 27:0.49403989 28:0.47958718 29:-0.32834442 30:0.18814795 31:0.034269789 32:0.32776242 33:-0.32554269 34:0.3321612 35:-0.19165613 36:0.29649579 37:-0.4759695 38:-0.090077337 39:0.85753746 
0.3745137512539928 1:0.32177475 2:-0.16759168 3:0.23401955 4:0.071873063 5:-0.40055479 6:-0.52308103 7:-0.35126132 8:0.014474014 9:-0.31520362 10:-0.077160782 11:0.28726014 12:-0.23697958 13:-0.0080517724 14:1 16:0.94306615 17:0.24453044 18:-0.71420247 19:-0.49333278 20:-0.035333084 21:-0.44545685 22:0.029067356 23:-0.10398406 24:0.24694124 25:-0.38336313 26:0.32401251 27:0.32428584 28:0.50842921 29:-0.05625736 30:0.0058436538 31:-0.026222178 32:0.44456542 33:-0.080366617 34:0.61641679 35:-0.15439042 36:-0.19924997 37:0.080127755 38:-0.29755501 39:0.86983427 
0.6020064438081085 1:0.45909662 2:-0.27150895 3:0.029429825 4:0.048303223 5:-0.33758404 6:-0.62626428 7:-0.058623717 8:0.39383731 9:-0.26991246 10:-0.28155395 11:0.05653844 12:0.01128367 13:-0.22573249 14:1 16:-0.99728808 17:0.36431334 18:-0.80245433 19:0.43353775 20:0.096025084 21:-0.53119912 22:-0.034825811 23:-0.010160434 24:-0.26196513 25:-0.18426592 26:-0.041135444 27:0.805118 28:0.39874911 29:-0.32260784 30:-0.12600426 31:0.23826172 32:-0.099143106 33:0.33472761 34:0.13935991 35:0.20607423 36:-0.28159082 37:0.24896889 38:-0.073451406 39:0.42072271 
0.1710714276530438 1:0.46582597 2:-0.23729517 3:-0.03913434 4:-0.079910762 5:-0.31091461 6:-0.77936159 7:-0.17688296 8:0.20217857 9:-0.32795867 10:-0.27527796 11:0.15162127 12:-0.015368103 13:-0.32484248 16:-0.82588815 17:0.67393076 18:-0.83088143 19:0.52682956 20:0.23377417 21:-0.58535457 22:0.13572137 23:-0.073954833 24:-0.045812947 25:-0.19608671 26:-0.41120488 27:0.89663462 28:0.37667052 29:-0.51580584 30:-0.14007992 31:0.046057093 32:-0.066480232 33:0.18169139 34:0.38711373 35:-0.091354838 36:-0.23352295 37:0.094407768 38:0.027567185 39:0.33494925 
0.1486749386566239 1:0.4349173 2:-0.23109449 3:-0.057890403 4:-0.098195674 5:-0.40080087 6:-0.66728172 7:-0.19672391 8:0.063078696 9:-0.3350835 10:-0.069980073 11:0.17281176 12:0.064731101 13:-0.10702795 15:1 16:-0.49996083 17:0.87215531 18:-0.58466072 19:0.40646713 20:0.439325 21:-0.29337248 22:0.14896298 23:-0.096026414 24:-0.0073326082 25:-0.37461127 26:-0.15780923 27:0.40953538 28:0.23843667 29:0.20925068 30:-0.31591012 31:0.48633673 32:-0.17107244 33:0.17785489 34:0.080292557 35:0.18881545 36:-0.080579515 37:0.056633298 38:-0.19723194 39:0.4701741 
0.4520097828203697 1:0.43301438 2:-0.14285062 3:0.099607612 4:0.065659669 5:-0.22802018 6:-0.46734674 7:-0.068090932 8:0.18769112 9:-0.15408839 10:0.29889937 11:0.4607621 12:0.16305301 13:0.15722274 14:-1 16:-0.65765199 17:0.71388079 18:-0.50777914 19:0.34625651 20:-0.33338722 21:0.25933356 22:0.022445511 23:-0.093958025 24:0.079010248 25:-0.17521716 26:-0.10737149 27:0.15087668 28:0.24981571 29:0.36141961 30:-0.32064107 31:0.16187162 32:-0.027102102 33:0.051124849 34:0.19386074 35:0.19102635 36:-0.088944273 37:0.0060382355 38:-0.31883773 39:0.51562975 
0.05528116416493681 1:0.37404709 2:-0.092631213 3:0.16643057 4:0.093319096 5:-0.13316669 6:-0.41214161 7:0.052943368 8:0.24082214 9:-0.21340126 10:0.22167305 11:0.44990434 12:0.052655178 13:0.031358889 15:-1 16:-0.37815102 17:0.54772568 18:-0.5392403 19:0.36975375 20:-0.24833677 21:0.26070567 22:-0.033461975 23:-0.10693204 24:0.11338959 25:-0.31028359 26:-0.10276342 27:0.22901431 28:0.33702537 29:0.39053503 30:-0.39292897 31:0.045557654 32:0.12990452 33:-0.21273809 34:0.26521297 35:0.20464829 36:-0.053768312 37:0.075471423 38:-0.3505097 39:0.47038048 
0.4649411434957533 1:0.37094775 2:-0.18399006 3:0.13472447 4:0.19991318 5:-0.083117087 6:-0.3336384 7:0.37192428 8:0.45189297 9:-0.25266784 10:0.10735903 11:0.34132706 12:-0.078220227 13:-0.47345146 16:0.2153351 17:-0.78274254 18:0.30954275 19:0.44566668 20:0.23396407 21:-0.50548237 22:0.32586325 23:0.14259154 24:-0.33583877 25:-0.096656741 26:-0.58317826 27:0.48749565 28:0.51171765 29:0.22107246 30:-0.28811375 31:-0.10289209 32:0.28007139 33:-0.21110113 34:0.43659605 35:-0.31762611 36:0.20223693 37:0.62054414 38:-0.35709114 39:0.31030792 
0.175668084534067 1:0.42628367 2:-0.1944886 3:0.055377508 4:0.060027278 5:-0.094377868 6:-0.24122815 7:0.30777337 8:0.32771391 9:-0.37786414 10:-0.17604743 11:0.24673911 12:-0.33182652 13:-0.44640471 16:0.70815734 17:-0.50613807 18:-0.82172536 19:0.088272017 20:0.41233286 21:0.04615169 22:-0.015193828 23:0.17084654 24:-0.0044131726 25:-0.52996676 26:-0.033824554 27:0.57600393 28:0.42543383 29:0.38186825 30:-0.55142278 31:0.099613487 32:0.40261198 33:-0.1324444 34:0.48594569 35:-0.35581982 36:0.1360433 37:0.24703618 38:-0.36975521 39:0.38449605 
0.6887015235280872 1:0.39659327 2:-0.30804115 3:-0.099608495 4:-0.055436925 5:-0.27129032 6:-0.41210126 7:0.20949402 8:0.26052951 9:-0.44973049 10:-0.11065511 11:0.21169567 12:-0.33206519 13:-0.52910969 14:-1 16:0.74381314 17:-0.12536524 18:-0.64802761 19:0.76741734 20:0.44593136 21:0.28991378 22:-0.23507908 23:0.28387469 24:0.08855302 25:-0.68066038 26:0.2919946 27:0.57267986 28:0.24307567 29:0.58450306 30:-0.55194832 31:-0.24218488 32:0.42538551 33:-0.31071332 34:0.47599798 35:-0.11280856 36:0.11483461 37:0.21591413 38:-0.43736827 39:0.3365618 
0.2895351431158438 1:0.36260439 2:-0.30425279 3:-0.016058949 4:0.12544738 5:-0.14313119 6:-0.34507388 7:0.30626738 8:0.34206182 9:-0.40788564 10:0.034375287 11:0.19874619 12:-0.1217858 13:-0.39318768 15:1 16:-0.99607009 17:0.51635574 18:-0.2950515 19:-0.071056926 20:0.57109104 21:0.42456395 22:-0.39675456 23:0.20062274 24:0.12032518 25:-0.52094282 26:0.022841917 27:0.63747814 28:0.37505527 29:0.42899616 30:-0.39831652 31:-0.29321642 32:0.33210702 33:-0.10552131 34:0.086889638 35:-0.024324882 36:0.13271231 37:0.52852056 38:-0.43543859 39:0.27643935 
0.04820585635791649 1:-0.0033542552 2:-0.35243343 3:-0.13767503 4:-0.032458072 5:-0.32534971 6:-0.45778234 7:0.16442856 8:0.24941975 9:-0.42762649 10:-0.13674195 11:-0.18694928 12:-0.46603731 13:-0.43151819 16:-0.4211137 17:-0.12435442 18:0.20365332 19:0.16743306 20:0.56019851 21:0.36390765 22:-0.47982891 23:0.20563277 24:0.093755078 25:-0.4939557 26:0.23907872 27:0.32840798 28:0.25279936 29:0.52512005 30:-0.53742373 31:0.077812844 32:-0.26388894 33:0.33609296 34:-0.064406504 35:0.58534431 36:-0.21421688 37:0.29641435 38:-0.44316699 39:0.42535472 
0.02831452166610271 1:0.034781131 2:-0.40477899 3:-0.042479348 4:0.13500185 5:-0.29179355 6:-0.23481924 7:0.23361215 8:0.45517995 9:-0.37089797 10:-0.22359892 11:-0.28943615 12:-0.50987102 13:-0.65428398 16:-0.84385275 17:-0.45978805 18:0.53322123 19:0.27131475 20:0.68038492 21:0.54113932 22:-0.55465978 23:0.15519526 24:0.21960984 25:-0.66694285 26:0.32259126 27:0.32024706 28:0.65223794 29:0.37612572 30:-0.52793017 31:0.34060154 32:0.26662395 33:-0.11090089 34:0.36875093 35:-0.15520306 36:0.15315786 37:-0.17309019 38:-0.39847258 39:0.41251789 
0.5432926004419268 1:0.27410808 2:-0.38650633 3:-0.072101574 4:0.15033438 5:-0.16994055 6:-0.22261843 7:0.16453633 8:0.42006663 9:-0.32438507 10:-0.21868027 11:-0.22085636 12:-0.43452615 13:-0.51300799 16:-0.93998132 17:0.20045743 18:0.10570306 19:-0.92436722 20:0.68889834 21:0.4048416 22:-0.52043783 23:0.19625077 24:0.041216399 25:-0.50966623 26:-0.13787492 27:0.31928191 28:0.72285141 29:0.048101482 30:-0.35461964 31:0.079132492 32:0.015401604 33:0.083309762 34:0.49125986 35:-0.28769806 36:-0.027567461 37:0.0047555601 38:-0.2782685 39:0.25629494 
2.839325100932495 1:-0.17820964 2:-0.35522761 3:0.15272624 4:0.35522918 5:-0.3074541 6:-0.14956171 7:-0.17531103 8:0.38218311 9:-0.32903913 10:0.0042508083 11:-0.11355785 12:-0.158591 13:0.18592797 16:-0.23574987 17:0.33099357 18:-0.3984996 19:-0.21152208 20:0.1753292 21:0.4198085 22:-0.16596276 23:-0.21125462 24:0.14124228 25:-0.026250554 26:0.15479135 27:0.21630417 28:0.20608452 29:0.32584187 30:0.082203969 31:-0.14834002 32:0.10974911 33:0.39494062 34:0.41209711 35:0.031647377 36:-0.60027033 37:0.28060252 38:-0.46800429 39:0.35042711 
0.5091473619518689 1:0.054974136 2:-0.36069199 3:0.097887938 4:0.27118338 5:-0.34187462 6:-0.06367112 7:-0.15155363 8:0.28803888 9:-0.21514501 10:0.25687819 11:-0.0033778122 12:-0.22498238 13:-0.23781475 15:1 16:0.18397827 17:-0.0051393485 18:-0.93113296 19:0.34886634 20:0.15397329 21:0.1768107 22:-0.4920975 23:0.6257715 24:0.017059492 25:-0.29807863 26:0.21386596 27:0.3288099 28:0.029262284 29:0.32972439 30:0.23763903 31:-0.054721298 32:0.1246687 33:0.27284657 34:0.33381249 35:-0.40492808 36:-0.085873198 37:0.024920296 38:-0.50478395 39:0.28833427 
0.2273303958855576 1:0.055974059 2:-0.43223044 3:0.011629367 4:0.39688419 5:-0.13402312 6:-0.087943395 7:-0.18611597 8:0.36002801 9:-0.28340817 10:0.049446793 11:-0.11720836 12:-0.24716714 13:-0.25723805 16:-0.22713685 17:0.0044598147 18:-0.45518504 19:-0.068655719 20:0.93833614 21:-0.2226869 22:0.011128804 23:0.18931475 24:-0.013406881 25:0.050542412 26:0.23074072 27:0.12907684 28:0.61822444 29:-0.024774887 30:0.074320098 31:-0.2131275 32:0.08965336 33:0.40379938 34:0.27177205 35:-0.04941691 36:-0.32524541 37:0.1226936 38:-0.29878557 39:-0.1243006 
0.1253908954948005 1:-0.083994996 2:-0.42892129 3:0.12511267 4:0.45155483 5:-0.22110208 6:0.13626327 7:-0.087515343 8:0.44754292 9:-0.21721182 10:0.18786568 11:-0.045892179 12:-0.088879429 13:-0.12622076 16:-0.17411888 17:-0.38694667 18:0.18304572 19:0.43281065 20:-0.019828678 21:0.46117293 22:-0.36471561 23:0.18066072 24:0.11819359 25:-0.24000422 26:-0.082250949 27:0.61270532 28:0.1753033 29:0.0054691042 30:0.47189356 31:-0.34519638 32:0.24177306 33:0.20821226 34:0.37747104 35:-0.13279282 36:-0.2606056 37:0.024236999 38:-0.49770781 39:0.12162048 
0.5248001053385062 1:-0.11665511 2:-0.4751292 3:0.066827211 4:0.44287769 5:-0.28230624 6:-0.109415 7:-0.4687852 8:0.34075117 9:-0.14612524 10:0.26070927 11:0.047949788 12:-0.034437024 13:-0.0051547711 14:1 16:-0.97373272 17:0.32469445 18:-0.52221679 19:0.26178963 20:0.1692992 21:-0.070691597 22:-0.10549964 23:-0.22324906 24:0.1817094 25:0.05847285 26:0.040104799 27:0.46110715 28:0.095059973 29:0.30827653 30:-0.097110532 31:0.24455328 32:0.37242629 33:-0.24594915 34:0.58183979 35:-0.075820135 36:-0.39161016 37:-0.23902724 38:-0.30764922 39:-0.15062124 
0.5330860834805917 1:-0.018796588 2:-0.49818688 3:0.059441498 4:0.48070318 5:-0.22030016 6:0.016994525 7:-0.31438588 8:0.32199917 9:-0.25853276 10:0.24421105 11:-0.033231719 12:-0.13174562 13:-0.15820604 16:-0.56421611 17:0.44521353 18:-0.53687783 19:0.033980468 20:-0.086438019 21:0.33256817 22:-0.24854954 23:0.49208543 24:0.049388202 25:-0.047808973 26:0.16683229 27:0.39622784 28:0.18551729 29:0.083890514 30:0.3315219 31:-0.35088799 32:0.44121116 33:-0.045926218 34:0.55662096 35:-0.11138763 36:-0.30881177 37:0.046808529 38:-0.484701 39:-0.12754686 
2.709969562698099 1:-0.38411898 2:-0.52459732 3:0.066070903 4:0.46984181 5:-0.37496803 6:-0.11125715 7:-0.28926478 8:0.50428105 9:-0.091785378 10:0.29211276 11:-0.29943856 12:-0.044986464 13:0.11565082 16:-0.6098508 17:0.42865952 18:-0.17510734 19:-0.26586415 20:0.4462028 21:0.18173446 22:-0.65771581 23:0.22728503 24:0.19389196 25:-0.14992933 26:0.27048945 27:0.4741375 28:-0.073059784 29:0.26279092 30:0.43957297 31:0.027740006 32:-0.01695068 33:0.31487347 34:0.29642544 35:-0.20121939 36:-0.2568433 37:0.034725181 38:-0.53892058 39:-0.11458254 
1.117512479148906 1:-0.14922886 2:-0.46165909 3:0.16206242 4:0.55350401 5:-0.23304636 6:0.1838072 7:-0.28048656 8:0.31971266 9:-0.23696549 10:0.22421787 11:-0.19025782 12:0.034342802 13:0.091870392 16:-0.82918054 17:0.62524123 18:-0.36602081 19:-0.176808 20:0.14712591 21:0.3056324 22:-0.44945723 23:0.61537824 24:-0.036291259 25:0.033804285 26:0.084186996 27:0.1050498 28:0.34196709 29:0.12009052 30:0.19300133 31:0.09513624 32:0.44513356 33:0.16866705 34:0.24816946 35:-0.036338298 36:-0.2198158 37:-0.2874391 38:-0.50469343 39:-0.057418076 
5.835207246673225 1:-0.040769544 2:-0.58857019 3:-0.021144526 4:0.4560229 5:-0.30630948 6:0.038676136 7:-0.15293655 8:0.629468 9:-0.088242029 10:0.34466449 11:0.070404077 12:0.10543776 13:0.055751869 16:-0.76200666 17:0.23137494 18:-0.095479215 19:0.061309342 20:0.22800969 21:0.37683341 22:-0.26420854 23:0.29829284 24:-0.16304054 25:0.11881764 26:0.10539083 27:0.45611771 28:0.20850352 29:0.060913503 30:0.33362043 31:-0.38141503 32:0.64404357 33:0.26176085 34:0.3168284 35:-0.27111867 36:-0.22040442 37:0.045560373 38:-0.50115449 39:-0.2807903 
6.430898440113716 1:-0.04089453 2:-0.40989903 3:0.26162094 4:0.67268666 5:-0.21973013 6:0.042919829 7:-0.26533105 8:0.42101406 9:-0.2029154 10:0.33788622 11:-0.033220173 12:0.16335278 13:0.08282743 16:-0.43480103 17:0.036817453 18:-0.051851978 19:0.20740545 20:-0.53612402 21:0.22279787 22:-0.15810007 23:0.19608302 24:-0.057833169 25:0.0050655689 26:0.47839561 27:0.15066521 28:0.34391781 29:0.11153739 30:0.3240451 31:-0.13711897 32:0.30457973 33:0.12253313 34:0.33372298 35:-0.17837341 36:-0.0824755 37:-0.10196716 38:-0.52782241 39:-0.32687299 
0.8712567809826642 1:-0.25184155 2:-0.66517393 3:-0.3069569 4:0.23085423 5:-0.31930502 6:-0.45233019 7:-0.34444177 8:0.49974962 9:0.057636323 10:0.32532377 11:-0.16113507 12:0.028917094 13:-0.043531953 16:-0.55506028 17:0.096508053 18:0.69529317 19:0.23558064 20:0.52318135 21:0.10235101 22:-0.33255642 23:0.096342669 24:0.18704008 25:0.51817363 26:-0.015609663 27:0.40320824 28:0.32738156 29:-0.22339419 30:0.37471381 31:-0.25071189 32:0.48434482 33:-0.19163099 34:0.58668702 35:-0.24315581 36:0.16317003 37:0.0056807665 38:-0.16722507 39:-0.59175711 
0.3878897211995052 1:-0.073050363 2:-0.40187763 3:0.16407683 4:0.56959835 5:-0.11376391 6:-0.1102036 7:-0.27777192 8:0.51269016 9:-0.019786454 10:0.40606301 11:0.13018722 12:-0.044248498 13:-0.22360285 14:-1 16:-0.57388095 17:0.056999118 18:-0.055892927 19:0.42450347 20:0.17129422 21:-0.40756299 22:-0.19038303 23:0.31137266 24:0.32149105 25:-0.012985609 26:0.093140867 27:0.095492602 28:0.36208555 29:0.37632847 30:-0.18495041 31:0.14074094 32:0.37460584 33:0.26172892 34:0.15690365 35:-0.14702813 36:-0.12812878 37:0.024066694 38:-0.39553729 39:-0.3157182 
1.618342202314242 1:0.02696872 2:-0.4710067 3:0.059771891 4:0.4606889 5:-0.14255591 6:0.064562854 7:-0.0021259964 8:0.39133257 9:-0.2573708 10:0.31512602 11:-0.10692585 12:-0.32193204 13:-0.27979979 16:-0.68812521 17:-0.05962847 18:0.014272378 19:-0.18510371 20:0.097907059 21:0.4271708 22:-0.32595924 23:0.016111969 24:0.3907975 25:-0.16810756 26:0.18465185 27:0.2051172 28:0.32790465 29:0.61513183 30:0.014764527 31:0.041235098 32:0.027352573 33:0.041631506 34:0.38390477 35:-0.14634658 36:-0.14777568 37:0.2784311 38:-0.59385569 39:0.054194833 
0.4027066005094371 1:-0.0070918675 2:-0.45375745 3:0.059196417 4:0.46295072 5:-0.18288512 6:-0.037201141 7:-0.16334374 8:0.42520106 9:-0.21473485 10:0.2392628 11:-0.14596676 12:-0.21434337 13:-0.1885804 15:-1 16:-0.4727201 17:0.29269068 18:-0.47888392 19:0.229933 20:0.33323422 21:0.065173189 22:-0.099656577 23:0.086096025 24:0.35194089 25:0.015259384 26:-0.0082296752 27:0.41912959 28:0.39381456 29:0.093539655 30:0.16459755 31:-0.13211737 32:0.19784997 33:0.23646348 34:0.41912419 35:-0.30837669 36:-0.12729788 37:0.16054038 38:-0.4644395 39:-0.1291867 
1.151228800821343 1:-0.28365153 2:-0.4410248 3:0.10737886 4:0.46758109 5:-0.1780658 6:-0.0047934349 7:-0.075917243 8:0.33429612 9:-0.32016251 10:0.24480943 11:-0.054593052 12:-0.26591 13:-0.31339704 15:1 16:-0.60537858 17:-0.075729346 18:0.039433306 19:-0.068615554 20:-0.21092234 21:0.41090775 22:-0.33993957 23:0.087612429 24:0.30078891 25:-0.051445215 26:-0.23561541 27:0.4223665 28:0.33212715 29:0.51669437 30:0.04319858 31:0.047344193 32:0.036873861 33:0.063043903 34:0.35506081 35:-0.070184094 36:-0.21398711 37:0.21619545 38:-0.54384619 39:0.054783531 
1.713076910605869 1:0.013059299 2:-0.53878069 3:-0.016552907 4:0.50196554 5:-0.11369631 6:0.036854276 7:0.03409781 8:0.65093802 9:-0.0071469004 10:0.43223622 11:-0.13321882 12:-0.25914538 13:-0.36696355 16:-0.81300267 17:0.10067662 18:-0.73242619 19:0.95497737 20:0.24487727 21:0.25990193 22:-0.43809773 23:0.40068745 24:0.12158709 25:0.30003652 26:-0.21031673 27:0.31737548 28:0.47728817 29:0.16553026 30:0.13723552 31:-0.17725302 32:0.1538506 33:0.10585248 34:0.38598652 35:-0.21617584 36:-0.11429409 37:0.16690741 38:-0.47688201 39:-0.24276516 
1.693096943929766 1:-0.29030587 2:-0.50937964 3:0.040887525 4:0.52440277 5:-0.097881555 6:0.085725252 7:0.026451563 8:0.5572623 9:-0.086101538 10:0.44778995 11:-0.075728146 12:-0.23486036 13:-0.2923317 16:-0.93310883 17:0.53690894 18:-0.38911249 19:0.70978127 20:0.2463812 21:0.46272472 22:-0.29101212 23:-0.17559429 24:0.41838988 25:0.068562943 26:-0.25114197 27:0.40379631 28:0.46998678 29:0.15116958 30:0.18160576 31:-0.23925486 32:0.14031168 33:0.2231111 34:0.26651544 35:-0.17240409 36:-0.14363306 37:0.21768071 38:-0.53261017 39:-0.12071349 
3.795780797762412 1:-0.11090995 2:-0.38664005 3:0.19473429 4:0.55645571 5:-0.18667531 6:-0.070540893 7:-0.26928627 8:0.41819163 9:-0.099521896 10:0.43768546 11:0.044381717 12:-0.11357925 13:-0.095075538 16:-0.078247407 17:-0.043765211 18:-0.0035884588 19:0.070792748 20:0.27368197 21:-0.19312906 22:-0.14049152 23:0.026822997 24:0.51126475 25:0.031925624 26:0.060112263 27:0.056263328 28:0.55286594 29:0.062218332 30:0.2807024 31:-0.12391656 32:-0.013628312 33:0.13498348 34:0.62148693 35:-0.2957692 36:-0.28973222 37:0.093643569 38:-0.49680946 39:-0.074724489 
0.1996794275875706 1:0.70614638 2:-0.6895608 3:-0.67729226 4:-0.053436429 5:0.16424535 6:-0.24222587 7:-0.25964418 8:-0.049975212 9:-0.24175968 10:0.20867695 11:0.3578903 12:0.052117518 13:-0.14183269 16:0.99872224 17:-0.11084747 18:0.70560497 19:0.22362188 20:0.033914987 21:0.29314676 22:0.52519469 23:0.47416665 24:0.20362701 25:0.17547849 26:-0.16214129 27:-0.13772913 28:0.43020167 29:-0.11609863 30:-0.095134649 31:-0.40540811 32:0.15772636 33:0.19673654 34:0.01263293 35:-0.019162407 36:0.017491693 37:0.38631198 38:-0.048168959 39:-0.18348038 
1.133056630252543 1:0.69801412 2:-0.29190933 3:-0.17837386 4:0.2364576 5:0.53279746 6:-0.31214649 7:-0.13660214 8:-0.018212777 9:-0.14822385 10:0.33250701 11:0.5668991 12:0.14012058 13:-0.15772006 16:-0.29815007 17:-0.023376326 18:0.083008011 19:0.024598021 20:-0.43223677 21:0.024711468 22:0.45257331 23:0.52211206 24:0.39480198 25:-0.14300155 26:-0.12011938 27:0.11048514 28:0.42701538 29:-0.25796643 30:-0.12889716 31:-0.36894697 32:-0.20914848 33:0.4706151 34:-0.014936749 35:-0.24213089 36:-0.1040809 37:0.54874901 38:0.032424061 39:-0.18508 
0.4433756682201309 1:0.45189225 2:-0.65497482 3:-0.73338406 4:-0.10489515 5:0.29377223 6:-0.29116299 7:-0.14639663 8:-0.057311461 9:-0.24887296 10:0.15692362 11:0.34317803 12:0.017046508 13:-0.058559949 16:0.77660478 17:-0.21343283 18:0.64427612 19:0.2102008 20:-0.075158637 21:0.42817914 22:0.52281421 23:0.4493326 24:0.15701596 25:0.25046638 26:-0.1710012 27:-0.16609718 28:0.41611884 29:-0.05226604 30:-0.37178146 31:-0.083713184 32:-0.29697833 33:0.22521627 34:0.1164979 35:-0.13601759 36:-0.025029086 37:0.51219581 38:-0.025171282 39:-0.17892966 
0.4543758557893154 1:0.50212775 2:-0.32682638 3:-0.20090508 4:0.22974393 5:0.51320532 6:-0.25919571 7:-0.15527769 8:-0.0060961903 9:-0.13806309 10:0.31045212 11:0.59665123 12:0.10653527 13:-0.18042452 15:-1 16:-0.22655959 17:-0.042568877 18:0.025738087 19:0.046636171 20:-0.39775579 21:0.036466531 22:0.38155378 23:0.58832293 24:0.43708771 25:-0.24666061 26:-0.12528826 27:0.20337305 28:0.41278528 29:-0.26622237 30:-0.12600335 31:-0.38275981 32:-0.11571706 33:0.45824397 34:0.020614325 35:-0.18352079 36:-0.15832483 37:0.49851465 38:0.034090194 39:-0.17124258 
1.476640622854372 1:-0.028194082 2:-0.5391684 3:0.11237818 4:0.65484351 5:-0.12411677 6:0.047423645 7:-0.37421902 8:0.42012564 9:-0.13727715 10:0.291541 11:-0.016089649 12:0.096745542 13:0.17365469 14:1 16:-0.39171682 17:0.051562868 18:0.22401255 19:-0.46374274 20:0.29322419 21:0.29190642 22:-0.057509016 23:0.086621729 24:0.38672473 25:0.064936731 26:0.08904251 27:0.11972038 28:0.3909707 29:0.075853282 30:0.26897605 31:0.029713241 32:-0.027883214 33:0.32578421 34:0.38490056 35:0.048612385 36:-0.48872149 37:0.0063483146 38:-0.4069979 39:-0.448853 
10.63593411092637 1:-0.054837195 2:-0.31679638 3:0.27851767 4:0.6368053 5:-0.1781182 6:-0.10083568 7:-0.33180089 8:0.40366819 9:-0.12959274 10:0.36578537 11:-0.088651565 12:0.13532845 13:0.054845492 16:-0.35303345 17:0.081258682 18:-0.0041320317 19:-0.21560543 20:0.074277646 21:0.031284309 22:0.041321155 23:-0.016795838 24:-0.039899286 25:0.35280123 26:0.048942132 27:0.11951128 28:0.35067622 29:0.32051076 30:0.1022062 31:-0.35617248 32:0.40325003 33:0.033898428 34:0.32479537 35:-0.155753 36:-0.010060489 37:-0.19964018 38:-0.40827998 39:-0.49713902 
0.3681317767506629 1:0.026949761 2:-0.6802378 3:-0.13279627 4:0.4795498 5:-0.26570451 6:-0.085997961 7:-0.36329058 8:0.34884367 9:-0.12602261 10:0.32254283 11:-0.34775052 12:0.16638049 13:0.17966138 16:0.40621356 17:-0.56458027 18:0.43381404 19:0.082372761 20:0.025730881 21:0.47424196 22:-0.24701702 23:0.20336714 24:0.026322272 25:0.39049661 26:0.24220901 27:0.25626943 28:0.13059362 29:0.26423887 30:0.10880563 31:0.41440048 32:-0.20355791 33:0.26652862 34:0.22837973 35:0.06329378 36:-0.24173048 37:-0.12526955 38:-0.44501775 39:-0.48709431 
0.7557695963857722 1:-0.28852319 2:-0.66546161 3:-0.18471545 4:0.42898283 5:-0.18374961 6:-0.15853378 7:-0.29468262 8:0.38287362 9:0.02056505 10:0.41723904 11:-0.092058239 12:0.42890761 13:0.17608631 16:0.75184446 17:-0.70622638 18:0.86173536 19:0.16232605 20:-0.42908857 21:0.33622073 22:0.37513795 23:-0.11533272 24:0.29323494 25:0.12277619 26:0.35894166 27:0.16962038 28:0.16634682 29:-0.11575333 30:0.18565854 31:0.39558567 32:0.055276686 33:-0.025022026 34:0.15555979 35:-0.052457751 36:0.1023438 37:-0.12789833 38:-0.22101065 39:-0.57967897 
1.310291408253966 1:-0.064769716 2:-0.5252742 3:0.10477115 4:0.62866579 5:-0.18917079 6:-0.0466504 7:-0.34588114 8:0.31570073 9:-0.12751133 10:0.35798718 11:-0.3781926 12:0.16971856 13:0.21214954 16:0.025250477 17:-0.054204385 18:0.0064209665 19:-0.392098 20:-0.15424085 21:0.35108489 22:-0.21713677 23:0.18183981 24:0.1424719 25:0.43066725 26:0.11921908 27:0.23807198 28:0.17637083 29:0.34754146 30:0.11890375 31:0.3997244 32:-0.063110326 33:-0.016911769 34:0.34310573 35:-0.017502737 36:-0.10608991 37:-0.18052624 38:-0.47371486 39:-0.41775173 
1.027764430588729 1:-0.10252105 2:-0.61417492 3:-0.26053824 4:0.35998357 5:-0.09666692 6:-0.51223941 7:-0.32886049 8:0.1931364 9:-0.29496483 10:0.27999598 11:-0.060103881 12:0.20553752 13:0.015070563 16:-0.91106512 17:0.59613633 18:-0.35809137 19:-0.15859984 20:0.17728656 21:-0.059134758 22:0.061400554 23:0.22392975 24:0.08362038 25:0.12578206 26:0.12098732 27:0.52091063 28:0.4424058 29:-0.16442718 30:0.33055504 31:-0.28101541 32:-0.06420098 33:0.074863719 34:0.15617569 35:-0.12665459 36:0.0027241461 37:0.45458027 38:-0.29685605 39:-0.645365 
0.2621251547551434 1:-0.056731255 2:-0.63855755 3:-0.38348412 4:0.17859138 5:-0.22319231 6:-0.51718948 7:-0.32585823 8:0.25224632 9:-0.13882585 10:0.30469766 11:-0.05504744 12:0.27537084 13:0.020954981 15:-1 16:0.71064931 17:0.6982332 18:0.18632667 19:-0.047412811 20:0.23808592 21:0.46971525 22:-0.12977679 23:0.2437118 24:0.28132052 25:0.19287575 26:-0.13228835 27:0.5342509 28:0.26247901 29:-0.062593775 30:0.17728445 31:0.017919086 32:-0.15178203 33:-0.030180191 34:0.28167934 35:-0.079734739 36:0.044060495 37:0.11762667 38:-0.14907854 39:-0.5766904 
1.961537190050184 1:0.20864286 2:-0.28713231 3:0.17318983 4:0.52968186 5:0.031230882 6:-0.33530579 7:-0.25675527 8:0.40768903 9:-0.0039470702 10:0.2249118 11:-0.18926467 12:0.21825576 13:0.15252153 16:-0.31750055 17:-0.025791997 18:-0.045756161 19:0.10740206 20:-0.22486442 21:0.18924857 22:0.017636478 23:-0.10002238 24:-0.13475294 25:0.33762176 26:0.32816688 27:0.18539094 28:0.2058264 29:-0.11952491 30:0.30981519 31:-0.058747829 32:-0.044366523 33:0.07094783 34:0.14087077 35:0.23238808 36:-0.12939481 37:0.13525412 38:-0.058603713 39:-0.56492513 
0.4290029136801162 1:0.60690432 2:-0.72649801 3:-0.55139886 4:0.11135468 5:0.062256654 6:-0.45718805 7:-0.35113428 8:0.22469135 9:-0.088981763 10:0.36316584 11:0.53105854 12:0.31156812 13:-0.055204141 16:0.025024306 17:0.35923927 18:0.55877066 19:-0.24113422 20:-0.052911755 21:0.18551244 22:-0.20850905 23:0.77069973 24:0.19376544 25:-0.013742728 26:-0.20338273 27:0.69424306 28:0.12109919 29:-0.25396012 30:0.24193234 31:-0.41946929 32:0.065660472 33:0.11920783 34:0.32292675 35:0.2103798 36:-0.3706677 37:0.53774726 38:0.040395313 39:-0.60594192 
0.07681658401716286 1:0.2586932 2:-0.68180589 3:-0.45793082 4:0.21278705 5:0.12146404 6:-0.47171744 7:-0.37999846 8:0.12035245 9:-0.20983406 10:0.23055336 11:0.3239507 12:0.24834639 13:-0.12958643 16:0.49741435 17:0.14786438 18:0.58335456 19:-0.41570158 20:-0.18911161 21:0.26206532 22:-0.058161982 23:0.70048701 24:0.076311295 25:0.11889312 26:-0.093468272 27:0.70265383 28:0.12837806 29:-0.23104829 30:0.21093252 31:-0.42215737 32:0.064264657 33:0.09162201 34:0.28407242 35:0.097329701 36:-0.24496715 37:0.53735277 38:0.022792434 39:-0.63999163 
0.9427253740532265 1:0.31690709 2:-0.36868224 3:-0.014155537 4:0.47998411 5:0.18006955 6:-0.34389628 7:-0.17409832 8:0.29799742 9:-0.014762787 10:0.37079422 11:-0.098095978 12:0.072209068 13:-0.065444711 16:-0.37087811 17:0.17132505 18:-0.18483841 19:0.0070868876 20:-0.21879139 21:0.026563619 22:0.17393191 23:0.47436601 24:-0.018637817 25:0.3396526 26:0.041898324 27:0.42626069 28:0.090417566 29:0.0025468152 30:0.18891933 31:-0.21832119 32:-0.12120394 33:0.15953374 34:0.11327421 35:-0.01596986 36:-0.034458349 37:0.38091328 38:-0.083517649 39:-0.49725597 
0.3227704030069144 1:-0.12009959 2:-0.62084179 3:-0.29024129 4:0.27229932 5:-0.14729879 6:-0.1725141 7:-0.24039088 8:0.35790016 9:-0.029679506 10:0.42863309 11:0.056804401 12:0.20728176 13:0.078520845 14:-1 16:-0.29277265 17:0.23348248 18:0.36019642 19:-0.52180275 20:0.11224185 21:0.28611873 22:-0.18377126 23:0.47100623 24:0.19812274 25:-0.06881612 26:0.045283336 27:0.41939234 28:0.093284209 29:0.29182888 30:0.042733886 31:-0.2502483 32:0.5034679 33:-0.15340336 34:0.44726008 35:-0.23641327 36:0.22001414 37:-0.086272155 38:-0.24384322 39:-0.35746487 
1.214931261419915 1:-0.23278911 2:-0.57777171 3:-0.16374495 4:0.26023956 5:-0.38959973 6:-0.21934761 7:-0.36807572 8:0.34189059 9:-0.0047180627 10:0.61470038 11:0.17071648 12:0.27862579 13:0.34475252 16:0.3238759 17:0.62603373 18:0.21853336 19:0.36031201 20:-0.39098133 21:0.46106764 22:-0.19109278 23:-0.011874682 24:0.15685978 25:0.17109892 26:0.13704804 27:-0.05671037 28:0.41966188 29:0.14534062 30:0.48546996 31:-0.49449274 32:0.62186339 33:-0.0032787129 34:0.25220705 35:0.087451672 36:-0.084015677 37:0.092237265 38:-0.51165394 39:-0.18607668 
0.4673188519715651 1:0.43830096 2:-0.71055638 3:-0.4236371 4:0.25347758 5:0.028508291 6:-0.75802407 7:-0.34552412 8:0.25065236 9:-0.14494827 10:0.1496025 11:0.18192321 12:0.17445205 13:-0.39003351 16:0.5210405 17:0.13317733 18:-0.48264008 19:0.53664353 20:-0.015160871 21:-0.14400107 22:0.30361811 23:0.6026918 24:0.23734453 25:0.061472492 26:0.00094021659 27:0.90064419 28:0.50561249 29:-0.30387968 30:-0.13529778 31:-0.11070093 32:-0.0036701209 33:-0.043191101 34:0.095707367 35:0.1984768 36:0.098978865 37:0.25700198 38:-0.057641384 39:-0.91809353 
0.01756610025730878 1:0.53491422 2:-0.58695568 3:-0.23641152 4:0.51145 5:0.31836338 6:-0.16434208 7:-0.066911736 8:-0.044025404 9:-0.079431571 10:0.72955437 11:-0.24394444 12:0.17597398 13:-0.11845342 16:-0.47550644 17:0.19687548 18:-0.060480847 19:-0.21427649 20:0.39327369 21:-0.38504799 22:0.30834827 23:0.70967675 24:0.09659346 25:0.56004489 26:-0.18016885 27:-0.11261682 28:0.43262416 29:0.21002255 30:0.073681657 31:0.19573313 32:-0.31002719 33:-0.28052467 34:-0.058492671 35:0.18267906 36:0.52887451 37:0.14618499 38:-0.35406106 39:-0.28804859 
0.04733636313348278 1:0.13160528 2:-0.66785863 3:-0.35176364 4:0.32429074 5:0.1257383 6:-0.70815379 7:-0.26425997 8:0.25670644 9:-0.15982421 10:0.11990781 11:0.20013406 12:0.22443479 13:-0.45915094 16:0.14546177 17:0.065859251 18:-0.10786397 19:0.29703437 20:-0.064438268 21:0.026598684 22:0.18935149 23:0.61748422 24:0.0019253214 25:0.17374756 26:-0.074051486 27:0.96892939 28:0.48929968 29:-0.32323044 30:-0.17172603 31:-0.0045523352 32:-0.08650321 33:-0.0025338431 34:-0.015580534 35:0.26525931 36:0.10180115 37:0.25357449 38:-0.04342778 39:-0.92493882 
0.1999099170068679 1:0.51197276 2:-0.78229602 3:-0.52726395 4:0.34392791 5:0.23337581 6:-0.31348523 7:-0.25977407 8:-0.2865403 9:-0.23810471 10:0.65338841 11:-0.30235947 12:0.18333856 13:-0.090717687 16:0.69447416 17:0.069604225 18:0.18718224 19:-0.11115889 20:0.042150516 21:-0.035952899 22:0.29827366 23:0.80307563 24:0.11398394 25:0.5798385 26:-0.22176502 27:-0.10412938 28:0.39504959 29:0.26062245 30:0.055145043 31:0.21646058 32:-0.32362984 33:-0.30146453 34:-0.081169531 35:0.17364318 36:0.56090224 37:0.139828 38:-0.36457338 39:-0.27578964 
0.6481466680355918 1:0.35124469 2:-0.60870254 3:-0.36393714 4:0.26053731 5:0.063328846 6:-0.42579409 7:-0.45878249 8:0.0021617765 9:-0.026934365 10:0.52126641 11:0.019545895 12:0.13177013 13:0.084373869 16:-0.53107529 17:0.0087758997 18:0.11111832 19:0.32139052 20:-0.37306156 21:0.46028471 22:0.34572549 23:-0.0130438 24:0.71886521 25:0.49480381 26:-0.17549024 27:0.10690039 28:0.19696162 29:0.056070379 30:0.1195942 31:0.077983431 32:-0.32970433 33:0.090614568 34:0.14682761 35:-0.10491809 36:0.075626974 37:0.19640412 38:-0.091403992 39:-0.35409756 
0.2590140792204672 1:-0.046706279 2:-0.59549329 3:-0.33790529 4:0.25812381 5:-0.057049698 6:-0.48568963 7:-0.37881871 8:0.052653101 9:-0.074638782 10:0.45980912 11:-0.28083564 12:0.14616724 13:-0.022834139 16:-0.82067489 17:0.059759743 18:0.1290061 19:0.34279556 20:-0.17268292 21:0.19528969 22:0.078379454 23:0.30856554 24:0.4159749 25:0.46054541 26:-0.038410939 27:0.2061023 28:0.058197836 29:0.23495897 30:0.31738286 31:0.032060393 32:-0.35594317 33:0.0073617272 34:0.063504166 35:0.0055880228 36:0.20907639 37:0.22495936 38:-0.18461202 39:-0.42353791 
0.1269638250271288 1:-0.070022665 2:-0.58085722 3:-0.27721997 4:0.27171661 5:-0.15495981 6:-0.42132705 7:-0.37255159 8:0.14588421 9:-0.041721939 10:0.47010047 11:-0.030692856 12:0.27469431 13:-0.18973252 16:0.50018576 17:0.030098629 18:0.70698647 19:0.37848699 20:-0.56586858 21:0.33645423 22:0.24557838 23:0.33137384 24:0.2633858 25:0.16047147 26:0.068418034 27:0.3206017 28:0.16261251 29:0.040110689 30:0.29512373 31:0.0059744211 32:0.069792843 33:-0.10765746 34:0.04336084 35:-0.33871554 36:0.35260363 37:0.019869277 38:-0.13694087 39:-0.4893298 
0.2814771588858382 1:0.37279256 2:-0.72548372 3:-0.25510515 4:0.42514442 5:-0.23142135 6:-0.53509658 7:-0.61713207 8:0.21007902 9:-0.14174859 10:0.41754571 11:-0.059908043 12:0.11251465 13:-0.060311021 16:0.95962591 17:0.27141417 18:0.56355065 19:-0.33356589 20:0.42376182 21:-0.21224887 22:-0.057248211 23:0.62878036 24:-0.074426279 25:0.40934395 26:0.20778131 27:0.30819518 28:0.22320901 29:0.14273645 30:0.17886265 31:-0.081538279 32:-0.12938674 33:0.38934514 34:-0.19438317 35:-0.05443831 36:-0.098564339 37:0.30752192 38:-0.38302385 39:-0.64007141 
