svm_type c_svc
kernel_type rbf
gamma 0.76923
nr_class 2
total_sv 2996
rho 0.149473
label 1 -1
nr_sv 1448 1548
SV
1.404515377656056 1:-0.94809115 2:-0.04239572 3:0.2922701 4:0.30792823 5:-0.34955376 6:0.20469719 7:-0.55196527 8:0.24070194 9:-0.018012473 10:0.54530247 11:0.21414625 12:0.095238568 13:0.10121143 16:0.36940596 17:-0.49093978 18:0.60151209 19:0.27517758 20:-0.77736535 21:0.094214065 22:0.051290168 23:-0.021260174 24:-0.020306864 25:0.017095907 26:-0.096862632 27:-0.35922056 28:-0.10847861 29:0.64875385 30:-0.23153824 31:-0.16531538 32:0.37041166 33:0.22060585 34:0.24137319 35:-0.072372835 36:-0.31556518 37:-0.45585136 38:-0.50414798 39:-0.26384695 
1.026651865130055 1:-0.72839402 2:-0.0013910441 3:0.28705706 4:0.22054653 5:-0.29771101 6:0.17552365 7:-0.63137621 8:0.15715086 9:0.13802299 10:0.52810594 11:-0.18097153 12:0.070669122 13:0.21092508 16:0.055506209 17:-0.11258255 18:0.71989009 19:-0.31204873 20:-0.46963731 21:0.07911966 22:-0.1098695 23:0.27266456 24:-0.310245 25:0.47463735 26:0.070958619 27:-0.61408026 28:-0.071811825 29:0.39800292 30:0.36049359 31:0.022246329 32:0.084974203 33:0.1231826 34:0.3315573 35:-0.11599451 36:-0.19287368 37:-0.32161284 38:-0.27656164 39:-0.43681654 
2.297574065684418 1:-0.20837603 2:0.19990927 3:0.33391595 4:0.34476697 5:-0.49359121 6:-0.27096971 7:-0.4772141 8:0.34580458 9:0.043264562 10:0.35706937 11:-0.061361362 12:-0.064697736 13:0.085857293 15:1 16:-0.15070347 17:-0.03436453 18:0.011489009 19:0.12210312 20:-0.089252289 21:-0.2522149 22:-0.64579754 23:0.31037164 24:-0.1134197 25:-0.18323467 26:0.17412708 27:-0.048352073 28:0.068260052 29:0.45949292 30:-0.077655222 31:-0.057266129 32:-0.14370737 33:0.13989674 34:0.2565019 35:-0.19395347 36:-0.37229943 37:-0.11915158 38:-0.40776315 39:0.21892691 
0.8687651011150442 1:-0.03131389 2:0.39242714 3:0.43282527 4:0.3289373 5:-0.37106503 6:-0.089206448 7:-0.26064192 8:0.28535322 9:-0.064228948 10:0.022360307 11:-0.16798906 12:0.10303843 13:0.42114483 16:-0.708989 17:-0.82338459 18:0.94034489 19:-0.70181737 20:0.2082116 21:0.43265927 22:-0.66742054 23:-0.22887724 24:-0.28782751 25:0.37293855 26:-0.27340359 27:0.23241037 28:-0.30607271 29:0.48435442 30:0.062384842 31:-0.24053511 32:0.22709571 33:-0.13089252 34:0.30107289 35:-0.22923787 36:-0.30994416 37:-0.1623094 38:-0.39162417 39:0.47534393 
3.222135333401534 1:-0.44134489 2:0.1710314 3:0.36732373 4:0.41607943 5:-0.5200236 6:-0.3315171 7:-0.47411137 8:0.41648517 9:0.046718548 10:0.32500372 11:-0.12084891 12:-0.068061309 13:0.059868428 16:-0.17876681 17:0.026019424 18:-0.012502389 19:0.094192845 20:-0.11494002 21:-0.24611497 22:-0.64106878 23:0.25369478 24:-0.11700779 25:-0.22149466 26:0.289253 27:0.030910143 28:0.099343897 29:0.44113531 30:-0.054688232 31:-0.081872481 32:-0.15457331 33:0.15683312 34:0.25690672 35:-0.2164651 36:-0.40456533 37:-0.074501728 38:-0.44727731 39:0.23155898 
0.8197998190557243 1:-0.14810948 2:0.23491907 3:0.32089158 4:0.31382364 5:-0.41315331 6:-0.064157925 7:-0.27519061 8:0.33022362 9:-0.071634448 10:0.11372402 11:-0.13645048 12:0.14098542 13:0.42580833 16:-0.73395769 17:-0.89058048 18:0.98390453 19:-0.80243626 20:-0.06193695 21:0.42677141 22:-0.42093708 23:-0.24941015 24:-0.20099769 25:0.3855088 26:-0.23285863 27:0.1647701 28:-0.14238195 29:0.47840448 30:0.0347681 31:-0.21872698 32:0.17385369 33:-0.12187563 34:0.3400205 35:-0.26205737 36:-0.33659161 37:-0.14377862 38:-0.49176854 39:0.38608858 
1.370442054444796 1:-0.15338011 2:0.42805986 3:0.32476526 4:0.14187366 5:-0.41907299 6:-0.2914174 7:-0.22074743 8:0.2687662 9:-0.10785438 10:-0.10680876 11:-0.042642169 12:0.079785452 13:0.17510517 16:0.19719499 17:-0.76595353 18:0.6843135 19:-0.15815112 20:-0.75928618 21:0.43088864 22:-0.86821801 23:0.080654438 24:-0.67988627 25:0.064482647 26:0.060781738 27:0.29765899 28:-0.021106736 29:0.42343426 30:-0.064998937 31:-0.15210744 32:-0.09342413 33:-0.017994476 34:0.29801408 35:-0.19543331 36:-0.28319781 37:-0.12348733 38:-0.089836657 39:0.39753065 
0.05826378466997462 1:0.19693937 2:0.18847885 3:0.20754356 4:0.088519492 5:-0.6539706 6:-0.37320268 7:-0.39361772 8:0.12653164 9:-0.34515949 10:-0.23762764 11:-0.37442652 12:-0.25601304 13:-0.11777726 16:0.54084393 17:-0.73153495 18:0.084961724 19:-0.097199205 20:-0.12511434 21:0.34426162 22:-0.8546709 23:0.11034821 24:-0.7151098 25:-0.03024076 26:-0.050090152 27:0.17576016 28:0.19115737 29:0.40439742 30:-0.0240033 31:-0.17077806 32:-0.0019178613 33:0.014607094 34:0.24694994 35:-0.18287827 36:-0.32100066 37:-0.18637702 38:-0.46164462 39:0.48965881 
1.088577936967312 1:0.30268496 2:0.15505419 3:0.24870375 4:0.24627612 5:-0.58988834 6:-0.25305339 7:-0.2814569 8:0.32488728 9:-0.19833586 10:0.02479213 11:-0.16604414 12:-0.10477711 13:0.03263421 16:0.43758183 17:-0.18745857 18:0.32216431 19:0.36212436 20:-0.79644258 21:0.25038745 22:-0.53917905 23:-0.065329517 24:-0.38540035 25:-0.042994773 26:-0.088282904 27:0.082523645 28:0.48345864 29:0.31564531 30:-0.065453206 31:-0.16502641 32:-0.021115822 33:0.00047513758 34:0.26202012 35:-0.18981084 36:-0.35162192 37:-0.17841298 38:-0.52816682 39:0.44087813 
0.1862171325392313 1:-0.0016301268 2:0.43426543 3:0.45688364 4:0.26053347 5:-0.44526282 6:-0.25731614 7:-0.190399 8:0.39024715 9:-0.11459442 10:-0.21253114 11:-0.076356525 12:0.13344821 13:0.2937573 16:0.39404423 17:-0.58533719 18:0.73190796 19:-0.29037657 20:-0.56178106 21:0.381257 22:-0.67517603 23:-0.14022553 24:-0.63827002 25:-0.0861218 26:-0.078005531 27:0.65723774 28:-0.072330251 29:0.221205 30:-0.027401948 31:-0.11890456 32:0.055009448 33:-0.013118484 34:0.2402734 35:-0.12202159 36:-0.36387427 37:-0.23650953 38:-0.11050462 39:0.46570334 
8.237221327398329 1:0.36246211 2:0.26213662 3:0.28632247 4:0.13488836 5:-0.57926296 6:-0.23881786 7:-0.16198816 8:0.35453029 9:-0.097588303 10:0.071577083 11:0.019596955 12:-6.3626062e-005 13:0.22194178 16:0.016905337 17:0.19723317 18:-0.021497641 19:-0.024974477 20:-0.21953577 21:0.30309911 22:-0.7271363 23:-0.011354677 24:-0.53762981 25:-0.028196849 26:-0.020485159 27:-0.033864343 28:0.49407948 29:0.32187641 30:-0.057590136 31:-0.17940138 32:-0.020008239 33:0.039277223 34:0.25089768 35:-0.18068338 36:-0.3202092 37:-0.15233073 38:-0.47056237 39:0.45758722 
1.59529019390558 1:0.38552763 2:0.35854352 3:0.34147134 4:0.032199676 5:-0.66512031 6:-0.47084085 7:-0.094195199 8:0.36328271 9:-0.15644738 10:-0.38973952 11:-0.15239221 12:0.049364648 13:0.43095398 16:0.8079316 17:-0.29820982 18:0.3810327 19:-0.029395285 20:0.017077612 21:0.43101762 22:-0.66314193 23:-0.084059129 24:-0.39572468 25:-0.099561166 26:0.095848843 27:0.35546378 28:0.085932862 29:0.30021942 30:-0.049047198 31:-0.16538859 32:-0.037060986 33:0.02830348 34:0.24164349 35:-0.20945525 36:-0.30192 37:-0.21717014 38:-0.20331362 39:0.49677922 
9.833920532229811 1:0.08809624 2:0.16202311 3:0.27905101 4:0.16448359 5:-0.63435379 6:-0.14716838 7:-0.16738169 8:0.4049512 9:-0.089553228 10:0.14008594 11:0.019309397 12:0.01928687 13:0.19667867 16:-0.76653323 17:0.31049691 18:-0.0032991004 19:0.1450791 20:-0.11755317 21:0.12108413 22:-0.44630662 23:-0.23249964 24:-0.50779741 25:-0.038164727 26:-0.00049881989 27:-0.014865359 28:0.46452576 29:0.38679584 30:0.00017923981 31:-0.13426116 32:0.023088588 33:0.054828194 34:0.26366663 35:-0.18887974 36:-0.35823258 37:-0.23279973 38:-0.57554879 39:0.42680024 
0.9663890628489524 1:0.40823968 2:0.44074399 3:0.16347584 4:-0.17851096 5:-0.48915569 6:-0.51580366 7:-0.33947903 8:0.16662981 9:-0.037701318 10:-0.30224117 11:0.023851621 12:0.23202098 13:0.36132335 16:0.15051365 17:-0.068615866 18:0.22505848 19:0.028518245 20:-0.43545567 21:0.43428508 22:-0.54709818 23:-0.089689745 24:-0.64157178 25:-0.090548436 26:0.02072427 27:0.39090808 28:-0.27173398 29:0.054293495 30:-0.028533831 31:-0.14019019 32:-0.030812649 33:0.034246815 34:0.21876141 35:-0.11768695 36:-0.30115367 37:-0.21144182 38:0.25298952 39:0.40156739 
3.207721572770758 1:0.41470964 2:0.46181305 3:0.28440996 4:-0.069513864 5:-0.53075832 6:-0.18654363 7:-0.10437084 8:0.18923278 9:-0.078306708 10:-0.057522001 11:0.058776892 12:-0.0041551677 13:0.3899269 16:0.93483385 17:-0.057239765 18:0.0063281145 19:0.23891579 20:-0.58825476 21:0.38999799 22:-0.430615 23:-0.083093965 24:-0.67799531 25:0.022026689 26:0.017702379 27:-0.049268019 28:-0.038859167 29:0.42485433 30:-0.016592098 31:-0.16771583 32:0.002119867 33:0.017881829 34:0.24685874 35:-0.17871866 36:-0.30953939 37:-0.18769135 38:-0.26601362 39:0.43489168 
3.566921144613582 1:0.040126293 2:0.13787184 3:0.16528605 4:0.097737065 5:-0.58979466 6:-0.33172006 7:-0.45314905 8:0.23965043 9:-0.13595997 10:-0.021397456 11:-0.020952814 12:0.21113229 13:0.3443448 16:0.1028346 17:-0.036104105 18:0.31019663 19:-0.088877031 20:-0.0717013 21:0.47408498 22:-0.60808623 23:-0.016863806 24:-0.44686742 25:-0.079370042 26:-0.064242537 27:0.29836538 28:-0.19311605 29:0.33062326 30:0.013907439 31:-0.1235226 32:0.013564702 33:0.053456666 34:0.26053278 35:-0.16001548 36:-0.37364281 37:-0.23248337 38:-0.15428569 39:0.27057945 
1.263305753483716 1:0.33889247 2:0.32714297 3:0.24913535 4:0.0079999451 5:-0.59920549 6:-0.2063138 7:-0.14610876 8:0.20830774 9:-0.18529218 10:-0.050529433 11:0.03287818 12:-0.029633349 13:0.26406613 16:0.9499436 17:-0.13356507 18:0.1158781 19:0.173393 20:-0.61251521 21:0.4766474 22:-0.5396111 23:-0.018666952 24:-0.66825978 25:0.012522483 26:-0.026021754 27:-0.039842744 28:0.24679666 29:0.41754341 30:-0.027703916 31:-0.17595244 32:-0.0083599668 33:0.025611639 34:0.24845539 35:-0.1931435 36:-0.32046929 37:-0.19494592 38:-0.53419984 39:0.44475707 
1.358396513254128 1:0.44942726 2:0.92432139 3:0.35098784 4:-0.52336735 5:-0.45512999 6:-0.16166832 7:-0.087795682 8:-0.1833711 9:0.1850467 10:-0.15079848 11:0.23375553 12:0.12519934 13:0.66355798 16:-0.412844 17:0.75209817 18:-0.10177436 19:-0.25881324 20:0.11874079 21:0.35023213 22:-0.19264394 23:-0.28846785 24:-0.36477247 25:-0.13548425 26:-0.49917367 27:0.12268854 28:-0.15036713 29:0.17812061 30:0.12831281 31:0.11507943 32:0.11957854 33:0.032119851 34:-0.081597401 35:0.3010311 36:-0.14473581 37:-0.53384836 38:0.40156309 39:0.42403185 
3.119736914086162 1:0.40743701 2:0.39011582 3:0.24254058 4:0.006012023 5:-0.55838333 6:-0.1776345 7:-0.078735985 8:0.2644529 9:-0.070054187 10:0.055528297 11:0.19626922 12:0.041675967 13:0.46523553 16:-0.37445389 17:0.86129753 18:-0.19839723 19:-0.13073569 20:0.048843839 21:0.10226475 22:-0.14697693 23:-0.29896557 24:-0.52530861 25:0.52546752 26:-0.27156073 27:-0.11329531 28:0.39568068 29:0.37144306 30:-0.095363329 31:-0.18692809 32:-0.026349418 33:0.038808226 34:0.24664274 35:-0.20913348 36:-0.33390015 37:-0.20021979 38:-0.60093109 39:0.44046327 
0.6535835084918354 1:0.042287697 2:0.31048947 3:0.25495532 4:-0.032360246 5:-0.64424535 6:-0.22639774 7:-0.21571478 8:0.12525506 9:-0.18091755 10:-0.041882453 11:-0.035734618 12:-0.13247543 13:0.34298956 16:0.65379901 17:0.102024 18:-0.44024919 19:0.067134748 20:-0.24230744 21:0.44548823 22:-0.51862125 23:-0.022251666 24:-0.35844867 25:0.063371451 26:-0.22795117 27:-0.10488317 28:0.36168741 29:0.41250677 30:0.0013626824 31:-0.13895267 32:0.0042215546 33:0.058005166 34:0.23610283 35:-0.17441628 36:-0.36664462 37:-0.18288758 38:-0.5187291 39:0.39957768 
0.090579228186853 1:0.52273991 2:0.84329403 3:0.16721553 4:-0.51234911 5:-0.2156055 6:-0.30200974 7:-0.11808394 8:-0.21850876 9:0.23222606 10:-0.041992666 11:-0.15045908 12:-0.20690426 13:0.47677904 16:0.88849331 17:0.071486052 18:-0.19794731 19:0.20120691 20:-0.4719983 21:0.48734263 22:-0.50587657 23:-0.12160049 24:-0.50620236 25:0.089521369 26:0.020801816 27:-0.76356482 28:0.32374448 29:0.28552204 30:-0.20449907 31:-0.12396363 32:-0.11172217 33:0.18566534 34:-0.36182563 35:0.081833971 36:-0.0079206662 37:-0.29296759 38:0.74480175 39:0.37075795 
0.08379950169100064 1:0.5337464 2:0.62849713 3:0.1945002 4:-0.29107541 5:-0.36446508 6:-0.13314247 7:-0.16143789 8:-0.043343112 9:0.15123204 10:0.16488656 11:0.11181085 12:-0.16179339 13:0.68283346 16:-0.59806005 17:0.94027739 18:-0.11832984 19:-0.36877583 20:0.19828971 21:0.3863845 22:-0.38543159 23:-0.28147062 24:-0.53942408 25:0.16566341 26:-0.18303103 27:-0.82196067 28:0.31524815 29:0.40519463 30:-0.073686008 31:-0.14392305 32:0.022672039 33:-0.00023607696 34:0.1555034 35:-0.15901808 36:-0.2526469 37:-0.17294727 38:0.46320682 39:0.36685794 
0.8550007614512304 1:0.36843456 2:0.28245383 3:0.088292371 4:-0.14425822 5:-0.58753109 6:-0.2137253 7:-0.25636098 8:0.063995139 9:-0.096597707 10:0.12691147 11:0.025294079 12:-0.32787142 13:0.06354747 16:0.64905187 17:0.027285964 18:-0.34800645 19:0.41127017 20:-0.74566693 21:0.47608551 22:-0.68380003 23:-0.02316307 24:-0.38538748 25:0.064278143 26:-0.2760782 27:-0.16972104 28:0.34062009 29:0.37963442 30:-0.045381564 31:-0.17515611 32:-0.013393469 33:0.02800286 34:0.24524941 35:-0.1875938 36:-0.30881713 37:-0.21908686 38:-0.41659662 39:0.26863924 
0.4689808992212374 1:0.55753575 2:0.38151369 3:0.0055887257 4:-0.33332599 5:-0.50974099 6:-0.29858055 7:-0.3621891 8:-0.11845362 9:-0.01482996 10:0.093085886 11:-0.001609135 12:-0.24757266 13:0.51333027 16:0.63214788 17:0.59217878 18:-0.30376788 19:-0.020163249 20:-0.37126396 21:0.39514283 22:-0.49248181 23:-0.12347004 24:-0.23811394 25:0.053981187 26:-0.32792639 27:-0.70033729 28:0.30733593 29:0.35389844 30:-0.095240954 31:-0.14052708 32:-0.048152335 33:0.0081709423 34:0.24396552 35:-0.19942648 36:-0.29097403 37:-0.13588304 38:0.17853474 39:0.25951546 
2.122251913549016 1:0.50903738 2:0.33890013 3:0.15659332 4:-0.017753793 5:-0.39858308 6:-0.066795749 7:-0.19531139 8:0.12362439 9:0.010871085 10:0.28431989 11:0.15599959 12:-0.10707733 13:0.42213825 16:-0.37067477 17:0.62358629 18:-0.00079681087 19:-0.3351639 20:-0.069219935 21:0.22881169 22:-0.35727289 23:-0.16027783 24:-0.036154589 25:-0.012357129 26:-0.42462698 27:-0.14742125 28:0.33604359 29:0.35895678 30:-0.077126246 31:-0.15041731 32:-0.044267879 33:0.0023175796 34:0.25195532 35:-0.15809862 36:-0.34308664 37:-0.12667327 38:-0.21187836 39:0.21096657 
0.4226555681776579 1:0.49712187 2:0.58243797 3:0.10722194 4:-0.058643956 5:-0.10382583 6:-0.22134571 7:0.063484252 8:0.082684208 9:0.028170607 10:0.18355631 11:0.074532828 12:-0.22963605 13:-0.0318393 16:0.12694944 17:-0.19751204 18:0.4669864 19:0.2771821 20:-0.72972643 21:0.43031959 22:-0.71059622 23:0.053388441 24:-0.060088725 25:-0.079507171 26:-0.3485584 27:-0.14804933 28:0.20022089 29:0.25059028 30:-0.248374 31:-0.37006295 32:-0.12722323 33:-0.17630726 34:0.092274778 35:-0.071639856 36:0.0077899128 37:0.3058751 38:-0.039949656 39:0.14130433 
1.081173571657226 1:0.11584847 2:-0.48162368 3:-0.02660611 4:0.32719079 5:-0.65620965 6:-0.087558671 7:-0.49191219 8:0.34829129 9:-0.23796189 10:0.33372959 11:-0.12766067 12:0.023906209 13:-0.099374705 14:1 15:1 16:0.43748477 17:0.18569696 18:-0.59246679 19:0.77379677 20:-0.71655166 21:0.4826595 22:-0.69800796 23:0.11498264 24:-0.030372248 25:-0.073703602 26:0.003890618 27:0.12511837 28:0.44581323 29:0.45664071 30:0.046574443 31:-0.11501682 32:0.071417541 33:0.049993666 34:0.2736369 35:-0.18770032 36:-0.38421048 37:-0.28914838 38:-0.7170124 39:-0.40161833 
0.001979255129307199 1:0.17662914 2:0.73793974 3:0.13721606 4:-0.64025028 5:-0.34580206 6:-0.11805598 7:-0.30614889 8:-0.39445573 9:0.3371756 10:0.16675234 11:-0.073139193 12:-0.26615506 13:0.65870602 16:0.78076817 17:0.13012081 18:-0.51334946 19:0.34831548 20:-0.67659186 21:0.39645315 22:-0.57102497 23:-0.086544744 24:0.13318811 25:0.044649378 26:-0.253729 27:-0.72768535 28:-0.1904491 29:0.49264352 30:0.042038994 31:0.15056413 32:-0.064821546 33:0.17714308 34:-0.10151076 35:-0.28221598 36:-0.055537425 37:-0.47796005 38:0.80978866 39:0.1769622 
0.3000240375338232 1:0.52257937 2:0.73663824 3:0.052339611 4:-0.58672737 5:-0.28850712 6:-0.38382456 7:-0.35674877 8:-0.21081562 9:0.29591142 10:0.0020371996 11:0.067399874 12:-0.36248805 13:0.49926976 16:0.55156458 17:0.38508626 18:-0.12733321 19:0.34070426 20:-0.043728555 21:-0.18484767 22:0.016732336 23:-0.22039652 24:0.36163957 25:0.24728462 26:-0.59580896 27:-0.2613842 28:-0.052613458 29:0.24553655 30:-0.32899521 31:-0.134741 32:-0.14880279 33:0.33799031 34:0.080019981 35:-0.37804959 36:-0.17693223 37:-0.16139781 38:0.78148117 39:0.21011793 
0.6476768642805574 1:0.47429177 2:0.60980695 3:0.11558672 4:-0.35627419 5:-0.34971906 6:-0.26024332 7:-0.27456216 8:-0.058094125 9:0.26107086 10:0.1762576 11:-0.035294233 12:-0.2712049 13:0.6200642 16:-0.44345934 17:0.42755083 18:0.053973404 19:0.016141433 20:0.02055787 21:-0.18433455 22:-0.056702691 23:-0.26319171 24:-0.56398065 25:0.41066195 26:-0.37762149 27:-0.61209349 28:0.074315586 29:0.33368186 30:-0.0075443598 31:-0.15371258 32:-0.00055129072 33:-0.046595097 34:0.17432503 35:-0.082636954 36:-0.32642905 37:-0.19729973 38:0.74307358 39:0.24141711 
0.6499494037283851 1:0.09466281 2:0.50182319 3:-0.016229164 4:-0.26362187 5:-0.32176802 6:-0.47872973 7:0.0024584899 8:-0.0073730024 9:0.11028884 10:0.26180558 11:-0.20422876 12:-0.24674021 13:-0.016866914 14:1 16:0.65893618 17:-0.060506185 18:-0.23189488 19:0.89276916 20:-0.91534234 21:0.49365046 22:-0.82350477 23:-0.021984461 24:-0.0028132059 25:0.085993852 26:-0.3622114 27:-0.44829172 28:0.36497584 29:0.34932709 30:-0.15412059 31:-0.254675 32:-0.16236127 33:-0.26680551 34:-0.21388158 35:0.15610051 36:0.17316402 37:0.17559026 38:0.0040831045 39:0.25328989 
0.1866547835889136 1:0.54268964 2:0.21208333 3:-0.05558243 4:-0.32090445 5:-0.67937128 6:-0.41117363 7:-0.48121806 8:-0.065620996 9:-0.020682517 10:0.2085393 11:0.025178466 12:-0.18359183 13:0.50026373 14:1 16:0.28233966 17:0.1506546 18:-0.048798999 19:0.29721686 20:-0.34445777 21:0.15566981 22:-0.26221639 23:-0.31246489 24:-0.18556671 25:0.024804279 26:-0.20262039 27:-0.77792226 28:0.4921312 29:0.38129098 30:-0.031188405 31:-0.16020567 32:-0.017930432 33:0.010196675 34:0.25603 35:-0.17689731 36:-0.33334791 37:-0.14171515 38:-0.041033096 39:0.28289362 
0.62595061823263 1:0.51563579 2:0.34356124 3:-0.029088305 4:-0.27965067 5:-0.57397543 6:-0.37720763 7:-0.39091181 8:-0.088351164 9:-0.07029693 10:0.085189263 11:0.0090515547 12:-0.30381552 13:0.28987318 16:0.95370852 17:0.017429173 18:-0.1499701 19:0.71570579 20:-0.41293976 21:0.21527717 22:-0.43289317 23:0.057151614 24:-0.4615782 25:-0.0057171209 26:-0.33261994 27:-0.086165302 28:0.10186667 29:0.33856821 30:-0.088115901 31:-0.14743075 32:-0.05903858 33:-0.10115653 34:0.2834401 35:-0.11037098 36:-0.37529812 37:-0.24678422 38:0.26682724 39:0.28226024 
0.482195777724647 1:0.47705285 2:0.54041404 3:0.0018681648 4:-0.43264022 5:-0.48288914 6:-0.4208655 7:-0.30807087 8:-0.17113926 9:0.05755041 10:0.062343458 11:-0.036338548 12:-0.38268786 13:0.29557783 14:1 16:0.37390274 17:0.029258501 18:0.24782958 19:0.34454885 20:-0.21071455 21:0.01441389 22:-0.27554656 23:-0.13276964 24:-0.53893953 25:0.19172308 26:-0.37307222 27:-0.36333364 28:0.075344258 29:0.32081258 30:-0.15727383 31:-0.10351187 32:-0.087253718 33:-0.0899446 34:0.16872169 35:-0.018467203 36:-0.33352611 37:-0.19618344 38:0.64239479 39:0.321457 
0.138731581663307 1:0.065097159 2:0.54201355 3:0.015759566 4:-0.26167642 5:-0.27422927 6:-0.52787143 7:-0.10144957 8:0.029240487 9:0.13655862 10:0.047618665 11:-0.26960466 12:-0.1360324 13:0.078322581 16:0.75756447 17:-0.04661814 18:-0.58590031 19:0.61048357 20:-0.61744891 21:0.12616578 22:-0.32008227 23:-0.12777886 24:0.41615716 25:0.020259508 26:-0.068053996 27:-0.54964931 28:0.15032337 29:0.2076641 30:-0.2663296 31:-0.2334435 32:0.074945396 33:-0.50318269 34:0.047677849 35:0.14399366 36:0.34189406 37:-0.1359562 38:0.32010923 39:0.3000933 
0.217314781163752 1:0.16561743 2:0.61031033 3:-0.016314069 4:-0.45583518 5:-0.36404713 6:-0.7105435 7:-0.19804669 8:-0.19985532 9:0.14202256 10:-0.0098074992 11:-0.40677116 12:-0.22738245 13:0.067564331 16:0.97786708 17:-0.15837552 18:0.38985156 19:0.74709144 20:-0.65456325 21:0.061262121 22:-0.29011445 23:-0.056773477 24:-0.19240537 25:0.1234992 26:0.02505793 27:-0.74773951 28:0.092089497 29:0.32860751 30:-0.21606458 31:-0.1885251 32:-0.13514353 33:-0.063747228 34:-0.58361173 35:0.35732574 36:0.24464953 37:-0.04324957 38:0.57448981 39:0.3508508 
0.3775958829126292 1:0.54639318 2:0.26195056 3:0.1702015 4:-0.020151776 5:-0.58993927 6:-0.25130427 7:-0.20665917 8:0.25624189 9:-0.0079063 10:0.21449359 11:0.043093441 12:-0.2408255 13:-0.010318005 16:0.71581224 17:-0.27915459 18:0.56850471 19:0.4402541 20:-0.27372409 21:-0.16022888 22:0.22882727 23:-0.22636884 24:-0.28781538 25:-0.11000059 26:-0.036927164 27:-0.26113125 28:0.52386963 29:0.33653431 30:-0.059371002 31:-0.17593277 32:-0.0034232476 33:-0.016783299 34:0.27612938 35:-0.17657975 36:-0.36130357 37:-0.11057604 38:-0.41431112 39:0.4234707 
6.460216497906906 1:0.27338519 2:0.029472548 3:0.28383052 4:0.24701091 5:-0.69590102 6:-0.091370498 7:-0.22113489 8:0.50990812 9:0.031514293 10:0.42219975 11:0.052894947 12:-0.091572756 13:-0.070330627 16:-0.22499705 17:-0.2005877 18:0.49809604 19:0.33744899 20:-0.18769667 21:-0.19636885 22:-0.12091043 23:-0.29641749 24:-0.29874162 25:-0.061717456 26:0.076630146 27:-0.07685712 28:0.50673609 29:0.46205425 30:0.062348844 31:-0.10564891 32:0.075679759 33:0.056143634 34:0.28284751 35:-0.1893796 36:-0.40315331 37:-0.29746247 38:-0.72399154 39:0.42440858 
1.084282763324345 1:0.42363761 2:0.0069851821 3:0.13241822 4:0.28226481 5:-0.45709646 6:-0.12202126 7:-0.38987584 8:0.2640907 9:-0.04119089 10:0.45980749 11:0.1560243 12:-0.061337204 13:-0.15065666 16:0.22880042 17:-0.046591398 18:0.019548937 19:0.61465311 20:-0.68586707 21:-0.17457661 22:0.095131406 23:0.063533268 24:-0.11447519 25:-0.05996405 26:-0.15961789 27:-0.049852338 28:0.38452472 29:0.38022824 30:-0.052394443 31:-0.16875874 32:-0.015425001 33:0.031634032 34:0.23593442 35:-0.18925242 36:-0.33947592 37:-0.17630323 38:-0.60122947 39:0.38749502 
0.7638750315879582 1:0.52512856 2:0.82136164 3:0.18416337 4:-0.63338397 5:-0.31501804 6:-0.43900089 7:-0.35056235 8:-0.19727778 9:0.5216747 10:-0.20163802 11:-0.49835873 12:-0.051158852 13:0.13463511 16:0.88711613 17:-0.32665913 18:0.16428035 19:0.76373805 20:-0.46686593 21:-0.14807904 22:0.36964944 23:-0.21940436 24:-0.4588022 25:0.27367358 26:-0.10296495 27:-0.8402191 28:-0.043942402 29:0.093482646 30:-0.3239356 31:0.63291032 32:-0.02255575 33:0.060380673 34:-0.62249321 35:0.28957401 36:0.16645038 37:-0.73478058 38:0.80929993 39:0.44243103 
0.5230652838779122 1:0.090867673 2:0.28453644 3:0.051950552 4:-0.33679608 5:-0.70148501 6:-0.41732745 7:-0.42700997 8:0.046200312 9:0.071903478 10:-0.017346789 11:-0.21175088 12:-0.35179895 13:0.32797555 16:0.99261253 17:-0.39932014 18:0.097176739 19:0.90716974 20:-0.60353673 21:-0.11595913 22:0.57065736 23:-0.19837275 24:-0.57402518 25:0.3340923 26:-0.09333266 27:-0.74473735 28:0.11721764 29:0.41412134 30:0.032685987 31:-0.065880326 32:-0.01780098 33:0.093697369 34:0.24785778 35:-0.20706497 36:-0.37657656 37:-0.27166303 38:0.2394234 39:0.41575411 
0.3620109504641678 1:0.53558625 2:0.41610744 3:0.10119812 4:-0.31907926 5:-0.65666572 6:-0.55099049 7:-0.453607 8:-0.053134508 9:-0.015595215 10:-0.16014501 11:-0.42788817 12:-0.63048547 13:-0.18584024 14:1 16:0.77887397 17:-0.47509887 18:0.12807314 19:0.81802948 20:-0.42317236 21:-0.17306284 22:0.14009775 23:-0.13306361 24:-0.2549995 25:0.22428374 26:-0.091536116 27:-0.72407754 28:0.19620721 29:0.38436212 30:-0.057406597 31:-0.12328764 32:0.0024065007 33:-0.0084914997 34:0.21745068 35:-0.17865608 36:-0.29401927 37:-0.16375561 38:0.17338784 39:0.49429576 
0.6573422672124243 1:0.51932359 2:0.15436983 3:0.12349294 4:0.017273498 5:-0.60564596 6:-0.26489454 7:-0.25538781 8:0.29916144 9:-0.019960298 10:0.19947205 11:-0.020677499 12:-0.21179618 13:-0.15905594 16:0.84960891 17:-0.64028193 18:0.042796208 19:0.75312784 20:-0.34791511 21:-0.25022946 22:0.038071063 23:-0.10320506 24:-0.43247662 25:-0.1222517 26:-0.025020096 27:-0.19318253 28:0.32486761 29:0.36783966 30:-0.063717185 31:-0.17274921 32:-0.0091833853 33:0.018682199 34:0.25041879 35:-0.17839866 36:-0.33157512 37:-0.14556217 38:-0.41042568 39:0.36475749 
1.447220740521716 1:0.46733641 2:0.071617902 3:0.0081935599 4:0.008811447 5:-0.64867517 6:-0.31450152 7:-0.38588157 8:0.21933379 9:-0.069606727 10:0.19048448 11:-0.04750931 12:-0.2457385 13:-0.19058258 16:0.23355059 17:-0.47142976 18:-0.19129721 19:0.52049145 20:-0.021464333 21:-0.44305995 22:-0.38328561 23:0.078075307 24:-0.55756103 25:-0.078047961 26:0.043527333 27:-0.22742787 28:0.38107541 29:0.35697015 30:-0.066070139 31:-0.17781746 32:-0.0087875749 33:0.011936744 34:0.23686463 35:-0.2059022 36:-0.35942513 37:-0.17896367 38:-0.59911174 39:0.47223034 
0.5371780805927271 1:0.21126529 2:0.31873106 3:0.0013959513 4:-0.071173482 5:-0.42737475 6:-0.63396589 7:-0.10917142 8:0.11326566 9:0.0097468601 10:0.24582525 11:-0.17998923 12:-0.043031563 13:-0.28181848 16:0.67617422 17:-0.46831042 18:0.1247548 19:0.65037304 20:-0.38009125 21:-0.20763871 22:0.082802044 23:-0.048763051 24:-0.43142432 25:-0.13767761 26:0.11152159 27:-0.23005352 28:0.24008996 29:0.32053792 30:-0.16029276 31:-0.26738141 32:-0.17980418 33:-0.20843386 34:-0.26841549 35:0.33376069 36:0.17400499 37:0.2209171 38:-0.20811718 39:0.33667923 
1.50605151756521 1:0.41293429 2:-0.063106839 3:-0.0081961508 4:0.0098067063 5:-0.7160641 6:-0.36412495 7:-0.36065625 8:0.32438401 9:-0.04965023 10:0.22793841 11:0.036340068 12:0.035347731 13:0.15611204 16:-0.59408287 17:-0.16035254 18:0.43324188 19:0.51433834 20:-0.91684709 21:0.37027763 22:-0.24932439 23:-0.2299475 24:-0.45745211 25:-0.28018314 26:0.18135069 27:-0.1792183 28:0.37740229 29:0.37735657 30:-0.046776309 31:-0.16942973 32:0.010082126 33:0.002251901 34:0.24714362 35:-0.19076164 36:-0.35655063 37:-0.15218576 38:-0.49129147 39:0.27007327 
3.08023613548339 1:0.30830885 2:0.0054336911 3:0.048087303 4:0.075725101 5:-0.62266605 6:-0.23736011 7:-0.2993199 8:0.31598615 9:-0.04245037 10:0.31050532 11:0.12287402 12:-0.0099047176 13:0.025270986 16:-0.88600129 17:0.40665606 18:0.32545636 19:0.4941224 20:-0.74469435 21:0.34702273 22:-0.29892423 23:-0.20719599 24:-0.25739299 25:-0.35530863 26:0.11946864 27:-0.078724293 28:0.3756888 29:0.37729037 30:-0.046776491 31:-0.18141166 32:0.0214791 33:-0.0060347104 34:0.24593152 35:-0.18685312 36:-0.36016548 37:-0.15446599 38:-0.48500056 39:0.2299487 
0.5923393967825368 1:0.37275502 2:0.72466485 3:0.094063941 4:-0.50581179 5:-0.2147666 6:-0.25175058 7:-0.05727731 8:-0.063270117 9:0.37387639 10:0.15072919 11:-0.045018685 12:-0.24643713 13:0.02228034 16:-0.67871698 17:-0.27930907 18:-0.01620399 19:0.9139017 20:-0.66981497 21:0.067918584 22:-0.70127781 23:0.26029052 24:-0.77950079 25:-0.0041033474 26:-0.06719979 27:-0.91285086 28:0.11112497 29:0.18238892 30:-0.28299506 31:-0.031744724 32:0.27534719 33:-0.11845493 34:-0.40064358 35:0.075531591 36:0.19429172 37:-0.41550018 38:0.81205606 39:0.33177925 
0.05661797063466789 1:0.33243671 2:0.55106187 3:0.08385557 4:-0.33032851 5:-0.30978095 6:-0.14744401 7:-0.095210229 8:0.035070593 9:0.24762829 10:0.029707111 11:-0.25479329 12:-0.58443938 13:-0.14389348 16:-0.74907601 17:-0.45339387 18:0.22871616 19:0.9314613 20:-0.43739499 21:0.1033039 22:-0.7462481 23:0.1749097 24:-0.4510683 25:0.046326564 26:-0.046431551 27:-0.82791867 28:0.22950616 29:0.32453717 30:-0.12988355 31:-0.15508911 32:0.15307693 33:-0.13354843 34:0.12757858 35:-0.24541697 36:-0.16606119 37:-0.30181478 38:0.80351831 39:0.31065652 
1.077347052309047 1:0.23598407 2:0.8160578 3:0.36737791 4:-0.59691728 5:-0.16192879 6:0.31068249 7:-0.097426985 8:-0.19467698 9:0.55390891 10:0.054628586 11:-0.40479743 12:-0.2914973 13:0.049012584 16:-0.87046644 17:0.00649215 18:-0.80657424 19:0.99926675 20:-0.51258802 21:0.30859936 22:-0.70208833 23:0.54669554 24:-0.52463297 25:-0.10759329 26:0.0060362151 27:-1 28:-0.17536468 29:0.19573698 30:0.20135781 31:-0.12170884 32:0.80540988 33:-0.37855523 34:-0.029185112 35:-0.082924017 36:0.16674048 37:-0.61591093 38:0.8976244 39:0.23681962 
1.551047006014407 1:0.14445128 2:0.50310433 3:0.21500554 4:-0.047146963 5:-0.34535235 6:0.095742463 7:0.18350322 8:0.38707891 9:0.11553523 10:0.14527029 11:0.23600035 12:-0.2341007 13:-0.031764813 16:-0.9390433 17:-0.19149893 18:-0.020363282 19:0.89987956 20:-0.34699745 21:0.29071618 22:-0.74509976 23:0.40066196 24:-0.52035485 25:-0.33113925 26:0.23592002 27:-0.38638929 28:0.24952937 29:0.33814244 30:-0.10901868 31:-0.23443779 32:0.076824165 33:-0.13026257 34:0.34792862 35:-0.23456459 36:-0.24998283 37:-0.35976873 38:-0.2538434 39:0.30470943 
3.097337883942323 1:-0.1316926 2:-0.10352664 3:0.16395472 4:0.23660829 5:-0.5913525 6:0.11145267 7:-0.11382322 8:0.50526679 9:-0.049608785 10:0.29672065 11:-0.05328574 12:-0.063212202 13:-0.023315922 16:-0.9528525 17:0.24926148 18:-0.74456182 19:0.89992697 20:-0.65912623 21:0.43292765 22:-0.62859625 23:0.33867227 24:-0.55218993 25:0.0620408 26:0.047168934 27:-0.20357141 28:0.48829162 29:0.47682868 30:0.066319197 31:-0.10703063 32:0.074408762 33:0.07157754 34:0.26320362 35:-0.20091184 36:-0.38845609 37:-0.29312998 38:-0.68937341 39:0.18097048 
2.689519470452485 1:0.060382807 2:0.50187701 3:0.24868397 4:-0.069574135 5:-0.38747991 6:0.10126096 7:0.24078821 8:0.40003441 9:0.10399409 10:0.19180783 11:0.31343755 12:-0.22236632 13:-0.1007862 16:-0.89750489 17:-0.55891619 18:0.1206324 19:0.88344941 20:-0.39608682 21:0.34413444 22:-0.78459195 23:0.50221072 24:-0.49817016 25:-0.3674863 26:0.18825064 27:-0.2820921 28:0.30780214 29:0.3686612 30:-0.10223973 31:-0.22059927 32:0.083967362 33:-0.13152155 34:0.34119387 35:-0.13782466 36:-0.29159099 37:-0.23762515 38:-0.53305695 39:0.30355546 
2.87197849790996 1:0.048917075 2:0.46613688 3:0.27736382 4:-0.034587172 5:-0.46176524 6:-0.043766317 7:0.023432104 8:0.16367632 9:-0.089767853 10:0.13636774 11:0.22538245 12:-0.23056345 13:-0.18290193 15:1 16:-0.48117507 17:-0.17601972 18:-0.088762237 19:0.22537868 20:-0.45054511 21:0.3259254 22:-0.72351519 23:0.16989383 24:-0.38969202 25:-0.29092417 26:-0.30556831 27:-0.021202569 28:0.39001686 29:0.35620061 30:-0.09451226 31:-0.16985161 32:0.033980286 33:-0.025915376 34:0.19702938 35:-0.10829325 36:-0.35413519 37:-0.079511286 38:-0.45253308 39:0.31111205 
7.958236552597392 1:-0.019938806 2:0.47413997 3:0.30938101 4:0.038571678 5:-0.45712058 6:0.032309907 7:0.025964422 8:0.29921109 9:-0.008807819 10:0.13431096 11:0.30243072 12:-0.10542506 13:0.093819355 16:-0.4264733 17:-0.0016832675 18:0.17885847 19:0.21265355 20:-0.13083966 21:-0.037788578 22:-0.06037208 23:-0.084450371 24:-0.5165304 25:-0.38099028 26:-0.13526878 27:-0.1066199 28:0.39725511 29:0.36972381 30:-0.15604423 31:-0.16132561 32:0.15337598 33:-0.031598142 34:0.29251645 35:-0.42738633 36:-0.25686462 37:-0.22236427 38:-0.68011655 39:0.4065409 
18.79413980383422 1:-0.29380964 2:-0.084138904 3:0.23272061 4:0.35702821 5:-0.52067779 6:0.15600107 7:-0.11715654 8:0.44251352 9:-0.17775569 10:0.2977151 11:0.12553565 12:0.11702328 13:-0.048735055 16:-0.42886914 17:0.12444715 18:-0.056407201 19:0.07509474 20:-0.18097811 21:0.3474118 22:-0.37384896 23:0.02711757 24:-0.42035399 25:-0.089676348 26:-0.0076942382 27:0.060805914 28:0.46770287 29:0.4595011 30:0.043032201 31:-0.10679391 32:0.046451276 33:0.06702168 34:0.26397957 35:-0.19642936 36:-0.39176312 37:-0.26510182 38:-0.71167472 39:0.10435384 
4.837208352595623 1:-0.11187605 2:0.56536537 3:0.3642089 4:-0.011839729 5:-0.3963959 6:0.088315342 7:0.095084926 8:0.29499268 9:0.04986091 10:0.10341114 11:0.3152562 12:-0.1461991 13:-0.0094561739 16:-0.85505542 17:0.082970521 18:-0.05510139 19:0.16095116 20:0.37477506 21:-0.13370988 22:-0.17702643 23:0.071715933 24:-0.52974175 25:-0.52925242 26:-0.001208859 27:-0.14151564 28:0.32179443 29:0.37005581 30:-0.22923112 31:-0.12259551 32:0.27885591 33:-0.048585035 34:0.23377047 35:-0.48889337 36:-0.16389791 37:-0.25127877 38:-0.37992677 39:0.38148738 
2.389111318961181 1:-0.048240111 2:0.29275826 3:0.36340593 4:0.24663571 5:-0.42506265 6:0.028855633 7:0.027146282 8:0.60304953 9:0.15098352 10:0.39504586 11:0.081677606 12:-0.098584968 13:-0.057094761 14:-1 16:0.15834827 17:-0.018523069 18:-0.21846906 19:0.12427337 20:0.065635113 21:-0.15772882 22:-0.32608042 23:-0.18460005 24:-0.36245774 25:-0.05929221 26:-0.13371065 27:0.00032642872 28:0.35825209 29:0.34637053 30:-0.025668953 31:-0.18809803 32:0.086975495 33:-0.039511332 34:0.26096131 35:-0.11955962 36:-0.24479256 37:-0.2340126 38:-0.52352302 39:0.44117694 
11.72646653322703 1:-0.19320596 2:0.29844704 3:0.43046063 4:0.34519965 5:-0.48663519 6:-0.18045242 7:-0.20700129 8:0.50792781 9:0.080406837 10:0.34001087 11:-0.026110706 12:-0.084799263 13:0.01607109 16:-0.74871906 17:0.02497163 18:0.085482719 19:0.082783179 20:0.36395452 21:-0.37383492 22:-0.1891756 23:-0.20617645 24:-0.34053316 25:0.17396503 26:-0.059762791 27:-0.099551697 28:0.35688207 29:0.41294612 30:-0.026457148 31:-0.19243432 32:0.013681818 33:-0.016152053 34:0.30529277 35:-0.16699231 36:-0.2893968 37:-0.19057614 38:-0.5124492 39:0.51077186 
1.271038607242085 1:-0.57561297 2:0.11970247 3:0.12760864 4:-0.076037318 5:-0.58104458 6:-0.17397776 7:-0.20121894 8:0.48532573 9:0.13506708 10:0.28406314 11:-0.10049778 12:-0.3444383 13:-0.1416341 16:-0.8941516 17:-0.049688732 18:0.111798 19:0.83515393 20:-0.31843178 21:0.012281441 22:-0.34545423 23:-0.23785197 24:-0.12503223 25:-0.088654985 26:-0.081293812 27:-0.053094693 28:0.11321884 29:0.35685357 30:0.12811147 31:-0.29976535 32:-0.10954592 33:0.32532809 34:0.055960954 35:0.23135607 36:-0.34005242 37:-0.30148699 38:-0.33717024 39:0.47247319 
2.212307255680051 1:-0.33939877 2:0.33381623 3:0.34979098 4:-0.061444966 5:-0.5121343 6:0.042531045 7:-0.072538886 8:0.42828423 9:0.23422762 10:0.25618132 11:-0.19199487 12:-0.26197796 13:0.26238672 16:-0.6431629 17:-0.1446389 18:0.7139248 19:0.15474775 20:-0.25856482 21:0.32419754 22:-0.76012697 23:-0.3078486 24:-0.13231981 25:-0.10880245 26:0.0051465785 27:-0.37066907 28:-0.068830025 29:0.49963029 30:0.49548559 31:-0.40462004 32:0.50362732 33:-0.22060662 34:0.44223125 35:-0.12370928 36:-0.39786763 37:0.03665937 38:-0.45358165 39:0.5228675 
6.573788838707723 1:0.40675926 2:0.25270502 3:0.25636131 4:0.0056288886 5:-0.69658181 6:-0.32495472 7:-0.11524108 8:0.38472823 9:-0.046787557 10:-0.015961007 11:-0.1399237 12:-0.20508285 13:0.086662023 16:0.079841177 17:0.0092592672 18:-0.25116856 19:0.41362891 20:-0.21018472 21:0.10572392 22:-0.52869271 23:-0.20959081 24:-0.44242497 25:0.10482114 26:-0.12691157 27:0.0011378877 28:0.37257046 29:0.3964305 30:-0.059210329 31:-0.15574957 32:-0.0095477135 33:0.038393873 34:0.23350806 35:-0.18703603 36:-0.30347249 37:-0.18387694 38:-0.51937738 39:0.51707035 
1.436438764079325 1:0.38704807 2:0.16630228 3:0.18278298 4:0.0084248599 5:-0.70439708 6:-0.31974123 7:-0.1852616 8:0.31737981 9:-0.13785439 10:-0.019754615 11:-0.16311235 12:-0.24010825 13:-0.053999635 15:1 16:0.1108343 17:-0.46137346 18:0.16117555 19:0.34861472 20:0.052133312 21:-0.14353817 22:-0.37124481 23:-0.14759977 24:-0.38053333 25:0.13151449 26:-0.21812339 27:0.037637303 28:0.38845778 29:0.39446358 30:-0.048983558 31:-0.17237555 32:0.0013437429 33:0.014991456 34:0.25101685 35:-0.17485145 36:-0.34386332 37:-0.16786273 38:-0.54455557 39:0.48184078 
0.6755131280040859 1:0.13672621 2:0.1978144 3:0.21916965 4:0.039583413 5:-0.67555088 6:-0.33377101 7:-0.15004949 8:0.39144924 9:-0.055898282 10:0.014524158 11:-0.1601664 12:-0.16550224 13:0.10109218 14:1 15:1 16:0.088160141 17:0.029734797 18:-0.21259525 19:0.39858749 20:-0.27516668 21:0.15429946 22:-0.49762856 23:-0.21688495 24:-0.42252897 25:0.13071023 26:-0.10818873 27:0.0080407798 28:0.37927378 29:0.3880148 30:-0.06514335 31:-0.17057976 32:-0.020449816 33:0.02459171 34:0.23026209 35:-0.17761525 36:-0.29784023 37:-0.15265248 38:-0.50938497 39:0.47950357 
0.1034152347251713 1:0.31813525 2:0.35538243 3:0.34824906 4:0.054399002 5:-0.6486854 6:-0.27049667 7:-0.088149257 8:0.38301199 9:-0.0015516518 10:0.078761591 11:-0.066802332 12:-0.26148542 13:0.049496265 16:0.066771472 17:-0.24711665 18:-0.067794201 19:0.38160822 20:0.030604287 21:-0.24508279 22:-0.37434254 23:-0.17914221 24:-0.46613426 25:0.29063233 26:-0.45570721 27:0.081854849 28:0.39778748 29:0.40017755 30:-0.040456336 31:-0.17412004 32:0.011090082 33:0.0591552 34:0.22211508 35:-0.18611942 36:-0.31945847 37:-0.18225616 38:-0.51767655 39:0.55779151 
0.5777733516870958 1:0.16893264 2:0.17957424 3:0.12378082 4:0.090760938 5:-0.51585422 6:-0.30464724 7:-0.27314241 8:0.25196772 9:-0.062043493 10:0.2040936 11:-0.071167125 12:-0.095700038 13:0.13692617 15:1 16:-0.0012527942 17:0.2226783 18:0.042651658 19:0.21343043 20:-0.26725749 21:0.019375753 22:-0.17585402 23:-0.24578757 24:-0.29588939 25:0.19249693 26:-0.36092695 27:0.014134537 28:0.3405374 29:0.35590134 30:-0.090697323 31:-0.20716154 32:-0.079844402 33:-0.016934643 34:0.21570389 35:-0.17379051 36:-0.29475377 37:0.010919984 38:-0.41813975 39:0.24538065 
0.358340453661869 1:0.31005793 2:0.54792885 3:0.1179507 4:-0.34384963 5:-0.56222772 6:-0.35288395 7:-0.098839805 8:0.049211676 9:0.059859497 10:0.033383909 11:0.050189748 12:-0.39869012 13:0.100894 16:0.88115765 17:-0.20898185 18:-0.16219066 19:0.90393752 20:-0.73979915 21:0.27980323 22:-0.59475305 23:-0.22084301 24:-0.22504289 25:-0.016264816 26:-0.42723531 27:-0.16274935 28:0.28620015 29:0.29202848 30:-0.092644113 31:-0.34968197 32:0.23844651 33:0.040833841 34:-0.1580407 35:-0.036726768 36:-0.12638039 37:-0.20399025 38:-0.12718131 39:0.47610353 
0.6796588964150364 1:0.5174701 2:0.79348569 3:0.21605523 4:-0.60569129 5:-0.49745402 6:-0.27665165 7:-0.20431821 8:-0.30346055 9:0.23158445 10:0.11265017 11:-0.093614531 12:-0.52620865 13:0.11959045 14:-1 16:0.87997037 17:-0.17421118 18:-0.069336255 19:0.90913914 20:-0.67824155 21:0.070897995 22:-0.37460328 23:-0.22501565 24:-0.12097953 25:-0.13120326 26:-0.14999482 27:-0.37372149 28:0.0080580607 29:0.31358477 30:-0.093325332 31:0.14673286 32:-0.039345075 33:0.16633155 34:-0.47345479 35:-0.064991605 36:0.034614662 37:-0.82637844 38:0.91213148 39:0.46171219 
1.114790840731186 1:0.10535444 2:0.1398527 3:0.19500317 4:-0.12121953 5:-0.82026402 6:-0.12712166 7:-0.20698998 8:0.19462058 9:-0.020424373 10:0.33034869 11:-0.021313055 12:-0.44027295 13:0.15481028 15:-1 16:0.90934927 17:-0.083767059 18:-0.67047671 19:0.9554077 20:-0.61381084 21:0.17801823 22:-0.66056629 23:-0.26105816 24:0.16738513 25:-0.058121266 26:-0.28059825 27:0.20556065 28:0.62605389 29:0.52787192 30:0.10185459 31:-0.083706984 32:0.047870714 33:0.11131138 34:0.25151679 35:-0.19344131 36:-0.38957196 37:-0.31117734 38:-0.68315374 39:0.47179508 
0.3360858219825942 1:0.41443411 2:0.38439917 3:0.12377167 4:-0.19728856 5:-0.63677572 6:-0.30405987 7:-0.26635316 8:0.079260843 9:0.010836811 10:0.16755098 11:0.010295871 12:-0.42257434 13:0.1287369 16:0.99063259 17:-0.2560219 18:0.31754355 19:0.93381712 20:-0.73714354 21:0.11324452 22:-0.38420744 23:-0.26400603 24:-0.11272562 25:-0.14504718 26:-0.15721008 27:-0.056815403 28:0.34039503 29:0.3775741 30:-0.060129353 31:-0.16843964 32:-0.019185071 33:0.005155934 34:0.25265827 35:-0.18849638 36:-0.33910824 37:-0.19617861 38:-0.31060911 39:0.45079393 
1.855217036099025 1:0.21446828 2:-0.13897381 3:0.091602585 4:0.16082928 5:-0.68295019 6:-0.0820043 7:-0.33205368 8:0.30520872 9:-0.15425244 10:0.32405636 11:-0.082045063 12:-0.26339038 13:-0.32079493 16:0.9141462 17:-0.29841235 18:0.41024469 19:0.88252561 20:-0.77466898 21:0.078407602 22:-0.16218823 23:-0.16469116 24:-0.049189736 25:-0.14958646 26:-0.13104579 27:0.15297641 28:0.46212145 29:0.45330425 30:0.03567705 31:-0.11640009 32:0.057781458 33:0.059048347 34:0.26021977 35:-0.18630816 36:-0.37924871 37:-0.27410973 38:-0.70562804 39:0.14716391 
0.4348596142323643 1:0.47353952 2:0.33317021 3:0.097497386 4:-0.15994409 5:-0.53314239 6:-0.19962705 7:-0.29967169 8:0.02299655 9:0.038909709 10:0.30663501 11:0.0046975101 12:-0.54206845 13:-0.06767712 14:-1 16:0.94118424 17:-0.18203656 18:0.057413465 19:0.76453942 20:-0.68103345 21:0.078432149 22:-0.51274023 23:-0.11960903 24:0.67763724 25:-0.2030342 26:-0.13998308 27:-0.29273581 28:0.39877783 29:0.38192888 30:-0.0655271 31:-0.14569318 32:-0.012793829 33:0.0068092292 34:0.23924626 35:-0.18161567 36:-0.32903483 37:-0.19495119 38:-0.12696649 39:0.23388091 
1.727591126408803 1:0.27328513 2:0.14659156 3:-0.040498885 4:-0.28221358 5:-0.70686175 6:-0.32720159 7:-0.53189389 8:-0.082288567 9:-0.065823257 10:0.22706999 11:0.032322388 12:-0.37380096 13:0.065825077 16:0.72969393 17:-0.012572369 18:-0.23272814 19:0.49207049 20:-0.53684456 21:0.11248931 22:-0.66849847 23:0.045777951 24:0.3260277 25:-0.25580705 26:-0.060722401 27:-0.23141066 28:0.2170152 29:0.42745849 30:0.015482943 31:-0.1408802 32:0.043077638 33:0.061930691 34:0.26720652 35:-0.18780113 36:-0.36785465 37:-0.26695674 38:-0.23996121 39:0.19823194 
0.01145184966609949 1:0.56112516 2:0.21464053 3:0.16222519 4:0.10749249 5:-0.45053781 6:-0.10280229 7:-0.36359074 8:0.11587106 9:-0.035209223 10:0.39640509 11:0.12178083 12:-0.16502802 13:0.03175965 16:0.30764558 17:-0.15209904 18:0.29341499 19:0.2548782 20:-0.47807917 21:-0.05717764 22:-0.019226695 23:-0.20124659 24:0.092766163 25:-0.4000182 26:0.12324414 27:-0.50540806 28:0.55131728 29:0.37005284 30:-0.043217767 31:-0.15552194 32:0.00071374858 33:0.0090969951 34:0.25159961 35:-0.18104294 36:-0.3339989 37:-0.1609121 38:-0.33958174 39:0.093262039 
1.053012778351331 1:0.29486927 2:0.26872127 3:0.358557 4:0.15081399 5:-0.61081555 6:0.0764351 7:-0.32989627 8:0.15839463 9:-0.02494232 10:0.42941709 11:0.086915092 12:-0.17935 13:0.17173661 16:-0.05007391 17:-0.057436414 18:0.18916344 19:0.14013035 20:-0.27179677 21:-0.1623601 22:-0.063425656 23:-0.34150808 24:-0.093001661 25:-0.2032346 26:-0.15003049 27:-0.64414842 28:0.69982606 29:0.52622082 30:0.14352975 31:-0.03408734 32:0.10934246 33:0.063834099 34:0.28220174 35:-0.19538478 36:-0.40257297 37:-0.39020659 38:-0.67263745 39:0.32021531 
0.07442301222696499 1:0.57416039 2:0.78362978 3:0.040434737 4:-0.64433057 5:-0.096656281 6:-0.23092757 7:-0.34366206 8:-0.27032413 9:0.42917415 10:0.053539243 11:0.050059134 12:-0.11555029 13:0.2471334 16:0.55013485 17:-0.021037149 18:-0.010493795 19:0.53573018 20:-0.57791514 21:0.11418768 22:-0.098267795 23:-0.17227573 24:0.46088983 25:-0.18188024 26:-0.066078291 27:-0.55743858 28:-0.54675204 29:-0.50648021 30:0.11228549 31:0.13352565 32:-0.063313754 33:0.22022111 34:-0.2621885 35:0.050227058 36:-0.11365316 37:-0.42795889 38:0.79963495 39:0.077490091 
0.0254299944365443 1:0.51591283 2:0.34013493 3:-0.063289987 4:-0.37429859 5:-0.44841206 6:-0.25432914 7:-0.41465623 8:-0.17484567 9:0.03161606 10:0.15628929 11:0.019037407 12:-0.40532625 13:0.11486479 14:-1 16:0.99226985 17:-0.019809575 18:-0.20956699 19:0.55609668 20:-0.59825955 21:0.15880312 22:-0.11774536 23:-0.16557804 24:0.59184932 25:-0.20110612 26:-0.014686919 27:-0.53160769 28:-0.07886095 29:0.32348882 30:-0.070643242 31:-0.12830352 32:-0.021446212 33:0.028743074 34:0.2216426 35:-0.17180877 36:-0.33208126 37:-0.19610898 38:0.44268424 39:0.062535539 
0.9412463708374662 1:0.58143987 2:0.48112361 3:-0.21830512 4:-0.51729386 5:-0.29666073 6:-0.56307518 7:-0.36680348 8:-0.25885464 9:0.037714897 10:-0.011709316 11:0.091228575 12:-0.33098054 13:0.079054881 16:0.93913255 17:0.034135504 18:-0.023947517 19:0.49732449 20:-0.55551969 21:0.023422961 22:0.13906953 23:-0.19503125 24:0.26034888 25:-0.36420146 26:-0.35784898 27:0.03956254 28:-0.19305663 29:0.27728096 30:-0.32200575 31:-0.28162609 32:-0.13212511 33:0.054300596 34:0.00302637 35:-0.23166056 36:-0.24843461 37:-0.010154635 38:0.55006746 39:0.10173943 
0.3303991635440644 1:0.3200299 2:0.21893366 3:-0.057723532 4:-0.30789759 5:-0.50054876 6:-0.17347195 7:-0.48566233 8:-0.12872606 9:0.046712462 10:0.26696691 11:0.066109097 12:-0.31489562 13:0.17118085 16:0.90016947 17:0.11751831 18:-0.26585271 19:0.42864633 20:-0.55750698 21:0.12971563 22:-0.24859303 23:-0.069901525 24:0.29240815 25:-0.24773877 26:-0.044293965 27:-0.4875879 28:-0.11801104 29:0.49492583 30:0.037798984 31:-0.14328835 32:0.041048957 33:0.052985372 34:0.26541903 35:-0.17218802 36:-0.36935595 37:-0.26387389 38:0.29572486 39:0.031784074 
0.6512445911659831 1:0.51980143 2:0.52347269 3:-0.23689307 4:-0.65276278 5:-0.28761597 6:-0.66763001 7:-0.49665216 8:-0.37063361 9:0.029067241 10:-0.10717307 11:-0.07543922 12:-0.44955924 13:-0.13385557 16:0.48286037 17:-0.022578435 18:0.23529498 19:0.3900484 20:-0.23554527 21:-0.056887526 22:-0.080790257 23:-0.14870631 24:0.22882812 25:-0.27301997 26:-0.37480382 27:-0.052813621 28:-0.13891913 29:0.22769042 30:-0.39006141 31:-0.25769718 32:-0.20157136 33:0.32115316 34:-0.18917035 35:-0.22722778 36:-0.21043245 37:0.10591847 38:0.57967072 39:0.071468803 
0.4922784030683677 1:0.59622183 2:0.48885026 3:0.050691054 4:-0.33496411 5:-0.30351553 6:-0.16411469 7:-0.36317479 8:-0.1223393 9:0.18948703 10:0.21173153 11:0.067887499 12:-0.21324624 13:0.32519826 16:0.38088619 17:0.079491799 18:-0.026058394 19:0.52515645 20:-0.60930949 21:0.12072725 22:-0.058344708 23:-0.25098452 24:0.45537455 25:-0.31553492 26:0.16304887 27:-0.42450045 28:-0.53310258 29:0.50759216 30:0.0074422774 31:-0.082907294 32:-0.056032374 33:0.014117785 34:0.25993078 35:-0.19866616 36:-0.3197455 37:-0.17996342 38:0.58916113 39:0.09325772 
12.86277319373946 1:0.32690854 2:0.15419743 3:0.2166279 4:0.11768633 5:-0.54853259 6:0.070984088 7:-0.32931607 8:0.17556962 9:-0.03756107 10:0.40059359 11:0.11840092 12:-0.13887496 13:0.13243972 16:-0.20678317 17:0.077638689 18:0.10499263 19:0.27917023 20:-0.33812348 21:0.039258742 22:-0.15867886 23:-0.2264419 24:0.1135305 25:-0.192233 26:-0.25659409 27:-0.27627483 28:0.40883025 29:0.4684198 30:0.076101656 31:-0.062426243 32:0.087744142 33:0.062324387 34:0.28021087 35:-0.19521119 36:-0.39724159 37:-0.34664406 38:-0.55426604 39:0.15188292 
0.5825782228501557 1:0.44105018 2:0.67809902 3:-0.060168004 4:-0.68922682 5:-0.14851631 6:-0.34291556 7:-0.42803613 8:-0.27032059 9:0.40622963 10:-0.16101262 11:-0.025231662 12:-0.053621396 13:0.32992918 16:0.84607262 17:0.17046185 18:-0.38175725 19:0.6552193 20:-0.67469216 21:0.22908851 22:-0.079436332 23:-0.21590839 24:0.566911 25:-0.18475966 26:0.09866408 27:-0.44610272 28:-0.37649189 29:-0.64729585 30:0.17308453 31:0.051539871 32:0.048223123 33:0.15331814 34:-0.079414835 35:-0.14135006 36:-0.15421941 37:-0.20133143 38:0.72928576 39:0.12255236 
0.5969076402482079 1:0.58092786 2:0.71254299 3:-0.078630207 4:-0.71114518 5:-0.10709018 6:-0.43066098 7:-0.44768252 8:-0.303681 9:0.37830493 10:-0.12468318 11:0.0051429671 12:-0.075573675 13:0.28912042 15:1 16:0.75408903 17:0.18502142 18:-0.26092792 19:0.59936067 20:-0.67469443 21:0.22174775 22:-0.22911445 23:-0.14224075 24:0.61841319 25:-0.17473026 26:0.043856372 27:-0.42827161 28:-0.36133893 29:-0.19395531 30:-0.071618961 31:-0.0011237523 32:-0.13018133 33:0.28574142 34:-0.25189698 35:0.020326366 36:-0.12850102 37:-0.36271167 38:0.72097499 39:0.081420405 
0.8520250420601564 1:0.5891514 2:0.79602786 3:-0.020113269 4:-0.76631574 5:-0.097704818 6:-0.3882089 7:-0.3801954 8:-0.29944842 9:0.51675458 10:-0.13945343 11:-0.12380823 12:0.027931322 13:0.19281473 14:1 16:0.8093667 17:0.14450046 18:-0.26193828 19:0.72045649 20:-0.71115291 21:0.22842432 22:-0.23144338 23:-0.16839126 24:0.55857785 25:-0.23954734 26:0.29532769 27:-0.53932263 28:-0.27994269 29:-0.4888049 30:0.029971677 31:0.23258098 32:-0.10423143 33:0.30938786 34:-0.52321117 35:0.57858924 36:-0.037150903 37:-0.59245251 38:0.74403802 39:0.17360681 
0.3983926963409089 1:0.2640658 2:0.089909059 3:-0.048572505 4:-0.22224372 5:-0.64922753 6:-0.25555207 7:-0.47177337 8:-0.0065045757 9:-0.083836665 10:0.11767616 11:-0.11295791 12:-0.28673145 13:0.081985431 16:0.99214635 17:0.093069556 18:-0.46062152 19:0.69517071 20:-0.75458909 21:0.29044847 22:-0.23179083 23:-0.15433917 24:0.4141021 25:-0.27510233 26:0.39207138 27:-0.51408164 28:0.38132296 29:0.40207894 30:0.015678946 31:-0.13290833 32:0.04613338 33:0.053586271 34:0.25531426 35:-0.18265997 36:-0.37910955 37:-0.23741312 38:-0.080517109 39:0.18954681 
1.163048204405472 1:0.51074079 2:0.26668509 3:-0.057018816 4:-0.24532475 5:-0.43770744 6:-0.28084922 7:-0.35987029 8:0.085613485 9:0.13725337 10:0.17835282 11:0.06395722 12:-0.112122 13:0.34368062 14:1 16:0.23555421 17:0.15074321 18:-0.34883819 19:0.56204195 20:-0.60500946 21:0.23249016 22:-0.31501318 23:-0.10127726 24:0.32291045 25:-0.23495608 26:0.29001329 27:-0.47031795 28:-0.033249114 29:0.37983843 30:-0.080983212 31:-0.21093629 32:0.0023310628 33:0.04733026 34:0.21137943 35:-0.21835712 36:-0.31159326 37:-0.19085398 38:0.40079411 39:0.17767055 
0.06664381827209422 1:0.57571277 2:0.37512016 3:-0.12922413 4:-0.54924412 5:-0.43620855 6:-0.49738724 7:-0.57951226 8:-0.24860406 9:0.083591952 10:-0.18666981 11:-0.40687718 12:-0.38675659 13:0.087217942 16:0.42201842 17:0.062840516 18:0.01427299 19:0.60302926 20:-0.61247743 21:0.14383551 22:0.064446853 23:-0.2886989 24:0.40156132 25:-0.16935776 26:0.17626867 27:-0.54455424 28:-0.32904133 29:0.49765743 30:-0.011153336 31:-0.14887851 32:0.0090737878 33:-0.023066166 34:0.26074403 35:-0.14794921 36:-0.26991545 37:-0.19922931 38:0.67498426 39:0.16606738 
0.7807608388233455 1:0.29448281 2:0.10108028 3:0.1235423 4:0.11302998 5:-0.45766827 6:-0.024058658 7:-0.30828722 8:0.30709521 9:0.056550666 10:0.26891827 11:-0.069677088 12:-0.10051467 13:0.15071413 16:-0.24824773 17:-0.14962081 18:0.54000538 19:0.31492328 20:-0.41246695 21:0.085376171 22:-0.013745017 23:-0.21260125 24:-0.023955062 25:-0.074466129 26:0.26979822 27:-0.31136842 28:0.061594586 29:0.42817793 30:0.0089071149 31:-0.12304374 32:0.047731064 33:0.058811447 34:0.26051771 35:-0.19165418 36:-0.38168327 37:-0.24876454 38:-0.17866908 39:0.098164242 
0.5313266876614623 1:0.49145174 2:0.48122311 3:0.072410364 4:-0.35146483 5:-0.28881889 6:-0.17148271 7:-0.35323887 8:-0.027132286 9:0.27686661 10:0.1683685 11:-0.11106366 12:-0.18667202 13:0.48970049 16:0.24061331 17:-0.024050782 18:0.23031778 19:0.51279852 20:-0.4923535 21:0.15647482 22:-0.044198 23:-0.42229194 24:0.21289989 25:-0.019886595 26:-0.070402784 27:-0.67011891 28:-0.47879159 29:0.52829725 30:0.059768595 31:-0.18192461 32:0.085943534 33:0.033898967 34:0.19294347 35:-0.12514716 36:-0.34823314 37:-0.10407718 38:0.68031302 39:0.13129058 
0.4304718280269546 1:0.54662724 2:0.52660078 3:-0.051630692 4:-0.50454559 5:-0.18001636 6:-0.35898888 7:-0.46676911 8:-0.1898755 9:0.35563187 10:0.044607875 11:-0.24719752 12:-0.33817412 13:0.31819716 15:-1 16:0.83093894 17:-0.10727053 18:0.17509399 19:0.61702812 20:-0.4840063 21:0.26897271 22:-0.48578095 23:-0.1321897 24:0.00082437893 25:-0.04959399 26:0.19607132 27:-0.6020847 28:-0.19105211 29:0.15408772 30:-0.10251238 31:-0.09759435 32:-0.023011818 33:0.011566538 34:0.19569204 35:-0.20196946 36:-0.26256703 37:-0.2795874 38:0.7704896 39:-0.030965347 
0.3707825808067186 1:0.50058466 2:0.4706846 3:-0.067412531 4:-0.40785182 5:-0.18467955 6:-0.30646676 7:-0.45647881 8:-0.1693704 9:0.26297127 10:0.099212287 11:-0.076339828 12:-0.25863124 13:0.34061856 15:1 16:0.49190698 17:-0.094960288 18:-0.16951074 19:0.855694 20:-0.47616274 21:-0.11987289 22:-0.19257732 23:0.18012273 24:-0.18422898 25:-0.0046828377 26:-0.069778685 27:-0.60671076 28:-0.061289776 29:0.37643692 30:-0.07205665 31:-0.20491115 32:0.014796157 33:0.019287441 34:0.1900447 35:-0.21673523 36:-0.25701428 37:-0.28276588 38:0.75866897 39:-0.057562275 
0.09225782447367213 1:0.14962667 2:0.1648759 3:0.084613371 4:0.018137402 5:-0.4478458 6:-0.11122912 7:-0.42817571 8:0.15971255 9:0.076932918 10:0.26131662 11:-0.1676745 12:-0.29441977 13:0.12131396 16:0.90159764 17:-0.23200178 18:0.12315069 19:0.88930948 20:-0.52460306 21:0.24034079 22:-0.33565166 23:0.15270822 24:-0.068144329 25:-0.068302471 26:0.07737431 27:-0.4596159 28:0.12227761 29:0.42478451 30:0.0036312924 31:-0.13257489 32:0.045868951 33:0.051669013 34:0.25474853 35:-0.18504959 36:-0.37222686 37:-0.25060809 38:0.005682403 39:0.065719871 
0.8747821305473266 1:0.19555871 2:0.12893371 3:-0.020072008 4:-0.059680557 5:-0.41370473 6:-0.2087211 7:-0.48432531 8:0.061515301 9:0.034739323 10:0.20329387 11:-0.1881803 12:-0.32510532 13:-0.049464516 16:0.69692514 17:-0.34289501 18:0.019320556 19:0.70737415 20:-0.59525748 21:0.20826187 22:-0.35604672 23:0.55741747 24:-0.26655522 25:-0.077801771 26:0.082591872 27:-0.48994845 28:0.20742493 29:0.35565927 30:-0.056070006 31:-0.15672661 32:0.032083891 33:-0.0081959896 34:0.25661922 35:-0.17675877 36:-0.3369143 37:-0.18042846 38:0.18349154 39:-0.041630966 
0.2957515327814251 1:0.42374725 2:0.50729412 3:0.054865123 4:-0.23331928 5:-0.078029724 6:-0.18692452 7:-0.40721321 8:-0.057622226 9:0.31962239 10:0.19029773 11:-0.057560708 12:-0.24631639 13:0.1766266 15:-1 16:0.36726811 17:-0.50034618 18:-0.25274769 19:0.64480177 20:-0.67765265 21:0.39471042 22:-0.35618922 23:0.388599 24:-0.25213815 25:0.020157751 26:-0.017782871 27:-0.5511686 28:-0.18644398 29:0.3776556 30:-0.10485355 31:-0.16532294 32:-0.041590611 33:0.073235501 34:0.20269464 35:-0.21980318 36:-0.29153827 37:-0.15123034 38:0.73914783 39:-0.12049298 
2.314070508750108 1:0.4446192 2:0.3792853 3:0.0012026744 4:-0.2229205 5:-0.19755164 6:-0.19806588 7:-0.45104847 8:-0.11682515 9:0.18787508 10:0.25327487 11:0.0086069432 12:-0.22020581 13:0.14631607 16:0.5690097 17:-0.33540666 18:0.15886348 19:0.10441665 20:-0.36292362 21:0.14325475 22:-0.25037737 23:0.44839012 24:-0.33426333 25:0.12595123 26:-0.2030639 27:-0.21718465 28:-0.13910423 29:0.30692619 30:-0.048025813 31:-0.205095 32:0.054360947 33:-0.037601332 34:0.22725059 35:-0.21840902 36:-0.23558772 37:-0.17381729 38:0.58432041 39:-0.10647027 
0.7240489259100054 1:0.37738275 2:0.76890739 3:-0.023795377 4:-0.35476694 5:0.064898368 6:-0.43270281 7:-0.20061765 8:-0.23611165 9:0.25193857 10:-0.072483427 11:0.11393691 12:-0.077247259 13:-0.10012222 16:-0.11177054 17:-0.55276091 18:0.46367638 19:0.24048283 20:-0.47248239 21:0.25597501 22:-0.21631614 23:0.49902746 24:-0.39189924 25:0.15639508 26:-0.5224434 27:-0.10374144 28:-0.31732661 29:-0.0080289958 30:-0.38214203 31:-0.35033687 32:0.21120044 33:-0.12136675 34:-0.22420002 35:-0.65214341 36:0.27381194 37:-0.43568248 38:0.57938287 39:0.059783606 
1.32121330060157 1:0.13939237 2:-0.15651665 3:-0.027749588 4:0.10361404 5:-0.53847715 6:-0.11972302 7:-0.62952325 8:0.015077654 9:-0.1735575 10:0.24114868 11:-0.21455356 12:-0.31039416 13:-0.28119627 16:0.26641044 17:-0.36319176 18:0.35532045 19:0.16140823 20:-0.3736108 21:0.16019794 22:-0.25090199 23:0.41325762 24:-0.29470902 25:0.093950595 26:-0.2168349 27:-0.071577389 28:0.24496382 29:0.43853306 30:0.051791828 31:-0.10628331 32:0.073888622 33:0.039549427 34:0.27351231 35:-0.19207827 36:-0.37309066 37:-0.29415458 38:-0.36680738 39:-0.18472664 
0.6536672010381414 1:0.25062296 2:0.47187934 3:0.10249843 4:-0.16121586 5:-0.053366522 6:0.010730152 7:-0.34679148 8:-0.067412344 9:0.20054481 10:0.23280643 11:0.079034862 12:-0.16980914 13:0.16190421 16:-0.28626939 17:-0.72493885 18:0.436673 19:-0.031459661 20:-0.34597993 21:-0.088344644 22:-0.16501338 23:0.49473226 24:-0.45388885 25:0.24023115 26:-0.5555826 27:-0.15406816 28:-0.18442949 29:0.31494993 30:-0.019642599 31:-0.16492179 32:0.089537459 33:-0.024250157 34:0.24325112 35:-0.16045788 36:-0.28957245 37:-0.1122065 38:0.44988151 39:-0.070946756 
1.821374216586774 1:0.17834769 2:0.33272677 3:0.071629894 4:-0.081819056 5:-0.14584869 6:0.03737275 7:-0.30450574 8:0.1132237 9:0.31626385 10:0.36317763 11:0.0072571719 12:-0.24954154 13:0.099406413 16:-0.59046601 17:-0.30140964 18:0.22197155 19:0.71974977 20:-0.5499392 21:-0.098209451 22:-0.12872047 23:0.1521778 24:0.0033448698 25:-0.061404806 26:-0.20570814 27:-0.22999423 28:-0.21525878 29:0.32277248 30:-0.012643254 31:-0.1229152 32:0.10014349 33:-0.08339671 34:0.32717491 35:-0.2145093 36:-0.30193131 37:-0.25799977 38:0.49618618 39:-0.14029081 
1.345943199604324 1:-0.85905641 2:-0.23651441 3:0.064149703 4:0.27828451 5:-0.51531582 6:0.090281836 7:-0.43015792 8:0.22541499 9:-0.072331008 10:0.54379259 11:0.31880434 12:0.19478072 13:0.31946883 16:-0.34030878 17:-0.12336659 18:0.12202093 19:0.39361424 20:-0.41668407 21:-0.035924039 22:-0.25100735 23:0.60317822 24:-0.30414657 25:0.02246213 26:0.06110109 27:-0.3235421 28:0.5362451 29:0.45540307 30:0.10456533 31:-0.1427552 32:0.11324177 33:0.16887315 34:0.13732728 35:0.019941235 36:-0.63785283 37:-0.29751246 38:-0.52764066 39:-0.17412265 
1.93880496999847 1:-0.60609702 2:0.12551144 3:0.27886005 4:0.25523396 5:-0.21955164 6:0.32295557 7:-0.13031583 8:0.46118055 9:0.11592895 10:0.48030363 11:0.19857535 12:0.1475601 13:0.31583682 16:-0.72439954 17:0.029874147 18:0.33408549 19:-0.0075781835 20:-0.11268861 21:-0.059089836 22:0.25135659 23:-0.23400551 24:-0.10585994 25:-0.11324625 26:-0.061151972 27:-0.11697101 28:-0.070802139 29:0.67426624 30:0.01096809 31:-0.14669236 32:-0.19769035 33:0.16024148 34:0.67937133 35:-0.94266134 36:-0.028569592 37:-0.25463444 38:-0.36659973 39:-0.056022078 
0.7122515977179857 1:0.13795543 2:0.74985117 3:0.51367388 4:-0.048949106 5:-0.37219801 6:0.049122824 7:-0.33182656 8:-0.30974262 9:-0.27211951 10:-0.15838102 11:-0.16712851 12:-0.12109725 13:0.27541839 16:0.12845458 17:0.065949323 18:-0.36773418 19:-0.84273636 20:0.25498436 21:0.27034443 22:-0.25795925 23:-0.23708203 24:0.08627014 25:-0.24435249 26:-0.22370538 27:-0.23205714 28:-0.021004323 29:0.4387517 30:-0.2990566 31:0.14478568 32:0.34385065 33:-0.19611343 34:0.32644814 35:-0.017172785 36:0.098556634 37:-0.80189895 38:-0.12959393 39:0.39198137 
0.890025685684264 1:0.3930224 2:0.53066929 3:0.16704801 4:-0.17920822 5:-0.27986462 6:-0.0083272407 7:-0.29161396 8:-0.36854117 9:-0.22615791 10:0.020150999 11:0.076011352 12:-0.36665836 13:0.36970104 15:1 16:-0.44749662 17:0.39904483 18:-0.2747983 19:-0.47093992 20:0.12584079 21:0.32655262 22:-0.23687323 23:-0.19136537 24:0.59082896 25:-0.19238122 26:-0.3731663 27:-0.17916324 28:0.37525544 29:0.31887181 30:-0.1112331 31:-0.12602116 32:0.0069319086 33:-0.06396721 34:0.26800743 35:-0.15234134 36:-0.26958275 37:-0.23256056 38:0.18860758 39:0.023132914 
0.9715239659262622 1:-0.12329571 2:0.71188619 3:0.44572409 4:0.023703375 5:-0.34107877 6:-0.03923837 7:-0.26178289 8:-0.28537649 9:-0.29760942 10:-0.11359633 11:-0.093702845 12:-0.14279176 13:0.24977646 16:0.059322076 17:0.052760511 18:-0.35572312 19:-0.76312025 20:0.22272767 21:0.26695041 22:-0.26485852 23:-0.20786333 24:0.038016624 25:-0.23507743 26:-0.344875 27:-0.14262547 28:0.10838896 29:0.33595359 30:0.055506711 31:-0.26458947 32:0.5297934 33:-0.40337386 34:0.23696314 35:-0.10467786 36:0.20424051 37:-0.68506552 38:-0.19426497 39:0.35968426 
3.654624570873738 1:0.12488892 2:0.043427675 3:0.088410485 4:0.27471384 5:-0.29790299 6:-0.16249831 7:-0.3828423 8:0.10779058 9:-0.16873129 10:0.27480469 11:-0.0020853853 12:0.053316335 13:0.23116948 16:-0.25823263 17:0.065267877 18:0.16399949 19:-0.27870868 20:-0.37602629 21:0.25164927 22:0.049121042 23:-0.22014278 24:0.015636612 25:0.16007477 26:-0.35844761 27:0.03209418 28:0.32274174 29:0.35406364 30:-0.11044188 31:-0.22181293 32:-0.07814928 33:-0.05325339 34:0.20349624 35:-0.16112118 36:-0.24475179 37:0.019715558 38:-0.38403286 39:-0.19494915 
0.2397597838003237 1:0.28639627 2:0.67425433 3:0.16367362 4:-0.44150689 5:-0.33993601 6:-0.10372807 7:-0.4433222 8:-0.67621326 9:-0.16200281 10:-0.13802594 11:0.10921164 12:-0.20662484 13:0.37732295 16:0.98133412 17:-0.18605709 18:0.0084954699 19:-0.6437686 20:-0.047932001 21:0.45144209 22:-0.6549708 23:-0.16651998 24:0.87309131 25:-0.25371047 26:-0.10463711 27:-0.51558084 28:0.093815058 29:0.26590044 30:-0.2397938 31:-0.21424576 32:0.44298448 33:-0.15073185 34:-0.025214095 35:-0.14922944 36:0.08979036 37:-0.71019679 38:0.55026302 39:0.0069395933 
0.6240722398486074 1:0.44383225 2:0.83591137 3:0.36084218 4:-0.47736921 5:-0.29430153 6:0.083465588 7:-0.32960509 8:-0.71230337 9:-0.039718574 10:-0.0063126439 11:-0.20334467 12:-0.083738051 13:0.44981401 16:0.85352248 17:-0.10026315 18:0.049290949 19:-0.82140383 20:-0.092741307 21:0.37620022 22:-0.2898084 23:-0.21700619 24:0.6314552 25:-0.34892639 26:-0.15168948 27:-0.57708467 28:-0.41026131 29:0.49064129 30:-0.013014933 31:0.18917538 32:0.28213603 33:-0.21012547 34:0.074793031 35:0.038934287 36:0.27570311 37:-0.71260261 38:0.87486037 39:0.17063914 
0.1058554277870367 1:0.46759862 2:0.56128276 3:0.23371035 4:-0.2549843 5:-0.56357244 6:-0.19862965 7:-0.20699873 8:-0.33227149 9:-0.37888585 10:-0.1202095 11:0.16948517 12:-0.2629961 13:0.32162269 15:-1 16:0.88697985 17:-0.1585629 18:0.16600724 19:-0.544497 20:-0.06152074 21:0.41746806 22:-0.45293884 23:-0.32377745 24:0.67515002 25:-0.43451612 26:-0.29704277 27:-0.0083689235 28:0.33163308 29:0.37602658 30:-0.056097816 31:-0.19082114 32:0.095857914 33:-0.15819525 34:0.29244483 35:-0.2068117 36:-0.29672168 37:-0.17097957 38:-0.4488842 39:0.30529289 
0.9242252040370367 1:0.17627787 2:-0.04483475 3:0.16531814 4:0.24031471 5:-0.60941644 6:-0.167335 7:-0.49010971 8:0.088000211 9:-0.40794373 10:-0.032416518 11:-0.22579995 12:-0.0012465818 13:0.25455352 16:0.43237751 17:-0.013797353 18:-0.0068068515 19:-0.43627637 20:0.25965503 21:0.34668808 22:-0.38009247 23:-0.23325957 24:0.065307153 25:-0.17945371 26:-0.067825502 27:0.024877506 28:0.40340944 29:0.42426463 30:0.0062708615 31:-0.13441004 32:0.059373441 33:0.028358949 34:0.27155069 35:-0.18758182 36:-0.37584275 37:-0.24179178 38:-0.61652452 39:0.16455398 
0.665183008244298 1:0.45115102 2:0.80596979 3:0.282022 4:-0.45707356 5:-0.51766533 6:-0.10054386 7:-0.15427331 8:-0.54607671 9:-0.22161097 10:-0.096471895 11:0.13071846 12:-0.18924565 13:0.31184564 15:-1 16:0.95928551 17:-0.1948904 18:0.32294376 19:-0.70282623 20:-0.33406371 21:0.44759506 22:-0.49806787 23:-0.3594075 24:0.70952743 25:-0.45067488 26:-0.77028746 27:-0.097088133 28:0.20183554 29:0.36541998 30:-0.25357465 31:0.11996877 32:0.24491069 33:-0.11335782 34:-0.14899232 35:-0.16545497 36:0.22413104 37:-0.63015004 38:-0.21857819 39:0.31265562 
0.3495503643253651 1:0.42034565 2:0.73628611 3:0.34587439 4:-0.40336505 5:-0.62965069 6:-0.070653895 7:-0.36098436 8:-0.45654849 9:-0.11399223 10:0.015005725 11:0.10719769 12:-0.13225048 13:0.48514738 16:0.55485199 17:-0.09924633 18:0.5545659 19:-0.84501893 20:0.074651598 21:0.37700259 22:-0.32592794 23:-0.4537414 24:0.36313755 25:-0.44508602 26:-0.41308789 27:-0.41102819 28:0.018550863 29:0.46236949 30:0.077864254 31:0.086590919 32:0.16327319 33:-0.039574847 34:0.25418144 35:-0.25563665 36:0.015390059 37:-0.63922514 38:0.16218648 39:0.38952335 
0.8368206125966063 1:0.40617004 2:0.4458961 3:0.29739902 4:-0.10150738 5:-0.58526905 6:-0.20305212 7:-0.32874187 8:-0.19524728 9:-0.33253694 10:0.10062623 11:0.28979888 12:-0.16149429 13:0.059624629 16:0.91786351 17:-0.028527299 18:0.686859 19:-0.8156342 20:0.41911365 21:0.19567597 22:-0.34924039 23:-0.11594773 24:0.29210238 25:-0.61872388 26:-0.16721797 27:-0.048734222 28:0.42371361 29:0.39810991 30:-0.038739191 31:-0.1785846 32:0.020280188 33:0.066249912 34:0.23064107 35:-0.20675476 36:-0.31224894 37:-0.12518718 38:-0.39423403 39:0.2654667 
0.9015422550071799 1:0.35497497 2:0.71500559 3:0.50655647 4:-0.29104036 5:-0.65312149 6:-0.1053325 7:-0.17917309 8:-0.34654683 9:-0.32917923 10:0.078912236 11:0.41220991 12:-0.24952639 13:0.03918071 16:0.31669569 17:0.0092432634 18:0.44301461 19:-0.69831978 20:0.39618757 21:0.12559286 22:-0.26620957 23:-0.29002295 24:0.24733097 25:-0.65485834 26:-0.36063717 27:-0.17645674 28:0.55938616 29:0.47572554 30:-0.017563572 31:-0.16584558 32:0.14487336 33:0.1007478 34:0.20255773 35:-0.29271552 36:-0.15722956 37:-0.18991018 38:-0.38401114 39:0.39990761 
2.216016404368737 1:0.42125071 2:0.20183933 3:0.161712 4:0.028509337 5:-0.64621994 6:-0.35904675 7:-0.50075691 8:-0.073835388 9:-0.36891775 10:0.060829107 11:0.12661184 12:-0.014141957 13:0.11389761 16:0.99944067 17:-0.15887973 18:0.57678547 19:-0.70392325 20:-0.2607755 21:0.35253362 22:-0.32044614 23:-0.14612069 24:0.0092237966 25:-0.64670457 26:-0.024221312 27:0.016577973 28:0.3609923 29:0.3883473 30:-0.05672147 31:-0.18937674 32:-0.021171711 33:0.070230688 34:0.22107992 35:-0.16475025 36:-0.3616023 37:-0.11809774 38:-0.50098189 39:0.28431377 
9.871263882798907 1:0.1024023 2:0.099845151 3:0.15472282 4:0.15148476 5:-0.57422826 6:-0.22492409 7:-0.32940243 8:0.23212557 9:-0.17956553 10:0.22988105 11:0.12560189 12:0.068727022 13:0.1244507 16:0.15191037 17:-0.0086929027 18:0.6089376 19:-0.33992761 20:-0.15181521 21:0.12187529 22:-0.20831929 23:-0.18594196 24:-0.15915719 25:-0.44699716 26:0.0080199561 27:0.024680642 28:0.36766731 29:0.38552868 30:-0.05631641 31:-0.1836073 32:-0.048318284 33:0.067800828 34:0.22748732 35:-0.16776556 36:-0.36094178 37:-0.093409828 38:-0.50902798 39:0.21368794 
0.1519783411255839 1:0.28507106 2:0.77504592 3:0.29953848 4:-0.38458442 5:-0.61410017 6:-0.23738468 7:-0.26048798 8:-0.50970861 9:-0.29030852 10:-0.071049985 11:0.14858362 12:-0.19740789 13:0.20390526 16:0.97759237 17:-0.18610756 18:0.53463184 19:-0.87890878 20:-0.10534071 21:0.39830357 22:-0.63352588 23:-0.38902826 24:0.56261815 25:-0.58948375 26:-0.64259495 27:0.18005468 28:0.19419764 29:0.35829253 30:-0.1364399 31:-0.085310787 32:0.34541643 33:-0.24006235 34:0.1371689 35:0.01229364 36:0.1037581 37:-0.51830125 38:-0.59608917 39:0.38958711 
0.3292544869792922 1:0.41175304 2:0.55165617 3:0.27997094 4:-0.1100776 5:-0.57450335 6:-0.28621239 7:-0.33381096 8:-0.21193493 9:-0.29769 10:0.0064604084 11:0.28395345 12:-0.10695228 13:0.2936479 14:-1 16:0.72486597 17:-0.16205209 18:0.408854 19:-0.94025271 20:-0.060444337 21:0.14964518 22:-0.20994133 23:-0.4477876 24:0.4530795 25:-0.67416584 26:-0.016448158 27:-0.083030479 28:0.30994976 29:0.361625 30:-0.091795548 31:-0.17382862 32:0.0035234626 33:0.035609965 34:0.19109684 35:-0.18700404 36:-0.22967997 37:-0.25049657 38:-0.55586142 39:0.38891151 
0.4646536830846941 1:0.41616483 2:0.52398342 3:0.40286817 4:0.057892592 5:-0.59991773 6:-0.35418828 7:-0.28742155 8:0.09697208 9:-0.06623125 10:0.28016099 11:0.26511953 12:-0.12337776 13:0.062674366 16:0.62423085 17:-0.18519927 18:0.93587558 19:-0.61606924 20:-0.15634872 21:-0.16134502 22:-0.2338054 23:-0.22105856 24:0.13883251 25:-0.55218581 26:0.050948322 27:-0.017464642 28:0.34754685 29:0.38758991 30:-0.070254628 31:-0.1147085 32:-0.1234099 33:0.072010703 34:0.24855621 35:-0.17126588 36:-0.33409282 37:-0.10349275 38:-0.49853751 39:0.57337271 
3.126453473968845 1:0.12232505 2:0.013143647 3:0.25325337 4:0.2528217 5:-0.74754321 6:-0.34562698 7:-0.45815326 8:0.38627594 9:-0.061471047 10:0.31617966 11:-0.010188287 12:0.04839463 13:0.14225882 16:-0.72897887 17:0.077390044 18:0.82895143 19:-0.38941869 20:-0.15764007 21:-0.15681477 22:-0.21314559 23:-0.38955144 24:-0.097969884 25:-0.049292016 26:-0.012794424 27:0.034517217 28:0.42698814 29:0.43122726 30:0.0033981493 31:-0.1369576 32:0.083886145 33:0.025184856 34:0.26304875 35:-0.18588644 36:-0.35505492 37:-0.2782875 38:-0.63547532 39:0.36869531 
0.4643468247629042 1:0.34865917 2:0.46572676 3:0.25919327 4:-0.10236961 5:-0.71995245 6:-0.59299191 7:-0.63585218 8:-0.28607573 9:-0.32343088 10:-0.089207258 11:-0.099912192 12:-0.42352053 13:-0.090923243 15:-1 16:0.92102296 17:-0.16568293 18:0.47022461 19:-0.89053479 20:0.18890308 21:-0.020252187 22:-0.34027312 23:-0.58405446 24:0.47544234 25:-0.38996528 26:-0.19961235 27:-0.051928956 28:0.34452785 29:0.34880776 30:-0.069417852 31:-0.15385525 32:-0.089849247 33:0.12963847 34:0.16914426 35:-0.25812671 36:-0.23198784 37:-0.23241285 38:-0.51116843 39:0.61121002 
2.020917283112536 1:0.37858284 2:0.2247717 3:0.23754815 4:0.11207127 5:-0.72975443 6:-0.50030251 7:-0.57113342 8:0.0036943487 9:-0.29537078 10:0.082402433 11:-0.024546889 12:-0.061614384 13:0.20054895 16:0.58126641 17:0.25898399 18:-0.12711052 19:-0.30506626 20:0.21087541 21:-0.088952452 22:-0.24733346 23:-0.38963933 24:0.014296652 25:-0.27374051 26:0.038835645 27:0.057355124 28:0.36611262 29:0.39628276 30:-0.043227021 31:-0.11026905 32:-0.042421798 33:-0.049324688 34:0.28720645 35:-0.19201391 36:-0.3083427 37:-0.25519859 38:-0.56186152 39:0.57003261 
1.117814568077997 1:0.12175517 2:0.16854926 3:0.30825258 4:0.33387365 5:-0.54025065 6:-0.29496518 7:-0.46721871 8:0.22737813 9:-0.14292301 10:0.29391172 11:0.050966585 12:0.074517193 13:0.19594019 16:0.07788814 17:-0.14482687 18:0.5007102 19:-0.63118649 20:0.25874931 21:0.017263763 22:-0.37230317 23:-0.18686727 24:0.10439273 25:-0.36391037 26:0.013758451 27:0.013094314 28:0.39428679 29:0.3893721 30:-0.062581097 31:-0.17192773 32:0.0058919991 33:0.00099488505 34:0.2418688 35:-0.17088963 36:-0.31135166 37:-0.16385591 38:-0.52332485 39:0.28308609 
8.612593246453782 1:0.31792522 2:0.44742509 3:0.3738052 4:0.087015934 5:-0.6576323 6:-0.37152125 7:-0.36347024 8:-0.014425135 9:-0.2385898 10:0.1324043 11:0.15805619 12:-0.080471343 13:0.23103636 16:-0.15533852 17:0.26998278 18:-0.12469451 19:-0.25456664 20:-0.0048305045 21:-0.000829693 22:-0.32061664 23:-0.40509201 24:0.081421225 25:-0.28473712 26:-0.1590076 27:0.12965037 28:0.37143149 29:0.39884687 30:-0.027505825 31:-0.06786972 32:-0.043617279 33:-0.12653441 34:0.31431033 35:-0.15816759 36:-0.33823028 37:-0.19996218 38:-0.51211777 39:0.56938444 
2.229689018057197 1:0.35979633 2:-0.068143224 3:0.15908849 4:0.33464432 5:-0.55524322 6:-0.30064996 7:-0.64080614 8:0.063524994 9:-0.31716223 10:0.24612861 11:-6.8979457e-006 12:0.09158611 13:0.080815084 16:0.80147786 17:-0.35706571 18:0.90880513 19:-0.82906855 20:-0.073329462 21:-0.0048132379 22:0.20193216 23:-0.13023324 24:0.048137213 25:-0.22942239 26:-0.0020318478 27:0.046851212 28:0.39719295 29:0.39553525 30:-0.040882383 31:-0.15860576 32:-0.0079417071 33:0.027675633 34:0.24494457 35:-0.18655534 36:-0.33367271 37:-0.15997656 38:-0.55627648 39:-0.06112765 
1.299192164216223 1:-0.049758952 2:0.048649629 3:0.071856447 4:0.33976884 5:-0.2917386 6:-0.44793808 7:-0.37988503 8:0.074524102 9:-0.17509581 10:0.42840691 11:-0.010429746 12:0.23606928 13:0.037875506 16:0.84285977 17:-0.16026864 18:0.84900518 19:-0.87329851 20:-0.39430518 21:0.010230528 22:0.072995069 23:-0.01729499 24:0.063255068 25:-0.1490907 26:0.017326609 27:0.013466752 28:0.36367991 29:0.35224572 30:-0.13528172 31:-0.24141402 32:-0.19801357 33:-0.21438153 34:-9.2241046e-005 35:0.020482458 36:0.033898173 37:0.2090969 38:-0.4128376 39:-0.27843584 
0.7816639017189615 1:0.42764539 2:0.88115296 3:0.46962232 4:-0.3783473 5:-0.65993506 6:-0.29550286 7:-0.32847372 8:-0.40392051 9:0.067273393 10:0.18595029 11:0.043690445 12:-0.20231537 13:-0.019835532 16:0.91733274 17:-0.15163828 18:0.80607313 19:-0.50907854 20:0.61665773 21:-0.36897273 22:0.084546836 23:-0.64839721 24:0.70577954 25:-0.27131567 26:-0.49862106 27:-0.077049288 28:0.11026336 29:0.26646757 30:-0.25484209 31:0.69164011 32:0.0068605205 33:-0.0029436845 34:-0.28990908 35:-0.28837576 36:0.25523613 37:-0.49613206 38:-0.3059721 39:0.5580543 
0.5803744363380757 1:0.41791323 2:0.49553132 3:0.37079145 4:0.023489459 5:-0.65548185 6:-0.40088058 7:-0.38644745 8:0.026976293 9:-0.057557947 10:0.30539728 11:0.24526994 12:-0.26981767 13:-0.047807604 15:-1 16:0.099568149 17:-0.01636809 18:0.41362111 19:-0.25996889 20:0.48750602 21:-0.43748796 22:-0.01450181 23:-0.41130672 24:0.45396165 25:-0.33972943 26:-0.20350651 27:0.036175193 28:0.35071468 29:0.39335205 30:-0.05078388 31:-0.15008088 32:-0.0013957198 33:0.0034780124 34:0.22340843 35:-0.11791269 36:-0.33000682 37:-0.22237081 38:-0.55933748 39:0.5878811 
0.7071531237568137 1:0.082380183 2:0.35132288 3:0.38839065 4:-0.024848782 5:-0.85113398 6:-0.38407491 7:-0.51570204 8:-0.089475672 9:-0.23476186 10:0.21558444 11:0.15656652 12:-0.38492687 13:-0.12521255 14:1 16:0.96983489 17:-0.14777086 18:0.98955417 19:-0.47769742 20:0.55990216 21:-0.31459046 22:0.04458571 23:-0.6058415 24:0.61364815 25:-0.2551304 26:-0.32357987 27:0.16343495 28:0.48701555 29:0.47666843 30:0.049081515 31:-0.073834326 32:0.065102979 33:0.090425001 34:0.27745915 35:-0.1995454 36:-0.38307057 37:-0.33806755 38:-0.77089442 39:0.56446214 
0.4004270151998444 1:0.42446658 2:0.21168069 3:0.25343301 4:0.13849131 5:-0.67273317 6:-0.44483343 7:-0.53322508 8:0.12220569 9:-0.08663365 10:0.38586071 11:0.17926836 12:-0.057769911 13:0.047162882 16:0.083006226 17:-0.084728257 18:0.40545879 19:-0.050924129 20:-0.051017736 21:-0.45941885 22:0.19930778 23:-0.39586715 24:0.36876744 25:-0.17249904 26:-0.15453964 27:0.030241703 28:0.38101891 29:0.39112341 30:-0.03742373 31:-0.15992162 32:-0.031597137 33:0.026609226 34:0.2601694 35:-0.18908065 36:-0.31893907 37:-0.149754 38:-0.54962528 39:0.45128006 
1.321246640403202 1:0.34826323 2:0.58331689 3:0.23107018 4:-0.16741699 5:-0.5884793 6:-0.60007142 7:-0.52294448 8:-0.17248313 9:-0.050126325 10:0.1620044 11:0.14473589 12:-0.33118297 13:-0.13307297 16:0.31311062 17:0.1927893 18:-0.1138968 19:0.097749808 20:-0.30666716 21:-0.41087665 22:-0.087448806 23:-0.45675056 24:0.42543039 25:-0.21225624 26:-0.31893894 27:-0.11593496 28:0.26504804 29:0.31736384 30:-0.22778977 31:-0.27552859 32:0.16020322 33:-0.057962425 34:0.089954736 35:-0.22288863 36:-0.10103834 37:-0.21500851 38:-0.19726618 39:0.54723878 
0.4372200650780731 1:-0.013367357 2:0.010022852 3:0.32221959 4:0.27518532 5:-0.79930847 6:-0.28883489 7:-0.50121785 8:0.25135639 9:-0.17411383 10:0.36470534 11:0.060539966 12:-0.074008727 13:-0.1925476 16:0.93348152 17:-0.45547976 18:0.90681244 19:-0.012137471 20:0.023926353 21:-0.52470041 22:0.34741679 23:-0.60943376 24:0.66863313 25:-0.32170367 26:0.090717637 27:0.13257012 28:0.48420169 29:0.48167648 30:0.066855479 31:-0.091156046 32:0.10803589 33:0.04019568 34:0.26558669 35:-0.19575573 36:-0.3565039 37:-0.35052294 38:-0.76981483 39:0.46714992 
0.3330377395739038 1:0.43746618 2:0.26410261 3:0.26903977 4:0.082257714 5:-0.69987877 6:-0.43862046 7:-0.42882304 8:0.16837432 9:-0.10729694 10:0.21087523 11:-0.0062550481 12:-0.22017991 13:-0.12154378 14:-1 16:0.59798199 17:-0.22800926 18:0.71839005 19:-0.093085236 20:0.090375992 21:-0.71108477 22:0.24079409 23:-0.65832168 24:0.31461128 25:-0.25775678 26:-0.072986055 27:0.036994587 28:0.38323087 29:0.39097463 30:-0.045598009 31:-0.16447094 32:-0.0096100238 33:0.016222853 34:0.25475869 35:-0.18027188 36:-0.32332325 37:-0.15573375 38:-0.53642664 39:0.53328601 
0.9952867610886379 1:0.085520407 2:0.027399752 3:0.24334373 4:0.2197337 5:-0.75859635 6:-0.3490538 7:-0.52033979 8:0.25457566 9:-0.16122128 10:0.24826713 11:-0.11909408 12:-0.15348323 13:-0.14413592 16:0.64619357 17:-0.32993794 18:0.82212775 19:-0.10358165 20:0.17847382 21:-0.65898497 22:0.20558059 23:-0.67455776 24:0.31201545 25:-0.17325776 26:-0.045599891 27:0.069661713 28:0.42521102 29:0.44008116 30:0.021820156 31:-0.12300581 32:0.046716675 33:0.049649858 34:0.27066272 35:-0.18925298 36:-0.36964608 37:-0.26026487 38:-0.66834629 39:0.380421 
3.646018283425715 1:0.36339886 2:0.14642219 3:0.2522822 4:0.20145036 5:-0.68762994 6:-0.41475559 7:-0.4513287 8:0.29293219 9:-0.073379579 10:0.28244091 11:-0.018386455 12:-0.11600767 13:-0.11616961 16:0.41201253 17:-0.25312704 18:0.7089845 19:0.055258915 20:-0.05345025 21:-0.76456986 22:0.284716 23:-0.50301902 24:-0.06878537 25:-0.12929168 26:-0.059530092 27:0.051297711 28:0.39341653 29:0.39394802 30:-0.04391716 31:-0.16628288 32:-0.019680125 33:0.040374645 34:0.24616909 35:-0.18341853 36:-0.33923738 37:-0.17278025 38:-0.56272031 39:0.50977516 
0.5499800679975904 1:0.44362204 2:0.51972839 3:0.3794074 4:-0.013113835 5:-0.62552638 6:-0.29170462 7:-0.23656188 8:0.12520605 9:-0.037754292 10:0.23829249 11:0.30060583 12:-0.22202573 13:-0.09102329 16:0.28151704 17:-0.18692208 18:0.23528599 19:0.49750559 20:-0.61287897 21:-0.3746344 22:0.13793639 23:-0.62408496 24:0.24961104 25:-0.41633038 26:-0.26853806 27:0.085726442 28:0.34642258 29:0.3828038 30:-0.056450717 31:-0.25661162 32:0.11661433 33:0.049449899 34:0.20629196 35:-0.17645061 36:-0.2799317 37:-0.27543501 38:-0.47641372 39:0.57831422 
3.939722963216942 1:0.35876664 2:0.28175344 3:0.37983551 4:0.26808544 5:-0.61358806 6:-0.33114954 7:-0.33941202 8:0.31927411 9:-0.06431393 10:0.24833049 11:-0.014232979 12:-0.08625932 13:0.023047791 16:0.41186147 17:0.082854862 18:-0.12429862 19:0.6289852 20:-0.44134653 21:-0.25162922 22:-0.16261769 23:-0.56690232 24:-0.14030607 25:-0.085339987 26:-0.071109541 27:0.088598504 28:0.38915685 29:0.39215905 30:-0.036793982 31:-0.16482177 32:0.026496637 33:-0.024524176 34:0.25066304 35:-0.15969807 36:-0.3524547 37:-0.12945827 38:-0.50401338 39:0.47680186 
0.8296111057875633 1:0.44182731 2:0.92351307 3:0.44211109 4:-0.46605933 5:-0.60377771 6:-0.22913711 7:-0.20382402 8:-0.4132583 9:0.15133324 10:0.21875863 11:-0.079488443 12:-0.2976219 13:-0.15974387 16:0.93826143 17:-0.70838276 18:0.35516797 19:0.056814508 20:-0.15850084 21:-0.89450967 22:0.20035273 23:-0.77672119 24:0.54893254 25:-0.40238551 26:-0.049840115 27:-0.44661908 28:0.19808895 29:0.43598424 30:-0.17128812 31:0.55113037 32:0.15264365 33:0.013688625 34:-0.90415634 35:0.09770568 36:0.34987558 37:-0.68409321 38:0.22855547 39:0.59228305 
0.4431505072234205 1:0.03598049 2:0.68386413 3:0.29307165 4:-0.20160121 5:-0.56120661 6:-0.54155377 7:-0.10713644 8:-0.16420221 9:-0.086806878 10:0.21435021 11:-0.0732937 12:-0.33022841 13:-0.37347341 16:0.98901059 17:-0.81549755 18:0.20205326 19:0.15709348 20:-0.24442163 21:-0.80714376 22:0.16630061 23:-0.6577128 24:0.49810792 25:-0.45363705 26:-0.077641563 27:0.015201494 28:0.37913526 29:0.35110492 30:-0.071470613 31:-0.13142953 32:-0.026255072 33:-0.28359789 34:-0.14062341 35:-0.17761186 36:0.27200229 37:-0.030879837 38:-0.45891812 39:0.59020184 
0.678341254473582 1:0.33365965 2:0.36475556 3:0.283556 4:0.021531877 5:-0.63527826 6:-0.31676717 7:-0.3266302 8:0.092026362 9:-0.10211893 10:0.22497239 11:0.13542333 12:-0.26998156 13:-0.18236531 14:1 16:0.76593429 17:-0.73226951 18:-0.12069664 19:0.20600328 20:-0.40671753 21:-0.83251585 22:0.24426133 23:-0.77793538 24:0.25187038 25:-0.42504122 26:-0.10541205 27:0.023336153 28:0.39360041 29:0.3954664 30:-0.038560452 31:-0.18016475 32:0.013364935 33:0.038964022 34:0.21666614 35:-0.18196568 36:-0.31159341 37:-0.19889209 38:-0.51639664 39:0.55035935 
0.09636885066225116 1:0.14368731 2:0.61471922 3:0.54820605 4:-0.023870255 5:-0.73583943 6:-0.21668126 7:-0.16359785 8:0.090741305 9:-0.034187061 10:0.23480296 11:0.24200444 12:-0.38579053 13:-0.135144 16:0.43034593 17:-0.6849353 18:-0.12261098 19:0.19322007 20:-0.29727271 21:-0.9271668 22:0.23740336 23:-0.82586526 24:0.38221589 25:-0.45268238 26:-0.28883283 27:0.088087829 28:0.44174713 29:0.49437941 30:0.01079793 31:-0.04401015 32:0.12615778 33:0.026885492 34:0.20095717 35:-0.20438676 36:-0.27676825 37:-0.4103674 38:-0.71492978 39:0.70275977 
2.056628042981537 1:0.43935193 2:0.53778814 3:0.33925452 4:0.023093783 5:-0.49371636 6:-0.35382712 7:-0.21792609 8:0.19132418 9:0.024332951 10:0.16880913 11:0.11698203 12:-0.16798939 13:-0.024025073 16:0.45289787 17:-0.52076835 18:-0.2564941 19:0.58272266 20:-0.27753658 21:-0.96119311 22:0.50533116 23:-0.47778788 24:-0.26673323 25:-0.080637485 26:0.047930444 27:-0.24429245 28:0.35102716 29:0.32701731 30:-0.11294824 31:-0.22811119 32:-0.038078974 33:-0.0029183185 34:0.23644067 35:-0.19415059 36:-0.23008312 37:-0.032464701 38:-0.28527734 39:0.55200717 
0.5296266551280922 1:0.19594277 2:0.32183538 3:0.33057636 4:0.083140901 5:-0.66890802 6:-0.35221776 7:-0.34198718 8:0.22387211 9:-0.018714628 10:0.25287945 11:0.12530541 12:-0.16981096 13:-0.10803539 15:-1 16:0.34770301 17:-0.43579039 18:0.61753192 19:0.44928935 20:-0.58268139 21:-0.82875194 22:0.13264582 23:-0.61410754 24:0.21417196 25:-0.32598383 26:-0.092424714 27:0.067541629 28:0.34374213 29:0.39937911 30:-0.040616449 31:-0.11645963 32:-0.0065978257 33:0.063496995 34:0.22673331 35:-0.18632668 36:-0.31227092 37:-0.23281734 38:-0.52189097 39:0.6174268 
0.8825276921788183 1:0.38038155 2:0.038259004 3:0.12209216 4:0.11387786 5:-0.73303576 6:-0.43021549 7:-0.51900714 8:0.21181559 9:-0.15618298 10:0.24751562 11:-0.0092129104 12:-0.056737704 13:-0.14988459 16:0.89443206 17:-0.3556574 18:0.078641616 19:0.5184835 20:-0.32146295 21:-0.83215858 22:0.43473861 23:-0.35792542 24:-0.17598488 25:-0.19686385 26:0.094777269 27:-0.10089465 28:0.42801361 29:0.39696754 30:-0.034314931 31:-0.17354782 32:-0.0063394282 33:0.047395054 34:0.23192038 35:-0.17681908 36:-0.34708223 37:-0.14991436 38:-0.56636461 39:0.4583091 
0.4423035191955577 1:0.44186528 2:0.72015382 3:0.27805235 4:-0.17552824 5:-0.42820711 6:-0.60232997 7:-0.10535158 8:0.068795939 9:0.17958034 10:0.14700789 11:0.048901972 12:-0.094483857 13:-0.18214067 16:0.51925743 17:-0.89512044 18:0.4742269 19:0.4768307 20:-0.44984426 21:-0.85248752 22:0.20555935 23:-0.69038699 24:0.42051025 25:-0.29168417 26:-0.095387157 27:0.04581792 28:0.028312905 29:0.24310177 30:-0.27685334 31:-0.097083261 32:-0.058090867 33:-0.076651622 34:-0.23470525 35:-0.32318638 36:0.29173477 37:-0.29580678 38:0.070593972 39:0.66768598 
1.153830297263883 1:0.061896376 2:-0.10868354 3:0.16209717 4:0.35259405 5:-0.56279333 6:-0.21615353 7:-0.49864309 8:0.33736874 9:-0.07487076 10:0.40767789 11:-0.069089367 12:-0.12847147 13:-0.33307335 16:0.97645485 17:-0.64821879 18:-0.23876697 19:0.70253305 20:-0.52933611 21:-0.10623311 22:-0.028058334 23:-0.23064368 24:0.016604803 25:-0.064304346 26:-0.036210922 27:0.050290632 28:0.38101215 29:0.40504625 30:-0.020377669 31:-0.14371118 32:0.022128483 33:0.025750962 34:0.2651601 35:-0.18392238 36:-0.36385397 37:-0.19361751 38:-0.57373048 39:-0.028270779 
0.2184105423917701 1:0.44217068 2:0.33969725 3:0.3373427 4:0.039702027 5:-0.7185572 6:-0.55879421 7:-0.36927478 8:0.2334885 9:0.017259278 10:0.083423153 11:-0.11878842 12:-0.3506866 13:-0.17512573 15:1 16:0.35414221 17:-0.83665865 18:-0.0010429202 19:0.52792632 20:-0.59459507 21:-0.71098474 22:0.10564913 23:-0.67650876 24:0.046838187 25:-0.027578635 26:-0.054873356 27:-0.11464367 28:0.37093436 29:0.38227445 30:-0.060594277 31:-0.18108999 32:0.042455268 33:0.020624225 34:0.20795172 35:-0.19093207 36:-0.30004056 37:-0.17608619 38:-0.4570846 39:0.73531476 
0.2361654668212211 1:0.081663858 2:0.18061026 3:0.11792951 4:0.074397005 5:-0.59833197 6:-0.60631123 7:-0.37716063 8:0.19732908 9:-0.079580673 10:0.14274946 11:-0.29476208 12:-0.36486538 13:-0.50994812 16:0.36872602 17:-0.81431623 18:0.10486831 19:0.43957281 20:-0.4846779 21:-0.60843606 22:0.0955578 23:-0.46584679 24:-0.071250968 25:-0.023841264 26:-0.073648066 27:-0.0032422993 28:0.34900634 29:0.35177305 30:-0.12297761 31:-0.25465153 32:-0.077650178 33:-0.089060807 34:0.12366891 35:-0.17291106 36:-0.13843507 37:0.077347517 38:-0.40086842 39:0.49332392 
0.8307331212973748 1:0.34754166 2:0.7762273 3:0.56041204 4:-0.35466794 5:-0.66331128 6:-0.40422661 7:-0.3637457 8:-0.11671457 9:0.45396922 10:0.11808334 11:-0.16287801 12:0.029493462 13:0.3240353 16:0.25706663 17:-0.83821732 18:0.0089030737 19:0.60413919 20:-0.71998683 21:-0.10612596 22:0.11835819 23:-0.76852144 24:-0.13496441 25:-0.12853496 26:0.09101254 27:-0.73131721 28:0.074925419 29:0.37310182 30:-0.12753411 31:0.66476989 32:0.35182352 33:0.10129866 34:-0.90730457 35:0.18163243 36:0.23595868 37:-0.93417451 38:0.569626 39:0.80930528 
0.4816386523102939 1:0.41534538 2:0.62033026 3:0.53619567 4:-0.098930066 5:-0.76074722 6:-0.57025815 7:-0.27953772 8:0.17167525 9:0.1436409 10:-0.022171152 11:0.074126239 12:-0.29464207 13:0.049126063 14:1 16:0.28286239 17:-0.89122669 18:0.16967703 19:0.65830635 20:-0.67978753 21:-0.28510761 22:0.01209462 23:-0.83527301 24:-0.32174356 25:-0.28080238 26:0.14537221 27:-0.48039121 28:0.35832417 29:0.4120521 30:-0.075839802 31:-0.099288321 32:0.092451523 33:0.21743816 34:-0.11327622 35:-0.25240774 36:-0.093194402 37:-0.5929109 38:-0.31011271 39:0.8211042 
0.2980881018973398 1:0.34116088 2:0.24911466 3:0.3631561 4:0.17335928 5:-0.70492991 6:-0.51423524 7:-0.35345538 8:0.37138213 9:0.10730715 10:0.27528772 11:0.0041519663 12:-0.25771332 13:-0.23875471 16:-0.18379499 17:-0.48421567 18:0.48518755 19:0.54429198 20:-0.58149824 21:-0.48493856 22:0.0042810362 23:-0.673024 24:-0.043883552 25:-0.051089566 26:0.047641532 27:-0.042179362 28:0.40339675 29:0.39181496 30:-0.034643887 31:-0.16055617 32:-0.017210181 33:0.062363543 34:0.20373838 35:-0.17963395 36:-0.3493928 37:-0.15925391 38:-0.5455173 39:0.77745331 
0.484274553895465 1:0.36970027 2:0.50623953 3:0.55482705 4:0.038642781 5:-0.77978015 6:-0.63748935 7:-0.1949119 8:0.29509743 9:0.063415058 10:0.094155765 11:0.18714864 12:-0.14227814 13:-0.038262962 15:-1 16:-0.11733666 17:-0.7341583 18:0.21047696 19:0.56470413 20:-0.68163811 21:-0.18037442 22:0.043027076 23:-0.7094072 24:-0.34601424 25:-0.20592715 26:-0.083984617 27:0.11742793 28:0.37365157 29:0.42283951 30:-0.038983552 31:-0.15719729 32:0.014106422 33:-0.019008245 34:0.23777591 35:-0.068360492 36:-0.24828397 37:-0.25056316 38:-0.58704817 39:0.83111561 
0.6748209377396059 1:0.37472984 2:0.69235851 3:0.53260794 4:-0.071400336 5:-0.59673987 6:-0.53765386 7:-0.20907642 8:0.13745279 9:0.29631505 10:0.24393907 11:0.24385691 12:-0.16260196 13:-0.092892632 16:-0.63284853 17:-0.83327998 18:0.66277037 19:0.49016496 20:-0.70228376 21:-0.16436032 22:0.21835459 23:-0.66158155 24:-0.16716914 25:-0.053182116 26:0.039497409 27:-0.41689654 28:0.30327414 29:0.30862017 30:-0.10550246 31:-0.029481378 32:0.047175877 33:0.14590709 34:-0.31550372 35:-0.20913899 36:0.042752247 37:-0.41286791 38:-0.22409302 39:0.85165999 
1.008778774097568 1:0.093150905 2:-0.098218724 3:0.40140455 4:0.55370389 5:-0.67924383 6:-0.24045079 7:-0.4595556 8:0.58597143 9:0.072731258 10:0.58893726 11:0.048438739 12:0.057455815 13:-0.14928677 16:-0.16261094 17:-0.65521034 18:0.5140759 19:0.33176066 20:-0.57553009 21:-0.40155137 22:-0.13761256 23:-0.5979132 24:-0.012066443 25:0.09755932 26:0.054915282 27:0.10734974 28:0.47795071 29:0.47766106 30:0.060311991 31:-0.095141054 32:0.069815799 33:0.061967416 34:0.27100287 35:-0.19138124 36:-0.39403451 37:-0.29798774 38:-0.75820128 39:0.25954899 
2.125165269640439 1:0.21602775 2:0.4341746 3:0.46218341 4:0.20576345 5:-0.55604411 6:-0.35479925 7:-0.22030437 8:0.32744342 9:0.1099768 10:0.31708668 11:0.31281913 12:-0.10874172 13:-0.13702843 16:-0.1922129 17:-0.44413023 18:-0.06740864 19:0.56975659 20:-0.75157827 21:0.2439048 22:-0.018170868 23:-0.4125985 24:-0.22369523 25:-0.19171008 26:-0.1654783 27:0.10779743 28:0.32479338 29:0.35906048 30:-0.064420471 31:-0.15513887 32:-0.024618792 33:0.091147718 34:0.18310727 35:-0.27770696 36:-0.24268073 37:-0.22930536 38:-0.45500566 39:0.75040718 
0.8929590456973141 1:0.33067572 2:0.80781611 3:0.68756865 4:-0.18374339 5:-0.73945887 6:-0.32542246 7:-0.15691919 8:0.037997759 9:0.24698511 10:0.14556481 11:0.23950989 12:-0.12271233 13:-0.017677071 15:1 16:0.25706882 17:-0.77647503 18:0.27937494 19:0.62418157 20:-0.80692106 21:0.43716912 22:0.10998755 23:-0.64344668 24:-0.30254355 25:-0.18972294 26:-0.25349721 27:-0.28961153 28:0.26548293 29:0.39707067 30:0.084055537 31:0.26848261 32:0.10638892 33:0.28988653 34:-0.58718095 35:-0.18094529 36:0.17187552 37:-0.85303824 38:-0.37320106 39:0.83175861 
0.7017710690381287 1:-0.077754948 2:0.31569566 3:0.45152866 4:0.20157453 5:-0.67720583 6:-0.40458329 7:-0.29461437 8:0.35257172 9:0.12783193 10:0.32409168 11:0.14728927 12:-0.16916181 13:-0.18589717 16:-0.54974037 17:-0.61355049 18:-0.030709796 19:0.69497847 20:-0.88122955 21:-0.059879037 22:0.091137295 23:-0.50068103 24:-0.39425147 25:0.042748381 26:-0.021256615 27:-0.072742052 28:0.40994592 29:0.41081208 30:-0.015720549 31:-0.10134127 32:-0.0024661376 33:0.13095609 34:0.11296532 35:-0.11009811 36:-0.37766513 37:-0.19307973 38:-0.56934718 39:0.7871123 
0.6559456513872596 1:0.088441246 2:0.79276805 3:0.85051341 4:0.17478599 5:-0.51690425 6:-0.28462304 7:-0.31636183 8:0.076982377 9:0.30081803 10:0.4127672 11:0.25735921 12:-0.013328431 13:-0.080855913 16:0.77718303 17:-0.62945144 18:0.2703381 19:0.35462282 20:-0.85734977 21:-0.49085849 22:0.20577475 23:-0.44462609 24:-0.45572521 25:-0.19954634 26:0.13544367 27:-0.36286163 28:0.21267476 29:0.13857631 30:0.51901932 31:-0.30390158 32:0.7042431 33:-0.41296388 34:0.17727478 35:-0.21530155 36:0.25877164 37:-0.75792507 38:-0.29479921 39:0.89968726 
3.45455897260888 1:0.15887452 2:0.33122736 3:0.52912204 4:0.47213688 5:-0.49030078 6:-0.36284904 7:-0.4791965 8:0.31137483 9:0.086306388 10:0.52539954 11:0.23845566 12:-0.031147837 13:-0.1442832 16:0.078445723 17:-0.21351906 18:0.69028762 19:0.30266952 20:-0.86001869 21:-0.29325765 22:-0.12869306 23:-0.10016068 24:-0.17581616 25:0.044529837 26:-0.0094734157 27:-0.024325698 28:0.40304485 29:0.37879678 30:-0.049045433 31:-0.13889362 32:0.0014608937 33:-0.0086398629 34:0.26022495 35:-0.15467645 36:-0.34505323 37:-0.1769365 38:-0.51339972 39:0.649703 
0.1321481758399529 1:0.022482113 2:0.28781782 3:0.47734543 4:0.52444263 5:-0.47255114 6:-0.24503044 7:-0.44481305 8:0.33494531 9:0.032739854 10:0.43214076 11:0.052903922 12:-0.08720651 13:-0.23118201 16:-0.1216633 17:0.11191579 18:-0.0056413788 19:-0.086771944 20:-0.21340772 21:-0.83390804 22:0.0062787166 23:-0.072412509 24:-0.18520926 25:0.013354894 26:0.0075303172 27:0.0029607054 28:0.37074328 29:0.38602254 30:-0.029958717 31:-0.16858388 32:0.16541847 33:-0.10082168 34:0.23233041 35:-0.1587772 36:-0.44098585 37:-0.10122573 38:-0.59200406 39:0.58972842 
1.95898677309604 1:-0.15437874 2:0.042023491 3:0.54815991 4:0.68059134 5:-0.55204914 6:-0.24933532 7:-0.58321842 8:0.41515849 9:0.061139517 10:0.68899779 11:0.26031604 12:0.10178975 13:-0.18540802 16:0.20162795 17:-0.38031532 18:0.72186115 19:0.24059244 20:-0.84010836 21:-0.31177638 22:-0.010592167 23:-0.082590405 24:-0.094443663 25:0.090007412 26:0.066318898 27:0.042525717 28:0.47643008 29:0.46383179 30:0.059298619 31:-0.092649771 32:0.044041663 33:0.072420356 34:0.2724051 35:-0.19174732 36:-0.39582351 37:-0.29434727 38:-0.72607194 39:0.43271512 
0.8466790273769198 1:-0.066311201 2:0.72432781 3:0.90469776 4:0.2318134 5:-0.52307135 6:-0.21363066 7:-0.41574548 8:0.19429278 9:0.40564423 10:0.42731879 11:-0.10833675 12:-0.014239227 13:-0.08486892 16:0.4463544 17:0.14816243 18:-0.19429653 19:0.15715668 20:-0.42721415 21:-0.96027334 22:-0.031591236 23:-0.2354104 24:-0.10674669 25:0.044832597 26:-0.15502828 27:-0.19577965 28:0.10229898 29:0.59139596 30:-0.15286231 31:0.13188061 32:0.76926917 33:-0.5906549 34:0.32021073 35:-0.029314413 36:0.28260267 37:-0.65276916 38:-0.30020533 39:0.84466781 
3.306599628539749 1:-0.14744175 2:0.46144904 3:0.61093528 4:0.49353686 5:-0.43136051 6:-0.28304239 7:-0.37481833 8:0.36445952 9:0.11165029 10:0.47727441 11:0.096945049 12:-0.11824202 13:-0.22380255 16:0.33555463 17:-0.44957032 18:-0.013900172 19:0.23616126 20:-0.20078398 21:-0.85562397 22:-0.5789536 23:0.24523965 24:-0.24993568 25:-0.052558072 26:-0.13561006 27:0.12800459 28:0.29052892 29:0.37452576 30:-0.12740713 31:-0.13141092 32:0.12876864 33:-0.13265094 34:0.26414432 35:-0.2019361 36:-0.19458305 37:-0.25860271 38:-0.47795722 39:0.64291061 
0.6458073289588919 1:-0.052234943 2:0.5061784 3:0.61675041 4:0.40652362 5:-0.4602683 6:-0.19023579 7:-0.23571378 8:0.39282401 9:0.19398057 10:0.50151788 11:0.15741161 12:-0.15219814 13:-0.18558894 16:-0.5164571 17:-0.213591 18:-0.17490948 19:0.0038170028 20:-0.12380182 21:-0.74257366 22:-0.19563468 23:-0.11465723 24:-0.24415411 25:-0.1390957 26:0.014805281 27:-0.095530115 28:0.41155725 29:0.35149349 30:-0.044601356 31:-0.043832131 32:0.11850716 33:-0.11751136 34:0.2666364 35:-0.16506181 36:-0.18276488 37:-0.39643302 38:-0.44888802 39:0.71626778 
15.24298792313153 1:-0.35593654 2:-0.056854343 3:0.41352887 4:0.60738414 5:-0.58821212 6:-0.19004475 7:-0.51563673 8:0.4846059 9:-0.032329066 10:0.5162463 11:0.0012131253 12:0.080729484 13:-0.12017695 16:-0.45782317 17:-0.00099011639 18:0.1112684 19:-0.0087421655 20:-0.22182459 21:-0.4642149 22:-0.15722086 23:-0.23613541 24:-0.092845565 25:0.090827912 26:0.095982755 27:0.073359127 28:0.45196977 29:0.4622986 30:0.052864921 31:-0.12432372 32:0.074029435 33:0.047607944 34:0.26997804 35:-0.17934923 36:-0.38295189 37:-0.27306143 38:-0.72627386 39:-0.01308324 
3.242203252208922 1:-0.16846969 2:0.24087048 3:0.45023335 4:0.50569591 5:-0.4412832 6:-0.1608439 7:-0.32941278 8:0.48068753 9:0.10146833 10:0.48536047 11:0.027966818 12:-0.10379455 13:-0.25849557 16:-0.0074809289 17:-0.75335486 18:0.24543238 19:0.11904842 20:-0.36942937 21:-0.34619268 22:-0.22400695 23:-0.2746829 24:0.08489296 25:-0.16158982 26:0.027950344 27:0.012765394 28:0.36829146 29:0.39416174 30:-0.027061571 31:-0.17275598 32:0.025142267 33:0.011510624 34:0.26712865 35:-0.2776114 36:-0.31475421 37:-0.15679102 38:-0.53687299 39:0.3983574 
0.3117995586633647 1:-0.087038103 2:0.49646047 3:0.71463391 4:0.42100497 5:-0.4310505 6:-0.14317557 7:-0.25554458 8:0.41737293 9:0.34654338 10:0.75057581 11:0.39203044 12:0.034113716 13:-0.096492167 16:0.39166201 17:-0.010620848 18:-0.24575041 19:0.43019391 20:-0.90417064 21:-0.47825013 22:-0.047056542 23:-0.28794469 24:-0.13987203 25:-0.15781388 26:0.24627414 27:-0.45398332 28:0.63653055 29:0.36459958 30:0.028963742 31:-0.14249212 32:0.49304833 33:-0.51250298 34:0.3720584 35:-0.028848555 36:-0.19120773 37:-0.42663025 38:-0.48672587 39:0.80150598 
0.9413574830839731 1:-0.12106305 2:0.59225946 3:0.76581702 4:0.28709537 5:-0.44783049 6:-0.12358238 7:-0.35985426 8:0.39878271 9:0.41887787 10:0.56837218 11:0.063130633 12:-0.039694433 13:0.091932567 16:0.68840258 17:-0.22311209 18:0.22302886 19:0.58005563 20:-0.65103211 21:-0.31501934 22:-0.2360632 23:-0.52556734 24:0.040125466 25:-0.30532708 26:0.19510457 27:-0.58839822 28:0.10651378 29:0.44068006 30:0.070730109 31:-0.18785313 32:0.65976468 33:-0.55017667 34:0.70071776 35:-0.20875261 36:-0.096374424 37:-0.44158836 38:-0.45839861 39:0.77683516 
3.491176697029497 1:-0.64359819 2:0.28990996 3:0.20753555 4:-0.030068234 5:-0.34962507 6:0.051884288 7:-0.27457403 8:0.39479277 9:0.18910792 10:0.33511289 11:-0.031068022 12:-0.11381247 13:0.075779601 16:-0.7259557 17:0.21529527 18:0.26045716 19:0.24162705 20:-0.28784654 21:0.20644787 22:-0.37318846 23:-0.10949796 24:-0.13666847 25:-0.1459113 26:-0.087521347 27:-0.28192334 28:-0.26386044 29:0.45433163 30:-0.30365198 31:0.018610182 32:0.059958453 33:0.14830668 34:0.33506618 35:-0.065352088 36:-0.24566838 37:-0.29854365 38:-0.22371217 39:0.23765623 
3.921113530530094 1:-0.41205375 2:0.11949406 3:0.22596974 4:0.29155088 5:-0.32447374 6:0.13422259 7:-0.10883596 8:0.49136823 9:0.010967035 10:0.33974607 11:0.023585641 12:-0.14574105 13:0.031085303 16:0.46248223 17:-0.13439878 18:-0.71658867 19:0.082171474 20:0.31945089 21:0.040377243 22:-0.58857332 23:0.024474549 24:-0.14401445 25:-0.068410058 26:-0.047281632 27:-0.21401625 28:0.5328213 29:0.3186105 30:-0.083159976 31:-0.25139038 32:0.0083719697 33:0.099549442 34:0.29669948 35:-0.16692177 36:-0.31006657 37:-0.11788496 38:-0.62916599 39:0.22594819 
0.415210334480524 1:0.31612279 2:0.42877165 3:0.38343214 4:0.10813193 5:-0.5743107 6:-0.32602301 7:-0.22455963 8:0.16841417 9:-0.21740091 10:-0.17501228 11:-0.085453457 12:-0.034095392 13:0.53977149 16:0.37038828 17:0.18313788 18:-0.28066787 19:-0.69097767 20:0.076103516 21:0.22370939 22:-0.47243477 23:-0.54731641 24:-0.18445478 25:-0.21566213 26:-0.011265144 27:-0.039234609 28:0.37313567 29:0.36324086 30:-0.078939033 31:-0.18422097 32:-0.015197315 33:0.052051148 34:0.21534497 35:-0.16172367 36:-0.36906986 37:-0.10302374 38:-0.42548929 39:0.53360265 
4.933943900395921 1:0.044482676 2:0.30996173 3:0.31280019 4:0.12307938 5:-0.58980875 6:-0.29637754 7:-0.27761732 8:0.17458295 9:-0.24990671 10:-0.13363316 11:-0.10195262 12:-0.016501356 13:0.49871232 16:0.41616783 17:0.15897485 18:-0.28353925 19:-0.65510456 20:0.12267479 21:0.21866768 22:-0.47033225 23:-0.45868528 24:-0.23092856 25:-0.18218121 26:-0.015708804 27:-0.014452933 28:0.36418408 29:0.37111851 30:-0.062027733 31:-0.18108601 32:-0.014357421 33:0.061636782 34:0.23226473 35:-0.16929177 36:-0.38373505 37:-0.11267541 38:-0.46238254 39:0.48374048 
0.137863349805217 1:0.34990481 2:0.47128799 3:0.3061667 4:0.0011937452 5:-0.56845599 6:-0.41921904 7:-0.23510109 8:0.099175828 9:-0.20608442 10:-0.28284464 11:-0.19192327 12:-0.099613655 13:0.5330727 16:0.34796591 17:0.12280719 18:-0.16380589 19:-0.48353452 20:0.082364421 21:0.20775684 22:-0.3727857 23:-0.5185314 24:-0.25753257 25:0.039302345 26:-0.12071176 27:-0.015961129 28:0.24527757 29:0.34553004 30:-0.12895741 31:-0.19608137 32:0.061360171 33:-0.14153806 34:0.281249 35:-0.19291675 36:-0.26621384 37:-0.16779701 38:-0.32395611 39:0.52849489 
1.52365131069872 1:0.4777099 2:0.47566599 3:0.43469464 4:0.081192605 5:-0.61285927 6:-0.36719984 7:-0.21737685 8:0.19291928 9:-0.13749899 10:-0.21390097 11:-0.22894876 12:-0.069938965 13:0.64989288 16:0.49569221 17:-0.23096901 18:0.09249022 19:-0.58748605 20:0.31823016 21:0.39367249 22:-0.39317021 23:-0.54338885 24:-0.57012853 25:0.29513604 26:-0.13296877 27:-0.033190655 28:0.23974584 29:0.40750687 30:-0.029344737 31:-0.17517335 32:0.026839119 33:0.057705242 34:0.19080788 35:-0.19945901 36:-0.29499507 37:-0.16718616 38:-0.43975856 39:0.50593249 
1.884896641280906 1:0.20305457 2:-0.19718453 3:0.20979429 4:0.29808239 5:-0.86787053 6:-0.42882299 7:-0.60522119 8:0.26580035 9:-0.38175855 10:-0.041426468 11:-0.33241185 12:0.11973538 13:0.30978597 16:0.47246751 17:-0.057296776 18:0.081808752 19:-0.49361488 20:0.29238579 21:0.14565836 22:-0.28954821 23:-0.4615426 24:-0.16879144 25:0.11453674 26:0.16094513 27:0.11927156 28:0.44646828 29:0.46773536 30:0.057717065 31:-0.10338943 32:0.064332195 33:0.066448492 34:0.26266494 35:-0.18932841 36:-0.38537647 37:-0.29146039 38:-0.74194111 39:0.2054454 
0.4529552717256587 1:0.4097849 2:0.15904655 3:0.27274616 4:0.26473345 5:-0.54007638 6:-0.16078615 7:-0.25686023 8:0.30697526 9:-0.19482733 10:0.061269256 11:-0.15155886 12:-0.050261883 13:0.16229674 14:1 16:0.45155833 17:-0.3213697 18:0.11796714 19:-0.262924 20:-0.29108765 21:0.41542424 22:-0.48577663 23:-0.328052 24:-0.33906875 25:0.10884303 26:-0.15895214 27:0.033564052 28:0.40796376 29:0.39368065 30:-0.052076201 31:-0.16188855 32:-0.0077873301 33:0.021125876 34:0.25056454 35:-0.17519089 36:-0.3474948 37:-0.16370163 38:-0.56438529 39:0.38944036 
0.2413992748453844 1:0.49670225 2:0.0007010906 3:0.20436081 4:0.33747978 5:-0.45513899 6:-0.1654438 7:-0.41581867 8:0.15700666 9:-0.3661165 10:-0.14989139 11:-0.39402401 12:0.023046569 13:0.5159668 16:0.87607149 17:0.026701716 18:-0.073796945 19:-0.68421033 20:-0.28277353 21:0.48028695 22:-0.63489588 23:-0.56861991 24:0.019198035 25:0.19453384 26:-0.14452934 27:-0.0052506947 28:0.36072109 29:0.38947309 30:-0.04641228 31:-0.17043898 32:-0.0097764848 33:0.024869901 34:0.24517145 35:-0.17989865 36:-0.33953287 37:-0.14039902 38:-0.50686511 39:0.20304477 
0.9426227156799679 1:0.11671354 2:-0.14733746 3:0.1430267 4:0.40621042 5:-0.45089759 6:-0.10728899 7:-0.43474456 8:0.29982971 9:-0.22477373 10:0.11570154 11:-0.33611771 12:-0.049767076 13:0.16323271 15:-1 16:0.38404961 17:-0.016755165 18:0.062600178 19:-0.6730125 20:0.019784159 21:0.45524852 22:-0.67178195 23:-0.36828287 24:-0.012275773 25:0.1403891 26:-0.086380112 27:0.0042279849 28:0.37170763 29:0.39748975 30:-0.034099365 31:-0.16431524 32:0.0029752599 33:0.036569932 34:0.25106052 35:-0.18270706 36:-0.35030991 37:-0.16686945 38:-0.53637563 39:-0.19183986 
0.3452331387522104 1:0.37620698 2:0.71118665 3:0.29587928 4:-0.28393776 5:-0.39875602 6:-0.25823048 7:-0.31431346 8:-0.31672326 9:-0.024085884 10:-0.14228963 11:-0.33064098 12:-0.31373316 13:0.65847809 14:-1 16:0.95319994 17:-0.049474618 18:0.049662066 19:-0.42234808 20:-0.34042053 21:0.47188509 22:-0.62628919 23:-0.44790655 24:0.75528041 25:0.30725174 26:-0.68302744 27:-0.055259673 28:0.090390847 29:0.33997398 30:-0.092129266 31:-0.16452749 32:0.14977487 33:-0.095172512 34:0.097485149 35:-0.1778385 36:-0.052767158 37:-0.30436568 38:0.43155383 39:0.38977675 
