svm_type c_svc
kernel_type rbf
gamma 0.76923
nr_class 2
total_sv 3661
rho 0.356857
label 1 -1
nr_sv 1824 1837
SV
2.645775623007486 1:-0.32782931 2:0.57002309 3:0.29377197 4:0.24864147 5:-0.40631538 6:0.1150776 7:-0.10406399 8:0.49411737 9:0.15685226 10:0.49432561 11:0.27182869 12:0.056132855 13:0.32183568 16:-0.22289537 17:0.65220872 18:0.2461003 19:0.24143824 20:-0.53575737 21:0.17993644 22:-0.35824135 23:-0.2516669 24:-0.13399123 25:0.043523222 26:-0.3947119 27:0.040070311 28:0.049402564 29:0.017611307 30:0.1474722 31:-0.073486315 32:0.096293272 33:0.059582805 34:0.32540581 35:-0.35991445 36:-0.46628993 37:-0.34730422 38:-0.24667724 39:0.38903895 
1.115017112039747 1:-0.18753029 2:0.58190545 3:0.3126167 4:0.35069759 5:-0.2145185 6:0.26352461 7:-0.02174488 8:0.54250225 9:0.099259181 10:0.28825032 11:-0.055519742 12:-0.094184082 13:0.16836976 16:-0.55630856 17:-0.14564068 18:-0.35218588 19:0.21954665 20:0.21985975 21:-0.18493339 22:-0.37125413 23:0.017184281 24:-0.41154305 25:0.11060485 26:0.024231734 27:-0.29733307 28:-0.010133521 29:-0.018049884 30:0.099295433 31:-0.024961775 32:0.035388406 33:0.0093099679 34:0.31845147 35:-0.27077117 36:-0.36364838 37:-0.42851095 38:-0.25089702 39:0.30665151 
6.170972734460589 1:-0.47081477 2:0.40867547 3:0.34708292 4:0.61998511 5:-0.34755366 6:0.27870188 7:-0.12491023 8:0.6530356 9:-0.0032458598 10:0.31038785 11:-0.21511644 12:-0.034455005 13:0.11032098 16:-0.72382295 17:-0.075374036 18:-0.19442178 19:0.25552333 20:0.20204706 21:-0.052563294 22:-0.43960235 23:-0.036360316 24:-0.35085678 25:0.1230688 26:0.15645691 27:-0.18972899 28:0.16516024 29:0.048610173 30:0.15734757 31:0.029742527 32:0.029600943 33:0.11393292 34:0.2821241 35:-0.33787222 36:-0.44274193 37:-0.43731211 38:-0.5718522 39:0.05697958 
0.7350332058187213 1:-0.11099958 2:0.80545787 3:0.61664047 4:0.21311233 5:-0.10316995 6:0.34478859 7:-0.18453733 8:0.35199723 9:0.43821966 10:0.14380928 11:-0.24544317 12:0.44597654 13:-0.0010950188 16:-0.92006189 17:-0.14115921 18:0.079801218 19:0.22248957 20:0.041937663 21:-0.35180501 22:-0.22637485 23:0.026178654 24:-0.42762629 25:-0.12846383 26:-0.18368613 27:0.36832005 28:-0.33237163 29:-0.27296748 30:0.14744517 31:0.59506067 32:0.73457852 33:-0.73341685 34:0.41229 35:-0.38714694 36:0.38551679 37:-0.73302187 38:0.19164708 39:0.4234725 
3.596179164459275 1:-0.029289451 2:0.57826656 3:0.48918623 4:0.67624832 5:-0.13834344 6:0.31195626 7:-0.24054873 8:0.31963568 9:-0.090625649 10:0.31685731 11:0.0021962163 12:0.07169834 13:0.15117151 16:-0.76833007 17:0.30649411 18:-0.82532079 19:-0.17908562 20:0.19765225 21:-0.084590196 22:-0.24747596 23:0.1855003 24:-0.17723171 25:-0.074953075 26:-0.13462289 27:0.045162546 28:-0.15409317 29:0.073203413 30:0.12104038 31:0.0094437027 32:0.16339664 33:-0.019760595 34:0.21952473 35:-0.3185006 36:-0.32921797 37:-0.44125814 38:-0.43384695 39:0.077800556 
0.8643353213905849 1:-0.015518695 2:0.75908217 3:0.5767476 4:0.37671185 5:-0.26766969 6:0.32386126 7:0.073701789 8:0.42458777 9:0.23660985 10:0.47767559 11:-0.060390802 12:0.12071822 13:0.13730991 16:-0.59509927 17:-0.013186424 18:-0.37473192 19:0.2445441 20:0.32013698 21:-0.41738126 22:0.17686859 23:-0.28603789 24:-0.30605301 25:-0.18045273 26:-0.12256966 27:-0.11058565 28:-0.2753151 29:0.076601581 30:0.15204266 31:0.043371883 32:0.68075008 33:-0.78256192 34:0.50627043 35:-0.11160437 36:0.16244244 37:-0.86264983 38:-0.095512472 39:0.55371768 
16.5113403049581 1:-0.32215815 2:0.27853216 3:0.38558772 4:0.89357361 5:-0.24298005 6:0.29830681 7:-0.40191511 8:0.44270279 9:-0.17149423 10:0.37780428 11:-0.17585673 12:0.091021223 13:0.15070892 16:-0.72018869 17:0.21922704 18:-0.52343512 19:-0.17367081 20:-0.019967847 21:0.19045395 22:-0.29095133 23:0.058120725 24:0.03087992 25:0.10694036 26:-0.033116548 27:0.069355949 28:0.14377429 29:0.086613833 30:0.18921785 31:0.057627834 32:0.054188647 33:0.12128171 34:0.26347166 35:-0.36145533 36:-0.43383186 37:-0.45918759 38:-0.68233428 39:-0.41384248 
0.5975464278213849 1:-0.077405221 2:0.65548839 3:0.50556808 4:0.55719345 5:-0.21324404 6:0.32400875 7:0.017354169 8:0.55130477 9:0.17400077 10:0.55832227 11:0.030452327 12:-0.0286104 13:0.068717343 16:-0.21523692 17:-0.33802717 18:-0.30409119 19:0.10451343 20:0.37906048 21:-0.46317755 22:0.17091463 23:-0.15139293 24:-0.23825849 25:-0.087247272 26:-0.17571474 27:-0.093780018 28:0.063853501 29:0.024128502 30:0.14634202 31:0.025582235 32:0.28650952 33:-0.42076679 34:0.39652452 35:-0.3157769 36:-0.13045142 37:-0.68293465 38:-0.38798049 39:0.446085 
1.491182483717133 1:-0.04731259 2:0.60758145 3:0.48900816 4:0.56475222 5:-0.2016929 6:0.36876809 7:-0.027832078 8:0.51203866 9:0.030930237 10:0.32322676 11:-0.0030677037 12:0.066134738 13:0.24096167 16:-0.88844043 17:0.050263705 18:-0.16223323 19:0.71613683 20:-0.2567666 21:0.11091672 22:-0.22812416 23:-0.095622216 24:-0.45075079 25:0.12453505 26:-0.21409933 27:-0.070003824 28:0.033594565 29:0.053121248 30:0.10588276 31:-0.014535755 32:0.28494488 33:-0.05275664 34:0.20850985 35:-0.31423879 36:-0.22173652 37:-0.58927707 38:-0.45091957 39:0.29366871 
3.408942619241135 1:-0.3568777 2:0.25293778 3:0.29870487 4:0.78829352 5:-0.27938996 6:0.41002343 7:-0.15767507 8:0.64451881 9:-0.081675328 10:0.4191596 11:-0.028802876 12:0.28798443 13:0.3153984 16:-0.72337252 17:0.10234609 18:-0.024696343 19:-0.12905213 20:0.033075284 21:0.26077586 22:-0.088751219 23:-0.16051731 24:-0.2881136 25:0.22423208 26:-0.025553894 27:0.058597631 28:0.15955092 29:0.085577106 30:0.18787182 31:0.057270516 32:0.05427586 33:0.12585974 34:0.26376955 35:-0.35728339 36:-0.43010979 37:-0.47181039 38:-0.68299642 39:-0.31129434 
1.614147961949018 1:-0.14157552 2:0.70257913 3:0.56764048 4:0.45482637 5:-0.18869613 6:0.31740592 7:-0.14858943 8:0.34875931 9:0.14499541 10:0.45319463 11:-0.030127597 12:0.070658587 13:0.207735 16:-0.52193801 17:-0.13435663 18:-0.30654154 19:0.16591755 20:-0.55708597 21:0.032318913 22:-0.23774892 23:-0.049394296 24:-0.21163719 25:-0.091372102 26:-0.094328066 27:-0.26663576 28:-0.22176604 29:0.02097845 30:0.23790273 31:-0.057698885 32:0.47724945 33:-0.33386307 34:0.2852324 35:-0.33266663 36:0.024451891 37:-0.62908363 38:-0.40062743 39:0.33601297 
0.6127205817174495 1:-0.061648273 2:0.71649529 3:0.49506351 4:0.33765914 5:-0.26969058 6:0.15190309 7:-0.20012991 8:0.34974538 9:0.14127029 10:0.40063596 11:0.26151988 12:0.14677009 13:0.29983481 15:1 16:-0.96937377 17:0.13273507 18:0.025288862 19:0.18956577 20:0.071045655 21:-0.31321314 22:0.10955084 23:-0.11338606 24:-0.21167144 25:-0.36671144 26:0.010502763 27:-0.18512302 28:-0.13902398 29:0.092509206 30:0.09440851 31:-0.10110775 32:0.58130809 33:-0.13301254 34:0.23751844 35:-0.3674455 36:-0.12436261 37:-0.58567123 38:-0.19691631 39:0.47254133 
0.2404553131354341 1:-0.12173964 2:0.62389938 3:0.41354359 4:0.46645853 5:-0.28159964 6:0.19511687 7:-0.17771529 8:0.39852594 9:0.049854099 10:0.43784758 11:0.059100686 12:-0.0081520493 13:0.1875914 16:-0.53867723 17:-0.0086355138 18:0.074261256 19:0.040718124 20:-0.25127254 21:-0.19977925 22:0.16636492 23:-0.35607977 24:-0.15260216 25:0.039705204 26:-0.23427682 27:-0.22447829 28:0.15061587 29:0.049050175 30:0.085981063 31:-0.0087467565 32:0.1944536 33:-0.076509263 34:0.21499223 35:-0.27970042 36:-0.30752673 37:-0.50829921 38:-0.39915512 39:0.46499627 
3.700867424102663 1:-0.3637471 2:0.63484256 3:0.5344912 4:0.45037875 5:-0.44782947 6:0.17427102 7:-0.21561761 8:0.38686396 9:0.096545492 10:0.46637127 11:0.17688343 12:0.12811303 13:0.37416644 16:-0.75331884 17:0.27386961 18:0.027786799 19:-0.11754711 20:0.10484798 21:-0.32707381 22:0.079134921 23:-0.1519353 24:-0.35003399 25:-0.17856087 26:-0.14379511 27:0.0042087689 28:-0.11281362 29:0.076646525 30:0.21552543 31:0.16541145 32:0.13886154 33:-0.060314369 34:0.28201145 35:-0.34592092 36:-0.38183215 37:-0.57834203 38:-0.48195111 39:0.51881681 
0.6806441581493697 1:-0.23067233 2:0.62882097 3:0.43245493 4:0.47528031 5:-0.25058832 6:0.21463547 7:-0.1717953 8:0.39444234 9:0.010106504 10:0.43239262 11:0.12139901 12:0.028778261 13:0.1808912 15:-1 16:-0.54455373 17:-0.12281283 18:0.12675827 19:-0.098014328 20:-0.23071484 21:-0.17026065 22:0.16702531 23:-0.36250982 24:-0.16106524 25:-0.068431827 26:-0.19568996 27:-0.21349584 28:0.16415001 29:0.041496173 30:0.076656613 31:-0.026533829 32:0.14409096 33:-0.0020005106 34:0.20834553 35:-0.25249258 36:-0.29087566 37:-0.51711558 38:-0.40348834 39:0.41458698 
1.508853935077868 1:-0.14943293 2:0.72927901 3:0.40871404 4:0.17564496 5:-0.28905365 6:0.12320352 7:-0.26258007 8:0.25846127 9:0.26805934 10:0.34231015 11:0.16297539 12:0.11090226 13:0.30963736 16:0.15046411 17:-0.17563463 18:-0.088985765 19:0.85921387 20:-0.42255585 21:-0.17034725 22:-0.3028455 23:-0.11695151 24:0.0061575027 25:-0.25618853 26:-0.015593135 27:-0.2842316 28:-0.24241355 29:-0.015141737 30:0.1371074 31:0.062789371 32:0.44755488 33:-0.11943626 34:0.23112493 35:-0.45144122 36:-0.2760429 37:-0.35847529 38:-0.066479588 39:0.426785 
2.188220305644696 1:-0.48073016 2:0.37859013 3:0.33995009 4:0.62753373 5:-0.41614798 6:0.24294907 7:-0.22789616 8:0.57938096 9:-0.0076569885 10:0.53587021 11:0.11632934 12:0.21922518 13:0.20356731 16:-0.10096451 17:-0.21040428 18:0.28762933 19:-0.24666089 20:0.27571587 21:-0.21693726 22:0.085389521 23:-0.070997734 24:-0.35480379 25:0.12903139 26:-0.087942662 27:0.031362015 28:0.13220666 29:0.084646619 30:0.18500894 31:0.063769042 32:0.047099737 33:0.089393771 34:0.30741296 35:-0.37264562 36:-0.44172173 37:-0.44961415 38:-0.67170672 39:0.012658961 
0.6244728249465703 1:-0.22880904 2:0.67138166 3:0.34377281 4:0.27093931 5:-0.30277241 6:0.084325359 7:-0.26338928 8:0.27409073 9:0.1585994 10:0.37927598 11:0.15953105 12:0.084509044 13:0.29747875 16:0.61762195 17:-0.51687515 18:-0.026649505 19:0.77985879 20:-0.46045002 21:-0.13939088 22:-0.27802535 23:-0.048675798 24:-0.1488275 25:-0.31664081 26:-0.00040312582 27:-0.21856877 28:-0.194092 29:0.023809847 30:0.11073494 31:0.026011086 32:0.19859209 33:-0.043774214 34:0.20009954 35:-0.39294283 36:-0.34093501 37:-0.29978194 38:-0.2364014 39:0.37256754 
5.841591020310985 1:0.14633643 2:0.61014562 3:0.37401658 4:0.30510339 5:-0.49364901 6:-0.070049428 7:-0.22563729 8:0.36040959 9:-0.0047792924 10:0.30786173 11:0.15326673 12:0.041517645 13:0.25331637 16:-0.17645071 17:0.23490379 18:0.32831231 19:-0.76087467 20:0.44975566 21:-0.45789763 22:0.017303358 23:-0.23939673 24:-0.22638401 25:-0.13754923 26:-0.11882048 27:-0.053783238 28:0.11230955 29:0.015640688 30:0.1142455 31:-0.023527174 32:0.015304664 33:0.08024406 34:0.24016022 35:-0.37690787 36:-0.37831023 37:-0.33498666 38:-0.47295419 39:0.50474083 
3.433871707978752 1:-0.17641293 2:0.48771447 3:0.28552294 4:0.34644286 5:-0.53229146 6:0.030754568 7:-0.24824322 8:0.4177184 9:-0.046361333 10:0.35033126 11:0.09165962 12:0.052956822 13:0.2067734 16:0.62244674 17:-0.015737143 18:0.40800691 19:-0.70273662 20:0.43991749 21:-0.43268629 22:0.07734182 23:-0.22410902 24:-0.16516422 25:-0.12145309 26:-0.11565795 27:-0.043015039 28:0.15877859 29:0.037173436 30:0.15159758 31:0.011838022 32:0.023619015 33:0.11062145 34:0.26155407 35:-0.37239973 36:-0.41694389 37:-0.3937913 38:-0.56747471 39:0.36106859 
2.206177388048651 1:0.16908441 2:0.52416442 3:0.18327349 4:0.059633679 5:-0.46288473 6:0.23611732 7:-0.078193261 8:0.040870406 9:-0.34784808 10:-0.0031777674 11:0.16730495 12:-0.13425991 13:0.12407365 16:-0.87403253 17:-0.60366845 18:-0.0057231656 19:0.12549262 20:0.048096696 21:-0.025106455 22:0.24677128 23:-0.68369645 24:-0.071633141 25:-0.57865149 26:-0.24130261 27:-0.032630208 28:0.11932222 29:0.051055759 30:0.15822624 31:0.014953733 32:0.069539037 33:0.10430474 34:0.26550951 35:-0.36998877 36:-0.42726756 37:-0.4280866 38:-0.55838552 39:0.35967728 
0.1869157987106533 1:0.54814272 2:0.81747454 3:0.20678732 4:-0.259146 5:-0.28102571 6:0.065573774 7:-0.082173919 8:-0.20543304 9:-0.0039721862 10:0.14223897 11:0.34283507 12:-0.21245475 13:0.28786968 16:-0.83075718 17:-0.31030278 18:0.9262108 19:-0.90929371 20:0.2739938 21:-0.024554348 22:0.16093337 23:-0.61547884 24:0.043854654 25:-0.92119086 26:-0.10400176 27:-0.54839765 28:-0.010687323 29:-0.053322215 30:0.030800103 31:0.04234912 32:0.21500441 33:-0.1497145 34:0.25784235 35:-0.35547118 36:-0.094070615 37:-0.520689 38:0.24193885 39:0.34907015 
0.986171217171702 1:0.17423865 2:0.643706 3:0.24314776 4:-0.10144843 5:-0.48761063 6:0.23334412 7:-0.24047168 8:-0.11442622 9:-0.03504865 10:0.36619038 11:0.32796447 12:-0.20207891 13:0.40329371 16:-0.98625517 17:0.16688961 18:0.94624322 19:-0.73543514 20:0.20869758 21:0.00040153294 22:0.11998745 23:-0.64015473 24:0.038630129 25:-0.93558984 26:-0.024082164 27:-0.75301278 28:0.16241058 29:0.13636165 30:0.25631477 31:0.11160291 32:0.0098876255 33:0.1938518 34:0.23851763 35:-0.36551464 36:-0.43730131 37:-0.49207642 38:-0.22704498 39:0.3327603 
0.4254535888055003 1:0.17177261 2:0.61592119 3:0.40651998 4:0.034093463 5:-0.68188968 6:0.1892146 7:-0.14453678 8:-0.063275383 9:-0.27980984 10:0.32980704 11:0.47111375 12:-0.19783596 13:0.16417474 16:0.5819059 17:-0.6588335 18:0.84916997 19:-0.66763095 20:0.0040540847 21:-0.028808222 22:0.10365951 23:-0.53785347 24:0.029479406 25:-0.95312341 26:0.011935596 27:-0.2378561 28:0.28590995 29:0.15365026 30:0.26614719 31:0.09208655 32:0.072941786 33:0.13269792 34:0.28147462 35:-0.36417124 36:-0.44222214 37:-0.52106997 38:-0.83141476 39:0.38749651 
0.3835282729652236 1:0.51383626 2:0.80175055 3:0.23907461 4:-0.21036434 5:-0.38913284 6:-0.06107006 7:-0.027032996 8:-0.14590062 9:-0.16926921 10:-0.11831716 11:0.12904836 12:-0.15357119 13:0.31760256 16:0.65445844 17:-0.52070575 18:0.81120903 19:-0.8526079 20:0.53092221 21:0.075275903 22:0.079247178 23:-0.53647314 24:-0.084041913 25:-0.69260543 26:-0.26399548 27:-0.25701874 28:0.0056843077 29:-0.03811549 30:-0.020936704 31:0.24463957 32:-0.21979243 33:0.11023786 34:0.0345133 35:-0.37825444 36:-0.18977025 37:-0.33754904 38:-0.080930545 39:0.48561048 
0.1721634015219195 1:0.69148588 2:0.46633971 3:0.080943015 4:0.12812815 5:-0.54294506 6:-0.17968009 7:-0.13848715 8:-0.023225685 9:-0.37591954 10:0.17308471 11:-0.13747075 12:-0.0061759526 13:-0.11918699 15:1 16:0.42807096 17:-0.66999205 18:0.73822602 19:-0.58535403 20:0.042224038 21:0.024127341 22:0.048043588 23:-0.60323946 24:0.0097101524 25:-0.75882986 26:-0.1609494 27:0.043120308 28:0.14519551 29:0.085723596 30:0.1952152 31:-0.002850505 32:-0.079465435 33:-0.11489819 34:-0.15111157 35:-0.11420412 36:0.012166487 37:-0.24917753 38:-0.67453392 39:0.33617226 
0.4246994598348807 1:0.15333626 2:0.47863259 3:0.24617963 4:0.1769087 5:-0.59315516 6:0.12936659 7:-0.18543861 8:0.13201457 9:-0.37430944 10:0.0018491121 11:0.038024254 12:0.0055836392 13:0.28025945 15:-1 16:0.5159107 17:-0.57308587 18:0.87507461 19:-0.63619867 20:0.19516089 21:0.092643566 22:0.24037785 23:-0.4320524 24:-0.17893561 25:-0.094339714 26:-0.33424655 27:0.049706791 28:0.15030601 29:0.080541784 30:0.19955407 31:0.035352555 32:0.10129138 33:0.057232765 34:0.29217201 35:-0.3620668 36:-0.40337083 37:-0.47611654 38:-0.6793027 39:0.4406224 
0.4500486655686093 1:0.65896849 2:0.47559734 3:0.076003673 4:0.18473013 5:-0.47686896 6:-0.23217469 7:0.00043765698 8:0.11942515 9:-0.31841532 10:0.10675235 11:-0.33754114 12:0.14086739 13:0.064491903 16:0.93225238 17:-0.2650783 18:-0.44605067 19:0.24393409 20:0.10603187 21:-0.06175363 22:0.15269536 23:-0.49432775 24:-0.25323431 25:-0.41067101 26:-0.1328696 27:0.17905987 28:0.029413281 29:0.09531623 30:0.17954038 31:-0.033521923 32:-0.13153315 33:-0.16776266 34:-0.25505999 35:0.10270213 36:0.11250177 37:-0.16937883 38:-0.60863763 39:0.38033884 
0.2718303703849106 1:0.70278531 2:0.49501251 3:0.086766067 4:0.13138808 5:-0.48853566 6:-0.2195278 7:-0.052303853 8:-0.019809627 9:-0.400403 10:0.10053338 11:-0.12770431 12:0.14612259 13:-0.0081555209 16:0.57231734 17:-0.64459856 18:0.69187569 19:-0.84943774 20:0.40909699 21:0.053056636 22:0.011624954 23:-0.78884118 24:0.04157664 25:-0.85243913 26:0.23460789 27:0.21363069 28:0.072287975 29:-0.0077921661 30:0.33896706 31:-0.18785312 32:0.096414595 33:-0.35923379 34:0.04350387 35:-0.41012855 36:0.019746499 37:-0.17780612 38:-0.6144958 39:0.34921504 
5.197284795253466 1:0.39832398 2:0.44516911 3:0.19826836 4:0.32255472 5:-0.48953121 6:0.026206695 7:-0.074588788 8:0.28026601 9:-0.29043596 10:0.14644963 11:-0.1930709 12:-0.013460408 13:0.057920507 16:0.40849613 17:-0.15997782 18:-0.45642588 19:0.35423719 20:0.13820157 21:-0.062797743 22:-0.0110688 23:-0.33973493 24:-0.18020826 25:-0.3606346 26:-0.16737794 27:0.082209447 28:0.14640952 29:0.18847722 30:0.18411437 31:-0.028946674 32:-0.10072779 33:-0.064894052 34:0.15296888 35:-0.29446044 36:-0.19506111 37:-0.28133579 38:-0.66552645 39:0.33857179 
0.3855860490579626 1:0.69174757 2:0.53813346 3:0.026163322 4:0.17721829 5:-0.15038948 6:-0.10340977 7:-0.12714378 8:0.30955778 9:-0.05597641 10:0.067081673 11:0.1504411 12:0.12403889 13:0.060204766 16:-0.50418635 17:0.17531197 18:-0.10008442 19:-0.042964724 20:0.29457908 21:0.13608645 22:-0.080529716 23:-0.4391011 24:0.05588421 25:-0.41273183 26:-0.012779991 27:0.015031674 28:0.059943255 29:-0.087908115 30:-0.24989109 31:-0.54167242 32:0.48629632 33:0.025295056 34:-0.20667767 35:-0.012560584 36:-0.081560706 37:-0.49872597 38:-0.067645779 39:0.14991369 
0.07091160346418372 1:0.56608949 2:0.87387919 3:0.27385989 4:-0.32062029 5:-0.36399396 6:0.024509423 7:-0.040839301 8:-0.32223435 9:-0.14798197 10:-0.025640064 11:0.31424936 12:-0.16038834 13:0.20252176 16:0.4512058 17:-0.6895006 18:0.8469309 19:-0.85631326 20:-0.20523033 21:0.014407766 22:0.19872182 23:-0.54990939 24:0.017664035 25:-0.87736002 26:-0.25542376 27:-0.25803553 28:-0.056018767 29:-0.066655436 30:0.01742588 31:0.11070992 32:0.15965452 33:-0.013949428 34:-0.087904309 35:-0.32741422 36:0.064032891 37:-0.61047671 38:-0.012646774 39:0.39578062 
1.074849770094022 1:0.67088999 2:0.4607045 3:0.074082191 4:0.16812306 5:-0.51489159 6:-0.20373973 7:-0.21757618 8:0.16896615 9:-0.27456182 10:0.20777916 11:0.0092670033 12:-0.03457315 13:-0.025856075 15:1 16:-0.98688213 17:0.11974968 18:0.45315474 19:-0.12413482 20:0.047627129 21:-0.031604931 22:-0.049736669 23:-0.34587067 24:-0.12041415 25:-0.46766837 26:-0.056877357 27:0.07524856 28:0.1490837 29:0.026332746 30:0.10776554 31:-0.06145175 32:-0.14705677 33:-0.046276593 34:0.23875127 35:-0.35672489 36:-0.27869401 37:-0.12468848 38:-0.52722353 39:0.29224809 
0.769225916163624 1:0.53800503 2:0.59136802 3:0.25661951 4:0.076444927 5:-0.55506093 6:-0.025799926 7:-0.22532557 8:0.023977869 9:-0.30999248 10:0.094195142 11:0.22292454 12:-0.060385303 13:0.12062374 15:-1 16:0.16139958 17:-0.86377861 18:0.90810143 19:-0.68101847 20:-0.43742662 21:0.015917234 22:0.14268123 23:-0.49268558 24:0.025198696 25:-0.95995043 26:8.2397247e-005 27:0.039299793 28:0.11485763 29:0.037425107 30:0.1233669 31:-0.013469077 32:0.013054496 33:0.10683888 34:0.22591955 35:-0.36233467 36:-0.37847993 37:-0.34741373 38:-0.47831923 39:0.39139932 
0.4610768939190357 1:0.63478632 2:0.82011012 3:0.22696627 4:-0.17697304 5:-0.31575147 6:-0.078841043 7:-0.15735813 8:-0.061957379 9:0.045083651 10:0.12375826 11:0.19117879 12:-0.21255396 13:0.27799118 16:-0.78050639 17:-0.19527249 18:0.74636295 19:-0.63757382 20:0.50573317 21:-0.38784993 22:0.10351559 23:-0.82111809 24:0.015837342 25:-0.41139174 26:-0.16666929 27:-0.50918414 28:-0.061967566 29:-0.060742235 30:0.066703396 31:-0.075063037 32:-0.035746293 33:0.15240719 34:0.099034251 35:-0.36508484 36:-0.24285518 37:-0.33768396 38:0.20160314 39:0.44707681 
1.572901211514209 1:0.56727345 2:0.67798961 3:0.16712416 4:-0.052495276 5:-0.29588127 6:0.12343674 7:-0.16760905 8:0.041282698 9:0.09838742 10:0.29835833 11:0.026420835 12:-0.40485101 13:0.17027433 16:-0.9996007 17:0.54926538 18:-0.325102 19:0.33425254 20:0.039110583 21:-0.11999514 22:-0.039618144 23:-0.64074767 24:0.23322873 25:-0.30018106 26:-0.15153543 27:-0.60177783 28:0.10260334 29:0.023559014 30:0.10442764 31:-0.003106429 32:0.048783102 33:-0.020321929 34:0.28694886 35:-0.36137927 36:-0.34300853 37:-0.38272776 38:0.10130852 39:0.28175034 
1.22469871226408 1:0.58470387 2:0.54090451 3:0.086034095 4:0.068623084 5:-0.36829821 6:0.10076146 7:-0.13100234 8:0.24715066 9:0.014554233 10:0.2865495 11:0.037587338 12:-0.27955591 13:0.057508334 14:-1 16:-0.96702924 17:0.42202395 18:-0.32182197 19:0.1959801 20:0.51892699 21:-0.31553338 22:0.042544696 23:-0.5606883 24:0.066411762 25:-0.15226978 26:-0.29609869 27:-0.19932658 28:0.05103846 29:-0.00079607137 30:0.094700748 31:-0.026178889 32:-0.041533659 33:0.10313955 34:0.23472166 35:-0.36399034 36:-0.38593993 37:-0.30355698 38:-0.30865342 39:0.288645 
0.3167702437387263 1:0.60701044 2:0.46440882 3:0.051307756 4:0.18328694 5:-0.37467624 6:0.18162888 7:-0.12722728 8:0.31433472 9:0.00060863506 10:0.39532301 11:0.14998932 12:-0.17672781 13:0.030011704 16:-0.96346583 17:0.28885433 18:0.62897361 19:-0.5634953 20:0.67881096 21:-0.51003574 22:0.17206478 23:-0.73583052 24:0.3670664 25:-0.45469835 26:-0.26313202 27:-0.041086417 28:0.078855529 29:0.014382266 30:0.10243245 31:-0.011699416 32:-0.0070173086 33:0.064508109 34:0.2450485 35:-0.37432094 36:-0.38654477 37:-0.38372495 38:-0.5822179 39:0.33464319 
1.296076465338668 1:0.52944895 2:0.64286785 3:0.031719738 4:-0.10072426 5:-0.31395999 6:-0.096061562 7:-0.11046773 8:0.14780151 9:0.091215039 10:0.25377959 11:0.067527577 12:-0.23691672 13:0.21145573 16:0.19396418 17:-0.065984971 18:-0.31963683 19:0.12563899 20:0.078792157 21:-0.15055297 22:0.047339138 23:-0.77541109 24:-0.028068237 25:0.10049853 26:-0.46521338 27:-0.14150996 28:-0.03944703 29:-0.051310746 30:0.012249721 31:-0.074845536 32:-0.019072757 33:-0.089407704 34:0.22504933 35:-0.34955089 36:-0.26341493 37:-0.21378716 38:-0.034706395 39:0.34420792 
5.57830498798218 1:0.25102237 2:0.48277988 3:0.0073194756 4:0.014454818 5:-0.48817814 6:-0.064759402 7:-0.32232628 8:0.1812652 9:-0.038144192 10:0.25456818 11:0.019568515 12:-0.19601002 13:0.2059524 16:0.17308211 17:0.11747729 18:-0.047257654 19:0.087851625 20:0.033327246 21:0.0073244101 22:-0.11948694 23:-0.70404396 24:0.088973443 25:-0.029413835 26:-0.3769813 27:-0.10650747 28:0.02712338 29:-0.0051152489 30:0.087094071 31:-0.016589251 32:-0.039839299 33:0.10928777 34:0.2562974 35:-0.3650739 36:-0.41327182 37:-0.32348067 38:-0.30545579 39:0.27690418 
0.2467496051126008 1:0.4791997 2:0.54927127 3:0.11153021 4:0.0081489227 5:-0.5055289 6:-0.11983405 7:-0.37161855 8:0.14212175 9:0.1353576 10:0.48492863 11:0.080978639 12:-0.54330459 13:-0.13869434 16:-0.90827868 17:0.18822552 18:0.15206955 19:0.064695021 20:-0.024571853 21:-0.20163432 22:-0.38300419 23:0.16765224 24:0.50676042 25:-0.24861196 26:-0.47144918 27:-0.032617462 28:0.070695829 29:0.018535994 30:0.10497314 31:-0.019310998 32:-0.019199223 33:0.13818843 34:0.20761187 35:-0.35058106 36:-0.38983979 37:-0.35498851 38:-0.37020396 39:0.29962402 
0.2596394716595241 1:0.34204174 2:0.7406007 3:0.17517133 4:-0.065135897 5:-0.23724472 6:0.026305552 7:-0.080463909 8:0.055513073 9:0.18986405 10:0.43953445 11:0.35623823 12:-0.43638961 13:-0.094002071 16:-0.82674897 17:-0.44976622 18:0.3248761 19:0.14669941 20:-0.27626553 21:-0.45011667 22:-0.052826604 23:-0.84247911 24:0.67639888 25:-0.2861356 26:-0.68189704 27:-0.078964968 28:-0.047294414 29:-0.046721749 30:-0.0059920865 31:-0.0082316788 32:-0.0078653571 33:-0.030892508 34:0.17563671 35:-0.31627693 36:-0.29889284 37:-0.29852221 38:-0.1602397 39:0.23366321 
0.5604551827276231 1:0.26269021 2:0.59602436 3:0.21186488 4:0.13925661 5:-0.39356381 6:0.14519038 7:-0.03755613 8:0.39696277 9:0.2229966 10:0.60320643 11:0.41036968 12:-0.14326262 13:0.11081066 16:-0.80348392 17:0.095098934 18:0.87725724 19:-0.25853012 20:0.27656451 21:-0.64670158 22:-0.1585847 23:-0.30388358 24:0.34306109 25:-0.34804198 26:-0.15202858 27:-0.11769823 28:0.078531888 29:0.026513693 30:0.10265801 31:-0.023787734 32:0.06066643 33:0.029384576 34:0.25280417 35:-0.36614126 36:-0.39197173 37:-0.35696976 38:-0.55345138 39:0.33614135 
1.118660215956796 1:0.043675858 2:0.53631716 3:0.28661161 4:0.19215875 5:-0.53603737 6:0.17767843 7:-0.11816404 8:0.31640585 9:0.02042645 10:0.53881737 11:0.3812266 12:-0.13763603 13:-0.016177893 16:-0.46797 17:-0.37761286 18:0.40374882 19:0.12072346 20:-0.17759287 21:-0.38656883 22:-0.16825284 23:-0.22089455 24:0.14763539 25:-0.43198721 26:-0.25273817 27:0.068880767 28:0.1388144 29:0.073376971 30:0.16684818 31:0.038931177 32:0.10319435 33:0.081186019 34:0.26317792 35:-0.36977876 36:-0.40257231 37:-0.47458461 38:-0.63848577 39:0.36609009 
0.3791208512900463 1:0.10521454 2:0.78779083 3:0.33170625 4:-0.054092011 5:-0.36047548 6:0.17700803 7:0.052526176 8:0.19074939 9:0.23232463 10:0.47304149 11:0.43075876 12:-0.29734694 13:0.1327194 16:-0.72874617 17:-0.16803801 18:0.81148608 19:-0.16049105 20:0.28631532 21:-0.85114878 22:-0.16319878 23:-0.15969609 24:0.35672838 25:-0.38712948 26:-0.21270182 27:-0.2761166 28:0.067659063 29:0.016412197 30:0.079945911 31:-0.017802156 32:0.32663445 33:-0.14194662 34:0.25164971 35:-0.42238317 36:-0.23613765 37:-0.41903804 38:-0.44544807 39:0.41796156 
0.3511220638929231 1:0.071163005 2:0.5674316 3:0.26464884 4:0.17243054 5:-0.55525204 6:-0.091255742 7:-0.16822193 8:0.47884732 9:0.17369949 10:0.45838355 11:0.22994135 12:0.048719511 13:0.28665708 16:0.40275554 17:-0.73611288 18:0.12978356 19:0.049226861 20:0.1672962 21:-0.60628946 22:-0.24132957 23:-0.11551446 24:-0.3218063 25:-0.056991038 26:-0.099941229 27:-0.086120923 28:0.074323694 29:0.018676105 30:0.11889712 31:0.021078276 32:0.0019839566 33:0.05713103 34:0.2467654 35:-0.33641005 36:-0.36828752 37:-0.37874894 38:-0.4265443 39:0.55755761 
0.5247965471132553 1:-0.40708611 2:0.5963661 3:0.15236339 4:-0.11925895 5:-0.32074059 6:0.16908281 7:-0.2935129 8:0.23682316 9:0.15499368 10:0.19143639 11:-0.11225325 12:-0.15664404 13:0.30133089 16:-0.29245482 17:0.13143127 18:-0.75450187 19:0.39384759 20:-0.079604119 21:0.10151454 22:-0.31957548 23:-0.32722555 24:0.03399181 25:-0.011938379 26:-0.40656033 27:-0.19201291 28:-0.26953553 29:-0.14970653 30:0.24098051 31:0.048557192 32:0.049374049 33:0.18326654 34:0.45810009 35:-0.40458799 36:-0.4054262 37:-0.23319692 38:-0.13787887 39:0.31728368 
0.8608046236721491 1:0.30882 2:0.86453618 3:0.42906322 4:-0.10346812 5:-0.47848644 6:-0.087648654 7:-0.0053378715 8:0.041078689 9:-0.075442165 10:0.16463608 11:0.42728598 12:-0.22917338 13:0.25064809 16:-0.080794204 17:0.1278392 18:0.10038125 19:-0.10123422 20:-0.079188056 21:-0.11917373 22:-0.22270923 23:-0.28346321 24:-0.16881168 25:-0.45934295 26:-0.54050615 27:0.01551065 28:0.0030580966 29:-0.0087272248 30:0.079018842 31:-0.094062609 32:0.021173471 33:0.014726151 34:0.35387272 35:-0.31344704 36:-0.40590675 37:-0.2720827 38:-0.39941629 39:0.57297485 
7.494269946073027 1:0.086601593 2:0.86183705 3:0.44289033 4:-0.068189037 5:-0.47857404 6:-0.11968924 7:0.032544811 8:0.065601234 9:-0.10495083 10:0.15788982 11:0.47721936 12:-0.20217021 13:0.17806625 16:-0.13055697 17:0.12053987 18:0.076498475 19:-0.071406329 20:-0.1123204 21:-0.12085671 22:-0.22833887 23:-0.26269242 24:-0.1825699 25:-0.4515284 26:-0.63816452 27:0.3261719 28:0.049627989 29:-0.030921416 30:0.059324509 31:-0.12162485 32:0.00031631509 33:0.036822763 34:0.30707551 35:-0.32002781 36:-0.37471911 37:-0.24800736 38:-0.40932655 39:0.57776669 
1.299841257151966 1:0.27741686 2:0.74931018 3:0.22334679 4:-0.12572388 5:-0.55357738 6:-0.17260172 7:-0.2170943 8:0.076202463 9:0.12973627 10:0.29420745 11:0.43086005 12:-0.16102709 13:0.22199992 16:-0.33419133 17:-0.35984234 18:0.67780285 19:0.48407003 20:-0.92784099 21:0.47483658 22:0.014304837 23:-0.45510582 24:0.042198822 25:-0.5450673 26:-0.2472723 27:-0.14428616 28:0.014640686 29:0.0031683969 30:0.085916728 31:-0.023626336 32:0.019293715 33:0.14895981 34:0.14665901 35:-0.45290971 36:-0.2884401 37:-0.51690557 38:-0.17329839 39:0.64878614 
2.149327055984873 1:0.091986014 2:0.552459 3:0.17218038 4:0.043500547 5:-0.60565514 6:-0.24310428 7:-0.31034183 8:0.17785958 9:-0.089578755 10:0.26737295 11:0.48088797 12:0.36111564 13:0.54106648 16:0.69846247 17:0.17796352 18:0.066584014 19:0.073153716 20:-0.61123493 21:0.49873108 22:0.27756491 23:-0.40907992 24:0.11469858 25:-0.31599932 26:-0.1011484 27:0.038834604 28:-0.00577134 29:-0.019333322 30:0.11881088 31:-0.034463363 32:-0.017012402 33:0.095058577 34:0.18096449 35:-0.27915498 36:-0.41144046 37:-0.29021926 38:-0.38681623 39:0.4816679 
16.00254635149957 1:0.30148552 2:0.39509933 3:0.027374261 4:0.26473757 5:-0.41234117 6:0.15140637 7:-0.22537656 8:0.31116402 9:-0.12088489 10:0.38701553 11:0.15247165 12:0.007759909 13:0.065374589 16:-0.21510287 17:0.047574724 18:0.076582231 19:0.15902206 20:-0.087444924 21:-0.081357844 22:-0.065041345 23:0.041948511 24:-0.11049962 25:-0.23653806 26:-0.25245585 27:0.025817444 28:0.12823747 29:0.0079221851 30:0.10152942 31:-0.0090046027 32:-0.015786037 33:0.081340873 34:0.23886758 35:-0.3693075 36:-0.38243637 37:-0.38225834 38:-0.51471428 39:0.4090507 
0.8568828283346884 1:0.4120601 2:0.91667064 3:0.20428056 4:-0.5588353 5:-0.17573327 6:-0.19341972 7:-0.31164574 8:-0.14761543 9:0.34570484 10:-0.27054011 11:0.20665821 12:0.37282144 13:-0.22565977 16:-0.59269051 17:0.1701587 18:0.35914239 19:0.27081741 20:-0.70172564 21:0.043669247 22:0.32335215 23:-0.32717127 24:-0.070404884 25:-0.60398322 26:-0.18483063 27:0.17248714 28:-0.72347586 29:-0.92254641 30:0.2589672 31:0.51317296 32:0.36007931 33:0.070349737 34:-0.66787795 35:-0.52684995 36:0.18109841 37:-0.84735948 38:0.50055947 39:0.44972922 
2.542128729515285 1:-0.015289763 2:0.64237042 3:0.19524776 4:-0.087722993 5:-0.49745679 6:-0.054699885 7:-0.21437364 8:0.18370932 9:0.00019466515 10:0.08422931 11:0.42673052 12:0.14737017 13:0.17982561 16:-0.38323474 17:0.25894306 18:0.13162955 19:0.3512553 20:-0.65953179 21:-0.15491141 22:0.47206487 23:-0.48594839 24:-0.019538338 25:-0.66056836 26:-0.12963464 27:0.24364378 28:-0.64260646 29:-0.074553329 30:0.1803919 31:0.060939585 32:0.017650078 33:0.15956309 34:0.2519932 35:-0.3456354 36:-0.47997209 37:-0.42364226 38:0.083609531 39:0.44807719 
0.8214857917328247 1:0.14283706 2:0.67236955 3:0.13404726 4:-0.13163078 5:-0.35644415 6:0.030447467 7:-0.082113131 8:0.20398939 9:0.17180953 10:0.30915178 11:0.37195886 12:0.039258747 13:0.39981257 15:-1 16:0.36762324 17:0.1238298 18:-0.34899989 19:0.028959007 20:-0.27153315 21:0.014261095 22:0.28440194 23:-0.54211 24:-0.51759895 25:0.084696573 26:-0.47161176 27:-0.13605858 28:-0.22859629 29:-0.041862176 30:0.08413271 31:0.015943044 32:0.053082457 33:-0.036145507 34:0.26847471 35:-0.34988242 36:-0.32586404 37:-0.35056212 38:-0.024075208 39:0.44134096 
2.526197748101775 1:-0.70912236 2:0.43310755 3:0.08834167 4:0.17884595 5:-0.406496 6:0.19733894 7:-0.23159173 8:0.33328729 9:0.096273363 10:0.4785741 11:0.34635696 12:0.15712549 13:0.26867642 16:0.33212474 17:0.27908064 18:0.29342993 19:0.191807 20:-0.36380239 21:0.051565525 22:0.032673569 23:0.0026280062 24:-0.31623415 25:0.1341512 26:-0.18326936 27:-0.30434136 28:0.096626891 29:-0.028676457 30:0.1533549 31:0.10619721 32:0.05895095 33:0.096430351 34:0.26615802 35:-0.42285071 36:-0.46276507 37:-0.27109816 38:-0.43661819 39:0.19211612 
0.3721172405798752 1:0.38601198 2:0.37609172 3:0.034318321 4:0.33465884 5:-0.2341606 6:0.12542162 7:-0.35609368 8:0.21854108 9:-0.056309582 10:0.36771214 11:0.059905451 12:0.013260178 13:0.19712527 14:-1 16:-0.3516919 17:0.091109023 18:0.093877431 19:-0.080470519 20:-0.078116688 21:-0.013105871 22:-0.0039645421 23:0.017475657 24:-0.086581604 25:0.072004908 26:-0.16621246 27:-0.18636034 28:0.010217827 29:0.0083103334 30:0.086276334 31:-0.012409152 32:-0.024958046 33:0.077052772 34:0.23992474 35:-0.36155004 36:-0.3762332 37:-0.32417677 38:-0.27493628 39:-0.066824767 
0.9897223662697317 1:0.58737162 2:0.6902814 3:-0.14114285 4:-0.46997097 5:-0.068304398 6:-0.13487068 7:-0.44016625 8:-0.45532315 9:0.17180119 10:0.17715881 11:0.4531009 12:0.037022707 13:0.59755306 15:-1 16:0.51769151 17:0.079730473 18:0.73694209 19:-0.20401508 20:0.24701066 21:-0.18722307 22:0.26048709 23:-0.26859065 24:0.32919135 25:-0.51335552 26:-0.078488979 27:-0.4522908 28:-0.60627338 29:-0.19201565 30:0.022840918 31:0.11573233 32:-0.12914885 33:0.14624819 34:0.083567881 35:-0.30453128 36:-0.34084715 37:-0.45260486 38:0.72979934 39:0.13764721 
20.47421751219147 1:0.17420459 2:0.37781471 3:0.035384925 4:0.33624504 5:-0.23239152 6:0.12294344 7:-0.35215632 8:0.22505088 9:-0.050869449 10:0.37044456 11:0.061506777 12:0.013879946 13:0.19630505 16:-0.32869632 17:0.068283638 18:0.071069472 19:-0.037876218 20:-0.1161442 21:-0.013668593 22:0.00027740685 23:0.013221166 24:-0.079257033 25:0.066345549 26:-0.16312608 27:-0.18149141 28:0.0092436933 29:0.0064762403 30:0.084726715 31:-0.014835177 32:-0.026258692 33:0.076744733 34:0.23891697 35:-0.36083367 36:-0.37648566 37:-0.32064905 38:-0.27189532 39:-0.068375819 
0.629488951229658 1:0.10561969 2:0.29432722 3:-0.25064773 4:-0.055436081 5:-0.26618005 6:0.10129113 7:-0.5826182 8:-0.15833849 9:-0.092911932 10:0.23534175 11:0.14676854 12:0.012731109 13:0.37213558 14:1 16:0.1430948 17:0.072472691 18:0.39293638 19:-0.056071698 20:-0.78469361 21:0.053631111 22:0.36940135 23:-0.31089899 24:0.51335119 25:-0.36346512 26:-0.055345136 27:-0.26611799 28:-0.45831483 29:-0.023130424 30:0.16524474 31:0.040527648 32:0.067046203 33:0.090740208 34:0.27053676 35:-0.36826906 36:-0.41345824 37:-0.45197682 38:0.22762944 39:-0.0025049278 
0.7755868599371301 1:0.59338028 2:0.46481051 3:-0.21518655 4:-0.17511405 5:-0.065096239 6:0.010112281 7:-0.52767049 8:-0.32810764 9:-0.1420518 10:-0.0045263323 11:0.23873201 12:0.19099457 13:0.56089932 16:0.13043034 17:0.12180595 18:0.40980497 19:-0.26236249 20:-0.17852611 21:-0.15829017 22:0.57149521 23:-0.44485509 24:0.11059579 25:-0.055920495 26:-0.14911622 27:-0.31982463 28:-0.45208208 29:-0.12722509 30:0.11528107 31:-0.026981681 32:0.0062096154 33:0.043703001 34:0.25569648 35:-0.34633656 36:-0.38921854 37:-0.35837375 38:0.48206146 39:0.1107893 
0.6150160720119161 1:0.4773603 2:0.38595334 3:-0.22225162 4:-0.0037062696 5:-0.14915486 6:0.074351375 7:-0.46289778 8:-0.18955604 9:-0.1478103 10:0.17762778 11:0.27396778 12:0.13242306 13:0.53698852 14:1 16:0.10485903 17:0.074592841 18:0.5633031 19:-0.29884145 20:-0.2701407 21:-0.018367546 22:0.54205125 23:-0.50119973 24:0.32903641 25:-0.051285549 26:-0.12255404 27:-0.4742639 28:-0.0080155066 29:-0.049523517 30:0.066262734 31:-0.034926266 32:-0.019520354 33:0.04605877 34:0.23622641 35:-0.3651411 36:-0.39737021 37:-0.37174277 38:0.24814259 39:0.087886982 
1.513288884671953 1:0.35048685 2:0.49800603 3:-0.085372407 4:-0.069732296 5:-0.28149768 6:0.078299496 7:-0.2679351 8:0.0027218376 9:0.011195491 10:0.29346512 11:0.20724205 12:-0.27689192 13:0.057002416 16:-0.50524329 17:-0.024234628 18:0.038062676 19:0.36919362 20:0.16549811 21:-0.28546068 22:0.4647565 23:-0.098998339 24:0.12041203 25:-0.18147344 26:-0.10388306 27:-0.22916527 28:0.1097651 29:-0.061111316 30:0.090034837 31:-0.025776499 32:-0.0032169953 33:0.06207093 34:0.22377631 35:-0.35655201 36:-0.37998165 37:-0.37139313 38:0.022871963 39:0.11919519 
1.717944744933849 1:0.25666259 2:0.45036823 3:-0.15815653 4:-0.11327291 5:-0.3199941 6:0.038896052 7:-0.34882888 8:-0.061803699 9:-0.0090164176 10:0.27190993 11:0.13104006 12:-0.33314658 13:0.10460399 16:-0.55919823 17:0.093389218 18:0.01793744 19:0.61787405 20:-0.13080546 21:-0.25622355 22:0.42479502 23:-0.26864998 24:0.24635086 25:-0.076064766 26:-0.18535612 27:-0.27716964 28:0.051396831 29:-0.022129373 30:0.10306688 31:-0.024520064 32:-0.0047456991 33:0.064542119 34:0.22940419 35:-0.36437747 36:-0.3892818 37:-0.39183637 38:0.039793791 39:0.085421579 
1.679230842911728 1:0.16825106 2:0.75974796 3:-0.067281306 4:-0.47513778 5:-0.24335023 6:-0.30665672 7:-0.38940324 8:-0.24739676 9:0.080834497 10:-0.12045069 11:0.10461382 12:-0.13688674 13:0.16311563 16:0.18509736 17:-0.051573818 18:0.47717273 19:-0.16109886 20:-0.2062833 21:-0.027114987 22:0.32326985 23:-0.36657007 24:-0.12980667 25:0.025390185 26:-0.52428868 27:-0.089740351 28:-0.41619608 29:-0.061639671 30:-0.11781181 31:0.060639536 32:-0.044116225 33:0.13412224 34:0.11028492 35:-0.49477169 36:-0.1711817 37:-0.36759404 38:0.521772 39:0.32487279 
1.859659867950854 1:-0.14521777 2:0.38086134 3:-0.061202442 4:0.047963813 5:-0.48860859 6:-0.0077551047 7:-0.47440865 8:0.049727193 9:-0.16699948 10:0.17686722 11:-0.019246504 12:-0.10513955 13:0.19305517 16:0.15041833 17:-0.054719837 18:-0.60954952 19:0.091554078 20:-0.026599318 21:-0.022982243 22:0.2917294 23:-0.36082477 24:0.007145013 25:-0.02038279 26:-0.16081965 27:-0.066261674 28:-0.17818639 29:0.059063268 30:0.13749196 31:0.023308877 32:0.040528259 33:0.097062342 34:0.26849424 35:-0.38527493 36:-0.41189258 37:-0.41058361 38:-0.27591227 39:0.11560258 
5.229266279099464 1:0.15395505 2:0.73312997 3:0.52275814 4:0.29254275 5:-0.48605485 6:-0.11940906 7:-0.18905859 8:0.29267898 9:-0.057327241 10:0.054853291 11:-0.057138289 12:-0.11314336 13:0.14131785 16:-0.054404286 17:-0.45454781 18:-0.13594068 19:0.084617135 20:-0.13434876 21:-0.092382549 22:-0.2548844 23:-0.48515663 24:-0.093213452 25:-0.35442511 26:-0.0064713368 27:0.035863527 28:0.0078612021 29:0.0003495726 30:0.082451338 31:-0.0036363464 32:0.2074762 33:-0.11373295 34:0.26404861 35:-0.33485026 36:-0.27611694 37:-0.47860774 38:-0.3343724 39:0.68235595 
0.05840958148155934 1:0.47998539 2:0.68741395 3:0.29655225 4:0.0095423093 5:-0.52242201 6:-0.44512825 7:-0.30244944 8:0.36156445 9:0.1091731 10:-0.20643142 11:-0.0070921893 12:0.2684272 13:0.53962787 16:0.56212972 17:-0.60346679 18:0.15314272 19:0.036936468 20:-0.026170306 21:-0.055895192 22:-0.23135636 23:-0.47543033 24:-0.36295309 25:0.050215523 26:0.40586075 27:0.096054581 28:-0.62796752 29:-0.068831639 30:0.07671715 31:-0.042381347 32:0.10993883 33:0.073364624 34:0.1883567 35:-0.4284157 36:-0.3089992 37:-0.38742099 38:0.34285847 39:0.55793915 
0.09513646901908755 1:0.17858612 2:0.55570764 3:0.43296783 4:0.3692919 5:-0.64850632 6:-0.21911657 7:-0.39795809 8:0.39268629 9:-0.044097809 10:0.15894668 11:-0.19794028 12:-0.13800342 13:0.17301085 16:-0.27636102 17:-0.47423327 18:0.52283624 19:-0.18054823 20:0.17892513 21:-0.18737988 22:-0.35079979 23:-0.65804119 24:0.12663646 25:-0.039859116 26:-0.045895538 27:0.00057760713 28:0.09617986 29:0.047223046 30:0.15795153 31:0.018738686 32:0.020070968 33:0.13009806 34:0.25715819 35:-0.36655334 36:-0.41842136 37:-0.41768651 38:-0.55573679 39:0.59234656 
0.3792959491617944 1:0.390032 2:0.82343444 3:0.29003371 4:-0.14879522 5:-0.3002027 6:-0.5107435 7:-0.086160121 8:0.33901051 9:0.2323545 10:-0.45383082 11:-0.1197366 12:0.27594268 13:0.47029317 16:0.31966643 17:-0.51803619 18:0.83496478 19:-0.51644298 20:0.68478886 21:-0.30010625 22:-0.1503471 23:-0.3581428 24:-0.48821474 25:-0.15619598 26:0.19461782 27:0.12930889 28:-0.72230425 29:-0.37052578 30:0.056662469 31:-0.0094640609 32:-0.0058980234 33:0.014849878 34:0.15718528 35:-0.48532513 36:-0.14239383 37:-0.47644094 38:0.51441552 39:0.5403177 
0.4445699189815509 1:0.44368859 2:0.71337782 3:0.33458863 4:0.077186056 5:-0.47176638 6:-0.22891596 7:-0.29063569 8:0.19279026 9:-0.064434535 10:-0.20776945 11:-0.13676337 12:-0.042303116 13:0.23803264 14:1 16:0.70307618 17:-0.71262819 18:0.3150379 19:-0.13854295 20:0.54706629 21:-0.35639772 22:-0.050170696 23:-0.42285803 24:-0.23300562 25:-0.27898394 26:-0.14605003 27:0.11000856 28:-0.53067309 29:-0.041273964 30:0.098843335 31:-0.074841967 32:0.1454313 33:0.095111878 34:0.16546299 35:-0.39053694 36:-0.36111211 37:-0.33354002 38:0.074337694 39:0.56967412 
0.1756702438694937 1:0.290838 2:0.79176869 3:0.33716872 4:-0.025065937 5:-0.30017586 6:-0.31787774 7:-0.27533306 8:0.20633956 9:0.075919076 10:-0.38826713 11:-0.19034421 12:0.093457103 13:0.25099753 16:0.90937872 17:-0.68803922 18:0.26526038 19:-0.096085011 20:0.78063937 21:-0.40992977 22:-0.072848563 23:-0.34800127 24:-0.2720093 25:-0.38479201 26:-0.057180083 27:0.14306981 28:-0.81646851 29:-0.26023352 30:0.080707259 31:-0.097105559 32:0.2989004 33:0.033248073 34:0.11586951 35:-0.38452265 36:-0.1725923 37:-0.43825187 38:0.44351739 39:0.50027453 
0.2730948200881003 1:0.52749617 2:0.64424435 3:0.30842259 4:0.22994444 5:-0.39713819 6:-0.10337025 7:-0.20499444 8:0.30769669 9:-0.08165152 10:-0.080320707 11:-0.022640369 12:0.146667 13:0.45581648 16:0.35442251 17:-0.6214296 18:0.59310945 19:-0.14805601 20:0.074466491 21:0.15305971 22:-0.13214083 23:-0.33359467 24:-0.24478401 25:-0.18292489 26:-0.097403648 27:0.16513167 28:-0.48998525 29:0.001839422 30:0.09651116 31:-0.014644878 32:-0.015871906 33:0.060828483 34:0.24144808 35:-0.36909048 36:-0.36531977 37:-0.39838936 38:-0.10484321 39:0.52307348 
1.02252074135183 1:0.36183266 2:0.69591063 3:0.17882299 4:-0.070323827 5:-0.37634739 6:-0.49722804 7:-0.39625184 8:0.0087554558 9:-0.16896212 10:-0.30633166 11:0.22297449 12:0.51993696 13:0.58024869 16:0.79345413 17:-0.79925067 18:0.85129776 19:-0.12150058 20:-0.72224068 21:0.43529413 22:-0.072186516 23:-0.38698282 24:-0.14664853 25:-0.56531411 26:0.17081518 27:0.15807813 28:-0.67514346 29:-0.23515356 30:-0.0025180027 31:0.00096712987 32:-0.0007649596 33:-0.033531728 34:0.17313496 35:-0.38244056 36:-0.16923269 37:-0.35667098 38:0.38107902 39:0.44493252 
0.4684867655932392 1:0.34089412 2:0.54805206 3:0.26509845 4:0.27278772 5:-0.55457606 6:-0.26041533 7:-0.29289201 8:0.32379386 9:-0.16807171 10:-0.15334233 11:-0.16588031 12:0.053877594 13:0.31748094 14:1 16:0.67297557 17:-0.7105588 18:0.85201177 19:-0.064015961 20:0.56766547 21:-0.18946974 22:-0.043259714 23:-0.62203499 24:-0.14700287 25:-0.018331613 26:-0.22771036 27:0.25993071 28:-0.21297266 29:-0.0085304652 30:0.088054194 31:-0.01471002 32:-0.004923832 33:0.035588197 34:0.23944664 35:-0.3754407 36:-0.39454162 37:-0.40110947 38:-0.18030248 39:0.44884042 
2.556281523878939 1:0.52614331 2:0.52810954 3:0.12815471 4:0.053166524 5:-0.57592469 6:-0.27163385 7:-0.45454307 8:0.10926023 9:-0.25074185 10:-0.1454689 11:-0.16076346 12:-0.044741094 13:0.044885989 16:0.36745605 17:-0.45241048 18:0.11178264 19:0.010391947 20:0.27588243 21:-0.3626005 22:0.0084085978 23:-0.28106162 24:-0.22873201 25:-0.1157319 26:-0.12063082 27:0.11062735 28:-0.42036556 29:-0.011534571 30:0.11749211 31:-0.0057835 32:-0.039363576 33:0.134001 34:0.23026584 35:-0.37830103 36:-0.35461972 37:-0.3762499 38:-0.067390276 39:0.37586581 
1.804543944587592 1:0.54238884 2:0.56524689 3:0.1923756 4:0.27000861 5:-0.34327351 6:0.15424498 7:-0.03206692 8:0.46042901 9:0.016043711 10:0.22165464 11:-0.0076716752 12:-0.15394648 13:0.0059282257 16:-0.55918053 17:-0.57289884 18:-0.54531157 19:0.098124882 20:0.45966541 21:-0.30719164 22:0.047558244 23:-0.31541369 24:0.089453596 25:-0.3603163 26:-0.32681635 27:0.15045996 28:-0.13548433 29:0.0020826826 30:0.076197315 31:-0.029437375 32:-0.02039214 33:0.064771335 34:0.23928057 35:-0.37189775 36:-0.37794265 37:-0.38388957 38:-0.34256618 39:0.44380227 
6.232428107642081 1:0.47785995 2:0.52819601 3:0.19148312 4:0.39999654 5:-0.32429901 6:0.16402902 7:-0.22961436 8:0.32839729 9:-0.11313285 10:0.34108135 11:0.1077596 12:0.022664899 13:0.057918144 16:-0.65479868 17:0.0044948431 18:-0.25183363 19:0.051075795 20:0.1513065 21:-0.44435155 22:0.339604 23:-0.17672859 24:-0.060393498 25:-0.22092798 26:-0.24799785 27:0.052201505 28:0.036415113 29:-0.0013361787 30:0.076742037 31:-0.027002525 32:-0.0089092691 33:0.055608541 34:0.23803611 35:-0.3690314 36:-0.39059271 37:-0.37191759 38:-0.48373761 39:0.26331034 
1.026121295664527 1:0.57288293 2:0.69001401 3:0.10391347 4:-0.075403756 5:-0.44106864 6:-0.2238432 7:-0.14577397 8:0.20189409 9:0.078086114 10:0.025703074 11:0.24761441 12:-0.063385429 13:0.18341371 16:-0.55342626 17:0.33027596 18:-0.082388633 19:0.062782502 20:0.30712586 21:-0.51162736 22:0.12929507 23:-0.10951672 24:-0.50961946 25:-0.15065846 26:-0.19632412 27:0.17753287 28:-0.48535389 29:-0.091770954 30:0.045693464 31:-0.011545016 32:-0.031330652 33:-0.014799738 34:0.21049267 35:-0.3895093 36:-0.44022656 37:-0.42201862 38:0.35303882 39:0.50531672 
1.273933147501244 1:0.28224477 2:0.55829631 3:0.10861812 4:0.015249242 5:-0.55236597 6:-0.22103623 7:-0.28146119 8:0.15075053 9:-0.20360487 10:0.042753791 11:0.074491596 12:-0.11787289 13:0.036594342 16:0.75526549 17:-0.59852874 18:0.22184237 19:0.067003061 20:0.30227484 21:-0.31084007 22:-0.038515571 23:-0.32680325 24:-0.01026941 25:-0.64136226 26:-0.098550367 27:0.20990451 28:-0.0013061528 29:-0.084336251 30:0.055810594 31:-0.038658097 32:-0.041061807 33:0.054873197 34:0.24272672 35:-0.34434809 36:-0.36397919 37:-0.29582908 38:-0.29157338 39:0.4227142 
0.5170838846744169 1:0.53425195 2:0.8293339 3:0.12148359 4:-0.27409262 5:-0.3105422 6:-0.24703782 7:-0.055325553 8:0.010811027 9:0.093393272 10:-0.0192697 11:0.30454869 12:-0.098517308 13:0.27528268 15:-1 16:-0.84010938 17:0.44954961 18:-0.14168359 19:0.066987301 20:0.17109171 21:-0.33383066 22:0.055317858 23:-0.14168317 24:-0.42472185 25:-0.24522891 26:-0.23030521 27:0.026609495 28:-0.40474128 29:-0.1631666 30:-0.011673562 31:-0.060701559 32:-0.041193514 33:-0.0071334993 34:0.05546107 35:-0.33944948 36:-0.26348195 37:-0.31382143 38:0.35955895 39:0.48098952 
0.07625626580460559 1:0.6178402 2:0.7771619 3:0.12187807 4:-0.24335431 5:-0.29320651 6:-0.25951755 7:-0.16809445 8:-0.051460525 9:-0.071247166 10:-0.13766564 11:0.24406777 12:-0.05645137 13:0.0014219434 16:0.65960058 17:-0.76204259 18:0.75675176 19:-0.05901662 20:0.75730484 21:-0.38759987 22:0.30350038 23:-0.20094922 24:-0.058194841 25:-0.88390291 26:-0.12130612 27:0.18410034 28:-0.51499833 29:-0.30810123 30:0.02654125 31:-0.041882904 32:0.11439671 33:-0.18001815 34:0.26985948 35:-0.34091253 36:-0.15876441 37:-0.35621861 38:0.28510392 39:0.3913633 
0.3160171454405967 1:0.24140425 2:0.58310386 3:0.14965371 4:0.057737053 5:-0.45375721 6:-0.13676107 7:-0.36546605 8:0.14925881 9:-0.10737777 10:0.02613974 11:0.042331215 12:-0.034508553 13:0.12843355 16:0.87531749 17:-0.53233432 18:-0.23706851 19:0.039135053 20:0.62267064 21:-0.38112844 22:0.45158395 23:-0.25972367 24:0.008933057 25:-0.63682288 26:-0.06688316 27:0.10335187 28:-0.34400777 29:-0.11323677 30:0.098470192 31:-0.0086770509 32:0.087979724 33:0.020678192 34:0.2733176 35:-0.35577038 36:-0.39277783 37:-0.39674314 38:-0.021191751 39:0.36392012 
1.863264466528039 1:0.48886379 2:0.55038579 3:0.13175961 4:0.1200581 5:-0.45905082 6:-0.014015694 7:-0.23536758 8:0.21372053 9:-0.09826406 10:0.22328333 11:0.21575067 12:-0.071924886 13:0.078604881 16:-0.93358286 17:0.29698257 18:-0.12982674 19:0.087362181 20:-0.15663129 21:0.0036181153 22:-0.23439381 23:0.056176434 24:-0.2408129 25:-0.25928812 26:-0.4182185 27:0.2679361 28:-0.19560074 29:0.0071210659 30:0.083011634 31:-0.02133418 32:-0.028672394 33:0.10326018 34:0.24395156 35:-0.38717548 36:-0.36004276 37:-0.39421663 38:-0.44802208 39:0.41923328 
1.661655643253594 1:0.51517419 2:0.75064047 3:0.16402155 4:-0.12574392 5:-0.21761264 6:-0.098691521 7:-0.16375924 8:0.14449011 9:0.13428924 10:-0.078467328 11:0.16995013 12:0.11213606 13:0.28897358 16:-0.92155238 17:0.29620401 18:-0.24745024 19:0.084566581 20:0.1726074 21:-0.31750106 22:0.44569397 23:-0.17198569 24:-0.37914882 25:0.18419402 26:-0.6123485 27:0.23026008 28:-0.86655664 29:0.063880678 30:0.12238812 31:-0.096014554 32:0.25769589 33:-0.079057342 34:0.19940677 35:-0.33354075 36:-0.33695937 37:-0.42105388 38:0.38030619 39:0.3992155 
0.5651724877803441 1:0.47059933 2:0.59689184 3:0.12025877 4:0.14295543 5:-0.2556534 6:-0.06621139 7:-0.21076076 8:0.27313902 9:0.035069477 10:0.079285907 11:0.16748015 12:0.076446512 13:0.23010475 15:1 16:-0.57455923 17:-0.035360689 18:0.37784205 19:-0.069028864 20:0.46071099 21:-0.15441653 22:0.31186388 23:-0.2852234 24:-0.38046388 25:0.21961425 26:-0.75174476 27:0.30323427 28:-0.26202515 29:-0.1842003 30:0.027515303 31:-0.02839669 32:-0.022494145 33:0.081467527 34:0.19587552 35:-0.38240968 36:-0.37990771 37:-0.37417673 38:0.22585159 39:0.24336861 
1.090986446821719 1:0.50102938 2:0.81842802 3:0.21698298 4:-0.30728862 5:-0.21276173 6:-0.34033261 7:-0.19033266 8:0.095853999 9:0.19560314 10:-0.41496381 11:0.061648595 12:0.47087102 13:0.2803165 16:-0.42506243 17:-0.73463521 18:0.081014696 19:-8.9134318e-005 20:0.46632941 21:-0.22372713 22:0.80890453 23:-0.29807072 24:-0.37055754 25:-0.27779308 26:-0.0082208005 27:0.17526529 28:-0.81721115 29:-0.5786773 30:-0.0028404875 31:0.1441637 32:0.52940699 33:-0.17844235 34:-0.057900751 35:-0.38425343 36:0.17941294 37:-0.79246851 38:0.50880847 39:0.44337185 
0.06277025355755808 1:0.40046856 2:0.68496905 3:0.23626202 4:0.079282884 5:-0.30394821 6:-0.24948988 7:-0.15900389 8:0.30171673 9:0.072235461 10:-0.1021517 11:0.16992176 12:0.23501651 13:0.40315272 16:0.22528613 17:-0.56902371 18:0.15497082 19:-0.012083524 20:0.33792982 21:-0.49834872 22:0.82270583 23:-0.28515574 24:-0.60734969 25:-0.12258136 26:0.28809807 27:0.0031852542 28:-0.29273425 29:-0.13172847 30:0.0043985285 31:-0.018402584 32:-0.048285562 33:0.010570691 34:0.23653764 35:-0.3535701 36:-0.35283204 37:-0.47946092 38:0.51574742 39:0.3669458 
1.170690290371053 1:0.32308629 2:0.56930686 3:0.29864249 4:0.32216566 5:-0.39270193 6:-0.066242806 7:-0.25096272 8:0.28891193 9:-0.12127354 10:0.10114389 11:0.20154944 12:0.23524968 13:0.2694588 16:-0.05936944 17:-0.64675666 18:0.13525515 19:-0.0051560193 20:0.10922205 21:-0.493903 22:0.82496173 23:-0.25031885 24:-0.43424738 25:-0.26828774 26:0.012111789 27:0.060554551 28:-0.077534752 29:-0.019758874 30:0.083388761 31:-0.014139607 32:-0.0038227522 33:0.058483982 34:0.24661694 35:-0.36702303 36:-0.37308895 37:-0.39402358 38:-0.11835999 39:0.35630949 
0.9673945920846198 1:0.36839752 2:0.66463831 3:0.25453644 4:0.10649179 5:-0.31069982 6:-0.32814016 7:-0.23867674 8:0.27636588 9:-0.016018288 10:-0.18097204 11:0.050956048 12:0.31954787 13:0.30849795 16:-0.92526188 17:0.15520423 18:0.73656719 19:-0.6908882 20:0.06263694 21:-0.22713453 22:0.52007968 23:-0.13629289 24:-0.62372436 25:-0.27817212 26:0.15887625 27:0.12644695 28:-0.57664289 29:-0.13920882 30:0.061359476 31:-0.021429316 32:0.0012220864 33:-0.065072577 34:0.24563836 35:-0.36715569 36:-0.30027521 37:-0.28475968 38:0.33048048 39:0.29601928 
0.6714710641600086 1:0.13173091 2:0.69164721 3:0.26027168 4:0.0022058523 5:-0.091186509 6:-0.098299632 7:-0.4887926 8:0.29834218 9:0.27932071 10:-0.010544384 11:-0.043366863 12:0.30691964 13:0.19845721 16:-0.43417541 17:-0.12361887 18:0.83340848 19:-0.48551304 20:0.21952281 21:-0.3286492 22:-0.045906617 23:-0.068408415 24:-0.45182127 25:-0.092569427 26:0.17753832 27:0.029582306 28:-0.64567825 29:-0.62738486 30:0.42210926 31:0.16094606 32:0.045528601 33:0.1818671 34:0.21194482 35:-0.26589159 36:-0.32855281 37:-0.22968069 38:0.318046 39:0.064756851 
0.9159764085793202 1:0.012769885 2:0.69817315 3:0.27127282 4:0.047057258 5:-0.21376397 6:-0.34985594 7:-0.32517762 8:0.3278632 9:0.10927158 10:-0.36109406 11:-0.03231795 12:0.31438082 13:0.12859866 16:-0.8724266 17:-0.2759214 18:0.7492358 19:-0.5985935 20:0.14736717 21:-0.26043354 22:0.31070847 23:-0.081141157 24:-0.71995971 25:-0.30386704 26:0.37939329 27:0.16803208 28:-0.73344451 29:-0.44025553 30:0.011421002 31:0.023356713 32:0.23771812 33:-0.072313319 34:0.25550622 35:-0.37160142 36:-0.23485153 37:-0.58596728 38:0.47834836 39:0.16795318 
0.7375445398335828 1:-0.062626986 2:0.78054576 3:0.36968175 4:-0.014433209 5:-0.41702262 6:0.010493648 7:-0.083153128 8:0.1667982 9:0.020213214 10:0.15115047 11:0.26297602 12:-0.022503933 13:0.31384309 15:-1 16:-0.13752183 17:0.065161936 18:0.22164371 19:0.098342116 20:-0.47036793 21:0.071740884 22:0.051626004 23:-0.41577619 24:-0.29866967 25:-0.36331183 26:-0.1994361 27:-0.011095292 28:-0.25811433 29:-0.12356006 30:0.30834281 31:-0.0011896369 32:0.085547455 33:0.023728919 34:0.13030383 35:-0.25477958 36:-0.29963216 37:-0.44990857 38:-0.20758883 39:0.52899959 
0.3700841251692293 1:-0.5817429 2:0.57357751 3:0.096234355 4:-0.057105897 5:-0.12019466 6:0.25955974 7:-0.21431004 8:0.18574821 9:0.087617363 10:0.18562227 11:0.43520032 12:0.35223017 13:0.61311802 16:-0.74747041 17:0.27751597 18:-0.036922518 19:0.15847755 20:-0.27695531 21:0.029247046 22:0.23862176 23:0.2156961 24:-0.63300833 25:-0.29256234 26:0.11558758 27:-0.34663122 28:-0.14716001 29:-0.27968139 30:0.17487656 31:0.065474592 32:0.12701683 33:0.15809603 34:0.16328564 35:-0.11400557 36:-0.471516 37:-0.39170058 38:0.28270967 39:0.26364264 
0.6342769293321999 1:0.20954333 2:0.48317642 3:-0.10216582 4:0.1050206 5:-0.075824787 6:-0.07362166 7:-0.37554815 8:0.056201663 9:0.035763506 10:0.029327787 11:0.11503199 12:0.1122143 13:0.40370095 16:0.067779936 17:-0.1709652 18:0.51956392 19:-0.22062151 20:-0.34237368 21:0.093869671 22:0.37482889 23:-0.44076453 24:0.24162055 25:-0.26987309 26:0.55213249 27:-0.1401869 28:-0.38087844 29:-0.09553631 30:0.012667538 31:-0.065224007 32:-0.045417742 33:0.060153245 34:0.19657852 35:-0.39989342 36:-0.4317353 37:-0.49084285 38:0.58313266 39:-0.059361662 
1.712256476478425 1:0.31448782 2:0.55379792 3:-0.40971623 4:-0.2645407 5:0.49540675 6:-0.5339256 7:-0.35077561 8:-0.084325312 9:0.26243784 10:-0.048008169 11:0.18679961 12:0.066554409 13:0.11862712 16:-0.066295733 17:-0.15860349 18:0.29147806 19:-0.38266561 20:-0.055477907 21:0.066155832 22:-0.35627813 23:0.35539228 24:0.15743685 25:-0.30863714 26:0.2245311 27:-0.020152527 28:-0.51510554 29:-0.61048305 30:-0.25777118 31:-0.25321543 32:-0.20172203 33:-0.19003854 34:0.25361814 35:-0.33601839 36:-0.22621395 37:0.1006761 38:0.53580325 39:-0.26498744 
0.4968990048217289 1:0.43474472 2:0.57558993 3:-0.39296201 4:-0.36611118 5:0.30579088 6:-0.31700906 7:-0.3971302 8:-0.13149588 9:0.45853208 10:-0.100845 11:0.28814383 12:-0.15109929 13:0.068401217 16:-0.053235899 17:0.12854629 18:0.010464244 19:0.24979809 20:-0.46094868 21:0.43473962 22:-0.39576286 23:0.23587167 24:0.32892226 25:-0.37016222 26:0.2857886 27:-0.092527334 28:-0.72124931 29:-0.5851294 30:-0.043102782 31:-0.098815691 32:-0.063950269 33:0.056275364 34:0.17990144 35:-0.43869795 36:-0.52304077 37:-0.53464975 38:0.59899737 39:-0.11582283 
1.907501907401621 1:0.010169933 2:0.43342517 3:-0.4764812 4:-0.13277199 5:0.48057413 6:-0.47274795 7:-0.12519322 8:-0.05453857 9:0.28400455 10:0.12789549 11:-0.18174276 12:0.14867314 13:0.025084688 16:0.10441323 17:-0.25429558 18:0.47507463 19:-0.54552718 20:0.10690662 21:0.095887924 22:-0.055047028 23:0.023872976 24:0.33734293 25:-0.30284215 26:0.35623979 27:-0.091591028 28:-0.5850726 29:-0.19768308 30:-0.17916887 31:-0.21043946 32:-0.26456461 33:-0.27132284 34:-0.27177987 35:0.20294295 36:0.16232327 37:0.13763722 38:0.55488987 39:-0.3417767 
0.5261886306910448 1:0.33780163 2:0.68365403 3:-0.32876224 4:-0.48763195 5:0.46587624 6:-0.36544795 7:-0.4167563 8:-0.094743691 9:0.50783089 10:-0.13866358 11:0.39204223 12:-0.033356709 13:-0.0001500489 16:-0.0036671262 17:-0.03610304 18:0.29359238 19:0.21762001 20:-0.52891469 21:0.40414788 22:-0.47791023 23:0.34228513 24:0.23823902 25:-0.35595739 26:0.32274911 27:-0.11989612 28:-0.65814857 29:-0.83573976 30:0.076608347 31:-0.070584555 32:-0.10345756 33:0.14387104 34:0.19110126 35:-0.37630897 36:-0.45159076 37:-0.22380633 38:0.59757986 39:-0.08542203 
0.6934112336475152 1:0.17216782 2:0.43555185 3:-0.14244458 4:0.069333133 5:-0.013875084 6:-0.10526998 7:-0.51695706 8:-0.033657978 9:0.037143609 10:0.25973633 11:0.31704334 12:0.10125122 13:0.19271018 16:-0.93476285 17:0.41442214 18:0.6629219 19:-0.3098506 20:0.318722 21:0.15319564 22:-0.22162873 23:0.29576173 24:0.23472827 25:-0.26613981 26:0.29113499 27:-0.12223013 28:-0.34778562 29:-0.24930295 30:-0.00070615336 31:-0.055123038 32:-0.035386161 33:0.028371251 34:0.26300705 35:-0.36576179 36:-0.33960771 37:-0.28700326 38:0.35414757 39:-0.085820526 
2.381152755543484 1:-0.0079388865 2:0.8117726 3:0.37874827 4:-0.11149905 5:-0.46168624 6:-0.11659233 7:-0.24135235 8:0.11884734 9:0.16880594 10:0.015022934 11:-0.033074583 12:-0.19328253 13:0.26422125 16:-0.86777572 17:0.21769151 18:0.027094053 19:0.16592053 20:-0.13385552 21:-0.1206174 22:-0.32116929 23:-0.23419076 24:-0.22893459 25:-0.35402781 26:2.0400533e-005 27:-0.38947195 28:-0.24379467 29:-0.05452319 30:0.14215845 31:0.16642163 32:0.029156028 33:0.1204297 34:0.18418281 35:-0.55764122 36:-0.032880022 37:-0.57367092 38:0.1253574 39:0.62883486 
0.7978584994912914 1:0.040941084 2:0.84586437 3:0.3039436 4:-0.23499145 5:-0.20930142 6:0.030879181 7:-0.21394505 8:0.061738069 9:0.24292913 10:0.14633706 11:0.34133252 12:0.22519738 13:0.72462056 16:0.2065271 17:0.58239268 18:-0.47294963 19:0.059153968 20:-0.0016792686 21:-0.094708528 22:-0.07395123 23:-0.24213861 24:-0.43498528 25:-0.29023581 26:0.10926351 27:-0.57593959 28:-0.23842243 29:-0.11564888 30:0.16848519 31:-0.046713279 32:0.39797681 33:-0.1124903 34:0.14791629 35:-0.096672478 36:-0.31290101 37:-0.54038696 38:0.58391513 39:0.45970115 
0.7842681885408435 1:-0.37818803 2:0.44955356 3:0.33398453 4:0.40746778 5:-0.55717996 6:0.16862862 7:-0.25465452 8:0.38008598 9:-0.11935095 10:0.44106852 11:0.25942328 12:0.29719037 13:0.46178087 16:0.8059746 17:0.5856925 18:-0.61892969 19:0.014306794 20:0.2491974 21:-0.16094852 22:-0.049582061 23:-0.15114334 24:-0.48292122 25:-0.10083354 26:-0.025468182 27:-0.13061651 28:0.18934575 29:0.10680784 30:0.21655689 31:0.060429792 32:0.047475645 33:0.13570601 34:0.28577433 35:-0.35411276 36:-0.45855528 37:-0.46778166 38:-0.70730468 39:0.33928489 
0.1005168570280664 1:0.04227493 2:0.39696562 3:0.22135802 4:0.5197392 5:-0.33875946 6:0.087789068 7:-0.35232541 8:0.35548767 9:-0.11930558 10:0.34225728 11:-0.081102719 12:-0.045014521 13:-0.020282884 16:-0.466111 17:-0.030786524 18:0.11334064 19:0.5112461 20:-0.44797794 21:-0.068444963 22:-0.054810125 23:-0.10392374 24:-0.10796459 25:0.054895453 26:-0.14084228 27:0.0047083624 28:0.096129414 29:0.031427554 30:0.11099014 31:0.0091082869 32:-0.057376998 33:0.12056917 34:0.24469998 35:-0.35602186 36:-0.35855662 37:-0.39255593 38:-0.50109566 39:0.13980458 
0.9214395501229192 1:0.54085665 2:0.69899837 3:0.43073892 4:0.14627843 5:-0.50449016 6:-0.093651263 7:-0.26220388 8:-0.0059381093 9:-0.38526163 10:-0.27946642 11:-0.17500362 12:-0.098305097 13:0.19427433 16:0.55608122 17:-0.16666762 18:-0.25690149 19:-0.4237593 20:0.557172 21:-0.36872359 22:-0.12030654 23:0.15354104 24:-0.68113663 25:-0.067917823 26:-0.086620733 27:-0.020295302 28:-0.013469701 29:0.062057832 30:0.12374306 31:0.0079640012 32:0.040984389 33:0.066136761 34:0.23722431 35:-0.35260144 36:-0.28384655 37:-0.42037933 38:-0.36969338 39:0.48373107 
5.886581367290305 1:0.16118814 2:0.62358124 3:0.51619373 4:0.51050615 5:-0.38794085 6:0.071728818 7:-0.4192962 8:0.065312896 9:-0.37654494 10:0.035148367 11:-0.061621341 12:-0.028222586 13:0.14397522 16:-0.45957918 17:-0.11244402 18:-0.38481776 19:-0.22193801 20:-0.25016706 21:-0.061399477 22:-0.20149329 23:0.20294364 24:-0.4549774 25:-0.17656007 26:-0.035230637 27:-0.1672531 28:0.13894344 29:0.051170992 30:0.14791862 31:0.010179617 32:0.014940169 33:0.13637853 34:0.24919054 35:-0.35135862 36:-0.40123119 37:-0.43717394 38:-0.54165151 39:0.42179744 
0.3875467515866615 1:0.56346112 2:0.66583992 3:0.3934693 4:0.29556972 5:-0.35731963 6:-0.08374894 7:-0.37613569 8:0.040031281 9:-0.34449443 10:-0.20877774 11:-0.059698017 12:0.11189638 13:0.30053642 16:0.48329614 17:0.30130291 18:-0.90522911 19:-0.54213745 20:0.61531149 21:-0.45247625 22:0.29981341 23:-0.01242316 24:-0.60694056 25:-0.087873553 26:-0.14803999 27:0.086918333 28:-0.24366114 29:-0.031235238 30:0.091614829 31:0.010104979 32:-0.044019169 33:0.10231041 34:0.24372181 35:-0.36522375 36:-0.33054012 37:-0.40161107 38:-0.10163477 39:0.40181352 
2.849417986040638 1:0.58653024 2:0.60107741 3:0.35915002 4:0.32154819 5:-0.44792336 6:-0.080679274 7:-0.31658284 8:0.13297129 9:-0.3352746 10:-0.10621015 11:0.0018544531 12:0.15253489 13:0.31080824 16:-0.11182832 17:0.37157751 18:-0.49867819 19:-0.12212384 20:0.47523934 21:-0.27099259 22:-0.13459453 23:0.099212072 24:-0.74429646 25:-0.081480723 26:-0.051731686 27:0.14645496 28:-0.1392023 29:0.037583319 30:0.1150648 31:-0.012074568 32:0.011537365 33:0.075440063 34:0.2256327 35:-0.36720725 36:-0.37034836 37:-0.35678819 38:-0.40112147 39:0.40573632 
2.599747951406296 1:0.24607252 2:0.32137085 3:0.23217923 4:0.53902775 5:-0.5272717 6:-0.07245566 7:-0.77023708 8:-0.021759782 9:-0.51521963 10:0.035176415 11:-0.30043732 12:-0.0071695624 13:0.064228414 16:0.75725693 17:0.15422055 18:-0.75873414 19:-0.47396999 20:0.55112099 21:-0.39882596 22:0.14992225 23:0.31787696 24:-0.41780275 25:0.014701334 26:0.0058198249 27:-0.033849451 28:0.13890242 29:0.079267763 30:0.18561509 31:0.049956091 32:0.077246087 33:0.093952728 34:0.26898286 35:-0.36519972 36:-0.42036843 37:-0.46389423 38:-0.62313311 39:-0.06333463 
0.9851141735430868 1:0.57331143 2:0.89103216 3:0.43693094 4:-0.12148236 5:-0.15329696 6:-0.43487736 7:-0.37998025 8:-0.22105136 9:-0.051979969 10:-0.46617662 11:-0.34750774 12:0.97687474 13:0.30479298 16:0.99489169 17:0.083917767 18:-0.43341842 19:-0.36215509 20:0.39512971 21:-0.20664208 22:0.13274019 23:-0.021862551 24:-0.78391984 25:-0.021854748 26:0.33987121 27:0.10070978 28:-0.66900279 29:-0.54442432 30:-0.021373392 31:-0.14369703 32:0.4326698 33:-0.30308999 34:0.023720429 35:-0.16312152 36:0.59709068 37:-0.83881979 38:0.51417221 39:0.55781307 
0.200289350213802 1:0.62811142 2:0.59734046 3:0.23898179 4:0.16049234 5:-0.49220097 6:-0.30627906 7:-0.26190111 8:0.034888903 9:-0.34541714 10:-0.13177201 11:-0.12585353 12:0.22725737 13:0.47136107 14:-1 16:0.15990584 17:0.5283098 18:-0.74088634 19:-0.0038493472 20:0.58122031 21:-0.31701009 22:0.02328781 23:-0.012649396 24:-0.78388909 25:-0.077857652 26:-0.052462933 27:0.0087964046 28:0.0064572103 29:0.081750749 30:0.12245795 31:-0.042722607 32:-0.090377523 33:-0.11049421 34:0.1813883 35:-0.35510676 36:-0.18143477 37:-0.19165027 38:-0.3444427 39:0.44076324 
1.712378662089768 1:0.2246072 2:0.6799641 3:0.57640473 4:0.40942144 5:-0.43748381 6:-0.20567872 7:-0.41421077 8:0.18549402 9:-0.29772668 10:-0.37897335 11:-0.0084120058 12:0.56205382 13:0.68565783 16:0.75756435 17:0.041679599 18:-0.33235339 19:-0.39116125 20:-0.2132988 21:-0.019344225 22:0.14791899 23:-0.13586668 24:-0.91216777 25:0.42883616 26:0.17342537 27:0.11882584 28:-0.45018735 29:-0.053480056 30:0.16986272 31:0.0032223925 32:0.13841135 33:0.062276305 34:0.2568834 35:-0.352653 36:-0.35373007 37:-0.52654153 38:0.055241219 39:0.52326874 
0.948568345196636 1:0.56937105 2:0.6527342 3:0.43660484 4:0.3280936 5:-0.44267331 6:-0.079980149 7:-0.3666592 8:0.058112923 9:-0.33544498 10:-0.10466371 11:-0.057601611 12:0.17067043 13:0.53896522 16:0.78751597 17:-0.11866057 18:-0.37576814 19:-0.35887107 20:0.33218475 21:-0.2045673 22:-0.19470855 23:0.18465801 24:-0.91749933 25:0.11817858 26:0.10455961 27:-0.1587706 28:0.16625867 29:0.029729408 30:0.12875197 31:0.0010556197 32:0.031512735 33:0.051055964 34:0.24248503 35:-0.35516606 36:-0.37950116 37:-0.37386994 38:-0.35469902 39:0.48964852 
0.3039790591159463 1:0.21552502 2:0.27542861 3:0.20532195 4:0.52804607 5:-0.62822997 6:-0.1332884 7:-0.75277196 8:0.089981558 9:-0.47025969 10:0.11319018 11:-0.18913644 12:0.22152423 13:0.33301166 16:0.99646415 17:-0.27456194 18:-0.12633131 19:-0.35540531 20:0.034344022 21:-0.34258638 22:-0.13884693 23:0.1261786 24:-0.36536351 25:0.12525073 26:-0.021434397 27:0.00072586648 28:0.19620271 29:0.083511925 30:0.18952095 31:0.052743372 32:0.068394421 33:0.10576707 34:0.26903514 35:-0.36548186 36:-0.42622282 37:-0.46472746 38:-0.67815902 39:-0.12557667 
0.9449568781025032 1:0.51957572 2:0.80378825 3:0.43319542 4:0.11953117 5:-0.27644447 6:-0.4919075 7:-0.37287624 8:0.025767674 9:-0.15863024 10:-0.54062085 11:-0.38682825 12:0.41827378 13:0.42889708 15:-1 16:0.69968864 17:-0.18139566 18:-0.16569333 19:0.30772258 20:-0.014004841 21:-0.28003931 22:-0.12354794 23:-0.13660959 24:-0.9723369 25:-0.15254661 26:0.54958387 27:0.0044499758 28:-0.50163029 29:-0.24733816 30:-0.086995804 31:-0.050095981 32:0.29357956 33:-0.19066602 34:0.34023099 35:-0.37930265 36:0.24250748 37:-0.64081259 38:0.45557304 39:0.50486498 
0.4790300633215969 1:0.63392544 2:0.85680893 3:0.39278359 4:-0.15967089 5:-0.26013386 6:-0.37839194 7:-0.15462458 8:0.09437702 9:0.02521483 10:-0.66649535 11:-0.31028724 12:0.4598463 13:0.42839854 16:0.70377695 17:-0.24777822 18:-0.14694778 19:-0.071181076 20:0.63264437 21:-0.33824534 22:-0.14539046 23:-0.053634005 24:-0.9437837 25:-0.59090773 26:0.87571951 27:0.039740731 28:-0.65442605 29:-0.44730996 30:0.094897432 31:0.073524596 32:0.25261679 33:-0.18246534 34:0.20372023 35:-0.43397617 36:0.20670206 37:-0.67912143 38:0.54500144 39:0.48478692 
1.832639095066185 1:0.48943638 2:0.42337369 3:0.15532265 4:0.33886349 5:-0.47086972 6:-0.069473743 7:-0.45944412 8:0.17990924 9:-0.30399026 10:-0.039799606 11:-0.43963926 12:-0.1746736 13:0.097410699 16:0.62967715 17:-0.47654331 18:0.067137208 19:-0.21120709 20:0.38922722 21:-0.15801777 22:-0.073408696 23:-0.23381923 24:-0.078608592 25:0.031002588 26:-0.055163079 27:-0.073959111 28:0.079512025 29:0.034788602 30:0.12018091 31:-0.0042970329 32:-0.010497327 33:0.087675375 34:0.24493688 35:-0.36076865 36:-0.38515792 37:-0.35289519 38:-0.43043788 39:0.12341592 
0.6283149231719098 1:0.63679852 2:0.8904733 3:0.44267101 4:-0.29230574 5:-0.28826572 6:-0.33847314 7:-0.24277523 8:0.019448135 9:0.11846888 10:-0.63425452 11:-0.51179309 12:0.50094891 13:0.37837931 16:0.76201008 17:-0.46457209 18:-0.055049424 19:-0.15049401 20:0.46734006 21:-0.34286204 22:-0.21861328 23:-0.019648522 24:-0.92560329 25:-0.41722937 26:0.58515371 27:-0.023617838 28:-0.634902 29:-0.39163028 30:-0.25282878 31:0.63509447 32:0.307459 33:-0.24810782 34:0.068820115 35:-0.24150457 36:0.41687096 37:-0.63846081 38:0.49511197 39:0.57138322 
7.068173518199887 1:0.15991112 2:0.31566103 3:0.028992958 4:0.3518049 5:-0.41229316 6:0.00034888205 7:-0.45640576 8:0.19737553 9:-0.26577852 10:0.10943229 11:-0.28420665 12:-0.076071889 13:0.088343641 16:0.59754236 17:-0.37619445 18:-0.048822606 19:-0.10119535 20:0.025986662 21:-0.10940015 22:0.038320047 23:-0.25009425 24:-0.032874805 25:0.023997427 26:-0.057993385 27:-0.081031774 28:0.074905531 29:0.033387879 30:0.11591451 31:-0.0066461472 32:-0.01452301 33:0.08225977 34:0.24412242 35:-0.36177905 36:-0.37943374 37:-0.34601032 38:-0.43604816 39:-0.076181413 
1.29042610434346 1:0.5090184 2:0.70751139 3:0.36653235 4:0.00048425186 5:-0.3917604 6:-0.12438542 7:-0.33040845 8:0.11405263 9:-0.11378919 10:-0.32877459 11:-0.43790269 12:0.02575649 13:0.60201909 16:0.77551741 17:-0.77871817 18:-0.026904619 19:0.39452217 20:0.47650053 21:-0.47899251 22:-0.20134839 23:0.048103198 24:-0.76900003 25:0.016196962 26:0.18018255 27:-0.0898637 28:-0.40794326 29:0.0060613062 30:0.19748813 31:0.073126102 32:-0.02692857 33:0.14739158 34:0.23006092 35:-0.35177427 36:-0.20854483 37:-0.40038237 38:0.017605125 39:0.55310411 
0.6674202418243053 1:0.59593294 2:0.50090386 3:0.24893627 4:0.29507547 5:-0.5606868 6:-0.19880232 7:-0.38288207 8:0.30636695 9:-0.18043682 10:0.054470572 11:-0.088385147 12:0.14365373 13:0.34123783 14:-1 16:-0.26265835 17:0.14261264 18:0.15845972 19:-0.2100009 20:-0.24135841 21:0.11184512 22:-0.20185794 23:-0.22095858 24:-0.29549212 25:0.076852197 26:-0.12432024 27:0.14321142 28:-0.066448751 29:0.010672473 30:0.10605096 31:-0.0037495095 32:-0.019585044 33:0.087107211 34:0.24782442 35:-0.3593496 36:-0.38163392 37:-0.35091348 38:-0.39619794 39:0.34993951 
9.173965408628481 1:0.34081703 2:0.50628824 3:0.2494041 4:0.26708199 5:-0.58645894 6:-0.19031677 7:-0.31816084 8:0.32801111 9:-0.17151213 10:0.097508797 11:-0.024812508 12:0.12099426 13:0.30932429 16:-0.81043674 17:0.27511662 18:0.061085807 19:-0.12544469 20:-0.2065824 21:0.056238783 22:-0.16319238 23:-0.30979086 24:-0.36426395 25:0.064052538 26:-0.19742631 27:0.22124664 28:1.1144163e-005 29:0.012355241 30:0.10106761 31:-0.008874886 32:-0.028470393 33:0.088276476 34:0.2440498 35:-0.35962741 36:-0.38129439 37:-0.33615722 38:-0.45472162 39:0.40962983 
0.8408339939827243 1:0.46872206 2:0.58934529 3:0.27042287 4:0.2156886 5:-0.51520545 6:-0.2493662 7:-0.48165945 8:0.16358117 9:-0.1375235 10:0.012559537 11:-0.1755877 12:0.056327752 13:0.47745475 16:0.9424213 17:-0.3618159 18:0.12039442 19:-0.82216007 20:0.31409574 21:-0.53179197 22:-0.18754473 23:-0.067948999 24:-0.46468758 25:-0.0044733563 26:0.053312339 27:-0.048204426 28:-0.19313682 29:-0.022811129 30:0.11750552 31:0.0022086732 32:0.017523633 33:0.021723864 34:0.25946095 35:-0.36201723 36:-0.35270452 37:-0.38219907 38:-0.19166965 39:0.51083277 
0.3585129066412151 1:0.58208847 2:0.72724786 3:0.39296078 4:0.010789366 5:-0.49961512 6:-0.51899664 7:-0.55789299 8:0.21752049 9:0.21588334 10:-0.12051258 11:-0.40836762 12:0.057772855 13:0.47115671 16:0.88434995 17:-0.54204836 18:0.47482658 19:-0.66513199 20:0.00063141781 21:-0.60171316 22:-0.2671347 23:-0.13870747 24:-0.52709894 25:0.033974418 26:0.33553435 27:0.016897654 28:-0.81329812 29:-0.13015506 30:0.25593203 31:0.16188025 32:-0.1055109 33:0.034701729 34:0.29122486 35:-0.32383443 36:-0.25345738 37:-0.45687197 38:0.30280055 39:0.60502172 
8.184411238528092 1:0.33978077 2:0.38206607 3:0.17816523 4:0.34844223 5:-0.62019945 6:-0.14391631 7:-0.47939389 8:0.37760531 9:-0.11885984 10:0.19320447 11:-0.22075862 12:-0.0024641788 13:0.14355716 16:-0.7099647 17:0.35296681 18:0.1392567 19:-0.48553552 20:0.13181396 21:-0.36642161 22:-0.22483596 23:-0.21752463 24:-0.18150852 25:0.031653944 26:-0.091809084 27:0.060999913 28:0.028037446 29:0.046342781 30:0.15398585 31:0.026857563 32:0.030952681 33:0.10821168 34:0.26007209 35:-0.36334852 36:-0.41309451 37:-0.42168338 38:-0.49358015 39:0.15484806 
0.8756991472272117 1:0.59811742 2:0.83138944 3:0.39418569 4:-0.056808962 5:-0.48019701 6:-0.76018894 7:-0.23692976 8:0.23100429 9:0.11643892 10:-0.32926095 11:-0.1716686 12:0.32439474 13:0.28055838 16:-0.45862459 17:-0.12441181 18:0.20291324 19:-0.16436848 20:-0.22286273 21:-0.21053647 22:-0.54933314 23:-0.069382229 24:-0.90999531 25:-0.13557226 26:0.70495242 27:0.15798735 28:-0.75428833 29:-0.096040298 30:-0.014066685 31:0.037823222 32:0.090718254 33:-0.18835463 34:-0.01988146 35:-0.39382529 36:0.16126572 37:-0.43217297 38:0.38782132 39:0.69623884 
1.100961325321143 1:0.5714408 2:0.69915723 3:0.28391578 4:0.043198596 5:-0.51535899 6:-0.5686715 7:-0.44327691 8:0.18325138 9:0.037850961 10:-0.046609063 11:0.047504074 12:0.12688858 13:0.14227323 16:0.75273188 17:-0.64242285 18:0.92683511 19:-0.6314185 20:-0.23026884 21:-0.73871702 22:-0.21299924 23:0.12214819 24:-0.49251044 25:-0.098295383 26:-0.29091209 27:0.16542843 28:-0.51469204 29:-0.11635509 30:0.034372345 31:-0.019473967 32:0.0066426955 33:0.0058509515 34:0.16530781 35:-0.37539159 36:-0.23622416 37:-0.31404098 38:0.24266783 39:0.57705293 
0.4961900476075278 1:0.31216084 2:0.77050763 3:0.37232114 4:-0.0062450966 5:-0.5199006 6:-0.52232724 7:-0.40755962 8:0.17658221 9:0.098455552 10:-0.13452611 11:-0.15597594 12:-0.0069727844 13:0.33497998 16:-0.18305406 17:-0.23747653 18:0.23290182 19:-0.30965528 20:-0.19191013 21:-0.35478789 22:-0.4860752 23:-0.10033428 24:-0.6597927 25:-0.018803883 26:0.2447985 27:0.03085409 28:-0.73340797 29:-0.078693545 30:0.10591154 31:-0.027137471 32:0.064045821 33:-0.02539809 34:0.21742201 35:-0.33021738 36:-0.28178291 37:-0.37177608 38:0.29190041 39:0.69031284 
1.095742631828491 1:0.61487321 2:0.67083847 3:0.36599466 4:0.11024429 5:-0.61269366 6:-0.38896238 7:-0.301197 8:0.31396923 9:-0.016593132 10:-0.0082272572 11:0.10661918 12:0.15225689 13:0.22247646 14:-1 16:-0.57161515 17:-0.44442109 18:0.779055 19:-0.52606488 20:-0.31186004 21:-0.018248185 22:-0.49481108 23:0.24817942 24:-0.7409527 25:-0.044128262 26:-0.15180761 27:0.098708876 28:-0.27655785 29:-0.0075095875 30:0.086096645 31:5.1865864e-005 32:-0.032863123 33:0.11713024 34:0.19984953 35:-0.35098331 36:-0.34580645 37:-0.37213819 38:-0.036056677 39:0.62229683 
0.5140432881203795 1:0.58802735 2:0.82965069 3:0.38740547 4:-0.065072536 5:-0.42414221 6:-0.42362629 7:-0.22603006 8:0.18304991 9:0.24214493 10:0.09992483 11:0.16897795 12:0.19536504 13:0.21758793 16:-0.80957091 17:0.31184758 18:0.92665617 19:-0.7462441 20:-0.3408279 21:0.32336842 22:-0.59597768 23:0.40234926 24:-0.67584247 25:-0.1030227 26:0.065666262 27:0.023868161 28:-0.59908145 29:-0.097113474 30:0.039068322 31:0.053560275 32:-0.018107385 33:0.077598204 34:0.019171274 35:-0.36565464 36:-0.067361077 37:-0.47697053 38:0.37496053 39:0.70160564 
1.889882739037989 1:0.31597544 2:0.46535255 3:0.27609684 4:0.30706004 5:-0.68958259 6:-0.23440027 7:-0.46656161 8:0.36869146 9:-0.076067812 10:0.24985811 11:-0.042847532 12:0.015471016 13:0.068854529 16:-0.53059228 17:-0.67561637 18:0.67360872 19:-0.53767282 20:-0.27255647 21:0.033127011 22:-0.51099538 23:0.26641323 24:-0.46109536 25:0.010978368 26:-0.12730701 27:0.11010615 28:0.020054562 29:0.048294023 30:0.15150316 31:0.033578936 32:0.025433721 33:0.11431387 34:0.25450879 35:-0.36235711 36:-0.40964533 37:-0.42671388 38:-0.5113547 39:0.44293263 
4.383542404463949 1:0.52081704 2:0.49096626 3:0.15213351 4:0.20389314 5:-0.59304271 6:-0.20670543 7:-0.4443048 8:0.25940066 9:-0.1191335 10:0.2060511 11:0.0043678265 12:0.066950608 13:0.197387 16:0.34257208 17:-0.59032615 18:0.57996751 19:-0.19832334 20:-0.40305 21:0.47785954 22:-0.4053192 23:0.25827804 24:-0.49323581 25:-0.034015609 26:-0.088570799 27:0.062662258 28:-0.09938832 29:0.031724415 30:0.11023461 31:-0.0029458925 32:-0.0047760481 33:0.0600338 34:0.25395603 35:-0.35719376 36:-0.3849526 37:-0.37022271 38:-0.4391593 39:0.47103601 
1.405602654878402 1:0.37351535 2:0.56750808 3:0.15841735 4:0.052381108 5:-0.56805272 6:-0.27644242 7:-0.34376647 8:0.28326599 9:-0.020720652 10:0.051364795 11:0.069352734 12:0.15706226 13:0.41393894 16:0.73467028 17:-0.69376177 18:0.79969771 19:-0.30792342 20:-0.42221544 21:0.81078058 22:-0.45759162 23:0.38770903 24:-0.59625607 25:-0.059695483 26:-0.1082928 27:0.14342045 28:-0.4487378 29:0.018701477 30:0.10735634 31:-0.010058895 32:-0.00083269296 33:0.053721375 34:0.25793901 35:-0.35511713 36:-0.38597692 37:-0.37638338 38:-0.10407556 39:0.52365543 
1.215905700352913 1:0.49225475 2:0.61218979 3:0.29041396 4:0.12537662 5:-0.62027782 6:-0.50635894 7:-0.49633149 8:0.29713562 9:0.086493506 10:0.1059515 11:0.17805022 12:0.23954128 13:0.32022898 16:0.13468841 17:0.27636453 18:0.35111275 19:0.1683471 20:-0.64619421 21:0.20273178 22:-0.27405399 23:-0.054039224 24:-0.61086452 25:0.093662885 26:-0.056036803 27:0.2058728 28:-0.48358029 29:-0.039178687 30:0.10196525 31:-0.043540222 32:0.097752093 33:0.062306006 34:0.20814074 35:-0.38304996 36:-0.39414805 37:-0.31868733 38:-0.017145476 39:0.65071212 
0.1615510170845163 1:0.30167348 2:0.49005862 3:0.31150099 4:0.35712076 5:-0.61176952 6:-0.26744124 7:-0.57217329 8:0.25533149 9:0.0088577245 10:0.54567992 11:0.29478758 12:0.07744841 13:0.010349557 16:-0.69263695 17:-0.29279519 18:0.93286138 19:-0.21764043 20:-0.54854947 21:-0.10821624 22:-0.43788177 23:0.48141449 24:-0.44029695 25:-0.01574984 26:-0.071755751 27:0.0078217877 28:0.084001829 29:0.04184505 30:0.13580354 31:0.021061999 32:0.022552108 33:0.086610474 34:0.24664982 35:-0.36070256 36:-0.38808659 37:-0.40049194 38:-0.51831374 39:0.51960728 
0.333327201407962 1:0.5435762 2:0.49983936 3:0.24164158 4:0.21985585 5:-0.65428745 6:-0.29846286 7:-0.30749114 8:0.52740883 9:0.2595236 10:0.54832664 11:0.26521947 12:0.02797113 13:0.17567497 15:-1 16:0.053890561 17:-0.71708513 18:0.975841 19:0.26983017 20:-0.72135828 21:0.70979265 22:-0.57569387 23:0.10781996 24:-0.19677084 25:0.039443729 26:-0.087960173 27:0.023281627 28:0.06257125 29:0.014673423 30:0.10391883 31:-0.020383775 32:0.049400309 33:0.044790352 34:0.24321651 35:-0.36409443 36:-0.40507204 37:-0.34373856 38:-0.50383617 39:0.73137624 
0.2901271331315078 1:0.63114134 2:0.89141075 3:0.4819611 4:0.027331044 5:-0.44230173 6:-0.6110905 7:-0.14323278 8:0.0010304541 9:0.26159271 10:0.36366 11:0.1420564 12:0.16031356 13:0.064067629 16:-0.64277598 17:0.080166003 18:0.77297121 19:0.074714506 20:-0.89141161 21:-0.073836088 22:-0.29010275 23:-0.51236223 24:-0.18059017 25:-0.039480879 26:-0.13541649 27:-0.14680519 28:-0.23156488 29:-0.0034553054 30:-0.013873396 31:-0.047517657 32:0.089450055 33:0.028586905 34:-0.97125799 35:-0.060695535 36:0.25699258 37:-0.50030736 38:-0.092513227 39:0.86831592 
0.120938059777786 1:0.28802307 2:0.54862919 3:0.4040438 4:0.32068948 5:-0.68499306 6:-0.24797754 7:-0.437719 8:0.29711871 9:-0.011744869 10:0.45799387 11:0.22792986 12:0.033823639 13:0.166565 16:-0.27348954 17:-0.047037232 18:0.72734999 19:0.078257593 20:-0.79364384 21:-0.13974134 22:-0.19593762 23:-0.3997662 24:-0.13831556 25:-0.010743517 26:-0.1253656 27:-0.17055045 28:0.29080428 29:0.051586448 30:0.13785003 31:0.013715581 32:0.072445247 33:0.051166343 34:0.26881484 35:-0.36373202 36:-0.38191647 37:-0.42976759 38:-0.61369083 39:0.67649105 
2.65540304868312 1:0.26393986 2:0.46036774 3:0.25905534 4:0.28323248 5:-0.71664437 6:-0.48237265 7:-0.74800961 8:0.23171793 9:-0.034741741 10:0.19613788 11:-0.23003426 12:-0.23573851 13:-0.18510123 16:-0.85987146 17:0.22228552 18:0.091663019 19:0.23285922 20:-0.54929395 21:-0.59405737 22:-0.12147876 23:-0.30237429 24:-0.095434738 25:0.039395396 26:-0.022756856 27:0.14762453 28:-0.21190057 29:0.0025313768 30:0.16235297 31:0.030813604 32:0.043035767 33:0.083425128 34:0.27348971 35:-0.36593498 36:-0.41120802 37:-0.42359747 38:-0.35668704 39:0.53360919 
0.1361102623446681 1:0.31277119 2:0.457605 3:0.37860599 4:0.30724898 5:-0.81351528 6:-0.46086195 7:-0.51012783 8:0.51188352 9:0.13953368 10:0.26271088 11:-0.047325374 12:-0.026704927 13:0.10516339 14:1 16:-0.50316888 17:-0.40196858 18:0.56285276 19:0.27209284 20:-0.73470931 21:0.35656971 22:-0.44099478 23:-0.31554907 24:-0.24121648 25:0.1270622 26:-0.072430584 27:0.25504838 28:-0.28316996 29:0.081164227 30:0.18603027 31:0.051327857 32:0.071761136 33:0.12482255 34:0.25244494 35:-0.36706371 36:-0.41279516 37:-0.48298686 38:-0.48469721 39:0.73243282 
1.173591068936849 1:0.47357608 2:0.82857927 3:0.41821935 4:-0.065587478 5:-0.39937084 6:-0.8628458 7:-0.39296794 8:0.16111582 9:0.32148594 10:-0.27864775 11:-0.45504508 12:0.2428905 13:-0.21469471 15:1 16:-0.62654123 17:-0.63443784 18:0.574464 19:0.50657602 20:-0.85185312 21:0.36313274 22:-0.52640453 23:-0.30884835 24:-0.23742242 25:0.013789441 26:-0.14691564 27:0.1513461 28:-0.81870916 29:-0.25499594 30:-0.00092274599 31:-0.079016687 32:0.54959974 33:-0.16869218 34:-0.88522222 35:-0.33042785 36:0.40429685 37:-0.82944558 38:0.49738542 39:0.72743183 
0.9958170489148762 1:0.14657255 2:0.30630727 3:0.2163737 4:0.44505991 5:-0.71248439 6:-0.22403275 7:-0.60570738 8:0.43129731 9:0.0033685399 10:0.5200902 11:0.006345123 12:0.044632235 13:-0.0066308184 16:-0.77577043 17:-0.81240179 18:0.78439006 19:0.5202768 20:-0.83489833 21:0.28902399 22:-0.36064286 23:0.0016783192 24:-0.086972724 25:0.10055029 26:-0.059489122 27:0.048147398 28:0.14273406 29:0.084297872 30:0.18706212 31:0.049806551 32:0.0739373 33:0.099876832 34:0.26980151 35:-0.36822997 36:-0.41738298 37:-0.46883148 38:-0.65025931 39:0.22500621 
0.254003385973279 1:0.3410648 2:0.75724974 3:0.53654191 4:0.20127922 5:-0.5218345 6:-0.27657485 7:-0.19113832 8:0.25553524 9:0.055421648 10:0.13415743 11:0.18149745 12:-0.11252577 13:-0.066965518 16:-0.99719759 17:0.12538312 18:0.24324184 19:0.21211583 20:-0.86050703 21:0.025701028 22:-0.14129421 23:-0.36544171 24:-0.41426196 25:-0.049646693 26:-0.29128367 27:0.18996555 28:-0.0013850156 29:-0.052419155 30:0.041167411 31:-0.00021847967 32:0.19062781 33:-0.10715797 34:0.24226519 35:-0.40436165 36:-0.1641851 37:-0.49691275 38:-0.30699115 39:0.80757023 
0.006044143924840401 1:0.44481804 2:0.66506262 3:0.51129034 4:0.32950456 5:-0.56104116 6:-0.32742231 7:-0.39451484 8:0.27180954 9:0.12762501 10:0.40227064 11:0.28910317 12:-0.098205465 13:-0.0054882817 15:1 16:-0.9474699 17:0.13939025 18:0.76245557 19:0.14285956 20:-0.85265376 21:0.37566942 22:-0.46522562 23:-0.088472963 24:-0.25259419 25:-0.085098045 26:-0.054947139 27:0.055644144 28:-0.020248794 29:0.02287137 30:0.10693495 31:-0.0065758618 32:0.11189663 33:-0.0035878667 34:0.22382933 35:-0.37043611 36:-0.36539973 37:-0.38880937 38:-0.50113261 39:0.88444828 
0.714892988586943 1:-0.014456227 2:0.27755523 3:0.24688893 4:0.57705573 5:-0.5759928 6:0.01117412 7:-0.38866842 8:0.6186579 9:0.060263742 10:0.55501761 11:-0.047506756 12:-0.011981772 13:-0.15824776 16:-0.93638143 17:-0.30081296 18:0.35146263 19:0.28656066 20:-0.84610582 21:0.32486498 22:-0.28077648 23:-0.042059067 24:-0.14501276 25:0.10938583 26:0.0027672147 27:0.082039347 28:0.13115949 29:0.082282674 30:0.19256114 31:0.053710496 32:0.057282885 33:0.11872263 34:0.26651906 35:-0.36428256 36:-0.42928749 37:-0.4648211 38:-0.67518487 39:0.023434114 
0.004104462846496498 1:0.3524773 2:0.69209271 3:0.52438284 4:0.30970501 5:-0.54913553 6:-0.27801186 7:-0.31887259 8:0.29082714 9:0.13230111 10:0.38373908 11:0.31305549 12:-0.087935354 13:0.0077939952 15:-1 16:-0.98790298 17:0.33121262 18:0.7965572 19:0.12993977 20:-0.8580273 21:0.28760638 22:-0.35684618 23:-0.21072088 24:-0.25439648 25:-0.13876649 26:-0.044218583 27:0.0038101907 28:0.015592401 29:0.018065751 30:0.10293025 31:-0.0085963248 32:0.1485414 33:-0.036847788 34:0.22313204 35:-0.37595624 36:-0.34155709 37:-0.41638699 38:-0.52932121 39:0.89009044 
0.9352266732156587 1:0.27027747 2:0.71206105 3:0.51941563 4:0.21594525 5:-0.59382247 6:-0.25103437 7:-0.17235593 8:0.36816822 9:0.13115496 10:0.20363065 11:-0.013987046 12:-0.16686123 13:0.076850479 16:-0.90089665 17:-0.68275699 18:0.85706544 19:0.35672048 20:-0.72274996 21:0.085361802 22:-0.34035035 23:-0.17819906 24:-0.56650722 25:0.26110415 26:-0.24973509 27:-0.058347731 28:0.045510109 29:0.037370241 30:0.1158138 31:0.017198167 32:0.15851318 33:-0.070001214 34:0.22598022 35:-0.41292086 36:-0.12743271 37:-0.51552183 38:-0.43742799 39:0.74090845 
0.8135692859425424 1:0.46319472 2:0.64546141 3:0.49336693 4:0.29269505 5:-0.63211712 6:-0.41734526 7:-0.43910489 8:0.26788677 9:0.15433204 10:0.41887191 11:0.24906481 12:-0.14586238 13:-0.021934265 16:-0.94024189 17:0.27575002 18:0.53113555 19:0.29675992 20:-0.88165816 21:-0.51328034 22:-0.21223863 23:-0.15453429 24:-0.10832859 25:-0.00011380489 26:-0.14330759 27:-0.01574129 28:0.10755834 29:0.024682623 30:0.11200523 31:0.0092467186 32:0.061057573 33:0.027842037 34:0.2166186 35:-0.35279992 36:-0.38190163 37:-0.36783291 38:-0.51676066 39:0.88445748 
1.23099466510259 1:0.078588186 2:0.63126037 3:0.20235 4:0.21351221 5:-0.43672542 6:-0.61375184 7:-0.25347785 8:0.19584232 9:0.060257595 10:0.37416568 11:-0.24029088 12:-0.039329739 13:-0.077561182 16:-0.2288493 17:0.11269976 18:-0.0040594201 19:0.46190567 20:-0.41141195 21:-0.24898886 22:-0.62773327 23:-0.041413992 24:-0.051247725 25:-0.034464075 26:-0.05940964 27:-0.039484337 28:0.04195913 29:0.0020580912 30:0.038878169 31:-0.0842801 32:-0.17721567 33:-0.17936503 34:-0.20306334 35:-0.096957904 36:0.11849302 37:-0.074793377 38:-0.3283666 39:0.53421509 
4.078599679717613 1:0.10711087 2:0.70221211 3:0.52531202 4:0.3414507 5:-0.48627744 6:-0.22157934 7:-0.27485849 8:0.35742046 9:0.16382107 10:0.44405263 11:0.25822201 12:-0.053539224 13:0.11958795 16:-0.6037712 17:-0.28999827 18:0.34364372 19:0.46653126 20:-0.74129897 21:-0.38657072 22:-0.21446469 23:-0.27668397 24:-0.17601871 25:0.038713094 26:-0.20421398 27:-0.05982218 28:0.081234546 29:0.0150433 30:0.092714458 31:-0.012402242 32:-0.0041407697 33:0.038481199 34:0.28029658 35:-0.3558416 36:-0.36953451 37:-0.34351572 38:-0.42909619 39:0.75730649 
5.851591780596502 1:0.2397047 2:0.53225722 3:0.33795586 4:0.37608398 5:-0.54054058 6:-0.19210817 7:-0.38718646 8:0.40375576 9:0.079110562 10:0.46046715 11:0.14543931 12:-0.0022181504 13:0.050498159 16:-0.89045464 17:-0.27905456 18:0.60635944 19:0.061943929 20:-0.47378631 21:-0.27675603 22:-0.13634048 23:-0.29421915 24:-0.12547219 25:-0.02545974 26:-0.038739456 27:-0.057741079 28:0.10448795 29:0.024351022 30:0.11093794 31:-0.0097436774 32:0.0044613194 33:0.074261739 34:0.2507179 35:-0.37425813 36:-0.37586465 37:-0.36583866 38:-0.52747517 39:0.68294743 
0.1722402536423752 1:0.3749325 2:0.49773197 3:0.3279154 4:0.39595678 5:-0.54720292 6:-0.26183133 7:-0.49245191 8:0.36877773 9:0.14352626 10:0.62212358 11:0.25687794 12:-0.039660452 13:-0.06619742 16:-0.14943327 17:-0.37388798 18:0.81299136 19:0.35420257 20:-0.65647966 21:-0.31096295 22:-0.16686897 23:-0.010609184 24:-0.059707625 25:-0.027723507 26:-0.085025303 27:-0.029659366 28:0.11490694 29:0.028213839 30:0.11654942 31:-0.0046413012 32:-0.023908864 33:0.10695092 34:0.23154854 35:-0.36302018 36:-0.37531232 37:-0.35630129 38:-0.49338138 39:0.55800329 
1.861410127174377 1:0.10263495 2:0.3625044 3:0.29215208 4:0.50596847 5:-0.62197663 6:-0.16869739 7:-0.56777419 8:0.43718358 9:0.08332637 10:0.68802485 11:0.21896701 12:0.069686836 13:-0.055328203 16:-0.10191821 17:-0.23609521 18:0.69844555 19:0.33434407 20:-0.66614121 21:-0.36122232 22:-0.11673012 23:-0.028090944 24:-0.041736669 25:0.023792561 26:-0.046371549 27:0.022131073 28:0.14783275 29:0.068782908 30:0.17354257 31:0.043754167 32:0.034149625 33:0.12526004 34:0.26037314 35:-0.36695243 36:-0.42217656 37:-0.44181832 38:-0.63744804 39:0.28087981 
2.56990368806578 1:0.22182307 2:0.6525295 3:0.57213876 4:0.29746541 5:-0.58996795 6:-0.40624967 7:-0.30664363 8:0.42980978 9:0.32718161 10:0.48686263 11:0.28353053 12:-0.24917641 13:-0.096733431 16:-0.99741661 17:0.5742159 18:-0.68307533 19:0.39208495 20:-0.83490604 21:-0.3192351 22:-0.38738366 23:-0.072705339 24:-0.43146547 25:0.18327216 26:-0.13675568 27:0.019938585 28:0.072250191 29:0.033181394 30:0.090112656 31:0.0095567357 32:0.067717425 33:0.060897155 34:0.23244167 35:-0.37065778 36:-0.32229626 37:-0.41328674 38:-0.54097315 39:0.89382101 
0.5916485590881678 1:0.21523398 2:0.70936497 3:0.5671742 4:0.42184321 5:-0.38963272 6:-0.19683115 7:-0.30465697 8:0.32139832 9:0.12804101 10:0.34869043 11:0.19674678 12:0.068038132 13:0.2061218 16:-0.91106636 17:0.27682114 18:-0.0021693425 19:0.013822729 20:-0.56757062 21:-0.30302934 22:-0.12738727 23:-0.40432561 24:-0.0024695407 25:0.031518246 26:-0.13714529 27:0.034212089 28:-0.11042425 29:0.026874268 30:0.11282193 31:-0.013287671 32:0.088051496 33:-0.052445422 34:0.27685434 35:-0.38015014 36:-0.29833531 37:-0.39954628 38:-0.33405524 39:0.79544219 
3.52745376559476 1:-0.099843575 2:0.47677666 3:0.44431871 4:0.61895324 5:-0.45799604 6:0.00819727 7:-0.41355476 8:0.43792307 9:-0.011904976 10:0.48710888 11:0.10430222 12:0.13300477 13:0.11680728 16:-0.97967532 17:0.84443184 18:-0.005311182 19:-0.029723435 20:0.19393457 21:-0.31261404 22:-0.11773119 23:-0.31334143 24:-0.028367608 25:0.065533986 26:-0.077272962 27:0.030971722 28:0.10301191 29:0.060542265 30:0.16516481 31:0.034487521 32:0.04559604 33:0.092971363 34:0.27633927 35:-0.37142136 36:-0.40869388 37:-0.4388997 38:-0.59936681 39:0.30245783 
0.5811768760249951 1:0.15227705 2:0.64501914 3:0.28935004 4:0.016056226 5:-0.58735348 6:-0.12530626 7:0.059517457 8:0.53470808 9:0.2347356 10:0.30191432 11:0.14837445 12:-0.33088631 13:-0.017169543 16:-0.95412657 17:0.40597918 18:-0.51242794 19:0.57147869 20:-0.68052023 21:0.016479645 22:-0.38611781 23:-0.64626578 24:-0.22413323 25:-0.072836048 26:-0.30747799 27:0.082332212 28:0.09891765 29:-0.012148457 30:0.079426133 31:-0.014957067 32:-0.02551515 33:0.050640238 34:0.27758297 35:-0.35787032 36:-0.38138712 37:-0.36493603 38:-0.43634489 39:0.71779233 
0.7753043353678657 1:0.18061596 2:0.84566058 3:0.33991012 4:-0.23409146 5:-0.45569732 6:-0.25799997 7:0.026841413 8:0.24397414 9:0.2473656 10:-0.010813067 11:-0.034096797 12:-0.35796273 13:0.25176574 16:-0.4364743 17:-0.80823659 18:0.45780054 19:0.66873833 20:-0.62247688 21:0.69329039 22:-0.44543207 23:-0.53009027 24:-0.25429596 25:-0.23324709 26:-0.24972432 27:-0.15011267 28:-0.13841732 29:-0.010316899 30:0.035393616 31:-0.1309467 32:0.22856012 33:0.0081270535 34:-0.20752163 35:0.13836208 36:-0.23865045 37:-0.49549663 38:0.088342509 39:0.64665265 
1.668140498036296 1:-0.24076993 2:0.33379411 3:0.19403924 4:0.34196519 5:-0.73189569 6:-0.1212318 7:-0.42365451 8:0.40260445 9:-0.20180676 10:0.083223125 11:-0.47047494 12:-0.29073472 13:-0.15160726 16:-0.57789279 17:-0.56422714 18:0.68426981 19:0.48447954 20:-0.61425525 21:0.7107943 22:-0.40070112 23:-0.37235782 24:-0.041359682 25:-0.094315921 26:-0.016472865 27:0.0040589389 28:0.17359848 29:0.083087464 30:0.19236557 31:0.054024711 32:0.058313896 33:0.10358613 34:0.27463544 35:-0.37103706 36:-0.43002955 37:-0.45642497 38:-0.67642213 39:0.33767227 
12.21108439768494 1:-0.12620846 2:0.51919543 3:0.28722015 4:0.28867898 5:-0.62366346 6:-0.2877432 7:-0.51576461 8:0.25624852 9:-0.069367721 10:0.25763403 11:-0.13693462 12:-0.26080753 13:-0.18142345 16:-0.89621984 17:0.24831124 18:0.42012516 19:-0.092866997 20:-0.26205928 21:-0.38251403 22:-0.48837008 23:0.013382045 24:-0.1785128 25:-0.094267731 26:-0.065067418 27:0.054874146 28:0.026728368 29:0.01908146 30:0.12120713 31:-0.0044993349 32:0.02710107 33:0.061676444 34:0.25544645 35:-0.33561099 36:-0.39402924 37:-0.3838062 38:-0.46132253 39:0.51367013 
6.055156408429376 1:0.13125337 2:0.49201317 3:0.26136591 4:0.28098094 5:-0.61176676 6:-0.24977543 7:-0.34251306 8:0.50457783 9:0.2097125 10:0.50555466 11:0.051583221 12:-0.20469757 13:-0.14883658 14:-1 16:-0.41526659 17:-0.49211482 18:0.4910261 19:0.35569414 20:-0.45421612 21:-0.43674447 22:-0.12980802 23:-0.21159966 24:-0.069506111 25:-0.15073661 26:-0.043781458 27:0.016659034 28:0.053031721 29:0.032000755 30:0.10443987 31:-0.0030605384 32:-0.0032995306 33:0.090914845 34:0.22790369 35:-0.35193071 36:-0.38444379 37:-0.34717967 38:-0.52042583 39:0.66547197 
5.490681713069361 1:0.021534158 2:0.59815323 3:0.44048277 4:0.29239693 5:-0.58837098 6:-0.29422074 7:-0.30780193 8:0.45428842 9:0.23530369 10:0.45473639 11:0.086913431 12:-0.27752815 13:-0.11969492 16:0.09613346 17:-0.32533585 18:0.038881046 19:0.4729702 20:-0.35334634 21:-0.69178204 22:-0.18978302 23:-0.056189087 24:-0.25748062 25:-0.21145042 26:-0.033971164 27:0.037879294 28:0.044254046 29:0.033422079 30:0.098873933 31:0.011147855 32:-0.0395876 33:0.14276217 34:0.21590225 35:-0.38231023 36:-0.32331294 37:-0.36822141 38:-0.48735155 39:0.75575351 
1.137560774576024 1:0.10681714 2:0.72209918 3:0.48083001 4:0.14722827 5:-0.59382147 6:-0.33187608 7:-0.27292518 8:0.33405491 9:0.2065221 10:0.38043105 11:0.25257263 12:-0.12727507 13:0.21852221 16:0.29609078 17:-0.14954753 18:-0.26950292 19:0.20593381 20:-0.39397985 21:-0.42319739 22:-0.25324263 23:-0.18623227 24:-0.11398247 25:-0.33670545 26:0.096012485 27:-0.17357928 28:0.028050168 29:0.041758499 30:0.063215027 31:-0.0059933634 32:-0.045734553 33:0.1139222 34:0.25345389 35:-0.39801439 36:-0.28765932 37:-0.43377378 38:-0.36753386 39:0.80093673 
0.4714711497369195 1:0.1568889 2:0.57422333 3:0.37325751 4:0.33904768 5:-0.55142317 6:-0.22992917 7:-0.31101303 8:0.44991159 9:0.22476642 10:0.53874452 11:0.23297593 12:-0.11226526 13:0.0035215906 16:0.18168181 17:-0.08921375 18:-0.20682233 19:0.74192681 20:-0.76436162 21:-0.66201268 22:-0.28253345 23:-0.19125328 24:-0.15972903 25:0.11282013 26:-0.10796137 27:0.0089371471 28:0.063970092 29:0.02510362 30:0.1062025 31:0.011869891 32:0.020265952 33:0.010607436 34:0.24850321 35:-0.34254062 36:-0.41918402 37:-0.34600967 38:-0.53256848 39:0.78677817 
0.7548560971946867 1:0.096697517 2:0.59561896 3:0.42771625 4:0.39094673 5:-0.53372597 6:-0.26393356 7:-0.37921845 8:0.37312385 9:0.21020294 10:0.56143776 11:0.27928485 12:-0.097866964 13:-0.0095584616 14:1 15:-1 16:-0.092086214 17:-0.082293325 18:0.075262473 19:0.6224188 20:-0.85380602 21:-0.70907141 22:-0.22602747 23:-0.19112978 24:-0.1567007 25:0.14577613 26:-0.16496083 27:0.035167386 28:0.070316584 29:0.022984973 30:0.10980494 31:0.01603176 32:0.048598495 33:-0.020119562 34:0.24055704 35:-0.34745391 36:-0.43216626 37:-0.31736681 38:-0.5367335 39:0.81392581 
0.9817425639183788 1:-0.17654953 2:0.51991576 3:0.2731407 4:0.29060142 5:-0.55842472 6:-0.21011318 7:-0.31113249 8:0.46248444 9:0.15841122 10:0.5437217 11:0.1930016 12:-0.018412945 13:0.13898287 16:0.54806484 17:-0.53075085 18:0.88488441 19:0.070510088 20:0.091353207 21:-0.71131817 22:-0.26625673 23:-0.01895382 24:-0.22994313 25:-0.0051663932 26:-0.08969774 27:0.0014107864 28:0.071584204 29:0.023170959 30:0.10177263 31:0.0013008365 32:-0.078869837 33:0.092789277 34:0.24948691 35:-0.3734737 36:-0.36444275 37:-0.31642801 38:-0.48145327 39:0.53796708 
0.5203984253608343 1:0.038789024 2:0.53537032 3:0.3306288 4:0.41265224 5:-0.48284649 6:-0.031283947 7:-0.21324256 8:0.53682046 9:0.15359281 10:0.54552844 11:0.12797058 12:-0.096911071 13:-0.10355006 14:-1 16:0.071334951 17:-0.25860016 18:-0.10181015 19:0.54931492 20:-0.30451037 21:-0.67489429 22:-0.31820497 23:-0.014656275 24:-0.15789603 25:-0.17486039 26:-0.041265966 27:-0.0043725978 28:0.10316254 29:0.023871868 30:0.1208065 31:-0.011663601 32:0.039176563 33:0.0091873949 34:0.26525699 35:-0.3505209 36:-0.42009965 37:-0.34120749 38:-0.47920216 39:0.45293289 
0.03529845149603608 1:-0.073675513 2:0.76507669 3:0.4373311 4:0.15082048 5:-0.35264181 6:-0.069209063 7:-0.071366645 8:0.46900433 9:0.50014454 10:0.51202545 11:0.43488253 12:0.081638514 13:0.12268487 16:-0.77846415 17:0.25677864 18:0.56060622 19:0.4266953 20:-0.65717135 21:-0.42522482 22:-0.2729396 23:0.14126671 24:-0.45381226 25:-0.45909218 26:0.2008154 27:-0.20786248 28:-0.16164735 29:-0.063423601 30:0.2204763 31:-0.023890892 32:0.43057603 33:-0.25414532 34:0.05822215 35:-0.12550699 36:-0.43657377 37:-0.41164385 38:0.13657813 39:0.74107203 
1.431817650741887 1:0.0073915672 2:0.68483715 3:0.45389312 4:0.26530681 5:-0.43430876 6:-0.040725866 7:-0.21203126 8:0.33756836 9:0.15086902 10:0.44243555 11:0.31656317 12:-0.00051284032 13:0.15744088 16:-0.84654243 17:-0.20233971 18:0.76342336 19:0.014835291 20:-0.34366593 21:-0.21644145 22:-0.39004654 23:-0.13265699 24:-0.088047462 25:-0.078820886 26:-0.1873385 27:-0.094111996 28:-0.055812198 29:0.066594008 30:0.10164442 31:-0.024609105 32:0.11992198 33:0.050864136 34:0.18348765 35:-0.31411586 36:-0.33523818 37:-0.38805989 38:-0.49255312 39:0.77651934 
8.442398171752778 1:-0.48657979 2:0.53704414 3:0.093094027 4:0.13302043 5:-0.36146681 6:-0.044058162 7:-0.30669009 8:0.17394712 9:0.00399928 10:0.32088268 11:0.10861323 12:0.00089023499 13:0.28212399 16:-0.67253647 17:0.38521021 18:-0.1154335 19:-0.0081190471 20:-0.34112241 21:0.062066955 22:-0.063838253 23:-0.18556688 24:0.053995021 25:0.024291997 26:-0.3831559 27:-0.05558589 28:0.027282949 29:-0.037819667 30:0.093544458 31:-0.025009208 32:-0.019531585 33:0.059672101 34:0.17825422 35:-0.40148168 36:-0.24145927 37:-0.36377554 38:-0.20847361 39:0.2091637 
3.559147250995657 1:-0.23060239 2:0.53126105 3:0.021996457 4:-0.044734882 5:-0.31951977 6:0.040183985 7:-0.43773901 8:-0.10497122 9:-0.23613376 10:0.022322271 11:-0.042403646 12:-0.13526065 13:0.49308972 16:-0.014303368 17:-0.38110367 18:-0.18895491 19:0.22184558 20:-0.34912838 21:0.17539899 22:0.092595022 23:-0.11985111 24:-0.15167443 25:0.12780616 26:-0.39202498 27:-0.38781916 28:-0.12277327 29:0.015135216 30:0.12514849 31:-0.0077224728 32:-0.17265647 33:0.21640197 34:0.28166367 35:-0.47026745 36:-0.26770682 37:-0.39050787 38:-0.026724292 39:0.20861779 
2.467028905111818 1:-0.090857444 2:0.69565727 3:0.15026161 4:-0.07192023 5:-0.088241872 6:0.15368094 7:-0.29377354 8:-0.072672418 9:-0.039101355 10:-0.061405428 11:-0.21752178 12:-0.32005901 13:0.19564342 16:-0.93088452 17:0.034542303 18:0.70682702 19:-0.70025264 20:0.13996641 21:0.34177068 22:-0.2232202 23:-0.15941094 24:-0.08017141 25:-0.178784 26:-0.23134849 27:-0.49681821 28:-0.37575091 29:-0.0012425587 30:0.17174633 31:-0.14508226 32:0.16352597 33:-0.067451676 34:0.40577881 35:-0.36496353 36:-0.27063655 37:-0.4122723 38:0.41515417 39:0.22887312 
5.324723291934148 1:-0.093441089 2:0.56570897 3:0.21643772 4:0.28392988 5:-0.24250021 6:0.17729937 7:-0.15262004 8:0.26179634 9:-0.052685905 10:0.24263482 11:0.18704983 12:0.025099155 13:0.20097587 16:0.81819148 17:-0.28397002 18:0.49722176 19:0.057134575 20:0.029110142 21:-0.58451458 22:0.24966071 23:0.039956438 24:-0.4680758 25:-0.18874119 26:-0.031963153 27:-0.11039644 28:-0.051843574 29:-0.03063994 30:0.092827377 31:-0.038257264 32:0.036582443 33:0.039241569 34:0.24552521 35:-0.31618881 36:-0.40896119 37:-0.37506836 38:-0.18370729 39:0.26668376 
1.403020885502243 1:-0.019068815 2:0.50496957 3:0.086295587 4:0.1486439 5:-0.25234404 6:0.1632216 7:-0.24379969 8:0.098000937 9:-0.11252552 10:0.21191815 11:0.21610144 12:0.089127438 13:0.3395591 15:1 16:-0.86506324 17:0.50468328 18:-0.027930439 19:-0.4728479 20:0.42178208 21:-0.25849528 22:0.09978107 23:0.094290245 24:-0.28056944 25:0.0064901631 26:-0.18137305 27:-0.14605374 28:-0.065294823 29:0.013620485 30:0.12052544 31:-0.042796077 32:0.032054858 33:0.076497713 34:0.26303508 35:-0.39884282 36:-0.31933527 37:-0.40752548 38:-0.12437615 39:0.20088601 
2.007188878011798 1:-0.34290039 2:0.4252984 3:0.0017356716 4:0.12536822 5:-0.33697335 6:0.022689049 7:-0.32717676 8:0.047104341 9:-0.25058782 10:0.073743027 11:0.10364634 12:0.076528111 13:0.17912863 16:-0.43705666 17:0.61585827 18:-0.18795786 19:-0.079049698 20:0.1736366 21:-0.33647156 22:0.21252891 23:0.20759705 24:-0.41893197 25:0.1153142 26:-0.08598954 27:-0.062245041 28:-0.11363339 29:0.017398027 30:0.10968624 31:-0.050605603 32:0.0043118833 33:0.0630189 34:0.25869825 35:-0.40614532 36:-0.29367321 37:-0.37723497 38:-0.1894728 39:0.19664455 
1.819615640572343 1:0.14842915 2:0.54013019 3:0.15571737 4:0.13184248 5:-0.30292072 6:0.18222123 7:-0.071967179 8:0.21160255 9:-0.041909172 10:0.29361452 11:0.41923131 12:0.179582 13:0.28490115 16:0.32704429 17:-0.7153023 18:0.4491907 19:0.14749422 20:-0.4623685 21:0.12511899 22:0.088234556 23:0.13377259 24:-0.55339637 25:-0.3074552 26:0.018463242 27:-0.22649184 28:-0.035785498 29:0.016770962 30:0.11160833 31:-0.0057455313 32:-0.0026324879 33:0.073816213 34:0.24008922 35:-0.3549731 36:-0.36775172 37:-0.34436231 38:-0.27167173 39:0.30588913 
0.9354570961343909 1:0.26095161 2:0.5577438 3:0.0024588713 4:-0.075942201 5:-0.28284663 6:0.21358722 7:0.1317707 8:0.3539699 9:0.11699493 10:0.17446534 11:0.31715849 12:-0.0085826252 13:0.30197717 16:-0.90053305 17:0.65273175 18:0.45043582 19:-0.38877421 20:0.46250025 21:-0.10131352 22:-0.11341818 23:0.16157141 24:-0.55492502 25:-0.43433508 26:-0.098843636 27:-0.062126529 28:-0.26656619 29:-0.047456785 30:0.080425138 31:-0.035412663 32:0.0095314856 33:0.069250536 34:0.24774179 35:-0.38962866 36:-0.37767456 37:-0.39266698 38:0.040787399 39:0.36995312 
7.649156172578262 1:-0.10558267 2:0.36091497 3:0.093004776 4:0.25727003 5:-0.38502468 6:0.30308019 7:-0.11220639 8:0.26324161 9:-0.1825428 10:0.3365086 11:0.41681296 12:0.2620867 13:0.23914124 16:0.028406539 17:-0.63023082 18:0.45071016 19:-0.073230962 20:-0.35747398 21:0.3271665 22:0.20997035 23:0.13060485 24:-0.49311238 25:-0.25617349 26:-0.049028745 27:-0.084070186 28:0.076483433 29:0.049286181 30:0.15901665 31:0.038201989 32:0.041033573 33:0.10062089 34:0.26762975 35:-0.36364251 36:-0.41619422 37:-0.42853305 38:-0.56051912 39:0.25517189 
0.6659597857194913 1:0.19098193 2:0.42700076 3:-0.057381859 4:0.042437051 5:-0.35244653 6:0.27241974 7:0.13614042 8:0.47006019 9:0.082760134 10:0.29210052 11:0.26037248 12:-0.0045910915 13:0.22719641 16:-0.91244258 17:0.53352445 18:0.4588384 19:-0.62651824 20:0.52801115 21:-0.14564308 22:-0.078062218 23:0.18419185 24:-0.57303546 25:-0.14945756 26:-0.10711793 27:-0.065050275 28:-0.0339238 29:-0.012111871 30:0.095193839 31:-0.021843741 32:0.0036227041 33:0.06037457 34:0.24957893 35:-0.37984948 36:-0.38839142 37:-0.38934577 38:-0.32952103 39:0.37989037 
