svm_type c_svc
kernel_type rbf
gamma 0.5
nr_class 2
total_sv 9192
rho 6.17378
label 1 -1
nr_sv 1158 8034
SV
28.178770949728 1:-0.84295854 2:-0.056763843 3:0.18377331 4:0.33478044 5:-0.37798006 6:0.045022423 7:-0.37927766 8:0.38203015 9:0.099986738 10:0.65872967 11:0.11444038 12:0.0794526 13:0.29423132 
28.178770949728 1:-0.63407403 2:-0.023580152 3:0.14369423 4:0.22011254 5:-0.33460508 6:0.16182614 7:-0.35683633 8:0.28071538 9:0.10949508 10:0.61501583 11:0.10183731 12:-0.1398815 13:-0.066230177 
28.178770949728 1:-0.17710347 2:0.37960093 3:0.31865028 4:0.16876869 5:-0.44093469 6:-0.17489386 7:-0.42605463 8:0.11075688 9:-0.089202599 10:0.20856884 11:0.068972875 12:-0.037813791 13:0.24785369 
28.178770949728 1:-0.44477003 2:0.44269689 3:0.30544151 4:0.17709031 5:-0.36088721 6:-0.19558728 7:-0.35315466 8:0.10330858 9:-0.08348756 10:0.19681533 11:0.12125447 12:-0.042583214 13:0.28307152 
1.862957361416424 1:0.47238074 2:0.57069414 3:0.37161522 4:0.023564712 5:-0.49343116 6:-0.26247136 7:-0.092478017 8:0.2045123 9:-0.040416188 10:0.088072229 11:0.23374761 12:0.061864003 13:0.37969007 
28.178770949728 1:0.20957462 2:-0.11536281 3:0.22787837 4:0.3119343 5:-0.74588343 6:-0.26737027 7:-0.47825326 8:0.32291807 9:-0.25312062 10:0.16000471 11:-0.076907017 12:0.2082833 13:0.33150914 
28.178770949728 1:0.18586629 2:0.2398955 3:0.31244682 4:0.20734558 5:-0.5859059 6:-0.26900579 7:-0.33597895 8:0.25324351 9:-0.12798934 10:0.15594179 11:0.072270872 12:0.1539828 13:0.44565469 
3.805782179269849 1:0.18031174 2:0.59765644 3:0.36265707 4:-0.17481904 5:-0.64880325 6:-0.44124086 7:-0.24516768 8:-0.01430405 9:-0.18274077 10:-0.2720954 11:0.019596145 12:0.039291556 13:0.55238823 
1.824229511156281 1:0.18283483 2:0.25919359 3:0.52481323 4:0.16126838 5:-0.88398283 6:-0.26370699 7:-0.123738 8:0.23501812 9:-0.42521557 10:-0.12574257 11:0.27070347 12:0.3199572 13:0.35877342 
28.178770949728 1:0.1133979 2:0.29225626 3:0.24095073 4:-0.021970031 5:-0.68073216 6:-0.38661036 7:-0.3759338 8:0.014962146 9:-0.34613124 10:-0.15572285 11:0.13453951 12:0.20916016 13:0.44968862 
6.10930668824621 1:0.085342986 2:-0.17896589 3:0.21019668 4:0.35542929 5:-0.73160828 6:-0.26007737 7:-0.591965 8:0.19593559 9:-0.36578142 10:0.16942051 11:-0.030475109 12:0.28004819 13:0.39604592 
10.92642804551138 1:0.47998688 2:0.49208075 3:0.27640287 4:-0.2160001 5:-0.70399953 6:-0.46240105 7:-0.2690785 8:-0.13498619 9:-0.42209024 10:-0.3981904 11:0.21526618 12:0.129315 13:0.3496679 
28.178770949728 1:0.50504372 2:0.19955012 3:0.22110697 4:0.19855874 5:-0.47261189 6:-0.15954873 7:-0.32995445 8:0.16330037 9:-0.20021274 10:0.17628429 11:0.12377144 12:0.11314912 13:0.31917894 
28.178770949728 1:0.16676999 2:0.056097159 3:0.2111762 4:0.34882352 5:-0.39066789 6:0.006149462 7:-0.35689825 8:0.23551851 9:-0.15423959 10:0.34567637 11:0.12350137 12:0.071403617 13:0.11263584 
28.178770949728 1:0.52747383 2:0.64530784 3:0.26708932 4:-0.18098642 5:-0.46484433 6:-0.2966263 7:-0.033949725 8:0.052263349 9:-0.093503327 10:-0.024774902 11:0.5564905 12:0.28588588 13:0.55240117 
28.178770949728 1:0.24099117 2:0.2722898 3:0.19121151 4:0.11047511 5:-0.43143907 6:-0.12829953 7:-0.16747602 8:0.175665 9:-0.14047511 10:0.23513147 11:0.20929007 12:0.070032363 13:0.18808215 
7.537085550869848 1:0.51020769 2:0.18912539 3:0.15108733 4:-0.058381909 5:-0.71829455 6:-0.38427194 7:-0.27720494 8:0.12879777 9:-0.25039316 10:0.067223717 11:0.49763027 12:0.45883125 13:0.57281314 
28.178770949728 1:0.20297548 2:0.14719197 3:0.26540922 4:0.23867285 5:-0.5268605 6:-0.10296642 7:-0.24838045 8:0.2915828 9:-0.18154345 10:0.14234686 11:0.14494576 12:0.24729347 13:0.30333067 
28.178770949728 1:0.51844654 2:0.065427713 3:0.11611024 4:0.12680716 5:-0.5581762 6:-0.21165489 7:-0.35139787 8:0.15331915 9:-0.20976127 10:0.30454251 11:0.38670736 12:0.35516185 13:0.4675867 
28.178770949728 1:0.50986797 2:0.44903687 3:0.23465002 4:0.068692966 5:-0.35721188 6:-0.2153265 7:-0.25963834 8:0.064572245 9:-0.1132097 10:0.1708269 11:0.27888573 12:0.16024418 13:0.45602153 
28.178770949728 1:0.52546009 2:0.13519276 3:0.15218065 4:0.12039013 5:-0.53370239 6:-0.19596069 7:-0.351692 8:0.15810244 9:-0.17268011 10:0.24217652 11:0.30120443 12:0.31101018 13:0.51210137 
12.46041593925988 1:0.50038439 2:-0.066263394 3:0.057245143 4:0.21003326 5:-0.57490989 6:-0.24332213 7:-0.48086497 8:0.15363778 9:-0.26965021 10:0.2019673 11:0.081006804 12:0.13750491 13:0.17274883 
28.178770949728 1:0.49346099 2:0.65849767 3:0.21390228 4:-0.08399508 5:-0.47739905 6:-0.19274072 7:-0.063523405 8:0.045521832 9:-0.033457064 10:-0.011425978 11:0.29593112 12:-0.14132571 13:0.41724222 
28.178770949728 1:0.50429592 2:0.037220636 3:0.1264061 4:0.1407365 5:-0.55166259 6:-0.16271436 7:-0.25774697 8:0.21380198 9:-0.25551719 10:0.017210315 11:-0.048646612 12:-0.014980729 13:0.16329661 
17.95049209745222 1:0.24638289 2:-0.12496317 3:0.16851601 4:0.22745341 5:-0.6898671 6:-0.097169807 7:-0.29292825 8:0.3235687 9:-0.29351686 10:0.0878942 11:-0.032287965 12:0.15413116 13:0.24684362 
28.178770949728 1:0.53419117 2:0.16744809 3:0.16700966 4:0.10326876 5:-0.45145358 6:-0.018400533 7:-0.13275655 8:0.19321613 9:-0.21614137 10:0.10280655 11:0.18522839 12:0.068274211 13:0.20666218 
28.178770949728 1:0.52808695 2:0.18017151 3:0.15007582 4:0.11351942 5:-0.4553857 6:0.017118262 7:-0.072421497 8:0.24140489 9:-0.18380046 10:0.097274644 11:0.16827955 12:0.0087091164 13:0.1645088 
28.178770949728 1:0.42653935 2:0.47363707 3:0.20270173 4:-0.12829867 5:-0.49182122 6:-0.084910192 7:0.079435779 8:0.153782 9:-0.092219702 10:-0.015529696 11:0.33212766 12:-0.054630824 13:0.31126187 
28.178770949728 1:0.50002149 2:0.40175585 3:0.31280193 4:-0.14343043 5:-0.67315589 6:-0.11917999 7:0.18813727 8:0.28940038 9:-0.13531932 10:-0.064331525 11:0.31918244 12:-0.026643518 13:0.24222981 
28.178770949728 1:0.47764826 2:0.20231845 3:0.14119408 4:-0.0068305012 5:-0.59814357 6:-0.12295014 7:-0.02069113 8:0.36284241 9:-0.042239276 10:0.12070232 11:0.14826517 12:-0.071431019 13:0.084497445 
28.178770949728 1:0.18987916 2:0.18768425 3:0.20182528 4:-0.017396099 5:-0.62482708 6:-0.075783818 7:0.084016315 8:0.44248518 9:-0.046831842 10:0.075959909 11:0.18644034 12:0.036955528 13:0.24901818 
28.178770949728 1:0.39819294 2:0.15479591 3:0.089703027 4:0.035710846 5:-0.54720693 6:-0.069978721 7:-0.096296776 8:0.30328971 9:-0.072020502 10:0.23590392 11:0.26732617 12:0.014347354 13:0.094579033 
28.178770949728 1:0.4520664 2:0.05713651 3:0.096170238 4:0.14726586 5:-0.43929205 6:0.011137321 7:-0.10097669 8:0.38626875 9:-0.05893943 10:0.2157638 11:-0.056240844 12:-0.18081994 13:-0.16899698 
28.178770949728 1:0.11572483 2:-0.03958844 3:0.12742281 4:0.33738575 5:-0.34222879 6:0.074169635 7:-0.23508185 8:0.35007696 9:-0.09991892 10:0.31122893 11:-0.014098299 12:-0.027264643 13:-0.030016316 
28.178770949728 1:0.10742423 2:0.11917506 3:0.091525469 4:-0.088448271 5:-0.6940062 6:-0.20584504 7:-0.054992436 8:0.30699473 9:-0.14694739 10:0.012913337 11:0.027819283 12:-0.13365139 13:0.0046798778 
28.178770949728 1:0.0069018262 2:0.093512501 3:0.079626748 4:0.017577617 5:-0.57409923 6:-0.034128151 7:0.062228818 8:0.48075952 9:-0.0018920549 10:0.11642302 11:-0.067879419 12:-0.26757616 13:-0.17868316 
28.178770949728 1:0.019810708 2:0.55311963 3:0.30674104 4:-0.099340753 5:-0.54782433 6:-0.37147879 7:-0.21819305 8:0.15237798 9:0.044251105 10:0.16130045 11:0.13446986 12:-0.12939155 13:0.23789464 
17.74739659029988 1:-0.33692659 2:0.57308275 3:0.28383695 4:-0.15939295 5:-0.31744089 6:0.059480594 7:-0.25902058 8:0.21142888 9:0.18153651 10:0.15496739 11:0.16398768 12:-0.29710989 13:0.028976597 
28.178770949728 1:0.23058692 2:0.30593432 3:-0.20727075 4:-0.41306164 5:-0.18445995 6:-0.17635651 7:-0.20371134 8:0.050062016 9:0.24613332 10:0.098908454 11:0.15636974 12:-0.41608302 13:-0.37017796 
28.178770949728 1:0.16406725 2:0.22112754 3:-0.12536512 4:-0.07260802 5:0.021667747 6:-0.1785188 7:-0.21842125 8:0.22282469 9:0.29337203 10:0.22212717 11:0.048454194 12:-0.16877682 13:-0.033357075 
28.178770949728 1:0.17333831 2:0.41555984 3:-0.2095725 4:-0.62446133 5:-0.27436804 6:-0.53682511 7:-0.30659666 8:0.18210705 9:0.27532326 10:-0.029396994 11:0.073140104 12:-0.068782937 13:0.23412611 
28.178770949728 1:-0.22329282 2:-0.45850254 3:-0.16738701 4:0.19387968 5:-0.42940768 6:0.13060057 7:-0.29663534 8:0.46963889 9:0.088683919 10:0.43173752 11:-0.17264398 12:-0.15479332 13:0.0014030749 
28.178770949728 1:0.060828775 2:0.27943351 3:-0.18449455 4:-0.53235297 5:-0.45708522 6:-0.37252112 7:-0.28774467 8:0.15226973 9:0.26901458 10:0.032796626 11:0.014146367 12:-0.15934739 13:0.26419824 
28.178770949728 1:0.090700324 2:0.61906241 3:0.24078869 4:-0.1421887 5:-0.25638252 6:-0.076956574 7:-0.046604255 8:0.11431519 9:0.049220459 10:-0.101032 11:-0.17207182 12:-0.44146003 13:-0.27482403 
28.178770949728 1:0.3420999 2:0.59889741 3:0.20507491 4:-0.2987618 5:-0.51438756 6:-0.16281312 7:-0.056297085 8:0.015572467 9:0.02583084 10:0.0097591239 11:0.035263117 12:-0.65318646 13:-0.44387762 
28.178770949728 1:0.47390012 2:0.39656157 3:0.27804763 4:-0.20364996 5:-0.76024255 6:-0.3779805 7:0.00044519754 8:0.2837865 9:-0.020374606 10:-0.080201684 11:0.015905611 12:-0.35225004 13:-0.060543098 
28.178770949728 1:0.41970666 2:0.3342606 3:0.18838059 4:-0.15031816 5:-0.68973608 6:-0.44877207 7:-0.18783682 8:0.28793896 9:-0.044113035 10:-0.14412975 11:-0.13125233 12:-0.26545154 13:-0.1133863 
11.39800123165045 1:0.11565742 2:0.52656223 3:0.2201765 4:-0.14065387 5:-0.50599236 6:-0.52408325 7:0.18350987 8:0.23164378 9:0.045988215 10:0.041091431 11:-0.17835848 12:-0.30913376 13:-0.26536511 
28.178770949728 1:0.33784833 2:0.52860135 3:0.18384513 4:-0.26604716 5:-0.59436216 6:-0.57869119 7:-0.15772755 8:0.18682477 9:0.05401074 10:-0.24463667 11:-0.14263607 12:-0.26301607 13:-0.12670195 
28.178770949728 1:0.48684977 2:0.34349281 3:0.22681386 4:-0.13627167 5:-0.7074506 6:-0.37886643 7:-0.11637572 8:0.25511397 9:-0.01709306 10:0.047538987 11:0.054338052 12:-0.25349262 13:-0.080460963 
28.178770949728 1:0.45201603 2:0.22657945 3:0.0664901 4:-0.14501368 5:-0.70209661 6:-0.37512162 7:-0.3675499 8:0.069460899 9:-0.16869489 10:0.0065575505 11:-0.098226781 12:-0.35948519 13:-0.20648625 
28.178770949728 1:0.46497155 2:0.50185039 3:0.20238331 4:-0.17112699 5:-0.49042287 6:-0.21925955 7:-0.14932813 8:0.13701575 9:0.013694007 10:0.053988395 11:0.20280358 12:-0.14573305 13:0.10191952 
28.178770949728 1:0.49434839 2:0.70391574 3:0.21255545 4:-0.43628387 5:-0.4192084 6:-0.47476888 7:-0.26758518 8:-0.015114879 9:0.16907184 10:-0.27230593 11:-0.079418003 12:0.04864718 13:0.17954972 
28.178770949728 1:0.16601752 2:0.58735482 3:0.10568475 4:-0.23047405 5:-0.4095019 6:-0.67864446 7:-0.075366527 8:-0.0081395469 9:0.041083725 10:-0.00070884103 11:-0.25131159 12:-0.014300491 13:-0.0093130634 
5.172130069509766 1:0.40630556 2:0.69620821 3:0.076821432 4:-0.74792985 5:-0.52306413 6:-0.69798503 7:-0.5755905 8:-0.46674688 9:0.010444909 10:-0.71090776 11:-0.60725521 12:-0.25480528 13:-0.43600048 
28.178770949728 1:0.3960407 2:0.34743219 3:0.1773018 4:-0.11672788 5:-0.61181407 6:-0.29625239 7:-0.32766337 8:0.014771245 9:-0.13120626 10:0.054213793 11:-0.017109489 12:-0.26499668 13:0.081774938 
28.178770949728 1:0.48339429 2:0.60521955 3:0.23379429 4:-0.29798319 5:-0.48722218 6:-0.32153065 7:-0.36622741 8:-0.04726654 9:0.088481476 10:-0.062517153 11:-0.00067278339 12:-0.13198006 13:0.27401376 
28.178770949728 1:0.470279 2:0.42441469 3:0.20972298 4:-0.12300328 5:-0.49250556 6:-0.27753509 7:-0.30193735 8:0.090122969 9:-0.016827356 10:0.070446918 11:0.080941347 12:-0.030713877 13:0.19544534 
28.178770949728 1:0.14448758 2:0.13715088 3:0.2173559 4:0.055618866 5:-0.71620367 6:-0.22674204 7:-0.45201042 8:0.1446827 9:-0.1360962 10:0.15062438 11:-0.092278342 12:-0.16242445 13:0.088477629 
28.178770949728 1:0.39552844 2:0.41686254 3:0.20053612 4:-0.097015525 5:-0.49739906 6:-0.2882309 7:-0.32075356 8:0.08628675 9:-0.016114719 10:0.078000354 11:0.036222755 12:-0.087417049 13:0.20242766 
28.178770949728 1:0.49653722 2:0.61071512 3:0.25508759 4:-0.2132763 5:-0.46323311 6:-0.33197622 7:-0.2038429 8:0.0063062662 9:0.0047705533 10:-0.00092444739 11:0.12194661 12:-0.065306459 13:0.23820831 
28.178770949728 1:0.46600613 2:0.35111389 3:0.15816252 4:-0.053012457 5:-0.52859909 6:-0.33302714 7:-0.3755791 8:0.071822156 9:-0.055686666 10:0.075548137 11:0.040816825 12:-0.082535911 13:0.1882653 
28.178770949728 1:0.38977375 2:0.38768724 3:0.17152933 4:-0.068760501 5:-0.4985001 6:-0.31611857 7:-0.37156116 8:0.055359551 9:-0.035936963 10:0.065220201 11:0.017372909 12:-0.10402217 13:0.20519323 
28.178770949728 1:0.47550137 2:0.47794478 3:0.18556579 4:-0.20868496 5:-0.47248375 6:-0.29113773 7:-0.37519308 8:-0.075763442 9:-0.028510899 10:0.00037572042 11:-0.0079709089 12:-0.089684681 13:0.28033323 
28.178770949728 1:0.46400164 2:0.52719088 3:0.21419972 4:-0.23299862 5:-0.49894795 6:-0.35772702 7:-0.35183423 8:-0.02011096 9:0.0077493591 10:-0.0087343286 11:0.031104729 12:-0.056624926 13:0.23715882 
28.178770949728 1:0.13128404 2:0.18973662 3:0.16400032 4:0.013244873 5:-0.60966585 6:-0.23227551 7:-0.45470233 8:0.071314362 9:-0.17120957 10:0.061035037 11:-0.043943185 12:-0.039426585 13:0.17965482 
13.64349324572111 1:0.12509882 2:0.23908955 3:0.24610946 4:0.036103376 5:-0.67859534 6:-0.31453645 7:-0.41114846 8:0.13716076 9:-0.17752138 10:0.029408244 11:0.015193845 12:-0.030322637 13:0.13827639 
10.99716410140067 1:0.47001687 2:0.20198957 3:0.096463936 4:-0.072259264 5:-0.7615592 6:-0.57053978 7:-0.52667374 8:0.061346371 9:-0.19983708 10:-0.07085429 11:-0.1246537 12:-0.1326582 13:0.15176787 
28.178770949728 1:0.11944665 2:0.2007261 3:0.16116178 4:0.0014690185 5:-0.64240139 6:-0.28096117 7:-0.38473195 8:0.13744345 9:-0.13952905 10:0.16477506 11:0.19040818 12:0.11953971 13:0.34014429 
28.178770949728 1:0.098515694 2:0.35899831 3:0.099113007 4:-0.17671554 5:-0.58958464 6:-0.44784635 7:-0.39243078 8:-0.019192503 9:-0.10783207 10:0.076585642 11:0.045370276 12:-0.067535545 13:0.27289321 
28.178770949728 1:0.45908951 2:0.44888103 3:0.19183998 4:-0.11024429 5:-0.48303362 6:-0.32271879 7:-0.31219309 8:0.068702545 9:-0.041753263 10:0.022747658 11:0.11779438 12:0.036977427 13:0.39989856 
28.178770949728 1:0.46068125 2:0.44843088 3:0.16358082 4:-0.13025529 5:-0.46491043 6:-0.33226037 7:-0.32556882 8:0.041235454 9:-0.047645539 10:-0.02896852 11:0.097429197 12:0.013692013 13:0.37878704 
28.178770949728 1:0.094233477 2:0.027548159 3:0.17311449 4:0.19401306 5:-0.6222159 6:-0.19915548 7:-0.4118597 8:0.25791392 9:-0.18402281 10:0.16399358 11:0.0013331348 12:0.1038666 13:0.22332563 
28.178770949728 1:0.36581129 2:0.62241699 3:0.15425512 4:-0.29311389 5:-0.33876733 6:-0.3729564 7:-0.31803852 8:-0.064408969 9:0.068601593 10:-0.12615476 11:0.093810216 12:0.035884835 13:0.43976585 
28.178770949728 1:0.47589028 2:0.28407227 3:0.12541659 4:-0.093831882 5:-0.59096812 6:-0.35568481 7:-0.40738408 8:0.0098172664 9:-0.21520851 10:-0.076696952 11:-0.014311984 12:-0.038528748 13:0.2732983 
28.178770949728 1:0.10857133 2:0.32974087 3:0.20988357 4:-0.090969136 5:-0.62947185 6:-0.259154 7:-0.4065994 8:0.019617184 9:-0.17349043 10:-0.059199617 11:0.019514092 12:-0.052167872 13:0.32524723 
28.178770949728 1:0.11910768 2:0.66791708 3:0.28107908 4:-0.35131224 5:-0.45288043 6:-0.24125914 7:-0.46610766 8:-0.099947287 9:0.13524436 10:-0.13088028 11:0.094362377 12:0.024103653 13:0.55248404 
16.67066196273031 1:0.48120268 2:0.39948232 3:0.14706329 4:-0.17896008 5:-0.59705266 6:-0.38201505 7:-0.4667093 8:-0.1441903 9:-0.21417307 10:-0.037854463 11:0.013448512 12:-0.17251891 13:0.20891267 
15.05623663860851 1:0.13105427 2:0.53719053 3:0.20815731 4:-0.24045384 5:-0.52518603 6:-0.28686072 7:-0.32421259 8:-0.16382355 9:-0.13847135 10:-0.022667836 11:0.10944779 12:-0.052480438 13:0.38615921 
28.178770949728 1:0.12854724 2:0.65200931 3:0.31998534 4:-0.2646476 5:-0.51709211 6:-0.22027589 7:-0.31927021 8:-0.11114627 9:-0.00034204707 10:-0.074393014 11:0.17935672 12:0.10004774 13:0.4771096 
28.178770949728 1:0.14909181 2:0.16285481 3:0.20350386 4:-0.0040265952 5:-0.75268921 6:-0.29957874 7:-0.44624566 8:0.076843145 9:-0.22830275 10:0.01172194 11:-0.1173368 12:-0.13037768 13:0.16945625 
28.178770949728 1:0.42868127 2:0.44186779 3:0.24171073 4:0.025814818 5:-0.43136909 6:-0.109483 7:-0.14417997 8:0.12608372 9:-0.10337944 10:0.058859226 11:0.20730713 12:-0.028758898 13:0.16664093 
28.178770949728 1:0.35959041 2:0.66935508 3:0.26694081 4:-0.15913994 5:-0.34519164 6:-0.16589621 7:-0.097797624 8:0.0069281707 9:-0.014700601 10:-0.050279875 11:0.24720936 12:-0.030709076 13:0.22289612 
3.402587922766543 1:0.41281462 2:0.81675986 3:0.26934192 4:-0.30257884 5:-0.27808913 6:-0.15899889 7:-0.067689118 8:-0.15939849 9:-0.0090912235 10:0.031777852 11:0.428365 12:-0.14220864 13:0.041565552 
28.178770949728 1:0.41533992 2:0.60068454 3:0.17626031 4:-0.23270289 5:-0.35922449 6:-0.28151361 7:-0.2679657 8:-0.14905241 9:-0.033475284 10:0.090803216 11:0.25293017 12:-0.15609279 13:-0.12133565 
28.178770949728 1:0.37886653 2:0.48176209 3:0.24244311 4:0.019706526 5:-0.3352099 6:-0.087593329 7:-0.19258864 8:0.087625817 9:-0.014769852 10:0.28358976 11:0.25082425 12:-0.20919196 13:-0.044981528 
28.178770949728 1:0.12666861 2:0.67438128 3:0.25378496 4:-0.35461286 5:-0.35849995 6:-0.13873166 7:-0.33926646 8:-0.20644034 9:0.080402701 10:0.0020218099 11:0.16880373 12:-0.18165434 13:-0.034027586 
28.178770949728 1:0.32779374 2:0.35769861 3:0.22501493 4:0.10542072 5:-0.40394492 6:-0.0648003 7:-0.21143771 8:0.1444725 9:-0.068443701 10:0.26826416 11:0.23134076 12:-0.15942024 13:-0.1151155 
28.178770949728 1:0.34088139 2:0.097656944 3:0.18374986 4:0.3242133 5:-0.40641917 6:0.078353462 7:-0.12557721 8:0.48101859 9:-0.017490046 10:0.34355823 11:-0.073500713 12:-0.22962238 13:-0.40931248 
28.178770949728 1:0.2589008 2:0.38760226 3:0.30196627 4:0.13120095 5:-0.4974301 6:-0.096465637 7:-0.040350766 8:0.38155296 9:0.017312713 10:0.20275258 11:0.10687683 12:-0.17854217 13:-0.021824223 
28.178770949728 1:0.3291457 2:0.68822471 3:0.23924634 4:-0.19531408 5:-0.33493653 6:-0.35182618 7:-0.14920625 8:0.019750611 9:0.1340228 10:0.12525011 11:0.098370646 12:-0.025508002 13:0.20709101 
28.178770949728 1:0.015880661 2:0.28794949 3:0.27240759 4:0.079573349 5:-0.58174296 6:-0.11270614 7:-0.28737104 8:0.19873785 9:-0.037640755 10:0.28966027 11:0.15426026 12:-0.0032586705 13:0.19988657 
28.178770949728 1:-0.8250613 2:-0.14601139 3:0.0932578 4:0.19244867 5:-0.52584602 6:-0.049570941 7:-0.35889897 8:0.32109018 9:-0.090335243 10:0.37018693 11:-0.041734658 12:0.13115996 13:0.12314879 
28.178770949728 1:-0.47129872 2:0.2801323 3:0.24943543 4:-0.074799134 5:-0.41708521 6:0.11794096 7:-0.41100193 8:0.12484961 9:0.077475168 10:0.21035127 11:0.083175844 12:0.07287609 13:0.39538022 
28.178770949728 1:-0.084539666 2:0.32716908 3:0.45546595 4:0.46438709 5:-0.35318602 6:-0.057934962 7:-0.32890747 8:0.34938259 9:-0.01626258 10:0.38334154 11:0.05416615 12:0.013978529 13:0.090621509 
28.178770949728 1:0.11946681 2:0.69515057 3:0.59210948 4:0.26241898 5:-0.30734262 6:-0.16449121 7:-0.40245697 8:0.11747908 9:0.043271113 10:0.059097696 11:0.021955517 12:0.073590281 13:0.19146689 
28.178770949728 1:-0.30366547 2:0.48661717 3:0.43691461 4:0.40247111 5:-0.25611445 6:-0.21915532 7:-0.21720012 8:0.29589053 9:0.0018485664 10:0.33621128 11:0.02990893 12:0.037838054 13:0.12264014 
28.178770949728 1:0.064531863 2:0.6203812 3:0.58840149 4:0.32789577 5:-0.42251416 6:-0.14930387 7:-0.21940779 8:0.28283664 9:0.061958043 10:0.14819992 11:0.098229509 12:-0.0042870175 13:0.16534269 
28.178770949728 1:0.27171792 2:0.69580786 3:0.60236976 4:0.19628955 5:-0.46372492 6:-0.16057597 7:-0.20524069 8:-0.004874298 9:-0.23809486 10:-0.11900212 11:0.047694197 12:-0.070596875 13:0.24321087 
25.39699212851245 1:0.31800975 2:0.22827785 3:0.31851977 4:0.36635263 5:-0.43367722 6:-0.15672886 7:-0.49701969 8:-0.040949125 9:-0.50170585 10:-0.13343378 11:-0.18513642 12:-0.0064432752 13:0.20338283 
28.178770949728 1:-0.084126705 2:0.72766081 3:0.48815774 4:0.13011236 5:-0.37409335 6:-0.19795074 7:-0.1000632 8:0.14134753 9:-0.059796643 10:0.079889679 11:0.3509976 12:-0.017314261 13:0.19132251 
28.178770949728 1:0.33043804 2:0.77304473 3:0.48409447 4:-0.26373674 5:-0.63967284 6:-0.021398633 7:-0.19041015 8:-0.38658538 9:-0.25336193 10:-0.16638533 11:-0.017432786 12:-0.20579686 13:0.31457377 
28.178770949728 1:-0.01393904 2:0.4665726 3:0.45119684 4:-0.09066707 5:-0.76616726 6:0.057324579 7:-0.10771617 8:-0.12973763 9:-0.3114519 10:0.19252854 11:0.29738251 12:-0.31166509 13:0.17268206 
28.178770949728 1:0.093678836 2:0.21286977 3:0.31175625 4:0.31248182 5:-0.43578485 6:-0.076545705 7:-0.23465165 8:0.23605633 9:-0.23194806 10:0.15532319 11:0.12834237 12:0.18142332 13:0.22086603 
28.178770949728 1:0.32601746 2:0.51138251 3:0.43041921 4:0.18048801 5:-0.41516372 6:-0.11150005 7:-0.065408776 8:0.22684061 9:-0.14473362 10:-0.041832395 11:0.099409612 12:0.085845358 13:0.50818687 
28.178770949728 1:0.43422272 2:0.27768985 3:0.35811866 4:0.26165678 5:-0.49767382 6:-0.16724338 7:-0.19803871 8:0.27528437 9:-0.19336234 10:0.04512157 11:0.056639341 12:0.19711962 13:0.54006705 
28.178770949728 1:0.13098779 2:0.27703792 3:0.32188343 4:0.308593 5:-0.39330636 6:-0.15284447 7:-0.17687897 8:0.28438051 9:-0.17329347 10:0.10168631 11:0.015926796 12:0.16521508 13:0.40842523 
28.178770949728 1:0.34657601 2:0.16879546 3:0.27401703 4:0.31420513 5:-0.49083047 6:-0.13759537 7:-0.30328005 8:0.28281462 9:-0.17800983 10:0.18180869 11:0.062629704 12:0.17011554 13:0.39178938 
21.08410630889331 1:0.48637221 2:0.69840114 3:0.24318907 4:-0.24361896 5:-0.36952402 6:-0.4801903 7:-0.12493348 8:-0.025847122 9:0.067939221 10:-0.068813525 11:0.13502851 12:0.31625859 13:0.96001617 
28.178770949728 1:0.19197889 2:-0.10588947 3:0.27506532 4:0.36753618 5:-0.69309955 6:-0.16827209 7:-0.41784646 8:0.30945256 9:-0.32610368 10:0.04763976 11:-0.16918017 12:0.21195471 13:0.43490554 
9.486386047780492 1:0.40334695 2:0.42096867 3:0.38284353 4:0.018432264 5:-0.65203833 6:-0.35109736 7:-0.17597025 8:0.16251944 9:-0.22470742 10:-0.16778184 11:0.099101901 12:0.17183584 13:0.72169394 
28.178770949728 1:0.44438668 2:0.12600558 3:0.25739862 4:0.26864276 5:-0.56978586 6:-0.27624602 7:-0.40340449 8:0.21201539 9:-0.23110762 10:0.10603465 11:0.069160277 12:0.2432045 13:0.50895474 
23.26082188115396 1:0.18835915 2:-0.34566158 3:0.040000928 4:0.244078 5:-0.79591745 6:-0.33181965 7:-0.69016849 8:0.077505368 9:-0.52316945 10:-0.051144516 11:-0.27495481 12:0.16453508 13:0.28621137 
10.95705024045795 1:0.47557073 2:0.8110398 3:0.51124968 4:-0.26272265 5:-0.63977178 6:-0.19866507 7:0.042583925 8:-0.13256294 9:-0.18670608 10:-0.18039474 11:0.32362674 12:0.19941265 13:0.63889303 
28.178770949728 1:0.14781796 2:0.099449741 3:0.33871053 4:0.30291565 5:-0.62744736 6:-0.15192638 7:-0.31848496 8:0.28147108 9:-0.2652468 10:0.068868952 11:0.040768924 12:0.26802345 13:0.51218504 
4.944242196202191 1:0.50860556 2:0.7883899 3:0.51303019 4:-0.37599116 5:-0.81734432 6:-0.39077201 7:-0.046081432 8:-0.17885719 9:-0.16318018 10:-0.19111303 11:0.17585832 12:0.15936851 13:0.67858541 
28.178770949728 1:0.20500236 2:0.16915827 3:0.18074666 4:0.12870658 5:-0.5869543 6:-0.4335784 7:-0.37134857 8:0.12511838 9:-0.2741921 10:-0.0035469882 11:-0.063618273 12:0.15029535 13:0.4556863 
28.178770949728 1:0.46667166 2:0.31848629 3:0.29505553 4:0.11086705 5:-0.64146647 6:-0.39806662 7:-0.40400261 8:0.16449809 9:-0.15172242 10:0.042274681 11:-0.032457159 12:0.032473116 13:0.41035703 
28.178770949728 1:0.2127074 2:0.69850826 3:0.39875667 4:-0.11481323 5:-0.4899453 6:-0.51294596 7:-0.068836437 8:0.17003201 9:-0.046439267 10:-0.30365037 11:0.10019016 12:0.23184899 13:0.74570337 
28.178770949728 1:0.45685303 2:0.083415645 3:0.14245733 4:0.13902076 5:-0.63002541 6:-0.38031651 7:-0.54740619 8:0.12949501 9:-0.14971026 10:0.27564593 11:-0.017472619 12:-0.18722175 13:-0.21326075 
28.178770949728 1:0.16600085 2:0.17917647 3:0.19336313 4:0.19450034 5:-0.51692932 6:-0.33929526 7:-0.44781894 8:0.17266666 9:-0.093631754 10:0.32183009 11:0.034771791 12:-0.14632298 13:-0.1713703 
28.178770949728 1:0.4387277 2:0.21705483 3:0.27053959 4:0.14841532 5:-0.61020538 6:-0.21803663 7:-0.23645888 8:0.31818496 9:-0.084621708 10:0.23148128 11:0.089158698 12:-0.10137983 13:-0.087626645 
28.178770949728 1:0.43547484 2:0.15491503 3:0.27562343 4:0.22352736 5:-0.60591567 6:-0.27184052 7:-0.28377182 8:0.37220475 9:-0.029023741 10:0.28804587 11:0.084210655 12:-0.074136322 13:-0.15496803 
28.178770949728 1:0.15683704 2:-0.21683136 3:0.20171547 4:0.35251703 5:-0.76301969 6:-0.20978919 7:-0.41204404 8:0.47964839 9:-0.15050911 10:0.31307324 11:-0.079000109 12:0.08119962 13:-0.070971186 
28.178770949728 1:0.37588269 2:0.55293003 3:0.37024186 4:-0.0093881969 5:-0.54774878 6:-0.29162473 7:-0.12308678 8:0.26053639 9:0.089752008 10:0.27836616 11:0.37318944 12:-0.13210109 13:0.0040993189 
28.178770949728 1:0.47262537 2:0.15847625 3:0.2290965 4:0.15339412 5:-0.65046444 6:-0.37240084 7:-0.41243123 8:0.28803577 9:0.00063306677 10:0.40132972 11:0.14378532 12:-0.12344447 13:-0.2207123 
9.425661730295319 1:0.18683673 2:-0.18199391 3:0.2032869 4:0.23184281 5:-0.92793651 6:-0.42362925 7:-0.58944323 8:0.31924784 9:-0.15705851 10:0.44198785 11:0.1593334 12:0.10202196 13:-0.1186762 
28.178770949728 1:0.36665453 2:0.68026228 3:0.42276734 4:0.024638045 5:-0.45101743 6:-0.35851734 7:-0.10210267 8:0.22898504 9:0.13120138 10:0.32576 11:0.31065567 12:-0.19803027 13:-0.0023937 
28.178770949728 1:0.43823226 2:0.073802772 3:0.18557634 4:0.18978877 5:-0.59420459 6:-0.25413466 7:-0.31709585 8:0.36453373 9:-0.0067019109 10:0.34274355 11:-0.033413278 12:-0.26543088 13:-0.45956414 
28.178770949728 1:0.47482751 2:0.43543724 3:0.34743723 4:-0.051129239 5:-0.72084173 6:-0.50231 7:-0.15687654 8:0.29156918 9:0.10506748 10:0.15052895 11:0.12575968 12:-0.31736239 13:-0.10334352 
1.579664372707871 1:0.37312351 2:0.58993579 3:0.38306763 4:-0.089708691 5:-0.57143788 6:-0.48466141 7:-0.076111864 8:0.26802772 9:0.20210284 10:0.22199002 11:0.18290804 12:-0.32681703 13:-0.15246072 
14.16659767940653 1:0.43425148 2:0.29795842 3:0.27835696 4:-0.0034322237 5:-0.73350555 6:-0.44594108 7:-0.21755043 8:0.33059559 9:0.076117169 10:0.23228713 11:0.15579352 12:-0.28017449 13:-0.24078473 
20.87861262551439 1:0.13050412 2:-0.0067291825 3:0.20209358 4:0.016268088 5:-0.94776313 6:-0.60439745 7:-0.46596439 8:0.29269862 9:-0.1086506 10:0.044382705 11:-0.26123924 12:-0.42317825 13:-0.44263405 
28.178770949728 1:0.36069967 2:0.25380721 3:0.27545978 4:-0.0035240973 5:-0.75175576 6:-0.4604882 7:-0.20835601 8:0.37010816 9:0.092238615 10:0.24205097 11:0.14084057 12:-0.25682333 13:-0.18135126 
28.178770949728 1:0.38826156 2:0.51119689 3:0.45643331 4:0.027082729 5:-0.64183669 6:-0.33853778 7:-0.011113052 8:0.40171964 9:0.10752042 10:0.15189305 11:0.20346238 12:-0.22538537 13:-0.13669254 
28.178770949728 1:0.39114067 2:0.1265469 3:0.20510355 4:0.13082802 5:-0.66474836 6:-0.39105561 7:-0.37228576 8:0.3353495 9:0.029273109 10:0.40904157 11:0.21430868 12:0.018394813 13:-0.0055601579 
28.178770949728 1:0.38353516 2:0.13842633 3:0.24014334 4:0.24878988 5:-0.60467872 6:-0.29486088 7:-0.35829268 8:0.41678701 9:0.048860287 10:0.45770642 11:0.10640875 12:-0.043574501 13:-0.11145307 
28.178770949728 1:0.11724548 2:-0.062424154 3:0.19220666 4:0.19907506 5:-0.7869935 6:-0.38838046 7:-0.45260527 8:0.40227034 9:-0.01907975 10:0.36804433 11:-0.00030663957 12:-0.077533097 13:-0.17631047 
28.178770949728 1:0.32069068 2:0.082569258 3:0.22906891 4:0.25575242 5:-0.61068082 6:-0.27881513 7:-0.29723797 8:0.52359403 9:0.14034637 10:0.52453979 11:0.13567446 12:-0.024813811 13:-0.096238876 
28.178770949728 1:0.37926256 2:0.21274863 3:0.34996595 4:0.29320216 5:-0.6046763 6:-0.33332887 7:-0.33963476 8:0.41886186 9:0.031474405 10:0.33467694 11:0.0029819648 12:-0.057322603 13:-0.041958488 
28.178770949728 1:0.035826908 2:0.37352126 3:0.38746303 4:0.27530793 5:-0.52095019 6:-0.43269034 7:-0.25179542 8:0.36468098 9:-0.0047120361 10:0.22347726 11:-0.011045343 12:0.036421069 13:0.24018125 
6.128509784443049 1:0.32522098 2:0.097798553 3:0.20526654 4:0.13781371 5:-0.70024058 6:-0.41775966 7:-0.40696448 8:0.29775008 9:-0.070084599 10:0.20012455 11:-0.17599276 12:-0.39302524 13:-0.56757742 
28.178770949728 1:0.29863649 2:0.20008954 3:0.30989465 4:0.24492344 5:-0.5908303 6:-0.26783894 7:-0.2703706 8:0.39513723 9:-0.040129432 10:0.2324995 11:-0.071184572 12:-0.17886 13:-0.23635112 
28.178770949728 1:0.0013650296 2:-0.22732506 3:0.19926808 4:0.44090611 5:-0.64156853 6:-0.14364196 7:-0.44998659 8:0.48468966 9:-0.087780216 10:0.38557813 11:-0.2172022 12:-0.13152174 13:-0.32833821 
18.31283176549335 1:0.36053014 2:0.7296669 3:0.53963854 4:-0.36056172 5:-0.80904446 6:-0.39338812 7:0.20200234 8:0.24468869 9:0.2041741 10:0.029456028 11:0.071497331 12:-0.39109053 13:-0.08679471 
28.178770949728 1:0.045428276 2:0.35530768 3:0.39369399 4:0.19112024 5:-0.55343669 6:-0.23272256 7:-0.14241777 8:0.45264515 9:0.11660448 10:0.28331839 11:0.051308765 12:-0.19983497 13:-0.14533165 
28.178770949728 1:0.084465093 2:0.14350443 3:0.3114739 4:0.29910772 5:-0.56397187 6:-0.28282144 7:-0.26080211 8:0.53091816 9:0.15808975 10:0.39387092 11:-0.12760098 12:-0.25175244 13:-0.28548956 
28.178770949728 1:-0.035642445 2:0.57551084 3:0.61052771 4:0.1630364 5:-0.47787842 6:-0.12826786 7:-0.039137196 8:0.49417757 9:0.23433556 10:0.16192424 11:-0.19456769 12:-0.34668549 13:-0.057945438 
28.178770949728 1:-0.50322308 2:-0.18418075 3:-0.033585598 4:0.1424512 5:-0.43312854 6:0.10320899 7:-0.1719328 8:0.27868396 9:-0.18399149 10:0.2849715 11:0.11513888 12:-0.03523972 13:-0.028603432 
28.178770949728 1:-0.21287131 2:0.044641211 3:-0.010759063 4:0.068931601 5:-0.3388451 6:0.077878929 7:-0.16862684 8:0.21558706 9:-0.061882927 10:0.42072515 11:0.39591611 12:0.11303305 13:0.072892366 
28.178770949728 1:-0.046788129 2:0.62626039 3:0.42035647 4:-0.041926056 5:-0.23755439 6:0.06560244 7:-0.34805149 8:-0.2437384 9:-0.27844313 10:-0.10137482 11:0.22493201 12:0.055133979 13:0.084740198 
28.178770949728 1:-0.44250464 2:0.23280567 3:0.3925223 4:0.25941766 5:-0.54715046 6:-0.019332586 7:-0.34479052 8:0.072676431 9:-0.3400478 10:0.18877976 11:0.24286998 12:0.040049805 13:0.02830475 
28.178770949728 1:0.0086614024 2:0.62393602 3:0.5582869 4:0.16427048 5:-0.44225945 6:-0.16930437 7:-0.2523201 8:-0.11788085 9:-0.32678697 10:-0.1931648 11:0.014808077 12:0.21293707 13:0.51972689 
28.178770949728 1:-0.13427671 2:0.27072361 3:0.53560892 4:0.29620655 5:-0.71923971 6:-0.22695057 7:-0.30486115 8:0.086454964 9:-0.49090269 10:-0.28425249 11:-0.12772228 12:0.057719299 13:0.21221615 
28.178770949728 1:-0.020767035 2:0.024213025 3:0.30272825 4:0.17061223 5:-0.85590902 6:-0.35321278 7:-0.38525223 8:0.21877661 9:-0.35718941 10:-0.0049320628 11:0.11954573 12:0.36717546 13:0.60215542 
28.178770949728 1:0.073678754 2:-0.16523051 3:0.10490182 4:0.31802901 5:-0.5806857 6:-0.21553339 7:-0.50729966 8:0.24312083 9:-0.25258217 10:0.22513594 11:-0.046790124 12:0.18066023 13:0.19969286 
28.178770949728 1:0.39764843 2:0.41485816 3:0.2706391 4:0.1862911 5:-0.35406528 6:-0.14819327 7:-0.23308176 8:0.17746577 9:-0.078341921 10:0.24800097 11:0.23061338 12:0.038007116 13:0.15504958 
28.178770949728 1:0.52701709 2:0.032717616 3:0.15029898 4:0.22695349 5:-0.55396149 6:-0.21836913 7:-0.41151131 8:0.22407314 9:-0.19100606 10:0.2626386 11:0.088051184 12:0.12416653 13:0.18374362 
28.178770949728 1:0.20233086 2:-0.10597728 3:0.11792837 4:0.34100585 5:-0.45472804 6:-0.062707528 7:-0.37587025 8:0.31504187 9:-0.13327383 10:0.3740489 11:0.050627699 12:0.065074995 13:0.023207747 
28.178770949728 1:0.59884419 2:0.011877805 3:0.094212109 4:0.17306788 5:-0.53752948 6:-0.16090134 7:-0.32431166 8:0.23907553 9:-0.16000239 10:0.254293 11:0.14196829 12:0.10551942 13:0.21874141 
28.178770949728 1:0.62126169 2:0.27172145 3:0.19449994 4:0.0087034488 5:-0.55565105 6:-0.16917047 7:-0.13907242 8:0.19087242 9:-0.15464489 10:0.1341919 11:0.22455663 12:0.040246581 13:0.21202833 
28.178770949728 1:0.55251045 2:0.095118393 3:0.12302731 4:0.04235429 5:-0.64333565 6:-0.24160837 7:-0.25163457 8:0.25328324 9:-0.14804023 10:0.18886647 11:0.1293204 12:0.029812459 13:0.09570614 
28.178770949728 1:0.22819518 2:0.18747852 3:0.022218091 4:0.0025320063 5:-0.48607728 6:-0.46173127 7:-0.16197702 8:0.15293707 9:-0.13677285 10:0.2050736 11:-0.0082194682 12:0.040521002 13:-0.049319786 
27.92821512878928 1:0.50176105 2:0.75853369 3:0.26761948 4:-0.47171383 5:-0.56269114 6:-0.1217195 7:0.016933415 8:-0.22810695 9:-0.18346116 10:-0.070244474 11:0.56698192 12:-0.23895758 13:0.15927769 
10.83921662313384 1:0.39365687 2:0.56033986 3:0.12391632 4:-0.42134907 5:-0.53433571 6:-0.19504039 7:-0.13317238 8:-0.28425832 9:-0.25370606 10:-0.016846998 11:0.45399699 12:-0.34876475 13:-0.057216564 
6.413158016992374 1:0.46097576 2:0.87450019 3:0.19854673 4:-0.68883474 5:-0.46598666 6:-0.088365223 7:-0.082836254 8:-0.45113116 9:-0.0050122698 10:-0.064774505 11:0.33385143 12:-0.26028177 13:0.0074438044 
28.178770949728 1:0.41489246 2:0.72593152 3:0.27081911 4:-0.32124365 5:-0.36907917 6:-0.035301432 7:0.065978291 8:-0.093021452 9:-0.035267647 10:-0.016062397 11:0.31400695 12:-0.25286509 13:-0.067234115 
28.178770949728 1:0.40895083 2:0.28716867 3:0.22803042 4:0.018985033 5:-0.46326381 6:0.038589754 7:-0.015195126 8:0.15000717 9:-0.18331063 10:0.12888717 11:0.25254873 12:-0.2189148 13:-0.18883698 
28.178770949728 1:0.35285312 2:0.1327329 3:0.1080041 4:0.18578862 5:-0.35532116 6:0.09371277 7:-0.14773501 8:0.20895286 9:-0.14285328 10:0.22072507 11:0.096162508 12:-0.21408235 13:-0.21411723 
28.178770949728 1:0.24219824 2:0.18118556 3:0.13059793 4:0.13510116 5:-0.3722907 6:0.099613598 7:-0.062045137 8:0.26822214 9:-0.094034595 10:0.19423879 11:0.088918515 12:-0.21380592 13:-0.20242656 
28.178770949728 1:0.14122292 2:0.2743413 3:0.18540061 4:0.096763073 5:-0.38633431 6:0.097119302 7:0.021582979 8:0.27926882 9:-0.069301079 10:0.20490096 11:0.25997947 12:-0.099632947 13:-0.087761921 
28.178770949728 1:-0.33738289 2:0.39007919 3:0.38854438 4:-0.007503599 5:-0.77739549 6:-0.47320673 7:-0.45575922 8:0.10673909 9:0.053562986 10:0.33441307 11:0.24147748 12:-0.058858367 13:0.22899496 
28.178770949728 1:0.024435938 2:0.065749037 3:0.19784561 4:0.21041283 5:-0.66556158 6:-0.40772544 7:-0.53748729 8:0.21529983 9:-0.15139959 10:0.30697164 11:0.11420426 12:0.13698599 13:0.19377492 
12.31174214230549 1:0.25959112 2:0.39012693 3:0.27684656 4:-0.19344249 5:-0.85960085 6:-0.52632336 7:-0.21760495 8:0.15873813 9:-0.07863806 10:0.12955522 11:0.3724102 12:0.026449321 13:0.41704914 
28.178770949728 1:-0.34770932 2:-0.10408274 3:0.21239433 4:0.33935662 5:-0.69505373 6:-0.28613964 7:-0.57641862 8:0.27894769 9:-0.19054728 10:0.38461896 11:0.12930003 12:0.2485961 13:0.24256664 
28.178770949728 1:0.16646004 2:0.31437742 3:0.2513699 4:-0.12748467 5:-0.83832487 6:-0.53183994 7:-0.28047462 8:0.20461 9:-0.055001882 10:0.18092677 11:0.31542755 12:0.053497617 13:0.4223897 
28.178770949728 1:0.32572151 2:0.65958567 3:0.36884623 4:-0.18908409 5:-0.41876681 6:0.01842959 7:0.02596754 8:-0.019841387 9:-0.058288322 10:0.26071608 11:0.52183783 12:-0.14142859 13:0.037643772 
28.178770949728 1:0.17162994 2:0.81807651 3:0.33513759 4:-0.29228084 5:-0.50315356 6:-0.042003875 7:0.029418112 8:-0.10350903 9:0.04507937 10:0.2591978 11:0.66891996 12:-0.16084243 13:0.083069604 
3.254875030541439 1:-0.024357072 2:0.18451304 3:0.11991947 4:-0.17111996 5:-0.81641118 6:-0.37112163 7:-0.34300751 8:0.051072969 9:-0.18625829 10:0.23367723 11:0.38942839 12:0.021528889 13:0.11829763 
13.43908206244597 1:0.3042183 2:0.54708942 3:0.082423349 4:-0.6045782 5:-0.84864428 6:-0.45877911 7:-0.21754426 8:-0.31043069 9:-0.23716061 10:0.042881838 11:0.69372205 12:-0.0094448662 13:0.33358084 
24.43216416075073 1:0.48151628 2:0.29146194 3:0.29379033 4:0.13481906 5:-0.60448179 6:-0.28712117 7:-0.30875085 8:0.23016246 9:-0.11067635 10:0.22173882 11:0.18802078 12:0.027462404 13:0.1640658 
28.178770949728 1:0.50439074 2:0.50938782 3:0.13184667 4:-0.19083821 5:-0.47429754 6:-0.43233417 7:-0.36257585 8:-0.22008833 9:-0.12298243 10:0.34676146 11:0.6217916 12:0.08142323 13:0.17941139 
28.178770949728 1:0.20353277 2:0.36525554 3:0.22150896 4:0.021815124 5:-0.5106128 6:-0.26237368 7:-0.42313321 8:-0.080016425 9:-0.16409919 10:0.36016362 11:0.46317493 12:0.011215993 13:0.066345525 
28.178770949728 1:0.46293871 2:0.060044665 3:0.10072172 4:0.23863091 5:-0.48396314 6:-0.16417224 7:-0.5066447 8:0.10571532 9:-0.11590694 10:0.53404496 11:0.38230618 12:0.093329876 13:0.028469144 
28.178770949728 1:0.37229666 2:0.13952335 3:0.09803244 4:0.10613326 5:-0.54939159 6:-0.21992528 7:-0.45675341 8:0.04313995 9:-0.11862938 10:0.50600003 11:0.51496456 12:0.086045062 13:0.042866896 
28.178770949728 1:0.45389386 2:0.62951303 3:0.13417792 4:-0.066720813 5:-0.15492599 6:-0.41622075 7:-0.13765006 8:-0.1478786 9:0.014921162 10:0.47284833 11:0.50960729 12:0.11435781 13:0.026618676 
28.178770949728 1:0.43889559 2:0.10653825 3:0.1438895 4:0.29671002 5:-0.4201997 6:-0.1365309 7:-0.50255001 8:0.12903991 9:-0.074164046 10:0.54442801 11:0.3626326 12:0.062951959 13:-0.03064589 
28.178770949728 1:0.16621041 2:-0.22537811 3:0.060685709 4:0.22270322 5:-0.6720377 6:-0.19315156 7:-0.59186871 8:0.12068559 9:-0.23189555 10:0.48498846 11:0.29101623 12:0.14776155 13:-0.051440607 
28.178770949728 1:0.35026679 2:0.14300722 3:0.080701189 4:0.094773396 5:-0.52237137 6:-0.19949845 7:-0.44257062 8:0.080695378 9:-0.070799538 10:0.50442316 11:0.5119176 12:0.1272663 13:0.14224237 
15.20603147763778 1:0.42404895 2:0.12307849 3:0.096614169 4:0.049343643 5:-0.56298667 6:-0.23434168 7:-0.45621316 8:0.050393639 9:-0.12235611 10:0.42655998 11:0.34202207 12:-0.0096419133 13:0.02271653 
15.44325171662545 1:0.40240699 2:0.19570483 3:0.18351462 4:-0.088330669 5:-0.64919348 6:-0.19872442 7:-0.36329713 8:-0.083880303 9:-0.21282081 10:0.3954157 11:0.29225761 12:-0.24871311 13:-0.25511076 
28.178770949728 1:0.12758366 2:0.50573933 3:0.22382398 4:-0.2945922 5:-0.62303525 6:-0.037336172 7:-0.42700566 8:-0.33997895 9:-0.056588115 10:0.38199979 11:0.30756948 12:-0.32444444 13:0.16941595 
28.178770949728 1:0.37303546 2:0.32486387 3:0.18543272 4:0.079393668 5:-0.36681398 6:-0.067170049 7:-0.26822739 8:0.068618832 9:-0.021722587 10:0.43889933 11:0.38765734 12:-0.1368744 13:-0.11935232 
28.178770949728 1:0.32064557 2:0.52993002 3:0.15953399 4:-0.10173533 5:-0.28563684 6:-0.15796105 7:-0.23913165 8:-0.091227972 9:0.0024896379 10:0.36897234 11:0.42603168 12:-0.21788691 13:-0.079261247 
28.178770949728 1:0.39897909 2:0.25735754 3:0.185384 4:0.12684817 5:-0.36706155 6:-0.057237268 7:-0.28373131 8:0.084968578 9:-0.046739901 10:0.46917296 11:0.38669607 12:-0.1200678 13:-0.22032251 
28.178770949728 1:0.37214636 2:0.12481827 3:0.14678472 4:0.25552724 5:-0.41903839 6:-0.05305548 7:-0.32248489 8:0.23675433 9:-0.020986744 10:0.49903028 11:0.29035827 12:-0.066924412 13:-0.17851193 
28.178770949728 1:0.11967767 2:-0.0329636 3:0.16262173 4:0.24568191 5:-0.51492208 6:-0.027609204 7:-0.41231553 8:0.14054762 9:-0.1615171 10:0.48599844 11:0.3080298 12:-0.062167876 13:-0.32387649 
28.178770949728 1:0.3172094 2:0.19699764 3:0.16554733 4:0.18672643 5:-0.43912941 6:-0.083447428 7:-0.31340315 8:0.16004536 9:-0.053471095 10:0.44445804 11:0.32386534 12:-0.11735893 13:-0.20653732 
28.178770949728 1:0.39982268 2:0.12583664 3:0.15283518 4:0.16099508 5:-0.46087699 6:-0.085468281 7:-0.27751591 8:0.19314393 9:-0.10595888 10:0.38893434 11:0.28457169 12:-0.0062448978 13:-0.15131072 
24.71461346783561 1:0.37695672 2:0.087925939 3:0.10253191 4:0.19948107 5:-0.46349789 6:-0.089804109 7:-0.35496849 8:0.18814539 9:-0.074389389 10:0.43768163 11:0.24536528 12:-0.075675912 13:-0.16981446 
28.178770949728 1:0.3088724 2:0.17731638 3:0.12359383 4:0.13555572 5:-0.43263124 6:-0.056339832 7:-0.29694144 8:0.096785466 9:-0.11471385 10:0.34869805 11:0.26253729 12:-0.18399696 13:-0.20304794 
28.178770949728 1:0.39676905 2:0.13968198 3:0.13504424 4:0.13949241 5:-0.42625957 6:-0.071756306 7:-0.28993007 8:0.14765705 9:-0.092214821 10:0.39424275 11:0.23942397 12:-0.12656169 13:-0.22870713 
28.178770949728 1:0.38502077 2:0.27178279 3:0.15282179 4:0.039938771 5:-0.48760194 6:-0.067942645 7:-0.196248 8:0.1123061 9:-0.078710001 10:0.35870131 11:0.37125224 12:-0.16978694 13:-0.15463578 
28.178770949728 1:0.31627917 2:0.59682517 3:0.1820406 4:-0.17922987 5:-0.30689194 6:-0.077007405 7:-0.072387473 8:-0.092519556 9:-0.020262406 10:0.28111517 11:0.41667394 12:-0.35934405 13:-0.15932559 
28.178770949728 1:0.3921493 2:0.67053672 3:0.077184215 4:-0.16108743 5:-0.12781468 6:-0.38669857 7:0.030345017 8:-0.047159855 9:0.063425654 10:0.32868823 11:0.18649113 12:-0.18203848 13:-0.23051016 
28.178770949728 1:0.38857825 2:0.514097 3:0.13706975 4:-0.14902374 5:-0.3346108 6:-0.15143719 7:-0.13233921 8:0.024285418 9:0.0425537 10:0.33533972 11:0.36547787 12:-0.29851632 13:-0.16639437 
28.178770949728 1:0.32629566 2:0.46149537 3:0.14269846 4:-0.10139805 5:-0.40586229 6:-0.065787745 7:-0.18061949 8:-0.0084275949 9:-0.025032146 10:0.31334818 11:0.34299062 12:-0.41159587 13:-0.21257777 
28.178770949728 1:0.41495201 2:0.59045612 3:0.15821018 4:-0.20187453 5:-0.33013336 6:-0.13111911 7:-0.12812322 8:-0.0411477 9:0.042534996 10:0.3164175 11:0.40824308 12:-0.35957737 13:-0.124597 
28.178770949728 1:0.36670336 2:0.21402926 3:0.082233221 4:-0.018550214 5:-0.50380529 6:-0.095952639 7:-0.26427418 8:0.084740045 9:-0.04155514 10:0.41229251 11:0.3286262 12:-0.28300759 13:-0.25657242 
28.178770949728 1:0.2955126 2:0.3776531 3:0.16842978 4:-0.17056975 5:-0.49972754 6:-0.054244578 7:-0.15792653 8:-0.069255198 9:-0.12011715 10:0.2941363 11:0.36750232 12:-0.393591 13:-0.3016738 
28.178770949728 1:0.36805449 2:0.12828857 3:0.098032182 4:-0.036798348 5:-0.55221447 6:-0.02902176 7:-0.16535282 8:0.099843814 9:-0.17455536 10:0.27295083 11:0.26415799 12:-0.27242873 13:-0.37454177 
28.178770949728 1:0.34353779 2:-0.045492724 3:0.054011141 4:0.25002422 5:-0.37654177 6:0.037639322 7:-0.21989294 8:0.35506289 9:0.046689107 10:0.53535131 11:0.24226782 12:-0.16588627 13:-0.36590548 
5.356667323486748 1:0.077129317 2:-0.03414448 3:0.070263359 4:0.087711591 5:-0.54320508 6:-0.0034609782 7:-0.26124536 8:0.16007511 9:-0.19172126 10:0.30121594 11:0.15104741 12:-0.23850944 13:-0.39460197 
28.178770949728 1:0.2709389 2:0.013412487 3:0.070162 4:0.22181999 5:-0.38870708 6:0.022237711 7:-0.21356621 8:0.32597172 9:0.020325685 10:0.49268151 11:0.26919738 12:-0.15066779 13:-0.33205639 
28.178770949728 1:0.33523015 2:0.5196979 3:0.18029739 4:-0.085549848 5:-0.15546769 6:0.014801673 7:-0.011332268 8:0.19863509 9:0.27093031 10:0.40041873 11:0.43404612 12:-0.3037606 13:-0.42665002 
28.178770949728 1:0.29025447 2:-0.055380127 3:0.035511698 4:0.17190036 5:-0.37842316 6:0.07553675 7:-0.19148025 8:0.25075101 9:0.00093279749 10:0.5446301 11:0.27462331 12:-0.32818363 13:-0.5691934 
28.178770949728 1:0.018212792 2:-0.23231834 3:0.10653574 4:0.32769572 5:-0.50798035 6:0.12169188 7:-0.26344919 8:0.40851274 9:-0.033297963 10:0.5724316 11:0.10789689 12:-0.19359487 13:-0.44551223 
28.178770949728 1:0.16975871 2:0.044877705 3:0.067494878 4:0.088379711 5:-0.44224842 6:0.0218423 7:-0.20311716 8:0.17370874 9:-0.092083686 10:0.42127437 11:0.25911216 12:-0.29949745 13:-0.46716863 
28.178770949728 1:0.22408529 2:0.21878956 3:0.16937731 4:0.080092216 5:-0.40352729 6:-0.048018269 7:-0.2045749 8:0.11872358 9:-0.038395072 10:0.45091637 11:0.38201738 12:-0.23061651 13:-0.37716367 
28.178770949728 1:0.14773587 2:0.57741762 3:0.27585988 4:-0.14115268 5:-0.40290147 6:0.11176825 7:0.12776217 8:0.14651879 9:0.081026905 10:0.31259918 11:0.39903677 12:-0.40762638 13:-0.27546802 
28.178770949728 1:-0.12671743 2:-0.0082119094 3:0.15205255 4:0.2727161 5:-0.45568722 6:-0.023666768 7:-0.31578427 8:0.32428804 9:-0.0005714849 10:0.51543725 11:0.1483836 12:-0.13948882 13:-0.27037779 
28.178770949728 1:0.016677552 2:0.32007849 3:0.21665622 4:0.070863697 5:-0.41779891 6:0.1192693 7:0.083996408 8:0.35001576 9:0.018059954 10:0.28888586 11:0.25282718 12:-0.21374573 13:-0.18377548 
28.178770949728 1:0.033315139 2:0.22768459 3:0.33433004 4:0.244586 5:-0.49722939 6:-0.029742138 7:0.027594662 8:0.56594026 9:0.11298234 10:0.34845503 11:0.12085746 12:-0.079478427 13:0.02347299 
28.178770949728 1:0.0045654322 2:0.70852911 3:0.45859575 4:-0.14022265 5:-0.46437012 6:0.059573147 7:0.0059265292 8:0.17910049 9:0.20143935 10:0.25921635 11:0.27269273 12:-0.13347848 13:0.10462089 
28.178770949728 1:-0.31113603 2:-0.097820659 3:0.2434617 4:0.41931058 5:-0.55291348 6:-0.039746435 7:-0.23326205 8:0.59848833 9:0.047048777 10:0.46983343 11:0.018867103 12:0.031756883 13:-0.07514854 
28.178770949728 1:-0.13406827 2:0.65582358 3:0.44254114 4:-0.11014538 5:-0.43766299 6:0.11564011 7:-0.036422174 8:0.20864364 9:0.26426264 10:0.3205165 11:0.25393978 12:-0.17269418 13:0.15376917 
28.178770949728 1:-0.0050236649 2:0.45552571 3:0.38729036 4:0.19066305 5:-0.42297445 6:0.029581985 7:0.043902075 8:0.42772722 9:0.11074135 10:0.23842325 11:0.10803804 12:-0.15851719 13:0.096950753 
28.178770949728 1:-0.11903512 2:0.33805699 3:0.35409867 4:0.26052351 5:-0.45063595 6:-0.00024756491 7:-0.028069151 8:0.46556796 9:0.077011166 10:0.32745528 11:0.1371802 12:-0.044201015 13:0.12684287 
28.178770949728 1:-0.00025058522 2:0.47805131 3:0.44272621 4:0.18853501 5:-0.47053479 6:-0.089448298 7:-0.030130544 8:0.38388057 9:0.1369346 10:0.33814634 11:0.14103844 12:-0.13775344 13:-0.034641049 
28.178770949728 1:-0.0079128504 2:0.4394472 3:0.41178346 4:0.085596462 5:-0.5302123 6:-0.12759496 7:0.0038234454 8:0.4008772 9:-0.0012467091 10:0.026937646 11:-0.066221292 12:-0.18329938 13:0.26767208 
28.178770949728 1:-0.35059527 2:0.21855733 3:0.36645565 4:0.28055953 5:-0.54551303 6:-0.067014876 7:-0.13433634 8:0.51346259 9:0.14696822 10:0.46041943 11:0.15431981 12:-0.074665527 13:-0.091894524 
28.178770949728 1:-0.11634641 2:0.19205729 3:0.28016955 4:0.20800251 5:-0.52954611 6:-0.11562807 7:-0.10656822 8:0.49280877 9:0.0085055847 10:0.18794133 11:-0.081718974 12:-0.071673826 13:0.20368393 
28.178770949728 1:-0.00061692748 2:0.34554161 3:0.38777077 4:0.21662676 5:-0.51344687 6:-0.12138131 7:-0.10982526 8:0.42136476 9:0.054620124 10:0.30657682 11:0.12492169 12:-0.14314375 13:0.0014220601 
28.178770949728 1:-0.016375892 2:0.35053363 3:0.40058425 4:0.24981679 5:-0.49627634 6:-0.068381414 7:-0.0042754108 8:0.48807637 9:0.062717882 10:0.21584074 11:-0.010160365 12:-0.22381374 13:-0.059595548 
28.178770949728 1:-0.35136042 2:-0.063217032 3:0.30101742 4:0.42699756 5:-0.60254697 6:-0.046221993 7:-0.30988715 8:0.51756738 9:-0.013661408 10:0.48309458 11:0.054401795 12:0.01944992 13:-0.086587027 
28.178770949728 1:-0.070818042 2:0.33361955 3:0.39576339 4:0.31241736 5:-0.40745293 6:0.030787914 7:-0.047913794 8:0.51528571 9:0.050210384 10:0.2096023 11:-0.087737981 12:-0.21991861 13:-0.058328426 
15.12843899887004 1:-0.38525122 2:0.33586455 3:0.33460162 4:0.30701715 5:-0.34639897 6:-0.060956302 7:-0.041008402 8:0.52069288 9:0.096624588 10:0.25928287 11:-0.096726814 12:-0.21696017 13:-0.11164966 
28.178770949728 1:-0.10231895 2:0.64844381 3:0.569709 4:0.08483858 5:-0.37700076 6:0.16803048 7:0.015427232 8:0.29967145 9:0.12363429 10:0.082943212 11:-0.088655766 12:-0.1361394 13:0.058817919 
28.178770949728 1:-0.096264931 2:0.45483871 3:0.45180336 4:0.28902558 5:-0.47910512 6:-0.12637185 7:-0.17595897 8:0.36837438 9:0.058484981 10:0.26348323 11:0.14700508 12:0.050891558 13:0.27301781 
28.178770949728 1:-0.62627562 2:-0.097067487 3:0.062398622 4:0.15451908 5:-0.43193702 6:0.17924084 7:-0.17701755 8:0.23483945 9:-0.10729013 10:0.41014171 11:0.32383838 12:0.14448773 13:0.14332642 
28.178770949728 1:-0.37879135 2:0.14688454 3:0.056172588 4:-0.06702462 5:-0.33175867 6:0.060127875 7:-0.29030426 8:-0.0094828021 9:-0.1308314 10:0.29140232 11:0.29373586 12:-0.087194098 13:-0.050917073 
28.178770949728 1:-0.40390689 2:0.17928464 3:0.16159065 4:-0.16065194 5:-0.42738685 6:0.12414062 7:-0.36413597 8:0.11343226 9:0.084273938 10:0.5236872 11:0.35009646 12:0.22916643 13:0.57086272 
28.178770949728 1:-0.1871198 2:0.45687935 3:0.48398268 4:0.29765318 5:-0.22338521 6:0.020357688 7:-0.32812597 8:0.42214946 9:0.11765782 10:0.32568199 11:0.24632152 12:0.2438704 13:-0.052087403 
28.178770949728 1:-0.73936853 2:-0.051293773 3:0.074188005 4:0.088655985 5:-0.54771092 6:0.028535066 7:-0.29312445 8:0.33575117 9:0.024411628 10:0.51505366 11:0.48686367 12:0.16471816 13:0.1900767 
28.178770949728 1:-0.17900868 2:0.40626501 3:0.50437815 4:0.44910674 5:-0.21986705 6:-0.038610704 7:-0.31736439 8:0.46134112 9:0.057762662 10:0.34929699 11:0.23213953 12:0.25541782 13:-0.079695702 
28.178770949728 1:0.21916479 2:0.2785295 3:0.61781697 4:0.8294136 5:-0.11439938 6:0.29037364 7:-0.15142732 8:0.51104511 9:0.030950832 10:0.48824498 11:-0.050764309 12:0.091726953 13:-0.19649265 
18.93930153764181 1:0.074436923 2:0.31111749 3:0.63771258 4:0.74495269 5:-0.091856445 6:0.49383227 7:-0.077234399 8:0.39674662 9:0.069138691 10:0.64009264 11:0.2298647 12:0.46696401 13:0.010259995 
28.178770949728 1:-0.11440669 2:-0.080303432 3:0.50495258 4:0.91228297 5:-0.18561483 6:0.33363379 7:-0.24485805 8:0.57756406 9:-0.062850321 10:0.51832277 11:-0.029410994 12:0.13381108 13:-0.032759875 
28.178770949728 1:-0.070155237 2:0.40664814 3:0.6881345 4:0.61994879 5:-0.20396165 6:0.47617101 7:-0.028681449 8:0.41055945 9:0.068819951 10:0.59608651 11:0.33547185 12:0.55621945 13:0.070062514 
28.178770949728 1:-0.004312135 2:0.54702303 3:0.82050492 4:0.6800681 5:-0.14996903 6:0.36264425 7:-0.38306073 8:0.084535033 9:0.046711748 10:0.56399473 11:-0.065579626 12:0.28869525 13:-0.19796643 
28.178770949728 1:0.003541263 2:0.63573928 3:0.9053072 4:0.52474006 5:-0.227909 6:0.41926015 7:-0.34511859 8:-0.024293311 9:0.065250656 10:0.41206026 11:-0.27705369 12:0.35119391 13:-0.14704998 
28.178770949728 1:-0.29497144 2:-0.23942692 3:0.4714809 4:0.97471871 5:-0.20083094 6:0.27907573 7:-0.42364325 8:0.42104027 9:-0.19786921 10:0.48866954 11:-0.013074213 12:0.16401617 13:-0.12735871 
28.178770949728 1:-0.065481049 2:0.31794346 3:0.65111419 4:0.80864048 5:-0.15637046 6:0.12676743 7:-0.31008138 8:0.36535817 9:-0.080025585 10:0.47247734 11:0.030499768 12:0.14349412 13:-0.049427929 
28.178770949728 1:-0.042381233 2:0.2923568 3:0.58867337 4:0.65083382 5:-0.17866955 6:0.41274415 7:-0.10230831 8:0.53358052 9:0.18737626 10:0.68256742 11:0.25476005 12:0.37506363 13:0.12553958 
28.178770949728 1:-0.25673137 2:0.27993913 3:0.46979589 4:0.55827434 5:-0.22065069 6:0.21768631 7:-0.23324315 8:0.36988129 9:0.041074708 10:0.50574389 11:0.19899053 12:0.16813543 13:0.0864503 
22.79747388209457 1:-0.42420325 2:-0.3990919 3:0.2854965 4:0.82052542 5:-0.25387756 6:0.34280227 7:-0.20058501 8:0.74687812 9:0.19365727 10:1 11:0.51772888 12:0.51100875 13:0.28699381 
28.178770949728 1:-0.31237396 2:0.29553542 3:0.47958731 4:0.60573735 5:-0.20478703 6:0.18394781 7:-0.24601775 8:0.37401588 9:0.04610294 10:0.48883323 11:0.10554886 12:0.14203824 13:0.1388975 
28.178770949728 1:-0.22522746 2:0.32778394 3:0.52419867 4:0.47434935 5:-0.24197421 6:0.27945033 7:-0.1756709 8:0.40600273 9:0.14413752 10:0.61433247 11:0.19614032 12:0.22800984 13:0.2186295 
28.178770949728 1:-0.32081371 2:0.36815837 3:0.46032348 4:0.35426293 5:-0.22605638 6:0.13468036 7:-0.33904456 8:0.16179959 9:-0.041462377 10:0.42787544 11:0.047875793 12:0.046938151 13:0.15192713 
11.0648115776433 1:-0.63716549 2:0.18311976 3:0.15031319 4:-0.20096268 5:-0.41518275 6:0.24240012 7:-0.17552881 8:0.28422618 9:-0.053586226 10:0.069641833 11:-0.03969175 12:-0.25377891 13:0.017608194 
28.178770949728 1:0.024740619 2:-0.21831996 3:0.038818071 4:0.34615638 5:-0.42839239 6:-0.095357435 7:-0.40788099 8:0.354119 9:-0.076752383 10:0.36910362 11:-0.14558965 12:-0.11341213 13:-0.13009067 
28.178770949728 1:-0.27388724 2:-0.2533103 3:0.090761792 4:0.46148978 5:-0.35023961 6:0.016754817 7:-0.41582823 8:0.34944561 9:-0.082791071 10:0.44916088 11:-0.028197105 12:-0.013102926 13:-0.099828114 
8.669724112286064 1:0.20376829 2:0.25270453 3:0.13029384 4:-0.14556197 5:-0.52803206 6:-0.033825316 7:0.20521575 8:0.30385593 9:-0.18870856 10:-0.27550208 11:-0.19014216 12:-0.37099037 13:-0.03954969 
28.178770949728 1:0.56782755 2:0.085499394 3:0.11649262 4:-0.02713501 5:-0.52875493 6:0.081093612 7:0.22563738 8:0.4244274 9:-0.19951025 10:-0.25074387 11:-0.2935381 12:-0.37996137 13:-0.13129875 
28.178770949728 1:0.5173013 2:0.026751804 3:0.082264991 4:0.14604117 5:-0.34606768 6:0.29817404 7:0.25088876 8:0.51925406 9:-0.1147784 10:-0.075499646 11:-0.29232342 12:-0.38530494 13:-0.19736218 
28.178770949728 1:0.2724739 2:0.013734195 3:0.10732213 4:0.04690757 5:-0.51576956 6:0.11540589 7:0.18509473 8:0.48607908 9:-0.1636469 10:-0.17205714 11:-0.3263609 12:-0.35142269 13:-0.12145287 
23.18684631826168 1:0.51580534 2:0.12281178 3:0.12728614 4:0.051855344 5:-0.31504588 6:0.33936523 7:0.33341192 8:0.38265558 9:-0.23441452 10:-0.24627428 11:-0.24089651 12:-0.37622587 13:-0.11345239 
26.29504226094879 1:0.48374056 2:0.52780002 3:0.14755326 4:-0.21055642 5:-0.24269942 6:0.14739247 7:0.34219906 8:0.094388392 9:-0.12323057 10:-0.16947577 11:-0.1403583 12:-0.51471584 13:-0.1518297 
28.178770949728 1:0.48959258 2:0.40380013 3:0.16251812 4:-0.11322601 5:-0.22213437 6:0.35987617 7:0.38725625 8:0.20992286 9:-0.14981455 10:-0.1807656 11:-0.0058444293 12:-0.45473907 13:-0.077224224 
28.178770949728 1:0.15194673 2:0.23280747 3:0.13310366 4:0.023371835 5:-0.25490443 6:0.34136369 7:0.29102473 8:0.31549428 9:-0.12019522 10:-0.0057700937 11:-0.040422808 12:-0.39338921 13:-0.17215806 
7.978895858402639 1:0.44016832 2:0.7156548 3:0.12002831 4:-0.30291321 5:-0.062723504 6:0.05066523 7:0.42451341 8:-0.12811555 9:-0.16559191 10:-0.1458303 11:0.16502891 12:-0.34050552 13:-0.16859099 
28.178770949728 1:0.11402766 2:0.52377056 3:0.086167745 4:-0.1447889 5:-0.078813128 6:0.064441111 7:0.26146794 8:0.015552317 9:-0.12665976 10:-0.00085073606 11:0.18428662 12:-0.27680924 13:-0.10732332 
28.178770949728 1:0.47873371 2:-0.081200276 3:-0.032886685 4:0.033824746 5:-0.38731355 6:0.18290456 7:-0.0038055553 8:0.16486814 9:-0.35564308 10:-0.13593697 11:-0.23524312 12:-0.40180923 13:-0.34839804 
3.089528214835836 1:0.21368571 2:-0.17389698 3:-0.084190088 4:0.053035843 5:-0.4160333 6:0.14067579 7:-0.079380499 8:0.1880438 9:-0.34735874 10:-0.10050109 11:-0.28138882 12:-0.37206379 13:-0.35907865 
1.051531406310122 1:0.18274273 2:-0.18341161 3:0.032109093 4:0.12196693 5:-0.49046222 6:0.26881458 7:0.10649807 8:0.43262089 9:-0.28009373 10:-0.16824148 11:-0.41971385 12:-0.36873995 13:-0.18406679 
19.10126982760682 1:0.38386945 2:-0.088141847 3:-0.092075258 4:-0.1504171 5:-0.53328945 6:0.065043457 7:0.14878805 8:0.36518304 9:-0.16283354 10:-0.16443454 11:-0.30344376 12:-0.44950988 13:-0.17372225 
28.178770949728 1:0.032029687 2:-0.20580878 3:-0.039475945 4:0.022620768 5:-0.46359068 6:0.31999215 7:0.28391537 8:0.59013781 9:-0.049805088 10:0.018550555 11:-0.21503003 12:-0.30806631 13:-0.053152097 
20.54513013570804 1:0.15229251 2:0.0044461816 3:-0.063483379 4:-0.0689035 5:-0.46467668 6:0.083178644 7:0.093596847 8:0.32091522 9:-0.16152009 10:-0.081919393 11:-0.14177741 12:-0.31552175 13:-0.065397888 
28.178770949728 1:-0.47293754 2:-0.33228183 3:-0.2815399 4:-0.15137489 5:-0.53901135 6:0.052351307 7:-0.22191807 8:0.21843302 9:-0.011261778 10:0.49290826 11:0.34821071 12:-0.07884462 13:-0.10996208 
28.178770949728 1:-0.40097944 2:0.26269309 3:0.12985152 4:-0.13254181 5:-0.052165314 6:0.39361775 7:-0.15837528 8:0.17924463 9:0.13401016 10:0.30072685 11:-0.10457548 12:-0.17743868 13:0.31164352 
28.178770949728 1:-0.10372357 2:0.44954643 3:0.40953919 4:0.24364891 5:-0.22378422 6:0.17564096 7:-0.12626893 8:0.27913965 9:-0.011487641 10:-0.017033585 11:-0.33917005 12:-0.32431968 13:0.049269911 
28.178770949728 1:0.035405535 2:0.6408151 3:0.47913623 4:0.064219284 5:-0.36806232 6:0.035142443 7:0.068890392 8:0.36734501 9:0.18348908 10:0.073241728 11:-0.17114288 12:-0.34976494 13:0.13159261 
28.178770949728 1:-0.38366036 2:0.53249012 3:0.41283067 4:0.29319881 5:-0.11275579 6:0.086316298 7:0.051793141 8:0.22102704 9:-0.056038068 10:-0.06729106 11:-0.46646632 12:-0.23688826 13:-0.039759129 
28.178770949728 1:-0.015036601 2:0.66241685 3:0.53513325 4:0.045071701 5:-0.42919583 6:0.026264101 7:0.13337146 8:0.36245179 9:0.15260937 10:0.043760627 11:-0.19365028 12:-0.37751109 13:0.071254759 
28.178770949728 1:0.1122183 2:0.46072956 3:0.47129814 4:0.17972933 5:-0.44834339 6:0.019842321 7:0.21446675 8:0.54949133 9:0.080569118 10:-0.026604861 11:-0.14606193 12:-0.26627816 13:0.085484525 
28.178770949728 1:0.15686575 2:0.31337858 3:0.37661502 4:0.20876763 5:-0.49420216 6:-0.028043048 7:0.056522165 8:0.51029015 9:-0.012287409 10:0.01925806 11:-0.18572798 12:-0.24789871 13:0.059970809 
28.178770949728 1:-0.17982977 2:0.0029655964 3:0.40923818 4:0.47781062 5:-0.57235058 6:0.044232201 7:-0.075301833 8:0.65436385 9:-0.098914362 10:0.092329907 11:-0.33155421 12:-0.12692277 13:-0.075119081 
28.178770949728 1:0.094403954 2:0.49891657 3:0.39832134 4:0.060994032 5:-0.46598769 6:-0.1173652 7:0.060131897 8:0.3948034 9:0.016440052 10:-0.057716535 11:-0.16244951 12:-0.30022945 13:0.16227849 
28.178770949728 1:0.3046754 2:0.2763941 3:0.17163122 4:0.0036123549 5:-0.35778412 6:0.14088346 7:0.10761689 8:0.1935078 9:-0.19827733 10:-0.045414707 11:0.066014983 12:-0.29062218 13:-0.21550417 
28.178770949728 1:-0.016308469 2:0.025176552 3:0.16110956 4:0.18866526 5:-0.43435273 6:0.18538116 7:-0.072364436 8:0.26772352 9:-0.23916465 10:0.090559441 11:-0.031849729 12:-0.22643929 13:-0.30248585 
28.178770949728 1:0.39280631 2:0.63226426 3:0.20708902 4:-0.17704729 5:-0.22644701 6:0.00020579147 7:0.39081701 8:0.24152893 9:0.027659509 10:-0.036519583 11:-0.030432378 12:-0.50938604 13:-0.35497368 
28.178770949728 1:0.069240111 2:0.18423681 3:0.21209858 4:0.14452181 5:-0.40086113 6:0.15191572 7:0.11281688 8:0.49693259 9:0.029723242 10:0.17953513 11:-0.11524006 12:-0.42090934 13:-0.36710261 
16.44430040685187 1:0.48993688 2:0.8691003 3:0.33197339 4:-0.40572854 5:-0.38640531 6:0.060989941 7:0.60026692 8:0.013779041 9:0.041041725 10:-0.037371071 11:0.032832223 12:-0.43241107 13:-0.35242207 
8.757409409224515 1:0.60527271 2:0.13343619 3:0.031935591 4:-0.19223891 5:-0.56034946 6:0.015463749 7:0.11953325 8:0.20647136 9:-0.22064048 10:-0.10824359 11:-0.02888126 12:-0.41091736 13:-0.29335196 
28.178770949728 1:0.57346941 2:0.12737071 3:0.079219909 4:-0.035230592 5:-0.4264902 6:0.19322789 7:0.22699274 8:0.39882016 9:-0.08998243 10:0.0050682379 11:-0.10988026 12:-0.46287901 13:-0.39594869 
11.9031584322005 1:0.56903679 2:0.34415579 3:0.078653877 4:-0.33721058 5:-0.60859895 6:-0.15068355 7:0.087838629 8:0.065636066 9:-0.25055085 10:-0.22827391 11:0.046713959 12:-0.4381659 13:-0.24900119 
28.178770949728 1:0.40529984 2:0.072902193 3:0.11200851 4:0.15062429 5:-0.43038864 6:0.12851163 7:0.061292907 8:0.43678439 9:-0.10315318 10:0.056861654 11:-0.17140315 12:-0.33856966 13:-0.31303378 
28.178770949728 1:0.31469517 2:0.26855398 3:0.19329225 4:0.12033014 5:-0.40434515 6:0.078140237 7:0.06433398 8:0.39149062 9:-0.040766591 10:0.097810363 11:-0.064259131 12:-0.36106237 13:-0.23776117 
28.178770949728 1:-0.11590132 2:-0.23847795 3:0.096115088 4:0.31401403 5:-0.51156818 6:0.16740537 7:-0.14990747 8:0.46169613 9:-0.17455359 10:0.21398536 11:-0.21922116 12:-0.21496843 13:-0.33130803 
28.178770949728 1:0.031474997 2:0.027859409 3:0.11465337 4:0.11309323 5:-0.52185773 6:0.033762875 7:0.11422577 8:0.62963436 9:0.08125272 10:0.24698615 11:0.021523337 12:-0.13038549 13:-0.080266667 
28.178770949728 1:0.12974744 2:-0.0037922187 3:0.031949471 4:-0.006356335 5:-0.6310387 6:-0.19541987 7:-0.13235431 8:0.36647879 9:-0.13776023 10:-0.050072486 11:-0.35089732 12:-0.38038405 13:-0.24009308 
28.178770949728 1:0.13925182 2:0.1869961 3:0.19029409 4:0.042979994 5:-0.54440776 6:-0.039951431 7:0.18612442 8:0.60133837 9:0.11485538 10:0.064072108 11:-0.083053985 12:-0.23282862 13:0.10213594 
21.18168544437197 1:-0.47492229 2:0.38379757 3:0.36530145 4:0.31703776 5:-0.37774817 6:-0.27930802 7:-0.1458782 8:0.43228117 9:-0.0022429611 10:0.40218086 11:0.12086285 12:0.15104784 13:0.36345759 
28.178770949728 1:-0.20319256 2:0.49280817 3:0.44356615 4:0.14411595 5:-0.49865142 6:-0.076414447 7:-0.10923497 8:0.29216421 9:0.017863582 10:0.4094856 11:0.39047315 12:0.077889958 13:0.32120338 
28.178770949728 1:-0.073807854 2:0.352824 3:0.42834719 4:0.30911647 5:-0.46612099 6:-0.077481399 7:-0.20591323 8:0.39015774 9:0.035152861 10:0.44107647 11:0.32864242 12:0.24076111 13:0.35475047 
28.178770949728 1:0.031175589 2:0.28677116 3:0.32802159 4:0.23665332 5:-0.51571103 6:-0.095084519 7:-0.14965179 8:0.36572597 9:-0.081228524 10:0.30092602 11:0.2975033 12:0.20409454 13:0.28464488 
28.178770949728 1:-0.35851825 2:0.1716948 3:0.40113598 4:0.4147319 5:-0.51777234 6:-0.056659373 7:-0.29306592 8:0.41984088 9:-0.049692241 10:0.44238449 11:0.24613675 12:0.27542651 13:0.30966996 
28.178770949728 1:0.0013110831 2:0.14226356 3:0.20342514 4:0.19587161 5:-0.56661253 6:-0.12264057 7:-0.18055089 8:0.40630328 9:-0.083576857 10:0.33549752 11:0.27034366 12:0.2443387 13:0.31263047 
28.178770949728 1:0.33950535 2:0.068836369 3:-0.016791769 4:0.030694562 5:-0.46848019 6:-0.055177579 7:-0.21037009 8:0.1514042 9:-0.17045958 10:0.082716466 11:0.0056163827 12:-0.25675616 13:-0.10100493 
28.178770949728 1:-0.00082093892 2:0.35182881 3:0.042595052 4:-0.045981686 5:-0.32866714 6:-0.32117972 7:-0.085056687 8:0.10694634 9:-0.055715223 10:0.27315245 11:0.19587073 12:0.0037307335 13:0.062651362 
28.178770949728 1:0.42396216 2:-0.064863102 3:-0.034243991 4:0.062617399 5:-0.33692129 6:0.20071832 7:0.017983973 8:0.31006402 9:-0.091760804 10:0.19662776 11:0.0021696646 12:-0.27412449 13:-0.27217666 
22.70115876422258 1:0.4437977 2:0.31469404 3:0.093723348 4:-0.19573962 5:-0.36057186 6:0.21240385 7:0.26718794 8:0.20363664 9:-0.096827395 10:0.036266725 11:0.13750793 12:-0.44829373 13:-0.16711649 
28.178770949728 1:0.13708602 2:-0.24060393 3:-0.082523241 4:0.14331366 5:-0.3825408 6:0.20989651 7:-0.054021326 8:0.40636517 9:-0.056279243 10:0.34720982 11:0.059597071 12:-0.12953835 13:-0.21732598 
28.178770949728 1:0.35230768 2:0.037887518 3:0.014947112 4:0.04852831 5:-0.39698063 6:0.18972212 7:0.12488834 8:0.44182911 9:-0.016435846 10:0.26330592 11:0.12360758 12:-0.18091066 13:-0.17428238 
28.178770949728 1:0.47441968 2:-0.04905421 3:-0.019286147 4:0.027170416 5:-0.40788981 6:0.21048936 7:0.16387287 8:0.455595 9:-0.054851213 10:0.16111335 11:-0.034049348 12:-0.27664981 13:-0.23741984 
28.178770949728 1:0.19242246 2:-0.15913611 3:-0.084797199 4:0.052976902 5:-0.38699841 6:0.25071311 7:0.16948378 8:0.54067449 9:0.053691378 10:0.39752429 11:0.18555743 12:-0.12461706 13:-0.24467502 
28.178770949728 1:0.55040493 2:0.18383987 3:0.0099372706 4:-0.20750937 5:-0.44420184 6:0.11783451 7:0.21228424 8:0.21445423 9:-0.16158997 10:-0.070336166 11:0.07598449 12:-0.2506174 13:0.083730601 
28.178770949728 1:0.58762684 2:0.57931982 3:0.045410702 4:-0.6404247 5:-0.42118567 6:0.30472479 7:0.31865155 8:-0.22568735 9:-0.073238317 10:-0.094974407 11:0.18963669 12:-0.51516573 13:0.47496417 
28.178770949728 1:0.60135731 2:-0.10672797 3:-0.11662195 4:-0.05487267 5:-0.34412011 6:0.32259719 7:0.25929003 8:0.45050303 9:-0.026130936 10:0.14762006 11:0.018873746 12:-0.21492284 13:-0.018388132 
28.178770949728 1:0.58496187 2:-0.014780642 3:-0.16821117 4:-0.15389081 5:-0.45685462 6:0.015823633 7:-0.044202254 8:0.19495294 9:-0.15476496 10:0.012741457 11:0.0096415158 12:-0.16925187 13:0.084300485 
28.178770949728 1:0.50499724 2:0.084932243 3:-0.19374534 4:-0.28386354 5:-0.34267709 6:0.18954259 7:0.15383869 8:0.15611082 9:-0.085627797 10:-0.12141841 11:-0.00071810156 12:-0.29697294 13:0.13577049 
28.178770949728 1:0.58762109 2:0.37924443 3:-0.031106786 4:-0.31761628 5:-0.21051186 6:0.15665331 7:0.38380564 8:0.14356888 9:-0.069921698 10:-0.05008827 11:0.3044018 12:-0.19296312 13:0.27129996 
28.178770949728 1:0.57606695 2:0.69779721 3:-0.074535293 4:-0.73315775 5:0.020094099 6:0.18069118 7:0.35988972 8:-0.18170031 9:0.15159117 10:-0.49874819 11:-0.26171012 12:-0.2877695 13:0.26197896 
28.178770949728 1:0.5443 2:0.27435758 3:-0.10383076 4:-0.31989094 5:-0.19140826 6:0.31234095 7:0.36600091 8:0.073190607 9:-0.17300968 10:-0.35745881 11:-0.085383856 12:-0.41600446 13:0.2778688 
28.178770949728 1:0.48033908 2:0.46261825 3:-0.075718093 4:-0.62866631 5:-0.13747735 6:0.28863124 7:0.18991598 8:-0.13474093 9:-0.060943563 10:-0.46259837 11:-0.21395356 12:-0.42012863 13:0.32244922 
15.14758478727954 1:0.5218217 2:-0.15816437 3:-0.20028376 4:-0.19239164 5:-0.52564662 6:0.053507491 7:-0.013168097 8:0.064938968 9:-0.46457974 10:-0.43855123 11:-0.39111371 12:-0.42545938 13:-0.12466114 
24.07507220747976 1:0.50070582 2:0.20016316 3:-0.052308186 4:-0.25800614 5:-0.37921818 6:0.17309224 7:0.18071988 8:0.049498015 9:-0.25525851 10:-0.20822225 11:0.12265292 12:-0.19749877 13:0.35196371 
28.178770949728 1:0.11408302 2:0.071046545 3:0.010902284 4:-0.15778755 5:-0.43044259 6:0.32097944 7:0.13619954 8:0.10672657 9:-0.2805349 10:-0.19074747 11:-0.1487859 12:-0.35887445 13:0.21654878 
17.12549018865631 1:-0.15455156 2:-0.076040192 3:0.19214183 4:0.23533324 5:-0.50160333 6:0.24015145 7:-0.025416111 8:0.31356264 9:-0.30444549 10:0.1066881 11:0.061376678 12:-0.067678676 13:-0.17848169 
24.77070010704226 1:0.11506568 2:0.42599126 3:0.091195047 4:-0.37674434 5:-0.63295915 6:-0.32804118 7:-0.14701214 8:-0.04505589 9:-0.25621671 10:-0.23020688 11:0.01684633 12:-0.31262299 13:0.042987261 
28.178770949728 1:0.024323604 2:0.51430779 3:0.36795494 4:0.05347281 5:-0.44173789 6:-0.059098587 7:0.082892818 8:0.37096943 9:0.071336426 10:0.090019336 11:0.0099222281 12:-0.23660145 13:0.011242527 
28.178770949728 1:-0.059908046 2:0.57985473 3:0.36481599 4:-0.012314449 5:-0.42260984 6:-0.073134733 7:0.14481182 8:0.38265498 9:0.17646087 10:0.11213219 11:0.068309116 12:-0.17547864 13:0.047634997 
28.178770949728 1:0.0045163 2:0.34651344 3:0.40390378 4:0.25798599 5:-0.43749972 6:-0.0038539584 7:0.011728105 8:0.53558048 9:0.083275968 10:0.25536627 11:-0.059224047 12:-0.18101493 13:0.030323451 
28.178770949728 1:-0.36554942 2:0.14390276 3:0.44295016 4:0.44209698 5:-0.54605619 6:0.0077583586 7:-0.14831944 8:0.60461774 9:0.035719538 10:0.34507441 11:-0.093911735 12:-0.052863077 13:0.048448407 
28.178770949728 1:-0.052875303 2:0.69866897 3:0.60252318 4:-0.064675908 5:-0.40659971 6:0.20632587 7:-0.021018169 8:0.29762566 9:0.24869407 10:0.14248172 11:-0.19174411 12:-0.15638429 13:0.086509493 
11.06747177464032 1:-0.37181897 2:0.12057294 3:0.38874942 4:0.3617597 5:-0.59457433 6:-0.023509665 7:-0.12967606 8:0.58972253 9:0.047658321 10:0.38022008 11:0.064581682 12:-0.031558785 13:-0.017510646 
28.178770949728 1:0.021394618 2:0.76003438 3:0.58241445 4:-0.1082427 5:-0.40345137 6:0.099114002 7:0.10591078 8:0.31759685 9:0.2319464 10:-0.0073480716 11:-0.077213131 12:-0.17889868 13:0.082088281 
28.178770949728 1:0.031339979 2:0.34570788 3:0.33033304 4:0.12043736 5:-0.47732914 6:-0.041930967 7:0.060529125 8:0.44357802 9:0.056501541 10:0.090247537 11:-0.09770724 12:-0.24623866 13:0.20837917 
28.178770949728 1:-0.33170277 2:0.053235529 3:0.38621838 4:0.39900903 5:-0.58705277 6:0.047050328 7:-0.10402549 8:0.6115825 9:0.023625843 10:0.34088617 11:-0.12119004 12:-0.18459148 13:-0.14973399 
28.178770949728 1:-0.011458763 2:0.56980823 3:0.4430248 4:-0.0098007547 5:-0.43671656 6:0.019333073 7:0.18974589 8:0.38196881 9:0.14415176 10:0.073526281 11:-0.021972481 12:-0.2842243 13:0.33676988 
28.178770949728 1:-0.038207035 2:0.42211766 3:0.49598071 4:0.24156436 5:-0.48158969 6:-0.044317483 7:-0.0084631937 8:0.50228806 9:0.14464005 10:0.30274714 11:0.051344519 12:-0.16442571 13:0.010195096 
28.178770949728 1:-0.27837298 2:0.034751476 3:0.40300721 4:0.48396861 5:-0.53369474 6:0.084255609 7:-0.097128823 8:0.67231391 9:0.060176656 10:0.38274744 11:-0.13618766 12:-0.17547914 13:-0.24037896 
28.178770949728 1:-0.085794653 2:0.55006688 3:0.44660479 4:0.15942498 5:-0.46514628 6:-0.11815341 7:-0.049175381 8:0.39617793 9:0.1715069 10:0.28552776 11:0.042978227 12:-0.3199643 13:0.089435445 
28.178770949728 1:0.018358101 2:0.34744312 3:0.3037254 4:0.11553209 5:-0.47061358 6:-0.062778374 7:0.0073661526 8:0.43636377 9:0.12442857 10:0.23016886 11:-0.093821672 12:-0.27305086 13:-0.0044553427 
28.178770949728 1:0.035963896 2:0.26922905 3:0.41878637 4:0.22694421 5:-0.48273388 6:0.015468428 7:0.16279857 8:0.64419329 9:0.14428688 10:0.11839503 11:-0.21698237 12:-0.29804049 13:0.13050983 
28.178770949728 1:-0.57597713 2:-0.057045347 3:-0.0085442127 4:0.023376394 5:-0.52190771 6:-0.022655001 7:-0.27943382 8:0.34432928 9:0.10942234 10:0.5123763 11:0.31577731 12:0.094263538 13:0.11558996 
28.178770949728 1:-0.35204128 2:0.066366691 3:0.11239289 4:0.24006514 5:-0.38673767 6:0.08150785 7:-0.14629738 8:0.50941536 9:0.11907498 10:0.51942437 11:0.25544847 12:0.06672735 13:0.18421956 
28.178770949728 1:0.12048776 2:0.17240298 3:0.10948187 4:0.0109012 5:-0.43872644 6:0.0617779 7:0.099957571 8:0.40217562 9:0.0043169523 10:0.24659306 11:0.25742291 12:-0.044070944 13:0.003106291 
28.178770949728 1:0.26878837 2:0.19819011 3:0.078346055 4:0.027305207 5:-0.44600687 6:-0.057715463 7:-0.10968697 8:0.17940246 9:-0.14654004 10:0.059372915 11:0.1097353 12:-0.12207336 13:0.045511788 
28.178770949728 1:-0.10985813 2:0.095999648 3:0.084704606 4:0.011887693 5:-0.4769517 6:0.10398995 7:0.087312901 8:0.43926367 9:0.022684488 10:0.3067891 11:0.28563416 12:-0.020289795 13:0.041870849 
28.178770949728 1:0.24218213 2:0.17206276 3:0.039935394 4:0.0037670902 5:-0.45403941 6:-0.10670883 7:-0.14663997 8:0.16468328 9:-0.13266853 10:0.10109129 11:0.15617823 12:-0.057939658 13:0.14069136 
28.178770949728 1:0.38278466 2:-0.09920676 3:-0.037989265 4:0.050145195 5:-0.54001155 6:-0.13652222 7:-0.31738459 8:0.11733303 9:-0.33527902 10:-0.020205496 11:-0.17557648 12:-0.19153285 13:-0.23969137 
28.178770949728 1:0.29261167 2:-0.044426273 3:0.033312456 4:0.20125298 5:-0.39241715 6:0.098967688 7:-0.13188693 8:0.27718775 9:-0.21201848 10:0.12126095 11:0.0047122402 12:-0.083153449 13:-0.085279256 
28.178770949728 1:0.435709 2:0.35443614 3:-0.055102374 4:-0.24981353 5:-0.32827896 6:-0.25987314 7:-0.036297807 8:-0.061668216 9:-0.21531081 10:-0.094467412 11:0.075297707 12:-0.14437221 13:0.16094735 
28.178770949728 1:0.44524509 2:-0.04488978 3:-0.057238512 4:0.027467204 5:-0.45238222 6:0.083030829 7:-0.10275 8:0.19178554 9:-0.23519322 10:0.06706227 11:-0.053430534 12:-0.30130699 13:-0.2540076 
28.178770949728 1:0.13453867 2:0.26784375 3:0.070086186 4:-0.11611251 5:-0.39873329 6:0.039207786 7:-0.24371081 8:0.050881089 9:-0.092337807 10:0.082632784 11:0.23004865 12:-0.13284138 13:0.16765293 
28.178770949728 1:0.46030337 2:0.43185136 3:-0.050638893 4:-0.21774483 5:-0.21109304 6:-0.27802806 7:0.034190151 8:-0.065584477 9:-0.12263938 10:0.10380125 11:0.11555483 12:-0.13889449 13:0.015284749 
28.178770949728 1:0.471409 2:0.28418089 3:-0.0014450443 4:-0.20500612 5:-0.39604498 6:-0.099048286 7:-0.05509436 8:-0.01318287 9:-0.21637341 10:-0.0020740025 11:0.12780393 12:-0.27242879 13:-0.099930209 
28.178770949728 1:0.15885861 2:0.20100149 3:0.052684629 4:-0.040230063 5:-0.35686817 6:0.042583819 7:-0.25731807 8:0.062656602 9:-0.094854102 10:0.19113585 11:0.26043075 12:-0.085220579 13:0.14722679 
28.178770949728 1:0.39254674 2:0.22535692 3:-0.00014855194 4:-0.073895399 5:-0.35006506 6:-0.13269344 7:-0.14521924 8:0.076557236 9:-0.13507521 10:0.15825148 11:0.15776249 12:-0.13417504 13:0.0069065547 
28.178770949728 1:0.49666447 2:0.069659078 3:-0.065249681 4:-0.17157984 5:-0.55093964 6:-0.15300384 7:-0.19428189 8:0.033781086 9:-0.28125987 10:-0.056558062 11:-0.08681509 12:-0.32355275 13:-0.16589678 
28.178770949728 1:0.4765547 2:0.014758615 3:-0.089637288 4:-0.083532122 5:-0.55020163 6:-0.074733758 7:-0.16284801 8:0.14332135 9:-0.22379688 10:0.010034559 11:-0.071055961 12:-0.30990446 13:-0.077637374 
28.178770949728 1:0.16856093 2:-0.061970567 3:0.027669924 4:0.087045278 5:-0.54924829 6:-0.032759668 7:-0.30440277 8:0.21037036 9:-0.16945617 10:0.2381248 11:0.016467157 12:-0.11742704 13:-0.045760338 
25.60686892719314 1:0.38289403 2:-0.11269935 3:-0.10897517 4:0.038173169 5:-0.52075346 6:-0.087181034 7:-0.29632453 8:0.15947303 9:-0.20098774 10:0.16293215 11:0.002017847 12:-0.1583496 13:-0.037373292 
28.178770949728 1:0.48771539 2:-0.10274059 3:-0.084138481 4:0.0029375938 5:-0.50884886 6:-0.091799454 7:-0.2768549 8:0.15541073 9:-0.19351111 10:0.19152164 11:0.0086620662 12:-0.16473153 13:-0.10085512 
28.178770949728 1:0.52002603 2:-0.078095311 3:-0.12959466 4:-0.061214105 5:-0.53927018 6:-0.029476839 7:-0.16983667 8:0.14767807 9:-0.26107888 10:0.0046221085 11:-0.11903421 12:-0.36111164 13:-0.24776897 
28.178770949728 1:0.18117692 2:-0.19462237 3:-0.098625354 4:0.10367073 5:-0.46234575 6:-0.085092196 7:-0.35260232 8:0.18498419 9:-0.15238103 10:0.32157324 11:0.063901081 12:-0.065410782 13:-0.071930029 
28.178770949728 1:0.41907154 2:-0.24259251 3:-0.19840843 4:0.018204061 5:-0.55722264 6:-0.10621648 7:-0.35719285 8:0.1468843 9:-0.24107022 10:0.15412889 11:-0.097466167 12:-0.25432305 13:-0.24848892 
28.178770949728 1:0.53174405 2:-0.021130219 3:-0.019353257 4:0.029734954 5:-0.37412261 6:0.18358725 7:0.074393644 8:0.34655233 9:-0.094149017 10:0.17092651 11:0.0067658354 12:-0.28099866 13:-0.25868024 
28.178770949728 1:0.51689453 2:0.37336582 3:0.053891265 4:-0.191934 5:-0.32568862 6:0.16963644 7:0.29138088 8:0.18952663 9:-0.07575012 10:-0.039641152 11:0.15982072 12:-0.42892071 13:-0.16132479 
28.178770949728 1:0.23153167 2:-0.14422748 3:-0.052402231 4:0.10572344 5:-0.37531244 6:0.21369581 7:0.042027354 8:0.45675992 9:-0.0038076711 10:0.36152601 11:0.1303139 12:-0.11460188 13:-0.19601135 
28.178770949728 1:0.41898131 2:0.26222523 3:0.028294735 4:-0.081775137 5:-0.3150863 6:0.14755483 7:0.19437288 8:0.29367529 9:0.026663713 10:0.20860828 11:0.27496406 12:-0.2701065 13:-0.14225817 
28.178770949728 1:0.51438931 2:0.097967313 3:0.033527448 4:-0.044104062 5:-0.38315758 6:0.20507392 7:0.15100411 8:0.2717765 9:-0.12297723 10:0.13909597 11:0.14043612 12:-0.30199132 13:-0.26032121 
28.178770949728 1:0.22640657 2:-0.019913779 3:-0.043429985 4:0.0013277712 5:-0.35336794 6:0.20843214 7:0.16229424 8:0.40365996 9:-0.0030272392 10:0.33129264 11:0.24960154 12:-0.14528093 13:-0.22106285 
28.178770949728 1:0.54097944 2:-0.06860695 3:-0.043109143 4:0.030334903 5:-0.32857127 6:0.3051075 7:0.19912687 8:0.39194975 9:-0.12905419 10:0.04571941 11:-0.14092634 12:-0.36811345 13:-0.23925715 
28.178770949728 1:0.53506533 2:0.13846237 3:-0.016494453 4:-0.043632479 5:-0.2449147 6:0.27479446 7:0.28890569 8:0.44337457 9:0.095122691 10:0.24894326 11:0.12364347 12:-0.34758048 13:-0.26237359 
28.178770949728 1:0.44377628 2:0.27634927 3:0.0040008629 4:-0.13118863 5:-0.20602999 6:0.26318679 7:0.35718192 8:0.30297186 9:-0.013622464 10:0.021451322 11:0.063327501 12:-0.42455745 13:-0.10677478 
28.178770949728 1:0.52611798 2:-0.14433912 3:-0.12163666 4:-0.021643518 5:-0.4441659 6:0.090223424 7:-0.047693254 8:0.279695 9:-0.17695348 10:0.055832222 11:-0.17664294 12:-0.32579592 13:-0.22270623 
28.178770949728 1:0.51899042 2:-0.0084185425 3:-0.12588457 4:-0.082796649 5:-0.49169486 6:-0.056050692 7:-0.13711725 8:0.19742982 9:-0.16318649 10:0.082616026 11:-0.0051291782 12:-0.20568532 13:-0.0073709761 
28.178770949728 1:0.51841745 2:-0.071195635 3:-0.040795959 4:0.044709546 5:-0.39088761 6:0.16463501 7:0.056105108 8:0.37480373 9:-0.10824868 10:0.12532766 11:-0.075553995 12:-0.22172001 13:-0.10573744 
28.178770949728 1:0.50144434 2:0.26106556 3:0.057188363 4:-0.023911984 5:-0.30437089 6:0.063423471 7:0.087221833 8:0.29159595 9:-0.014699633 10:0.16561548 11:0.17709342 12:-0.16880883 13:0.0096910744 
28.178770949728 1:0.44197689 2:0.11354873 3:-0.0012529331 4:-0.048665794 5:-0.36380889 6:0.20090343 7:0.18027823 8:0.34340267 9:-0.062798346 10:0.11102574 11:0.15292022 12:-0.19654203 13:0.0020634513 
28.178770949728 1:0.51962531 2:-0.17611467 3:-0.08638714 4:0.070358082 5:-0.39171136 6:0.19585081 7:0.053113595 8:0.41580497 9:-0.11132045 10:0.15525861 11:-0.057434054 12:-0.17775632 13:-0.109346 
28.178770949728 1:0.47874835 2:-0.15993168 3:-0.086411786 4:0.043479297 5:-0.4693694 6:0.11704629 7:0.0026719551 8:0.38212835 9:-0.14702305 10:0.096318403 11:-0.15789629 12:-0.33954919 13:-0.34177891 
5.261645086091667 1:0.48538498 2:0.50809301 3:0.16604379 4:-0.36798132 5:-0.46312706 6:0.1950295 7:0.30648475 8:0.016674534 9:-0.12119786 10:0.0013729854 11:0.28920788 12:-0.48021198 13:-0.18190872 
28.178770949728 1:0.47212127 2:0.6960676 3:0.16422027 4:-0.46460882 5:-0.33658916 6:0.17761943 7:0.32241383 8:-0.11598155 9:-0.068695523 10:-0.084855813 11:0.22835346 12:-0.57495734 13:-0.17966463 
28.178770949728 1:0.43052719 2:0.25408918 3:0.063710903 4:-0.081748322 5:-0.41062673 6:0.14142914 7:0.10291596 8:0.16700025 9:-0.14275542 10:0.030595788 11:0.13351377 12:-0.37201574 13:-0.17771706 
28.178770949728 1:0.43734354 2:0.41342752 3:0.094566486 4:-0.28896048 5:-0.38203167 6:0.17330563 7:0.18514914 8:0.0027103089 9:-0.17031464 10:-0.0864589 11:0.1280919 12:-0.58688339 13:-0.30366794 
28.178770949728 1:0.40212926 2:0.055784729 3:0.021976059 4:0.027661703 5:-0.40177979 6:0.15779666 7:0.02531441 8:0.22230462 9:-0.19201384 10:0.034035527 11:-0.047262831 12:-0.39889425 13:-0.35035759 
28.178770949728 1:0.32268169 2:0.40229758 3:0.29519109 4:-0.081315879 5:-0.40807866 6:0.11667838 7:0.097958486 8:0.099255511 9:-0.12861364 10:0.2180882 11:0.47087597 12:-0.23589078 13:-0.23614387 
28.178770949728 1:0.24883594 2:0.43198014 3:0.2062969 4:-0.064694188 5:-0.35014229 6:0.091657184 7:0.074124491 8:0.13421166 9:-0.049651521 10:0.20546755 11:0.38764653 12:-0.25947516 13:-0.12080885 
28.178770949728 1:0.043177708 2:-0.028781576 3:0.096336792 4:0.15339214 5:-0.46964383 6:0.08751169 7:-0.14693089 8:0.27425412 9:-0.16125689 10:0.23277162 11:0.058694878 12:-0.16560423 13:-0.20734892 
28.178770949728 1:0.19992316 2:0.2795062 3:0.22716603 4:0.093579041 5:-0.35246941 6:0.095031538 7:-0.020060174 8:0.16108403 9:-0.12847514 10:0.19624831 11:0.22625734 12:-0.18894242 13:-0.17161666 
28.178770949728 1:0.17096284 2:0.32189753 3:0.20967037 4:0.11525717 5:-0.1978675 6:0.15700747 7:0.057087742 8:0.26552961 9:0.019617871 10:0.28319362 11:0.13584885 12:-0.40283104 13:-0.38048662 
28.178770949728 1:-0.12652979 2:0.43839303 3:0.35330974 4:0.028286046 5:-0.37947461 6:0.25334768 7:0.059483653 8:0.051839829 9:-0.20762343 10:0.10769471 11:0.35651612 12:-0.3068809 13:-0.13066023 
28.178770949728 1:0.095300126 2:0.41599803 3:0.30197741 4:0.016122261 5:-0.29801382 6:0.14936024 7:0.086410891 8:0.17333555 9:-0.1114193 10:0.18497549 11:0.17111882 12:-0.38446529 13:-0.31242393 
28.178770949728 1:0.15760534 2:0.1676319 3:0.17564849 4:0.1366855 5:-0.42646265 6:-0.0028525447 7:-0.1534525 8:0.21095699 9:-0.12293117 10:0.24193572 11:0.078211395 12:-0.33216439 13:-0.44358296 
28.178770949728 1:0.093189673 2:0.51512742 3:0.32310549 4:0.049681456 5:-0.35179126 6:0.050261603 7:-0.09849823 8:0.011966522 9:-0.10061506 10:0.23270614 11:0.35678832 12:-0.34466581 13:-0.38010897 
24.78195373831166 1:0.056891225 2:0.72832401 3:0.43843229 4:-0.029313292 5:-0.32762703 6:0.031097429 7:0.18999958 8:0.16720337 9:0.072691743 10:0.29790518 11:0.34592186 12:-0.27646883 13:-0.34267212 
28.178770949728 1:-0.28762593 2:0.051889675 3:0.38212721 4:0.47034494 5:-0.53806503 6:0.03960588 7:-0.19684915 8:0.51069102 9:-0.072233782 10:0.40906217 11:0.10212728 12:0.027227292 13:-0.22773511 
28.178770949728 1:-0.1600071 2:0.25235721 3:0.38879599 4:0.32339826 5:-0.45039187 6:-0.03223486 7:-0.066596613 8:0.51496402 9:0.046358087 10:0.26713203 11:-0.094552056 12:-0.23530381 13:-0.16703057 
28.178770949728 1:-0.15140541 2:0.36080679 3:0.38666031 4:0.21824338 5:-0.42835327 6:0.03245629 7:-0.076840299 8:0.3813024 9:-0.036287234 10:0.069488713 11:-0.29280467 12:-0.38084453 13:-0.10375639 
28.178770949728 1:-0.47808119 2:0.11802612 3:0.35316575 4:0.38617297 5:-0.49534451 6:0.010905996 7:-0.19591694 8:0.50063215 9:-0.0032176759 10:0.28879501 11:-0.2057624 12:-0.18685605 13:-0.1123889 
28.178770949728 1:-0.25921969 2:0.24512003 3:0.30035162 4:0.22744238 5:-0.45255828 6:-0.0052107473 7:-0.14149602 8:0.38599494 9:-0.055698637 10:0.14617207 11:-0.19399267 12:-0.23704871 13:-0.037933339 
28.178770949728 1:-0.10167984 2:0.60526904 3:0.58247797 4:0.089997223 5:-0.34075829 6:0.29866451 7:-0.013719717 8:0.27839093 9:0.078151051 10:0.034687832 11:-0.22301384 12:-0.25142041 13:0.16516684 
28.178770949728 1:-0.094513684 2:0.46830316 3:0.46584015 4:0.24638457 5:-0.31915872 6:0.16616341 7:0.0043860336 8:0.36509796 9:-0.088675284 10:-0.033343936 11:-0.15058879 12:-0.1751614 13:0.16525276 
7.104101208441167 1:-0.46103941 2:0.29416964 3:0.5369681 4:0.41896601 5:-0.44391585 6:0.19998517 7:0.028967581 8:0.50371276 9:-0.076690264 10:0.18516115 11:-0.072368241 12:-0.13984475 13:-0.044804337 
28.178770949728 1:-0.21288027 2:0.59715125 3:0.55645211 4:0.11396224 5:-0.29273274 6:0.26700797 7:-0.010284175 8:0.33404066 9:0.02383579 10:-0.064936345 11:-0.17364713 12:-0.12592169 13:0.16145675 
28.178770949728 1:-0.12609156 2:0.66800091 3:0.61827311 4:-0.07172237 5:-0.4878972 6:0.13589467 7:-0.21789083 8:0.014874563 9:0.030244558 10:0.31359346 11:0.092830958 12:-0.068032736 13:0.31692987 
10.94955749248189 1:-0.60767465 2:0.061228117 3:0.30032695 4:0.26991377 5:-0.49913566 6:0.26939666 7:-0.024458699 8:0.44205068 9:-0.13027838 10:0.15099432 11:-0.039596672 12:-0.1564112 13:-0.054265493 
28.178770949728 1:-0.075438043 2:0.23324781 3:0.3351674 4:0.3819486 5:-0.31219132 6:0.048086618 7:-0.22787378 8:0.29368572 9:-0.10583757 10:0.18704145 11:-0.23542796 12:-0.25870405 13:-0.09468775 
28.178770949728 1:0.074282866 2:0.30942586 3:0.26393364 4:0.039980827 5:-0.48914143 6:0.050305822 7:0.2035069 8:0.4813659 9:0.023504458 10:-0.047784616 11:-0.15592661 12:-0.34672413 13:0.079847803 
28.178770949728 1:-0.40527982 2:0.36426531 3:0.28956862 4:0.34726851 5:-0.18912721 6:-0.10799555 7:-0.130868 8:0.20603168 9:-0.097269607 10:0.23705516 11:-0.17119148 12:-0.19138266 13:-0.13760393 
28.178770949728 1:-0.06942943 2:0.27100902 3:0.23476174 4:0.060896787 5:-0.46072981 6:0.071960651 7:0.1799409 8:0.49687786 9:0.011011925 10:-0.02760439 11:-0.18200411 12:-0.37460736 13:0.036125597 
9.25747516953083 1:0.31460839 2:0.22381711 3:-0.19815999 4:-0.573536 5:-0.48805587 6:0.16100382 7:0.18411651 8:-0.14366876 9:-0.2222423 10:-0.15741118 11:-0.028951449 12:-0.77709989 13:-0.11073925 
28.178770949728 1:0.44539851 2:-0.05047964 3:-0.095047475 4:-0.04040086 5:-0.42341829 6:0.050470064 7:-0.058335599 8:0.28818894 9:-0.09641509 10:0.13917717 11:-0.050532764 12:-0.21244015 13:0.0024324735 
28.178770949728 1:0.11979153 2:-0.12593269 3:-0.078230225 4:0.098560265 5:-0.38583333 6:0.036184363 7:-0.16617878 8:0.32829758 9:-0.054992941 10:0.2894977 11:0.011343243 12:-0.075303055 13:0.063843601 
28.178770949728 1:0.43029819 2:-0.031963961 3:-0.052040655 4:-0.047486589 5:-0.43015427 6:0.13835727 7:0.027034574 8:0.24047044 9:-0.22926118 10:-0.093597845 11:-0.24427231 12:-0.3751594 13:-0.1009722 
28.178770949728 1:0.094843287 2:0.31308743 3:-0.054675434 4:-0.2309296 5:-0.30300811 6:-0.11640947 7:0.13280533 8:0.022851172 9:-0.21950205 10:-0.17316999 11:-0.25691165 12:-0.45725908 13:-0.11877814 
28.178770949728 1:0.26259837 2:0.11420699 3:0.11328022 4:-0.034491292 5:-0.61337816 6:-0.096211172 7:-0.04966114 8:0.28632086 9:-0.20743278 10:-0.12438346 11:-0.26828624 12:-0.36814211 13:-0.15512098 
28.178770949728 1:0.56623795 2:0.15433392 3:0.10942259 4:-0.0063318904 5:-0.4346214 6:0.15841503 7:0.15120432 8:0.33366266 9:-0.15208326 10:-0.048931108 11:-0.20646549 12:-0.49515673 13:-0.29216247 
28.178770949728 1:0.25497671 2:-0.20450694 3:0.04638512 4:0.19062945 5:-0.51171665 6:0.2209419 7:0.013955432 8:0.47802094 9:-0.21800135 10:-0.030904986 11:-0.45432315 12:-0.43170941 13:-0.39285793 
28.178770949728 1:0.54041559 2:0.22809028 3:0.14799615 4:-0.035540672 5:-0.45523236 6:0.10417792 7:0.13767918 8:0.27495123 9:-0.17229966 10:-0.10458338 11:-0.19188315 12:-0.45634548 13:-0.19406166 
22.71172324317427 1:0.22439081 2:-0.10016023 3:0.12285487 4:0.1370951 5:-0.61549245 6:0.091356436 7:-0.060929369 8:0.37291132 9:-0.27772589 10:-0.095633272 11:-0.38925265 12:-0.36182076 13:-0.23789317 
28.178770949728 1:0.52940891 2:0.5015567 3:0.15068153 4:-0.2987768 5:-0.4481269 6:0.06740999 7:0.14384701 8:0.021092071 9:-0.14077699 10:-0.13273717 11:-0.063661476 12:-0.68646072 13:-0.26326798 
28.178770949728 1:0.061341242 2:-0.032568964 3:0.0033538095 4:-0.0030025352 5:-0.51761136 6:0.06825832 7:-0.15569648 8:0.15648004 9:-0.30033411 10:-0.13775945 11:-0.47542849 12:-0.64924216 13:-0.4302002 
28.178770949728 1:0.055796307 2:0.10333568 3:0.094291961 4:0.051686687 5:-0.43577149 6:0.07071156 7:-0.040607094 8:0.26933385 9:-0.22193436 10:-0.18156267 11:-0.46710389 12:-0.55383441 13:-0.20916086 
13.62562987944039 1:0.48019876 2:0.80206188 3:0.19852752 4:-0.61832504 5:-0.41568643 6:0.16996864 7:0.1925683 8:-0.33938168 9:0.038308439 10:-0.13457388 11:-0.3876928 12:-0.70016663 13:-0.30796721 
14.50620182034382 1:0.079110994 2:0.54944327 3:0.070546048 4:-0.22114375 5:-0.18153473 6:-0.044149489 7:0.38497943 8:0.038538682 9:-0.10799397 10:-0.19241681 11:-0.48453982 12:-0.60119695 13:-0.31355476 
15.2412039465853 1:0.46956681 2:0.2665346 3:0.058192057 4:-0.16077363 5:-0.4909382 6:0.038543699 7:-0.016207503 8:0.026003316 9:-0.25484454 10:-0.12082888 11:-0.13417793 12:-0.63804069 13:-0.42212684 
11.0634568184126 1:0.3212748 2:0.54604751 3:0.074411261 4:-0.40522759 5:-0.40934063 6:0.069764897 7:0.025478569 8:-0.22940352 9:-0.1779971 10:-0.30689536 11:-0.33575414 12:-0.83669773 13:-0.4676877 
28.178770949728 1:0.39233026 2:0.35657107 3:0.15437287 4:-0.17348179 5:-0.47034237 6:0.025656999 7:-0.054919738 8:-0.13368056 9:-0.38390039 10:-0.18835288 11:0.0024070208 12:-0.56264664 13:-0.43311901 
28.178770949728 1:0.32633892 2:0.15154961 3:0.11441937 4:0.024485928 5:-0.52627513 6:-0.032646201 7:-0.1127021 8:0.20952374 9:-0.24157172 10:-0.079351457 11:-0.25286206 12:-0.37269802 13:-0.090602328 
28.178770949728 1:0.019786621 2:0.20789884 3:0.13635889 4:0.0062802054 5:-0.44261064 6:-0.020189857 7:-0.22513341 8:-0.045495571 9:-0.33951771 10:-0.023047883 11:0.005610356 12:-0.40492813 13:-0.38762032 
28.178770949728 1:0.20584679 2:0.28789377 3:0.061731595 4:-0.28988014 5:-0.28008851 6:0.41114835 7:0.66563632 8:0.44900293 9:0.0080208536 10:-0.4929146 11:-0.17247825 12:-0.480485 13:0.33292379 
28.178770949728 1:0.076809711 2:0.3585107 3:-0.032427653 4:-0.28535937 5:-0.11670113 6:0.1727847 7:0.73096318 8:0.31657999 9:0.0034589232 10:-0.1931869 11:0.023837819 12:-0.17047116 13:0.23425615 
2.389448267809755 1:0.27589149 2:0.33604605 3:-0.0072250596 4:-0.56618939 5:-0.098632987 6:0.78062485 7:0.9602828 8:0.082668592 9:-0.17226481 10:-0.10079963 11:0.64976072 12:-0.23435777 13:0.49424915 
12.08519842418912 1:-0.064955406 2:-0.25632342 3:-0.20622636 4:0.01193397 5:-0.32531811 6:0.0348201 7:-0.18025492 8:0.047307553 9:-0.31611501 10:0.077543837 11:0.057611999 12:-0.075184954 13:-0.092208863 
28.178770949728 1:0.30102822 2:0.24895813 3:-0.085375522 4:-0.18101509 5:-0.032860578 6:0.24174216 7:0.41981214 8:0.18725643 9:-0.012876568 10:0.12307446 11:0.47851611 12:-0.028356657 13:0.163842 
28.178770949728 1:-0.041775434 2:0.14376958 3:0.0048164174 4:0.012494419 5:-0.18044573 6:0.22291051 7:0.04866953 8:0.24611183 9:-0.013439292 10:0.21238219 11:0.28427281 12:-0.10103607 13:0.063974711 
1.733672183637921 1:0.30498518 2:0.074183071 3:-0.094034716 4:-0.1415143 5:-0.25265015 6:0.20469126 7:0.10965499 8:0.062058563 9:-0.19362617 10:0.078188887 11:0.30609548 12:-0.10237512 13:0.14341227 
28.178770949728 1:0.022518701 2:0.15602128 3:-0.10423176 4:-0.13328731 5:-0.21526433 6:0.047642042 7:0.052543848 8:0.065032979 9:-0.14099516 10:0.11442025 11:0.25413997 12:-0.063643245 13:0.18870333 
9.850501055121931 1:0.27270345 2:-0.27444338 3:-0.20389465 4:-0.16399765 5:-0.59656013 6:-0.023141205 7:-0.039442039 8:0.13719431 9:-0.47136846 10:-0.35555132 11:-0.3113186 12:-0.29071195 13:-0.2454488 
21.33032857579725 1:-0.021153107 2:-0.26907245 3:-0.19553233 4:-0.10802217 5:-0.53138796 6:0.051892099 7:0.01987794 8:0.24744089 9:-0.32199311 10:-0.10499587 11:-0.077039958 12:-0.11175957 13:-0.056581367 
28.178770949728 1:0.17588288 2:-0.025503137 3:0.009857964 4:0.015963176 5:-0.43087445 6:0.19128766 7:0.16976231 8:0.37207357 9:-0.20572321 10:-0.044184899 11:0.035489769 12:-0.0180555 13:0.22436888 
28.178770949728 1:0.24269835 2:0.055374126 3:0.07938681 4:0.0071618899 5:-0.37408833 6:0.29679923 7:0.35348065 8:0.43250802 9:-0.17390082 10:-0.092807059 11:0.028569424 12:-0.1098717 13:0.17816594 
28.178770949728 1:-0.084704023 2:-0.17993449 3:0.040228769 4:0.12384611 5:-0.49721712 6:0.23605982 7:0.14625206 8:0.4667647 9:-0.25849591 10:-0.080832664 11:-0.15095924 12:-0.096032924 13:-0.011612881 
28.178770949728 1:0.060975671 2:0.069850085 3:0.18061856 4:0.2152924 5:-0.23145265 6:0.4233069 7:0.3249387 8:0.38824602 9:-0.2554386 10:-0.11471451 11:0.037798917 12:-0.015654516 13:0.24532265 
28.178770949728 1:-0.0073539663 2:0.0050988586 3:0.10821061 4:0.16092263 5:-0.3010218 6:0.38483563 7:0.34892068 8:0.55651688 9:-0.049098387 10:0.18714889 11:0.2404501 12:0.077478451 13:0.18331064 
28.178770949728 1:0.18581264 2:0.054154851 3:0.13453632 4:0.08759018 5:-0.27814778 6:0.44414198 7:0.54761004 8:0.58980601 9:-0.12949037 10:-0.28767945 11:-0.27772811 12:-0.28715225 13:0.13414937 
28.178770949728 1:0.052868962 2:0.28540481 3:0.27102436 4:0.05485757 5:-0.29475368 6:0.37270303 7:0.46305633 8:0.57766509 9:0.013574581 10:-0.11730468 11:-0.22368439 12:-0.39589821 13:0.039503871 
28.178770949728 1:0.28542063 2:0.0029168349 3:-0.25929737 4:-0.087729636 5:0.10368231 6:-0.046235731 7:-0.19260495 8:0.19681322 9:0.21874445 10:0.11872163 11:-0.047883723 12:-0.055532525 13:0.16706073 
28.178770949728 1:-0.035144487 2:-0.019396288 3:-0.32268022 4:0.0034269583 5:0.13966207 6:-0.29811884 7:0.0073885427 8:0.14490592 9:0.15010334 10:0.25481443 11:-0.23304693 12:0.14474596 13:-0.02443329 
25.30116023826256 1:0.20552552 2:-0.64821204 3:-0.67710327 4:-0.17447518 5:-0.1797501 6:0.039489528 7:-0.17667572 8:0.31133803 9:0.18389785 10:0.18052652 11:-0.1281518 12:-0.23003767 13:0.12947194 
28.178770949728 1:0.26276024 2:-0.30303566 3:-0.45474903 4:-0.08717543 5:0.019960379 6:0.043441001 7:-0.18925223 8:0.20307254 9:0.26166447 10:0.23604709 11:0.086271709 12:-0.23555389 13:-0.0050594229 
28.178770949728 1:0.1593785 2:-0.38904105 3:-0.40501227 4:0.091901764 5:0.055836727 6:0.098442678 7:-0.23499927 8:0.11193166 9:0.03791479 10:0.21827765 11:0.2794417 12:-0.0046452208 13:0.05076161 
28.178770949728 1:0.30350398 2:-0.55163648 3:-0.71530995 4:-0.36987511 5:0.15199741 6:-0.030300584 7:-0.22705171 8:0.30383301 9:0.51286299 10:0.16881343 11:-0.11086144 12:-0.15234377 13:0.11765761 
28.178770949728 1:0.27997152 2:-0.3138865 3:-0.40411374 4:-0.0094803158 5:0.26440038 6:0.082792112 7:-0.25981245 8:0.095030111 9:0.21679746 10:0.21958144 11:0.047530547 12:-0.080136867 13:0.14778843 
9.269355652938128 1:-0.010883731 2:-0.81851182 3:-0.80400766 4:-0.29058052 5:0.065787666 6:0.037249694 7:-0.14883666 8:0.46993784 9:0.64832394 10:0.57934507 11:0.18683296 12:0.041059535 13:0.38360654 
28.178770949728 1:0.21078235 2:-0.31874634 3:-0.33969029 4:0.074862546 5:0.16337369 6:0.1116389 7:-0.29720188 8:0.10889135 9:0.21917549 10:0.31645501 11:0.055554084 12:-0.16133631 13:0.11313943 
28.178770949728 1:-0.044421964 2:-0.17543679 3:-0.24175535 4:0.0028828606 5:0.11498859 6:0.21298984 7:-0.24890251 8:0.20373418 9:0.2877446 10:0.3134944 11:0.13880495 12:-0.047793604 13:0.12673084 
28.178770949728 1:0.287909 2:-0.43216255 3:-0.45284823 4:-0.049115629 5:0.16862835 6:0.13029896 7:-0.28927496 8:0.14839235 9:0.22741152 10:0.17275349 11:-0.04258383 12:-0.041840554 13:0.22971764 
28.178770949728 1:0.31324741 2:-0.10415389 3:-0.55175195 4:-0.46966398 5:0.62861884 6:-0.069518232 7:-0.29606459 8:0.14717523 9:0.42962225 10:-0.13704422 11:0.0078357306 12:-0.23061038 13:-0.12545439 
28.178770949728 1:-0.052982117 2:-0.5135709 3:-0.40294385 4:0.033917393 5:0.067949203 6:0.15170745 7:-0.38834825 8:0.17402351 9:0.17957215 10:0.17377165 11:-0.070124485 12:0.029544155 13:0.21055621 
28.178770949728 1:0.2138098 2:-0.36997464 3:-0.4464674 4:-0.06658149 5:0.27603942 6:0.18483543 7:-0.29583709 8:0.015669395 9:0.20415357 10:0.049466145 11:-0.11398587 12:-0.17991557 13:0.18785369 
28.178770949728 1:0.33242691 2:0.080561793 3:-0.32259892 4:-0.22236086 5:0.49313505 6:0.28646881 7:-0.017365213 8:0.040706408 9:0.25834427 10:-0.14174433 11:-0.13079781 12:-0.25285878 13:0.0021319027 
6.419202586378969 1:0.31944273 2:0.16477844 3:-0.2361942 4:-0.23413031 5:0.56255191 6:0.25404839 7:-0.11190654 8:0.10994593 9:0.50796875 10:0.024710695 11:-0.013420005 12:-0.17873396 13:0.074358187 
28.178770949728 1:0.021160521 2:-0.077536513 3:-0.25769137 4:-0.048842476 5:0.2591364 6:0.37356084 7:-0.063158802 8:0.082017628 9:0.13661746 10:0.062071486 11:-0.11222393 12:-0.25557801 13:0.060921372 
28.178770949728 1:0.21711141 2:-0.12597278 3:-0.24809664 4:0.053243745 5:0.3312413 6:0.30986971 7:-0.094127798 8:0.20486157 9:0.382376 10:0.28640803 11:0.058293257 12:-0.20059913 13:0.14431846 
28.178770949728 1:0.26662404 2:-0.4016295 3:-0.48582664 4:-0.073198521 5:0.42952965 6:0.33520649 7:-0.096744424 8:0.20437713 9:0.45933021 10:0.31817962 11:0.29172426 12:0.20990291 13:0.53565188 
16.44856312754998 1:-0.07983747 2:-0.027991602 3:-0.37150802 4:-0.014357602 5:0.49310303 6:-0.13094055 7:0.048888535 8:0.13862659 9:0.29669994 10:0.32518789 11:0.083599404 12:0.084142859 13:0.20280372 
28.178770949728 1:0.25548533 2:-0.05446351 3:-0.45619335 4:-0.19767833 5:0.35544484 6:-0.16718191 7:-0.14688652 8:0.081726225 9:0.28060606 10:0.081781326 11:0.050739409 12:-0.038232952 13:0.081348454 
28.178770949728 1:0.25895972 2:-0.37048238 3:-0.46470346 4:0.051591594 5:0.27924177 6:0.13689006 7:-0.16748517 8:0.10402137 9:0.23036387 10:0.16999517 11:0.17080691 12:-0.064419341 13:0.36317876 
28.178770949728 1:-0.45097505 2:0.14258165 3:0.37395026 4:0.35807696 5:-0.33844047 6:0.41060163 7:0.11065372 8:0.37936503 9:-0.23311084 10:-0.022576485 11:-0.13699414 12:-0.082403168 13:0.27928095 
28.178770949728 1:-0.19597109 2:0.19207922 3:0.22435408 4:0.13733296 5:-0.38666932 6:0.15222741 7:0.17519239 8:0.46894913 9:-0.13231997 10:-0.15188172 11:-0.24037572 12:-0.22154374 13:0.13409525 
28.178770949728 1:-0.048562708 2:0.066297814 3:0.086913656 4:0.10542413 5:-0.31104241 6:0.31449042 7:0.24559832 8:0.34722549 9:-0.22049038 10:-0.11246488 11:-0.062146518 12:-0.16873613 13:0.015882077 
28.178770949728 1:-0.048226067 2:-0.3542224 3:-0.19644201 4:0.12522947 5:-0.13536952 6:0.52164108 7:0.35166032 8:0.44287255 9:-0.22780671 10:-0.05208876 11:-0.070906344 12:-0.021936569 13:0.10377457 
28.178770949728 1:0.23063938 2:-0.23830019 3:-0.14987747 4:0.089674638 5:-0.33343668 6:0.24178635 7:0.046934066 8:0.35849439 9:-0.13507122 10:0.16220424 11:0.10307597 12:-0.0010356678 13:0.13809473 
28.178770949728 1:0.091753202 2:0.091399705 3:-0.039547449 4:-0.11761762 5:-0.34870457 6:0.16952696 7:-0.015332409 8:0.12967104 9:-0.16226348 10:0.033989138 11:0.22692742 12:-0.077745732 13:0.23034299 
28.178770949728 1:0.26914928 2:-0.28248009 3:-0.21603143 4:0.073141176 5:-0.11921261 6:0.65601013 7:0.42834982 8:0.374247 9:-0.27241784 10:-0.17895713 11:-0.077232422 12:-0.1493012 13:0.21716817 
28.178770949728 1:0.34874928 2:-0.25507986 3:-0.14349655 4:0.075472783 5:-0.17837615 6:0.51390107 7:0.33679802 8:0.43252006 9:-0.13457805 10:0.12010064 11:0.18371188 12:0.051057526 13:0.1717764 
28.178770949728 1:0.054759768 2:-0.033063994 3:-0.072488404 4:-0.0079357961 5:-0.15536272 6:0.41635472 7:0.35474839 8:0.3168002 9:-0.13830838 10:0.074620256 11:0.30168707 12:0.058891186 13:0.24202546 
28.178770949728 1:0.42528725 2:-0.14723387 3:-0.085424244 4:0.0047194752 5:-0.32846978 6:0.29975187 7:0.22955525 8:0.35204937 9:-0.23051833 10:-0.068116706 11:0.03483063 12:-0.0065783816 13:0.22109806 
28.178770949728 1:0.48209802 2:-0.1754185 3:-0.18254163 4:-0.02269802 5:-0.32964166 6:0.34270744 7:0.23287575 8:0.41416574 9:-0.08940112 10:0.14149371 11:0.17742402 12:-0.017459254 13:0.19879021 
28.178770949728 1:0.033536743 2:-0.18701626 3:-0.12082096 4:0.11985582 5:-0.32389131 6:0.068214115 7:-0.0069433164 8:0.37556104 9:-0.14344561 10:0.13385312 11:-0.096360947 12:-0.026212154 13:0.06973358 
28.178770949728 1:0.38399811 2:-0.14023544 3:-0.11394968 4:0.13260071 5:-0.3389198 6:0.2320512 7:-0.013416243 8:0.38641867 9:-0.095986699 10:0.2530406 11:0.068236903 12:-0.033409442 13:0.07233995 
28.178770949728 1:0.5376175 2:-0.16335103 3:-0.21095622 4:-0.18286249 5:-0.44297705 6:0.12189441 7:0.053454652 8:0.17172785 9:-0.23313377 10:0.041454159 11:0.21610227 12:0.044889218 13:0.37101767 
28.178770949728 1:0.4767496 2:-0.016247747 3:-0.049259283 4:-0.022548422 5:-0.26532105 6:0.35480674 7:0.29420074 8:0.39320962 9:-0.05595248 10:0.16086501 11:0.24869495 12:-0.039205199 13:0.15832432 
17.16038919681435 1:0.18593643 2:-0.47322926 3:-0.11966819 4:0.15473301 5:-0.31903352 6:0.67845546 7:0.38775344 8:0.51359453 9:-0.32210262 10:-0.1421942 11:-0.28778077 12:-0.23376868 13:-0.080926333 
4.788514612654613 1:0.37393068 2:0.067974305 3:0.069443026 4:-0.011383348 5:-0.32041211 6:0.38764894 7:0.45344602 8:0.45519919 9:-0.12967332 10:-0.045935022 11:0.11413146 12:-0.10754087 13:0.10535973 
28.178770949728 1:0.063592461 2:0.051816675 3:0.060421286 4:-0.0034371619 5:-0.28693755 6:0.49699611 7:0.48567143 8:0.49942431 9:-0.07924487 10:-0.050999628 11:-0.031565252 12:-0.26206895 13:0.025464699 
28.178770949728 1:-0.066758682 2:-0.19190002 3:0.13746503 4:0.23411198 5:-0.53708914 6:0.29648024 7:0.16845747 8:0.5887912 9:-0.20376704 10:0.0008410722 11:-0.21776572 12:-0.16150714 13:-0.17169988 
28.178770949728 1:-0.075516286 2:0.46724275 3:0.29177901 4:0.020416434 5:-0.39309209 6:-0.0057551515 7:0.09350708 8:0.34506654 9:-0.010713491 10:0.050488123 11:0.12051169 12:-0.13728 13:0.20078185 
28.178770949728 1:-0.84505243 2:0.10309257 3:0.30036131 4:0.20222767 5:-0.44532225 6:0.1297252 7:-0.38690368 8:0.3360866 9:0.14171466 10:0.29200142 11:-0.18637186 12:0.0019933051 13:0.18762653 
28.178770949728 1:-0.37047244 2:0.26289965 3:0.17459581 4:-0.1039806 5:-0.31293479 6:0.22681136 7:-0.18017515 8:0.24616851 9:0.083261743 10:0.31795994 11:0.25635428 12:-0.1275198 13:0.054212142 
28.178770949728 1:0.14457688 2:0.054719407 3:0.0077076715 4:0.03539218 5:-0.31254453 6:0.21239731 7:0.070395566 8:0.32036483 9:-0.030941006 10:0.25852554 11:0.11404111 12:-0.21349506 13:-0.18652706 
28.178770949728 1:0.2975899 2:0.18733257 3:0.028703211 4:-0.011125546 5:-0.298454 6:0.16192622 7:0.16755084 8:0.34363562 9:0.002382822 10:0.15956698 11:0.14453944 12:-0.16050716 13:0.13226768 
28.178770949728 1:-0.099807204 2:0.098426212 3:0.018154008 4:0.061779235 5:-0.26246431 6:0.16850536 7:0.063177235 8:0.29336171 9:-0.028492012 10:0.28266995 11:0.14478292 12:-0.1554703 13:-0.12270572 
28.178770949728 1:0.22808183 2:0.12244555 3:0.039609229 4:0.085133616 5:-0.30684634 6:0.10509313 7:0.025070795 8:0.34458976 9:-0.0046624933 10:0.22459687 11:0.12809128 12:-0.096740804 13:0.11882112 
28.178770949728 1:0.45583268 2:-0.11997252 3:-0.1934703 4:-0.1979242 5:-0.47467525 6:0.081027582 7:0.062640269 8:0.22928407 9:-0.178811 10:0.021525906 11:0.089839863 12:-0.069115448 13:0.27656141 
28.178770949728 1:0.53118723 2:0.013975275 3:-0.19821697 4:-0.20986893 5:-0.2619661 6:0.15756302 7:0.13384526 8:0.063266283 9:-0.26359837 10:-0.17914143 11:0.040888315 12:-0.21105791 13:0.11199784 
28.178770949728 1:0.50769133 2:-0.18756387 3:-0.17166929 4:-0.0024685286 5:-0.31808567 6:0.37313755 7:0.27175329 8:0.40570005 9:-0.1166919 10:0.10547225 11:0.25676078 12:0.062061159 13:0.29595741 
