svm_type c_svc
kernel_type rbf
gamma 0.76923
nr_class 2
total_sv 2906
rho 0.705246
label 1 -1
nr_sv 1343 1563
SV
2.195475431221625 1:-0.84295854 2:-0.056763843 3:0.18377331 4:0.33478044 5:-0.37798006 6:0.045022423 7:-0.37927766 8:0.38203015 9:0.099986738 10:0.65872967 11:0.11444038 12:0.0794526 13:0.29423132 16:-0.43780333 17:0.34410221 18:0.47496223 19:-0.13534497 20:-0.25463792 21:-0.29691323 22:-0.054613763 23:-0.12757722 24:-0.10276472 25:0.12102794 26:-0.14954651 27:-0.088350837 28:0.39067145 29:0.52174278 30:-0.060466739 31:-0.089622321 32:0.082715883 33:-0.095679505 34:0.32530971 35:0.40022325 36:-0.54381851 37:-0.21365713 38:-0.31614891 39:-0.35310241 
3.800251017924188 1:-0.63407403 2:-0.023580152 3:0.14369423 4:0.22011254 5:-0.33460508 6:0.16182614 7:-0.35683633 8:0.28071538 9:0.10949508 10:0.61501583 11:0.10183731 12:-0.1398815 13:-0.066230177 16:-0.83003179 17:0.23711572 18:-0.054324304 19:0.38532504 20:-0.12827396 21:-0.41597231 22:-0.080716212 23:0.14356821 24:-0.12563 25:0.1671469 26:-0.22756873 27:-0.56526846 28:0.51706882 29:0.46534489 30:-0.023645164 31:-0.10617589 32:0.12919918 33:0.12667999 34:0.20505258 35:0.095423937 36:-0.5713998 37:-0.11490256 38:-0.18077646 39:-0.27622068 
1.667872939116839 1:0.32101483 2:0.51853104 3:0.10820384 4:-0.28085157 5:-0.52577655 6:-0.16966085 7:-0.16989889 8:-0.16989652 9:-0.20792384 10:-0.10883749 11:0.24717129 12:-0.23814583 13:0.16892057 15:-1 16:-0.62884625 17:0.46496402 18:0.10729449 19:-0.4404925 20:0.18475603 21:0.20272197 22:-0.21973591 23:-0.086526556 24:-0.08842108 25:-0.57909667 26:-0.26477725 27:0.097560517 28:-0.13828356 29:0.33478865 30:-0.064537429 31:-0.12302143 32:-0.099660091 33:0.088104483 34:0.1895587 35:-0.19541546 36:-0.34492187 37:-0.2796655 38:-0.20075431 39:0.28830108 
1.703628469857626 1:-0.44477003 2:0.44269689 3:0.30544151 4:0.17709031 5:-0.36088721 6:-0.19558728 7:-0.35315466 8:0.10330858 9:-0.08348756 10:0.19681533 11:0.12125447 12:-0.042583214 13:0.28307152 16:0.89211742 17:0.33174901 18:-0.31893622 19:-0.47546339 20:-0.02458865 21:0.063728886 22:-0.48639234 23:-0.087261294 24:-0.0031000302 25:-0.18807013 26:-0.3076137 27:-0.017826714 28:0.083980772 29:0.36750595 30:-0.071073382 31:-0.32223225 32:0.0078344586 33:0.14664901 34:0.12419721 35:-0.14133346 36:-0.32200057 37:-0.08808066 38:-0.2528737 39:0.27168146 
1.171534488328681 1:0.42361357 2:0.58815456 3:0.28790132 4:-0.12727247 5:-0.40087327 6:-0.023064173 7:-0.0036385836 8:-0.014972832 9:-0.1725328 10:0.040155178 11:0.43872801 12:-0.098682161 13:0.26734374 15:1 16:-0.80421545 17:0.22268221 18:0.55778059 19:-0.63810779 20:0.22122551 21:0.25226123 22:-0.34247053 23:-0.0030243052 24:-0.065709722 25:-0.61214331 26:-0.12943148 27:-0.077426491 28:0.30753734 29:0.34181194 30:-0.087344748 31:-0.20155384 32:-0.13857866 33:0.18847468 34:0.19084935 35:-0.15137126 36:-0.38475383 37:-0.063441217 38:-0.33641916 39:0.27974248 
3.257827153296285 1:0.41558259 2:0.17593864 3:0.11852704 4:0.084597068 5:-0.51947694 6:-0.15481087 7:-0.28728239 8:0.17024098 9:-0.16635472 10:0.17802347 11:0.15288012 12:0.015330786 13:0.20259117 16:-0.87248549 17:0.68940395 18:0.41375288 19:-0.76958976 20:0.12083291 21:0.36119454 22:-0.50997487 23:0.053207289 24:-0.41685149 25:-0.25594996 26:-0.13150813 27:0.01639766 28:0.28277723 29:0.36490017 30:-0.08623495 31:-0.18508507 32:-0.024796065 33:0.054162296 34:0.21774226 35:-0.17408925 36:-0.35708188 37:-0.1611802 38:-0.52835705 39:0.30594478 
0.031331319479617 1:0.14523325 2:-0.027358335 3:0.17298994 4:0.2105614 5:-0.56883695 6:0.02111648 7:-0.28241291 8:0.18985629 9:-0.3106696 10:0.1458065 11:0.065379781 12:0.051290885 13:0.1319918 14:1 16:-0.49365976 17:0.22216915 18:0.2084366 19:-0.42459018 20:0.040917966 21:0.23819394 22:-0.33362258 23:0.028787219 24:-0.23540778 25:-0.38223254 26:-0.0601073 27:0.01452157 28:0.43881354 29:0.44232065 30:0.030797499 31:-0.11990579 32:0.030097902 33:0.081381017 34:0.26086711 35:-0.18299275 36:-0.39021424 37:-0.25659573 38:-0.66795175 39:0.16171799 
1.003321727571814 1:0.47238074 2:0.57069414 3:0.37161522 4:0.023564712 5:-0.49343116 6:-0.26247136 7:-0.092478017 8:0.2045123 9:-0.040416188 10:0.088072229 11:0.23374761 12:0.061864003 13:0.37969007 14:-1 16:-0.42957446 17:0.21386415 18:0.20854538 19:-0.23271194 20:-0.67148016 21:0.23221894 22:-0.36385472 23:-0.23023252 24:-0.48333774 25:-0.15159773 26:-0.11860294 27:-0.066134061 28:0.31582885 29:0.32694287 30:-0.12725314 31:-0.21108675 32:-0.066956518 33:0.12138671 34:0.087183447 35:-0.089450109 36:-0.25576433 37:-0.15828405 38:-0.28703689 39:0.48293585 
0.6056650584420773 1:0.20404667 2:-0.17553158 3:0.17462648 4:0.19021226 5:-0.90043799 6:-0.3641112 7:-0.49242008 8:0.27414328 9:-0.35233597 10:0.023023377 11:-0.17149607 12:0.11773304 13:0.20401453 16:0.14476053 17:0.25574717 18:0.11380217 19:-0.14704781 20:-0.50925835 21:0.26471247 22:-0.43464917 23:-0.16228688 24:-0.61900854 25:0.12521476 26:0.059487616 27:0.10488433 28:0.48136751 29:0.48078125 30:0.067106731 31:-0.092175926 32:0.066278234 33:0.063263662 34:0.26961174 35:-0.19287717 36:-0.38072199 37:-0.31291232 38:-0.76556851 39:0.32505783 
0.2908724894891777 1:0.4858585 2:0.099295878 3:0.20944457 4:0.12008884 5:-0.72081715 6:-0.39719924 7:-0.38438599 8:0.2422242 9:-0.20631356 10:0.08207084 11:0.012282911 12:0.10456764 13:0.28463363 16:-0.031781254 17:0.37489667 18:0.44869503 19:-0.49146489 20:-0.64986354 21:0.28733697 22:-0.35056065 23:-0.2510669 24:-0.67987239 25:-0.010777935 26:0.014413272 27:0.01912022 28:0.39638188 29:0.40029553 30:-0.043755308 31:-0.15575072 32:-0.018726845 33:0.05296546 34:0.2344983 35:-0.18649142 36:-0.34226617 37:-0.15267404 38:-0.54892779 39:0.41595129 
0.4843509865729664 1:0.531271 2:0.12004839 3:0.16949668 4:0.045976674 5:-0.70950662 6:-0.34095193 7:-0.33450854 8:0.1818441 9:-0.25680564 10:0.052125099 11:0.10641842 12:0.14372338 13:0.30055527 14:1 16:0.02423254 17:0.42911903 18:0.39881527 19:-0.46855135 20:-0.60863339 21:0.31825856 22:-0.31769279 23:-0.060096912 24:-0.73466464 25:-0.00059968348 26:-0.029074375 27:0.020443126 28:0.39364786 29:0.39706024 30:-0.04308561 31:-0.16011331 32:-0.011347179 33:0.038968523 34:0.24089469 35:-0.17759813 36:-0.32644889 37:-0.17304812 38:-0.5471464 39:0.36504376 
1.205074856797408 1:0.233267 2:-0.19851855 3:0.074419022 4:0.10253937 5:-0.88906943 6:-0.39766505 7:-0.58478018 8:0.11622271 9:-0.44951384 10:-0.046248952 11:-0.20378388 12:0.01632109 13:0.0036703527 16:0.060000123 17:0.41668229 18:0.26550327 19:-0.33719526 20:-0.57887763 21:0.29944241 22:-0.30385661 23:-0.042901566 24:-0.69050328 25:0.026095997 26:0.0080177849 27:0.080678057 28:0.4525502 29:0.45690923 30:0.042575827 31:-0.10429725 32:0.051228381 33:0.063214429 34:0.2649815 35:-0.18812307 36:-0.37646877 37:-0.28739702 38:-0.7139077 39:0.24724093 
0.4187823821689015 1:0.42939544 2:0.34898019 3:0.33045113 4:-0.053540161 5:-0.80428234 6:-0.48227218 7:-0.24840815 8:0.15388689 9:-0.2384443 10:-0.088530861 11:0.17502598 12:0.18398535 13:0.42372246 15:1 16:0.44945022 17:0.32896039 18:0.39825461 19:-0.40783814 20:-0.31280964 21:0.2499588 22:-0.35612282 23:-0.23166932 24:-0.76932199 25:0.020121005 26:0.1020877 27:-9.8809233e-005 28:0.3903219 29:0.40388967 30:-0.020705197 31:-0.1363009 32:-0.024263952 33:0.050890305 34:0.2224278 35:-0.14806564 36:-0.33463674 37:-0.16181397 38:-0.47250582 39:0.49606584 
0.1853700629210996 1:0.46377491 2:0.25349263 3:0.24349669 4:0.13099776 5:-0.62767568 6:-0.36528737 7:-0.35603008 8:0.22480057 9:-0.17157519 10:0.035337244 11:0.094660783 12:0.24618352 13:0.53794982 16:0.6336605 17:0.25085099 18:0.10308565 19:-0.34970134 20:-0.2980715 21:0.37384318 22:-0.29407086 23:-0.18426481 24:-0.70677581 25:-0.0040306713 26:-0.00092533771 27:0.050157345 28:0.2744071 29:0.38953339 30:-0.056016391 31:-0.16027412 32:-0.0096870124 33:-0.015681293 34:0.25218056 35:-0.16855839 36:-0.34277253 37:-0.21038528 38:-0.40692991 39:0.46067196 
0.9738533969116353 1:0.39405006 2:0.21676034 3:0.25275194 4:0.18699523 5:-0.60402284 6:-0.32669532 7:-0.36809693 8:0.23613154 9:-0.19230457 10:0.060741947 11:0.067912607 12:0.23247197 13:0.47642905 16:0.85668337 17:0.18280165 18:0.16862887 19:-0.4145836 20:-0.22256158 21:0.45983933 22:-0.30363406 23:-0.18517848 24:-0.65603495 25:0.026936746 26:-0.024122015 27:0.06303023 28:0.29671842 29:0.38881372 30:-0.052972472 31:-0.1643914 32:-0.011660248 33:0.0033323007 34:0.24870146 35:-0.17649728 36:-0.33477159 37:-0.20310894 38:-0.45706499 39:0.44541602 
0.5302928239445444 1:0.4999772 2:0.56398705 3:0.30391709 4:-0.25248787 5:-0.7068719 6:-0.5514294 7:-0.32654839 8:-0.095524479 9:-0.21658563 10:-0.33103073 11:-0.0875974 12:0.0078571382 13:0.57914809 15:-1 16:0.62012356 17:0.23906797 18:0.14584223 19:-0.50567069 20:-0.30187642 21:0.61656136 22:-0.34988199 23:-0.36392742 24:-0.69250213 25:-0.27131949 26:0.15458561 27:-0.11513212 28:0.31979733 29:0.35151585 30:-0.055190529 31:-0.12943677 32:-0.0097610475 33:0.034176277 34:0.19764798 35:-0.16476932 36:-0.20875602 37:-0.24788376 38:-0.039656909 39:0.51601644 
0.5010494949785759 1:0.18031174 2:0.59765644 3:0.36265707 4:-0.17481904 5:-0.64880325 6:-0.44124086 7:-0.24516768 8:-0.01430405 9:-0.18274077 10:-0.2720954 11:0.019596145 12:0.039291556 13:0.55238823 16:0.9616791 17:0.20701439 18:0.18263136 19:-0.47363431 20:-0.18233237 21:0.66578594 22:-0.38566738 23:-0.3404689 24:-0.72703613 25:-0.32210551 26:0.11716242 27:-0.072407289 28:0.14370472 29:0.35541544 30:-0.074873194 31:-0.1028143 32:0.00095924201 33:0.0099765686 34:0.24053178 35:-0.22744578 36:-0.16711922 37:-0.30857317 38:-0.1286948 39:0.51903254 
0.6743184005896609 1:0.4063321 2:0.88490821 3:0.63409157 4:-0.44050601 5:-0.80387021 6:-0.19001875 7:-0.077120991 8:-0.36843121 9:-0.14815145 10:-0.20045444 11:0.0978957 12:0.20516602 13:0.3866128 16:0.93050739 17:0.19454075 18:0.28696693 19:-0.52611679 20:-0.24007402 21:0.49521015 22:-0.2892879 23:-0.19084403 24:-0.78044162 25:-0.15513949 26:0.089344398 27:-0.31705418 28:0.097799059 29:0.39902216 30:0.028995506 31:0.56611914 32:0.06253965 33:0.067531242 34:-0.27524513 35:-0.058694449 36:0.22161425 37:-0.55962496 38:-0.24375427 39:0.51563017 
0.6274162598976023 1:0.48433883 2:0.74522294 3:0.2652251 4:-0.50708238 5:-0.51720456 6:-0.56453827 7:-0.33442774 8:-0.32682233 9:-0.13555107 10:-0.54252352 11:-0.11748334 12:0.36234275 13:0.17739065 16:0.65241474 17:0.19765281 18:0.041363492 19:-0.28952654 20:-0.44459054 21:0.60770012 22:-0.3387112 23:-0.026676253 24:-0.55264798 25:-0.61968206 26:0.85994237 27:0.048160467 28:-0.89170023 29:0.076827248 30:-0.10290652 31:0.1284756 32:0.16902359 33:-0.10673743 34:-0.11506937 35:-0.094429369 36:0.21911587 37:-0.56479677 38:0.52137086 39:0.40730431 
0.6182274983664643 1:0.47631668 2:0.79151687 3:0.41579214 4:-0.30386427 5:-0.55977281 6:-0.34145757 7:-0.10731816 8:-0.13468959 9:-0.12844186 10:-0.34185567 11:0.21847156 12:0.33455812 13:0.40869115 16:0.25883148 17:0.24667151 18:0.018258312 19:-0.40982566 20:-0.032986305 21:0.44266954 22:-0.23767854 23:-0.14431504 24:-0.6077875 25:-0.24834595 26:0.029704377 27:0.12314817 28:-0.46989565 29:0.29749605 30:-0.17863807 31:0.1891487 32:0.04806427 33:0.0048309223 34:-0.018616291 35:-0.04214483 36:0.015791484 37:-0.45834154 38:0.18280752 39:0.44398204 
0.1448453911709698 1:0.075221092 2:0.069806162 3:0.27344986 4:0.031090241 5:-0.90166411 6:-0.37832891 7:-0.4254367 8:-0.024552325 9:-0.59052036 10:-0.28369877 11:0.082089689 12:0.26370624 13:0.36109102 16:0.64591853 17:0.27665787 18:-0.26614749 19:-0.1962469 20:0.14851586 21:0.55389271 22:-0.24598119 23:0.066700626 24:-0.66700813 25:-0.5227562 26:0.2624018 27:0.083383428 28:0.3879796 29:0.50738561 30:0.099331945 31:-0.072324962 32:-0.027448651 33:0.12577476 34:0.27260458 35:-0.18434583 36:-0.4443 37:-0.22533788 38:-0.7353857 39:0.37045979 
0.2886239393562897 1:0.3336614 2:0.65299521 3:0.32135229 4:-0.19772286 5:-0.59627961 6:-0.35541396 7:-0.21109345 8:-0.15733459 9:-0.21869933 10:-0.25113188 11:0.23509962 12:0.17587739 13:0.47669711 16:0.44848322 17:0.25824784 18:-0.14468981 19:-0.33165121 20:8.846148e-005 21:0.63233241 22:-0.29612074 23:-0.13668232 24:-0.57347969 25:-0.10709796 26:-0.22851222 27:0.074033258 28:0.048655722 29:0.31096496 30:-0.24030424 31:0.16269721 32:-0.059288368 33:0.086870903 34:0.0248754 35:-0.032906882 36:-0.17170897 37:-0.43035819 38:-0.063399604 39:0.46057797 
1.023636285953815 1:0.50504372 2:0.19955012 3:0.22110697 4:0.19855874 5:-0.47261189 6:-0.15954873 7:-0.32995445 8:0.16330037 9:-0.20021274 10:0.17628429 11:0.12377144 12:0.11314912 13:0.31917894 16:0.032793598 17:0.28502009 18:0.20762046 19:-0.60500289 20:0.17902408 21:0.11441751 22:-0.086207259 23:-0.42904989 24:-0.099706077 25:-0.15761487 26:-0.12231208 27:-0.04742311 28:0.36866048 29:0.37064167 30:-0.068548206 31:-0.17471953 32:-0.045309366 33:0.038164871 34:0.24873139 35:-0.18016303 36:-0.34543531 37:-0.10631809 38:-0.45639328 39:0.22629854 
10.54002341852125 1:0.16676999 2:0.056097159 3:0.2111762 4:0.34882352 5:-0.39066789 6:0.006149462 7:-0.35689825 8:0.23551851 9:-0.15423959 10:0.34567637 11:0.12350137 12:0.071403617 13:0.11263584 16:-0.16097054 17:0.39068952 18:0.061976974 19:-0.70291638 20:-0.038795981 21:-0.089987084 22:0.021208486 23:-0.15465736 24:-0.093546789 25:-0.1437022 26:-0.11478867 27:-0.045466486 28:0.37322273 29:0.38772485 30:-0.038827163 31:-0.15745963 32:-0.0099476896 33:0.05872887 34:0.25650683 35:-0.18464399 36:-0.36958668 37:-0.1670447 38:-0.50879195 39:-0.070247502 
0.7756068653335521 1:0.52747383 2:0.64530784 3:0.26708932 4:-0.18098642 5:-0.46484433 6:-0.2966263 7:-0.033949725 8:0.052263349 9:-0.093503327 10:-0.024774902 11:0.5564905 12:0.28588588 13:0.55240117 16:-0.26918798 17:0.49437563 18:0.030339027 19:-0.36686278 20:0.097857622 21:0.081378853 22:-0.040509354 23:-0.20045578 24:-0.36136659 25:-0.7540873 26:-0.013995711 27:0.13677433 28:-0.038291744 29:0.2665487 30:-0.11883505 31:-0.20039076 32:-0.12581803 33:0.11219953 34:0.16782214 35:-0.16568266 36:-0.24761118 37:-0.15247509 38:0.0011722901 39:0.36813883 
1.738125172538654 1:0.51020769 2:0.18912539 3:0.15108733 4:-0.058381909 5:-0.71829455 6:-0.38427194 7:-0.27720494 8:0.12879777 9:-0.25039316 10:0.067223717 11:0.49763027 12:0.45883125 13:0.57281314 16:0.032737025 17:0.41162634 18:0.057772092 19:-0.43719349 20:-0.11052027 21:-0.064939738 22:0.08701008 23:-0.30965447 24:-0.28562243 25:-0.69709675 26:-0.081030343 27:0.37105954 28:-0.01380293 29:0.38394249 30:-0.046376412 31:-0.18272853 32:0.031345376 33:-0.0043143684 34:0.25636523 35:-0.19820687 36:-0.35286734 37:-0.14423245 38:-0.32997505 39:0.35107458 
7.944255689276453 1:0.20297548 2:0.14719197 3:0.26540922 4:0.23867285 5:-0.5268605 6:-0.10296642 7:-0.24838045 8:0.2915828 9:-0.18154345 10:0.14234686 11:0.14494576 12:0.24729347 13:0.30333067 16:-0.17066003 17:0.56418576 18:-0.063410575 19:-0.2855146 20:-0.17645035 21:-0.1009233 22:0.10998869 23:-0.15047817 24:-0.53086242 25:0.070217652 26:0.15395163 27:-0.031662979 28:0.28089912 29:0.42349103 30:-0.015391857 31:-0.14090851 32:0.014313718 33:0.041621054 34:0.24727931 35:-0.18786786 36:-0.3482918 37:-0.19948998 38:-0.48630522 39:0.21866924 
3.596323850594984 1:0.42724141 2:0.11873116 3:0.19693842 4:0.11283756 5:-0.65917243 6:-0.29281355 7:-0.30836934 8:0.15112119 9:-0.33219811 10:0.048950492 11:0.25987231 12:0.28926008 13:0.3096691 16:-0.099664925 17:0.49024826 18:0.059927877 19:-0.47180763 20:-0.36825386 21:-0.091407844 22:0.17052935 23:-0.25607278 24:-0.47211004 25:-0.34030264 26:-0.1497771 27:0.38859049 28:0.21717406 29:0.39343949 30:-0.045020217 31:-0.16980977 32:0.0014581335 33:0.0067538597 34:0.25746569 35:-0.17585866 36:-0.3480492 37:-0.16532746 38:-0.48690496 39:0.26151155 
0.2387123497870382 1:0.51719737 2:0.11021924 3:0.04510045 4:-0.10678168 5:-0.70153471 6:-0.41088531 7:-0.47917177 8:-0.049060978 9:-0.32186649 10:0.068530904 11:0.24345167 12:0.29890647 13:0.55885863 16:0.81177466 17:0.40022493 18:0.017902011 19:-0.54455415 20:-0.042631121 21:0.06259365 22:0.034856506 23:-0.36029235 24:-0.22310386 25:-0.47107285 26:0.09569657 27:-0.095476574 28:0.44232842 29:0.38545187 30:-0.036545146 31:-0.15399414 32:-0.033584345 33:0.0010926038 34:0.25802326 35:-0.16621876 36:-0.30868327 37:-0.16936117 38:-0.36755317 39:0.2978153 
1.418471771173776 1:0.22494303 2:0.035188821 3:0.11063907 4:0.12485596 5:-0.63098806 6:-0.33071808 7:-0.51616179 8:0.081902261 9:-0.30270762 10:0.089262797 11:0.031560094 12:0.13829852 13:0.18421118 16:0.062293456 17:0.64379014 18:-0.018148123 19:-0.26571713 20:-0.49369708 21:0.36502884 22:-0.12727498 23:-0.20715036 24:-0.17570119 25:-0.28934168 26:-0.032276346 27:0.093808305 28:0.22831864 29:0.40046641 30:-0.038248729 31:-0.16108064 32:0.0042017953 33:0.019216186 34:0.25573974 35:-0.17928385 36:-0.34690924 37:-0.16051308 38:-0.45685082 39:0.17136025 
0.8838468833014509 1:0.51844654 2:0.065427713 3:0.11611024 4:0.12680716 5:-0.5581762 6:-0.21165489 7:-0.35139787 8:0.15331915 9:-0.20976127 10:0.30454251 11:0.38670736 12:0.35516185 13:0.4675867 15:-1 16:-0.51589793 17:0.56756168 18:0.059207597 19:-0.65888209 20:-0.3742794 21:0.33250106 22:0.0048010652 23:-0.31749019 24:-0.085848122 25:-0.23829457 26:-0.15754992 27:0.13343362 28:0.30733913 29:0.37321635 30:-0.068582339 31:-0.16434185 32:-0.018197287 33:-0.00029289197 34:0.25419483 35:-0.18161851 36:-0.32613368 37:-0.12485695 38:-0.50264174 39:0.17808645 
0.5421385357570536 1:0.23654433 2:-0.0094948447 3:0.163533 4:0.12328779 5:-0.7252466 6:-0.21587239 7:-0.42313381 8:0.1331298 9:-0.3186765 10:0.12602321 11:0.11267886 12:0.19611168 13:0.29279308 15:1 16:-0.097416088 17:0.5311289 18:0.068750365 19:-0.29402587 20:-0.56646518 21:0.42549235 22:-0.038473701 23:-0.31502052 24:-0.35180937 25:-0.10572448 26:0.026503979 27:-0.11083361 28:0.50251149 29:0.46145807 30:0.028063601 31:-0.12282016 32:0.069675074 33:0.036468971 34:0.2619246 35:-0.17711306 36:-0.36567952 37:-0.28033272 38:-0.66002142 39:0.27096517 
0.805378158707505 1:0.52130373 2:0.75456792 3:0.28796382 4:-0.25335254 5:-0.41629175 6:-0.28527682 7:0.035296514 8:0.017645818 9:-0.077876483 10:-0.11275419 11:0.35142794 12:0.0079835432 13:0.33865228 14:-1 16:-0.35557656 17:0.41522742 18:0.12804009 19:-0.29012669 20:-0.43221345 21:0.57351954 22:-0.31599612 23:-0.18018794 24:-0.4771035 25:-0.2504141 26:-0.16278077 27:-0.016667768 28:0.065412271 29:0.22647784 30:-0.18993227 31:-0.19623269 32:-0.28044788 33:0.19264053 34:0.030676485 35:-0.066503114 36:-0.18420394 37:-0.08455061 38:-0.017476344 39:0.39114519 
0.2261475123665749 1:0.49346099 2:0.65849767 3:0.21390228 4:-0.08399508 5:-0.47739905 6:-0.19274072 7:-0.063523405 8:0.045521832 9:-0.033457064 10:-0.011425978 11:0.29593112 12:-0.14132571 13:0.41724222 16:-0.21873851 17:0.39032667 18:0.065701527 19:-0.25019248 20:-0.31239018 21:0.5852448 22:-0.49082591 23:-0.048783344 24:-0.43865792 25:-0.41092117 26:-0.13499406 27:-0.14688765 28:0.35085863 29:0.31758266 30:-0.11451443 31:-0.2545697 32:0.091260367 33:-0.19567672 34:0.25160981 35:-0.29759725 36:-0.27078916 37:-0.48984931 38:-0.008499746 39:0.42860611 
0.2102179612901836 1:0.23630014 2:-0.039528591 3:0.20641248 4:0.17643792 5:-0.72479722 6:-0.12738897 7:-0.28996634 8:0.25233681 9:-0.34051528 10:0.055887987 11:0.074396673 12:0.16701833 13:0.17314452 15:-1 16:-0.14990172 17:0.36783086 18:0.064088862 19:-0.23458007 20:-0.44833537 21:0.56570296 22:-0.20769431 23:-0.15636521 24:-0.52069222 25:-0.034907368 26:0.040327695 27:0.10426702 28:0.42468018 29:0.45626078 30:0.049920898 31:-0.10344182 32:0.03978201 33:0.080267027 34:0.26266292 35:-0.1826949 36:-0.39115554 37:-0.28316729 38:-0.71190319 39:0.27282574 
0.4270090995768852 1:0.44408256 2:0.8510689 3:0.36403544 4:-0.36134177 5:-0.40572506 6:-0.23082939 7:0.022663914 8:-0.042681932 9:-0.02679736 10:-0.18134606 11:0.32241811 12:0.08363097 13:0.277779 16:-0.22616043 17:0.38484133 18:0.038097876 19:-0.20441457 20:-0.41952124 21:0.58140486 22:-0.34389987 23:-0.11352378 24:-0.54263364 25:-0.55069347 26:-0.19053304 27:0.096828509 28:-0.31639135 29:0.090155242 30:-0.081509928 31:-0.15121345 32:-0.065110009 33:0.18615877 34:0.03475093 35:-0.11396797 36:-0.069659639 37:-0.17280229 38:0.063556012 39:0.40288778 
0.7537251778153279 1:0.52538382 2:0.62233073 3:0.49939084 4:-0.14819424 5:-0.72153881 6:-0.14026768 7:0.1391572 8:0.12626335 9:-0.27345621 10:-0.1989754 11:0.45431189 12:0.048205971 13:0.30323484 14:1 16:-0.22470572 17:0.24310941 18:0.1375148 19:-0.30618077 20:-0.3194578 21:0.62072352 22:-0.31798637 23:-0.21878019 24:-0.7315299 25:-0.71987023 26:-0.36508553 27:0.31794939 28:0.11844952 29:0.45128562 30:0.026003094 31:-0.051793419 32:-0.15436312 33:0.18806722 34:0.17249451 35:-0.18555856 36:-0.29261738 37:-0.30957603 38:-0.63521725 39:0.43621772 
1.287683009728451 1:0.53419117 2:0.16744809 3:0.16700966 4:0.10326876 5:-0.45145358 6:-0.018400533 7:-0.13275655 8:0.19321613 9:-0.21614137 10:0.10280655 11:0.18522839 12:0.068274211 13:0.20666218 14:-1 16:0.055713525 17:-0.25325893 18:0.27616829 19:-0.10243849 20:-0.043260002 21:0.59326337 22:-0.15641727 23:-0.22454199 24:-0.28330839 25:-0.3215068 26:-0.10737505 27:-0.014445267 28:0.35487591 29:0.37409504 30:-0.068373432 31:-0.1796594 32:-0.0050953536 33:0.026332076 34:0.24979931 35:-0.16880574 36:-0.35456999 37:-0.13396478 38:-0.4673304 39:0.25015584 
0.2227622080306095 1:0.52808695 2:0.18017151 3:0.15007582 4:0.11351942 5:-0.4553857 6:0.017118262 7:-0.072421497 8:0.24140489 9:-0.18380046 10:0.097274644 11:0.16827955 12:0.0087091164 13:0.1645088 16:-0.063271805 17:-0.3852358 18:0.53684793 19:0.09014348 20:-0.78880508 21:0.93006719 22:-0.21006202 23:-0.23023242 24:-0.39195919 25:-0.21736349 26:-0.10301418 27:-0.024862469 28:0.36767661 29:0.37182386 30:-0.061053672 31:-0.17995464 32:-0.013258187 33:0.021769377 34:0.23637208 35:-0.20531341 36:-0.34150058 37:-0.18915659 38:-0.62420961 39:0.39155292 
1.89083179887856 1:0.42653935 2:0.47363707 3:0.20270173 4:-0.12829867 5:-0.49182122 6:-0.084910192 7:0.079435779 8:0.153782 9:-0.092219702 10:-0.015529696 11:0.33212766 12:-0.054630824 13:0.31126187 15:1 16:-0.46598371 17:0.10888716 18:0.28102498 19:-0.033829641 20:-0.16499276 21:0.54791873 22:-0.18036413 23:-0.3702183 24:-0.43100273 25:-0.24275396 26:-0.17928541 27:-0.12246626 28:0.34292497 29:0.33517678 30:-0.10887347 31:-0.18455097 32:-0.021928449 33:0.041434809 34:0.169322 35:-0.24451118 36:-0.27338201 37:-0.18247527 38:-0.45815916 39:0.39088436 
0.2180342956757664 1:0.47764826 2:0.20231845 3:0.14119408 4:-0.0068305012 5:-0.59814357 6:-0.12295014 7:-0.02069113 8:0.36284241 9:-0.042239276 10:0.12070232 11:0.14826517 12:-0.071431019 13:0.084497445 16:-0.13674164 17:-0.34063319 18:-0.094230143 19:0.77828447 20:-0.60183177 21:0.31002211 22:-0.065529362 23:-0.31454754 24:-0.40540699 25:-0.16849173 26:-0.08815484 27:-0.01207964 28:0.36955105 29:0.37823406 30:-0.056104514 31:-0.1752184 32:0.017730642 33:-0.00014697592 34:0.23859489 35:-0.20514688 36:-0.3611033 37:-0.16217001 38:-0.62863107 39:0.43198593 
1.307335159368886 1:0.18987916 2:0.18768425 3:0.20182528 4:-0.017396099 5:-0.62482708 6:-0.075783818 7:0.084016315 8:0.44248518 9:-0.046831842 10:0.075959909 11:0.18644034 12:0.036955528 13:0.24901818 16:-0.81477969 17:0.50858417 18:0.16937321 19:0.37771882 20:-0.21913087 21:0.37771494 22:-0.24341847 23:-0.33762592 24:-0.51761759 25:0.15960559 26:-0.075411521 27:-0.01189276 28:0.38514906 29:0.39164851 30:-0.01729398 31:-0.15426735 32:-0.0046494105 33:0.054404687 34:0.26218148 35:-0.19047093 36:-0.37939615 37:-0.16142031 38:-0.55277744 39:0.40909315 
1.582654256443121 1:0.39819294 2:0.15479591 3:0.089703027 4:0.035710846 5:-0.54720693 6:-0.069978721 7:-0.096296776 8:0.30328971 9:-0.072020502 10:0.23590392 11:0.26732617 12:0.014347354 13:0.094579033 16:-0.73275362 17:0.2539234 18:0.028524068 19:0.69329915 20:-0.50024209 21:0.046541966 22:0.08429077 23:-0.21325086 24:-0.32519546 25:-0.27716517 26:-0.099189191 27:-0.02072054 28:0.36295492 29:0.37543473 30:-0.068206046 31:-0.18034344 32:0.012968161 33:-0.0030277705 34:0.23778244 35:-0.19292962 36:-0.36755907 37:-0.17591325 38:-0.65636999 39:0.41071633 
3.65840362453145 1:0.4520664 2:0.05713651 3:0.096170238 4:0.14726586 5:-0.43929205 6:0.011137321 7:-0.10097669 8:0.38626875 9:-0.05893943 10:0.2157638 11:-0.056240844 12:-0.18081994 13:-0.16899698 16:-0.1455447 17:-0.78960865 18:0.36584753 19:0.81689882 20:-0.47346141 21:0.28943119 22:-0.17789351 23:-0.21679568 24:-0.19105159 25:-0.21455672 26:-0.12475447 27:-0.017899707 28:0.34742784 29:0.36623524 30:-0.074374325 31:-0.18011761 32:-0.0064325081 33:0.018218542 34:0.24069536 35:-0.1720791 36:-0.34033878 37:-0.12983019 38:-0.44535931 39:0.16655813 
0.5956119897494957 1:0.46801523 2:0.32114977 3:0.057768631 4:-0.36225791 5:-0.75964045 6:-0.30645009 7:-0.13290867 8:-0.083222813 9:-0.36444996 10:-0.25834023 11:-0.0039241587 12:-0.53088874 13:-0.40872741 16:-0.50842156 17:-0.17844903 18:0.17124844 19:0.72428547 20:-0.42005729 21:0.25153269 22:-0.40287185 23:0.11521314 24:-0.57835355 25:-0.73572978 26:-0.063655938 27:-0.035506675 28:0.37730789 29:0.37702611 30:-0.02895455 31:-0.24412907 32:0.098117024 33:-0.035591679 34:0.28198564 35:-0.25560957 36:-0.34441075 37:-0.17574857 38:-0.58266014 39:0.33826155 
8.962707540414318 1:0.11572483 2:-0.03958844 3:0.12742281 4:0.33738575 5:-0.34222879 6:0.074169635 7:-0.23508185 8:0.35007696 9:-0.09991892 10:0.31122893 11:-0.014098299 12:-0.027264643 13:-0.030016316 16:-0.27982834 17:-0.21578359 18:0.09765903 19:0.45017413 20:-0.38579803 21:0.19205697 22:-0.049506963 23:-0.27061242 24:0.030918546 25:-0.1111808 26:-0.11486492 27:-0.017839327 28:0.35419108 29:0.37334504 30:-0.06093004 31:-0.17482634 32:0.0013170691 33:0.023911492 34:0.25008645 35:-0.17952318 36:-0.34792356 37:-0.14668902 38:-0.4684933 39:-0.13135787 
1.053138982731624 1:0.41796048 2:0.81011737 3:0.32297838 4:-0.52798169 5:-0.56907717 6:0.06069965 7:0.38508194 8:-0.11507216 9:-0.086765421 10:-0.10093709 11:0.2992973 12:-0.47870468 13:-0.30747571 14:-1 15:-1 16:-0.9305347 17:-0.031336356 18:0.097693747 19:0.49379223 20:-0.20280197 21:0.17415595 22:-0.57527425 23:0.21940055 24:-0.74059945 25:-0.62078158 26:-0.3596252 27:-0.11891241 28:0.30828236 29:0.34868713 30:-0.08041899 31:0.03012263 32:0.25888261 33:-0.15131008 34:-0.07652244 35:-0.031083345 36:-0.0014763244 37:-0.3851059 38:-0.50491129 39:0.3542291 
0.634960749308406 1:0.38450262 2:0.46668858 3:0.16854776 4:-0.28220799 5:-0.56401961 6:0.0052082343 7:0.29411569 8:0.25873598 9:-0.011415903 10:-0.036980716 11:0.13897094 12:-0.58201028 13:-0.41270871 16:-0.86457138 17:-0.52701412 18:0.96784323 19:0.50071874 20:-0.060625706 21:-0.052863837 22:-0.22479894 23:0.042536524 24:-0.69939882 25:-0.67889625 26:-0.14007434 27:-0.0886762 28:0.35701553 29:0.37491209 30:-0.092329919 31:-0.13582016 32:-0.0083712197 33:0.0011111817 34:0.17250891 35:-0.16231416 36:-0.28138861 37:-0.23974833 38:-0.65567323 39:0.42027204 
0.09571042622826467 1:0.25099982 2:0.4572371 3:0.24678837 4:-0.24506208 5:-0.57121883 6:0.045716097 7:0.36722572 8:0.32489348 9:-0.024093484 10:-0.03990813 11:0.1253086 12:-0.53974623 13:-0.43510116 16:-0.8682724 17:-0.46497948 18:0.65677721 19:0.48081235 20:-0.20207915 21:0.068955419 22:-0.54328975 23:0.084248569 24:-0.75094043 25:-0.64572458 26:-0.13540275 27:-0.016745485 28:0.38074758 29:0.38772192 30:-0.058082783 31:-0.11362512 32:-0.025152895 33:0.017097318 34:0.19890137 35:-0.17041233 36:-0.27168086 37:-0.18309307 38:-0.5860165 39:0.44392928 
0.9549060472763097 1:0.22695282 2:0.60042596 3:0.3370624 4:-0.21915835 5:-0.5524523 6:-0.080486652 7:0.18576134 8:0.17780489 9:-0.0024535904 10:0.0042093089 11:0.13363102 12:-0.32279435 13:-0.021534218 14:1 16:-0.21769117 17:0.05448579 18:-0.37522353 19:0.13620562 20:0.05499361 21:-0.16785958 22:-0.3096368 23:-0.0029650293 24:-0.61514196 25:-0.46724904 26:-0.10077869 27:-0.075014677 28:0.19337769 29:0.37875153 30:-0.018731278 31:-0.08144654 32:0.034510108 33:-0.10116159 34:0.20447123 35:-0.034416072 36:-0.23364622 37:-0.24940623 38:-0.36461642 39:0.48926819 
2.486326211153747 1:0.10742423 2:0.11917506 3:0.091525469 4:-0.088448271 5:-0.6940062 6:-0.20584504 7:-0.054992436 8:0.30699473 9:-0.14694739 10:0.012913337 11:0.027819283 12:-0.13365139 13:0.0046798778 16:0.16153254 17:-0.26403395 18:0.74912954 19:0.08530559 20:0.082450449 21:-0.21930946 22:-0.45489407 23:0.097745007 24:-0.81443369 25:-0.22266969 26:-0.018930175 27:0.012010932 28:0.37422647 29:0.40053991 30:-0.042277707 31:-0.15839998 32:0.0061185209 33:0.020327914 34:0.19871673 35:-0.13739443 36:-0.34579986 37:-0.1613695 38:-0.56675959 39:0.41467716 
1.252032881940125 1:-0.17060757 2:-0.16680599 3:0.22017173 4:0.30442974 5:-0.68848897 6:0.0039073681 7:-0.13820984 8:0.50982108 9:-0.226491 10:0.060529032 11:-0.31720708 12:-0.2094844 13:-0.33365281 16:-0.38914704 17:-0.052491325 18:-0.65469336 19:0.48995022 20:-0.14137389 21:-0.061013338 22:-0.20335389 23:-0.036066619 24:-0.57597295 25:-0.16273482 26:0.086631657 27:0.14006411 28:0.47801233 29:0.47890136 30:0.070508003 31:-0.095670543 32:0.07384656 33:0.048660818 34:0.2717185 35:-0.17975416 36:-0.3859673 37:-0.31196999 38:-0.75655607 39:0.27768263 
0.1538936048824745 1:0.068921925 2:0.74549707 3:0.39835129 4:-0.3535091 5:-0.49328177 6:0.077097483 7:0.11276492 8:0.12973809 9:0.034720437 10:-0.017197587 11:0.29943955 12:-0.24223327 13:0.10550088 16:-0.97165262 17:0.32504072 18:0.22486139 19:0.11385592 20:-0.23828586 21:0.17865924 22:-0.4665151 23:0.1861688 24:-0.68104782 25:-0.27166468 26:-0.52817256 27:-0.026358687 28:-0.059971006 29:0.30779735 30:-0.22100531 31:-0.078031309 32:0.28825419 33:0.0034638872 34:0.26606115 35:-0.12498742 36:-0.074518278 37:-0.47726857 38:-0.32144701 39:0.40459963 
0.7592539737276624 1:0.019810708 2:0.55311963 3:0.30674104 4:-0.099340753 5:-0.54782433 6:-0.37147879 7:-0.21819305 8:0.15237798 9:0.044251105 10:0.16130045 11:0.13446986 12:-0.12939155 13:0.23789464 16:-0.92693145 17:0.44274012 18:0.15931893 19:0.5252026 20:-0.59506993 21:0.31601233 22:-0.49176475 23:-0.068473845 24:-0.43634356 25:-0.099274712 26:-0.2303988 27:-0.12494714 28:0.37997152 29:0.33690442 30:-0.20247662 31:-0.17617302 32:0.040238421 33:0.033464074 34:0.10955641 35:-0.27768019 36:-0.033558708 37:-0.17387927 38:-0.28838884 39:0.55212877 
3.267936426013705 1:-0.33692659 2:0.57308275 3:0.28383695 4:-0.15939295 5:-0.31744089 6:0.059480594 7:-0.25902058 8:0.21142888 9:0.18153651 10:0.15496739 11:0.16398768 12:-0.29710989 13:0.028976597 16:-0.35998879 17:-0.15635351 18:0.1779172 19:0.31167038 20:-0.087411573 21:-0.15758458 22:-0.29444052 23:-0.12895755 24:-0.039342951 25:-0.53037898 26:0.1328916 27:-0.37994248 28:0.028349911 29:0.20773051 30:-0.1240926 31:-0.13035582 32:0.33315242 33:0.039258459 34:0.35142699 35:0.0057075601 36:-0.55541251 37:-0.21017008 38:0.20029676 39:0.31060486 
1.841423342914033 1:0.23058692 2:0.30593432 3:-0.20727075 4:-0.41306164 5:-0.18445995 6:-0.17635651 7:-0.20371134 8:0.050062016 9:0.24613332 10:0.098908454 11:0.15636974 12:-0.41608302 13:-0.37017796 16:0.43330939 17:-0.30120255 18:0.050665266 19:0.48792877 20:-0.13070863 21:-0.40355593 22:-0.16638284 23:-0.052149485 24:0.12924756 25:-0.21095904 26:-0.33564406 27:0.16369477 28:-0.33312463 29:-0.0096626093 30:-0.066190523 31:-0.23248526 32:-0.0066385507 33:0.019454028 34:0.2272222 35:-0.17136782 36:-0.38877549 37:-0.16091455 38:0.41967203 39:-0.021364684 
1.774870897843223 1:0.16406725 2:0.22112754 3:-0.12536512 4:-0.07260802 5:0.021667747 6:-0.1785188 7:-0.21842125 8:0.22282469 9:0.29337203 10:0.22212717 11:0.048454194 12:-0.16877682 13:-0.033357075 16:-0.88365598 17:0.63159963 18:-0.30280632 19:0.46758574 20:-0.22819185 21:0.19945522 22:-0.36863184 23:0.091521349 24:0.25396431 25:-0.003874152 26:-0.46645138 27:0.24576134 28:-0.2667727 29:0.19399482 30:-0.22710603 31:-0.24710244 32:-0.086455505 33:-0.046375282 34:0.24600644 35:-0.24681044 36:-0.28453971 37:0.12211014 38:0.335519 39:-0.28060491 
1.972974764805448 1:0.17333831 2:0.41555984 3:-0.2095725 4:-0.62446133 5:-0.27436804 6:-0.53682511 7:-0.30659666 8:0.18210705 9:0.27532326 10:-0.029396994 11:0.073140104 12:-0.068782937 13:0.23412611 16:-0.35576635 17:0.11926625 18:0.18604994 19:0.57709318 20:-0.30564145 21:0.24489547 22:-0.39752586 23:-0.19532185 24:-0.11145997 25:-0.20155411 26:-0.24535232 27:0.11296756 28:-0.32288596 29:-0.32254156 30:-0.24581488 31:-0.17237905 32:-0.093962689 33:0.088038348 34:0.13773008 35:0.041555311 36:-0.26236901 37:-0.1562371 38:0.42291686 39:0.30425239 
6.398388956871955 1:-0.22329282 2:-0.45850254 3:-0.16738701 4:0.19387968 5:-0.42940768 6:0.13060057 7:-0.29663534 8:0.46963889 9:0.088683919 10:0.43173752 11:-0.17264398 12:-0.15479332 13:0.0014030749 16:-0.23130671 17:0.001359164 18:0.20188784 19:0.021866043 20:-0.18096908 21:0.17606455 22:-0.22303371 23:-0.10176244 24:0.18507242 25:0.038796938 26:-0.10957469 27:0.0058635048 28:0.030937954 29:0.44157871 30:0.026336768 31:-0.11079885 32:0.056076385 33:0.058343258 34:0.26529748 35:-0.17652208 36:-0.38431292 37:-0.2868315 38:-0.43043292 39:-0.37263852 
3.096759610501997 1:0.060828775 2:0.27943351 3:-0.18449455 4:-0.53235297 5:-0.45708522 6:-0.37252112 7:-0.28774467 8:0.15226973 9:0.26901458 10:0.032796626 11:0.014146367 12:-0.15934739 13:0.26419824 16:-0.41874415 17:-0.072828796 18:0.24455047 19:0.5969113 20:-0.28947286 21:0.24182682 22:-0.47614698 23:0.013717131 24:-0.061641457 25:-0.2399216 26:-0.38150187 27:0.097259557 28:-0.33669898 29:0.20477646 30:-0.13252979 31:-0.091179924 32:0.046957698 33:0.047404042 34:0.14586983 35:-0.17805014 36:-0.29233851 37:-0.23883639 38:0.36480945 39:0.34313188 
1.006578822927647 1:0.090700324 2:0.61906241 3:0.24078869 4:-0.1421887 5:-0.25638252 6:-0.076956574 7:-0.046604255 8:0.11431519 9:0.049220459 10:-0.101032 11:-0.17207182 12:-0.44146003 13:-0.27482403 14:1 16:-0.39546856 17:-0.7936299 18:0.11122337 19:-0.066633831 20:0.35953923 21:-0.1019325 22:-0.34102773 23:0.17319793 24:-0.50129729 25:-0.22734315 26:-0.045923272 27:-0.22985236 28:0.34984255 29:0.092399781 30:-0.11520194 31:-0.21086752 32:0.29748993 33:-0.28646381 34:0.36394439 35:-0.24998761 36:0.034421378 37:-0.27463263 38:0.13228607 39:0.3808476 
2.100549937608581 1:0.3420999 2:0.59889741 3:0.20507491 4:-0.2987618 5:-0.51438756 6:-0.16281312 7:-0.056297085 8:0.015572467 9:0.02583084 10:0.0097591239 11:0.035263117 12:-0.65318646 13:-0.44387762 16:0.055475608 17:-0.58797171 18:-0.0094764215 19:0.48515824 20:-0.05855487 21:-0.10303839 22:-0.7987504 23:0.32737229 24:-0.43620263 25:-0.36858948 26:0.086950537 27:0.055137306 28:-0.27282676 29:0.41255288 30:-0.037679759 31:-0.059913448 32:-0.036500651 33:-0.010773096 34:0.19307538 35:-0.19668136 36:-0.22945974 37:-0.25967668 38:-0.28669301 39:0.48183718 
4.461645524663187 1:0.41970666 2:0.3342606 3:0.18838059 4:-0.15031816 5:-0.68973608 6:-0.44877207 7:-0.18783682 8:0.28793896 9:-0.044113035 10:-0.14412975 11:-0.13125233 12:-0.26545154 13:-0.1133863 16:-0.2745461 17:-0.12858787 18:-0.047987576 19:0.77358457 20:-0.22922355 21:-0.032023495 22:-0.66428082 23:-0.04035599 24:-0.58633943 25:-0.24777014 26:0.012279861 27:0.18741563 28:-0.23638383 29:0.34318548 30:-0.058454286 31:-0.15044834 32:-0.010855846 33:-0.01864761 34:0.28468056 35:-0.20913842 36:-0.30392405 37:-0.16220229 38:-0.18619052 39:0.56279766 
0.8113140181473405 1:0.11565742 2:0.52656223 3:0.2201765 4:-0.14065387 5:-0.50599236 6:-0.52408325 7:0.18350987 8:0.23164378 9:0.045988215 10:0.041091431 11:-0.17835848 12:-0.30913376 13:-0.26536511 16:-0.2927361 17:-0.54283165 18:-0.039170069 19:0.90450332 20:-0.24361364 21:-0.035704421 22:-0.62648237 23:0.092626353 24:-0.72731446 25:-0.14070027 26:-0.054215112 27:-0.076325188 28:0.42526428 29:0.37237962 30:-0.15929334 31:-0.21350158 32:-0.15912322 33:-0.18411736 34:-0.10222327 35:0.023198885 36:0.11212936 37:0.17026969 38:-0.39294049 39:0.60455908 
0.4610051900954879 1:0.13321016 2:-0.024424418 3:0.17941609 4:0.049223513 5:-0.85648331 6:-0.32686341 7:-0.32550954 8:0.29910799 9:-0.21089946 10:0.012865635 11:-0.25228278 12:-0.35553436 13:-0.40929206 16:0.48695106 17:-0.36786059 18:0.096588009 19:0.81568483 20:-0.38161964 21:-0.018731886 22:-0.65129746 23:0.27380034 24:-0.72350483 25:-0.24981251 26:0.00029442615 27:0.084310828 28:0.45162591 29:0.45496952 30:0.04827733 31:-0.10247857 32:0.061653182 33:0.046494881 34:0.27507253 35:-0.19473304 36:-0.37643584 37:-0.2890696 38:-0.700581 39:0.50913485 
4.492961851826731 1:0.11976063 2:0.21713869 3:0.22558124 4:0.01005883 5:-0.67214856 6:-0.16314253 7:-0.1927852 8:0.24932167 9:-0.10394767 10:0.16989481 11:0.01538591 12:-0.30479173 13:-0.20273685 16:0.67659129 17:-0.31551379 18:0.11716639 19:0.80094736 20:-0.49977444 21:0.099179896 22:-0.68578691 23:0.22807934 24:-0.46557395 25:-0.46079686 26:-0.044172847 27:-0.022761665 28:0.4031417 29:0.42928638 30:0.0054818546 31:-0.13984347 32:0.024501969 33:0.062937903 34:0.25095368 35:-0.17383931 36:-0.37381203 37:-0.22002358 38:-0.59005846 39:0.44595004 
0.6666517505694553 1:0.46497155 2:0.50185039 3:0.20238331 4:-0.17112699 5:-0.49042287 6:-0.21925955 7:-0.14932813 8:0.13701575 9:0.013694007 10:0.053988395 11:0.20280358 12:-0.14573305 13:0.10191952 16:-0.023330126 17:-0.070212501 18:-0.091552428 19:0.45026891 20:-0.40644748 21:0.17706762 22:-0.71324542 23:0.24919598 24:-0.52684521 25:-0.21498622 26:-0.067063205 27:0.020739347 28:-0.17718943 29:0.33401791 30:-0.091334551 31:-0.17123728 32:-0.013864232 33:0.079034479 34:0.20305275 35:-0.20121087 36:-0.32087714 37:-0.1540491 38:0.0017263968 39:0.39431859 
5.370245256570746 1:0.13293026 2:0.29483723 3:0.18374246 4:-0.021547587 5:-0.56061383 6:-0.20127929 7:-0.1643376 8:0.22998096 9:-0.061308332 10:0.1587438 11:0.095467547 12:-0.13132121 13:-0.0047739877 16:0.22818175 17:-0.12762498 18:-0.2275148 19:0.50310879 20:-0.57816671 21:0.19110377 22:-0.76277034 23:0.31674928 24:-0.55965022 25:-0.11777045 26:-0.092065338 27:0.029203085 28:0.15423787 29:0.38306689 30:-0.066228447 31:-0.15478744 32:-0.014892475 33:0.0059326566 34:0.22111318 35:-0.14009946 36:-0.31148802 37:-0.15291985 38:-0.37382328 39:0.38232503 
0.8580493373190807 1:0.49434839 2:0.70391574 3:0.21255545 4:-0.43628387 5:-0.4192084 6:-0.47476888 7:-0.26758518 8:-0.015114879 9:0.16907184 10:-0.27230593 11:-0.079418003 12:0.04864718 13:0.17954972 14:1 16:0.73756534 17:0.023976442 18:-0.18802698 19:0.12512852 20:-0.24282693 21:0.22175674 22:-0.71568975 23:-0.016952838 24:-0.43483931 25:-0.52159045 26:0.77363378 27:0.035673829 28:-0.94066647 29:0.01540838 30:0.052360692 31:-0.004845952 32:0.061523978 33:0.019111772 34:-0.049305578 35:-0.027475097 36:-0.10338618 37:-0.42398249 38:0.53487279 39:0.48321472 
0.8164088135966973 1:0.48121945 2:0.32819401 3:0.067146035 4:-0.33984179 5:-0.77400761 6:-0.60194186 7:-0.47589239 8:-0.14632203 9:-0.28800203 10:-0.39136919 11:-0.2998851 12:-0.39809308 13:-0.15099929 16:0.69600439 17:0.10564025 18:-0.32596123 19:0.015164192 20:-0.047916458 21:0.29639545 22:-0.73863789 23:0.0026112393 24:-0.37892163 25:-0.39669769 26:0.45195835 27:0.013494396 28:0.071805463 29:0.37117842 30:-0.04928628 31:-0.13312388 32:-0.040736758 33:0.073225366 34:0.21372538 35:-0.22240276 36:-0.32736527 37:-0.18636473 38:0.09026604 39:0.48120294 
0.6520694787782643 1:0.16601752 2:0.58735482 3:0.10568475 4:-0.23047405 5:-0.4095019 6:-0.67864446 7:-0.075366527 8:-0.0081395469 9:0.041083725 10:-0.00070884103 11:-0.25131159 12:-0.014300491 13:-0.0093130634 16:0.91593005 17:0.0003431057 18:-0.45927778 19:0.28514913 20:-0.46954379 21:0.21861624 22:-0.77078026 23:0.0051691976 24:-0.35015823 25:-0.53289887 26:0.34725087 27:-0.03044228 28:-0.36331565 29:0.35781175 30:-0.11186508 31:-0.24641905 32:-0.13551705 33:-0.14259811 34:-0.40976308 35:0.39432446 36:0.17460207 37:0.11026557 38:0.20299168 39:0.49104858 
1.207060606474447 1:0.40630556 2:0.69620821 3:0.076821432 4:-0.74792985 5:-0.52306413 6:-0.69798503 7:-0.5755905 8:-0.46674688 9:0.010444909 10:-0.71090776 11:-0.60725521 12:-0.25480528 13:-0.43600048 16:0.85166758 17:0.061948908 18:-0.37307119 19:0.11584556 20:-0.28737014 21:0.29071437 22:-0.78382941 23:0.015296616 24:-0.31270956 25:-0.46263604 26:0.88410447 27:-0.025495501 28:-0.77871576 29:-0.26704447 30:-0.20621915 31:0.42582105 32:0.12758048 33:0.092946866 34:-0.46528364 35:0.032937707 36:0.10751924 37:-0.72502599 38:0.58383911 39:0.48270537 
0.6759519139301315 1:0.470279 2:0.42441469 3:0.20972298 4:-0.12300328 5:-0.49250556 6:-0.27753509 7:-0.30193735 8:0.090122969 9:-0.016827356 10:0.070446918 11:0.080941347 12:-0.030713877 13:0.19544534 14:1 16:0.98105216 17:0.16947838 18:-0.35934482 19:0.097301788 20:-0.36784617 21:0.31014953 22:-0.49110005 23:-0.2227109 24:-0.13765402 25:-0.49137874 26:0.72555612 27:-0.041082315 28:-0.05872941 29:0.34487841 30:-0.042957666 31:-0.14164375 32:-0.016405171 33:0.056241915 34:0.22934336 35:-0.19072828 36:-0.28924651 37:-0.14745076 38:0.14136501 39:0.35440723 
1.248414580756146 1:0.14448758 2:0.13715088 3:0.2173559 4:0.055618866 5:-0.71620367 6:-0.22674204 7:-0.45201042 8:0.1446827 9:-0.1360962 10:0.15062438 11:-0.092278342 12:-0.16242445 13:0.088477629 16:0.96699792 17:0.12514942 18:-0.37202894 19:0.13069347 20:-0.41686892 21:0.20054426 22:-0.62988253 23:-0.30444382 24:0.0081340454 25:-0.46117275 26:0.34236572 27:-0.031811724 28:0.11257228 29:0.48362062 30:0.091126759 31:-0.090909563 32:0.056909794 33:0.079727712 34:0.26193172 35:-0.18560989 36:-0.38286794 37:-0.32365933 38:-0.47299741 39:0.38422056 
0.1974227692895853 1:0.47550137 2:0.47794478 3:0.18556579 4:-0.20868496 5:-0.47248375 6:-0.29113773 7:-0.37519308 8:-0.075763442 9:-0.028510899 10:0.00037572042 11:-0.0079709089 12:-0.089684681 13:0.28033323 16:0.99362344 17:0.21031232 18:-0.28798678 19:0.015674957 20:-0.29500503 21:0.28306403 22:-0.46562876 23:-0.019183084 24:-0.21496716 25:-0.43199571 26:0.52872957 27:-0.058591628 28:-0.3755623 29:0.40420486 30:0.0014804481 31:-0.12678164 32:0.017596982 33:0.0046656366 34:0.24306781 35:-0.18809865 36:-0.31875661 37:-0.18923032 38:0.36457702 39:0.31726629 
0.516587906385118 1:0.39229064 2:0.67207001 3:0.2392966 4:-0.40934595 5:-0.56415048 6:-0.41816458 7:-0.30380347 8:-0.17998985 9:-0.050272983 10:-0.25218149 11:-0.024474409 12:-0.15420109 13:0.21038602 14:-1 16:0.94319773 17:0.19965936 18:-0.20351932 19:0.043135091 20:-0.50697704 21:0.47393667 22:-0.55961713 23:-0.22368541 24:-0.26218996 25:-0.29414134 26:0.32510067 27:0.011164942 28:-0.46145811 29:0.26324116 30:-0.033903281 31:0.017704881 32:0.034268571 33:0.035210114 34:0.069860827 35:-0.18559363 36:-0.18813312 37:-0.36483399 38:0.40264597 39:0.47760036 
0.3425764369226299 1:0.45889499 2:0.64485624 3:0.17223123 4:-0.34061418 5:-0.61534254 6:-0.52594047 7:-0.35365738 8:-0.18867296 9:-0.12862358 10:-0.15360552 11:0.14042719 12:-0.24883039 13:0.046343133 14:-1 16:0.78319969 17:0.30905184 18:-0.31487187 19:0.10844858 20:-0.34628347 21:0.28120477 22:-0.52896337 23:-0.31235718 24:-0.11720691 25:-0.39277342 26:-0.094297198 27:0.059958178 28:-0.080371714 29:0.29155689 30:-0.13986528 31:-0.15219174 32:-0.047787691 33:0.1081222 34:0.070196254 35:-0.23283762 36:-0.17529522 37:-0.38583979 38:0.30267805 39:0.47960169 
0.5097363109807949 1:0.37355912 2:0.83364532 3:0.30007986 4:-0.57305033 5:-0.42931443 6:-0.3748654 7:-0.43375105 8:-0.25365427 9:0.25098277 10:-0.23889227 11:-0.072219 12:0.27990896 13:0.1030373 16:0.59397879 17:0.25402856 18:-0.31849354 19:0.084469225 20:-0.44072243 21:0.39995974 22:-0.55368579 23:-0.36917674 24:-0.090436198 25:-0.42916089 26:0.57909717 27:0.005692459 28:-0.77503635 29:-0.15278818 30:-0.31318146 31:0.82477934 32:0.069073987 33:0.10835807 34:-0.55042154 35:0.051819093 36:0.12604314 37:-0.46410033 38:0.43299289 39:0.48711707 
1.023719290701471 1:0.47001687 2:0.20198957 3:0.096463936 4:-0.072259264 5:-0.7615592 6:-0.57053978 7:-0.52667374 8:0.061346371 9:-0.19983708 10:-0.07085429 11:-0.1246537 12:-0.1326582 13:0.15176787 14:1 16:0.55114691 17:0.38371508 18:-0.23193559 19:0.13452658 20:-0.44399119 21:0.23989617 22:-0.42834118 23:-0.41152606 24:-0.085441603 25:-0.19495187 26:-0.022301563 27:0.037630037 28:0.22670525 29:0.36205915 30:-0.076650649 31:-0.17993924 32:0.0044817774 33:0.020493735 34:0.2313527 35:-0.20903677 36:-0.34533124 37:-0.18810845 38:-0.29925946 39:0.48597367 
0.2951859242380356 1:0.47562078 2:0.71646224 3:0.086721677 4:-0.38638323 5:-0.34282465 6:-0.68088452 7:-0.17344379 8:-0.16974623 9:0.060737722 10:0.042856815 11:0.096226773 12:0.25505066 13:0.33210107 16:0.17938795 17:0.32065497 18:-0.32074521 19:0.11658563 20:-0.59717638 21:0.30136635 22:-0.36470243 23:-0.12864349 24:-0.29533176 25:-0.28497592 26:0.34843508 27:-0.076189279 28:-0.15555231 29:0.20427742 30:-0.23704966 31:-0.23327646 32:-0.093687335 33:-0.0086607709 34:-0.54202729 35:0.25651059 36:0.19990972 37:-0.097798421 38:0.41390636 39:0.41617459 
0.6101110453803899 1:0.11944665 2:0.2007261 3:0.16116178 4:0.0014690185 5:-0.64240139 6:-0.28096117 7:-0.38473195 8:0.13744345 9:-0.13952905 10:0.16477506 11:0.19040818 12:0.11953971 13:0.34014429 14:-1 16:0.056695847 17:0.27367768 18:-0.41785821 19:0.12947163 20:-0.66761497 21:0.41613809 22:-0.39864856 23:-0.014028102 24:-0.42300066 25:-0.21243347 26:0.18291564 27:-0.069204893 28:0.28170923 29:0.387645 30:-0.022383318 31:-0.14530157 32:0.025095564 33:0.033095082 34:0.26491718 35:-0.19938257 36:-0.35001817 37:-0.20468147 38:-0.37431587 39:0.34731432 
1.226564519307586 1:0.11786245 2:-0.074976344 3:0.053559345 4:0.025424326 5:-0.81502406 6:-0.38996871 7:-0.51767651 8:0.13194826 9:-0.25306194 10:0.24197801 11:0.17145136 12:0.17235018 13:0.3281504 16:-0.48082421 17:0.3781693 18:-0.59139286 19:0.17706256 20:-0.68655772 21:0.39316954 22:-0.2670576 23:-0.45070324 24:-0.063411969 25:-0.23080724 26:-0.042359316 27:0.092130108 28:0.38650212 29:0.41967541 30:-0.0023211957 31:-0.13672633 32:0.033595759 33:0.036984533 34:0.26248789 35:-0.19072475 36:-0.35771162 37:-0.22896651 38:-0.62227587 39:0.29438627 
1.041276436035533 1:0.44473357 2:0.77070986 3:0.13244253 4:-0.48455185 5:-0.27021167 6:-0.47991886 7:-0.36185219 8:-0.22467734 9:0.1935181 10:-0.15730873 11:0.097437561 12:0.18358178 13:0.2920106 15:1 16:0.55380949 17:0.30863413 18:-0.29498749 19:0.132441 20:-0.59715941 21:0.27464109 22:-0.33434217 23:-0.084974963 24:-0.16734976 25:-0.38432191 26:0.93829528 27:-0.074797093 28:-0.88272337 29:-0.064129156 30:-0.20266472 31:0.094527026 32:0.036858034 33:0.013185823 34:-0.021157943 35:-0.28969266 36:0.044457859 37:-0.51759382 38:0.60065255 39:0.32264788 
0.5961371383988786 1:0.098515694 2:0.35899831 3:0.099113007 4:-0.17671554 5:-0.58958464 6:-0.44784635 7:-0.39243078 8:-0.019192503 9:-0.10783207 10:0.076585642 11:0.045370276 12:-0.067535545 13:0.27289321 16:0.23420839 17:0.32302241 18:-0.34688876 19:0.19119132 20:-0.74461162 21:0.51849242 22:-0.53410628 23:-0.27230545 24:-0.23577361 25:-0.13505335 26:0.026319814 27:-0.039985048 28:0.12270478 29:0.36989518 30:-0.066762259 31:-0.20159125 32:-0.017997496 33:-0.049129062 34:0.22437337 35:-0.14490489 36:-0.26307399 37:-0.09673175 38:-0.072205454 39:0.38181545 
0.09542874038933247 1:0.46068125 2:0.44843088 3:0.16358082 4:-0.13025529 5:-0.46491043 6:-0.33226037 7:-0.32556882 8:0.041235454 9:-0.047645539 10:-0.02896852 11:0.097429197 12:0.013692013 13:0.37878704 16:0.71902808 17:0.21036915 18:-0.23451969 19:0.16154319 20:-0.60353182 21:0.36389573 22:-0.37434915 23:-0.15851127 24:-0.12101449 25:-0.42144553 26:0.66721485 27:-0.073730724 28:-0.07864262 29:0.34135528 30:-0.094133459 31:-0.19553196 32:-0.011550666 33:0.051380978 34:0.2143997 35:-0.19179636 36:-0.34065898 37:-0.18906863 38:0.3283598 39:0.32386164 
0.803248750684577 1:0.10857133 2:0.32974087 3:0.20988357 4:-0.090969136 5:-0.62947185 6:-0.259154 7:-0.4065994 8:0.019617184 9:-0.17349043 10:-0.059199617 11:0.019514092 12:-0.052167872 13:0.32524723 15:-1 16:0.73063921 17:0.14554111 18:-0.5551407 19:0.22414257 20:-0.77519537 21:0.63747866 22:-0.49060335 23:-0.25168981 24:-0.18716333 25:-0.15203848 26:0.16453077 27:0.032636084 28:-0.36486888 29:0.48194844 30:0.039449478 31:-0.1464666 32:0.075867864 33:0.072922136 34:0.26019198 35:-0.2040161 36:-0.3678982 37:-0.29696269 38:-0.12106839 39:0.38806611 
0.486437476393173 1:0.11910768 2:0.66791708 3:0.28107908 4:-0.35131224 5:-0.45288043 6:-0.24125914 7:-0.46610766 8:-0.099947287 9:0.13524436 10:-0.13088028 11:0.094362377 12:0.024103653 13:0.55248404 16:0.65402535 17:0.17050607 18:-0.55806124 19:0.22769412 20:-0.68173291 21:0.57087021 22:-0.47367188 23:-0.30403518 24:-0.091684578 25:-0.35510336 26:0.5834473 27:-0.12107067 28:-0.78330387 29:0.19901742 30:0.24381837 31:-0.13229412 32:0.1870122 33:0.15584235 34:0.19263822 35:-0.21649366 36:-0.28182043 37:-0.59558639 38:0.52867719 39:0.43115685 
0.01366555024105829 1:0.13105427 2:0.53719053 3:0.20815731 4:-0.24045384 5:-0.52518603 6:-0.28686072 7:-0.32421259 8:-0.16382355 9:-0.13847135 10:-0.022667836 11:0.10944779 12:-0.052480438 13:0.38615921 16:0.78334855 17:0.1403708 18:-0.59241033 19:0.16390156 20:-0.78084717 21:0.43013733 22:-0.20975489 23:-0.27875543 24:-0.18095407 25:-0.26536516 26:0.189865 27:-0.11597137 28:-0.16186766 29:0.46386335 30:-0.071724097 31:-0.083578863 32:0.0018421395 33:-0.041288312 34:0.23426843 35:-0.14962547 36:-0.22852318 37:-0.23964133 38:0.10603193 39:0.37239186 
0.5034285444865734 1:0.48338705 2:0.79403356 3:0.21728205 4:-0.39699908 5:-0.36409127 6:-0.48589891 7:-0.27251816 8:-0.18637045 9:0.03704193 10:-0.2008097 11:0.14173026 12:0.14245946 13:0.20575316 15:-1 16:0.87762757 17:0.20229625 18:-0.47648116 19:0.086396016 20:-0.46229117 21:0.41319487 22:-0.41036243 23:0.11111668 24:-0.33863452 25:-0.40108991 26:0.52812425 27:-0.053843264 28:-0.51560316 29:0.073865987 30:-0.19829393 31:-0.12337585 32:0.085439077 33:0.070720375 34:-0.30179388 35:-0.08955623 36:0.1088432 37:-0.55586522 38:0.48189251 39:0.422893 
0.4258351888652179 1:0.35207444 2:0.96029507 3:0.3919055 4:-0.5283973 5:-0.45011556 6:-0.12373196 7:-0.21088916 8:-0.42705942 9:0.10033912 10:-0.036319011 11:0.099998521 12:-0.027812381 13:-0.041046246 16:0.97624542 17:0.18260672 18:-0.44440913 19:0.24682873 20:-0.65636339 21:0.29846735 22:-0.27832562 23:-0.13193578 24:-0.20108357 25:-0.44811679 26:-0.051552103 27:-0.14534138 28:-0.59929244 29:0.35421131 30:-0.088916171 31:0.29345725 32:0.17709138 33:0.11122964 34:-0.63545022 35:0.14553033 36:0.18306821 37:-0.70469652 38:0.46895524 39:0.35576956 
0.6770616452403112 1:0.10046497 2:-0.0059769047 3:0.26642063 4:0.23288071 5:-0.76113144 6:-0.1841773 7:-0.39583344 8:0.21863174 9:-0.31487765 10:0.19476211 11:0.041163675 12:-0.024385742 13:-0.13470519 15:1 16:0.96483216 17:0.08970363 18:-0.66986482 19:0.29861811 20:-0.58952759 21:0.32839391 22:-0.38913642 23:0.11673233 24:-0.24544586 25:-0.41614828 26:0.15523726 27:0.10413329 28:0.49687524 29:0.47283379 30:0.061485239 31:-0.10079101 32:0.054312727 33:0.070729154 34:0.26879819 35:-0.18960856 36:-0.38802984 37:-0.29715823 38:-0.75681658 39:0.29640278 
0.595045818602956 1:0.42868127 2:0.44186779 3:0.24171073 4:0.025814818 5:-0.43136909 6:-0.109483 7:-0.14417997 8:0.12608372 9:-0.10337944 10:0.058859226 11:0.20730713 12:-0.028758898 13:0.16664093 16:0.66579715 17:-0.11555419 18:-0.45418697 19:0.29051367 20:-0.52550418 21:0.58495 22:-0.48434197 23:0.26944194 24:-0.35851694 25:-0.55697887 26:0.21243384 27:-0.058027515 28:0.1380641 29:0.33924064 30:-0.073622134 31:-0.16509208 32:-0.0014468307 33:-0.016668712 34:0.2384947 35:-0.1789279 36:-0.35288919 37:-0.19304746 38:-0.11815884 39:0.29384207 
0.4406545915087758 1:0.12092225 2:0.36353716 3:0.27683143 4:-0.034269717 5:-0.60049541 6:-0.1093088 7:-0.17932117 8:0.071602209 9:-0.21793546 10:0.055025668 11:0.25033051 12:-0.071283887 13:0.039615669 16:0.75118332 17:0.061812098 18:-0.74405012 19:0.34989043 20:-0.58174624 21:0.51887446 22:-0.42407161 23:0.28556786 24:-0.37861691 25:-0.36000817 26:0.29501989 27:-0.095936756 28:0.33783659 29:0.42317786 30:-0.0063320348 31:-0.15345629 32:0.060331074 33:0.045622964 34:0.25445279 35:-0.18516115 36:-0.33317552 37:-0.28033361 38:-0.47845239 39:0.30053419 
0.07527005084360666 1:0.35959041 2:0.66935508 3:0.26694081 4:-0.15913994 5:-0.34519164 6:-0.16589621 7:-0.097797624 8:0.0069281707 9:-0.014700601 10:-0.050279875 11:0.24720936 12:-0.030709076 13:0.22289612 16:0.71396179 17:-0.072788483 18:-0.50347069 19:0.34396102 20:-0.57380418 21:0.6061104 22:-0.47658925 23:0.30483738 24:-0.39620134 25:-0.56529617 26:0.54090196 27:-0.076484652 28:-0.32926501 29:0.28490011 30:-0.089861094 31:-0.14413868 32:0.017930534 33:-0.036909249 34:0.19349556 35:-0.17408897 36:-0.26022703 37:-0.29516942 38:0.35056549 39:0.29789617 
2.130938772062534 1:0.41209396 2:0.12643902 3:0.1401006 4:0.098733685 5:-0.53231007 6:-0.18935695 7:-0.3636777 8:0.079618473 9:-0.26004207 10:0.13676365 11:0.15564743 12:0.021639671 13:0.030779982 16:0.69737697 17:0.053794495 18:-0.50604635 19:0.32658928 20:-0.5858211 21:0.33679654 22:-0.43369221 23:0.51311356 24:-0.3628276 25:-0.20070435 26:0.003066698 27:0.011027033 28:0.24116456 29:0.38460427 30:-0.057924359 31:-0.17620422 32:-0.0077130703 33:0.047443988 34:0.23728909 35:-0.18312631 36:-0.33715481 37:-0.15012334 38:-0.44216376 39:0.11628478 
1.036378859234954 1:0.099054916 2:-0.15722751 3:0.074976317 4:0.18723745 5:-0.66012814 6:-0.19419599 7:-0.53200023 8:0.092327525 9:-0.3513151 10:0.1855672 11:0.059211002 12:0.070620058 13:0.00080839408 14:1 16:0.62564355 17:0.030367642 18:-0.53816575 19:0.30581158 20:-0.65825397 21:0.50934772 22:-0.45264002 23:0.57766814 24:-0.3409342 25:-0.047876363 26:0.0099916137 27:0.028414968 28:0.3655307 29:0.43301379 30:0.011290541 31:-0.12488231 32:0.042015895 33:0.061910954 34:0.26270336 35:-0.18831428 36:-0.37707771 37:-0.2532949 38:-0.62832004 39:-0.0036379668 
0.7391022431064431 1:0.34247268 2:0.78500632 3:0.14165477 4:-0.46823201 5:-0.33322495 6:-0.36042304 7:-0.20574443 8:-0.3735096 9:0.0028722799 10:-0.17243385 11:0.15495413 12:-0.046686816 13:0.030915671 16:0.46967874 17:0.05831494 18:-0.46393486 19:0.28819089 20:-0.60446143 21:0.42121841 22:-0.45650596 23:0.55789834 24:-0.39386271 25:-0.31499775 26:0.23366555 27:-0.119312 28:-0.37400765 29:0.17268951 30:-0.14379634 31:-0.18680789 32:0.32175401 33:-0.17408149 34:0.029730435 35:-0.60206383 36:0.31707134 37:-0.76811704 38:0.57927099 39:0.21926509 
0.4917265517054104 1:0.38692807 2:0.234114 3:0.19291784 4:0.023536294 5:-0.58478881 6:-0.20134095 7:-0.30170177 8:0.042740392 9:-0.26560062 10:0.14725719 11:0.23249086 12:-0.059823886 13:-0.075932918 16:0.18794933 17:0.18561531 18:-0.85625235 19:0.55679419 20:-0.75382133 21:0.18452031 22:-0.15652255 23:0.12227818 24:-0.3462081 25:-0.43815619 26:-0.054953438 27:-0.045657203 28:0.41278169 29:0.39575321 30:-0.044590554 31:-0.18004549 32:-0.016395266 33:0.050767636 34:0.24352892 35:-0.17747359 36:-0.32061595 37:-0.17017777 38:-0.51977371 39:0.19688697 
1.368890630124665 1:0.11654744 2:-0.1265573 3:0.14517469 4:0.18920406 5:-0.70898392 6:-0.12025385 7:-0.42874507 8:0.13537537 9:-0.35422372 10:0.21620838 11:0.12993373 12:0.038576846 13:-0.12521584 16:0.4175152 17:0.006125444 18:-0.4687172 19:0.38081403 20:-0.73578164 21:0.394308 22:-0.47239477 23:0.51192633 24:-0.3758482 25:-0.33125277 26:0.020242745 27:0.045346633 28:0.4659994 29:0.46920344 30:0.055338974 31:-0.10351324 32:0.06185669 33:0.070287417 34:0.27002816 35:-0.19244693 36:-0.38957216 37:-0.29624925 38:-0.73585956 39:0.088339441 
0.6413337540390178 1:0.41533992 2:0.60068454 3:0.17626031 4:-0.23270289 5:-0.35922449 6:-0.28151361 7:-0.2679657 8:-0.14905241 9:-0.033475284 10:0.090803216 11:0.25293017 12:-0.15609279 13:-0.12133565 15:-1 16:0.094511226 17:0.19084609 18:-0.77020097 19:0.58649077 20:-0.75435477 21:0.22451207 22:-0.39976339 23:0.3848569 24:-0.29615123 25:-0.46663146 26:0.30127861 27:-0.12673024 28:-0.24443598 29:0.30415566 30:-0.12586721 31:-0.17307768 32:0.061112687 33:-0.11346061 34:0.22132511 35:-0.20130727 36:-0.16346063 37:-0.15425756 38:0.24178622 39:0.19774787 
3.251345100078208 1:0.37886653 2:0.48176209 3:0.24244311 4:0.019706526 5:-0.3352099 6:-0.087593329 7:-0.19258864 8:0.087625817 9:-0.014769852 10:0.28358976 11:0.25082425 12:-0.20919196 13:-0.044981528 16:0.030998785 17:-0.21061768 18:-0.51739214 19:0.78845593 20:-0.8732305 21:0.17136759 22:-0.42705073 23:0.58101269 24:-0.36388056 25:-0.47889374 26:0.0084709926 27:-0.19522099 28:0.2884543 29:0.39303568 30:-0.12945392 31:-0.19117355 32:-0.12283294 33:0.10593547 34:0.24112538 35:-0.19830819 36:-0.30518831 37:-0.1232985 38:-0.15334921 39:0.20546631 
0.7719808338882968 1:0.12666861 2:0.67438128 3:0.25378496 4:-0.35461286 5:-0.35849995 6:-0.13873166 7:-0.33926646 8:-0.20644034 9:0.080402701 10:0.0020218099 11:0.16880373 12:-0.18165434 13:-0.034027586 16:0.14578592 17:0.026010086 18:-0.65298824 19:0.50278722 20:-0.66117909 21:0.27383486 22:-0.51006933 23:0.48993697 24:-0.33913716 25:-0.51140206 26:0.44124646 27:-0.11253445 28:-0.81941774 29:0.47723901 30:0.050776146 31:-0.086391411 32:0.11869455 33:0.025478715 34:0.27950704 35:-0.23265061 36:-0.24493757 37:-0.42730073 38:0.50683011 39:0.20105121 
0.8792648612126249 1:0.32779374 2:0.35769861 3:0.22501493 4:0.10542072 5:-0.40394492 6:-0.0648003 7:-0.21143771 8:0.1444725 9:-0.068443701 10:0.26826416 11:0.23134076 12:-0.15942024 13:-0.1151155 15:-1 16:0.009654834 17:-0.26063094 18:-0.26820347 19:0.58163695 20:-0.78269355 21:0.26539762 22:-0.46439364 23:0.56722647 24:-0.32658597 25:-0.45885779 26:-0.020141764 27:-0.12605791 28:0.23543202 29:0.39181052 30:-0.096984399 31:-0.17002502 32:-0.059975099 33:0.057112624 34:0.24306373 35:-0.21037345 36:-0.33032692 37:-0.17825032 38:-0.36720109 39:0.21053602 
5.87372111465634 1:0.34088139 2:0.097656944 3:0.18374986 4:0.3242133 5:-0.40641917 6:0.078353462 7:-0.12557721 8:0.48101859 9:-0.017490046 10:0.34355823 11:-0.073500713 12:-0.22962238 13:-0.40931248 16:-0.26303408 17:-0.86380686 18:-0.57799867 19:0.45338111 20:-0.38288069 21:-0.076451774 22:-0.11156514 23:-0.1299582 24:-0.17207083 25:-0.19351325 26:-0.1092766 27:0.070499473 28:0.32886162 29:0.38191649 30:-0.059834926 31:-0.17592183 32:0.0049210876 33:0.00071516399 34:0.2502091 35:-0.18334028 36:-0.35641651 37:-0.15928648 38:-0.59357013 39:0.2688925 
8.433088740080608 1:0.084465144 2:-0.058577374 3:0.28805191 4:0.31061279 5:-0.7201654 6:-0.064755203 7:-0.22936028 8:0.45382833 9:-0.17095664 10:0.31140089 11:0.097962282 12:0.061334991 13:-0.11974653 16:-0.11911126 17:0.15155157 18:0.09518753 19:0.30622405 20:-0.25334752 21:-0.06351069 22:-0.28218713 23:0.090288172 24:-0.35857014 25:-0.029981565 26:0.060828628 27:0.139778 28:0.48615141 29:0.48471051 30:0.074202684 31:-0.096795061 32:0.058910403 33:0.083508749 34:0.25917793 35:-0.18032452 36:-0.40176355 37:-0.2968964 38:-0.77645169 39:0.25602306 
13.39390237869309 1:0.2589008 2:0.38760226 3:0.30196627 4:0.13120095 5:-0.4974301 6:-0.096465637 7:-0.040350766 8:0.38155296 9:0.017312713 10:0.20275258 11:0.10687683 12:-0.17854217 13:-0.021824223 16:-0.40616079 17:-0.11158007 18:-0.11126119 19:0.37743323 20:-0.17319376 21:-0.066930345 22:-0.24174623 23:-0.41061145 24:-0.12406039 25:-0.39598909 26:-0.18682385 27:0.14101582 28:0.24091901 29:0.37270658 30:-0.068512082 31:-0.17292713 32:0.016431428 33:-0.056341318 34:0.27569188 35:-0.17166108 36:-0.36936211 37:-0.1543235 38:-0.53688806 39:0.48273149 
1.587056426596303 1:0.3291457 2:0.68822471 3:0.23924634 4:-0.19531408 5:-0.33493653 6:-0.35182618 7:-0.14920625 8:0.019750611 9:0.1340228 10:0.12525011 11:0.098370646 12:-0.025508002 13:0.20709101 16:-0.54414688 17:0.2099187 18:0.036102569 19:0.22913254 20:-0.68157514 21:0.49916381 22:-0.16871327 23:-0.70559275 24:-0.018237548 25:-0.49504013 26:0.28559875 27:-0.18712685 28:0.12513976 29:0.38025115 30:-0.23130183 31:-0.22999088 32:0.25597834 33:-0.2875135 34:0.098753697 35:0.021171399 36:0.013929963 37:-0.17588382 38:0.3458966 39:0.42654194 
2.256248846804966 1:0.28805114 2:0.26041835 3:0.22168771 4:0.10116236 5:-0.54147064 6:-0.18447096 7:-0.21023183 8:0.22894207 9:-0.1660299 10:0.060252745 11:-0.041172325 12:-0.29180562 13:-0.34410147 16:-0.1295464 17:-0.5815496 18:-0.14096026 19:0.61933518 20:-0.47629967 21:-0.13239296 22:-0.22162386 23:0.5296749 24:-0.35404841 25:-0.35285108 26:-0.0036776652 27:0.08673129 28:0.26896579 29:0.36257283 30:-0.07173527 31:-0.16367182 32:-0.050474312 33:0.046006934 34:0.24389385 35:-0.18057845 36:-0.32003875 37:-0.22005221 38:-0.32759702 39:0.34927767 
1.60742474106939 1:0.15761599 2:0.10268956 3:0.17029533 4:0.24731305 5:-0.44790798 6:-0.011886153 7:-0.19701271 8:0.3088254 9:-0.14241872 10:0.23972441 11:0.015865595 12:-0.17384728 13:-0.23923684 16:-0.24249768 17:-0.7288038 18:0.37616259 19:0.74411582 20:-0.48886011 21:-0.14436984 22:-0.16841795 23:0.36424753 24:-0.29984855 25:-0.14946617 26:-0.14882214 27:0.11561245 28:0.33746514 29:0.37549913 30:-0.065874488 31:-0.16868076 32:-0.037415312 33:0.043069478 34:0.23726578 35:-0.18248031 36:-0.34101313 37:-0.1915049 38:-0.56281914 39:0.34538773 
1.698624945104271 1:0.17013134 2:0.5520232 3:0.29471082 4:-0.28044246 5:-0.63502853 6:-0.21535701 7:-0.17686594 8:-0.22967442 9:-0.34338913 10:-0.27938476 11:-0.026894901 12:-0.32274229 13:-0.27728744 16:-0.38552547 17:-0.45385301 18:0.018334479 19:0.058776354 20:-0.37458613 21:-0.017224217 22:-0.017910483 23:0.13967485 24:-0.41785537 25:-0.56529175 26:0.43988721 27:-0.1276822 28:0.41606375 29:0.4434348 30:0.10425396 31:-0.31093037 32:0.47940473 33:-0.2100143 34:0.24568253 35:-0.16162231 36:-0.055647921 37:-0.43338711 38:-0.20806893 39:0.27810205 
1.396257299919054 1:0.059805838 2:0.62212836 3:0.41422702 4:-0.071186477 5:-0.55713796 6:-0.12861094 7:-0.031025335 8:0.1399486 9:-0.1115251 10:0.08168748 11:0.38981811 12:-0.16205516 13:-0.043802186 16:-0.092837183 17:-0.49346026 18:0.15821592 19:0.28571489 20:-0.37144528 21:0.010575534 22:-0.42435791 23:0.45859602 24:-0.54117907 25:-0.67985997 26:-0.070031535 27:0.047710112 28:0.28236364 29:0.38557548 30:-0.10006748 31:-0.11874104 32:0.051657028 33:0.0041497557 34:0.28294566 35:-0.33815563 36:-0.15250841 37:-0.35652905 38:-0.50297099 39:0.37761681 
2.873715499871589 1:-0.8250613 2:-0.14601139 3:0.0932578 4:0.19244867 5:-0.52584602 6:-0.049570941 7:-0.35889897 8:0.32109018 9:-0.090335243 10:0.37018693 11:-0.041734658 12:0.13115996 13:0.12314879 16:-0.8125722 17:0.5326301 18:-0.47622464 19:0.075178118 20:0.0096287913 21:-0.32221331 22:0.071370059 23:-0.097782655 24:-0.21036562 25:0.031112887 26:-0.037911866 27:-0.071244163 28:0.085999837 29:0.43829266 30:-0.062357188 31:0.022456048 32:0.0083741353 33:-0.0024154802 34:0.23529224 35:0.063059612 36:-0.42530272 37:-0.028090461 38:-0.67852657 39:-0.083288754 
3.159038185611125 1:-0.47129872 2:0.2801323 3:0.24943543 4:-0.074799134 5:-0.41708521 6:0.11794096 7:-0.41100193 8:0.12484961 9:0.077475168 10:0.21035127 11:0.083175844 12:0.07287609 13:0.39538022 16:0.18219693 17:0.20800465 18:0.26278214 19:-0.27641201 20:-0.20938622 21:0.13179532 22:-0.108966 23:-0.21595421 24:-0.21815541 25:-0.20738957 26:-0.030106027 27:-0.26634132 28:-0.2782147 29:0.37539884 30:-0.20084031 31:0.26077074 32:0.055414353 33:0.12902382 34:0.37882894 35:-0.27649613 36:-0.4615447 37:0.029571659 38:-0.35324743 39:0.18065136 
12.4560791693153 1:-0.084539666 2:0.32716908 3:0.45546595 4:0.46438709 5:-0.35318602 6:-0.057934962 7:-0.32890747 8:0.34938259 9:-0.01626258 10:0.38334154 11:0.05416615 12:0.013978529 13:0.090621509 16:-0.74649417 17:0.17192153 18:0.068307577 19:-0.3657017 20:-0.23132435 21:-0.20562208 22:-0.22990013 23:0.065677442 24:-0.25338275 25:-0.1333222 26:0.079622231 27:-0.12305201 28:0.21604582 29:0.44309052 30:-0.011477036 31:-0.15814891 32:-0.046200361 33:0.046102835 34:0.2924984 35:-0.24951814 36:-0.36224384 37:-0.11479198 38:-0.44917116 39:0.17671391 
1.881853735125999 1:0.11946681 2:0.69515057 3:0.59210948 4:0.26241898 5:-0.30734262 6:-0.16449121 7:-0.40245697 8:0.11747908 9:0.043271113 10:0.059097696 11:0.021955517 12:0.073590281 13:0.19146689 16:-0.91870965 17:0.71865435 18:-0.12700416 19:-0.33729549 20:0.015975839 21:-0.10521789 22:-0.31183861 23:-0.16429099 24:-0.020651612 25:-0.30407405 26:-0.012792064 27:0.014547451 28:-0.18962214 29:0.29878136 30:-0.11243323 31:-0.15363469 32:0.26391455 33:-0.038512917 34:0.19734191 35:-0.1609147 36:-0.12250575 37:-0.5343467 38:0.024035298 39:0.5989674 
1.305332192868188 1:-0.30366547 2:0.48661717 3:0.43691461 4:0.40247111 5:-0.25611445 6:-0.21915532 7:-0.21720012 8:0.29589053 9:0.0018485664 10:0.33621128 11:0.02990893 12:0.037838054 13:0.12264014 16:-0.59685032 17:0.066149947 18:0.029737429 19:-0.2611571 20:-0.21446588 21:-0.24311076 22:-0.17606912 23:-0.027399763 24:-0.32580557 25:-0.0062631792 26:0.073601133 27:-0.18370613 28:0.26136427 29:0.41242407 30:-0.083864918 31:-0.25859967 32:-0.19357429 33:-0.022770123 34:0.21652159 35:-0.37290943 36:-0.12705405 37:0.08457223 38:-0.31783629 39:0.24959323 
3.59348051357745 1:0.31800975 2:0.22827785 3:0.31851977 4:0.36635263 5:-0.43367722 6:-0.15672886 7:-0.49701969 8:-0.040949125 9:-0.50170585 10:-0.13343378 11:-0.18513642 12:-0.0064432752 13:0.20338283 16:0.32250935 17:0.025568307 18:-0.22150253 19:-0.32590716 20:0.52818213 21:-0.068903126 22:0.1310682 23:-0.054559247 24:-0.29566081 25:-0.17517593 26:-0.065920897 27:0.025260766 28:0.36816023 29:0.38025888 30:-0.059743001 31:-0.16959953 32:-0.0038938161 33:-0.0014126457 34:0.26217817 35:-0.22261501 36:-0.30955599 37:-0.21148637 38:-0.62546319 39:0.55104025 
2.965338921557564 1:0.19969146 2:0.19930884 3:0.26820969 4:0.34386289 5:-0.44212737 6:-0.11306302 7:-0.4173796 8:0.12374494 9:-0.33581978 10:0.076472295 11:-0.068869135 12:0.010391445 13:0.1401819 16:0.21394616 17:-0.043780091 18:-0.16053137 19:0.04624183 20:0.073302018 21:-0.10365948 22:-0.034743565 23:-0.019364419 24:-0.26455776 25:-0.1354155 26:-0.083438777 27:0.015712281 28:0.36296453 29:0.37841361 30:-0.0636975 31:-0.17208301 32:-0.036677516 33:0.035521766 34:0.25136376 35:-0.22105739 36:-0.30358824 37:-0.22337028 38:-0.63748035 39:0.52407376 
0.8506605293569192 1:0.33043804 2:0.77304473 3:0.48409447 4:-0.26373674 5:-0.63967284 6:-0.021398633 7:-0.19041015 8:-0.38658538 9:-0.25336193 10:-0.16638533 11:-0.017432786 12:-0.20579686 13:0.31457377 16:0.35571841 17:0.054184552 18:-0.14031383 19:-0.1305832 20:-0.077104877 21:-0.04605784 22:0.31649353 23:-0.34178027 24:-0.1975773 25:-0.45636307 26:-0.32661425 27:-0.28503516 28:0.083412775 29:0.67672929 30:0.19075712 31:-0.052710852 32:0.1690091 33:0.012164578 34:0.068795035 35:-0.18063045 36:-0.062114124 37:-0.57474444 38:-0.2930708 39:0.40483293 
0.6634614856400788 1:-0.01393904 2:0.4665726 3:0.45119684 4:-0.09066707 5:-0.76616726 6:0.057324579 7:-0.10771617 8:-0.12973763 9:-0.3114519 10:0.19252854 11:0.29738251 12:-0.31166509 13:0.17268206 16:-0.16488148 17:0.16572434 18:-0.048247232 19:-0.070805391 20:-0.092077679 21:-0.086615719 22:0.054758784 23:-0.16978877 24:-0.26879737 25:-0.45898941 26:-0.46805134 27:-0.37199934 28:0.8666779 29:0.64770089 30:0.21357647 31:-0.039571264 32:-0.11415335 33:0.27018319 34:0.21627718 35:-0.17593601 36:-0.48889977 37:-0.21203036 38:-0.9496012 39:0.36747862 
1.885004604022531 1:0.39778996 2:0.25538858 3:0.30043042 4:0.21598589 5:-0.46191547 6:-0.052780187 7:-0.21834138 8:0.13396535 9:-0.29569743 10:0.044129712 11:0.088045191 12:0.093748133 13:0.31581725 16:-0.65638779 17:0.55376182 18:-0.33342517 19:0.36608205 20:-0.044587256 21:0.082301963 22:0.20904925 23:-0.36171237 24:0.095650658 25:-0.51807944 26:-0.038812947 27:-0.013428512 28:0.38062863 29:0.3904389 30:-0.03941296 31:-0.18197869 32:0.011251539 33:0.033867112 34:0.23779281 35:-0.15981019 36:-0.32735668 37:-0.17982535 38:-0.52920966 39:0.28055562 
1.022562977845895 1:0.44328552 2:0.27847425 3:0.29251354 4:0.20577925 5:-0.53832076 6:-0.20820396 7:-0.29423313 8:0.16394576 9:-0.23558371 10:0.04942178 11:0.13005624 12:0.18939235 13:0.55278816 16:-0.34673176 17:0.47741912 18:0.037163812 19:-0.885283 20:0.53899175 21:0.29188987 22:-0.38985775 23:-0.25363489 24:-0.13969419 25:-0.21479492 26:-0.096466346 27:0.01045144 28:0.3749958 29:0.37379689 30:-0.049435504 31:-0.1775852 32:0.010593433 33:-0.0064501034 34:0.25283993 35:-0.19871371 36:-0.355318 37:-0.18093569 38:-0.62613634 39:0.55636186 
3.980586124733118 1:0.13098779 2:0.27703792 3:0.32188343 4:0.308593 5:-0.39330636 6:-0.15284447 7:-0.17687897 8:0.28438051 9:-0.17329347 10:0.10168631 11:0.015926796 12:0.16521508 13:0.40842523 16:-0.55021266 17:0.46783363 18:-0.25908586 19:0.13832277 20:-0.15880703 21:0.10831396 22:0.049007461 23:-0.36140377 24:-0.21719588 25:0.042085288 26:-0.087647953 27:0.014584558 28:0.36492224 29:0.36621763 30:-0.096975556 31:-0.19034553 32:-0.075123057 33:-0.013851729 34:0.21845649 35:-0.17732607 36:-0.28568935 37:-0.020390439 38:-0.46213125 39:0.26246416 
5.905924018057117 1:0.34657601 2:0.16879546 3:0.27401703 4:0.31420513 5:-0.49083047 6:-0.13759537 7:-0.30328005 8:0.28281462 9:-0.17800983 10:0.18180869 11:0.062629704 12:0.17011554 13:0.39178938 16:-0.65196459 17:0.63262397 18:-0.075769436 19:-0.36627694 20:-0.13435239 21:0.23066205 22:-0.21389651 23:-0.24998165 24:-0.080901951 25:-0.080513765 26:-0.090239254 27:0.025153748 28:0.3782454 29:0.38439456 30:-0.04886879 31:-0.16715018 32:-0.015580308 33:0.016810091 34:0.25106037 35:-0.18418176 36:-0.34300716 37:-0.18536694 38:-0.59677095 39:0.47374988 
1.464723135413207 1:0.38855841 2:0.82813782 3:0.41327495 4:-0.48441108 5:-0.38074382 6:-0.21981689 7:-0.40556979 8:-0.21765886 9:0.21960012 10:-0.34900818 11:-0.18491798 12:0.39865967 13:0.65152991 16:-0.32955846 17:0.65440587 18:-0.07656099 19:-0.40429345 20:0.10120953 21:0.17850393 22:-0.15278858 23:-0.31200517 24:-0.1669252 25:-0.60344364 26:0.59219061 27:-0.18678351 28:-0.6384032 29:-0.0082891103 30:0.56666414 31:0.11730112 32:0.094890401 33:0.2194312 34:-0.10713309 35:-0.048824771 36:0.036094318 37:-0.18446338 38:0.37564454 39:0.45941326 
1.924438193559511 1:0.48637221 2:0.69840114 3:0.24318907 4:-0.24361896 5:-0.36952402 6:-0.4801903 7:-0.12493348 8:-0.025847122 9:0.067939221 10:-0.068813525 11:0.13502851 12:0.31625859 13:0.96001617 16:-0.73450764 17:0.55120037 18:-0.07970999 19:-0.39124011 20:0.2722065 21:0.1893022 22:-0.038524489 23:-0.46137395 24:-0.35824912 25:0.043473408 26:0.32474441 27:-0.3336974 28:0.51031585 29:0.30296515 30:-0.26919495 31:-0.37425667 32:0.097607585 33:-0.016524921 34:0.024854339 35:-0.087497566 36:-0.039435771 37:-0.14265508 38:0.40344032 39:0.44054293 
5.263799644830076 1:0.19197889 2:-0.10588947 3:0.27506532 4:0.36753618 5:-0.69309955 6:-0.16827209 7:-0.41784646 8:0.30945256 9:-0.32610368 10:0.04763976 11:-0.16918017 12:0.21195471 13:0.43490554 16:-0.034574334 17:0.41386026 18:-0.20094516 19:-0.17796308 20:0.11203161 21:0.25380097 22:-0.12034411 23:-0.45420755 24:-0.36233966 25:0.17087549 26:0.051335792 27:0.0063965227 28:0.4917936 29:0.47698628 30:0.059133053 31:-0.099530879 32:0.063409155 33:0.053828479 34:0.27268208 35:-0.18912341 36:-0.38588374 37:-0.29330937 38:-0.74292221 39:0.21749968 
0.927676209008779 1:0.17842269 2:0.14622831 3:0.3194941 4:0.19634288 5:-0.68920073 6:-0.19696045 7:-0.34740548 8:0.18759286 9:-0.29682803 10:0.052451104 11:0.045735268 12:0.099381597 13:0.41053496 14:-1 16:-0.0008339741 17:0.51507484 18:-0.17755421 19:-0.30814686 20:0.16358801 21:0.20483116 22:-0.1852102 23:-0.45020026 24:0.22302868 25:-0.34385736 26:-0.097523134 27:0.14187771 28:0.41924594 29:0.43849312 30:0.035173112 31:-0.11993895 32:0.026252224 33:0.076491671 34:0.27783043 35:-0.18393229 36:-0.40155282 37:-0.26250729 38:-0.67730807 39:0.40614643 
1.157177115638083 1:0.44438668 2:0.12600558 3:0.25739862 4:0.26864276 5:-0.56978586 6:-0.27624602 7:-0.40340449 8:0.21201539 9:-0.23110762 10:0.10603465 11:0.069160277 12:0.2432045 13:0.50895474 16:-0.64548435 17:0.75101492 18:-0.057501242 19:-0.53237068 20:-0.46247327 21:0.11401017 22:-0.079252348 23:-0.31236265 24:-0.27673995 25:0.10261562 26:-0.029150268 27:0.0061970703 28:0.38342353 29:0.38961705 30:-0.04898051 31:-0.1647633 32:-0.024992485 33:0.041478401 34:0.24208928 35:-0.19656786 36:-0.34042092 37:-0.1680644 38:-0.59578546 39:0.363082 
0.7284166294267654 1:0.47244468 2:0.094163723 3:0.1817838 4:0.088573983 5:-0.7097028 6:-0.40525358 7:-0.45249255 8:0.068332146 9:-0.39318688 10:-0.10917523 11:-0.013586494 12:0.18393115 13:0.44790108 14:1 16:-0.32091333 17:0.62877903 18:-0.17026447 19:-0.18535361 20:-0.036519947 21:0.38715721 22:-0.21318723 23:-0.27252536 24:-0.32800914 25:-0.2046846 26:0.00068773401 27:0.032409052 28:0.38931486 29:0.39435957 30:-0.041828565 31:-0.15616569 32:-0.032197847 33:0.045322206 34:0.24871711 35:-0.17046853 36:-0.34529747 37:-0.15884579 38:-0.54359667 39:0.36799619 
0.0154124098639537 1:0.37028366 2:0.84666832 3:0.42939522 4:-0.28439043 5:-0.5899362 6:-0.42698219 7:-0.021460903 8:-0.24123168 9:-0.20843322 10:-0.17668896 11:0.10606194 12:0.21079495 13:0.45473335 14:-1 16:0.12181408 17:0.52351539 18:-0.15883911 19:-0.27450945 20:0.039852418 21:0.30408643 22:-0.28304535 23:-0.28142331 24:-0.49649371 25:-0.53511585 26:-0.14834457 27:-0.083650055 28:0.2206219 29:0.2983138 30:-0.080032058 31:-0.024763125 32:0.035830717 33:-0.14175733 34:0.002482452 35:-0.057273491 36:0.26809486 37:-0.35511203 38:-0.20671643 39:0.50826711 
0.1115322859506825 1:0.45698364 2:0.84715863 3:0.53047414 4:-0.35619971 5:-0.70407627 6:-0.27859696 7:-0.070926715 8:-0.27707136 9:-0.13857307 10:-0.070915317 11:0.23916383 12:0.24489165 13:0.48083301 16:0.57985397 17:0.4239087 18:0.18124709 19:-0.64828338 20:0.071610512 21:0.35565955 22:-0.37904099 23:-0.18253534 24:-0.50226927 25:-0.42608534 26:-0.30990552 27:-0.12303213 28:0.2274003 29:0.31232348 30:-0.10347435 31:0.47744207 32:-0.058716367 33:0.1142094 34:-0.29386743 35:0.25562037 36:0.00010006701 37:-0.41956565 38:-0.2106691 39:0.52257877 
0.2567186909930406 1:0.50860556 2:0.7883899 3:0.51303019 4:-0.37599116 5:-0.81734432 6:-0.39077201 7:-0.046081432 8:-0.17885719 9:-0.16318018 10:-0.19111303 11:0.17585832 12:0.15936851 13:0.67858541 16:0.51732044 17:0.45349283 18:0.45868461 19:-0.88876644 20:0.023437654 21:0.41283858 22:-0.69315336 23:-0.22286046 24:-0.71064042 25:-0.44979157 26:0.30823422 27:-0.44647662 28:0.44781176 29:0.40604664 30:-0.11239906 31:0.31734141 32:-0.080170692 33:0.12795462 34:-0.040416748 35:-0.15737812 36:0.0012755804 37:-0.45352165 38:-0.27024733 39:0.56464152 
1.696713211396462 1:0.21704363 2:0.013630553 3:0.099313971 4:0.08554238 5:-0.70038724 6:-0.41502101 7:-0.49628105 8:0.095263771 9:-0.33711141 10:-0.021248952 11:-0.11353771 12:0.0734211 13:0.28441229 16:0.97331666 17:0.062864491 18:0.50834043 19:-0.73999272 20:-0.11754122 21:0.4485416 22:-0.61106876 23:-0.18524811 24:-0.086242352 25:-0.066427031 26:-0.044307785 27:0.019786539 28:0.37331332 29:0.38800587 30:-0.050354302 31:-0.17268746 32:-0.0059133932 33:0.016592754 34:0.24369044 35:-0.18013089 36:-0.33062528 37:-0.1389045 38:-0.52021073 39:0.29801 
0.8217116088121665 1:0.4420935 2:0.61144306 3:0.39668451 4:-0.073145672 5:-0.58828744 6:-0.38052545 7:-0.10020071 8:0.10359815 9:-0.12659106 10:-0.15451747 11:0.13580518 12:0.071130747 13:0.63998294 15:-1 16:0.63311569 17:0.11089721 18:0.46222273 19:-0.73754268 20:-0.056050849 21:0.33563531 22:-0.63565966 23:-0.1920252 24:-0.54630846 25:-0.11596769 26:-0.08375753 27:-0.057664142 28:0.33607641 29:0.33488266 30:-0.11489188 31:-0.077935559 32:-0.12277687 33:0.028125733 34:0.2162897 35:-0.15016488 36:-0.3096461 37:-0.10569139 38:-0.30360676 39:0.52442752 
0.9021504362720682 1:0.46667166 2:0.31848629 3:0.29505553 4:0.11086705 5:-0.64146647 6:-0.39806662 7:-0.40400261 8:0.16449809 9:-0.15172242 10:0.042274681 11:-0.032457159 12:0.032473116 13:0.41035703 14:-1 16:0.63598219 17:0.40242367 18:0.070395604 19:-0.72918272 20:0.19724347 21:0.20373043 22:-0.67741304 23:-0.15689364 24:-0.50641071 25:-0.082206843 26:0.19457509 27:-0.24039252 28:0.40156845 29:0.39754697 30:-0.048018488 31:-0.18586284 32:-0.0051546465 33:0.045434232 34:0.22362006 35:-0.16894067 36:-0.33379486 37:-0.18046995 38:-0.38872622 39:0.51322318 
1.276236261293749 1:0.2127074 2:0.69850826 3:0.39875667 4:-0.11481323 5:-0.4899453 6:-0.51294596 7:-0.068836437 8:0.17003201 9:-0.046439267 10:-0.30365037 11:0.10019016 12:0.23184899 13:0.74570337 16:0.59830576 17:0.035617712 18:0.45250957 19:-0.57100142 20:0.068859542 21:0.20739957 22:-0.34914697 23:-0.23190543 24:-0.56202808 25:-0.38179447 26:0.48934466 27:-0.070037837 28:0.14389559 29:0.28519273 30:-0.19984354 31:-0.15799347 32:-0.19481289 33:0.10432149 34:0.1503719 35:-0.16633567 36:-0.20407064 37:-0.045513152 38:0.11854243 39:0.47863385 
0.8713312302478388 1:0.38756668 2:0.49204481 3:0.3914726 4:0.0686956 5:-0.60384565 6:-0.38565903 7:-0.32331701 8:0.13495257 9:-0.10636862 10:-0.048997098 11:-0.0089142685 12:0.053021907 13:0.54724982 15:1 16:0.70998136 17:0.14829916 18:0.18048312 19:-0.6424679 20:0.13797491 21:0.223917 22:-0.61102565 23:-0.1999738 24:-0.5953638 25:-0.10881589 26:0.28048541 27:-0.31930209 28:0.38982501 29:0.40269504 30:-0.056194691 31:-0.18659262 32:0.019473221 33:0.033165678 34:0.2285054 35:-0.1951388 36:-0.31098028 37:-0.18445503 38:-0.29795177 39:0.5585478 
0.9584449908754739 1:0.36985338 2:0.49738438 3:0.39003065 4:0.077659583 5:-0.56081762 6:-0.25803787 7:-0.34450122 8:-0.018308555 9:-0.21159207 10:0.18613338 11:0.27062645 12:-0.045712287 13:0.11862774 16:0.70577 17:0.10539004 18:0.15772018 19:-0.43428121 20:0.16932124 21:-0.19097001 22:-0.13055293 23:-0.19668372 24:0.2731799 25:-0.5577624 26:-0.046084823 27:-0.073873532 28:0.36383299 29:0.39387548 30:-0.066442243 31:-0.17318242 32:-0.0061840023 33:0.044541033 34:0.2592354 35:-0.19184674 36:-0.29814381 37:-0.15376433 38:-0.5184524 39:0.43522316 
1.157733367468942 1:0.19416095 2:0.36805556 3:0.56831278 4:0.14941592 5:-0.83562023 6:-0.16732857 7:-0.1621522 8:0.16464591 9:-0.27891255 10:0.16946808 11:0.31649418 12:-0.029707818 13:0.050341318 16:0.64156102 17:-0.0040675448 18:0.41256122 19:-0.44556549 20:0.30536247 21:-0.13304007 22:-0.080145105 23:-0.19861659 24:0.034735004 25:-0.67862182 26:0.24608171 27:0.12817757 28:0.55740566 29:0.549011 30:0.10647512 31:-0.033544183 32:0.078954437 33:0.044690523 34:0.27416604 35:-0.18547392 36:-0.38610235 37:-0.34037432 38:-0.87885909 39:0.56209613 
0.4525227300210474 1:0.18519666 2:0.24821311 3:0.19267186 4:-0.096655298 5:-0.81776812 6:-0.53007784 7:-0.49495314 8:-0.021027708 9:-0.238737 10:0.10028206 11:0.12535518 12:-0.16395379 13:0.039158459 16:0.50227926 17:0.10233345 18:0.35708143 19:-0.1640931 20:0.2263034 21:-0.26471586 22:0.20000724 23:-0.14230716 24:0.089830082 25:-0.62216039 26:-0.027059213 27:0.00095174008 28:0.392939 29:0.40242901 30:-0.034000857 31:-0.14419552 32:-0.021451662 33:0.050966304 34:0.23840868 35:-0.17741028 36:-0.3541813 37:-0.15620086 38:-0.56071394 39:0.51771164 
0.5713817637017801 1:0.36952859 2:0.70960932 3:0.39652423 4:-0.30374438 5:-0.7235469 6:-0.28798958 7:-0.20397801 8:-0.29164994 9:-0.17399715 10:0.2362279 11:0.4650961 12:-0.24299824 13:-0.054546207 15:1 16:0.33305693 17:0.17992638 18:0.21938469 19:-0.1002723 20:0.036299438 21:-0.36869816 22:-0.039313994 23:-0.19970082 24:0.26448818 25:-0.66340392 26:-0.11859256 27:-0.19138182 28:0.46668168 29:0.42348736 30:-0.022794692 31:0.014021813 32:0.051277305 33:-0.040368138 34:0.094253941 35:-0.096400854 36:-0.092554441 37:-0.41204644 38:-0.45777587 39:0.4615743 
1.325357635384222 1:0.18620875 2:0.48800655 3:0.16110542 4:-0.11955164 5:-0.57101442 6:-0.74184169 7:-0.1985089 8:-0.053987373 9:-0.12628879 10:0.23219977 11:0.084938986 12:-0.013658383 13:-0.09369358 16:0.32002846 17:0.093455456 18:0.36447008 19:-0.078729533 20:0.077368257 21:-0.26177435 22:0.099506067 23:-0.182289 24:0.1985368 25:-0.67749195 26:0.064592791 27:0.00020534994 28:0.36385839 29:0.36125819 30:-0.13561878 31:-0.29389955 32:-0.13695631 33:-0.17217193 34:-0.18509678 35:0.15548203 36:0.08808694 37:0.19224159 38:-0.40676843 39:0.53613512 
0.6391165693474518 1:0.45685303 2:0.083415645 3:0.14245733 4:0.13902076 5:-0.63002541 6:-0.38031651 7:-0.54740619 8:0.12949501 9:-0.14971026 10:0.27564593 11:-0.017472619 12:-0.18722175 13:-0.21326075 16:-0.012861353 17:0.22533265 18:-0.02508581 19:-0.091343486 20:-0.098175975 21:-0.32376426 22:-0.26059104 23:0.02772857 24:0.047134042 25:-0.12815472 26:-0.12108237 27:0.0020833465 28:0.3633906 29:0.37868786 30:-0.057983261 31:-0.18987552 32:0.0039979467 33:0.038607649 34:0.2383451 35:-0.17452836 36:-0.3448219 37:-0.1436833 38:-0.48624623 39:0.21943698 
2.17543838410537 1:0.16600085 2:0.17917647 3:0.19336313 4:0.19450034 5:-0.51692932 6:-0.33929526 7:-0.44781894 8:0.17266666 9:-0.093631754 10:0.32183009 11:0.034771791 12:-0.14632298 13:-0.1713703 15:1 16:0.16205074 17:-0.013121048 18:0.21802017 19:-0.035527416 20:-0.067376223 21:-0.35503668 22:-0.14481186 23:0.029661494 24:-0.061538385 25:-0.10135499 26:-0.12318181 27:-0.0046221226 28:0.3518722 29:0.3628549 30:-0.088004949 31:-0.22142329 32:-0.029026995 33:0.0050640732 34:0.22335314 35:-0.16836863 36:-0.30593606 37:-0.061747467 38:-0.43392277 39:0.21118539 
1.011498908883754 1:0.40845371 2:0.38724276 3:0.32707988 4:0.12601246 5:-0.54444059 6:-0.15703013 7:-0.1807461 8:0.20614169 9:-0.085684804 10:0.25232878 11:0.22142101 12:-0.15972778 13:-0.15685986 16:-0.17758977 17:-0.10748268 18:-0.32445173 19:0.33336695 20:-0.3575233 21:-0.25972345 22:0.51367871 23:-0.26676879 24:-0.15921528 25:-0.50691484 26:-0.060534693 27:0.037401584 28:0.37450187 29:0.38088179 30:-0.041769904 31:-0.16145916 32:0.02326453 33:-0.025633347 34:0.24205745 35:-0.15491798 36:-0.36338824 37:-0.16981565 38:-0.58132432 39:0.43116246 
1.927578559778781 1:0.15683704 2:-0.21683136 3:0.20171547 4:0.35251703 5:-0.76301969 6:-0.20978919 7:-0.41204404 8:0.47964839 9:-0.15050911 10:0.31307324 11:-0.079000109 12:0.08119962 13:-0.070971186 16:-0.1510952 17:0.10645318 18:0.13816404 19:0.38652943 20:-0.30356782 21:-0.30647198 22:0.19038381 23:-0.30814926 24:-0.15688835 25:-0.028154828 26:0.063463388 27:0.10474068 28:0.47999376 29:0.47385977 30:0.058890212 31:-0.10283133 32:0.055117139 33:0.07637366 34:0.26544824 35:-0.18876639 36:-0.39059751 37:-0.29378211 38:-0.75110469 39:0.088596831 
0.4303715045677976 1:0.37588269 2:0.55293003 3:0.37024186 4:-0.0093881969 5:-0.54774878 6:-0.29162473 7:-0.12308678 8:0.26053639 9:0.089752008 10:0.27836616 11:0.37318944 12:-0.13210109 13:0.0040993189 16:-0.19409904 17:-0.015304494 18:0.19663804 19:0.64405831 20:-0.42834359 21:-0.51068672 22:0.093471951 23:-0.15490724 24:-0.49377105 25:-0.34606087 26:-0.096243376 27:-0.057160064 28:0.32753664 29:0.34581215 30:-0.11323694 31:-0.1614581 32:-0.11182916 33:0.15163403 34:0.18591812 35:-0.2409299 36:-0.2816379 37:-0.12152144 38:-0.432079 39:0.57255498 
0.6206529165187886 1:0.47262537 2:0.15847625 3:0.2290965 4:0.15339412 5:-0.65046444 6:-0.37240084 7:-0.41243123 8:0.28803577 9:0.00063306677 10:0.40132972 11:0.14378532 12:-0.12344447 13:-0.2207123 14:-1 16:-0.079512709 17:0.040470717 18:0.045672224 19:0.60530927 20:-0.49813887 21:-0.36480867 22:-0.22406894 23:-0.078961753 24:-0.24529819 25:-0.18081024 26:-0.015434795 27:-0.0040910855 28:0.3834556 29:0.38167537 30:-0.048446707 31:-0.17296263 32:-0.0014698933 33:0.045164266 34:0.23207854 35:-0.17902888 36:-0.33579932 37:-0.16470817 38:-0.5067139 39:0.47996461 
0.9410464838279506 1:0.47451294 2:0.86547539 3:0.42418687 4:-0.25836504 5:-0.48087769 6:-0.2571026 7:-0.010619596 8:0.031703688 9:0.2214296 10:0.2723267 11:0.46739558 12:-0.37090005 13:-0.29633279 15:1 16:0.097889943 17:-0.44413158 18:-0.014832954 19:0.77386764 20:-0.36259082 21:-0.82869294 22:0.6928395 23:-0.065381703 24:-0.058938829 25:-0.41921884 26:-0.13253244 27:-0.1034079 28:0.16651006 29:0.31512046 30:-0.3042584 31:0.14614193 32:-0.089809076 33:0.060932558 34:-0.080029841 35:-0.18405473 36:0.0011849337 37:-0.39305604 38:-0.11124158 39:0.62400968 
0.5017405312372534 1:0.18683673 2:-0.18199391 3:0.2032869 4:0.23184281 5:-0.92793651 6:-0.42362925 7:-0.58944323 8:0.31924784 9:-0.15705851 10:0.44198785 11:0.1593334 12:0.10202196 13:-0.1186762 16:-0.37695538 17:0.37622909 18:0.077425739 19:0.38755172 20:-0.41965845 21:-0.45251789 22:-0.16971108 23:-0.047540822 24:-0.31176579 25:-0.27985765 26:0.110184 27:0.12345303 28:0.50564869 29:0.49165809 30:0.07896793 31:-0.089541035 32:0.072086897 33:0.077520688 34:0.26886579 35:-0.18762397 36:-0.39531537 37:-0.326301 38:-0.78910277 39:0.41302384 
1.184583652531 1:0.36665453 2:0.68026228 3:0.42276734 4:0.024638045 5:-0.45101743 6:-0.35851734 7:-0.10210267 8:0.22898504 9:0.13120138 10:0.32576 11:0.31065567 12:-0.19803027 13:-0.0023937 16:-0.22212618 17:0.048825567 18:0.03467538 19:0.60711848 20:-0.42560037 21:-0.67728735 22:-0.30529292 23:-0.049531404 24:-0.054069561 25:-0.27504125 26:-0.11874417 27:-0.078951463 28:0.30138946 29:0.34285506 30:-0.16803504 31:-0.20967209 32:-0.10701269 33:-0.022194303 34:0.23934149 35:-0.21394431 36:-0.19472001 37:-0.051240909 38:-0.30421112 39:0.63402605 
1.787969933914882 1:0.43823226 2:0.073802772 3:0.18557634 4:0.18978877 5:-0.59420459 6:-0.25413466 7:-0.31709585 8:0.36453373 9:-0.0067019109 10:0.34274355 11:-0.033413278 12:-0.26543088 13:-0.45956414 16:0.30025821 17:-0.85052363 18:0.24380024 19:0.66180874 20:-0.38874467 21:-0.72804532 22:0.14217578 23:-0.066960245 24:-0.26105401 25:-0.083905325 26:-0.055107647 27:0.017530559 28:0.3786685 29:0.39048037 30:-0.059175792 31:-0.15572867 32:-0.018672199 33:0.045307828 34:0.23324597 35:-0.1856091 36:-0.33729806 37:-0.15103379 38:-0.51884587 39:0.38456353 
0.3977652065888886 1:0.45962711 2:0.7050051 3:0.47864168 4:-0.32767493 5:-0.82371233 6:-0.43682846 7:-0.08699732 8:-0.095473603 9:-0.020846462 10:0.099766873 11:0.35458601 12:-0.33191465 13:-0.3251154 16:0.55022558 17:-0.29882032 18:0.081939434 19:0.64551724 20:-0.33942779 21:-0.85060511 22:0.57023952 23:-0.0050199717 24:-0.73776263 25:-0.63608925 26:0.018352248 27:-0.15299449 28:0.39780711 29:0.40853613 30:-0.082182327 31:0.29945716 32:-0.1589603 33:0.15654206 34:-0.072888815 35:-0.14614483 36:0.014331955 37:-0.53575645 38:-0.40856487 39:0.68817475 
5.350163348091737 1:0.087548826 2:-0.069949191 3:0.14463564 4:0.32814325 5:-0.48770256 6:-0.079194814 7:-0.34540144 8:0.37435793 9:-0.056861615 10:0.44050019 11:0.047157167 12:-0.064987538 13:-0.291051 16:0.13926358 17:-0.57763863 18:0.21100696 19:0.52085263 20:-0.35164283 21:-0.4715348 22:0.009935797 23:0.050494196 24:-0.24166153 25:-0.062166361 26:-0.056662461 27:0.023687383 28:0.38386727 29:0.39838899 30:-0.040939312 31:-0.15141641 32:0.00064818137 33:0.039650263 34:0.24756177 35:-0.18812307 36:-0.34673602 37:-0.17585751 38:-0.54488861 39:-0.079266101 
0.6637082711698131 1:0.4009296 2:0.7865017 3:0.44402979 4:-0.38637827 5:-0.7702776 6:-0.44349094 7:-0.14250617 8:-0.13054666 9:0.025151224 10:0.015391066 11:0.17684264 12:-0.35682091 13:-0.32080742 16:0.39093406 17:-0.38466591 18:-0.026016067 19:0.67172266 20:-0.26076367 21:-0.87681378 22:0.3448328 23:-0.049725491 24:-0.65366924 25:-0.45070429 26:-0.22161475 27:-0.24146466 28:0.29658204 29:0.29319648 30:-0.088950685 31:0.31174959 32:0.0097634342 33:0.1471992 34:-0.5340519 35:-0.010519631 36:0.12126949 37:-0.64350148 38:-0.31045465 39:0.69009074 
1.636146836814653 1:0.002646056 2:0.47800512 3:0.3039574 4:-0.13521767 5:-0.66620316 6:-0.47915345 7:0.0091677937 8:0.22302561 9:0.024225862 10:0.036279498 11:0.0020896679 12:-0.30045539 13:-0.34159909 16:0.83335249 17:-0.67731277 18:-0.049836855 19:0.81938897 20:-0.07421301 21:-0.93477442 22:0.88959881 23:-0.11230766 24:-0.76611762 25:-0.11867817 26:-0.091886901 27:0.071420825 28:0.31618518 29:0.36938283 30:-0.1468239 31:-0.089655279 32:0.0093618755 33:-0.13903932 34:0.081292806 35:-0.16264393 36:-0.055642226 37:-0.1033672 38:-0.44383456 39:0.59699791 
1.002372669549029 1:0.064449529 2:0.13430005 3:0.46351882 4:0.13736612 5:-0.93538037 6:-0.38142093 7:-0.12730724 8:0.49841699 9:-0.025861374 10:0.11916607 11:0.037712158 12:-0.17226894 13:-0.10032569 16:0.22793148 17:-0.39721463 18:-0.51547706 19:0.8829782 20:0.017516486 21:-0.82440231 22:0.33026373 23:-0.043445361 24:-0.45853305 25:-0.17599026 26:0.13484074 27:0.13640932 28:0.54408788 29:0.50501383 30:0.085435553 31:-0.06966813 32:0.076236155 33:0.065748566 34:0.27643834 35:-0.20984479 36:-0.395701 37:-0.32850772 38:-0.82122515 39:0.63442032 
0.1128964838589773 1:0.37312351 2:0.58993579 3:0.38306763 4:-0.089708691 5:-0.57143788 6:-0.48466141 7:-0.076111864 8:0.26802772 9:0.20210284 10:0.22199002 11:0.18290804 12:-0.32681703 13:-0.15246072 16:-0.2052378 17:-0.36794665 18:0.5394586 19:0.59564758 20:-0.059799838 21:-0.93525072 22:0.45014559 23:-0.058952382 24:-0.26630261 25:-0.03219234 26:-0.20409117 27:-0.044759419 28:0.30450527 29:0.29573618 30:-0.11396407 31:-0.098185414 32:-0.14901705 33:0.028281275 34:0.1486576 35:-0.20324162 36:-0.17121744 37:-0.05986124 38:-0.35162797 39:0.70083466 
0.02654747630428922 1:0.36069967 2:0.25380721 3:0.27545978 4:-0.0035240973 5:-0.75175576 6:-0.4604882 7:-0.20835601 8:0.37010816 9:0.092238615 10:0.24205097 11:0.14084057 12:-0.25682333 13:-0.18135126 16:-0.29739059 17:-0.6318435 18:0.028926785 19:0.57774373 20:-0.1852259 21:-0.83958597 22:0.20958177 23:-0.1134366 24:-0.47809012 25:-0.17125207 26:-0.0075832758 27:0.034850844 28:0.38384904 29:0.38649978 30:-0.050544291 31:-0.18871167 32:0.035404265 33:0.027659895 34:0.2316824 35:-0.18454375 36:-0.32784478 37:-0.1749997 38:-0.59671832 39:0.72560203 
0.7005790696759311 1:0.39114067 2:0.1265469 3:0.20510355 4:0.13082802 5:-0.66474836 6:-0.39105561 7:-0.37228576 8:0.3353495 9:0.029273109 10:0.40904157 11:0.21430868 12:0.018394813 13:-0.0055601579 16:-0.59335013 17:0.27238338 18:0.0065863278 19:0.28217809 20:-0.34982898 21:-0.4177504 22:-0.17440247 23:0.017122519 24:-0.21379592 25:0.0085001214 26:-0.075943703 27:0.017937986 28:0.3726586 29:0.37961867 30:-0.057370145 31:-0.17774187 32:0.00016144124 33:0.024675756 34:0.24844418 35:-0.18732642 36:-0.32905046 37:-0.14540953 38:-0.50829285 39:0.45281504 
1.659013875976297 1:0.38353516 2:0.13842633 3:0.24014334 4:0.24878988 5:-0.60467872 6:-0.29486088 7:-0.35829268 8:0.41678701 9:0.048860287 10:0.45770642 11:0.10640875 12:-0.043574501 13:-0.11145307 16:-0.25741668 17:0.0083436974 18:0.37826131 19:-0.11783536 20:0.14136808 21:-0.54513315 22:-0.19076015 23:-0.028826765 24:-0.16299088 25:0.0070712525 26:-0.056387161 27:0.017705648 28:0.37843459 29:0.3891686 30:-0.057318015 31:-0.18957616 32:0.015171743 33:0.018347645 34:0.23638385 35:-0.17257534 36:-0.3282888 37:-0.16158376 38:-0.55935636 39:0.47828841 
6.71626703026912 1:0.32069068 2:0.082569258 3:0.22906891 4:0.25575242 5:-0.61068082 6:-0.27881513 7:-0.29723797 8:0.52359403 9:0.14034637 10:0.52453979 11:0.13567446 12:-0.024813811 13:-0.096238876 16:-0.57894996 17:0.13225346 18:0.47026897 19:-0.045901893 20:0.028866827 21:-0.49952051 22:-0.15777154 23:-0.15174319 24:-0.092902639 25:0.037425103 26:-0.038668667 27:0.025483002 28:0.38779419 29:0.39166997 30:-0.050215479 31:-0.18357611 32:0.0087902291 33:0.038365402 34:0.23195015 35:-0.18421048 36:-0.33018568 37:-0.15740354 38:-0.56945542 39:0.5166346 
12.44122810720249 1:0.37926256 2:0.21274863 3:0.34996595 4:0.29320216 5:-0.6046763 6:-0.33332887 7:-0.33963476 8:0.41886186 9:0.031474405 10:0.33467694 11:0.0029819648 12:-0.057322603 13:-0.041958488 16:-0.47619368 17:0.0049908097 18:0.26518059 19:0.20303974 20:-0.29855879 21:-0.39774657 22:-0.25190024 23:-0.20340829 24:-0.27047581 25:0.058793431 26:-0.035443727 27:0.021306748 28:0.38666449 29:0.3881193 30:-0.050450868 31:-0.16062822 32:0.011419262 33:0.0091062238 34:0.23562963 35:-0.17567546 36:-0.30899265 37:-0.17330535 38:-0.53378861 39:0.4758032 
0.6391198235372996 1:0.40147199 2:0.18573112 3:0.23490578 4:-0.049918117 5:-0.86244059 6:-0.69147193 7:-0.47817625 8:0.11281704 9:-0.10893394 10:0.083408411 11:0.0065894271 12:-0.39077246 13:-0.51342338 15:1 16:-0.19542808 17:-0.22735533 18:0.28729699 19:0.74807558 20:-0.46312513 21:-0.79438323 22:0.4813029 23:-0.030158446 24:-0.55751104 25:-0.046704911 26:0.015095697 27:0.017503941 28:0.39295502 29:0.4054071 30:-0.046538517 31:-0.14733127 32:-0.029659049 33:0.044165347 34:0.21495064 35:-0.13865969 36:-0.35683459 37:-0.1790927 38:-0.56171209 39:0.7433858 
0.2235137264509835 1:0.027694195 2:-0.16876063 3:0.17562034 4:0.24249816 5:-0.78285492 6:-0.36753271 7:-0.51002293 8:0.35383091 9:-0.08333588 10:0.34329584 11:-0.087857604 12:-0.23822267 13:-0.56067347 16:-0.58291178 17:-0.86404501 18:0.57769135 19:0.92222132 20:-0.5047851 21:-0.7528894 22:0.57039209 23:-0.063937546 24:-0.017201857 25:-0.0032539417 26:-0.01958067 27:0.080111343 28:0.44516161 29:0.45074317 30:0.034380676 31:-0.1133212 32:0.052983894 33:0.059363369 34:0.26466011 35:-0.18287284 36:-0.37678586 37:-0.28067428 38:-0.69596381 39:0.43185985 
1.376249928952414 1:0.29420386 2:0.24417626 3:0.35044217 4:0.19164153 5:-0.64803772 6:-0.2969568 7:-0.18827793 8:0.42408326 9:-0.017733915 10:0.19355514 11:-0.0071345785 12:-0.17572001 13:-0.27689437 16:-0.81885886 17:0.14936606 18:-0.33942287 19:0.67463115 20:-0.45571814 21:-0.37372963 22:0.15469147 23:-0.28128538 24:-0.70233945 25:0.024923818 26:0.054439829 27:0.027257998 28:0.40460478 29:0.40489793 30:-0.050143368 31:-0.16589959 32:0.043079499 33:-0.0026099837 34:0.23801371 35:-0.19256926 36:-0.32314842 37:-0.15342142 38:-0.54663307 39:0.54145198 
1.635476912492455 1:0.28335363 2:0.37036515 3:0.48889213 4:0.094954586 5:-0.73489169 6:-0.32026841 7:0.013471576 8:0.45136158 9:-0.0076623263 10:0.038961405 11:0.07953431 12:-0.13854782 13:-0.25808609 16:-0.81305426 17:-0.36391724 18:0.13792904 19:0.74887467 20:-0.35072747 21:-0.68051247 22:0.071345975 23:-0.24479263 24:-0.7022367 25:-0.0072197802 26:0.023798477 27:0.10240102 28:0.44039389 29:0.40111151 30:-0.0018120733 31:-0.15560953 32:0.1446915 33:-0.018577676 34:0.21359839 35:-0.17761391 36:-0.37448016 37:-0.06476504 38:-0.50936893 39:0.60904429 
0.5600788492949674 1:-0.1768432 2:0.065418217 3:0.23061241 4:0.18850523 5:-0.59408867 6:-0.056053149 7:-0.14066152 8:0.40732379 9:-0.055086726 10:0.25821137 11:0.053785266 12:-0.18233129 13:-0.36866028 16:-0.96425987 17:0.022783193 18:-0.049037209 19:0.93848156 20:-0.22922105 21:-0.85172537 22:0.61929857 23:-0.034575786 24:-0.5458431 25:-0.094560563 26:-0.043524749 27:0.032348766 28:0.39238011 29:0.43021623 30:-0.0081653732 31:-0.10681888 32:-0.0060754057 33:0.095745398 34:0.2456552 35:-0.23435461 36:-0.36122965 37:-0.21931405 38:-0.61312231 39:0.32384044 
1.779079169631821 1:0.11267383 2:0.094301327 3:0.16193348 4:0.11066946 5:-0.63580749 6:-0.28350597 7:-0.26132353 8:0.32253925 9:-0.086886203 10:0.1338798 11:-0.08095032 12:-0.25559479 13:-0.33129092 16:-0.89257894 17:-0.5225322 18:0.48386178 19:0.73886423 20:-0.24809187 21:-0.65303979 22:0.29117307 23:-0.029390939 24:-0.17248531 25:-0.074192679 26:-0.04762164 27:0.022802489 28:0.36416923 29:0.39383447 30:-0.059253466 31:-0.19220957 32:0.041820925 33:0.0028451066 34:0.21830777 35:-0.14762846 36:-0.34166253 37:-0.17179772 38:-0.61073471 39:0.4427156 
0.1181685796009063 1:0.21972034 2:0.60120056 3:0.48040297 4:-0.019662362 5:-0.59816678 6:-0.28270988 7:0.085535221 8:0.31849007 9:0.074693223 10:0.031038231 11:0.042416642 12:-0.31488219 13:-0.24767929 15:1 16:-0.85793288 17:-0.37316096 18:0.083540664 19:0.88846806 20:-0.16347924 21:-0.84545687 22:0.76864281 23:-0.21421213 24:-0.39552022 25:0.022329917 26:-0.011513316 27:-0.20658482 28:0.38895836 29:0.40518208 30:-0.11221847 31:-0.12534996 32:0.16728151 33:-0.18116769 34:0.23752503 35:-0.22048615 36:-0.12317381 37:-0.19165916 38:-0.49347192 39:0.62031995 
0.4709629925943859 1:0.19838066 2:0.26653892 3:0.33249659 4:0.07139644 5:-0.73648384 6:-0.44710117 7:-0.27928976 8:0.30943456 9:-0.05862894 10:0.050293549 11:-0.14384401 12:-0.34570791 13:-0.35718864 14:-1 16:-0.7533548 17:-0.79869294 18:0.088274541 19:0.98881794 20:-0.46687893 21:-0.412636 22:0.26104311 23:-0.35635485 24:-0.33706411 25:0.0077883101 26:-0.080236946 27:0.03090954 28:0.3853555 29:0.38443001 30:-0.015551948 31:-0.16857774 32:0.060027419 33:0.00016052003 34:0.23848525 35:-0.16124646 36:-0.3476648 37:-0.15281117 38:-0.56914075 39:0.64520792 
0.683971488641723 1:0.36053014 2:0.7296669 3:0.53963854 4:-0.36056172 5:-0.80904446 6:-0.39338812 7:0.20200234 8:0.24468869 9:0.2041741 10:0.029456028 11:0.071497331 12:-0.39109053 13:-0.08679471 14:1 16:-0.88192468 17:0.41538338 18:0.17796223 19:0.82999294 20:-0.21336091 21:-0.80590034 22:0.65551085 23:-0.32233153 24:-0.55588787 25:-0.18405298 26:-0.19837952 27:-0.0048915497 28:0.22235996 29:0.39822091 30:0.009008823 31:0.36509273 32:-0.18913108 33:0.02652504 34:-0.046532549 35:-0.14015604 36:-0.023665582 37:-0.42058753 38:-0.51936685 39:0.71765896 
0.8319521126137067 1:0.032598651 2:0.71941689 3:0.53604574 4:-0.42532217 5:-0.81573835 6:-0.31959593 7:0.19340062 8:0.20184923 9:0.29049013 10:0.067627284 11:-0.044938976 12:-0.50328939 13:-0.14778627 16:-0.83217408 17:0.099286602 18:0.11936583 19:0.89916721 20:-0.19769523 21:-0.87620572 22:0.76325075 23:-0.30321001 24:-0.24171325 25:-0.36015235 26:-0.2755878 27:-0.22099468 28:0.2858175 29:0.49326541 30:-0.27275432 31:0.61080216 32:-0.32668965 33:0.26291425 34:-0.4679982 35:0.2155375 36:-0.14399443 37:-0.23294946 38:-0.61803818 39:0.72395497 
0.2428090505066181 1:0.045428276 2:0.35530768 3:0.39369399 4:0.19112024 5:-0.55343669 6:-0.23272256 7:-0.14241777 8:0.45264515 9:0.11660448 10:0.28331839 11:0.051308765 12:-0.19983497 13:-0.14533165 15:1 16:-0.96334198 17:0.014861449 18:0.32769322 19:0.74450689 20:-0.24922443 21:-0.65650929 22:0.47078511 23:-0.3067704 24:-0.13702228 25:-0.0741358 26:-0.14941245 27:-0.0083620789 28:0.40242306 29:0.35195275 30:-0.10686378 31:-0.13997878 32:0.070582851 33:-0.016653819 34:0.24162939 35:-0.24472245 36:-0.25272811 37:-0.24524093 38:-0.495374 39:0.59289052 
0.1167376738667759 1:-0.26316925 2:0.15700246 3:0.3572157 4:0.32388091 5:-0.55598532 6:-0.13278703 7:-0.19042886 8:0.54362732 9:0.1332521 10:0.43492033 11:0.022918162 12:-0.2325022 13:-0.33474141 14:1 16:-0.94234131 17:0.097742651 18:-0.14199067 19:0.75697778 20:-0.20632494 21:-0.68085373 22:0.49978542 23:-0.24082588 24:-0.14720017 25:-0.027098842 26:-0.13318045 27:0.021496629 28:0.45172642 29:0.40812544 30:-0.052769747 31:-0.12458141 32:0.044513663 33:0.044394298 34:0.25806883 35:-0.23451769 36:-0.3249025 37:-0.24711546 38:-0.60466834 39:0.51475731 
3.427252767439177 1:0.069951977 2:0.13044257 3:0.26641021 4:0.19159186 5:-0.65377812 6:-0.4021855 7:-0.29420718 8:0.46917739 9:0.12082668 10:0.27404071 11:-0.22126795 12:-0.56520316 13:-0.65155685 16:-0.5021076 17:-0.47183208 18:0.42872682 19:0.91433436 20:-0.11530975 21:-0.74843696 22:-0.12537881 23:-0.15186558 24:-0.27457107 25:-0.077623419 26:0.015225328 27:0.019912125 28:0.37102367 29:0.39976256 30:-0.061837994 31:-0.20061664 32:0.046787041 33:-0.0010978104 34:0.24253608 35:-0.15150806 36:-0.35549537 37:-0.191894 38:-0.57052016 39:0.71707552 
2.144425445848606 1:-0.035642445 2:0.57551084 3:0.61052771 4:0.1630364 5:-0.47787842 6:-0.12826786 7:-0.039137196 8:0.49417757 9:0.23433556 10:0.16192424 11:-0.19456769 12:-0.34668549 13:-0.057945438 16:-0.55005525 17:-0.51868672 18:0.65430789 19:0.64773796 20:0.041235889 21:-0.59087574 22:-0.2817949 23:-0.34383362 24:-0.1239641 25:-0.15491646 26:-0.020002497 27:-0.11888219 28:0.32909114 29:0.36983186 30:-0.027417878 31:-0.2127262 32:0.44988998 33:-0.29879307 34:0.42476812 35:-0.22756453 36:-0.20843359 37:-0.16493786 38:-0.52150349 39:0.67043476 
3.003386348234114 1:-0.21287131 2:0.044641211 3:-0.010759063 4:0.068931601 5:-0.3388451 6:0.077878929 7:-0.16862684 8:0.21558706 9:-0.061882927 10:0.42072515 11:0.39591611 12:0.11303305 13:0.072892366 16:0.25413433 17:0.55871054 18:0.10679843 19:-0.37349005 20:0.26784443 21:-0.60852 22:0.21095727 23:0.25820218 24:-0.373287 25:-0.22975899 26:-0.18136554 27:0.094918121 28:0.084773817 29:0.38885156 30:-0.10389457 31:-0.13582922 32:-0.048854831 33:-0.017897106 34:0.28405257 35:-0.16164068 36:-0.31907814 37:-0.1494356 38:-0.42843689 39:0.084924991 
