svm_type c_svc
kernel_type rbf
gamma 0.76923
nr_class 2
total_sv 3125
rho 2.16146
label 1 -1
nr_sv 1582 1543
SV
32 1:-0.27624281 2:0.27656284 3:0.37452148 4:0.33498241 5:-0.44268457 6:-0.11071599 7:-0.33382305 8:0.16346119 9:-0.23794722 10:0.24266553 11:0.25036756 12:0.046250802 13:-0.083899549 
0.9102483500900773 1:-0.10905648 2:0.63885311 3:0.52483057 4:0.26156352 5:-0.16807634 6:0.19101084 7:-0.10391595 8:0.24482227 9:0.054915508 10:0.12276279 11:-0.18960573 12:-0.31657108 13:-0.32238591 
32 1:-0.55332585 2:0.20693528 3:0.32801583 4:0.2530584 5:-0.29816072 6:0.13344424 7:-0.38312158 8:0.20041527 9:-0.098029939 10:0.18157349 11:-0.16464254 12:-0.12165451 13:6.6252331e-005 
32 1:-0.031019671 2:0.5635278 3:0.68325732 4:0.52510905 5:-0.27624044 6:-0.059008122 7:-0.40375366 8:0.21027074 9:-0.019013541 10:0.31440827 11:-0.023196935 12:-0.029578206 13:-0.03669681 
10.04187948255488 1:0.10555843 2:0.69309805 3:0.91950365 4:0.48321135 5:-0.42863879 6:0.076693354 7:-0.30388053 8:0.037509938 9:-0.083649477 10:0.066596511 11:-0.47987471 12:0.12055582 13:-0.033558824 
32 1:-0.1431596 2:0.48269616 3:0.58037286 4:0.21049904 5:-0.27015815 6:0.36275019 7:-0.01845991 8:0.12835686 9:-0.14612093 10:-0.13533005 11:-0.23644544 12:0.10321035 13:0.097572319 
32 1:-0.32299667 2:0.27549536 3:0.43781118 4:0.37081546 5:-0.34447701 6:0.12790204 7:-0.26513056 8:0.3447073 9:-0.13533988 10:0.25804696 11:0.13666538 12:0.22813569 13:0.33132749 
32 1:0.15465982 2:-0.057030631 3:-0.2660959 4:-0.27024041 5:-0.42117078 6:0.056826268 7:-0.13598475 8:0.0051583094 9:-0.084637297 10:0.24565549 11:0.23535013 12:-0.23084651 13:0.24671753 
32 1:0.14340437 2:0.013229581 3:-0.0071719177 4:0.095199718 5:-0.10758172 6:0.41372449 7:0.010829032 8:0.098754512 9:-0.15405943 10:0.16201892 11:0.12301422 12:-0.14436169 13:0.07320841 
32 1:0.34552035 2:0.6995013 3:0.34589788 4:-0.16085316 5:-0.43960333 6:-0.096973058 7:0.14811023 8:0.09626437 9:-0.083748995 10:-0.18430898 11:0.25718092 12:-0.1000314 13:0.094671745 
32 1:-0.27631554 2:-0.13221142 3:0.14352137 4:0.40928715 5:-0.23273102 6:0.36216861 7:-0.15648375 8:0.23897861 9:-0.28520259 10:0.1657481 11:-0.042697248 12:-0.029016538 13:-0.031763454 
32 1:0.29652816 2:0.55492816 3:0.31198825 4:-0.070867788 5:-0.48937167 6:-0.12990031 7:0.049065743 8:0.10661396 9:-0.17131233 10:-0.14394325 11:0.17279845 12:-0.14574291 13:0.12610549 
32 1:0.36392028 2:0.2706902 3:0.20569252 4:-0.052575541 5:-0.56037074 6:-0.067089924 7:0.008088307 8:0.12165685 9:-0.33975002 10:-0.15628853 11:0.083901111 12:-0.18473882 13:-0.1246764 
32 1:0.44843654 2:0.63849614 3:0.081114065 4:-0.44619676 5:-0.39681736 6:-0.21075698 7:0.062003919 8:-0.055691217 9:-0.075493523 10:-0.088496668 11:0.45080863 12:-0.15787931 13:0.16295292 
32 1:0.018795557 2:-0.042271785 3:0.17398613 4:0.031166904 5:-0.72763743 6:0.014653138 7:-0.066759344 8:0.17411502 9:-0.44184897 10:-0.080519727 11:0.14026114 12:0.0099408572 13:-0.017118712 
32 1:0.37873869 2:0.39790952 3:0.078237073 4:-0.23504628 5:-0.50491822 6:-0.12596771 7:-0.034434867 8:0.041945089 9:-0.13337642 10:0.034247324 11:0.30416542 12:-0.17292344 13:0.12472322 
32 1:0.5041227 2:0.45871065 3:0.17692464 4:-0.29830167 5:-0.5728804 6:-0.080408767 7:0.087554236 8:-0.0094060251 9:-0.20256429 10:-0.005293807 11:0.39954757 12:-0.22969334 13:-0.11642643 
32 1:0.20015024 2:0.09077043 3:0.12666288 4:-0.070288266 5:-0.68342311 6:-0.064021617 7:-0.091001686 8:0.16930464 9:-0.26897931 10:0.022069866 11:0.085700822 12:-0.20644973 13:-0.18979966 
32 1:0.43618938 2:0.13619712 3:-0.0050775816 4:-0.13191252 5:-0.57860447 6:-0.24215973 7:-0.19488833 8:0.08883211 9:-0.24607935 10:-0.072451352 11:0.075391599 12:-0.19941899 13:-0.092457822 
15.58324302281808 1:0.57410135 2:0.7721623 3:0.13278213 4:-0.55121009 5:-0.095378538 6:-0.30181573 7:-0.047749996 8:0.067091087 9:0.13906615 10:-0.6598022 11:0.30840986 12:0.18184422 13:-0.05628402 
32 1:0.52607 2:0.17916367 3:0.11649883 4:-0.041662811 5:-0.46892086 6:-0.1005105 7:-0.096458728 8:0.25378755 9:-0.14874793 10:-0.12076076 11:0.01753632 12:0.071705817 13:0.2017839 
32 1:0.24553954 2:0.57016034 3:0.067403415 4:-0.27831174 5:-0.21799925 6:-0.33191898 7:0.16676214 8:0.038719934 9:-0.10263342 10:-0.2329173 11:0.1683948 12:0.028878502 13:0.061496444 
32 1:0.40509378 2:0.2523315 3:0.17326263 4:-0.10086837 5:-0.43909341 6:-0.18096978 7:-0.047591986 8:0.29968643 9:-0.1488308 10:-0.29145617 11:0.052043916 12:0.2176201 13:0.1089134 
32 1:0.56365167 2:0.11644058 3:0.11031754 4:0.061059574 5:-0.47350946 6:-0.016145251 7:-0.060739924 8:0.29409856 9:-0.16617539 10:0.055354825 11:0.09401635 12:-0.06125484 13:-0.093115053 
32 1:0.23063875 2:-0.11353794 3:-0.023354582 4:-0.036512694 5:-0.65139193 6:-0.098828712 7:-0.22764245 8:0.22996597 9:-0.29713633 10:-0.13056349 11:-0.1539794 12:-0.13429276 13:-0.17477546 
32 1:0.53701212 2:0.092193943 3:0.088376339 4:0.12923827 5:-0.40035339 6:-0.034966408 7:-0.2034715 8:0.33221982 9:-0.021255382 10:0.18838889 11:-0.020137158 12:-0.027739579 13:0.071132781 
32 1:0.19694067 2:0.016433088 3:0.11634019 4:0.29253878 5:-0.31592946 6:0.027271092 7:-0.25544849 8:0.35236579 9:-0.0026548185 10:0.3352261 11:-0.012567532 12:0.0077866362 13:0.056104768 
32 1:0.25571983 2:-0.39051782 3:-0.078640951 4:0.10079958 5:-0.81731709 6:-0.26131073 7:-0.49156076 8:0.29224358 9:-0.28360512 10:0.13275929 11:-0.17864275 12:-0.0096048951 13:-0.079362335 
32 1:0.55982331 2:0.29716458 3:-0.039605 4:-0.27418841 5:-0.47077458 6:-0.51425076 7:-0.35437374 8:0.15566204 9:0.055678811 10:-0.10050283 11:-0.11134805 12:-0.05137844 13:0.23041312 
32 1:0.43589885 2:0.063585408 3:0.0036476091 4:-0.050099262 5:-0.5543747 6:-0.36995974 7:-0.36420109 8:0.24687802 9:-0.036596701 10:0.055952895 11:-0.10804386 12:-0.033691144 13:0.16756718 
32 1:0.60544168 2:0.45542172 3:-0.0569522 4:-0.43237738 5:-0.3583417 6:-0.50406666 7:-0.37615203 8:0.040032103 9:0.14064797 10:-0.23029292 11:-0.11094386 12:-0.043834816 13:0.21769873 
12.44235163379085 1:0.61313891 2:0.20675485 3:-0.064123985 4:-0.27387509 5:-0.56206753 6:-0.48686146 7:-0.37450397 8:0.15653061 9:-0.01909898 10:-0.065443964 11:-0.048389387 12:-0.028759924 13:0.19994509 
2.236658393342094 1:0.46809712 2:0.60082785 3:0.011628312 4:-0.43170014 5:-0.2817319 6:-0.47940106 7:-0.23643178 8:0.084385212 9:0.21673917 10:-0.28625663 11:-0.01588234 12:-0.052744361 13:0.18797575 
32 1:0.19485463 2:-0.023070239 3:0.10063765 4:0.16848834 5:-0.53493881 6:-0.054261527 7:-0.28785189 8:0.30907108 9:-0.13051681 10:0.19518021 11:-0.057511845 12:-0.056734275 13:0.060391198 
21.09061648634304 1:0.48521828 2:0.040009676 3:0.044855338 4:0.078105882 5:-0.57471377 6:-0.21366356 7:-0.3657927 8:0.26309843 9:-0.14186951 10:0.11656887 11:-0.12151964 12:-0.024605656 13:0.014357722 
32 1:0.53608928 2:-0.042047307 3:0.037922839 4:0.21713502 5:-0.50493531 6:-0.10065715 7:-0.29189732 8:0.36498773 9:-0.093147422 10:0.27427024 11:-0.050679583 12:-0.12667064 13:-0.17902188 
21.09282632978668 1:0.24565171 2:0.054222392 3:-0.022604559 4:-0.050891709 5:-0.56588392 6:-0.27645221 7:-0.42319108 8:0.14980062 9:-0.081220024 10:0.15642405 11:-0.060014412 12:-0.16126496 13:-0.14863427 
32 1:0.46073525 2:0.067151803 3:0.034317393 4:0.059050597 5:-0.59350977 6:-0.26486012 7:-0.30641919 8:0.30637517 9:-0.088180788 10:0.12694847 11:-0.049951763 12:-0.11745711 13:-0.038150168 
32 1:0.19912475 2:-0.068550516 3:0.016276343 4:-0.048902786 5:-0.76120045 6:-0.27147065 7:-0.35653563 8:0.27416454 9:-0.1688396 10:0.067321006 11:0.094857146 12:0.17357524 13:0.27148381 
32 1:0.53938677 2:0.0828217 3:-0.046689473 4:-0.13998833 5:-0.55610301 6:-0.23404171 7:-0.29630221 8:0.12203717 9:-0.14594991 10:0.013791425 11:0.015865143 12:-0.036629261 13:0.20188395 
32 1:0.5410378 2:0.016390068 3:-0.00016716853 4:0.093809863 5:-0.48470102 6:-0.10997699 7:-0.24999007 8:0.29376096 9:-0.094161633 10:0.14527606 11:0.03906902 12:0.03076027 13:0.17165416 
32 1:0.17711317 2:-0.13759746 3:0.010153932 4:0.06883044 5:-0.6013226 6:-0.0039464574 7:-0.28012257 8:0.22159492 9:-0.22744063 10:0.13257284 11:-0.031514353 12:-0.06107222 13:0.017940663 
32 1:0.44941834 2:-0.075329556 3:0.012468552 4:0.23225196 5:-0.40767168 6:0.017911067 7:-0.2208955 8:0.36631327 9:-0.092599819 10:0.2176523 11:-0.0020270922 12:0.05581546 13:0.1668049 
32 1:0.501108 2:0.12900074 3:-0.10377816 4:-0.26024506 5:-0.62989793 6:-0.4275492 7:-0.33402128 8:0.14206413 9:-0.089184301 10:-0.1484359 11:-0.07062131 12:-0.053527172 13:0.37317657 
9.474922132053873 1:0.55429265 2:0.44378855 3:0.067721351 4:-0.31470636 5:-0.4164225 6:-0.35427081 7:-0.28137081 8:0.099979584 9:0.098114139 10:-0.21050122 11:-0.059158758 12:0.019209601 13:0.29057056 
32 1:0.54196975 2:0.065189013 3:-0.003439745 4:-0.023831755 5:-0.55457805 6:-0.19912459 7:-0.24291784 8:0.25785798 9:-0.070425252 10:0.10500894 11:0.028368765 12:-0.07267451 13:0.15642429 
12.12332186640549 1:0.23209391 2:0.44592447 3:0.0071895783 4:-0.16076286 5:-0.29213407 6:-0.52826422 7:0.020301569 8:0.099575984 9:-0.0061792106 10:0.021472646 11:-0.076980688 12:0.16822488 13:0.090257851 
16.60555904332536 1:0.52490236 2:0.73325389 3:-0.025874632 4:-0.50612261 5:-0.064136563 6:-0.5500989 7:-0.13423505 8:-0.013481547 9:0.24981205 10:-0.3029299 11:-0.020201652 12:0.12248767 13:-0.19175751 
32 1:0.45804133 2:-0.056697379 3:-0.0035234697 4:0.14660659 5:-0.51688129 6:-0.061756919 7:-0.24871399 8:0.33169738 9:-0.14155554 10:0.2374354 11:0.025066127 12:-0.04851329 13:-0.14925207 
10.413110515963 1:0.50416755 2:0.35253113 3:-0.010686475 4:-0.24521339 5:-0.41893007 6:-0.28312049 7:-0.29976906 8:-0.0055743635 9:-0.051240991 10:-0.053429735 11:0.00043263363 12:-0.30045232 13:-0.23038174 
2.182324841867048 1:0.081391261 2:0.46117462 3:0.19603851 4:-0.082127487 5:-0.33683788 6:-0.069025928 7:-0.080630413 8:0.19934277 9:0.013795449 10:0.022377265 11:0.13304869 12:-0.29058355 13:-0.1202736 
32 1:0.36682235 2:0.52009126 3:0.16509912 4:-0.046830918 5:-0.13850259 6:0.07869865 7:0.083562365 8:0.17186624 9:0.071049201 10:0.17617528 11:0.17843453 12:-0.32153429 13:-0.072057173 
32 1:0.26321056 2:0.31909582 3:0.15418381 4:0.13495449 5:-0.18096479 6:0.13252302 7:-0.043288961 8:0.26865337 9:0.069030067 10:0.33719749 11:0.1373267 12:-0.20693087 13:-0.019741494 
32 1:0.38316166 2:0.14049132 3:0.095550511 4:0.10372572 5:-0.31236812 6:0.12841864 7:-0.045610738 8:0.28696422 9:-0.082800085 10:0.11829074 11:-0.04965876 12:-0.29006524 13:-0.16371697 
32 1:0.074229456 2:0.11166594 3:0.094813792 4:0.13197709 5:-0.35975604 6:0.040164326 7:-0.081526776 8:0.30075089 9:-0.11040498 10:0.18777471 11:0.068890144 12:-0.14126938 13:-0.14735416 
32 1:-0.011417262 2:0.72559454 3:0.21192976 4:-0.20570114 5:-0.14937826 6:0.024698423 7:0.11609249 8:0.11503673 9:0.17082425 10:0.12618709 11:0.28064829 12:-0.19093928 13:0.015993207 
32 1:0.16194867 2:0.18900168 3:0.20677214 4:0.18661694 5:-0.31211661 6:0.17500144 7:0.053567115 8:0.35947741 9:-0.073562332 10:0.25423699 11:0.17399318 12:-0.21266549 13:-0.2856923 
32 1:0.24214746 2:0.33110212 3:0.21566922 4:0.084866984 5:-0.24991723 6:0.24181884 7:0.092934624 8:0.28626558 9:-0.0088764965 10:0.18629973 11:0.12123577 12:-0.40498651 13:-0.32509588 
32 1:-0.12817747 2:0.32671737 3:0.18057047 4:0.1418816 5:-0.18792894 6:0.13953854 7:0.16319754 8:0.36134146 9:0.05788213 10:0.34003632 11:0.14567044 12:-0.29564192 13:-0.30163212 
32 1:-0.04448637 2:0.29760932 3:0.2842424 4:0.23772185 5:-0.2744806 6:0.29720989 7:0.19347581 8:0.53896796 9:0.13304964 10:0.37362663 11:0.088084798 12:-0.2331251 13:-0.16576731 
32 1:-0.033074497 2:0.50958367 3:0.46134311 4:0.22911856 5:-0.28549675 6:0.23501361 7:0.12152073 8:0.4579737 9:0.21854319 10:0.44054539 11:0.15601433 12:-0.092612093 13:-0.11627377 
32 1:-0.072714441 2:0.40751043 3:0.4748098 4:0.45374474 5:-0.29489942 6:0.17190965 7:0.071186179 8:0.60651862 9:0.16337935 10:0.36791639 11:-0.095002908 12:-0.1536076 13:-0.12479208 
10.36494360641596 1:-0.067670055 2:0.29940414 3:0.53051918 4:0.47577548 5:-0.37328189 6:0.0073992813 7:-0.015039894 8:0.66103524 9:0.23834077 10:0.39558613 11:-0.11544549 12:-0.26520597 13:-0.29838369 
32 1:-0.18702204 2:0.54754847 3:0.72374938 4:0.30231852 5:-0.42083894 6:0.029642825 7:-0.26129763 8:0.48066174 9:0.29728799 10:0.34859242 11:-0.064336697 12:-0.080568292 13:-0.0086394298 
32 1:-0.5599031 2:0.18474832 3:0.35235377 4:0.2602948 5:-0.55737037 6:-0.11417884 7:-0.31850264 8:0.40949332 9:0.062478835 10:0.48115136 11:0.31800923 12:0.060813958 13:0.012347772 
32 1:0.077077021 2:0.42446727 3:0.32562894 4:0.064392809 5:-0.41210738 6:-0.050167292 7:0.056185617 8:0.352395 9:0.030383991 10:0.043523566 11:-0.058498027 12:-0.26985619 13:0.084367813 
32 1:-0.02209814 2:0.50043253 3:0.2798492 4:0.00023201962 5:-0.3449316 6:-0.11361631 7:0.048281834 8:0.26877757 9:0.011397821 10:0.063063878 11:0.050696399 12:-0.15794953 13:0.28565687 
32 1:0.07785846 2:0.2871691 3:0.26755376 4:0.10137636 5:-0.41565072 6:-0.0080221103 7:0.11559994 8:0.44563412 9:0.012570928 10:-0.052231397 11:-0.2316761 12:-0.19638938 13:0.27745617 
32 1:-0.22768904 2:0.31742248 3:0.24298795 4:0.056908691 5:-0.3897296 6:-0.00032981596 7:0.14182882 8:0.43927721 9:0.013512036 10:-0.023184091 11:-0.20077671 12:-0.27686574 13:0.27745211 
32 1:0.020926567 2:0.21111617 3:0.24866311 4:0.16208449 5:-0.42359868 6:0.07085811 7:0.14017512 8:0.68332387 9:0.26867825 10:0.446139 11:0.059302375 12:-0.14286209 13:0.022072504 
32 1:-0.019669399 2:0.44998007 3:0.30573483 4:-0.039773295 5:-0.42475086 6:-0.011406911 7:0.19210522 8:0.54498965 9:0.17492004 10:0.18442797 11:0.25287263 12:-0.059574691 13:0.3984541 
32 1:-0.28160809 2:-0.1406313 3:0.1945228 4:0.3817268 5:-0.45555177 6:0.24658169 7:0.096377874 8:0.82400699 9:0.1649188 10:0.43987801 11:-0.16633709 12:-0.19869634 13:-0.25044272 
32 1:0.10072337 2:0.19832491 3:0.024494741 4:-0.16984923 5:-0.37823866 6:0.17604408 7:0.19917352 8:0.31930012 9:0.090417052 10:0.22924822 11:0.13032901 12:-0.410242 13:0.0026119574 
32 1:0.20442862 2:0.57895154 3:0.10656912 4:-0.48456207 5:-0.3582587 6:0.076829988 7:0.30544834 8:0.18700539 9:0.092738372 10:0.0047239466 11:0.097640763 12:-0.53197274 13:0.26543218 
32 1:0.17762862 2:-0.1822275 3:-0.1960437 4:-0.22561596 5:-0.6706438 6:-0.091030661 7:-0.019853164 8:0.22710033 9:-0.27357136 10:-0.14011427 11:-0.0955123 12:-0.17441711 13:0.076798445 
32 1:0.31654071 2:0.41257683 3:-0.057078654 4:-0.36988663 5:-0.26170055 6:-0.035205789 7:0.18095711 8:0.090897346 9:-0.042357519 10:-0.11527391 11:0.22757096 12:-0.21157895 13:0.047073616 
32 1:0.002063412 2:-0.097032934 3:-0.089965072 4:-0.15375356 5:-0.57711743 6:0.09956323 7:-0.033556815 8:0.18890794 9:-0.22730029 10:0.046229785 11:0.12089926 12:-0.16710261 13:-0.069838815 
11.15076142235671 1:0.30431932 2:0.40878344 3:-0.15354049 4:-0.4757533 5:-0.26257401 6:-0.068624581 7:-0.055792931 8:-0.19048103 9:-0.09870359 10:-0.20270091 11:-0.0072343228 12:-0.56691174 13:-0.069897913 
32 1:0.52335495 2:0.037689476 3:-0.16356341 4:-0.24355784 5:-0.36356648 6:0.094222034 7:0.04717674 8:0.17762968 9:-0.090347701 10:-0.013304296 11:0.020118354 12:-0.30265436 13:-0.070754083 
32 1:0.43939766 2:0.012229015 3:-0.13423556 4:-0.082516414 5:-0.41071082 6:-0.038429564 7:-0.07515104 8:0.21100153 9:-0.14398952 10:-0.10146692 11:-0.11159401 12:-0.31219903 13:-0.029229745 
32 1:0.20424048 2:-0.069043769 3:-0.23483084 4:-0.21570225 5:-0.3736093 6:0.020336607 7:0.029061781 8:0.15865373 9:-0.15459727 10:0.0076482536 11:-0.057577651 12:-0.3118983 13:-0.10016843 
29.27835702221299 1:0.40312243 2:0.6485036 3:-0.19264052 4:-0.5002296 5:0.18652346 6:-0.53282933 7:-0.12519775 8:-0.10151707 9:0.21940614 10:-0.35458995 11:-0.18367902 12:-0.11663338 13:-0.29180621 
32 1:0.39343462 2:0.27473298 3:-0.0039808865 4:-0.15569635 5:-0.35562347 6:-0.054588709 7:-0.18396732 8:0.029318162 9:-0.10250588 10:-0.10217835 11:-0.17184447 12:-0.38414731 13:0.12911607 
8.68976207078045 1:0.094422751 2:0.098775933 3:-0.057675996 4:-0.046786591 5:-0.38755235 6:-0.19315585 7:-0.17519074 8:0.10896985 9:-0.19119211 10:-0.11723408 11:-0.52314584 12:-0.46576722 13:-0.15209012 
32 1:0.31887749 2:0.13172503 3:-0.11401206 4:-0.18082437 5:-0.45161389 6:-0.098768634 7:-0.22078861 8:0.015763673 9:-0.16155133 10:-0.044158289 11:-0.047794189 12:-0.25258332 13:0.28728621 
32 1:0.094289048 2:0.240431 3:-0.0090069511 4:-0.13436505 5:-0.23525479 6:-0.057354711 7:-0.20495247 8:0.10987874 9:-0.13167751 10:-0.39186595 11:-0.3196205 12:-0.21970647 13:-0.020427836 
32 1:0.34971329 2:0.13110992 3:0.098760044 4:0.10754481 5:-0.41199696 6:0.054512218 7:-0.11119332 8:0.25184779 9:-0.13949628 10:0.14748463 11:-0.00068390703 12:-0.20939146 13:-0.071512397 
11.94743697291285 1:0.35017276 2:0.64247276 3:0.02988328 4:-0.38114975 5:-0.065169063 6:-0.17011143 7:-0.17069833 8:-0.0880531 9:0.17915302 10:-0.26393851 11:-0.23123521 12:-0.35975159 13:-0.074573865 
32 1:0.17725323 2:-0.096195706 3:0.028001458 4:0.098815702 5:-0.49124492 6:0.017578343 7:-0.17917681 8:0.32697602 9:-0.17412589 10:-0.16293531 11:-0.57685751 12:-0.44045663 13:-0.081310158 
32 1:0.45014593 2:0.55953108 3:-0.021656988 4:-0.41384393 5:-0.10904014 6:-0.19576498 7:-0.15015309 8:-0.048451595 9:0.08109191 10:-0.45124956 11:-0.30120421 12:-0.28625017 13:0.12635143 
12.58575129418468 1:0.13003237 2:0.22492469 3:0.013020235 4:-0.095523626 5:-0.32510973 6:-0.047970488 7:-0.11018784 8:0.13805624 9:-0.14273846 10:-0.21031851 11:-0.32272102 12:-0.43088951 13:-0.10510009 
1.180572828030945 1:0.44424199 2:0.63895331 3:0.0012149721 4:-0.40282151 5:0.023576708 6:-0.21684811 7:-0.088364308 8:0.012729371 9:0.19211238 10:-0.44621381 11:-0.32313262 12:-0.24281173 13:-0.29300501 
32 1:0.34203486 2:0.14220456 3:0.12754632 4:0.17665929 5:-0.30655205 6:0.11428655 7:-0.10848965 8:0.26860955 9:-0.076398362 10:0.14259963 11:-0.10205264 12:-0.23140913 13:0.077784443 
13.87148313027194 1:0.076443658 2:-0.023228648 3:0.093795105 4:0.15611915 5:-0.4125818 6:0.21566542 7:-0.056245445 8:0.34517178 9:-0.16846457 10:-0.024288783 11:-0.4148338 12:-0.4794079 13:-0.23541221 
6.350156421981401 1:0.43065514 2:0.38090569 3:0.049173627 4:-0.15454549 5:-0.12078139 6:0.096204445 7:-0.067266309 8:0.11447843 9:0.028071211 10:-0.2391376 11:-0.27517022 12:-0.40976416 13:0.10384111 
32 1:0.067628853 2:0.0059308426 3:0.093590849 4:0.10514183 5:-0.38816144 6:0.23100148 7:-0.13675914 8:0.19694201 9:-0.19335554 10:-0.063868629 11:-0.3201763 12:-0.28370831 13:0.07114287 
32 1:0.46318537 2:0.2794865 3:0.071996677 4:0.040101343 5:-0.055861553 6:0.19585285 7:0.040062148 8:0.28318347 9:0.066327931 10:-0.076745783 11:-0.25800951 12:-0.23826563 13:0.2943142 
16.81327701339803 1:0.44180934 2:0.61582433 3:0.12034668 4:-0.35165029 5:0.029231942 6:0.21204547 7:0.010334888 8:0.084767489 9:0.21523643 10:-0.27106314 11:-0.28177646 12:-0.26192388 13:0.15070176 
32 1:0.13656255 2:0.061994431 3:0.12115129 4:0.26391596 5:-0.17875383 6:0.23372759 7:-0.10954616 8:0.31161029 9:-0.057462646 10:0.12991819 11:-0.09375559 12:-0.040690825 13:0.27314423 
32 1:0.44911344 2:0.059436537 3:0.096843145 4:0.1481497 5:-0.32548725 6:0.17688998 7:0.072080564 8:0.40141792 9:-0.093169604 10:0.095924803 11:-0.094756552 12:-0.27702682 13:-0.13840525 
32 1:0.15046996 2:0.040141252 3:0.093419613 4:0.14432053 5:-0.37407953 6:0.14519523 7:0.10362996 8:0.47936315 9:-0.046967812 10:0.19632135 11:0.072192445 12:-0.090148323 13:-0.01582439 
32 1:0.45979519 2:-0.01698986 3:0.017112471 4:0.15866084 5:-0.3090039 6:0.24178572 7:0.18897039 8:0.54293797 9:-0.040670206 10:0.058503647 11:-0.10610175 12:-0.22750917 13:-0.14419858 
11.69649694611362 1:0.30427205 2:-0.11014959 3:0.00079033129 4:0.17232229 5:-0.22465026 6:0.3699213 7:0.28851273 8:0.6454361 9:0.057177888 10:-0.013384018 11:-0.39178358 12:-0.32927356 13:0.10712333 
28.63961981327831 1:0.045750945 2:-0.29767989 3:0.12676671 4:0.35884982 5:-0.5219969 6:0.14192205 7:-0.033655031 8:0.64394481 9:-0.1462719 10:0.015277645 11:-0.31829255 12:-0.023969459 13:0.052452263 
16.89997976438493 1:0.19185497 2:0.091309661 3:0.21228232 4:0.24276226 5:-0.19840416 6:0.35511546 7:0.33988515 8:0.64584244 9:0.003723513 10:-0.22956146 11:-0.45761585 12:-0.29123366 13:0.25545359 
32 1:-0.18073574 2:-0.21432934 3:0.28684378 4:0.50591428 5:-0.48316928 6:0.27347354 7:0.072462365 8:0.78130517 9:-0.022854997 10:0.20888385 11:-0.30040422 12:-0.077606545 13:0.084302695 
32 1:-0.056128223 2:0.17756197 3:0.41150269 4:0.44137438 5:-0.2478186 6:0.33529821 7:0.26691939 8:0.64885946 9:-0.059594753 10:-0.11301917 11:-0.39623654 12:-0.21038249 13:0.21645251 
32 1:-0.372453 2:-0.29030417 3:0.31266611 4:0.72634255 5:-0.30561734 6:0.44663541 7:0.047864225 8:0.82162065 9:-0.035380653 10:0.27857506 11:-0.42938746 12:-0.14709898 13:-0.16047694 
32 1:-0.19321544 2:0.36144594 3:0.5092375 4:0.36864747 5:-0.19014618 6:0.39758007 7:0.22331249 8:0.5808437 9:0.07317246 10:0.21269982 11:-0.18591093 12:0.0091398705 13:0.24314261 
0.06538654606506945 1:-0.45105605 2:-0.2840698 3:0.32314291 4:0.76745406 5:-0.24821838 6:0.47809945 7:0.034657123 8:0.80271064 9:-0.040288791 10:0.26614974 11:-0.42548167 12:-0.11572524 13:-0.1350149 
29.76818977588311 1:-0.27265508 2:0.46442236 3:0.58271979 4:0.27109831 5:-0.17148917 6:0.48022729 7:0.20944796 8:0.52837016 9:0.11110972 10:0.16148476 11:-0.22514252 12:-0.088239014 13:0.26438317 
32 1:-0.19153204 2:0.35530545 3:0.51910328 4:0.45708567 5:-0.17984813 6:0.3347965 7:0.15176213 8:0.57424949 9:0.097728671 10:0.1748264 11:-0.23105637 12:-0.099644525 13:0.32600387 
32 1:-0.20354464 2:0.39153667 3:0.55332136 4:0.37694822 5:-0.14104232 6:0.5119368 7:0.24847036 8:0.55632066 9:0.11207536 10:0.10449385 11:-0.21028918 12:0.049718072 13:0.21829728 
32 1:-0.47644772 2:0.012123318 3:-0.023658383 4:-0.16098772 5:-0.48919797 6:-0.028762445 7:-0.30596785 8:0.28343748 9:0.068652763 10:0.48734917 11:0.36344228 12:0.04090778 13:0.08960684 
32 1:0.32422444 2:0.45313791 3:-0.20403792 4:-0.39324538 5:0.0386561 6:-0.23292921 7:-0.039940785 8:-0.012391633 9:0.26114056 10:0.18284895 11:0.020527784 12:-0.33080705 13:0.12774615 
6.231289784914111 1:0.32883001 2:-0.23635411 3:-0.3631086 4:-0.21278609 5:-0.33017648 6:0.12340285 7:-0.11039185 8:0.19943551 9:0.14481574 10:0.34987993 11:-0.048806551 12:-0.47409527 13:-0.06700952 
15.84862933795501 1:-1 2:-0.19461747 3:0.19231094 4:0.34380669 5:-0.46569781 6:0.089797471 7:-0.51090156 8:0.28577801 9:-0.201628 10:0.16764178 11:-0.24737276 12:-0.16407047 13:-0.21787057 
32 1:-0.56529265 2:-0.18261359 3:-0.11035555 4:0.24706898 5:-0.22359993 6:-0.040388412 7:-0.23956981 8:0.48515425 9:0.10447435 10:0.27544831 11:0.17735236 12:0.093947622 13:0.084440211 
32 1:0.29341292 2:-0.14837781 3:-0.2858454 4:-0.22190585 5:-0.31485424 6:0.2315421 7:0.093554855 8:0.37711268 9:0.1881633 10:0.36127707 11:0.15391632 12:-0.19578973 13:0.040909358 
32 1:0.3616037 2:0.09424971 3:-0.065342381 4:-0.078961359 5:-0.37755878 6:0.064206017 7:0.070738761 8:0.40966763 9:0.10090378 10:0.15404581 11:-0.044920965 12:-0.28193869 13:0.1187945 
32 1:-0.063087583 2:-0.285115 3:-0.24522114 4:-0.085670337 5:-0.52309077 6:0.042128656 7:-0.028868955 8:0.48506407 9:0.083909677 10:0.42073398 11:0.16559071 12:-0.054412853 13:0.006260499 
32 1:0.27257699 2:0.050428259 3:-0.09063205 4:-0.071998453 5:-0.36243823 6:0.13069445 7:0.10647333 8:0.4033436 9:0.059169689 10:0.12976724 11:-0.065076072 12:-0.24982104 13:0.21192174 
32 1:0.36187256 2:-0.13456637 3:-0.24974807 4:-0.2607858 5:-0.24366919 6:0.47679166 7:0.38241063 8:0.31526308 9:-0.00089365684 10:0.076611451 11:0.050375771 12:-0.23314508 13:0.37945207 
32 1:0.38837128 2:-0.070690272 3:-0.22914671 4:-0.41799606 5:-0.12015675 6:0.64165311 7:0.3920146 8:-0.014868998 9:-0.064059583 10:0.056298625 11:0.17604442 12:-0.2132951 13:0.67825436 
32 1:0.026334194 2:-0.040484552 3:-0.32730898 4:-0.33058678 5:-0.10241105 6:0.28624407 7:0.37248623 8:0.15227477 9:-0.043530813 10:0.0081049107 11:-0.016039408 12:-0.17011025 13:0.43698003 
32 1:0.28012487 2:-0.21400167 3:-0.33042211 4:-0.32910343 5:-0.21466901 6:0.42903089 7:0.1922454 8:0.00051682054 9:-0.18223627 10:-0.0067453083 11:0.14021675 12:-0.14873494 13:0.56026824 
32 1:0.31117216 2:0.23213656 3:-0.23256236 4:-0.28322532 5:0.068290293 6:0.12794376 7:0.25704646 8:-0.063917123 9:-0.085618436 10:0.077895592 11:0.31254679 12:-0.0051367893 13:0.45874951 
32 1:-0.23089385 2:-0.087527598 3:-0.071248885 4:-0.018777067 5:-0.15070049 6:0.48529837 7:0.27654293 8:0.15514338 9:-0.24332957 10:-0.024412473 11:0.23416823 12:0.0017375664 13:0.31312473 
3.595126398125472 1:0.22450094 2:0.17233577 3:-0.073466961 4:-0.091921432 5:0.10105479 6:0.40113177 7:0.20947547 8:0.16324407 9:-0.027665732 10:-0.17880944 11:-0.12451778 12:-0.10245196 13:0.42069274 
32 1:0.20412713 2:0.10292749 3:-0.086164196 4:0.038111745 5:0.14819636 6:0.38077879 7:0.19918558 8:0.21446289 9:-0.029450186 10:-0.1429081 11:-0.019413928 12:0.019490431 13:0.4250097 
32 1:-0.076490678 2:0.026464044 3:-0.13221697 4:0.001833346 5:0.044475218 6:0.33590664 7:0.193545 8:0.25962663 9:-0.052176495 10:-0.083892222 11:-0.13717775 12:-0.1043782 13:0.21725355 
32 1:0.15938856 2:-0.031941228 3:-0.093323719 4:-0.013378722 5:-0.01238484 6:0.53944661 7:0.13925895 8:0.18798613 9:0.0053038159 10:0.070107171 11:-0.1320987 12:-0.14899744 13:0.35443067 
32 1:-0.1727351 2:-0.16493235 3:-0.11703865 4:0.046248136 5:-0.16292569 6:0.42398098 7:-0.037458248 8:0.19919967 9:-0.029488017 10:0.15834901 11:-0.17475897 12:-0.15665817 13:0.28777163 
32 1:0.19038653 2:0.11879056 3:-0.20318581 4:-0.10328437 5:0.24440376 6:0.31152185 7:0.14354048 8:0.21055427 9:0.12729948 10:-0.17180057 11:-0.057428136 12:-0.0080846107 13:0.40891264 
16.69334727780616 1:0.084346747 2:0.10386405 3:-0.16789557 4:-0.076957983 5:0.2647196 6:0.41658446 7:0.14684207 8:0.19499114 9:0.11515682 10:-0.20386414 11:-0.12772604 12:-0.047925775 13:0.44664537 
32 1:0.17570783 2:-0.12663822 3:-0.1250859 4:0.11760145 5:0.075079694 6:0.56660491 7:0.24332089 8:0.39804366 9:-0.013086234 10:-0.067782509 11:-0.2711866 12:-0.13881379 13:0.21670881 
20.76779522810672 1:-0.12656524 2:-0.3100991 3:-0.10839193 4:0.25585344 5:-0.044544679 6:0.63574582 7:0.28521758 8:0.58428706 9:-0.030123926 10:0.054315941 11:-0.24706106 12:-0.12544199 13:-0.0011205695 
15.77352276751 1:0.15872653 2:0.44470967 3:-0.12892618 4:-0.36297959 5:0.49145946 6:0.064413445 7:-0.043886018 8:0.30731467 9:0.31981589 10:-0.57432765 11:-0.184973 12:0.14664273 13:0.043000862 
13.64875613585274 1:-0.19561059 2:0.32829349 3:-0.14613117 4:-0.22053624 5:0.2717599 6:-0.11115247 7:-0.078509752 8:0.19219669 9:0.34021758 10:-0.11167032 11:-0.34719176 12:0.078492298 13:0.10786701 
32 1:0.2137093 2:-0.095502936 3:-0.21117233 4:-0.0601086 5:-0.25363493 6:-0.077301796 7:-0.1950206 8:0.23136459 9:-0.018639314 10:-0.0085257467 11:-0.046819983 12:0.14395959 13:0.52791193 
0.7991264081439583 1:-0.075522948 2:0.022950447 3:-0.1473135 4:0.025229867 5:0.17867028 6:0.29928207 7:0.19809479 8:0.40438586 9:0.10256591 10:-0.18051466 11:-0.29516985 12:0.021837973 13:0.36799976 
32 1:-0.20135381 2:0.17991863 3:0.0232436 4:0.08432687 5:-0.14179273 6:-0.087311387 7:-0.079337564 8:0.33756352 9:-0.075644268 10:-0.11541938 11:0.11272247 12:0.1490211 13:0.063770749 
32 1:-0.02283201 2:0.1494426 3:0.1688698 4:0.2296045 5:-0.05051798 6:0.44355368 7:0.18213662 8:0.23995146 9:-0.26086961 10:-0.17286791 11:-0.071354526 12:-0.033933615 13:0.22372129 
32 1:-0.35659824 2:0.07579531 3:0.080344141 4:0.26669556 5:-0.06783862 6:0.2302453 7:0.040693463 8:0.18679783 9:-0.26597076 10:0.034421698 11:0.011827027 12:0.023454773 13:0.079939807 
32 1:-0.002317712 2:0.25125387 3:0.22952963 4:0.16466948 5:-0.17718892 6:0.30304433 7:0.17245721 8:0.20079008 9:-0.24313521 10:-0.087057396 11:0.014093672 12:0.0098888316 13:0.3929691 
23.40611924258443 1:-0.034141849 2:0.31901362 3:0.23632381 4:0.13135307 5:-0.20331231 6:0.24353152 7:0.1842532 8:0.25823806 9:-0.17907274 10:-0.21190237 11:-0.020817367 12:0.064286598 13:0.60152881 
19.00686153750073 1:-0.32725987 2:0.3321023 3:0.088414555 4:-0.0003273128 5:-0.14587538 6:-0.014213284 7:0.2689598 8:0.10698562 9:-0.20016894 10:0.031561899 11:0.025658659 12:0.12116288 13:0.46580986 
32 1:-0.028561979 2:0.45150998 3:0.30883962 4:0.050771657 5:-0.0389776 6:0.40999154 7:0.26110347 8:0.028908901 9:-0.25641883 10:-0.27277384 11:-0.0892858 12:-0.0058369454 13:0.55148672 
32 1:-0.15268595 2:0.27523165 3:0.24700676 4:0.21191262 5:-0.17236705 6:0.34956192 7:0.18954492 8:0.31924006 9:-0.13546017 10:-0.092248489 11:-0.086474055 12:-0.10763255 13:0.2657918 
32 1:0.037322039 2:0.035095986 3:0.15004279 4:0.25601419 5:-0.17388183 6:0.30930728 7:0.18967345 8:0.36265899 9:-0.28358233 10:-0.21011081 11:-0.089971964 12:0.09056427 13:0.35579212 
25.83455812182317 1:0.099832383 2:0.18557085 3:0.16011898 4:0.11773716 5:-0.10923251 6:0.15446421 7:0.23812045 8:0.45198293 9:0.05002069 10:-0.38682847 11:-0.31249226 12:0.14507726 13:0.95334613 
9.555163018140386 1:-0.29669423 2:-0.040672428 3:0.058279452 4:0.26969164 5:-0.18523456 6:0.19481677 7:0.13049245 8:0.4208523 9:-0.22393725 10:-0.049588417 11:-0.10832414 12:0.087083935 13:0.19595496 
32 1:-0.27367656 2:-0.26904529 3:0.013859447 4:0.23421431 5:-0.37337583 6:0.37216764 7:0.014805191 8:0.46475856 9:-0.14529593 10:0.072040635 11:-0.061561205 12:0.17666865 13:0.48091899 
31.28552492629943 1:0.30092341 2:-0.23561064 3:-0.55257439 4:-0.35967235 5:0.30985149 6:0.032892399 7:0.059594188 8:0.27328213 9:0.45039086 10:-0.024414564 11:-0.3204434 12:-0.16984327 13:0.5202344 
32 1:0.15250522 2:-0.50474251 3:-0.5026116 4:0.0028954232 5:-0.12950204 6:0.13519574 7:-0.16130246 8:0.25010577 9:0.052539414 10:0.18024066 11:0.013996647 12:-0.11321222 13:0.22299156 
32 1:0.31089549 2:-0.221909 3:-0.41463302 4:-0.21817864 5:0.14248635 6:0.074020663 7:-0.25250383 8:0.096795354 9:0.33002526 10:0.2058343 11:-0.03149847 12:-0.13488948 13:0.23904256 
15.60600175074825 1:0.32629502 2:-0.30176306 3:-0.63056916 4:-0.40097237 5:0.3202182 6:-0.086199591 7:-0.19385667 8:0.11733978 9:0.43473894 10:0.018183468 11:-0.19622108 12:-0.25683782 13:0.1858673 
11.46655508205977 1:0.32727126 2:-0.69321835 3:-0.73754223 4:-0.38406403 5:-0.069831482 6:-0.03170853 7:-0.29327139 8:0.21081024 9:0.41929395 10:0.36351592 11:-0.003305184 12:0.0010970894 13:0.49556485 
23.38052605672142 1:0.29591435 2:-0.35172865 3:-0.35699047 4:0.035336439 5:0.11742034 6:0.036647973 7:-0.2589083 8:0.22539326 9:0.29926803 10:0.2092545 11:-0.080982938 12:-0.0769962 13:0.32826217 
9.164075757855937 1:-0.078649059 2:-0.35631325 3:-0.45187262 4:-0.13735697 5:0.17055154 6:0.087142952 7:-0.18182525 8:0.33506315 9:0.3084725 10:-0.11943013 11:-0.41427339 12:-0.18034865 13:0.12883098 
17.11184848991755 1:0.27456365 2:-0.65615086 3:-0.61822077 4:-0.091823233 5:0.082522127 6:0.091751699 7:-0.17576405 8:0.2198724 9:0.29638673 10:0.18663938 11:-0.13526129 12:-0.19320549 13:0.31897408 
32 1:0.37497234 2:-0.58422487 3:-0.66172911 4:-0.3329021 5:0.13389386 6:0.075456583 7:-0.18778063 8:0.18222751 9:0.44112931 10:0.23244631 11:-0.22742001 12:-0.33966743 13:0.13295148 
32 1:0.29971399 2:-0.17392005 3:-0.5048972 4:-0.23985673 5:0.23845439 6:-0.13828283 7:-0.18185567 8:0.13130957 9:0.32973724 10:0.1539613 11:-0.01630196 12:-0.17759204 13:0.12074694 
32 1:0.35419663 2:-0.46647791 3:-0.50072409 4:-0.1168803 5:0.1069675 6:0.17317938 7:-0.1933012 8:0.18476178 9:0.20236857 10:0.14464328 11:-0.12853102 12:-0.12340026 13:0.24083002 
32 1:0.34509986 2:-0.4411793 3:-0.43886308 4:0.0067344829 5:0.11878968 6:0.14435336 7:-0.24000188 8:0.16804588 9:0.15281208 10:0.11213932 11:-0.11899586 12:-0.089605945 13:0.30712081 
19.70844308688213 1:0.2985592 2:-0.459209 3:-0.52172724 4:-0.11431235 5:0.034915503 6:0.032621721 7:-0.21700144 8:0.25167949 9:0.22406269 10:0.27449667 11:0.020080231 12:-0.086060761 13:0.076499044 
32 1:0.28897802 2:-0.54441528 3:-0.48644038 4:0.031919387 5:-0.028014943 6:-0.17681905 7:-0.43172681 8:0.18347094 9:0.12882248 10:-0.02293866 11:-0.21524773 12:0.01570242 13:0.41967591 
32 1:0.33754986 2:-0.19542955 3:-0.52197252 4:-0.2434732 5:0.48987285 6:-0.074816271 7:-0.20225619 8:0.19362628 9:0.51559785 10:-0.015816257 11:-0.016498316 12:-0.12587762 13:0.01372831 
18.51856732448366 1:0.31740386 2:-0.66328295 3:-0.60221773 4:-0.076098705 5:0.1001273 6:-0.12264357 7:-0.3352124 8:0.29524149 9:0.29362689 10:0.12513411 11:-0.18079357 12:-0.085536345 13:0.12375341 
16.3404606216506 1:-0.31258199 2:0.51554806 3:0.27059898 4:-0.10401046 5:-0.39021236 6:-0.20697975 7:-0.23470021 8:-0.26953799 9:-0.33927449 10:0.062642917 11:0.7238447 12:0.31462188 13:0.32555395 
32 1:-0.24140164 2:0.41858882 3:0.32013603 4:0.095761581 5:-0.32792573 6:-0.024082676 7:-0.3204704 8:-0.091644013 9:-0.29500812 10:0.06853466 11:0.30665386 12:0.29313228 13:0.36857231 
32 1:0.030991487 2:-0.309683 3:0.11083854 4:0.5637211 5:-0.30208001 6:-0.043290263 7:-0.48666356 8:0.30797494 9:-0.14329922 10:0.42999862 11:0.012854894 12:0.15091654 13:0.0607828 
32 1:0.43360174 2:0.51504679 3:0.050326662 4:-0.33793081 5:-0.13820196 6:-0.18737341 7:-0.2186921 8:-0.35616111 9:-0.1932116 10:-0.1670327 11:0.74767594 12:0.38562947 13:0.42421892 
32 1:-0.19534598 2:-0.37496892 3:0.087068707 4:0.55939726 5:-0.33970025 6:-0.024076996 7:-0.45599544 8:0.39064102 9:-0.098024957 10:0.45201825 11:-0.030101963 12:0.11740169 13:0.018128001 
19.52788403914504 1:0.30393391 2:0.31619913 3:0.078898068 4:-0.12772877 5:-0.25177501 6:-0.056241462 7:-0.14274815 8:-0.1696681 9:-0.26459776 10:-0.018121147 11:0.81324964 12:0.3915171 13:0.38043993 
32 1:0.31800872 2:0.026821025 3:0.059688991 4:0.15793506 5:-0.33748364 6:-0.066244459 7:-0.35910656 8:-0.0011581465 9:-0.3280036 10:0.089454743 11:0.28249727 12:0.25946214 13:0.20511585 
17.52053453107883 1:0.37544317 2:0.69332153 3:0.078863471 4:-0.45378131 5:-0.010171999 6:-0.27912536 7:-0.35965774 8:-0.37006536 9:0.011197352 10:-0.34948061 11:0.49967152 12:0.59401561 13:0.44078956 
32 1:0.075181995 2:-0.021397687 3:0.076970456 4:0.23145566 5:-0.31073079 6:0.015148958 7:-0.36194441 8:0.030290999 9:-0.30810008 10:0.16258907 11:0.26306598 12:0.22981573 13:0.14927186 
32 1:0.27274615 2:0.085568374 3:0.14125184 4:0.18656955 5:-0.40983774 6:-0.14205795 7:-0.4003583 8:-0.068700503 9:-0.41286934 10:0.11704373 11:0.38440194 12:0.29691424 13:0.23141792 
30.59392722138286 1:-0.028795907 2:-0.17227224 3:0.17462906 4:0.31103474 5:-0.59330496 6:-0.065290971 7:-0.5696111 8:-0.091338533 9:-0.55172917 10:0.14388664 11:0.21618077 12:0.25107625 13:0.10029808 
32 1:0.24925603 2:0.094173232 3:0.075057691 4:0.16912119 5:-0.39699361 6:-0.14977281 7:-0.48149026 8:-0.066601045 9:-0.32828139 10:0.099213906 11:0.24020663 12:0.16620997 13:0.22445263 
0.2221511886969839 1:0.17988949 2:0.11868848 3:0.11529352 4:0.19563154 5:-0.35536493 6:-0.0917605 7:-0.42355833 8:-0.057208571 9:-0.35281413 10:0.054539192 11:0.31970842 12:0.29989984 13:0.31128334 
32 1:-0.06190759 2:0.16683564 3:0.17335799 4:0.11061484 5:-0.38082732 6:0.084940066 7:-0.35969619 8:-0.0816535 9:-0.28118046 10:0.13254781 11:0.26969416 12:0.19159746 13:0.47913747 
32 1:-0.070611427 2:0.13500587 3:0.10737285 4:0.068316744 5:-0.42715495 6:-0.047770286 7:-0.5525965 8:-0.032101649 9:-0.14924665 10:0.10194427 11:-0.045879684 12:-0.031188013 13:0.28131721 
9.142962537679718 1:0.17191919 2:0.28540703 3:0.11854494 4:0.040422736 5:-0.26713605 6:-0.067020307 7:-0.48335869 8:-0.27342926 9:-0.31857757 10:0.0026556614 11:0.21201182 12:0.097259118 13:0.3210945 
32 1:0.25253544 2:0.34982902 3:0.1525929 4:0.0246721 5:-0.26750021 6:-0.038701226 7:-0.41614222 8:-0.27627102 9:-0.28401293 10:0.10994547 11:0.25733591 12:-0.0081118429 13:0.33306603 
32 1:-0.078911018 2:0.034021174 3:0.10549156 4:0.11957031 5:-0.47968247 6:-0.06238449 7:-0.56179293 8:-0.24610929 9:-0.45170661 10:0.10565469 11:0.10808433 12:-0.040504155 13:0.10620074 
15.5498838978296 1:0.16432875 2:0.64108631 3:0.062268386 4:-0.21951404 5:0.094463305 6:-0.29927334 7:-0.51445985 8:-0.45173573 9:-0.044833051 10:-0.15611566 11:0.32742161 12:0.27543331 13:0.28854587 
32 1:0.27362333 2:0.41145085 3:0.091509764 4:-0.098798247 5:-0.16999253 6:-0.061741606 7:-0.4791293 8:-0.37880308 9:-0.21530669 10:0.024050906 11:0.28248255 12:-0.015486557 13:0.32633299 
32 1:0.256752 2:0.11499748 3:0.09119062 4:0.18451727 5:-0.34366985 6:-0.09264095 7:-0.57039993 8:-0.17340211 9:-0.34050137 10:0.1238451 11:0.096788418 12:0.02702654 13:0.21393291 
32 1:0.15998484 2:0.1243527 3:0.07509463 4:0.18098882 5:-0.34537281 6:-0.096109117 7:-0.53831707 8:-0.10777707 9:-0.27392505 10:0.15767451 11:0.11884636 12:0.039442798 13:0.32570324 
32 1:-0.10019005 2:-0.062271472 3:0.17470494 4:0.31805084 5:-0.47896022 6:-0.032918166 7:-0.54106226 8:-0.0020576852 9:-0.38032399 10:0.22249897 11:0.1962465 12:0.24275085 13:0.27570864 
32 1:0.27566574 2:0.22913895 3:0.21750806 4:0.15405167 5:-0.3873499 6:-0.042622567 7:-0.29747857 8:-0.045953978 9:-0.32899576 10:0.071099194 11:0.35564322 12:0.27028781 13:0.39976079 
22.34956823899758 1:0.18300341 2:0.70029392 3:0.18666835 4:-0.25990585 5:0.033289796 6:-0.080622612 7:-0.27986035 8:-0.39770649 9:-0.031714283 10:-0.097165084 11:0.26312269 12:0.34322806 13:0.54268546 
14.47738673421553 1:-0.089880608 2:0.25120779 3:0.1034057 4:0.16652682 5:-0.1102993 6:-0.036270144 7:-0.26895915 8:-0.19068485 9:-0.30329079 10:0.18778069 11:0.34741108 12:0.19319801 13:0.33812508 
25.18647173107551 1:-0.086289982 2:-0.0057982178 3:0.15977782 4:0.23790471 5:-0.42720481 6:0.069953934 7:-0.39204852 8:0.033780092 9:-0.3067901 10:0.22659082 11:0.28697521 12:0.23688932 13:0.28960156 
32 1:-0.0042376506 2:-0.16302983 3:0.073121043 4:0.38050782 5:-0.20775264 6:0.22443229 7:-0.27838391 8:0.18551631 9:-0.19641777 10:0.3466562 11:0.28235772 12:0.35598079 13:0.47454748 
17.42632376351701 1:0.2412429 2:0.38268659 3:0.15229582 4:0.043224251 5:-0.13864689 6:0.22367764 7:-0.14132394 8:-0.05428212 9:-0.055158495 10:0.34007876 11:0.4917863 12:0.015299313 13:0.50502651 
32 1:0.019808079 2:0.29341389 3:0.12484839 4:0.02220922 5:-0.20229053 6:0.22005628 7:-0.19676756 8:0.064711956 9:0.040785661 10:0.35225834 11:0.43407158 12:0.045896895 13:0.35902011 
32 1:0.22862443 2:0.092243026 3:0.10057227 4:0.14220147 5:-0.34430837 6:0.03444349 7:-0.28854523 8:0.11844679 9:-0.083288422 10:0.41387559 11:0.42196177 12:0.20307414 13:0.28551811 
32 1:0.040268499 2:0.14261626 3:0.2183088 4:0.27920001 5:-0.36234892 6:-0.045961795 7:-0.46356621 8:0.042814945 9:-0.18242153 10:0.31882063 11:0.20585992 12:0.087806649 13:0.1294018 
32 1:0.34867845 2:0.27286642 3:0.19151653 4:0.024964032 5:-0.49900648 6:-0.15902352 7:-0.27837046 8:-0.074272881 9:-0.32338943 10:0.18671056 11:0.46642303 12:0.10623969 13:0.12884017 
32 1:0.041649991 2:0.20751883 3:0.14501284 4:0.12001826 5:-0.42453101 6:-0.23276929 7:-0.35531208 8:-0.081213006 9:-0.31614363 10:0.27105394 11:0.34393646 12:0.040583589 13:-0.080024875 
32 1:0.34082435 2:0.37216596 3:0.24407131 4:0.05741821 5:-0.41718691 6:-0.078657748 7:-0.30220284 8:-0.0094233483 9:-0.096678371 10:0.36340025 11:0.44345766 12:0.13682979 13:0.34434089 
32 1:0.054679298 2:-0.23207656 3:0.16373511 4:0.33263109 5:-0.71797375 6:-0.16755692 7:-0.56041644 8:0.176484 9:-0.36133065 10:0.29194009 11:0.11388529 12:0.24383681 13:0.048159098 
32 1:0.32784749 2:0.041108503 3:0.096183265 4:0.078631993 5:-0.55645421 6:-0.18129601 7:-0.3848521 8:-0.01170594 9:-0.33411231 10:0.20869231 11:0.31770708 12:0.0304255 13:-0.17808552 
32 1:0.28079596 2:0.40501151 3:0.13606088 4:0.027518771 5:-0.26135668 6:-0.12218222 7:-0.26686597 8:-0.023530927 9:-0.029088675 10:0.29670661 11:0.38402481 12:0.057166894 13:0.13883115 
32 1:0.032392369 2:-0.024946306 3:0.086394931 4:0.11733301 5:-0.57347601 6:-0.16135229 7:-0.47770912 8:-0.025311205 9:-0.34629162 10:0.21731279 11:0.23711835 12:0.02932426 13:-0.14950316 
32 1:0.21459539 2:0.52531997 3:0.14474458 4:-0.10808448 5:-0.29038311 6:-0.20038559 7:-0.30454708 8:-0.11684842 9:-0.032361731 10:0.094125253 11:0.30798008 12:0.023645417 13:0.13605316 
32 1:0.30941711 2:0.38890546 3:0.14150433 4:-0.12925661 5:-0.44510938 6:-0.20615591 7:-0.26733802 8:-0.034699042 9:-0.14993411 10:0.018989199 11:0.24978561 12:0.023805008 13:0.068204764 
32 1:0.26450782 2:0.44019859 3:0.11105162 4:-0.094543549 5:-0.27155514 6:-0.1596509 7:-0.35833997 8:-0.041781611 9:0.035503522 10:0.18564419 11:0.34284611 12:0.029349774 13:0.13162573 
32 1:0.0048409904 2:0.10986698 3:0.15690303 4:0.053435555 5:-0.59830759 6:-0.10751579 7:-0.36829816 8:0.061382771 9:-0.24918612 10:0.1662664 11:0.2370201 12:0.020286423 13:-0.048174869 
32 1:0.20643269 2:0.47728609 3:0.1260908 4:-0.11059377 5:-0.28086361 6:-0.15571722 7:-0.34673881 8:-0.067116959 9:0.023537143 10:0.20509383 11:0.35067066 12:-0.015185206 13:0.1291756 
32 1:0.29418482 2:0.25517495 3:0.12135181 4:0.0036430733 5:-0.43808592 6:-0.1474087 7:-0.28897076 8:0.10279931 9:-0.10523881 10:0.15798044 11:0.25046608 12:0.04004975 13:-0.015025774 
32 1:0.24782603 2:0.45076967 3:0.11896772 4:-0.10929708 5:-0.33899288 6:-0.26804675 7:-0.22511181 8:0.084066344 9:-0.051425615 10:-0.03966505 11:0.29571909 12:-0.034228669 13:-0.20016016 
32 1:-0.014048549 2:0.26458083 3:0.13960058 4:-0.010889069 5:-0.46402445 6:-0.15367546 7:-0.30352169 8:0.13872916 9:-0.073534774 10:0.093051345 11:0.21625689 12:0.067645398 13:-0.014011349 
32 1:0.18741428 2:0.41811076 3:0.09798772 4:-0.16030555 5:-0.42055351 6:-0.32894591 7:-0.27520439 8:0.021865756 9:-0.12190762 10:-0.12641243 11:0.23530021 12:-0.096547241 13:-0.32492698 
32 1:0.25487846 2:0.22439798 3:0.13818796 4:0.0065280246 5:-0.51179916 6:-0.18177465 7:-0.26183352 8:0.12036914 9:-0.15533671 10:0.15237151 11:0.18436909 12:-0.19135572 13:-0.38855175 
22.33756096992282 1:-0.060466971 2:0.38896814 3:0.019755371 4:-0.046548209 5:-0.28891104 6:-0.5283167 7:-0.056594733 8:-0.053265494 9:-0.10736282 10:0.28891727 11:0.040578739 12:-0.088121616 13:-0.6969093 
32 1:0.26346292 2:0.75148444 3:0.22449794 4:-0.34014252 5:-0.20901257 6:-0.065212252 7:-0.021990852 8:-0.037103838 9:0.1289681 10:-0.01955222 11:0.30916129 12:-0.043625926 13:-0.24430889 
32 1:0.21977298 2:0.26884804 3:0.15915288 4:0.11896603 5:-0.43700699 6:-0.10814195 7:-0.21759667 8:0.18052749 9:-0.070917789 10:0.29274387 11:0.27510239 12:-0.19323081 13:-0.36100969 
32 1:-0.054722517 2:0.32753024 3:0.30781462 4:-0.0036738402 5:-0.5531855 6:0.11121507 7:-0.15297095 8:0.075010932 9:-0.12379651 10:0.30319636 11:0.45893651 12:-0.14297348 13:-0.25894748 
32 1:0.15386065 2:0.20441192 3:0.16460973 4:0.14683976 5:-0.44490874 6:-0.070656798 7:-0.20413804 8:0.18128372 9:-0.1212053 10:0.29020726 11:0.28142131 12:-0.18256877 13:-0.40606071 
32 1:0.20421113 2:0.39788958 3:0.2422835 4:-0.01733648 5:-0.50578612 6:-0.17259709 7:-0.14854269 8:0.098086036 9:-0.16317715 10:0.063912085 11:0.10978881 12:-0.30209899 13:-0.4941042 
20.99463520519587 1:0.12063065 2:0.42848897 3:0.20454108 4:-0.16299745 5:-0.64928871 6:-0.26093999 7:-0.35037844 8:-0.2198848 9:-0.29655289 10:-0.022054876 11:-0.079915771 12:-0.74245428 13:-0.91779869 
32 1:-0.12597706 2:0.15577944 3:0.2851668 4:0.17616096 5:-0.61482542 6:-0.075026658 7:-0.24516474 8:0.21998787 9:-0.19405729 10:0.23327643 11:0.066379531 12:-0.29333816 13:-0.55419913 
32 1:0.035266041 2:0.50340719 3:0.29799105 4:0.001354277 5:-0.47065866 6:-0.015211352 7:-0.13575677 8:0.0059431452 9:-0.11796136 10:0.17940058 11:0.19046954 12:-0.523872 13:-0.62835483 
11.28703045148948 1:0.042968306 2:0.45765794 3:0.33500835 4:0.10728053 5:-0.37222259 6:0.028245245 7:-0.091926554 8:0.15800251 9:0.00080105822 10:0.31469201 11:0.10494932 12:-0.45108912 13:-0.54282089 
7.751021416662145 1:-0.27357665 2:-0.095908996 3:0.31043602 4:0.50793512 5:-0.49820298 6:0.13014916 7:-0.22268016 8:0.5451834 9:-0.034565629 10:0.46369902 11:-0.14744858 12:-0.3038221 13:-0.62431483 
32 1:-0.27798367 2:-0.090844359 3:0.34092746 4:0.53804049 5:-0.43188663 6:0.27903817 7:0.054531229 8:0.76513289 9:0.0080015445 10:0.28198986 11:-0.1997927 12:-0.021299231 13:-0.01969833 
24.41122350855254 1:-0.29065915 2:-0.1197129 3:0.41067721 4:0.6064631 5:-0.48872934 6:0.23685305 7:0.089378132 8:0.883708 9:0.020223646 10:0.1975617 11:-0.3717471 12:-0.058670102 13:0.018733328 
32 1:0.11292468 2:0.47523026 3:0.47632426 4:0.20046418 5:-0.406561 6:-0.020408199 7:0.17878575 8:0.50345275 9:0.0069489548 10:-0.083254557 11:-0.091953449 12:-0.059461427 13:0.40593221 
32 1:0.14274092 2:0.47897214 3:0.54831782 4:0.19325127 5:-0.44328646 6:0.029516633 7:0.39687554 8:0.64848791 9:0.068194606 10:-0.18343032 11:-0.20970191 12:-0.059338894 13:0.65588126 
32 1:-0.19806881 2:0.013395812 3:0.42049904 4:0.42693788 5:-0.63599816 6:0.023591594 7:-0.086035904 8:0.572726 9:-0.16782473 10:0.10257794 11:-0.11729091 12:0.12468277 13:0.28550903 
32 1:0.16281356 2:0.52951438 3:0.51149386 4:0.14640763 5:-0.43647185 6:0.0030891587 7:0.23015516 8:0.51276287 9:0.046133322 10:-0.091523305 11:-0.054050181 12:-0.10604714 13:0.48757734 
32 1:0.17344015 2:0.40380538 3:0.3395792 4:0.141899 5:-0.37962576 6:0.022245638 7:0.17046939 8:0.44231615 9:0.0075475128 10:0.046255763 11:-0.010370949 12:-0.092241211 13:0.19187575 
32 1:0.15749349 2:0.41434115 3:0.33766645 4:0.077684458 5:-0.3979628 6:0.22944636 7:0.20172938 8:0.33662688 9:-0.043926988 10:0.2161198 11:0.22944339 12:-0.3151596 13:-0.21423352 
22.39145805820527 1:-0.16571444 2:0.67476855 3:0.2824428 4:-0.08411994 5:-0.23829577 6:0.039309162 7:0.35722268 8:0.18050881 9:0.061233844 10:0.30234947 11:0.19218716 12:-0.31800085 13:-0.35269405 
29.91574456122742 1:-0.15946595 2:0.44132336 3:0.18874648 4:0.0019246511 5:-0.1054894 6:-0.046826054 7:-0.2211215 8:0.25575206 9:0.14372959 10:-0.16079154 11:-0.16437012 12:0.0067292166 13:-0.072524881 
32 1:0.11201333 2:0.50442527 3:0.30180981 4:0.028114293 5:-0.041372701 6:-0.0013278594 7:-0.11549554 8:0.27269485 9:0.072688163 10:-0.41093235 11:-0.18570801 12:0.35510964 13:0.29618598 
32 1:0.096813945 2:0.13017693 3:0.13062905 4:0.20670877 5:-0.14649693 6:0.20018388 7:-0.03726251 8:0.2723064 9:-0.21343247 10:-0.14735036 11:-0.038770883 12:0.03361189 13:-0.023392404 
32 1:-0.19367612 2:-0.1994689 3:0.19679289 4:0.40703846 5:-0.42694928 6:0.33657436 7:-0.063625614 8:0.36243885 9:-0.39587127 10:-0.0037089965 11:-0.16129893 12:-0.019166782 13:-0.12712328 
32 1:0.091473035 2:0.12591743 3:0.027821409 4:0.023600631 5:-0.33787357 6:-0.026387858 7:0.023120787 8:0.31302686 9:-0.15998118 10:-0.18637573 11:-0.093854064 12:-0.14061736 13:-0.095540081 
32 1:0.13614713 2:0.14824028 3:-0.22462394 4:-0.34752118 5:0.30018972 6:0.49224164 7:0.38937884 8:0.11432868 9:0.040718368 10:-0.45736387 11:-0.16380465 12:-0.13978943 13:0.25973442 
32 1:0.28196974 2:-0.10893415 3:-0.19937227 4:-0.14711209 5:-0.12402725 6:0.35902979 7:0.28721861 8:0.23041222 9:-0.21183856 10:-0.29728422 11:0.068564487 12:0.028860858 13:0.19069382 
32 1:0.29512255 2:0.26268315 3:-0.13229007 4:-0.37386486 5:0.011856556 6:0.36471564 7:0.44778468 8:0.099427381 9:-0.12201496 10:-0.36365948 11:0.22304932 12:-0.070945409 13:0.2795455 
32 1:-0.081275223 2:-0.21615339 3:-0.16682615 4:-0.040444491 5:-0.23840606 6:0.3803045 7:0.14066191 8:0.21086243 9:-0.26718987 10:-0.12604484 11:0.09117721 12:-0.017077717 13:0.06530678 
32 1:0.1861381 2:0.24352505 3:-0.087815946 4:-0.33413668 5:-0.039653139 6:0.45416996 7:0.45000564 8:0.1167869 9:-0.11472777 10:-0.28983834 11:0.31710405 12:-0.080681977 13:0.25451304 
7.93311990735979 1:0.31646948 2:0.40249881 3:-0.18579608 4:-0.62451743 5:0.20530359 6:0.29642772 7:0.4372392 8:0.079627381 9:0.026368047 10:-0.57108277 11:0.057135242 12:-0.042139107 13:0.44268275 
32 1:0.3845148 2:0.01375842 3:-0.10259417 4:-0.071174242 5:-0.2978564 6:0.15665942 7:0.17996979 8:0.36193744 9:-0.096153005 10:-0.072620119 11:0.16115327 12:0.10296581 13:0.32792279 
32 1:-0.084349461 2:0.057064875 3:-0.20405678 4:-0.33127699 5:-0.093534365 6:0.37268892 7:0.35235245 8:0.23248558 9:-0.050476996 10:-0.30125199 11:0.053973136 12:-0.1727148 13:0.1652889 
32 1:0.29175034 2:-0.084075952 3:-0.088489985 4:0.11500134 5:-0.33389212 6:0.150799 7:-0.025749839 8:0.38859927 9:-0.097444863 10:0.1513074 11:0.094666316 12:0.067418125 13:0.13387222 
32 1:0.45268971 2:-0.23053381 3:-0.21413559 4:-0.11609237 5:-0.41795704 6:0.10923709 7:0.053529271 8:0.37098607 9:-0.10316144 10:-0.055544005 11:-0.10430337 12:0.021110574 13:0.29196567 
5.587231216515004 1:0.4910484 2:0.059872713 3:-0.1848435 4:-0.34570558 5:-0.24211756 6:0.10858595 7:0.31907295 8:0.33194538 9:-0.012908015 10:-0.20389132 11:0.08362228 12:-0.027779079 13:0.38067415 
32 1:0.15638084 2:-0.23198962 3:-0.16414093 4:-0.014056591 5:-0.43181923 6:0.098096312 7:-0.0014080858 8:0.40581822 9:-0.11010288 10:0.027205288 11:-0.10222003 12:0.020563107 13:0.21375836 
32 1:0.41189088 2:-0.1133965 3:-0.19455018 4:-0.30162944 5:-0.47704858 6:0.10982907 7:0.22824441 8:0.29980513 9:-0.1496568 10:-0.21379249 11:-0.038593732 12:-0.1498431 13:0.22233294 
32 1:0.50469658 2:-0.14321634 3:-0.13103131 4:-0.15181497 5:-0.38205552 6:0.25788603 7:0.39107314 8:0.51026443 9:-0.044046076 10:-0.13394826 11:0.017479306 12:-0.029632235 13:0.37463942 
19.35483671766198 1:0.46102131 2:-0.25556429 3:-0.22072156 4:-0.13440914 5:-0.49146785 6:0.123874 7:0.22468516 8:0.48098563 9:-0.076948227 10:-0.031002901 11:0.08662147 12:0.024911954 13:0.36138509 
32 1:0.20151 2:0.34766621 3:-0.054940344 4:-0.3497405 5:-0.15396176 6:0.065292708 7:0.51375272 8:0.32289406 9:0.067027387 10:-0.26662385 11:0.19565185 12:0.060256622 13:0.50881659 
22.38860988541445 1:0.38135549 2:0.10196362 3:-0.18303163 4:-0.3765109 5:-0.24356164 6:0.15698908 7:0.43202181 8:0.38513244 9:0.083086941 10:-0.28093988 11:0.066662422 12:-0.078478992 13:0.48631966 
32 1:0.42053988 2:-0.15089531 3:-0.22044109 4:-0.20019514 5:-0.34833117 6:0.25641702 7:0.23208001 8:0.35736176 9:-0.091304989 10:-0.11436427 11:-0.15241184 12:-0.29322188 13:0.024639093 
32 1:0.38553591 2:0.015547238 3:-0.19512961 4:-0.22888939 5:-0.25731045 6:0.23524687 7:0.16871309 8:0.26257538 9:0.018806045 10:-0.12071193 11:-0.21429769 12:-0.38693757 13:0.029777938 
32 1:0.075312571 2:-0.19819708 3:-0.1242011 4:-0.047174418 5:-0.36093315 6:0.37173476 7:0.22679406 8:0.48195378 9:0.013124762 10:0.16276572 11:0.089764208 12:-0.11000941 13:0.12825834 
32 1:0.39902227 2:0.10163125 3:-0.074039926 4:-0.12456702 5:-0.38248015 6:-0.034735682 7:-0.057003966 8:0.2054616 9:-0.064490647 10:0.10028998 11:0.053024944 12:-0.2672322 13:-0.15375104 
32 1:0.4293564 2:0.18322694 3:-0.057293402 4:-0.23099303 5:-0.31853069 6:0.17043322 7:0.21190592 8:0.2714098 9:0.0019763973 10:-0.034073951 11:-0.035250769 12:-0.46802585 13:-0.31942162 
32 1:0.072457427 2:0.012498131 3:0.02776726 4:0.10369373 5:-0.41679909 6:-0.0054630638 7:-0.23694161 8:0.25320964 9:-0.065953122 10:0.30954847 11:0.11106473 12:-0.1299043 13:-0.088097615 
32 1:0.32997271 2:0.14693372 3:-0.082105615 4:-0.1497036 5:-0.26414464 6:0.18202603 7:0.20576138 8:0.30873059 9:0.010159273 10:0.060639419 11:0.03284515 12:-0.36486745 13:-0.12841713 
32 1:0.38625765 2:0.018562552 3:-0.030744933 4:0.013503351 5:-0.313568 6:0.17356098 7:-0.019378365 8:0.27246907 9:-0.010309864 10:0.26921808 11:0.066773099 12:-0.23613468 13:-0.093496249 
32 1:0.34338206 2:0.01950945 3:-0.052089535 4:0.021005193 5:-0.29028834 6:0.25347713 7:0.036316435 8:0.22312502 9:-0.081849397 10:0.18067334 11:0.0047576168 12:-0.46896178 13:-0.28480646 
32 1:0.060958251 2:0.21732272 3:0.033107254 4:-0.049549664 5:-0.24779512 6:0.15785777 7:0.011775759 8:0.1820637 9:0.020269589 10:0.25597247 11:0.20073544 12:-0.20891149 13:0.019997981 
32 1:0.2598791 2:-0.068132994 3:-0.11733939 4:0.0064659921 5:-0.2712132 6:0.33773442 7:0.13070628 8:0.28532126 9:-0.098434772 10:0.071258555 11:-0.15271429 12:-0.58324629 13:-0.37227687 
32 1:0.31547094 2:0.0069663135 3:-0.02403885 4:-0.020610116 5:-0.31415808 6:0.25124581 7:0.11179029 8:0.27920629 9:-0.015934606 10:0.31429509 11:0.20570954 12:-0.34256563 13:-0.28852618 
32 1:0.26360542 2:0.42125685 3:0.053474578 4:-0.17487348 5:-0.13368444 6:0.19175742 7:0.25371873 8:0.13355842 9:0.051043775 10:0.2163777 11:0.39069604 12:-0.31730158 13:-0.019567477 
32 1:-0.030059217 2:-0.0020866634 3:0.078536356 4:0.068441067 5:-0.3369267 6:0.33084638 7:0.061637531 8:0.21578817 9:-0.10235984 10:0.29332422 11:0.19580508 12:-0.38281661 13:-0.33709751 
32 1:0.15358409 2:0.52644429 3:0.096557766 4:-0.25726978 5:-0.13680256 6:0.21641994 7:0.32601752 8:0.031975383 9:0.032942773 10:0.14498141 11:0.46159141 12:-0.40599376 13:-0.15447556 
32 1:0.25849326 2:0.12822754 3:-0.025825295 4:-0.17286829 5:-0.36820545 6:0.20198347 7:0.18335923 8:0.17473451 9:-0.12951354 10:0.12644611 11:0.21715189 12:-0.34067865 13:-0.12686167 
22.81635965329437 1:0.25299361 2:0.5049132 3:0.093453117 4:-0.54126543 5:-0.27552085 6:0.2479889 7:0.18571556 8:0.065462944 9:0.090505007 10:-0.022233751 11:0.24646186 12:-0.32727429 13:-0.057413169 
32 1:-0.051083941 2:-0.051301057 3:0.019763825 4:0.0045337937 5:-0.45232728 6:0.30765879 7:0.14828781 8:0.36536256 9:-0.11181573 10:0.20064127 11:0.12477458 12:-0.20712479 13:-0.071908017 
32 1:0.15914158 2:0.49568418 3:0.058266121 4:-0.48619237 5:-0.14858191 6:0.27300582 7:0.1951564 8:0.097932632 9:0.11640202 10:0.041164725 11:0.239051 12:-0.34640327 13:-0.032418991 
32 1:0.21019782 2:0.16314897 3:0.04607243 4:-0.093094329 5:-0.3298884 6:0.22256104 7:0.18746813 8:0.2538923 9:-0.017487107 10:0.28508294 11:0.44644773 12:-0.18840889 13:-0.095286361 
32 1:0.1724399 2:0.4094575 3:0.034984601 4:-0.27937113 5:-0.23664705 6:0.11876334 7:0.14645209 8:0.084513676 9:0.070929888 10:0.2289632 11:0.38226062 12:-0.26908433 13:-0.063049775 
32 1:-0.11690863 2:0.017876195 3:-0.0073691586 4:-0.10146944 5:-0.47270182 6:0.15714925 7:0.051867155 8:0.22333563 9:-0.068038222 10:0.29886169 11:0.37677874 12:-0.11507202 13:-0.0070525454 
32 1:0.086525079 2:0.45703619 3:0.01416455 4:-0.27722392 5:-0.19624483 6:0.10266096 7:0.20951354 8:0.12164257 9:0.1366046 10:0.23329281 11:0.42005041 12:-0.27922126 13:-0.064313113 
32 1:0.18747369 2:0.41151882 3:0.07006422 4:-0.24275534 5:-0.26297611 6:0.17913138 7:0.13672677 8:0.060103772 9:0.068895933 10:0.31414339 11:0.48169171 12:-0.30584053 13:-0.0030169367 
32 1:0.19721062 2:0.12076647 3:-0.033642642 4:-0.031687352 5:-0.35739131 6:0.15982085 7:-0.0050082158 8:0.21418245 9:-0.019704103 10:0.29622359 11:0.26207617 12:-0.26329978 13:-0.048573415 
32 1:-0.17868346 2:-0.063708203 3:0.031869413 4:0.078491742 5:-0.40820638 6:0.22590157 7:-0.076659279 8:0.26222447 9:-0.040638722 10:0.43103856 11:0.30574972 12:-0.11710889 13:-0.091435512 
32 1:0.10557603 2:0.17101289 3:-0.042997473 4:-0.08273121 5:-0.3597 6:0.13212522 7:-0.043671513 8:0.11745129 9:-0.064869686 10:0.25196448 11:0.29426563 12:-0.23363528 13:0.13820807 
32 1:0.18834897 2:0.53625736 3:0.014812738 4:-0.40587112 5:-0.18830362 6:0.045588587 7:0.044660897 8:-0.18097016 9:-0.031098095 10:0.12356402 11:0.487083 12:-0.27039416 13:0.26096712 
32 1:0.14683948 2:0.10459517 3:0.003137549 4:0.031911365 5:-0.30447003 6:0.1296975 7:-0.12383694 8:0.070628861 9:-0.093366061 10:0.28988844 11:0.27838503 12:-0.18727997 13:0.17041047 
32 1:-0.14099295 2:0.20599471 3:0.079249542 4:-0.060192922 5:-0.31265345 6:0.21943999 7:-0.015147401 8:0.03410913 9:-0.16823888 10:0.10058927 11:0.22612111 12:-0.22221351 13:0.1071287 
32 1:0.067134927 2:0.32870957 3:0.052245008 4:-0.065860761 5:-0.26204224 6:0.12811595 7:-0.088268807 8:-0.060165783 9:-0.088463957 10:0.22436271 11:0.36992845 12:-0.2832652 13:0.19070329 
32 1:0.14674097 2:0.45744522 3:0.17802629 4:-0.13655637 5:-0.22236812 6:0.19705814 7:0.12401163 8:0.021193819 9:-0.11895315 10:0.16081664 11:0.3943132 12:-0.27211075 13:0.043424651 
32 1:0.10561708 2:0.2409091 3:0.15365765 4:0.064477118 5:-0.29280279 6:0.27923998 7:0.11604223 8:0.17378828 9:-0.17329491 10:0.13012387 11:0.23787366 12:-0.19489682 13:0.065182034 
32 1:-0.20636101 2:-0.31846619 3:0.085326275 4:0.34470397 5:-0.44995205 6:0.30317265 7:-0.083439693 8:0.4207345 9:-0.21336376 10:0.30690452 11:0.047380592 12:-0.015996786 13:-0.17484826 
32 1:0.015778813 2:0.19177567 3:0.10613935 4:0.09180245 5:-0.29342177 6:0.25710633 7:0.073722525 8:0.21821997 9:-0.13771983 10:0.17254046 11:0.20276174 12:-0.17774821 13:0.10374411 
32 1:0.092649445 2:0.31362773 3:0.18317898 4:-0.040996534 5:-0.35548034 6:0.19057117 7:0.076280474 8:0.014306256 9:-0.22356067 10:0.14427342 11:0.38366905 12:-0.1544835 13:0.059018303 
32 1:0.068001445 2:0.49299393 3:0.24345637 4:-0.16010088 5:-0.18613 6:0.31506284 7:0.11625964 8:-0.080770828 9:-0.1284556 10:0.12781571 11:0.44665119 12:-0.13722154 13:0.14136151 
32 1:-0.23690581 2:0.38080777 3:0.32340335 4:0.034872602 5:-0.36786398 6:0.32308998 7:0.12951706 8:0.016594329 9:-0.26792587 10:0.10715384 11:0.38218926 12:-0.16349623 13:-0.015815927 
32 1:-0.017355854 2:0.44539407 3:0.23418472 4:-0.065121309 5:-0.15637963 6:0.33229449 7:0.098248823 8:-0.052028761 9:-0.1186983 10:0.18480329 11:0.35342624 12:-0.20909182 13:0.087686293 
32 1:0.01524835 2:0.20773505 3:0.18297565 4:0.15478853 5:-0.24292766 6:0.19591367 7:-0.070116437 8:0.10729538 9:-0.21254501 10:0.1428833 11:0.19313783 12:-0.049200011 13:0.1233338 
32 1:0.018680455 2:0.50675816 3:0.36259108 4:0.041693151 5:-0.31251972 6:0.10339042 7:0.045824479 8:0.13626982 9:-0.12246113 10:0.052000188 11:0.15463517 12:-0.064405721 13:0.39817132 
32 1:-0.31235683 2:-0.18180237 3:0.17506067 4:0.38305936 5:-0.42977191 6:0.22253786 7:-0.21189412 8:0.26663665 9:-0.33575704 10:0.15760135 11:-0.019520618 12:0.042918569 13:-0.014958679 
32 1:-0.073118129 2:0.33449495 3:0.30649373 4:0.14454003 5:-0.37953526 6:0.10125634 7:0.0009828509 8:0.19512622 9:-0.18495406 10:0.023286226 11:0.13980385 12:0.027522509 13:0.43131651 
32 1:0.0021644218 2:0.35547934 3:0.32353017 4:0.16871679 5:-0.33878652 6:0.071052252 7:-0.03951518 8:0.20367221 9:-0.17526256 10:-0.0053263159 11:0.073084681 12:-0.062465993 13:0.23571948 
32 1:-0.022930157 2:0.41414659 3:0.33814202 4:0.17498488 5:-0.25043872 6:0.060477491 7:-0.066231465 8:0.25565385 9:-0.1554636 10:-0.17899467 11:-0.0097648759 12:0.096324046 13:0.51732954 
32 1:-0.32128174 2:0.57277339 3:0.44351354 4:0.064617944 5:-0.25565205 6:0.2201879 7:-0.087716466 8:0.21738368 9:0.0033510407 10:-0.065012068 11:0.049911683 12:-0.068939079 13:0.28467457 
32 1:-0.11090868 2:0.4095397 3:0.33092971 4:0.19699767 5:-0.25116262 6:0.060793221 7:-0.098486814 8:0.26915764 9:-0.11599202 10:-0.12515368 11:-0.047935484 12:0.0070214678 13:0.37386652 
32 1:-0.029444963 2:0.47618384 3:0.41434145 4:0.14683834 5:-0.33486242 6:0.068544861 7:-0.024990455 8:0.21647463 9:-0.11023704 10:-0.068558523 11:0.1053553 12:0.042416915 13:0.32725341 
32 1:-0.032891085 2:0.34566184 3:0.38228804 4:0.28146933 5:-0.29681015 6:0.028932867 7:-0.15277671 8:0.23641255 9:-0.20422009 10:-0.020057739 11:0.1273963 12:0.17851153 13:0.27008509 
32 1:-0.37475988 2:0.060468686 3:0.38510902 4:0.36286623 5:-0.53149016 6:0.13121509 7:-0.068814623 8:0.39951377 9:-0.23406357 10:0.09495721 11:0.09174123 12:0.14371089 13:0.23191773 
32 1:-0.12363728 2:0.37566372 3:0.40040161 4:0.23257641 5:-0.34702751 6:-0.03729881 7:-0.21268104 8:0.27899768 9:-0.13152909 10:0.019131864 11:0.093307909 12:0.17517295 13:0.24816676 
32 1:-0.0080478271 2:0.56381789 3:0.39828357 4:0.092410124 5:-0.29801395 6:0.099178676 7:-0.091508036 8:0.12389532 9:-0.027587312 10:0.084175721 11:0.16250156 12:0.12719957 13:0.42824523 
32 1:-0.020931778 2:0.71872893 3:0.46232254 4:-0.05787554 5:-0.22804007 6:0.23312453 7:-0.090806148 8:-0.091819075 9:0.031101595 10:0.045889726 11:0.28527504 12:0.15368166 13:0.099831297 
32 1:-0.3046833 2:-0.1436813 3:0.30714955 4:0.55613168 5:-0.4964516 6:0.11564181 7:-0.27657229 8:0.49519494 9:-0.15816408 10:0.34218184 11:-0.093223788 12:0.11390404 13:0.065605893 
32 1:-0.10803859 2:0.72210004 3:0.45097183 4:-0.089658898 5:-0.18158708 6:0.30453761 7:-0.073663776 8:-0.099618892 9:0.087537699 10:0.069059107 11:0.2204866 12:0.13619088 13:0.12861756 
32 1:0.0028182685 2:0.55893707 3:0.39642414 4:0.18302332 5:-0.24657086 6:0.030958044 7:-0.19182653 8:0.031993977 9:-0.09114067 10:0.25118484 11:0.19784724 12:-0.032363367 13:0.15892719 
32 1:-0.011957407 2:0.46186124 3:0.43742619 4:0.28595362 5:-0.37465683 6:0.0130458 7:-0.22658665 8:0.11382705 9:-0.12439956 10:0.21648878 11:0.16878558 12:-0.10814762 13:0.031897457 
32 1:-0.31232851 2:0.67233493 3:0.41587785 4:0.1411325 5:-0.17701895 6:-0.047134731 7:-0.21042815 8:-0.0063718004 9:-0.020865691 10:0.25226683 11:0.18032531 12:0.00035704537 13:0.15878707 
32 1:-0.11777601 2:0.46224039 3:0.45238843 4:0.3010413 5:-0.35463781 6:0.031513767 7:-0.22417465 8:0.11209461 9:-0.15874819 10:0.18103091 11:0.1500673 12:-0.095886611 13:0.070705096 
32 1:-0.040123176 2:0.62310935 3:0.55559677 4:0.20058432 5:-0.35791544 6:0.18753779 7:-0.05253544 8:0.089500278 9:-0.057071477 10:0.34414963 11:0.39771505 12:-0.0090973136 13:-0.027627778 
32 1:-0.037585522 2:0.62968413 3:0.49244936 4:0.21982583 5:-0.2488376 6:0.12652921 7:-0.13228463 8:0.042266874 9:0.010412508 10:0.38201852 11:0.30492709 12:-0.086358326 13:-0.09055711 
32 1:-0.36879723 2:0.25535951 3:0.48049074 4:0.42380887 5:-0.44521488 6:0.19647577 7:-0.15942332 8:0.27774732 9:-0.16951935 10:0.39885258 11:0.32613834 12:0.099025971 13:-0.01725288 
32 1:-0.11051193 2:0.63643055 3:0.53383781 4:0.22321699 5:-0.24830283 6:0.1601698 7:-0.22746078 8:0.03899492 9:0.034566465 10:0.43330325 11:0.32825452 12:-0.19172777 13:-0.061219535 
10.52573493678829 1:-0.015226328 2:0.58830129 3:0.53949755 4:0.35393813 5:-0.15595532 6:0.096244978 7:-0.41390915 8:-0.053314379 9:0.083003811 10:0.52653874 11:0.20990889 12:-0.38886344 13:-0.32291149 
32 1:-0.044866296 2:0.52558917 3:0.5508125 4:0.40430435 5:-0.17879883 6:0.11923725 7:-0.36322593 8:-0.00035643843 9:0.059314401 10:0.5621608 11:0.29953871 12:-0.17384778 13:-0.29712548 
21.26280029581443 1:-0.012034901 2:0.56256465 3:0.55471955 4:0.40833038 5:-0.13255381 6:-0.0064388955 7:-0.44078885 8:-0.023040436 9:0.28575471 10:0.76831091 11:0.30897754 12:-0.35813245 13:-0.4695835 
32 1:0.0059587437 2:0.48066835 3:0.57042165 4:0.2974425 5:-0.39232778 6:0.071636062 7:-0.039334334 8:0.25079145 9:0.0087889196 10:0.33416503 11:0.12336168 12:-0.19865786 13:-0.24027066 
31.76944532744965 1:-0.29774035 2:-0.10721005 3:0.45567996 4:0.78271959 5:-0.38597655 6:-0.020052658 7:-0.57586031 8:0.39497236 9:0.0066296949 10:0.72377948 11:0.078913032 12:-0.04260176 13:-0.27644684 
32 1:0.031338824 2:0.70557586 3:0.45197751 4:0.065008413 5:-0.13859074 6:0.23673207 7:-0.034681907 8:-0.042110519 9:0.11845882 10:0.41237986 11:0.30881226 12:-0.09498259 13:-0.14129164 
32 1:-0.30000991 2:-0.12989759 3:0.31682926 4:0.60730484 5:-0.35814951 6:0.2287418 7:-0.26278287 8:0.45419567 9:-0.072774888 10:0.51023249 11:0.0064031533 12:-0.069965091 13:-0.31434053 
10.63238419255467 1:-0.047334393 2:0.54396963 3:0.39139498 4:0.16383877 5:-0.18777344 6:0.27032435 7:-0.078212967 8:0.022465535 9:0.013461027 10:0.4704886 11:0.47173397 12:-0.082692821 13:0.070855807 
2.992485244361339 1:0.053565081 2:0.74294548 3:0.45634487 4:-0.027935899 5:-0.20435488 6:0.29781225 7:0.053972742 8:-0.004614797 9:0.12824334 10:0.33901455 11:0.11089765 12:-0.18433061 13:-0.19594921 
32 1:0.019865227 2:0.29057868 3:0.3055517 4:0.2916824 5:-0.18440245 6:0.33822441 7:0.035499203 8:0.27036172 9:-0.019550153 10:0.36354365 11:0.24209476 12:-0.16656649 13:-0.12661411 
32 1:-0.26135425 2:0.5219506 3:0.45118815 4:0.16603073 5:-0.29256575 6:0.33470941 7:-0.025943465 8:0.15187247 9:-0.0061823102 10:0.32580617 11:0.17880389 12:-0.28237422 13:0.022494383 
32 1:-0.080369201 2:0.39207644 3:0.35625826 4:0.220438 5:-0.13483929 6:0.42809781 7:0.089705542 8:0.16851032 9:-0.043196718 10:0.34664088 11:0.28039562 12:-0.21276227 13:-0.14779427 
32 1:0.040765784 2:0.26489721 3:0.27557841 4:0.24876604 5:-0.096610532 6:0.50454315 7:0.16998689 8:0.23418731 9:-0.02400047 10:0.4175138 11:0.33447492 12:-0.13988901 13:-0.078528958 
32 1:-0.27359156 2:-0.28083229 3:0.22245706 4:0.62645922 5:-0.25009278 6:0.4095832 7:-0.20627041 8:0.39201648 9:-0.18616732 10:0.4872541 11:0.19834066 12:0.23443474 13:0.020392991 
2.465499888103859 1:0.0075541187 2:0.52470837 3:0.19770596 4:-0.0075095565 5:0.16580992 6:0.21051476 7:-0.12330626 8:0.16394496 9:0.44925932 10:0.17428287 11:-0.12695028 12:-0.094701367 13:-0.14098037 
13.19732557111983 1:-0.00816629 2:0.20250346 3:0.13720773 4:0.24441817 5:-0.10320966 6:0.29354596 7:0.030518451 8:0.43143909 9:0.16811956 10:0.29581259 11:-0.057887834 12:-0.25010556 13:-0.11974817 
32 1:-0.0773947 2:0.21870216 3:0.12591739 4:0.21883508 5:-0.13608232 6:0.25256396 7:-0.010844346 8:0.40545888 9:0.18916532 10:0.40373671 11:0.070482829 12:-0.24978659 13:-0.17626602 
32 1:0.17179258 2:0.3805135 3:0.025756135 4:-0.022299051 5:0.25790507 6:0.15656204 7:-0.079931024 8:0.20092467 9:0.34600001 10:0.1303328 11:-0.076200114 12:-0.091650633 13:0.20050403 
32 1:-0.23300973 2:-0.20471133 3:-0.024114098 4:0.24241071 5:-0.3052947 6:0.20918878 7:-0.086920182 8:0.55797129 9:0.17213081 10:0.57132793 11:0.13488155 12:-0.17703642 13:-0.37586782 
32 1:0.12854416 2:0.3398148 3:0.083772681 4:0.094049806 5:0.17471052 6:0.16318969 7:-0.16286955 8:0.19236781 9:0.25938793 10:0.2017497 11:0.008854579 12:-0.098693923 13:0.17731687 
27.88941185665098 1:0.36264978 2:0.2046301 3:0.077779198 4:0.20271512 5:0.36781172 6:0.53473388 7:0.11904283 8:0.46780421 9:0.51149893 10:0.29928469 11:-0.080718975 12:-0.018437406 13:0.23357866 
16.96975012146462 1:0.33569521 2:-0.0018530294 3:-0.027151262 4:0.2532666 5:0.24947097 6:0.41495658 7:-0.0083053822 8:0.36102224 9:0.36602643 10:0.31022837 11:-0.20529186 12:-0.38739967 13:-0.035692518 
14.68940182769706 1:0.059332144 2:-0.019242844 3:0.10330907 4:0.34332359 5:0.17887228 6:0.66452269 7:0.044497955 8:0.60091204 9:0.48115163 10:0.47092427 11:-0.041691389 12:-0.063402645 13:0.25519211 
32 1:0.37674171 2:0.25099589 3:-0.16750936 4:-0.13569851 5:0.38512155 6:0.22112289 7:0.086333668 8:0.34224464 9:0.47262511 10:0.032614949 11:-0.20246183 12:-0.36835992 13:-0.25330769 
32 1:0.40367851 2:0.11432545 3:-0.14678461 4:0.036369586 5:0.38497493 6:0.2246213 7:0.016412889 8:0.24899632 9:0.32056512 10:0.15563428 11:-0.014526048 12:-0.027435848 13:0.35869925 
11.97842336312964 1:0.41936016 2:0.10012088 3:-0.26582277 4:-0.24047027 5:0.46338159 6:0.099390701 7:-0.1005891 8:0.30110958 9:0.68935863 10:0.083839601 11:0.0093392616 12:-0.046588231 13:0.20516693 
32 1:0.066894954 2:-0.29697529 3:-0.11963329 4:0.31905538 5:0.095482714 6:0.46038321 7:-0.059855242 8:0.42100704 9:0.15053715 10:0.35477515 11:0.0092633161 12:0.0059575394 13:0.24700034 
7.793993609987239 1:0.35473744 2:-0.25517387 3:-0.36970171 4:-0.066796535 5:0.12119089 6:0.0088678135 7:-0.24329968 8:0.26786573 9:0.3230627 10:0.25042255 11:0.074296599 12:0.11209567 13:0.48017646 
2.940145592371774 1:0.39878321 2:-0.10730833 3:-0.57989349 4:-0.4480316 5:0.20220135 6:-0.48907335 7:-0.48854989 8:-0.15625771 9:0.22453121 10:-0.20723636 11:-0.43924041 12:-0.55414297 13:-0.35709642 
11.92472467512808 1:0.42630305 2:0.013001621 3:-0.59670858 4:-0.34288919 5:0.54266615 6:-0.28182569 7:-0.13957861 8:0.027273081 9:0.53826167 10:-0.23324299 11:0.15227666 12:-0.081429138 13:0.31189179 
32 1:0.091882578 2:-0.15776901 3:-0.39241151 4:-0.11714172 5:0.14611665 6:-0.22715975 7:-0.32064907 8:0.0035672992 9:0.22742835 10:0.23618628 11:-0.16870745 12:-0.31054799 13:-0.056509996 
30.39412623579639 1:0.4428761 2:0.015156676 3:-0.55948765 4:-0.31716513 5:0.53011357 6:-0.61651599 7:-0.025089104 8:0.065315447 9:0.56348897 10:0.19177492 11:-0.22711491 12:0.014432536 13:-0.043103016 
32 1:0.41477594 2:-0.43395272 3:-0.62198442 4:-0.26030933 5:0.20512562 6:0.023123637 7:-0.20706058 8:0.18350214 9:0.37131438 10:0.036417178 11:-0.10971383 12:-0.2076008 13:0.058904836 
32 1:0.32390983 2:-0.3942171 3:-0.53593435 4:-0.17103121 5:0.20704646 6:0.072980874 7:-0.20281911 8:0.21755774 9:0.4236501 10:0.25168616 11:0.16244546 12:0.025160358 13:0.3158572 
32 1:0.36021346 2:-0.17119464 3:-0.49893984 4:-0.27335037 5:0.32524071 6:-0.23292871 7:-0.36646437 8:0.13693435 9:0.54186989 10:0.0058679544 11:-0.01478962 12:-0.1033109 13:0.10780145 
5.11684544288867 1:0.30859682 2:-0.38774318 3:-0.57068239 4:-0.26152188 5:0.16333765 6:-0.36762274 7:-0.52855921 8:0.087835684 9:0.42623389 10:0.011997646 11:-0.26464619 12:-0.29396284 13:-0.11247339 
32 1:0.39878811 2:-0.5561948 3:-0.60637879 4:-0.15441502 5:0.083992584 6:-0.11470509 7:-0.39153946 8:0.020915018 9:0.14577157 10:-0.044395532 11:-0.14285041 12:0.024662718 13:0.48928262 
10.20357244843186 1:0.33082959 2:-0.19103058 3:-0.48169125 4:-0.14998551 5:0.45284083 6:-0.16689654 7:-0.36473958 8:-0.10258715 9:0.16092084 10:-0.052410278 11:-0.0064751902 12:-0.11994721 13:0.022209215 
32 1:0.051522812 2:-0.4400973 3:-0.5296342 4:-0.09427232 5:0.4514908 6:0.11685636 7:-0.21516719 8:0.16690355 9:0.40470347 10:0.11771463 11:-0.16621714 12:-0.27547755 13:-0.17287323 
28.94065774748646 1:0.27520538 2:-0.090723252 3:-0.28047232 4:0.041239764 5:0.44825813 6:-0.099164681 7:-0.32962064 8:0.085173191 9:0.378089 10:0.12088704 11:0.12677585 12:-0.035955116 13:0.07208935 
7.479065634072392 1:0.34015373 2:-0.34402543 3:-0.45121593 4:-0.1024543 5:0.45855058 6:0.17079674 7:-0.19067872 8:0.23189208 9:0.36789272 10:-0.1013595 11:-0.11333599 12:0.08835825 13:0.21571979 
32 1:0.37003294 2:-0.21144772 3:-0.24609303 4:0.078213968 5:0.026112676 6:-0.13463021 7:-0.47115556 8:0.11712299 9:0.13618921 10:0.20566715 11:-0.0106298 12:-0.051494595 13:-0.084138796 
1.810173631785154 1:0.35645805 2:-0.14088354 3:-0.30023122 4:0.11477704 5:0.56247971 6:-0.0018235877 7:-0.27232134 8:0.043159001 9:0.35626727 10:-0.14338164 11:-0.13113685 12:-0.16532503 13:0.070872157 
32 1:0.32697649 2:-0.01107695 3:-0.30026324 4:-0.075031988 5:0.25739649 6:-0.3313166 7:-0.51182488 8:-0.034703702 9:0.18131255 10:-0.22177732 11:0.025216783 12:0.10534625 13:0.20461519 
18.2242668559577 1:0.36265736 2:-0.28569703 3:-0.25494189 4:0.1344604 5:0.22318171 6:-0.04250278 7:-0.50498626 8:-0.096728861 9:0.0040606044 10:-0.018246597 11:-0.30629477 12:-0.34683035 13:-0.072160808 
32 1:0.38933568 2:-0.29013195 3:-0.48225939 4:-0.12409431 5:0.39626062 6:0.034297183 7:-0.27825444 8:-0.061384704 9:0.27209428 10:0.058071396 11:-0.0057720885 12:-0.11580346 13:0.36901376 
32 1:0.30948121 2:-0.40399356 3:-0.509783 4:-0.064665474 5:0.32653884 6:0.022653767 7:-0.31046289 8:-0.065225357 9:0.16468102 10:0.06887414 11:-0.0689594 12:-0.20342063 13:0.23629474 
32 1:0.4184579 2:-0.46886813 3:-0.45230045 4:-0.042313812 5:0.4559142 6:0.14557198 7:-0.28643191 8:0.042257029 9:0.33480615 10:0.00047871365 11:-0.37530702 12:-0.32114477 13:0.14228163 
21.41077472162389 1:0.31528527 2:-0.38524666 3:-0.32863325 4:0.10952133 5:0.17953239 6:-0.055295757 7:-0.39422028 8:0.062022883 9:0.13070009 10:0.055755553 11:-0.14863451 12:0.0032724162 13:0.29058439 
32 1:0.10775686 2:-0.34243258 3:-0.39177639 4:0.042168442 5:0.52936935 6:-0.032849738 7:-0.256201 8:0.075324232 9:0.37783498 10:0.11408121 11:-0.24706746 12:-0.24845991 13:0.14890169 
32 1:0.37772907 2:-0.51790228 3:-0.57767703 4:-0.11403179 5:0.29226674 6:0.057574343 7:-0.2399516 8:0.15020831 9:0.51077774 10:0.4086737 11:0.2129604 12:-0.064379064 13:0.28039376 
32 1:0.28539166 2:-0.53380972 3:-0.64625458 4:-0.27507078 5:0.19948205 6:-0.12350059 7:-0.50367745 8:-0.20114113 9:0.32540306 10:0.16640058 11:-0.018420719 12:-0.23693305 13:0.30105769 
32 1:0.36951098 2:-0.35435545 3:-0.41727384 4:-0.00069855114 5:0.26659547 6:0.045511253 7:-0.3106555 8:0.058121936 9:0.13867625 10:0.079854085 11:-0.034562202 12:0.00092140552 13:0.25989644 
32 1:0.26154621 2:-0.47781403 3:-0.56709943 4:-0.12416884 5:0.28915468 6:0.11102587 7:-0.27203676 8:0.039548865 9:0.29283963 10:0.16425447 11:0.13095727 12:-0.044429862 13:0.24140523 
16.86454721739287 1:0.33167404 2:-0.0040936597 3:-0.52739286 4:-0.20511973 5:0.6301097 6:-0.38089919 7:-0.052899783 8:-0.091463963 9:0.31767904 10:0.057823003 11:-0.154152 12:0.10449778 13:0.087505294 
32 1:0.34029388 2:-0.76202982 3:-0.63122594 4:-0.055965128 5:0.17047908 6:-0.032721572 7:-0.27984933 8:0.30264515 9:0.25131535 10:0.015826843 11:-0.18242302 12:0.11567086 13:0.32691636 
32 1:-0.20267281 2:0.33803699 3:0.55625218 4:0.67580448 5:-0.12351608 6:0.21636955 7:-0.31038302 8:0.24877069 9:-0.11692764 10:0.29318421 11:0.0008746936 12:0.070704023 13:-0.0094633424 
32 1:-0.23244083 2:0.25098435 3:0.56039147 4:0.70303552 5:-0.15174421 6:0.11038624 7:-0.50821034 8:0.19622985 9:-0.11046293 10:0.32350648 11:-0.21901468 12:-0.2504436 13:-0.35369099 
32 1:0.048338958 2:0.40171677 3:0.62618101 4:0.6511373 5:-0.27828612 6:-0.053668829 7:-0.43126138 8:0.23558643 9:-0.13622872 10:0.27113596 11:-0.025501238 12:0.016478098 13:-0.045948285 
32 1:0.1481243 2:0.41866419 3:0.67905628 4:0.68009597 5:-0.33058566 6:-0.21274082 7:-0.5724751 8:0.12543076 9:-0.20832597 10:0.15314384 11:-0.20362173 12:-0.049273867 13:-0.090647662 
32 1:-0.19899608 2:0.1880391 3:0.57294075 4:0.75983834 5:-0.31304111 6:0.015584311 7:-0.47250142 8:0.30279194 9:-0.19456806 10:0.29529871 11:-0.1117097 12:-0.014755453 13:-0.13549751 
32 1:0.042709151 2:0.39053175 3:0.65425548 4:0.67363796 5:-0.32430533 6:-0.15517287 7:-0.53238681 8:0.13294263 9:-0.2481037 10:0.16730814 11:-0.13880202 12:0.0023623021 13:-0.10259647 
32 1:-0.017050022 2:0.37613624 3:0.66191495 4:0.68015856 5:-0.32657264 6:-0.0089020783 7:-0.40928802 8:0.28153824 9:-0.18890196 10:0.092488501 11:-0.32317561 12:-0.19706716 13:-0.23649733 
32 1:-0.15965194 2:0.4589621 3:0.65237695 4:0.53586417 5:-0.35716598 6:-0.087028223 7:-0.61408878 8:0.08134031 9:-0.086743201 10:0.26211937 11:-0.1221908 12:-0.14602049 13:-0.11152435 
32 1:-0.35249771 2:-0.27029554 3:0.3948917 4:0.85194323 5:-0.34371696 6:0.053422872 7:-0.62606533 8:0.21591418 9:-0.42760969 10:0.1246116 11:-0.47350957 12:-0.13700651 13:-0.33037367 
32 1:-0.19105999 2:0.4298836 3:0.6326975 4:0.67245038 5:-0.27961064 6:-0.007112527 7:-0.51354316 8:0.17523953 9:-0.12025825 10:0.28361594 11:-0.052052794 12:0.010275941 13:-0.055885486 
32 1:0.062257849 2:0.31585351 3:0.65553734 4:0.80920312 5:-0.19706024 6:0.044658534 7:-0.41798808 8:0.26909655 9:-0.140211 10:0.31073397 11:-0.22443546 12:-0.11520749 13:-0.33583378 
32 1:-0.15789993 2:0.13406954 3:0.45276251 4:0.59974819 5:-0.305114 6:0.1128226 7:-0.35891593 8:0.28997442 9:-0.13553422 10:0.2887877 11:-0.31380249 12:-0.15034236 13:-0.48559389 
32 1:-0.52295378 2:0.090900934 3:0.11985719 4:-0.022589456 5:-0.27215126 6:0.0034555521 7:-0.38531444 8:0.40862489 9:0.21332574 10:0.41304343 11:-0.039864472 12:0.17102628 13:0.36989176 
32 1:0.52078859 2:-0.036791013 3:-0.2559633 4:-0.24505105 5:-0.21362987 6:0.21678703 7:0.0079986055 8:0.19672284 9:0.13663008 10:0.13400484 11:-0.18768289 12:-0.35526459 13:0.33612712 
22.5980234957376 1:0.10516356 2:-0.37451097 3:-0.28200573 4:0.047397078 5:-0.3124538 6:0.15336298 7:0.016313831 8:0.54330477 9:0.042987645 10:0.17228973 11:-0.28666514 12:-0.2427563 13:-0.026555661 
32 1:0.42029851 2:-0.02588052 3:-0.33092714 4:-0.38278109 5:-0.18816557 6:0.21419093 7:0.038230042 8:0.12993556 9:0.15193708 10:0.018527586 11:-0.27920431 12:-0.43798992 13:0.40942034 
32 1:0.1754209 2:-0.13948088 3:-0.13739433 4:-0.013406251 5:-0.39441277 6:0.084607834 7:-0.059094521 8:0.430733 9:0.083205992 10:0.26684545 11:-0.0097217996 12:0.015486079 13:0.41160614 
32 1:-0.20662734 2:-0.11074798 3:-0.16385934 4:-0.090081595 5:-0.3563967 6:0.21101867 7:-0.043266231 8:0.26931317 9:0.0089065595 10:0.26955842 11:0.052545865 12:-0.16250494 13:0.22483632 
3.404939636833175 1:0.094290799 2:0.29029935 3:-0.068590371 4:-0.33743886 5:-0.34403256 6:0.16934466 7:0.10510426 8:0.082302322 9:0.034679465 10:0.069229751 11:0.14106523 12:-0.27083716 13:0.6412896 
32 1:0.18903601 2:-0.04349831 3:-0.099651775 4:-0.1842569 5:-0.55813385 6:0.029482755 7:0.088708014 8:0.38972771 9:-0.023473012 10:0.090671039 11:0.0069848938 12:-0.1590669 13:0.28509517 
32 1:0.17702507 2:-0.21042963 3:-0.16187488 4:-0.0049499099 5:-0.53320006 6:0.013727605 7:-0.096355963 8:0.35800227 9:-0.10154687 10:0.17730008 11:-0.0064824628 12:-0.066098744 13:0.22044561 
32 1:-0.11230424 2:0.014162322 3:-0.13678123 4:-0.27490445 5:-0.52641057 6:-0.072283435 7:0.14870963 8:0.45872614 9:0.11139096 10:0.014099834 11:-0.082999084 12:-0.18286914 13:0.45234854 
32 1:0.078102823 2:-0.12093395 3:-0.11089939 4:0.021603556 5:-0.46938952 6:0.049053418 7:-0.068622421 8:0.33035394 9:-0.089874762 10:0.16998085 11:0.059078395 12:-0.0481451 13:0.2885812 
32 1:0.20707616 2:0.073010523 3:-0.17430993 4:-0.44415507 5:-0.59244122 6:-0.093567234 7:0.0080603606 8:0.067252627 9:-0.098095355 10:0.014535997 11:0.25844321 12:-0.0081809781 13:0.67576815 
10.46988693760166 1:-0.11067719 2:-0.12239601 3:-0.20949225 4:-0.31307005 5:-0.60479273 6:-0.019432361 7:0.007838809 8:0.21981313 9:-0.11593556 10:0.020518403 11:0.1396249 12:-0.0046682752 13:0.50584832 
32 1:0.086607161 2:0.33120067 3:0.021595739 4:-0.20129851 5:-0.37761475 6:-0.077847067 7:0.062114966 8:0.21174063 9:-0.044761562 10:-0.10189006 11:-0.020265268 12:-0.28753069 13:0.18883868 
32 1:0.22794857 2:-0.010358943 3:-0.021289715 4:0.0097606289 5:-0.35486664 6:0.15440919 7:0.17162821 8:0.47087921 9:-0.027633945 10:0.097002989 11:0.18976427 12:0.12419426 13:0.3140275 
32 1:0.3032581 2:-0.010317703 3:-0.029204331 4:-0.056579086 5:-0.48723991 6:0.13606539 7:0.17784611 8:0.513807 9:0.04835905 10:0.27212063 11:0.28196237 12:0.10047016 13:0.33556344 
32 1:-0.062017552 2:-0.048282013 3:0.030998884 4:0.075640124 5:-0.3919874 6:0.26257833 7:0.16635085 8:0.53003304 9:0.0030541745 10:0.19137768 11:0.17809477 12:0.060250419 13:0.19321026 
32 1:0.21380975 2:0.038208277 3:0.058078319 4:0.01276264 5:-0.46997495 6:0.15583783 7:0.17672262 8:0.46225633 9:-0.064171317 10:0.18607263 11:0.21070338 12:0.013710904 13:0.15844232 
4.140104081371627 1:0.30384543 2:0.60923823 3:0.24537719 4:-0.24471139 5:-0.28496294 6:0.1850867 7:0.29099357 8:0.28321875 9:0.14176654 10:-0.076671199 11:0.070819202 12:-0.2345406 13:0.13120209 
32 1:0.36070262 2:0.24122529 3:0.19547682 4:0.0051348424 5:-0.47420265 6:0.012696537 7:0.12113433 8:0.44312577 9:-0.013315486 10:-0.046102295 11:-0.074001788 12:-0.13185322 13:0.2255806 
27.82991576109145 1:-0.039663692 2:0.091454394 3:0.25702583 4:0.15258368 5:-0.52885619 6:0.24636632 7:0.18031442 8:0.52599424 9:-0.076953423 10:0.11073897 11:-0.027232869 12:-0.18166073 13:-0.056814114 
32 1:0.25882229 2:0.10396838 3:0.14953206 4:0.10609475 5:-0.46950261 6:0.0084628242 7:0.019717124 8:0.46254797 9:-0.029978509 10:0.079491051 11:-0.079885793 12:-0.082614916 13:0.23950987 
32 1:0.41033045 2:0.36769877 3:0.1234481 4:-0.13330687 5:-0.35686648 6:0.072720427 7:0.056799456 8:0.15582486 9:-0.10360114 10:-0.10493588 11:0.00066087232 12:-0.23870545 13:0.14353448 
31.80280817194046 1:0.435247 2:0.46935226 3:0.014752427 4:-0.31021984 5:-0.35228576 6:-0.2929059 7:-0.098034152 8:0.067962068 9:-0.015815099 10:-0.022021328 11:0.17073894 12:-0.080661261 13:0.27860987 
32 1:0.068060026 2:0.39770316 3:0.038579861 4:-0.16222829 5:-0.26865764 6:-0.10463477 7:0.10010154 8:0.11175776 9:-0.0799147 10:-0.057324298 11:-0.18717928 12:-0.32060178 13:0.12073817 
32 1:0.44061561 2:0.36855583 3:0.0042863225 4:-0.1629162 5:-0.27771109 6:-0.19892841 7:-0.21187603 8:0.12466873 9:0.1099568 10:0.13298959 11:0.062863201 12:-0.11474991 13:0.20936469 
32 1:0.37202819 2:0.37918615 3:0.021405014 4:-0.13429113 5:-0.28192599 6:-0.23872107 7:-0.17922388 8:0.14829024 9:0.077014123 10:0.10044731 11:0.03976648 12:-0.1150336 13:0.1331362 
32 1:0.4959677 2:0.076066133 3:0.030404941 4:0.024124037 5:-0.49613449 6:-0.13782885 7:-0.3013625 8:0.22117808 9:-0.054283186 10:0.17538045 11:-0.11611959 12:-0.142839 13:0.19517564 
32 1:0.18451916 2:-0.15146027 3:-0.013327158 4:0.12287828 5:-0.5527289 6:-0.070018893 7:-0.35477756 8:0.27163198 9:-0.1218786 10:0.21139577 11:-0.22168124 12:-0.18769439 13:0.057599658 
0.389073124994213 1:0.39758255 2:0.83409434 3:0.011827065 4:-0.54285577 5:0.078009368 6:-0.51193538 7:-0.14610842 8:0.022670443 9:0.45623381 10:-0.45405971 11:-0.34908257 12:0.18229683 13:-0.064382825 
32 1:0.42903835 2:-0.0049523205 3:0.1236834 4:0.25275113 5:-0.42643811 6:-0.016516174 7:-0.14527079 8:0.41541844 9:-0.10809759 10:0.25621139 11:0.13203899 12:0.11134323 13:0.022704411 
32 1:0.11485726 2:-0.076798103 3:0.11622626 4:0.34611732 5:-0.37899798 6:0.0045899879 7:-0.20869215 8:0.40885776 9:-0.1020353 10:0.37793751 11:0.15278211 12:0.094878157 13:-0.10562052 
25.7164377877811 1:0.41684063 2:0.39235593 3:0.049960478 4:-0.090626986 5:-0.36266341 6:-0.19900328 7:-0.24181335 8:0.051765918 9:-0.027739329 10:0.044354125 11:0.14625357 12:-0.16802633 13:0.10410311 
32 1:0.10917114 2:0.54532327 3:0.18508913 4:-0.15716549 5:-0.34369794 6:-0.11211591 7:-0.23120285 8:0.053733822 9:0.046740018 10:0.050367137 11:0.073669337 12:-0.24751329 13:0.087584085 
32 1:0.32735343 2:0.14744063 3:0.047846168 4:0.042223473 5:-0.45366314 6:-0.13222484 7:-0.35538985 8:0.09134689 9:-0.13716791 10:0.1665503 11:0.033690119 12:-0.16139384 13:-0.068327916 
32 1:0.40174722 2:0.16353816 3:0.13530538 4:0.12410531 5:-0.4417104 6:-0.11226902 7:-0.27592597 8:0.2122672 9:-0.10576938 10:0.22198953 11:0.089057986 12:-0.11717123 13:-0.12387309 
32 1:0.38020866 2:0.49637497 3:0.0630695 4:-0.21367989 5:-0.30317479 6:-0.12505467 7:-0.26401109 8:-0.07529371 9:0.067018085 10:0.056050165 11:-0.0081164914 12:-0.27451282 13:0.11927111 
32 1:0.11038157 2:0.084398712 3:0.19548581 4:0.096558193 5:-0.65539579 6:-0.063529793 7:-0.30071108 8:0.18709638 9:-0.20712304 10:0.17022917 11:0.031659829 12:-0.12691635 13:-0.10379179 
32 1:0.32240481 2:0.58438522 3:0.120794 4:-0.22830844 5:-0.30584439 6:-0.1210925 7:-0.20065589 8:-0.049276697 9:0.090100437 10:0.041145243 11:0.065314192 12:-0.24280588 13:0.16118253 
32 1:0.4076343 2:0.32452312 3:0.12639477 4:-0.027804694 5:-0.39441563 6:-0.11513419 7:-0.18000896 8:0.15355234 9:-0.059646758 10:0.10662805 11:0.10316582 12:-0.10346677 13:0.062862423 
9.332175277732233 1:0.37317039 2:0.441457 3:0.089082027 4:-0.060268376 5:-0.19359386 6:-0.14257914 7:-0.17436439 8:0.14552111 9:0.075040886 10:0.10432123 11:0.070101606 12:-0.073302726 13:0.1837388 
32 1:0.096390828 2:0.11195733 3:0.2102152 4:0.16338637 5:-0.52051423 6:0.057956896 7:-0.2006334 8:0.26645258 9:-0.13480663 10:0.24038619 11:0.12372773 12:-0.057476038 13:-0.026870285 
32 1:0.31371334 2:0.41494027 3:0.075749541 4:-0.076488617 5:-0.25312764 6:-0.14790353 7:-0.19884522 8:0.11606276 9:0.052879231 10:0.12561189 11:0.13949443 12:-0.075006447 13:0.18772612 
32 1:0.42149476 2:0.16193283 3:0.052619431 4:0.032992598 5:-0.46117114 6:-0.10961389 7:-0.27019081 8:0.1390707 9:-0.1464764 10:0.067872418 11:-0.066836892 12:-0.22619227 13:-0.023836346 
32 1:0.096162572 2:0.55696135 3:0.054896975 4:-0.18066853 5:-0.19771349 6:-0.272773 7:0.0093261268 8:0.086597416 9:0.078631023 10:0.099573598 11:-0.0040428135 12:-0.19412206 13:0.053355954 
30.38290220820066 1:0.40574084 2:0.67418512 3:0.10457989 4:-0.31411651 5:-0.10824794 6:-0.16740808 7:-0.17585269 8:-0.0067161975 9:0.1935619 10:-0.12155829 11:-0.047152203 12:-0.12465592 13:0.17862583 
32 1:0.045594544 2:0.35777363 3:0.13712205 4:-0.077496943 5:-0.33807559 6:0.057239184 7:-0.1085932 8:0.1564667 9:0.057663642 10:0.055034121 11:-0.17240493 12:-0.21517915 13:0.20243689 
32 1:0.30524589 2:-0.065773152 3:0.095435385 4:0.29991402 5:-0.3852549 6:0.029618968 7:-0.13214318 8:0.45386704 9:-0.078889465 10:0.14059144 11:-0.11527143 12:-0.02237429 13:0.10140253 
32 1:0.4675505 2:0.20860751 3:0.095376349 4:-0.005501536 5:-0.42710923 6:-0.0311999 7:-0.19308931 8:0.18754073 9:-0.07097584 10:0.11258541 11:0.010806511 12:-0.10166156 13:0.17726076 
32 1:0.17334525 2:0.43554811 3:0.062911712 4:-0.11256411 5:-0.28412268 6:-0.28543333 7:-0.13128661 8:0.065488148 9:-0.0073752838 10:0.074135705 11:-0.07528912 12:-0.077731107 13:0.14314409 
32 1:0.38098787 2:0.68098438 3:0.13318031 4:-0.44291984 5:-0.11950948 6:-0.16205939 7:-0.31182766 8:-0.029943973 9:0.25019606 10:-0.27624969 11:-0.13015024 12:0.014312576 13:0.25883367 
32 1:0.46257704 2:0.015994725 3:0.063614767 4:0.18701685 5:-0.46585416 6:-0.051455436 7:-0.24912732 8:0.24787401 9:-0.15465939 10:0.23633855 11:0.047861918 12:-0.12772158 13:-0.04310503 
32 1:0.1522189 2:0.046285858 3:0.12781258 4:0.14495862 5:-0.50174369 6:0.020888986 7:-0.28754456 8:0.21626343 9:-0.16093565 10:0.1481085 11:-0.11813671 12:-0.13580075 13:0.062394553 
32 1:0.3879584 2:0.13296514 3:0.024445339 4:-0.0017394962 5:-0.54096478 6:-0.16466663 7:-0.30510579 8:0.079925875 9:-0.20260781 10:0.093036954 11:-0.00039582455 12:-0.23314038 13:0.042694542 
32 1:0.452225 2:0.21855801 3:0.054571803 4:-0.051702425 5:-0.46626573 6:-0.21142741 7:-0.33727842 8:0.024441433 9:-0.21539391 10:-0.064061131 11:-0.22634895 12:-0.36795251 13:-0.13540588 
32 1:0.41997747 2:0.35548633 3:0.091142894 4:-0.13521154 5:-0.32605688 6:-0.087023173 7:-0.24297836 8:0.11082292 9:0.051672302 10:-0.045020392 11:-0.20122398 12:-0.14943485 13:0.38688133 
32 1:0.12999981 2:0.063231212 3:0.044002829 4:0.0076303645 5:-0.57614069 6:-0.21108219 7:-0.4161726 8:0.02229171 9:-0.31187968 10:-0.057217716 11:-0.28235175 12:-0.35514135 13:-0.20132629 
32 1:0.34360142 2:0.41980864 3:0.12022225 4:-0.16740906 5:-0.26446272 6:-0.071342576 7:-0.27736012 8:0.070574704 9:0.091680966 10:-0.050549819 11:-0.24411541 12:-0.17743834 13:0.31555224 
32 1:-0.009789155 2:0.23086262 3:0.21874034 4:0.13308748 5:-0.3758997 6:0.09268019 7:-0.20614882 8:0.16508768 9:-0.20287514 10:-0.098628823 11:-0.17634852 12:-0.2300374 13:-0.16157264 
31.64909681974583 1:0.2332159 2:0.24795549 3:0.14811675 4:0.16290483 5:-0.29232624 6:-0.081474078 7:-0.33349671 8:0.17308207 9:-0.10068505 10:-0.0080019581 11:-0.31524701 12:-0.33508296 13:-0.064796517 
9.472885379763744 1:0.0095054381 2:0.68575593 3:0.29578622 4:-0.015271827 5:-0.069076037 6:-0.15224974 7:-0.22649357 8:0.20651394 9:0.17806229 10:-0.21121409 11:-0.054145676 12:0.064246664 13:0.18613348 
32 1:0.12758452 2:0.28950678 3:0.30570986 4:0.28861298 5:-0.32632232 6:-0.0053437777 7:-0.23603374 8:0.30888121 9:-0.052086771 10:0.093898814 11:-0.24889865 12:-0.2273654 13:-0.022185718 
32 1:-0.19078398 2:0.21038903 3:0.22168737 4:0.16627775 5:-0.44997818 6:0.036154326 7:-0.10699576 8:0.36471329 9:-0.022804151 10:0.30992504 11:0.079100833 12:-0.059118358 13:0.075997821 
7.894702115118003 1:-0.85777807 2:-0.11048396 3:0.18313589 4:0.22454097 5:-0.62461987 6:-0.01306553 7:-0.49449355 8:0.33515364 9:-0.097636192 10:0.19585357 11:-0.29148873 12:-0.19697074 13:0.10680006 
32 1:-0.45515914 2:0.21262593 3:0.23746572 4:0.14469511 5:-0.4722804 6:-0.16681987 7:-0.4795082 8:0.26017309 9:0.015064878 10:0.22062744 11:-0.17958771 12:-0.22032016 13:-0.043523539 
32 1:0.32897674 2:0.12997724 3:-0.33441597 4:-0.31417509 5:0.18421302 6:-0.033106892 7:-0.061712667 8:0.12461555 9:0.33200595 10:0.030059455 11:-0.022132857 12:-0.06592304 13:0.26919847 
32 1:0.23085897 2:0.028842359 3:-0.32865571 4:-0.22902152 5:0.25019033 6:0.041849539 7:-0.11084219 8:0.095837044 9:0.29175337 10:0.091445745 11:0.0060774612 12:-0.029695753 13:0.3056524 
19.94458478739549 1:0.20058828 2:0.17414289 3:-0.14200671 4:-0.1040477 5:0.069568396 6:0.12994794 7:-0.070073308 8:0.1878585 9:0.27859641 10:0.084111787 11:-0.1300712 12:-0.26544059 13:0.17625219 
32 1:0.10681959 2:0.45762887 3:-0.090973284 4:-0.20624365 5:0.28885936 6:0.056210014 7:-0.02120517 8:0.071802752 9:0.40264112 10:-0.033914597 11:-0.062024594 12:-0.20473763 13:0.32420912 
32 1:0.096100067 2:0.06641081 3:-0.11119817 4:-0.065727293 5:-0.34172722 6:0.060009167 7:-0.11194421 8:0.24355052 9:0.12632256 10:0.37523609 11:0.18861408 12:-0.18655601 13:0.16506518 
9.573668512664124 1:0.32235874 2:-0.096812045 3:-0.46475835 4:-0.091968874 5:0.64129972 6:-0.34204207 7:-0.14289934 8:-0.05053987 9:0.2898761 10:0.029445228 11:-0.15959086 12:0.14606632 13:0.23233733 
8.328207604622724 1:0.35623647 2:-0.66468571 3:-0.68181503 4:-0.23835543 5:0.094853035 6:-0.13754507 7:-0.55868939 8:-0.15137345 9:0.053268043 10:-0.23535449 11:-0.41502609 12:-0.20269185 13:0.20396019 
32 1:0.40358418 2:-0.44107643 3:-0.53869373 4:-0.116493 5:0.38847182 6:-0.1910692 7:-0.32930253 8:0.16820154 9:0.44106718 10:0.086377119 11:-0.13090231 12:-0.032123521 13:0.21118161 
32 1:0.33029188 2:-0.48983316 3:-0.48869681 4:-0.029446923 5:0.33835531 6:-0.1577507 7:-0.38430361 8:0.13011467 9:0.39753242 10:0.12074801 11:-0.10164528 12:-0.0077128439 13:0.31628403 
6.016021132542495 1:0.0015175881 2:-0.1866182 3:-0.44852233 4:0.058739911 5:0.41993505 6:-0.35004752 7:-0.034287034 8:0.050450736 9:0.1886046 10:0.25349664 11:-0.14602895 12:0.24049794 13:-0.11310057 
9.015495747803136 1:0.22422141 2:-0.59968959 3:-1 4:-0.61029309 5:0.26988446 6:-0.485662 7:-0.31947863 8:0.039878529 9:0.33724749 10:-0.097121386 11:-0.088707691 12:-0.14907269 13:0.074307166 
4.594602937742922 1:0.30941224 2:-0.57757869 3:-0.49807544 4:-0.0083346547 5:0.17099211 6:-0.068751905 7:-0.4754539 8:0.035920109 9:0.12692189 10:0.075010001 11:-0.030306269 12:0.16057194 13:0.41891538 
22.24167122256575 1:0.2899669 2:-0.68100186 3:-0.65178084 4:-0.19190481 5:-0.04206927 6:-0.20377278 7:-0.49419985 8:0.15260579 9:0.27157302 10:0.24800316 11:-0.035280574 12:-0.060082094 13:0.079957126 
30.41220956208882 1:0.30534448 2:-0.32183541 3:-0.67498295 4:-0.49480013 5:0.077392206 6:-0.15778768 7:-0.42499347 8:-0.14021348 9:0.19601412 10:-0.055886194 11:0.10933402 12:-0.021296838 13:0.22405223 
15.85392482998624 1:-0.037103965 2:0.093772542 3:-0.31265178 4:-0.29705408 5:0.2623568 6:-0.043699519 7:-0.26717893 8:-0.13912806 9:0.30904633 10:0.26811904 11:0.15262111 12:-0.12287382 13:0.25818909 
32 1:0.026275455 2:0.11434719 3:-0.36344354 4:-0.39292256 5:0.029171972 6:-0.08659213 7:-0.1372923 8:0.06495915 9:0.27894669 10:0.15470369 11:0.1922934 12:-0.062425682 13:0.22853306 
20.81338885051986 1:-0.057486001 2:0.12345669 3:-0.33010356 4:-0.44852116 5:-0.057053985 6:-0.18445445 7:-0.21050345 8:0.34233882 9:0.385492 10:0.034326484 11:-0.022919864 12:-0.094163625 13:0.19169598 
22.50665168948487 1:-0.40193989 2:0.22479609 3:-0.2666481 4:-0.49425138 5:0.053873494 6:-0.20300971 7:-0.26251487 8:0.38964596 9:0.37445596 10:-0.020898416 11:-0.067103092 12:-0.18834807 13:0.19854695 
32 1:0.43278699 2:0.24016204 3:0.16450558 4:0.12542125 5:-0.33905709 6:0.05111003 7:-0.09744026 8:0.40892037 9:0.1115757 10:0.29771295 11:0.01636844 12:-0.096080155 13:0.021598688 
32 1:0.0094500779 2:0.42785238 3:0.13231003 4:-0.056917426 5:-0.23251643 6:-0.0042949454 7:-0.11293993 8:0.1130989 9:-0.055381903 10:-0.079100519 11:-0.14815325 12:-0.36494207 13:0.031286579 
32 1:0.1431103 2:0.1482801 3:0.18302274 4:0.10954773 5:-0.49555048 6:0.051306843 7:-0.16496226 8:0.26741396 9:-0.088149114 10:0.20683689 11:0.030415252 12:-0.099385067 13:0.022626804 
32 1:0.45847296 2:0.1303907 3:0.14972843 4:0.11183522 5:-0.47052572 6:-0.043962056 7:-0.087006578 8:0.29090191 9:-0.21790505 10:-0.018124282 11:-0.032965586 12:-0.1137448 13:-0.18617832 
32 1:0.15657902 2:-0.15731649 3:0.13416234 4:0.20459847 5:-0.68789208 6:-0.058370335 7:-0.2998128 8:0.26879635 9:-0.36364374 10:-0.015888193 11:-0.22758743 12:-0.10660029 13:-0.22340479 
6.318505536133267 1:0.41672425 2:0.79758426 3:0.17023884 4:-0.419617 5:-0.079789697 6:-0.13391751 7:-0.18674048 8:-0.1533335 9:0.28518604 10:-0.22561511 11:-0.414065 12:-0.17374674 13:-0.27431911 
32 1:0.32471966 2:0.31095353 3:0.13377613 4:-0.066260703 5:-0.44741966 6:-0.034094962 7:-0.1323122 8:0.094830576 9:-0.16217336 10:-0.040158175 11:-0.13893193 12:-0.44857295 13:-0.24138006 
32 1:0.44105203 2:0.31802715 3:0.15677715 4:0.06858322 5:-0.34184708 6:0.086527846 7:-0.087653583 8:0.20089684 9:-0.039704203 10:0.14562554 11:-0.054072447 12:-0.34762913 13:-0.015372123 
32 1:0.35095169 2:0.17211956 3:0.1720346 4:0.25360657 5:-0.31341354 6:0.09761869 7:-0.18892124 8:0.27908694 9:-0.0259389 10:0.28582183 11:-0.065281119 12:-0.24492151 13:-0.029056832 
16.59218671584395 1:0.44309551 2:0.66247935 3:0.050287307 4:-0.23150943 5:-0.0033995786 6:-0.28574477 7:-0.073564929 8:-0.024832741 9:0.11212261 10:-0.12065353 11:-0.25824505 12:-0.21010622 13:-0.060105717 
32 1:0.00067665922 2:0.010541478 3:0.14924377 4:0.20150831 5:-0.53253138 6:-0.058253453 7:-0.21318528 8:0.34208458 9:-0.21316654 10:-0.040483873 11:-0.41470561 12:-0.34101415 13:-0.17923695 
20.43894179858895 1:-0.070995665 2:0.33029055 3:0.29456138 4:0.17851711 5:-0.26719 6:0.27999256 7:-0.14791575 8:0.21636154 9:-0.05358095 10:0.068229134 11:-0.1794355 12:-0.39770795 13:-0.26082737 
32 1:-0.088351421 2:0.60286835 3:0.41062797 4:0.13537153 5:-0.077787451 6:0.015848537 7:-0.24512778 8:0.37733417 9:0.30735068 10:0.070698577 11:-0.16292815 12:-0.00073731939 13:-0.31413992 
30.97586464805969 1:-0.19872378 2:-0.40610115 3:-0.17231 4:0.13038065 5:-0.41495492 6:0.20077651 7:-0.27770985 8:0.32776538 9:-0.070889967 10:0.22045591 11:-0.2136063 12:-0.024633011 13:0.31752469 
31.35476122658441 1:0.27126827 2:0.21084601 3:-0.42739984 4:-0.40160636 5:0.60403526 6:0.0086845335 7:0.10163397 8:-0.04907694 9:0.25152344 10:-0.30492722 11:-0.30422943 12:-0.20496438 13:0.18399942 
32 1:0.28213214 2:-0.2615114 3:-0.36567196 4:-0.059961534 5:-0.10555158 6:-0.0087198409 7:-0.38101949 8:0.037160534 9:0.038007396 10:0.097302953 11:-0.087217065 12:-0.13532667 13:0.13511219 
32 1:0.3055647 2:0.065443605 3:-0.33383093 4:-0.2517686 5:0.20579917 6:0.11552205 7:-0.10677656 8:-0.082699962 9:0.29078347 10:0.11276005 11:0.083768001 12:-0.3162498 13:0.2606979 
21.29815325147049 1:-0.022833748 2:-0.23317751 3:-0.22941604 4:-0.095063859 5:0.0087726422 6:0.43282413 7:-0.18250915 8:0.15524108 9:0.30758731 10:0.29061059 11:-0.28012585 12:-0.40096171 13:0.19267794 
32 1:0.19306933 2:-0.043923589 3:-0.32424242 4:-0.16765807 5:0.10564005 6:0.17352545 7:-0.12231126 8:-0.010407178 9:0.19892503 10:0.19204724 11:0.11558978 12:-0.19846871 13:0.27840538 
32 1:-0.10875528 2:-0.58569618 3:-0.49331687 4:-0.14088163 5:-0.30488032 6:0.20022106 7:-0.16251466 8:0.18103675 9:-0.10794622 10:0.22276205 11:0.15556495 12:0.022222947 13:0.085916888 
32 1:0.17283315 2:-0.1157567 3:-0.41595175 4:-0.27365892 5:-0.038766099 6:0.30108392 7:0.066583005 8:0.14900267 9:0.13127675 10:0.029447417 11:-0.017166809 12:-0.28591617 13:0.27343497 
32 1:0.27862589 2:0.051156003 3:-0.30046812 4:-0.23050279 5:0.014250342 6:0.069713339 7:-0.00085393223 8:0.075823078 9:0.034495547 10:0.089603678 11:0.27833109 12:0.0023470461 13:0.16302428 
32 1:0.27018948 2:-0.24076218 3:-0.37306586 4:-0.21165089 5:-0.14645768 6:0.21526924 7:-0.14550826 8:0.069926104 9:0.060592245 10:0.26168388 11:0.19598217 12:-0.032169418 13:0.22881316 
32 1:-0.045980659 2:0.066136678 3:-0.343769 4:-0.14833748 5:0.080223509 6:-0.17769536 7:0.19817729 8:0.0048050731 9:-0.031160691 10:0.23051024 11:0.13099806 12:0.17810893 13:-0.12173128 
32 1:0.15609877 2:-0.20623037 3:-0.43504558 4:-0.38489055 5:-0.10625979 6:0.18759588 7:-0.12380565 8:0.094106672 9:0.19859871 10:0.22658979 11:0.18411856 12:0.028038591 13:0.31856524 
25.42797326016332 1:0.20812661 2:0.31648183 3:-0.43258258 4:-0.63089 5:0.38159727 6:-0.11561452 7:0.069669723 8:0.1189349 9:0.30959261 10:0.097716126 11:0.163961 12:-0.088474044 13:0.5339503 
6.132654795211423 1:-0.2587969 2:0.037631125 3:-0.068829788 4:-0.22652009 5:-0.53373333 6:0.11438074 7:-0.012353376 8:0.1224568 9:-0.12940083 10:0.17293358 11:0.21088165 12:-0.1618585 13:0.24943905 
32 1:-0.15591835 2:0.32801441 3:0.31549006 4:0.167547 5:-0.28659655 6:0.26417559 7:0.15128252 8:0.40968082 9:-0.077466513 10:0.10960284 11:-0.035859773 12:-0.2538427 13:0.014435126 
32 1:0.30197766 2:0.22314898 3:0.13581378 4:-0.0098679688 5:-0.40320273 6:0.16263518 7:0.24361395 8:0.46433765 9:0.062023506 10:0.28578426 11:0.33869118 12:0.011111242 13:0.12517648 
32 1:-0.45930243 2:0.17434282 3:0.32260268 4:0.37880531 5:-0.28925447 6:0.2407309 7:0.0068078589 8:0.43340122 9:-0.15822705 10:0.1248702 11:-0.16640356 12:-0.18298564 13:-0.010835778 
32 1:0.31782644 2:0.18298901 3:0.082070495 4:-0.0569531 5:-0.41947665 6:0.1426647 7:0.24510317 8:0.48016955 9:0.097518999 10:0.34425483 11:0.41599756 12:0.052521781 13:0.15306688 
32 1:0.50062567 2:0.28037598 3:0.13244906 4:-0.079149971 5:-0.384571 6:0.20369251 7:0.2077617 8:0.29535346 9:-0.054859412 10:0.031437435 11:-0.074214566 12:-0.5200933 13:-0.24999805 
32 1:0.45649466 2:0.27229554 3:0.17532979 4:0.0660636 5:-0.34703898 6:0.13342366 7:0.18990658 8:0.52268151 9:0.13683671 10:0.26205584 11:0.12253743 12:-0.16741535 13:0.015236406 
32 1:0.37389293 2:0.34688823 3:0.21232991 4:0.016274497 5:-0.30526292 6:0.15966568 7:0.23981636 8:0.48478674 9:0.10823963 10:0.088792307 11:-0.0041402338 12:-0.2220223 13:0.039419334 
32 1:0.46113067 2:0.62063736 3:0.13594461 4:-0.16892458 5:-0.070634619 6:0.029971512 7:0.33844841 8:0.26190961 9:0.21185478 10:0.033334238 11:-0.058451333 12:-0.2064913 13:0.11981063 
32 1:0.55143924 2:0.60463701 3:0.027363165 4:-0.38544487 5:-0.064788399 6:-0.020566687 7:0.20203217 8:0.074096966 9:0.15969236 10:-0.31458426 11:-0.37375148 12:-0.46170177 13:-0.00038989156 
32 1:0.50433209 2:0.18035577 3:0.079175633 4:-0.020576752 5:-0.31777329 6:0.18328946 7:0.21026023 8:0.4019033 9:-0.031646493 10:-0.0865633 11:-0.17563262 12:-0.35846262 13:-0.086823361 
32 1:0.23478359 2:-0.0030718138 3:0.18202171 4:0.095927894 5:-0.55725711 6:0.24107728 7:0.062074914 8:0.37791945 9:-0.16569958 10:0.0086120509 11:-0.18777551 12:-0.29217604 13:-0.040958628 
32 1:0.4377281 2:0.25025657 3:0.083800471 4:-0.075224734 5:-0.28454942 6:0.19182752 7:0.2074077 8:0.32535533 9:-0.046348447 10:-0.14826843 11:-0.23781014 12:-0.46269632 13:-0.1485949 
32 1:0.54880704 2:0.11993988 3:0.018838037 4:-0.08177017 5:-0.37217966 6:0.19800639 7:0.17322864 8:0.32176997 9:-0.11117267 10:-0.164468 11:-0.34965491 12:-0.52266624 13:-0.21796342 
32 1:0.23287146 2:0.17486595 3:0.022526097 4:-0.094073378 5:-0.33472062 6:0.14897636 7:0.20498322 8:0.29177247 9:-0.13705542 10:-0.18839284 11:-0.35305226 12:-0.57607491 13:-0.29594966 
29.78727846940329 1:0.46241589 2:0.47124628 3:-0.008825068 4:-0.32760712 5:-0.21542887 6:-0.1061095 7:0.18042282 8:0.10181722 9:-0.069321168 10:-0.46531295 11:-0.34835006 12:-0.469679 13:-0.17738712 
32 1:0.21408006 2:-0.1212426 3:0.056492734 4:0.12087483 5:-0.47341874 6:0.23974181 7:0.069485361 8:0.43357866 9:-0.2203638 10:-0.16372432 11:-0.46570411 12:-0.4261917 13:-0.30525812 
9.797630611844207 1:0.57820513 2:0.064606334 3:-0.058875431 4:-0.23464356 5:-0.5097416 6:0.067464997 7:0.12648942 8:0.1847123 9:-0.30956355 10:-0.45665498 11:-0.53679931 12:-0.73992362 13:-0.54124577 
32 1:0.53063881 2:0.45523545 3:0.034793453 4:-0.24583726 5:-0.26686402 6:0.083622749 7:0.25818159 8:0.16359711 9:-0.034448065 10:-0.34132455 11:-0.13339617 12:-0.43132581 13:-0.022754921 
32 1:0.24543937 2:0.061803996 3:0.092592906 4:-0.057445554 5:-0.45795984 6:0.34126944 7:0.30441192 8:0.39847963 9:-0.19692571 10:-0.25018161 11:-0.28775395 12:-0.52082741 13:-0.35125505 
4.533790433241728 1:0.55608343 2:0.67096509 3:-0.0046658098 4:-0.52404998 5:-0.053752331 6:-0.13229013 7:0.30198958 8:-0.01728268 9:0.05611891 10:-0.5832944 11:-0.48913986 12:-0.32109784 13:-0.31734713 
32 1:0.21515497 2:0.1935042 3:-0.034954356 4:-0.24310854 5:-0.35713116 6:0.10101937 7:0.11293918 8:0.13086544 9:-0.22805204 10:-0.48562759 11:-0.59692437 12:-0.71995321 13:-0.29402666 
32 1:0.56197159 2:0.73759466 3:0.011978039 4:-0.50799958 5:0.11563588 6:-0.052105032 7:0.3032978 8:0.035894102 9:0.28218231 10:-0.51863088 11:-0.49898105 12:-0.10419829 13:-0.087130911 
32 1:0.20764408 2:0.39717532 3:-0.026951982 4:-0.15667693 5:-0.16189547 6:-0.16638989 7:0.33205949 8:0.11918291 9:-0.084706144 10:-0.14177003 11:-0.41310683 12:-0.27067972 13:-0.16635996 
32 1:0.5070237 2:0.39525036 3:0.054214968 4:-0.16796129 5:-0.12742752 6:0.26646055 7:0.25338099 8:0.26772683 9:0.058552563 10:-0.17515121 11:-0.25897541 12:-0.5109155 13:-0.089832702 
32 1:0.15960465 2:0.27791751 3:0.035119421 4:-0.071592972 5:-0.17492438 6:0.18235778 7:0.25446826 8:0.33705007 9:-0.014826002 10:-0.21650018 11:-0.41013738 12:-0.48825819 13:-0.11495237 
32 1:-0.14151201 2:0.26847277 3:0.26126585 4:0.24923796 5:-0.19234304 6:0.28817462 7:-0.069978008 8:0.38325525 9:0.031762278 10:0.065105983 11:-0.29682134 12:-0.32901328 13:-0.055119387 
