svm_type c_svc
kernel_type rbf
gamma 0.76923
nr_class 2
total_sv 5012
rho 0.152504
label 1 -1
nr_sv 2471 2541
SV
3.218850944351933 1:0.052632429 2:0.33239778 3:0.19920925 4:-0.11025261 5:-0.51933209 6:-0.0913086 7:0.17857823 8:0.4456346 9:0.11430926 10:-0.033671918 11:-0.034909972 12:-0.18456304 13:0.40722873 16:-0.13892479 17:0.0087504215 18:0.34100251 19:0.1820059 20:-0.11451569 21:0.33114745 22:-0.56634118 23:-0.42988159 24:-0.44475569 25:-0.069436162 26:-0.0053958708 27:-0.18247734 28:0.30114411 29:0.35160743 30:-0.023435418 31:-0.15844258 32:-0.027872158 33:0.0049455318 34:0.25496797 35:-0.20781034 36:-0.34730934 37:-0.095924549 38:-0.32160165 39:0.52106385 
0.5633642679407066 1:-0.00099909869 2:0.38493459 3:0.17037122 4:-0.19511273 5:-0.47612731 6:-0.07288739 7:0.19707927 8:0.37780328 9:0.060946022 10:0.012427933 11:0.018559309 12:-0.26487533 13:0.20513864 16:-0.45591409 17:0.19460533 18:0.3867855 19:-0.41345988 20:0.58880795 21:0.070405884 22:-0.47728877 23:-0.31494065 24:-0.74623898 25:-0.22810951 26:-0.10493119 27:-0.11743461 28:0.32545538 29:0.30244438 30:-0.068496073 31:-0.16819517 32:-0.014968168 33:-0.13644119 34:0.3652055 35:-0.016592826 36:-0.3982775 37:-0.056623518 38:-0.34239026 39:0.50640227 
5.230896947594739 1:-0.11656259 2:0.44150362 3:0.21234377 4:-0.057128431 5:-0.32376169 6:0.040611622 7:0.035287303 8:0.23230769 9:0.0045432031 10:0.14525396 11:0.13904682 12:-0.077087347 13:0.35674116 16:-0.79041208 17:0.056161756 18:0.14767323 19:-0.067475867 20:-0.10459618 21:0.49953476 22:-0.23496916 23:-0.20472767 24:-0.27577933 25:-0.21092983 26:0.028247408 27:-0.30911142 28:0.24052967 29:0.29478982 30:-0.12357969 31:-0.021075745 32:-0.13904843 33:-0.04509595 34:0.26807922 35:0.088684319 36:-0.36813394 37:-0.080403998 38:-0.24289356 39:0.33216962 
3.281943950292974 1:0.34388349 2:0.63846112 3:0.30743721 4:-0.28362381 5:-0.47173694 6:-0.14058953 7:0.31286508 8:0.27388086 9:0.083792106 10:-0.20649859 11:0.025706986 12:-0.41804786 13:0.23358394 16:-0.26920661 17:-0.22973118 18:0.2075156 19:0.23119027 20:0.029244927 21:0.46974774 22:-0.59556244 23:-0.0037784574 24:-0.6130822 25:-0.20500371 26:-0.35926997 27:0.055993844 28:0.23866227 29:0.27673784 30:-0.11579548 31:-0.17916276 32:0.078437123 33:-0.022634918 34:0.1322331 35:-0.14214707 36:-0.24104081 37:-0.11064043 38:-0.27982559 39:0.53538286 
1.360581973436803 1:-0.42467238 2:0.30360999 3:0.2151224 4:0.11173992 5:-0.31927045 6:0.08712939 7:0.018255437 8:0.26508003 9:-0.10354068 10:0.092037075 11:0.037790799 12:-0.057458491 13:0.27606841 16:-0.49240157 17:-0.013270554 18:0.027920947 19:-0.092420891 20:-0.17564925 21:0.67296719 22:-0.28180132 23:-0.12760496 24:-0.32006404 25:-0.17253449 26:0.16560382 27:-0.21356879 28:0.30247384 29:0.36738763 30:-0.10496638 31:-0.079560679 32:-0.12080706 33:-0.041184178 34:0.22276621 35:0.075262194 36:-0.37471406 37:-0.12876888 38:-0.36581689 39:0.30061571 
1.091247534298814 1:0.30064473 2:0.52180977 3:0.2576893 4:-0.21617384 5:-0.45157385 6:-0.12022106 7:0.29050912 8:0.34417707 9:0.068609734 10:-0.1845992 11:-0.04787792 12:-0.45103181 13:0.18081823 15:-1 16:-0.64612203 17:-0.13333301 18:0.20685534 19:0.29716835 20:0.058064095 21:0.49282619 22:-0.62335005 23:0.09369918 24:-0.57110899 25:-0.16833195 26:-0.29925531 27:-0.0025803564 28:0.27158231 29:0.29524058 30:-0.11805462 31:-0.24018082 32:0.050300289 33:-0.015168599 34:0.20727759 35:-0.17924809 36:-0.29099174 37:-0.046161636 38:-0.31477422 39:0.53321947 
11.84172601963045 1:0.15011326 2:-0.033531716 3:0.084029443 4:0.1973081 5:-0.38327493 6:0.17259656 7:0.10590514 8:0.57073781 9:0.0046308373 10:0.24544864 11:0.0062370659 12:-0.0076999128 13:0.11012859 16:-0.83129011 17:0.12133689 18:0.0030627075 19:0.19784717 20:0.16967441 21:0.44200848 22:-0.51495317 23:0.17999546 24:-0.55165982 25:-0.042052836 26:-0.039453925 27:0.00071675504 28:0.34667349 29:0.38715114 30:-0.063377118 31:-0.16271112 32:-0.017048837 33:0.0024732956 34:0.25853592 35:-0.15264421 36:-0.35374548 37:-0.13100045 38:-0.4888724 39:0.21576712 
0.1506521826294567 1:-0.10052519 2:0.37213485 3:0.33654032 4:0.16244721 5:-0.2943458 6:0.28895959 7:0.21077987 8:0.46512637 9:0.092280108 10:0.36896008 11:0.2885174 12:-0.065002172 13:-0.024541952 16:-0.89754804 17:-0.007000472 18:-0.13808048 19:0.4417314 20:0.2771793 21:-0.16347482 22:-0.04423488 23:-0.020695353 24:-0.77740784 25:0.11009831 26:-0.40070455 27:-0.27066684 28:0.48568246 29:0.41654188 30:-0.17496867 31:-0.1600056 32:0.18638474 33:-0.10576759 34:0.32179306 35:-0.28068615 36:-0.27349874 37:-0.11903058 38:-0.49225715 39:0.31499816 
0.2160644788779082 1:-0.27759265 2:-0.33046749 3:0.057457705 4:0.36393421 5:-0.40228871 6:0.39097494 7:0.1214397 8:0.70230762 9:-0.041331644 10:0.32954938 11:0.0074572506 12:0.13954287 13:0.12387773 16:-0.2950933 17:-0.19756043 18:-0.0085411439 19:0.19964866 20:0.26580371 21:0.51775022 22:-0.45451886 23:0.261822 24:-0.64098568 25:0.13911786 26:0.0098906195 27:0.054783929 28:0.42015278 29:0.44621393 30:0.031707037 31:-0.10913129 32:0.043208417 33:0.052436868 34:0.26791928 35:-0.17007235 36:-0.38881417 37:-0.2701734 38:-0.67833442 39:0.017618176 
2.623488937654571 1:-0.17986267 2:0.48930323 3:0.37872403 4:0.042326554 5:-0.26093438 6:0.33530793 7:0.29958176 8:0.53484989 9:0.22885604 10:0.33871729 11:0.24921434 12:-0.064752015 13:0.042937111 16:-0.99667098 17:0.6177133 18:-0.098142915 19:0.39745927 20:0.47913639 21:-0.1757128 22:-0.0090089369 23:-0.28121157 24:-0.74245981 25:0.022199447 26:-0.36181834 27:-0.40165595 28:0.38720934 29:0.47292166 30:-0.29857601 31:-0.19739221 32:0.52019988 33:-0.30261729 34:0.39452779 35:-0.26499555 36:-0.078848224 37:-0.30215561 38:-0.38710688 39:0.39123306 
0.5976368171502539 1:0.019001517 2:0.26067989 3:0.24706185 4:0.082277842 5:-0.31211941 6:0.34902715 7:0.43260626 8:0.65222901 9:0.16782514 10:0.11100438 11:-0.12269156 12:-0.3909852 13:-0.036896556 16:-0.60678 17:-0.8500957 18:0.028426785 19:0.22054289 20:0.64890406 21:0.2899345 22:-0.70020699 23:0.24949349 24:-0.58196544 25:-0.21881556 26:-0.012508156 27:-0.24778443 28:0.36391781 29:0.42151897 30:-0.074853792 31:-0.1428884 32:0.053288235 33:0.011772461 34:0.23276952 35:-0.22121898 36:-0.25472856 37:-0.25783228 38:-0.4514365 39:0.46819893 
1.394422432091893 1:-0.11248775 2:0.31729017 3:0.31031135 4:0.15444498 5:-0.24186754 6:0.42099224 7:0.26655608 8:0.40985811 9:-0.046781977 10:0.13112437 11:0.10288958 12:-0.20169747 13:-0.070585152 14:1 16:-0.63064876 17:-0.66899502 18:-0.14024561 19:-0.034411153 20:0.66968843 21:0.0089795949 22:-0.60376514 23:0.34333275 24:-0.64602411 25:-0.27134057 26:-0.28121555 27:-0.041196702 28:0.13787273 29:0.42978576 30:-0.019751603 31:-0.21717166 32:0.20692727 33:-0.11577544 34:0.34793587 35:-0.22129929 36:-0.2457212 37:-0.33220607 38:-0.44343169 39:0.23820038 
5.668406576314912 1:-0.5167536 2:-0.036344367 3:0.39262474 4:0.57635035 5:-0.49994265 6:0.045601693 7:-0.45208489 8:0.28123141 9:-0.26143654 10:0.31743732 11:-0.051486161 12:0.060826764 13:-0.13586536 16:-0.10301692 17:-0.0038142323 18:-0.39277637 19:0.38147288 20:-0.39284023 21:-0.31628805 22:0.31413974 23:0.03943928 24:-0.28588239 25:-0.1592762 26:0.049374324 27:-0.053176263 28:0.54116589 29:0.48913907 30:0.062218495 31:-0.068068566 32:0.046216985 33:0.063477584 34:0.29828093 35:-0.25940579 36:-0.33769746 37:-0.34661718 38:-0.75404687 39:-0.06908641 
1.301734974496259 1:-0.20274164 2:0.59460712 3:0.50997671 4:-0.045325428 5:-0.51469444 6:-0.21451369 7:-0.60885257 8:-0.029475809 9:-0.10721719 10:0.12699385 11:0.082088758 12:-0.011800348 13:0.29304108 16:0.84433685 17:-0.20500234 18:0.26975627 19:-0.80314043 20:0.24840998 21:-0.48484859 22:0.1319347 23:-0.27373717 24:-0.22145933 25:-0.39965951 26:-0.0059343702 27:-0.16094391 28:-0.375226 29:0.44178416 30:-0.098630829 31:-0.031664193 32:0.013804275 33:0.28496566 34:0.14946036 35:0.41764516 36:-0.39888066 37:-0.54640894 38:-0.12437877 39:0.55606763 
5.068266218072354 1:-0.062806555 2:0.24575638 3:0.41784509 4:0.47047475 5:-0.41871506 6:-0.23161535 7:-0.61463288 8:0.034337051 9:-0.2563449 10:0.25697471 11:0.029963911 12:0.026956729 13:-0.058486131 16:0.6226231 17:-0.54125201 18:0.39366729 19:-0.51656832 20:-0.39049181 21:-0.38348343 22:-0.037367069 23:0.046075778 24:-0.13048662 25:-0.18325691 26:-0.062398532 27:0.086767394 28:0.30004395 29:0.41487125 30:-0.067950003 31:-0.13803231 32:0.013290915 33:0.015713315 34:0.25848698 35:-0.2953082 36:-0.21993806 37:-0.21931079 38:-0.4968843 39:0.15331147 
0.3675040455573317 1:-0.41195344 2:0.2899421 3:0.35027544 4:0.39998921 5:-0.36581978 6:-0.27452598 7:-0.50315759 8:-0.010148463 9:-0.25263436 10:0.25999034 11:0.17300676 12:0.18178833 13:0.046558323 14:1 16:0.67581301 17:-0.47135702 18:0.4520023 19:-0.54706673 20:-0.36558713 21:-0.30982414 22:0.10986154 23:0.024309666 24:-0.21370886 25:-0.21592923 26:-0.11466006 27:0.1133791 28:0.27452278 29:0.40005745 30:-0.14862277 31:-0.12440477 32:-0.065180403 33:-0.011129273 34:0.17037162 35:-0.29044963 36:-0.11827319 37:-0.097377398 38:-0.40786498 39:0.14587823 
1.104467835142456 1:-0.19100424 2:0.33420353 3:0.32260799 4:0.27275483 5:-0.41936306 6:-0.016678676 7:-0.18027315 8:0.02970225 9:-0.17140024 10:0.18190389 11:0.21989023 12:-0.0020228867 13:-0.048757185 16:0.19989587 17:-0.56083954 18:0.40545198 19:-0.2637299 20:-0.0026975306 21:-0.43656712 22:0.41171457 23:0.072307758 24:-0.3409507 25:-0.59042236 26:-0.054645915 27:0.057667076 28:0.30654463 29:0.34012345 30:-0.032852151 31:0.03226253 32:-0.1588628 33:0.089035212 34:-0.00041296924 35:-0.0097103194 36:-0.47362234 37:-0.098151598 38:-0.39561179 39:0.17001261 
6.06566966692941 1:0.13549251 2:0.27320269 3:0.089764085 4:-0.16672765 5:-0.60656426 6:-0.25839361 7:-0.34047991 8:-0.19457456 9:-0.41017827 10:-0.050760287 11:0.20362169 12:-0.12370598 13:-0.014880362 16:-0.0060187834 17:-0.012460734 18:0.69267378 19:-0.30046067 20:-0.54846317 21:0.24393351 22:-0.2042836 23:0.15437709 24:-0.42302628 25:-0.66356296 26:-0.16140397 27:0.019922676 28:0.33178849 29:0.36221279 30:-0.094286514 31:-0.10218149 32:-0.059668281 33:-0.033902832 34:0.29136521 35:-0.18921578 36:-0.32727691 37:-0.15225635 38:-0.45821962 39:0.26165569 
0.7531073699979217 1:-0.014633697 2:0.44722776 3:0.27157356 4:-0.11385167 5:-0.55870388 6:-0.13210553 7:-0.11281388 8:-0.074259091 9:-0.30135752 10:0.10107015 11:0.49414001 12:-0.008519041 13:0.03544693 16:-0.2763117 17:-0.058388155 18:0.83027271 19:-0.30058366 20:-0.20682445 21:0.13061496 22:-0.13854012 23:0.21609169 24:-0.58421792 25:-0.71694573 26:-0.13706777 27:0.058699502 28:0.39548046 29:0.37349879 30:-0.068451002 31:-0.06244564 32:-0.10551633 33:-0.0056456678 34:0.27954149 35:-0.13518788 36:-0.36112697 37:-0.091379762 38:-0.50941895 39:0.28658794 
5.219602312933246 1:-0.058570502 2:0.035306341 3:0.13809868 4:0.23836083 5:-0.42077911 6:-0.057215532 7:-0.33355477 8:0.145595 9:-0.23617305 10:0.2432056 11:0.11919956 12:0.029736102 13:0.010296445 16:0.49023156 17:-0.33830776 18:-0.065378892 19:-0.021956349 20:0.35232997 21:-0.21099441 22:-0.047059669 23:0.35348694 24:-0.51755424 25:-0.007400854 26:-0.12598715 27:-0.038609379 28:0.38882501 29:0.38058198 30:-0.053453762 31:-0.17891169 32:-0.032229733 33:0.034201454 34:0.25645138 35:-0.19989569 36:-0.3112598 37:-0.13063355 38:-0.49494915 39:0.0013655926 
7.454993912953695 1:-0.08656131 2:0.3998656 3:0.29374219 4:0.25142418 5:-0.33834005 6:-0.031528734 7:-0.33152476 8:0.002893937 9:-0.19361908 10:0.2306616 11:0.33849885 12:0.023800564 13:0.12305838 16:0.10125299 17:0.090915745 18:-0.15042854 19:0.039371562 20:-0.23050443 21:-0.53379629 22:0.069194158 23:0.32487735 24:-0.53844932 25:-0.22791552 26:-0.14519256 27:-0.076159927 28:0.2451295 29:0.39045023 30:-0.074042351 31:-0.18617294 32:0.060331602 33:-0.086803244 34:0.20696575 35:-0.13576924 36:-0.35696464 37:-0.26067046 38:-0.63981081 39:0.22621726 
1.959089043517805 1:-0.19798894 2:0.64352931 3:0.44961247 4:-0.010258015 5:-0.30432981 6:0.11528182 7:-0.38905855 8:-0.17238072 9:-0.037870196 10:0.24561534 11:0.32448819 12:0.0045604755 13:0.23444568 16:-0.26886547 17:0.1515805 18:-0.058965827 19:-0.13177338 20:-0.37044564 21:-0.58087553 22:-0.035076537 23:0.37863243 24:-0.50976069 25:-0.24261132 26:-0.24006894 27:-0.33845227 28:-0.18256657 29:0.43179794 30:0.1033986 31:-0.14253707 32:0.41882618 33:-0.16012056 34:0.16330115 35:0.10718872 36:-0.37381621 37:-0.31490976 38:0.038861532 39:0.19428075 
2.32184670566853 1:0.016768987 2:0.19482425 3:0.00095257939 4:-0.12192146 5:-0.38983845 6:-0.087634436 7:-0.27581062 8:-0.15240641 9:-0.25584822 10:0.15557183 11:0.34109438 12:-0.086487584 13:0.056871408 15:1 16:-0.6175555 17:0.49712055 18:0.034853512 19:-0.010821324 20:-0.30671629 21:-0.038683348 22:0.02019211 23:0.31353194 24:-0.35584254 25:-0.48719506 26:-0.31897783 27:-0.020611112 28:0.21667426 29:0.36971225 30:-0.13104165 31:-0.14447516 32:-0.086019541 33:0.0078394389 34:0.26931695 35:-0.21508264 36:-0.27940194 37:-0.1429701 38:-0.25865786 39:0.077690771 
0.4820506032902187 1:0.53607314 2:0.642727 3:0.11554989 4:-0.53553927 5:-0.63451124 6:-0.14058194 7:-0.064202337 8:-0.32393762 9:-0.091990068 10:0.27873328 11:0.75603077 12:-0.26079207 13:0.18068515 16:0.94481055 17:-0.028049485 18:0.50199769 19:-0.083357057 20:0.024058483 21:0.1998729 22:-0.73524678 23:0.39368728 24:-0.30340684 25:-0.65633367 26:-0.50740832 27:0.11045668 28:0.32156779 29:0.36578832 30:-0.071254339 31:-0.029082736 32:-0.082913156 33:0.15760655 34:0.015056857 35:-0.11740939 36:-0.23990502 37:-0.29664634 38:-0.37984078 39:0.21879508 
5.485989655921612 1:-0.26016705 2:0.014785453 3:-0.0014749533 4:-0.0026944694 5:-0.45875217 6:-0.047856963 7:-0.37069924 8:-0.076810397 9:-0.27196871 10:0.24225419 11:0.35118396 12:0.051771906 13:0.12408418 16:-0.28053254 17:0.65712409 18:0.0011016813 19:-0.1020055 20:-0.076673898 21:-0.13301315 22:0.04500202 23:0.33782921 24:-0.38511852 25:-0.45498255 26:-0.20138738 27:-0.061704738 28:0.30933654 29:0.3940825 30:-0.078082233 31:-0.11414906 32:-0.018716836 33:0.024487347 34:0.27265251 35:-0.1865642 36:-0.3594082 37:-0.18240208 38:-0.41673219 39:0.044758007 
1.191328542137778 1:0.51217024 2:0.68928692 3:0.0057830712 4:-0.55844536 5:-0.16624526 6:-0.17037296 7:-0.014008363 8:-0.38351621 9:0.19551753 10:0.52816158 11:0.69416391 12:-0.27320641 13:-0.17062865 15:1 16:0.41466215 17:0.41784589 18:-0.13202263 19:0.12490468 20:-0.42892276 21:-0.18203511 22:-0.32918514 23:0.38711056 24:-0.15733839 25:-0.71229585 26:-0.326453 27:-0.35277374 28:0.23882201 29:0.24850514 30:-0.20001968 31:-0.19396905 32:-0.19342163 33:0.23513616 34:-0.44069173 35:0.16668232 36:-0.047454406 37:-0.037901312 38:0.65953742 39:0.058668451 
1.545796483322173 1:0.2649457 2:0.20622111 3:-0.14069314 4:-0.23548189 5:-0.31233051 6:-0.12532775 7:-0.30622983 8:-0.1306205 9:0.059004342 10:0.39776047 11:0.49821787 12:-0.13718112 13:0.24572078 16:0.60252031 17:0.19226003 18:-0.10262772 19:0.055738192 20:-0.13603006 21:0.029968289 22:-0.11473028 23:0.38856408 24:-0.51139098 25:0.27948937 26:-0.3837652 27:-0.1488711 28:0.28389144 29:0.28876301 30:-0.16008965 31:-0.22816277 32:-0.048264824 33:0.069205416 34:0.1741878 35:-0.22220085 36:-0.3490761 37:-0.19395068 38:0.58696361 39:-0.020816235 
2.913708663594364 1:0.12643323 2:0.17550214 3:0.046143212 4:-0.1474882 5:-0.46774638 6:0.011532132 7:-0.2674183 8:-0.09351121 9:-0.048276085 10:0.51095253 11:0.55954038 12:-0.23028646 13:-0.2160892 16:0.29980679 17:0.24416936 18:-0.52740591 19:0.13809037 20:-0.56258573 21:-0.12630659 22:-0.26913938 23:0.41983308 24:-0.28166051 25:-0.62033749 26:-0.36550209 27:-0.14820716 28:0.40043479 29:0.40393588 30:-0.0097515851 31:-0.15053487 32:0.043207479 33:0.029719723 34:0.2640837 35:-0.17599683 36:-0.35585002 37:-0.21976521 38:-0.36615675 39:0.07859214 
0.3399177698138561 1:0.15229294 2:0.048828557 3:-0.10110429 4:-0.050535494 5:-0.39708631 6:-0.056786531 7:-0.37539269 8:-0.052988028 9:-0.077996096 10:0.41394703 11:0.41931488 12:-0.083043583 13:0.14147705 14:-1 16:0.45531411 17:0.16979983 18:-0.11298229 19:0.023365318 20:0.072853986 21:0.018179628 22:-0.33948096 23:0.45113816 24:-0.52060253 25:0.056754184 26:-0.34756427 27:-0.10695268 28:0.33603469 29:0.35352661 30:-0.088721568 31:-0.19298133 32:-0.039578017 33:0.064488884 34:0.20966095 35:-0.20434504 36:-0.33487524 37:-0.23338112 38:-0.27064857 39:0.037402037 
5.91570143302797 1:0.38786343 2:0.34183313 3:0.18603366 4:-0.0021781021 5:-0.42312545 6:-0.04243035 7:-0.32591937 8:0.027324974 9:0.037804493 10:0.43328951 11:0.16937428 12:-0.2772921 13:0.18028561 16:-0.39263941 17:0.20399399 18:0.074903386 19:0.087831772 20:-0.34238615 21:-0.0094359218 22:-0.11254248 23:-0.17748522 24:0.11491384 25:-0.22317267 26:-0.27628603 27:-0.38755204 28:0.39934379 29:0.42634157 30:-0.010398298 31:-0.16892404 32:-0.025815084 33:0.097700235 34:0.229918 35:-0.17844451 36:-0.36138414 37:-0.18223214 38:-0.13984395 39:0.10555952 
1.475074981459049 1:0.43277645 2:0.778669 3:0.22024246 4:-0.27613094 5:-0.1709057 6:-0.093770749 7:-0.26071298 8:-0.45012418 9:0.049466984 10:0.37178673 11:0.32694658 12:-0.23290633 13:0.2203145 16:0.79400705 17:-0.22384379 18:0.18365514 19:-0.10830357 20:-0.39238157 21:0.3106733 22:-0.65220404 23:0.44847468 24:-0.10224291 25:-0.39655304 26:-0.48571251 27:-0.51999506 28:0.19754208 29:0.3289103 30:-0.082144668 31:-0.053253871 32:0.027476417 33:-0.21709996 34:0.15512898 35:-0.12159181 36:0.04356835 37:-0.65633587 38:0.90671938 39:0.04587345 
12.87312050456559 1:0.15194862 2:0.19706446 3:0.2057047 4:0.10471204 5:-0.52720454 6:-0.045855454 7:-0.39906388 8:0.091306124 9:-0.04080801 10:0.43183727 11:0.099570579 12:-0.23266731 13:0.090978918 16:-0.19262639 17:0.18482412 18:0.085143773 19:0.0020238838 20:-0.24643264 21:-0.01699346 22:-0.25970278 23:-0.21690032 24:0.12583939 25:-0.23260916 26:-0.22725072 27:-0.29731255 28:0.44660223 29:0.45682808 30:0.038027735 31:-0.13011373 32:0.019645887 33:0.091707766 34:0.25105875 35:-0.18599472 36:-0.38469388 37:-0.24697118 38:-0.46191582 39:0.1242009 
0.5824237933186082 1:0.37771693 2:0.37711594 3:0.1881581 4:-0.092424635 5:-0.39287226 6:0.010674237 7:-0.14216954 8:-0.022786459 9:-0.074861858 10:0.33839223 11:0.49839014 12:-0.022733248 13:0.26008103 16:0.52663544 17:-0.17978413 18:0.030791874 19:0.093928889 20:-0.404647 21:0.36756024 22:-0.44788544 23:0.62495143 24:-0.34512247 25:-0.19326038 26:-0.30834384 27:-0.21379557 28:0.36134824 29:0.37229934 30:-0.057995179 31:-0.20748614 32:0.05499071 33:0.044674342 34:0.20595009 35:-0.19578332 36:-0.25083432 37:-0.16919026 38:-0.28225379 39:0.10899209 
3.831279836683033 1:0.22654717 2:0.37075859 3:0.23422115 4:0.030072894 5:-0.34387035 6:0.089823253 7:-0.084372673 8:0.051373231 9:-0.10341285 10:0.28036533 11:0.4321618 12:-0.035013095 13:0.19616458 16:0.84439437 17:-0.10891806 18:-0.37175677 19:0.091096604 20:-0.31260848 21:0.43199741 22:-0.39438134 23:0.6055834 24:-0.35239704 25:-0.2051074 26:-0.26507873 27:-0.16191193 28:0.35332156 29:0.38377281 30:-0.057291043 31:-0.18944419 32:0.030725809 33:0.027024903 34:0.22011594 35:-0.16704938 36:-0.29810629 37:-0.20840465 38:-0.3790287 39:0.11699222 
0.7670806609391276 1:0.45775106 2:0.46611765 3:0.29633708 4:-0.066465176 5:-0.53379547 6:-0.068831318 7:-0.12924636 8:-0.10107074 9:-0.24866176 10:0.22554592 11:0.49397643 12:-0.16995142 13:-0.12008524 14:-1 15:-1 16:-0.022872847 17:0.12375419 18:0.14412554 19:-0.10033862 20:-0.3536829 21:0.23738814 22:-0.61029725 23:0.26849844 24:-0.069297132 25:-0.65846221 26:-0.41818126 27:0.10952309 28:0.35389081 29:0.42098601 30:-0.031139744 31:-0.14574553 32:0.035891161 33:-0.063221726 34:0.27286994 35:-0.14522202 36:-0.36119022 37:-0.13743327 38:-0.50394446 39:0.1540027 
1.918657956885813 1:0.44808241 2:0.43365219 3:0.24388363 4:-0.093615808 5:-0.55044027 6:-0.13205502 7:-0.2203379 8:-0.17091248 9:-0.28409584 10:0.19623686 11:0.44619624 12:-0.20204539 13:-0.12125502 16:0.0067457962 17:0.2352616 18:0.094167573 19:-0.16421953 20:-0.23980766 21:0.10449185 22:-0.55959233 23:0.34261493 24:-0.15921282 25:-0.63131579 26:-0.33674365 27:0.075671188 28:0.34436944 29:0.41044254 30:-0.038934521 31:-0.13306089 32:0.0035311911 33:-0.069899649 34:0.28595601 35:-0.14368581 36:-0.3623432 37:-0.14977451 38:-0.49380473 39:0.14777851 
0.7020121440733106 1:0.4775179 2:0.51127059 3:0.22585505 4:-0.054766689 5:-0.4061915 6:-0.095685718 7:-0.1826335 8:-0.087799095 9:-0.20146651 10:0.1103744 11:0.32841435 12:-0.16775992 13:0.13809856 15:1 16:0.89339266 17:-0.14368437 18:0.29284647 19:-0.23747114 20:0.033765163 21:0.10228703 22:-0.46232746 23:0.45677487 24:-0.40076767 25:-0.49573863 26:-0.29784085 27:-0.065210621 28:0.30063982 29:0.33790051 30:-0.09813296 31:-0.21413748 32:0.014127508 33:-0.047385273 34:0.26107156 35:-0.20526894 36:-0.29173408 37:-0.174216 38:-0.43981527 39:0.2451617 
2.002975466279858 1:0.20764323 2:0.14336904 3:0.24741461 4:0.036935468 5:-0.6195147 6:0.073952127 7:-0.30772096 8:-0.20374375 9:-0.48484824 10:0.091292372 11:0.16267357 12:-0.33409561 13:-0.28401556 16:0.021378911 17:0.059941761 18:-0.13094907 19:-0.50949247 20:0.32384508 21:0.12347049 22:-0.54869981 23:0.35669159 24:-0.074472712 25:-0.61502514 26:-0.29224308 27:0.074098468 28:0.49586093 29:0.50807699 30:0.08064334 31:-0.053516019 32:0.075779083 33:0.056989967 34:0.26680582 35:-0.18707029 36:-0.3758432 37:-0.34745767 38:-0.80148029 39:0.064231682 
0.6193890830679306 1:0.43665572 2:0.43782502 3:0.21400497 4:-0.045044923 5:-0.29541642 6:0.070365733 7:-0.16299329 8:-0.20537955 9:-0.24163963 10:0.16963752 11:0.40090964 12:-0.30353193 13:-0.060288743 14:1 16:0.17816576 17:-0.31461855 18:0.13412975 19:-0.43287025 20:0.12129204 21:0.080336935 22:-0.59207023 23:0.29821731 24:0.027300106 25:-0.68945728 26:-0.45709037 27:-0.017905204 28:0.325082 29:0.35986985 30:-0.078638286 31:-0.21415105 32:0.023374043 33:0.025508974 34:0.22738427 35:-0.18911164 36:-0.32009707 37:-0.12967481 38:-0.40934355 39:0.025255355 
0.2378545588548336 1:0.28835552 2:0.44791365 3:0.24562702 4:0.050442848 5:-0.25913211 6:0.20386186 7:-0.057291673 8:-0.10975169 9:-0.22489977 10:0.15738534 11:0.39173199 12:-0.31013546 13:-0.094756105 16:-0.33055179 17:-0.075725955 18:-0.19955094 19:-0.47474432 20:0.17722744 21:0.13724745 22:-0.54967634 23:0.47528116 24:-0.20399788 25:-0.6858045 26:-0.30339808 27:-0.042816184 28:0.30953399 29:0.38118044 30:-0.064996005 31:-0.2100939 32:0.026513825 33:0.06683024 34:0.18060925 35:-0.18542911 36:-0.32966289 37:-0.21818671 38:-0.68179956 39:0.034804801 
5.578890452926535 1:0.13939044 2:0.54205485 3:0.30767719 4:0.059277008 5:-0.18912997 6:0.3124864 7:0.05980124 8:-0.079708115 9:-0.15677963 10:0.2389103 11:0.5114722 12:-0.21234441 13:0.050773223 16:-0.10135619 17:-0.073134296 18:-0.25006378 19:-0.43077086 20:0.1201324 21:0.12514599 22:-0.22111155 23:0.33332966 24:-0.23631149 25:-0.64104976 26:-0.40085188 27:-0.053767138 28:0.25543961 29:0.39355414 30:-0.068424899 31:-0.17205852 32:0.0606137 33:0.016169651 34:0.17967818 35:-0.24545631 36:-0.17154048 37:-0.35006936 38:-0.66807893 39:0.057369249 
1.545834505030484 1:0.076185399 2:0.47152505 3:0.41245799 4:0.14894238 5:-0.34866353 6:0.31187722 7:0.30458133 8:0.44679641 9:0.1648103 10:0.39472542 11:0.40919129 12:-0.038404383 13:-0.018615451 16:-0.95024643 17:0.77686232 18:-0.55483644 19:0.34471563 20:0.065075725 21:0.045948435 22:-0.55333329 23:0.17234831 24:-0.50086972 25:-0.40047538 26:-0.32463505 27:-0.010810697 28:0.46325487 29:0.38459686 30:-0.025116338 31:-0.20221564 32:0.50398808 33:-0.33067902 34:0.23570799 35:-0.24937751 36:-0.21497514 37:-0.24524732 38:-0.47491149 39:0.31710204 
0.6484004835156074 1:-0.1932275 2:0.36469884 3:0.40396006 4:0.036503648 5:-0.44612273 6:0.52982741 7:0.26775136 8:0.21536596 9:-0.053954297 10:0.45866013 11:0.6715638 12:0.09831553 13:0.39683198 16:-0.80929916 17:-0.025493337 18:0.54368625 19:-0.40034582 20:0.35893255 21:0.13144155 22:-0.2056529 23:0.19721442 24:-0.44134396 25:-0.51546455 26:-0.077726551 27:-0.29598488 28:0.49711097 29:0.52536522 30:0.15217409 31:-0.078340253 32:0.3715149 33:-0.10484373 34:0.23509618 35:-0.13740888 36:-0.23019566 37:-0.59820153 38:-0.74974726 39:0.20196319 
1.285791695251983 1:-0.0088648339 2:0.38519409 3:0.28855929 4:0.040151781 5:-0.35446087 6:0.19949539 7:0.17586753 8:0.32403323 9:-0.014519413 10:0.16190918 11:0.23552006 12:0.01792497 13:0.2040933 16:-0.53720049 17:-0.075201059 18:0.24399818 19:-0.11895276 20:-0.11527692 21:0.30302257 22:-0.64756381 23:0.20798931 24:-0.71131779 25:-0.24477278 26:-0.08361004 27:-0.21729161 28:0.31726649 29:0.38622192 30:-0.086714185 31:-0.15132583 32:0.24906483 33:-0.23780562 34:0.28219567 35:-0.093397577 36:-0.21657097 37:-0.27690018 38:-0.43560935 39:0.28967376 
2.41206206192414 1:-0.080206234 2:0.5912537 3:0.4629493 4:0.11388771 5:-0.36732361 6:0.1168926 7:0.089023969 8:0.18752277 9:-0.085970521 10:0.090091789 11:0.24418319 12:0.048652132 13:0.27208429 16:-0.038198928 17:-0.32802487 18:0.11612381 19:-0.1443093 20:-0.059875936 21:0.32439037 22:-0.59994772 23:0.07094784 24:-0.42632498 25:-0.39805135 26:-0.092971312 27:-0.32961313 28:0.42886239 29:0.34998449 30:0.0058085514 31:-0.20264704 32:0.40959204 33:-0.40258046 34:0.43080784 35:-0.16379771 36:-0.20649343 37:-0.33487295 38:-0.44296072 39:0.32355964 
13.97199625931181 1:-0.057010029 2:0.3464999 3:0.41609871 4:0.38004807 5:-0.35097315 6:-0.0050836035 7:-0.20379987 8:0.38693579 9:0.049268741 10:0.43885885 11:0.14240569 12:0.055911316 13:0.1265782 16:-0.94444394 17:0.1302352 18:0.29875516 19:-0.26388059 20:0.24090734 21:-0.24644131 22:-0.034046366 23:-0.21865885 24:-0.15212514 25:-0.12391547 26:-0.23761928 27:0.018776322 28:0.25554406 29:0.35895833 30:-0.032922862 31:-0.16578062 32:0.072670192 33:-0.051537856 34:0.25527497 35:-0.13801762 36:-0.30567685 37:-0.15761407 38:-0.48645093 39:0.25848202 
1.313252888090557 1:-0.035378269 2:0.63749222 3:0.46540603 4:0.023217817 5:-0.31862576 6:0.081655699 7:-0.11553402 8:0.30609667 9:0.36548631 10:0.46405876 11:0.19763228 12:-0.15412147 13:-0.010075338 14:-1 16:-0.51419569 17:-0.43394043 18:0.3604118 19:0.55255924 20:-0.34913556 21:-0.32344257 22:0.0090654704 23:-0.20334687 24:-0.083386534 25:-0.39725634 26:-0.051182968 27:-0.48266807 28:0.18312002 29:0.38421862 30:-0.1510717 31:-0.083515785 32:0.5245133 33:-0.24999334 34:0.2393186 35:-0.20467481 36:-0.14164206 37:-0.20289773 38:-0.13997157 39:0.52391256 
0.7645908529991358 1:-0.097371178 2:0.64157669 3:0.4605524 4:-0.057038085 5:-0.38662167 6:0.062522856 7:-0.11928679 8:0.22855447 9:0.33163192 10:0.53475389 11:0.24471256 12:-0.11260272 13:0.16572667 16:-0.34542734 17:-0.077452098 18:0.050467218 19:0.65818433 20:-0.35332557 21:-0.40499527 22:-0.0078506694 23:-0.32929778 24:0.02555066 25:-0.52227014 26:-0.019420473 27:-0.5613381 28:0.21541202 29:0.46214274 30:-0.06775425 31:-0.048490407 32:0.41294043 33:-0.41755647 34:0.41664477 35:-0.28718805 36:-0.11867106 37:-0.49754457 38:0.061816354 39:0.52194218 
2.458576085089996 1:-0.018560996 2:0.42804885 3:0.38473101 4:0.10935058 5:-0.53363887 6:-0.13388378 7:-0.1312574 8:0.36298281 9:0.16735827 10:0.48707119 11:0.45009745 12:0.118594 13:0.17646235 16:-0.60447678 17:0.36242673 18:0.29026318 19:0.51586185 20:-0.5361405 21:-0.059842227 22:-0.07362728 23:-0.30662573 24:-0.23109749 25:-0.28491816 26:0.02112667 27:-0.15275488 28:0.35777037 29:0.40533408 30:-0.035549104 31:-0.18653445 32:0.14953422 33:0.035663651 34:0.14725159 35:-0.19070506 36:-0.21323022 37:-0.29569382 38:-0.44922461 39:0.53749092 
2.670300845325471 1:0.01697639 2:0.69020728 3:0.33572716 4:-0.24472059 5:-0.44516045 6:-0.066015057 7:-0.093973429 8:0.11001926 9:0.14560911 10:0.089689112 11:0.19860712 12:-0.19152117 13:0.00071771372 16:-0.029695922 17:-0.64118546 18:0.63201054 19:0.63630685 20:-0.47265373 21:0.23778872 22:-0.04329209 23:-0.37351435 24:-0.20265743 25:-0.37179024 26:-0.25418 27:-0.059254639 28:-0.28935357 29:0.2466292 30:-0.18401047 31:0.11900408 32:0.27475193 33:-0.26435466 34:0.25784974 35:0.047846383 36:-0.28426331 37:-0.26898996 38:0.011485785 39:0.45507894 
4.435003942874078 1:-0.34863094 2:-0.10348906 3:0.28577871 4:0.41968767 5:-0.62644715 6:0.0029622819 7:-0.2377408 8:0.57429382 9:0.015355536 10:0.61558213 11:0.33404476 12:0.30189091 13:0.099040805 16:-0.78159758 17:0.5170959 18:0.13468954 19:0.60499096 20:-0.5211155 21:-0.079194692 22:0.028941721 23:-0.28899827 24:-0.14789814 25:-0.16064883 26:-0.043678717 27:0.10064511 28:0.47760914 29:0.47702506 30:0.066821954 31:-0.10961297 32:0.061721825 33:0.088041769 34:0.24574943 35:-0.18220258 36:-0.37998466 37:-0.30816364 38:-0.74587796 39:0.14958788 
0.5088687436491586 1:-0.064399456 2:0.68188012 3:0.30643491 4:-0.23143335 5:-0.42145665 6:-0.13260625 7:-0.10651475 8:0.094163249 9:0.087849331 10:0.091759925 11:0.12633093 12:-0.25605459 13:0.026155902 16:-0.035153668 17:-0.19502433 18:0.16607853 19:0.73624478 20:-0.39993754 21:0.12282684 22:-0.16277969 23:-0.37100033 24:-0.16592314 25:-0.42470718 26:-0.19855544 27:-0.13024687 28:-0.1813947 29:0.32100532 30:-0.33111956 31:0.15128655 32:-0.011591687 33:-0.10762174 34:0.23726986 35:0.097364051 36:-0.32559112 37:-0.22376794 38:0.028211553 39:0.45288524 
1.860998428992239 1:0.017087134 2:0.70126126 3:0.41850929 4:-0.19913373 5:-0.39302815 6:0.10403564 7:-0.03520302 8:0.21435949 9:0.29066812 10:0.18345989 11:0.16878939 12:-0.077632298 13:0.14470219 16:-0.30087638 17:-0.2134597 18:0.40717904 19:0.58621146 20:-0.22324124 21:-0.015088651 22:-0.71591013 23:0.078725581 24:-0.3656183 25:-0.32728878 26:-0.30584479 27:-0.083890178 28:-0.11787561 29:0.38027305 30:-0.085856707 31:-0.043340997 32:0.56115553 33:-0.096535034 34:0.057130701 35:-0.17384134 36:-0.097723611 37:-0.47035151 38:0.075358953 39:0.45884048 
3.403345667055036 1:0.021504991 2:0.45540997 3:0.29802108 4:-0.018948214 5:-0.54597275 6:-0.18142585 7:-0.091558339 8:0.34668364 9:0.090266818 10:0.22718047 11:0.23464934 12:-0.017107007 13:0.27678497 16:-0.19562564 17:-0.46933348 18:0.030565275 19:0.80089634 20:-0.38723182 21:-0.05485875 22:-0.26003436 23:-0.28151711 24:-0.41118576 25:-0.30016298 26:-0.067358569 27:-0.029990555 28:0.1563782 29:0.44153776 30:-0.13275127 31:-0.24171694 32:0.19853821 33:-0.084123448 34:0.22207657 35:0.012032007 36:-0.42606073 37:-0.08902382 38:-0.53198704 39:0.48882911 
2.201951173806485 1:-0.018566111 2:0.4607417 3:0.32685759 4:0.035432185 5:-0.50085143 6:-0.15184912 7:-0.00010190868 8:0.37184386 9:0.030595662 10:0.20481404 11:0.20421868 12:-0.077986571 13:0.10354652 16:-0.39273575 17:-0.074074469 18:-0.10505863 19:0.78841462 20:-0.4193262 21:-0.0011914147 22:-0.25401629 23:-0.42019935 24:-0.22793035 25:-0.44595682 26:-0.051760859 27:0.03237456 28:0.28323292 29:0.38197349 30:-0.10318467 31:-0.2518448 32:0.085988334 33:-0.07220199 34:0.24159568 35:-0.058636788 36:-0.35520428 37:-0.027058801 38:-0.53502 39:0.45454745 
16.74533329421053 1:0.12667693 2:0.17308201 3:0.19823783 4:0.086327006 5:-0.62218636 6:-0.27820401 7:-0.18138073 8:0.48423448 9:0.17374428 10:0.46673519 11:0.24947809 12:0.025338421 13:0.15942174 16:-0.33842612 17:0.18270954 18:0.52475407 19:-0.17698173 20:-0.18427498 21:-0.15589132 22:-0.021292524 23:-0.39926855 24:-0.12104059 25:-0.20452828 26:0.037149196 27:-0.035711264 28:0.32521155 29:0.37415538 30:-0.057938261 31:-0.16217444 32:-0.023515966 33:0.047948332 34:0.22693954 35:-0.20161747 36:-0.31659161 37:-0.14826657 38:-0.4716278 39:0.4990736 
6.926515506536815 1:0.13385871 2:0.3096023 3:0.33127261 4:0.14715186 5:-0.56454587 6:-0.18265952 7:-0.028407086 8:0.53849609 9:0.18321572 10:0.29335508 11:0.020865799 12:-0.32087992 13:-0.17726006 16:-0.8084236 17:0.37096253 18:-0.013436487 19:-0.073441122 20:-0.25878589 21:-0.060773781 22:-0.6394713 23:-0.12367226 24:-0.018236404 25:-0.54389744 26:0.015298658 27:0.0094775125 28:0.29538442 29:0.40189422 30:-0.054329115 31:-0.1667853 32:-0.0079373292 33:0.027326765 34:0.24076244 35:-0.15104913 36:-0.35755599 37:-0.17887018 38:-0.56124444 39:0.64029245 
3.258704540141278 1:-0.1792117 2:0.26016609 3:0.092716105 4:0.049298942 5:-0.4996999 6:-0.58786293 7:-0.15998786 8:0.31393314 9:0.14402653 10:0.51405296 11:0.15511824 12:0.11942791 13:0.012426807 16:0.37471928 17:0.22199814 18:0.36893107 19:0.072275913 20:-0.29139693 21:-0.14089715 22:-0.020173669 23:-0.25148092 24:-0.11350551 25:-0.15192898 26:-0.06687433 27:0.044419217 28:0.29686938 29:0.3291867 30:-0.1359505 31:-0.24611709 32:-0.17604461 33:-0.13759197 34:-0.02050951 35:-0.23195321 36:0.060345459 37:0.14824604 38:-0.34696305 39:0.43592756 
8.501797369300659 1:0.040393454 2:0.41677494 3:0.33124062 4:0.062903822 5:-0.53533896 6:-0.16664475 7:0.02790809 8:0.49092912 9:0.1852806 10:0.22313069 11:0.10857805 12:-0.25229762 13:-0.046487539 16:-0.17655093 17:-0.46970956 18:-0.10754765 19:0.72748397 20:-0.30848561 21:-0.041706405 22:-0.38514204 23:-0.070901018 24:-0.27034832 25:-0.51514168 26:0.089608004 27:-0.03781535 28:0.26589202 29:0.35041644 30:-0.12092674 31:-0.12477549 32:-0.025415706 33:0.033384841 34:0.22783268 35:-0.16219029 36:-0.32742858 37:-0.19385988 38:-0.43096628 39:0.60648445 
8.14129960686493 1:0.12830658 2:0.19850073 3:0.26024754 4:0.13094232 5:-0.56696245 6:-0.16939708 7:-0.012250476 8:0.63025492 9:0.2539642 10:0.3910229 11:0.059594848 12:-0.17828629 13:-0.018096605 16:-0.64127756 17:-0.73116261 18:0.63251481 19:0.067998727 20:-0.072640083 21:-0.085215114 22:-0.51657981 23:-0.17901286 24:-0.11622926 25:-0.06240106 26:-0.040895584 27:-0.013290761 28:0.34285914 29:0.3798603 30:-0.049942576 31:-0.19642601 32:0.057605237 33:0.01680085 34:0.21690404 35:-0.16786972 36:-0.31062306 37:-0.19228388 38:-0.47139188 39:0.54717142 
2.80770085395793 1:0.10315135 2:0.15946809 3:0.22795831 4:0.099889323 5:-0.61990929 6:-0.14196294 7:0.029137613 8:0.6093586 9:0.21333516 10:0.53840341 11:0.55141065 12:0.24868399 13:0.25056444 16:0.6837362 17:0.39968825 18:-0.12829653 19:0.62207986 20:-0.37466995 21:-0.076968228 22:-0.45254917 23:0.046546364 24:-0.39053711 25:-0.15984399 26:0.036756911 27:0.11477754 28:0.336086 29:0.39314271 30:-0.049596016 31:-0.15634048 32:0.041045983 33:-0.00020355581 34:0.24807287 35:-0.1944299 36:-0.36499905 37:-0.15048328 38:-0.56173626 39:0.46674419 
7.67036470795144 1:-0.19730055 2:0.22892568 3:0.26764427 4:0.17796426 5:-0.50697386 6:-0.17087141 7:-0.043390542 8:0.58732804 9:0.23998802 10:0.4267875 11:0.073684198 12:-0.1984965 13:-0.1603119 16:-0.60055934 17:-0.57479984 18:0.73566376 19:0.13689617 20:-0.1264453 21:-0.20793682 22:-0.31764897 23:-0.084815795 24:-0.28115545 25:-0.023617121 26:-0.046393712 27:-0.035252381 28:0.34420776 29:0.37280001 30:-0.070069941 31:-0.22357903 32:0.07865257 33:-0.027243643 34:0.19043696 35:-0.10896571 36:-0.3163802 37:-0.14049204 38:-0.43609394 39:0.52241032 
4.205241852078537 1:0.060164981 2:0.6137939 3:0.36282316 4:-0.060434967 5:-0.35990371 6:0.028154191 7:0.028117834 8:0.2179286 9:0.047310865 10:0.12725406 11:0.14468302 12:-0.20318837 13:0.097664987 16:0.35812178 17:-0.076026366 18:-0.34052204 19:0.36627525 20:-0.001735471 21:-0.27885992 22:-0.10831151 23:-0.01400992 24:-0.45902799 25:-0.37916731 26:-0.029238147 27:-0.25992549 28:0.17913714 29:0.27539398 30:-0.046619607 31:-0.14363712 32:0.12331212 33:-0.17008511 34:0.46207777 35:-0.42173716 36:-0.14281509 37:-0.26062477 38:-0.16788766 39:0.39035812 
2.288263302683548 1:0.080151276 2:0.43285612 3:0.36594157 4:0.064609555 5:-0.5308332 6:-0.15877243 7:-0.074142381 8:0.30848879 9:-0.069181058 10:0.014785195 11:-0.063984207 12:-0.20218162 13:0.18418292 16:-0.52774364 17:-0.065666773 18:0.12425895 19:0.41859458 20:-0.28221784 21:0.13698684 22:-0.76621494 23:-0.027861008 24:-0.17718623 25:-0.16773169 26:-0.077672812 27:-0.030648116 28:0.28342042 29:0.40478525 30:-0.09679279 31:-0.1804915 32:0.026322927 33:-0.005839758 34:0.33648326 35:-0.23482079 36:-0.30099269 37:-0.1552959 38:-0.50144843 39:0.51074596 
5.637637594949208 1:-0.26100566 2:-0.00016918955 3:0.38407903 4:0.36411931 5:-0.65932342 6:0.1148926 7:-0.001978069 8:0.57266711 9:-0.14534916 10:0.22973384 11:-0.010977012 12:-0.04811306 13:-0.18939963 16:-0.12963021 17:-0.11834455 18:-0.33984303 19:0.57481444 20:0.010154214 21:-0.30247987 22:-0.44543549 23:0.13579944 24:-0.55722836 25:-0.29389854 26:0.15315206 27:0.1085993 28:0.54036287 29:0.5112625 30:0.093534327 31:-0.061143717 32:0.064706312 33:0.07206727 34:0.25430606 35:-0.15843688 36:-0.41860736 37:-0.2918025 38:-0.83523918 39:0.37630249 
2.007858493428819 1:-0.015188924 2:0.54937266 3:0.36865997 4:-0.01183865 5:-0.45056218 6:-0.11237858 7:-0.074910551 8:0.25457378 9:0.00099673642 10:0.055263377 11:-0.0065747778 12:-0.29487934 13:0.1778852 16:-0.61434878 17:-0.070374886 18:0.23407435 19:0.35880468 20:-0.1548555 21:0.081428466 22:-0.85707567 23:0.022171053 24:-0.11655704 25:-0.23095089 26:-0.20139825 27:-0.037871535 28:0.16431128 29:0.35154345 30:-0.088621429 31:-0.20543779 32:0.047894912 33:-0.040730329 34:0.42626882 35:-0.20649551 36:-0.35603059 37:-0.14394462 38:-0.32997534 39:0.52157359 
1.322893023095624 1:0.03367026 2:0.45312237 3:0.30640718 4:-0.023123666 5:-0.50989556 6:-0.11818683 7:-0.14105384 8:0.12390948 9:-0.057163221 10:0.30104112 11:0.41158062 12:0.00068017533 13:0.17314685 16:-0.62938558 17:0.036998254 18:-0.020601419 19:0.87299996 20:-0.58572101 21:-0.50381953 22:0.29491721 23:0.0077646066 24:-0.45976175 25:-0.67410546 26:0.022527362 27:-0.29474458 28:0.525729 29:0.44957298 30:-0.08371057 31:-0.1570726 32:-0.085339665 33:0.10551973 34:0.25027203 35:-0.063149087 36:-0.39427429 37:-0.13294725 38:-0.42445124 39:0.32341526 
8.046351100302067 1:0.057648761 2:0.46650837 3:0.39967124 4:0.1343734 5:-0.52250962 6:-0.15123825 7:-0.10040825 8:0.32429027 9:0.04189559 10:0.202073 11:0.11443601 12:-0.11439334 13:0.063631921 16:-0.85431663 17:0.047687017 18:0.373548 19:0.75907455 20:-0.55338798 21:-0.24067188 22:0.17894958 23:-0.42979728 24:-0.17083198 25:-0.23799498 26:-0.13820514 27:-0.10945432 28:0.37128486 29:0.41853973 30:-0.058548597 31:-0.16484714 32:0.10089185 33:-0.061284899 34:0.2299881 35:-0.21821505 36:-0.28034567 37:-0.15931909 38:-0.48208352 39:0.5007104 
0.1646659190593436 1:-0.54294317 2:0.23082872 3:0.3852354 4:0.28586548 5:-0.45761983 6:0.21682814 7:-0.16566794 8:0.36110568 9:0.045350955 10:0.54163716 11:0.3620002 12:-0.012244207 13:-0.027478319 16:0.47828313 17:-0.33300631 18:0.2547195 19:0.60722602 20:-0.52260585 21:0.28477789 22:-0.12625896 23:-0.065943441 24:-0.15034497 25:-0.48726098 26:0.14380753 27:-0.31320501 28:0.25427687 29:0.64139984 30:0.017198161 31:-0.13272969 32:0.14065546 33:0.13567696 34:0.25370793 35:-0.1955662 36:-0.43852754 37:-0.34264559 38:-0.55691433 39:0.22456865 
1.983579365304683 1:-0.28277917 2:0.38383475 3:0.39202515 4:0.093906749 5:-0.4169998 6:0.070072644 7:-0.21811343 8:0.36057937 9:0.15693392 10:0.43645229 11:0.18297331 12:-0.016132308 13:0.28213446 16:0.32045043 17:-0.11673232 18:0.27955975 19:0.47221921 20:-0.29339617 21:-0.45885937 22:0.16865641 23:-0.24000552 24:-0.35480651 25:-0.20418365 26:0.047029825 27:-0.30234982 28:-0.063956781 29:0.52288877 30:0.17937042 31:-0.19833166 32:0.0921872 33:-0.00083697202 34:0.51560356 35:-0.39222666 36:-0.15550971 37:-0.31249705 38:-0.32372491 39:0.37455266 
2.357202164001001 1:-0.027019964 2:0.1960534 3:0.22239052 4:0.17653349 5:-0.3678924 6:0.12657936 7:-0.0066727844 8:0.37613604 9:-0.027468284 10:0.32065027 11:0.42067486 12:0.1643338 13:0.096296228 16:-0.58694045 17:0.70371655 18:-0.22149151 19:0.29577389 20:-0.28266828 21:0.096561231 22:-0.12322151 23:0.088505241 24:-0.40170421 25:-0.14153704 26:-0.071917384 27:0.17727463 28:0.045803487 29:0.41952893 30:-0.011962708 31:-0.18296286 32:0.0019212665 33:0.052156282 34:0.2404302 35:-0.15380155 36:-0.35481998 37:-0.18762412 38:-0.39631034 39:0.15728464 
12.51647302697558 1:0.48749455 2:0.27444417 3:0.19451261 4:0.1220341 5:-0.2807572 6:0.18452034 7:-0.02951862 8:0.13633169 9:-0.18787903 10:0.13918034 11:0.27295747 12:-0.049070677 13:0.047285319 16:-0.75611651 17:-0.087015591 18:0.22749486 19:0.071118463 20:-0.3266804 21:-0.035428721 22:0.081855955 23:0.17836519 24:-0.55156726 25:-0.26996573 26:-0.30147004 27:-0.048417799 28:0.3027186 29:0.37495428 30:-0.055763939 31:-0.16602902 32:-0.075277902 33:0.091924245 34:0.23512227 35:-0.19441441 36:-0.29509766 37:-0.2317586 38:-0.41414361 39:0.16336945 
1.278644758148811 1:-0.29111519 2:-0.097897261 3:0.12360661 4:0.2671654 5:-0.39855541 6:0.26114216 7:-0.011563885 8:0.45797074 9:-0.10242433 10:0.30269141 11:0.22570602 12:0.11102412 13:-0.0078830883 16:-0.40723451 17:0.57817161 18:-0.44564292 19:0.24672065 20:-0.08042252 21:0.14326846 22:-0.081002884 23:0.068661655 24:-0.36704654 25:-0.18375449 26:-0.022020746 27:0.18694327 28:0.21434932 29:0.43131106 30:0.032790247 31:-0.14366459 32:0.034137093 33:0.071846521 34:0.25884231 35:-0.17185744 36:-0.39411991 37:-0.25331489 38:-0.55559598 39:0.065234685 
1.456864379193612 1:0.54275366 2:0.55208209 3:0.34583903 4:0.13287529 5:-0.089039622 6:0.25161712 7:-0.017778731 8:-0.06758551 9:-0.10403754 10:0.23612313 11:0.5336225 12:0.22481659 13:0.39670985 16:-0.65859225 17:-0.047594982 18:0.22306584 19:-0.98590339 20:0.77279326 21:0.16014389 22:-0.21043926 23:0.10522778 24:-0.21014769 25:-0.4409047 26:-0.37482587 27:-0.021813331 28:0.045166292 29:0.38837662 30:-0.12927221 31:-0.18269857 32:0.38027109 33:-0.33905821 34:0.2408166 35:-0.15443421 36:-0.016948687 37:-0.40312211 38:-0.1453179 39:0.12671872 
1.853747720731659 1:0.20548191 2:-0.13964381 3:0.3087971 4:0.60215296 5:-0.33515452 6:0.26543942 7:-0.29134744 8:0.29173056 9:-0.28064127 10:0.41044597 11:0.26306429 12:0.31243066 13:0.15457526 14:1 16:-0.87396849 17:0.10542812 18:0.19740242 19:-0.82959976 20:-0.35310818 21:0.1987158 22:-0.50934382 23:0.18967771 24:-0.14386919 25:-0.37172314 26:0.027824719 27:0.089536836 28:0.4531277 29:0.46054521 30:0.048407321 31:-0.10044202 32:0.04479114 33:0.072721606 34:0.26793451 35:-0.18849862 36:-0.39429229 37:-0.27552382 38:-0.72303684 39:-0.18281184 
0.4574781336022497 1:0.78515746 2:-0.08162976 3:-0.066261668 4:0.099758484 5:-0.38059613 6:-0.3518827 7:-0.65690232 8:-0.13963572 9:-0.43449152 10:-0.18305491 11:0.072752729 12:0.1204982 13:-0.016755584 16:0.95375261 17:-0.99255259 18:0.83943317 19:-0.979185 20:0.15226472 21:0.061150768 22:-0.61799662 23:0.35553875 24:-0.48320045 25:-0.21530091 26:-0.12956633 27:0.22500938 28:0.26468732 29:-0.026757283 30:-0.27849747 31:-0.33109764 32:0.43009718 33:0.024002619 34:0.18614702 35:-0.46684635 36:-0.23774299 37:-0.021893382 38:-0.27543363 39:-0.078682647 
3.186486153453647 1:0.44466533 2:-0.089287467 3:0.14965596 4:0.43422893 5:-0.25737346 6:0.0893965 7:-0.3003543 8:0.23288117 9:-0.24673924 10:0.31594743 11:0.18290927 12:-0.019772596 13:-0.20799696 16:-0.19069892 17:-0.24290254 18:0.26976128 19:-0.32042005 20:0.0029094583 21:-0.020241281 22:0.15175135 23:0.088177787 24:0.014583069 25:-0.3005294 26:-0.19732429 27:0.27173667 28:0.29659267 29:0.25412169 30:-0.057382836 31:-0.19193983 32:-0.0038329029 33:0.10204967 34:0.24528056 35:-0.17390724 36:-0.39238075 37:-0.10192691 38:-0.48088852 39:-0.25361663 
0.5791794500186195 1:0.66487209 2:0.1457869 3:0.10523714 4:0.16286302 5:-0.27231928 6:-0.21321987 7:-0.51492422 8:-0.11944766 9:-0.40390196 10:-0.18924172 11:0.1294639 12:0.0078599775 13:-0.13270729 16:0.96191444 17:-0.82112933 18:0.8572862 19:-0.80748931 20:-0.62056937 21:0.0643305 22:-0.66443517 23:0.40674037 24:-0.56723519 25:-0.50921726 26:-0.092551915 27:0.18104155 28:0.230101 29:-0.025753316 30:-0.22072376 31:-0.39435414 32:0.47040613 33:0.051038981 34:0.18847849 35:-0.43754861 36:-0.29789545 37:0.0084586796 38:-0.261649 39:0.051350753 
0.5070573655353033 1:0.71039282 2:0.21721519 3:0.24881157 4:0.13496578 5:-0.40114355 6:0.014105874 7:-0.31206223 8:-0.13849622 9:-0.3521566 10:0.23316041 11:0.45330082 12:-0.048872351 13:-0.14353074 14:1 16:0.81050451 17:-0.49641102 18:0.70882871 19:-0.16772846 20:-0.25683135 21:0.12708006 22:-0.31099635 23:0.61363439 24:-0.32340462 25:-0.63445915 26:0.19170188 27:-0.04642468 28:0.39998084 29:0.4071416 30:-0.022709434 31:-0.15212607 32:0.0057667855 33:0.043513805 34:0.25454996 35:-0.17803262 36:-0.326284 37:-0.21485585 38:-0.54645233 39:0.030771083 
1.113691019933451 1:0.39004616 2:-0.15901743 3:0.25762869 4:0.4820793 5:-0.5523899 6:-0.058632435 7:-0.59551185 8:0.10070114 9:-0.40097468 10:0.27318155 11:-0.00013595116 12:0.076339723 13:-0.031055457 16:0.19722231 17:-0.27330298 18:0.31971242 19:-0.55866656 20:0.27713696 21:0.067195766 22:-0.50827016 23:0.084603561 24:0.015587664 25:-0.42545802 26:0.024008456 27:0.048574777 28:0.47664933 29:0.46928105 30:0.05707752 31:-0.099129495 32:0.044990332 33:0.084145414 34:0.26448436 35:-0.18755422 36:-0.3954963 37:-0.28757358 38:-0.7451332 39:-0.13956962 
0.2242693217905693 1:0.61290894 2:0.3941127 3:0.31438027 4:-0.096322991 5:-0.43608947 6:0.11165652 7:-0.28362517 8:-0.31794755 9:-0.28679765 10:0.26437593 11:0.58647261 12:-0.17536523 13:-0.082297713 16:0.92208204 17:-0.34643064 18:0.41774018 19:-0.063672584 20:-0.19760516 21:0.028472824 22:-0.34154704 23:0.67108342 24:-0.3450234 25:-0.62282477 26:0.024154036 27:-0.21807828 28:0.37321812 29:0.45658861 30:0.090749913 31:-0.098497772 32:0.098266542 33:0.066940085 34:0.2749152 35:-0.17616898 36:-0.31648109 37:-0.34654505 38:-0.37890695 39:0.043670158 
0.14345165817549 1:0.76701584 2:0.22528744 3:0.083228205 4:0.13498896 5:-0.15771772 6:-0.19458298 7:-0.33775443 8:-0.037553631 9:-0.34739748 10:0.24016734 11:0.39816016 12:-0.29253574 13:-0.014050809 16:0.90934194 17:-0.87679946 18:0.5589089 19:-0.19396381 20:-0.38286836 21:0.12749925 22:-0.037816929 23:0.27630635 24:-0.050685024 25:-0.60247839 26:-0.14439289 27:-0.10618071 28:0.3892891 29:0.38286582 30:-0.17830351 31:-0.42566453 32:-0.60228784 33:0.5600644 34:0.54288812 35:-0.26353673 36:-0.89655178 37:0.77614368 38:-0.34801727 39:-0.057948053 
0.5799798665987092 1:0.78205941 2:-0.054060276 3:0.0094956357 4:0.20506776 5:-0.29916576 6:-0.17715787 7:-0.45410999 8:-0.12922768 9:-0.39076069 10:0.15212497 11:0.18280241 12:-0.0099974278 13:-0.34074193 16:-0.22949585 17:0.025633958 18:0.035174425 19:-0.25288812 20:0.40129115 21:0.0038491228 22:-0.25213964 23:0.56475643 24:-0.22119097 25:-0.53125746 26:0.0081035534 27:-0.17871494 28:0.85033081 29:0.010857765 30:-0.13111218 31:-0.15629782 32:0.14523047 33:-0.026790779 34:-0.083291763 35:-0.13898459 36:-0.090342724 37:-0.20220489 38:-0.33275705 39:-0.09928524 
2.494273568913871 1:0.46896126 2:0.25570048 3:0.14003636 4:0.17394881 5:-0.14557379 6:-0.02416007 7:-0.35551526 8:-0.10584939 9:-0.19469881 10:0.30269235 11:0.32840645 12:-0.20228239 13:-0.11011795 16:0.66961844 17:-0.70141567 18:0.36860868 19:-0.10530502 20:-0.37043372 21:-0.063518934 22:0.2737222 23:0.1947418 24:-0.0040274689 25:-0.38613292 26:-0.31519367 27:-0.1691939 28:0.31468152 29:0.35720056 30:-0.12477834 31:-0.29861874 32:-0.13974789 33:0.092855231 34:0.30801439 35:-0.21255664 36:-0.42837895 37:0.11947923 38:-0.2407332 39:-0.092899261 
2.772534948311072 1:0.40877245 2:-0.0036449489 3:0.20185066 4:0.20677097 5:-0.55068856 6:-0.032110933 7:-0.3720128 8:-0.07832115 9:-0.55176368 10:-0.038635618 11:0.082229409 12:0.024786806 13:-0.031490563 16:0.90435444 17:-0.18587208 18:-0.13510975 19:-0.15022882 20:-0.60529462 21:0.27936338 22:-0.64751767 23:0.46569314 24:-0.57386542 25:-0.65048504 26:0.11856508 27:-0.041801946 28:0.4576122 29:0.44511582 30:0.038901008 31:-0.12259362 32:0.041440385 33:0.029241299 34:0.26218506 35:-0.17544388 36:-0.36952068 37:-0.22950428 38:-0.68873717 39:0.12180148 
0.06897809014796626 1:0.7077033 2:-0.065829354 3:0.090795636 4:0.42715308 5:-0.19212026 6:-0.24581116 7:-0.50742843 8:0.18067675 9:-0.099835405 10:0.25521825 11:-0.047983135 12:0.048614873 13:-0.074623444 16:-0.13761606 17:0.027977534 18:0.027168549 19:-0.19577803 20:-0.39421449 21:0.075126533 22:-0.67399025 23:0.38328022 24:-0.065461272 25:0.059359175 26:-0.13051683 27:0.1933568 28:0.37665345 29:-0.084224086 30:-0.60269343 31:0.082022995 32:-0.87298931 33:0.2975212 34:0.27186354 35:-0.53478083 36:-0.13229122 37:0.33317937 38:-0.20959348 39:-0.66816044 
0.257532378524629 1:0.80845518 2:-0.12073576 3:-0.035339946 4:0.27050347 5:-0.22116081 6:-0.19107644 7:-0.45099781 8:0.11012357 9:-0.20514805 10:0.20775745 11:0.027627402 12:0.094435369 13:-0.092294245 14:1 16:0.64521569 17:-0.36475245 18:0.89589796 19:-0.32020265 20:-0.1398307 21:0.15159231 22:-0.2977943 23:0.36855474 24:-0.22798093 25:-0.060867453 26:-0.090239273 27:-0.1926265 28:0.626255 29:0.079859567 30:-0.86869034 31:0.091888202 32:-0.3056771 33:0.053098477 34:0.12822667 35:-0.16190705 36:-0.20124089 37:-0.06087967 38:-0.18994603 39:-0.437929 
0.1377188878841423 1:0.58676558 2:-0.35850914 3:-0.10320895 4:0.32520271 5:-0.30634521 6:-0.28304791 7:-0.64903405 8:0.16350586 9:-0.19987689 10:0.31117628 11:0.04507183 12:-0.025347095 13:0.12902379 16:0.10027605 17:0.078233886 18:0.18725234 19:-0.043612221 20:-0.46017049 21:0.097592589 22:-0.048167138 23:0.23977412 24:-0.37637937 25:0.3824424 26:-0.022614822 27:-0.30333125 28:0.67465702 29:-0.13340264 30:0.17693357 31:-0.25622011 32:-0.35078514 33:0.55975536 34:0.19509048 35:-0.30416396 36:-0.51548123 37:0.45754354 38:-0.34013786 39:-0.67682604 
0.1184515212472136 1:0.75240916 2:-0.06795645 3:0.0033378052 4:0.26643874 5:-0.31552041 6:-0.33522001 7:-0.47502783 8:0.11005414 9:-0.18225194 10:0.38462788 11:0.090464227 12:0.090449341 13:-0.011374044 16:-0.45198098 17:0.078606408 18:0.11627505 19:0.18580439 20:-0.50571991 21:0.10814787 22:-0.40376393 23:0.46269403 24:-0.20600702 25:-0.47184248 26:0.25779336 27:-0.13210251 28:0.39662458 29:0.076607063 30:0.39577461 31:-0.51328972 32:-0.059561253 33:-0.38654104 34:0.39935349 35:0.2093286 36:-0.42014691 37:0.31958348 38:-0.31518034 39:-0.3447245 
0.3805786767827975 1:0.83770802 2:-0.2704074 3:-0.12849671 4:0.26559646 5:-0.26225962 6:-0.3458235 7:-0.59663003 8:0.096587134 9:-0.20277766 10:0.2387441 11:0.15965328 12:0.11263698 13:-0.10962285 16:-0.70604501 17:0.074028369 18:-0.097337236 19:0.25251973 20:-0.69751585 21:0.41103677 22:-0.24453221 23:0.38247241 24:-0.17715474 25:0.13542251 26:-0.17779414 27:-0.060804783 28:0.76441448 29:-0.21373465 30:-0.3427687 31:0.087719218 32:-0.49025381 33:0.61681034 34:-0.32341796 35:0.026419631 36:-0.31496317 37:0.16362031 38:-0.16796281 39:-0.64707393 
0.5995281457986 1:0.57059563 2:-0.27718019 3:-0.058311822 4:0.40964517 5:-0.13823519 6:-0.22683278 7:-0.5070606 8:0.14067586 9:-0.17359567 10:0.29710671 11:0.17348687 12:0.16078839 13:-0.20609101 15:1 16:-0.3601596 17:0.055233348 18:0.040203886 19:0.060742616 20:-0.43647106 21:0.055934931 22:0.19019037 23:0.23770436 24:-0.18891876 25:0.23252257 26:-0.19098715 27:-0.034270485 28:0.77229615 29:-0.16698486 30:-0.41991837 31:0.15032856 32:-0.34747789 33:0.43554185 34:-0.4165443 35:-0.088376195 36:-0.19029383 37:0.012834744 38:-0.18512427 39:-0.73389854 
0.5508003489671319 1:0.73446207 2:0.22577736 3:0.060039856 4:0.17529412 5:-0.19797725 6:-0.40915871 7:-0.31089555 8:-0.01692541 9:-0.078408153 10:0.21375926 11:-0.31799539 12:0.27096403 13:-0.15189738 15:1 16:0.87855121 17:-0.45840514 18:0.19405058 19:-0.076817968 20:0.098496947 21:0.14841899 22:-0.89639851 23:0.55107075 24:-0.50718979 25:-0.065233143 26:0.040877637 27:-0.028231624 28:0.16920961 29:-0.0915587 30:0.23651512 31:0.12631216 32:-0.22187008 33:-0.74437496 34:0.42950351 35:-0.080934466 36:0.38588858 37:0.050272167 38:0.0011031936 39:-0.1412076 
0.07397554069084783 1:0.44162863 2:-0.15700448 3:0.11024581 4:0.34394703 5:-0.50715507 6:-0.17317356 7:-0.60306034 8:0.13221902 9:-0.27985373 10:0.2106467 11:-0.11422337 12:-0.01038316 13:-0.077700214 16:0.85027276 17:-0.20636787 18:0.066212151 19:0.0037373907 20:-0.82871647 21:0.42728667 22:-0.59531355 23:0.2886955 24:-0.055846858 25:-0.27838983 26:-0.019280073 27:0.064829963 28:0.41851415 29:0.15412637 30:0.18572125 31:-0.22871897 32:-0.0050800294 33:0.13427344 34:0.22904266 35:-0.23809303 36:-0.33322877 37:-0.17974023 38:-0.52858943 39:-0.24742236 
0.2221100126828765 1:0.63804054 2:0.1235823 3:0.11947722 4:0.19577297 5:-0.40336599 6:-0.24284236 7:-0.47599244 8:-0.038183814 9:-0.31720757 10:0.10324526 11:-0.089370818 12:-0.15045367 13:-0.11726152 15:1 16:0.9324757 17:-0.27393986 18:0.5354716 19:-0.098817499 20:0.10950865 21:0.25655896 22:-0.59242855 23:0.33173673 24:-0.034656609 25:-0.41735775 26:-0.19662866 27:0.27052764 28:0.25560981 29:0.21836754 30:0.41800033 31:-0.42314852 32:-0.24619839 33:0.22360834 34:-0.06109211 35:0.012797378 36:-0.28380255 37:0.1095281 38:-0.43716231 39:0.041484031 
0.6287283586785374 1:0.37522155 2:0.16686182 3:0.14458989 4:0.11927735 5:-0.52044189 6:-0.34767356 7:-0.49413068 8:0.081301248 9:-0.33332172 10:0.055695815 11:0.080803813 12:-0.30592018 13:-0.15269347 16:0.83279739 17:-0.33631124 18:0.73657027 19:-0.14654355 20:-0.086123908 21:0.089463874 22:-0.48409173 23:0.047996784 24:-0.025203013 25:-0.51624558 26:0.072484963 27:0.033003068 28:0.3872206 29:0.38850775 30:-0.15870413 31:-0.35717597 32:-0.15607894 33:0.21210126 34:0.41374079 35:-0.24007226 36:-0.6253198 37:0.22266165 38:-0.42346393 39:0.19759456 
0.9278692052168736 1:0.6296919 2:0.83940389 3:0.2992012 4:-0.45299694 5:-0.2772724 6:-0.088403593 7:-0.3223967 8:-0.3920545 9:0.13912582 10:-0.013777009 11:0.0051632567 12:-0.0047797091 13:0.091262118 15:-1 16:0.95227159 17:-0.39771607 18:0.65779966 19:-0.2141186 20:-0.062666939 21:0.28156861 22:-0.849614 23:0.39310751 24:-0.11431513 25:-0.69714221 26:-0.25279315 27:-0.15154787 28:-0.43321575 29:0.079669804 30:-0.0050411728 31:0.36461666 32:0.32616553 33:-0.10298232 34:-0.18708579 35:-0.066335153 36:0.23088896 37:-0.68990659 38:0.50503134 39:0.22971012 
0.7714900907510406 1:0.35120839 2:-0.048445842 3:0.13863006 4:0.20022778 5:-0.59338465 6:-0.15615277 7:-0.46094021 8:0.048903245 9:-0.45638029 10:-0.0075757783 11:-0.023861406 12:-0.055597948 13:-0.060756973 15:-1 16:0.98837158 17:-0.24672137 18:0.33019116 19:-0.11786802 20:0.42089141 21:0.32214259 22:-0.79708994 23:0.24464603 24:-0.17026904 25:-0.41317225 26:-0.24168249 27:0.32461922 28:0.33675158 29:0.58478948 30:-0.32775582 31:-0.0099138857 32:0.30896422 33:-0.16150133 34:0.29857765 35:-0.24344216 36:-0.18268704 37:-0.47522777 38:-0.5378386 39:0.15792069 
0.5966911715890414 1:0.5373427 2:0.81538858 3:0.28246302 4:-0.38889922 5:-0.23632143 6:-0.082761348 7:-0.28709298 8:-0.31724003 9:0.13673665 10:-0.021367051 11:0.0088788363 12:-0.055676363 13:0.15636538 16:0.92196063 17:-0.42818386 18:0.79105275 19:-0.14140253 20:-0.18422146 21:0.31866912 22:-0.83785759 23:0.43996294 24:-0.17698551 25:-0.58656818 26:-0.1855285 27:-0.18424107 28:-0.42229965 29:0.12400371 30:0.057752359 31:-0.05528977 32:0.37311218 33:-0.075068974 34:-0.083810992 35:-0.21512641 36:0.22416826 37:-0.68762375 38:0.52133388 39:0.23843935 
0.8706712074660122 1:0.53792587 2:-0.12794973 3:0.013998184 4:0.25863856 5:-0.41496529 6:-0.20258714 7:-0.44637442 8:0.16895492 9:-0.21272295 10:0.29223234 11:-0.035609073 12:-0.10476554 13:-0.16227069 16:0.46485941 17:-0.30255888 18:0.61716458 19:-0.037385446 20:-0.34748783 21:0.075392611 22:-0.19101175 23:-0.08547641 24:0.24627586 25:-0.33859807 26:-0.21550539 27:-0.013934055 28:0.7009075 29:-0.09970338 30:0.17441666 31:-0.31304391 32:0.033235008 33:0.035705161 34:0.17750718 35:-0.19670973 36:-0.34013979 37:0.099426828 38:-0.45858718 39:-0.26808489 
0.194522498377357 1:0.57378029 2:0.60336178 3:0.23105962 4:-0.089108124 5:-0.25509068 6:-0.28390052 7:-0.40407679 8:-0.12435064 9:-0.0027544062 10:0.10386183 11:0.072925251 12:-0.37278563 13:-0.11649704 16:0.8232902 17:-0.42073584 18:0.5491783 19:-0.12756587 20:-0.32003233 21:-0.022536656 22:-0.46657122 23:0.37473737 24:-0.0016814013 25:-0.58607495 26:0.21018183 27:-0.26011382 28:0.11552939 29:0.33235414 30:-0.17197238 31:-0.26718733 32:0.012277591 33:-0.00042051486 34:0.22030807 35:-0.14043117 36:-0.20617459 37:-0.20165567 38:0.2604983 39:0.23607069 
2.445569123465111 1:0.36067909 2:-0.20450261 3:0.15054031 4:0.34036896 5:-0.61469442 6:-0.11015387 7:-0.60979939 8:0.093255362 9:-0.29194699 10:0.39856238 11:0.049358503 12:-0.060792916 13:-0.24537141 16:0.50163148 17:-0.14340172 18:0.42673551 19:-0.14650368 20:-0.032046406 21:-0.096306607 22:0.13644188 23:0.34747585 24:-0.11614037 25:-0.50869109 26:0.1246299 27:-0.12410288 28:0.55626583 29:0.47637168 30:0.059217738 31:-0.11626831 32:0.086735824 33:0.055280879 34:0.26964087 35:-0.19209493 36:-0.38692173 37:-0.29617989 38:-0.73388778 39:-0.095632474 
0.09740104043741778 1:0.72894041 2:0.12846242 3:0.069383588 4:0.015790204 5:-0.48455858 6:-0.26195963 7:-0.32022717 8:0.015701705 9:-0.44514099 10:0.028262881 11:0.23761672 12:-0.28223499 13:-0.10281123 16:0.063000074 17:0.045772468 18:0.029187646 19:-0.15339281 20:0.7419693 21:0.13492903 22:-0.57902505 23:0.38545589 24:-0.35439758 25:-0.64831276 26:-0.19087306 27:0.1944524 28:0.44867598 29:0.37704646 30:-0.15620861 31:-0.39430922 32:-0.32266948 33:0.19074446 34:0.47615832 35:-0.23500439 36:-0.67626225 37:0.42070382 38:-0.48575917 39:0.11685055 
0.8849618015203858 1:0.6096301 2:0.089463781 3:0.076267209 4:0.064289086 5:-0.4581396 6:-0.081687979 7:-0.20309821 8:0.14065537 9:-0.26037597 10:0.13435392 11:0.15394317 12:-0.20857112 13:-0.14853194 16:-0.59671993 17:0.040757985 18:0.063930152 19:-0.037649718 20:0.6286823 21:0.1203947 22:-0.66312727 23:0.41410741 24:-0.34094835 25:-0.66485564 26:0.34348696 27:-0.13801139 28:0.47624554 29:0.3694393 30:-0.15871015 31:-0.26771952 32:-0.072713414 33:0.063459718 34:0.33640405 35:-0.20626923 36:-0.43826097 37:0.028606166 38:-0.4845752 39:0.13972033 
1.249819861331768 1:0.17967708 2:0.24412669 3:0.065268721 4:-0.11849117 5:-0.26495595 6:0.11870318 7:-0.27577867 8:-0.10200683 9:-0.028794771 10:0.16431013 11:0.034046678 12:-0.37893832 13:-0.025714415 16:0.47367603 17:-0.13909642 18:0.17232835 19:0.069156986 20:0.075649879 21:-0.049980196 22:-0.073393872 23:0.53931593 24:-0.12945488 25:-0.60829317 26:0.55605801 27:-0.32610188 28:-0.0091689179 29:0.41312122 30:-0.035015187 31:0.04099281 32:-0.26365079 33:0.3857406 34:0.15106191 35:-0.13513373 36:-0.47889752 37:-0.083922197 38:0.23312718 39:0.016846202 
0.1755530757422075 1:0.63427826 2:0.054919562 3:0.072619407 4:0.15322171 5:-0.28940589 6:-0.0089818284 7:-0.38460164 8:-0.083379069 9:-0.22967132 10:0.18800071 11:-0.22735635 12:-0.18189099 13:0.12423312 16:0.47358683 17:-0.96808227 18:0.76375692 19:-0.049812908 20:0.10949459 21:0.062660405 22:-0.71114724 23:0.46915159 24:-0.45496295 25:-0.28862424 26:0.062204661 27:-0.24018992 28:-0.086423474 29:0.74044123 30:0.41656271 31:-0.28722544 32:-0.65099642 33:0.57611291 34:-0.021133932 35:0.38542133 36:-0.50242262 37:0.4501034 38:-0.39969457 39:-0.025047729 
0.1574352227783067 1:0.73195148 2:0.0072830114 3:-0.0093728774 4:0.1140196 5:-0.34247389 6:-0.236759 7:-0.46395878 8:0.10640612 9:-0.11919518 10:0.088179195 11:-0.093585681 12:0.090196462 13:-0.29627493 16:0.2704498 17:-0.66180301 18:0.660546 19:-0.070742696 20:-0.3009019 21:0.034179504 22:-0.65490357 23:0.51625093 24:-0.57395239 25:-0.035435547 26:0.090279939 27:-0.053566658 28:0.29127553 29:0.086865567 30:-1 31:0.49823184 32:0.088039343 33:-0.40782163 34:0.64317466 35:-0.39169127 36:0.13946186 37:-0.40779649 38:0.021758566 39:-0.13462111 
0.2452470695189284 1:0.57664991 2:0.102668 3:0.073553365 4:0.12836344 5:-0.44920793 6:-0.23529064 7:-0.28885221 8:0.024438731 9:-0.16233078 10:0.3418854 11:-0.10281354 12:-0.0296872 13:-0.20308332 16:-0.95626851 17:0.1781757 18:0.36981548 19:-0.13198299 20:-0.16826479 21:-0.062049059 22:-0.40112567 23:0.33816773 24:-0.33106578 25:-0.39266153 26:0.18060478 27:-0.29046047 28:0.52471332 29:0.58494887 30:-0.11207675 31:-0.16391666 32:-0.045317502 33:-0.12012866 34:0.0059980228 35:0.023672495 36:-0.017816448 37:-0.044343128 38:-0.49752794 39:0.039722738 
0.101402623183882 1:0.60990161 2:0.53788615 3:0.12290826 4:-0.3031182 5:-0.16630645 6:-0.14148488 7:-0.36460982 8:-0.22586292 9:0.12425256 10:-0.0045430372 11:-0.25145548 12:-0.42687603 13:-0.17400066 16:-0.49278559 17:-0.67856025 18:0.34467371 19:0.13544651 20:-0.38858503 21:0.065075623 22:-0.68130342 23:0.73181708 24:-0.27057342 25:-0.6210394 26:0.42825243 27:-0.43406015 28:-0.22698715 29:0.34003658 30:-0.055510386 31:-0.12121841 32:0.17928143 33:-0.14674652 34:0.21243379 35:-0.17238996 36:-0.10730339 37:-0.41469919 38:0.67217979 39:0.044801267 
0.6430630360807131 1:0.20761892 2:0.18966305 3:0.090288601 4:0.082152193 5:-0.29927245 6:-0.071043071 7:-0.11686707 8:0.026684375 9:-0.077220948 10:0.28098061 11:-0.17541895 12:-0.19032138 13:-0.30025966 15:-1 16:-0.1129577 17:-0.77369132 18:0.10300371 19:0.0088240574 20:0.090965064 21:0.066435189 22:-0.58247081 23:0.60170532 24:-0.3313246 25:-0.33030682 26:0.50603048 27:-0.38100716 28:0.70643169 29:0.36011925 30:0.13518808 31:-0.21495212 32:-0.031858294 33:-0.13927108 34:-0.070265645 35:-0.03805168 36:0.019838308 37:-0.038264715 38:-0.20328135 39:0.076966719 
0.5723799892486841 1:0.24482566 2:0.19782001 3:0.20022225 4:0.12376266 5:-0.34556588 6:0.14487832 7:-0.2219054 8:0.18923695 9:0.068307227 10:0.39673568 11:0.11500759 12:-0.24667774 13:-0.099110355 16:-0.54766542 17:-0.52461163 18:0.80094197 19:0.12793547 20:-0.41928317 21:0.15271276 22:-0.77742535 23:0.66105324 24:-0.14605731 25:-0.60709404 26:0.24410557 27:-0.36967398 28:0.53081751 29:0.44989927 30:0.024453001 31:-0.11843887 32:0.024961911 33:0.072710009 34:0.27400401 35:-0.1896034 36:-0.38232829 37:-0.26708213 38:-0.16156481 39:0.035921184 
0.9452337123651842 1:0.35345687 2:0.84897901 3:0.38632118 4:-0.31327551 5:-0.031950155 6:0.1273382 7:-0.057636081 8:-0.059202632 9:0.50583421 10:0.13965008 11:-0.19798757 12:0.18438902 13:-0.24786293 16:-0.20760383 17:-0.61371755 18:0.16885306 19:0.030497359 20:-0.10719793 21:0.16757133 22:-0.77016146 23:0.73458501 24:-0.26090717 25:-0.63232962 26:0.4466756 27:-0.34614556 28:-0.5874279 29:-0.1511965 30:0.0092258501 31:0.078116134 32:0.85945311 33:-0.65115881 34:-0.2396447 35:0.035313462 36:0.67938627 37:-0.86920316 38:0.68532144 39:0.20934081 
1.990095857688541 1:0.14582508 2:0.71429159 3:0.31797508 4:-0.19134753 5:-0.24247163 6:0.18480425 7:0.10552675 8:0.038498083 9:0.21378919 10:0.43540228 11:0.54565114 12:-0.13682681 13:-0.14428758 16:-0.96931092 17:0.16391207 18:0.70490631 19:0.040142292 20:-0.56964941 21:0.14661991 22:-0.39146166 23:0.063377502 24:0.019226786 25:-0.83802592 26:-0.20860882 27:-0.2982967 28:0.44266323 29:0.23990633 30:-0.1749715 31:-0.10091326 32:0.52437803 33:-0.25542525 34:-0.096075828 35:0.2209601 36:-0.09593428 37:-0.25931657 38:-0.14907873 39:0.18180335 
1.291726124992811 1:-0.050566943 2:0.018525588 3:0.26588616 4:0.35284929 5:-0.41437652 6:0.2254535 7:-0.10548981 8:0.40549374 9:-0.077630579 10:0.38120128 11:0.092281342 12:-0.14456464 13:-0.29614315 14:1 16:-0.32886117 17:-0.59293002 18:-0.29842866 19:0.0023030564 20:0.203836 21:0.29364559 22:-0.76322526 23:0.65871297 24:-0.150053 25:-0.54463641 26:-0.044393268 27:0.04960912 28:0.3908401 29:0.44843735 30:0.036154213 31:-0.1076872 32:0.040858717 33:0.067860073 34:0.26769184 35:-0.18102773 36:-0.39193438 37:-0.26474643 38:-0.65996725 39:0.088016777 
1.812332037701241 1:-0.036178503 2:0.55331245 3:0.27912007 4:0.028152432 5:-0.10932681 6:0.19120895 7:0.15638714 8:0.18136081 9:0.031052499 10:0.30226883 11:0.41455898 12:0.087924051 13:0.17202278 15:1 16:0.03248326 17:0.28731947 18:0.0095614579 19:-0.37669051 20:-0.23264556 21:0.19579267 22:-0.17691338 23:-0.038949937 24:-0.05775262 25:-0.67475548 26:-0.054742678 27:-0.24253921 28:0.24471582 29:0.30854601 30:-0.27158446 31:-0.31418474 32:0.38752569 33:-0.32403066 34:0.15755344 35:-0.16139005 36:0.078621505 37:-0.30884775 38:-0.21529079 39:0.14430175 
1.277479871662621 1:-0.06749057 2:0.4479028 3:0.42791112 4:0.24858936 5:-0.40862235 6:-0.0013057719 7:-0.041746413 8:0.3326205 9:-0.04231933 10:0.29268297 11:0.3625155 12:0.25595976 13:0.24106544 15:-1 16:0.20519353 17:-0.37035794 18:0.8450632 19:-0.21901733 20:0.10647513 21:-0.06401059 22:-0.075548083 23:-0.20283907 24:-0.42012524 25:-0.048092145 26:-0.20294108 27:0.08798922 28:0.23035001 29:0.36601607 30:-0.042740446 31:-0.16539562 32:0.20301767 33:-0.24456749 34:0.32600443 35:-0.11246712 36:-0.25235056 37:-0.20715977 38:-0.59368708 39:0.3976218 
5.932050336486465 1:-0.36719991 2:-0.23695371 3:0.19191886 4:0.49946191 5:-0.3837935 6:0.32388625 7:-0.07871726 8:0.54314295 9:-0.15085923 10:0.33809761 11:0.021295309 12:0.18240679 13:0.13504484 16:-0.24341146 17:0.07894222 18:-0.22773606 19:0.38820127 20:-0.15384127 21:0.25372579 22:-0.19646366 23:-0.042494438 24:-0.13596221 25:-0.20956509 26:0.056553827 27:0.0344954 28:0.45975443 29:0.4560068 30:0.034633867 31:-0.10909004 32:0.063743102 33:0.05900891 34:0.25740556 35:-0.18991597 36:-0.35950656 37:-0.29953505 38:-0.70965873 39:-0.12339062 
0.5208354854152122 1:-0.071316171 2:0.64090744 3:0.53906408 4:0.039813019 5:-0.37060164 6:0.14169113 7:0.0050055793 8:0.31967665 9:0.24821312 10:0.30958507 11:0.22165283 12:0.085843649 13:0.42141028 16:-0.63282197 17:-0.3691588 18:0.44496602 19:-0.096608226 20:0.15653275 21:0.20494885 22:-0.62788841 23:-0.26602182 24:0.037378088 25:-0.47556711 26:-0.011540403 27:-0.43651658 28:0.20026957 29:0.17381723 30:0.2501013 31:-0.11068464 32:0.42733922 33:-0.20711089 34:0.38531236 35:-0.39760982 36:-0.095880097 37:-0.38738173 38:-0.27832739 39:0.53241888 
0.3505927563584223 1:-0.14815895 2:0.50871576 3:0.50682596 4:0.26575055 5:-0.35829712 6:0.023778701 7:-0.20743555 8:0.25626638 9:-0.017685027 10:0.26913638 11:0.2865697 12:0.18242328 13:0.18207958 16:-0.15925364 17:-0.087825038 18:0.4171688 19:-0.17429736 20:0.36414825 21:-0.091196214 22:-0.1983423 23:-0.061516557 24:-0.4330132 25:-0.47440392 26:0.26364308 27:-0.28347364 28:0.1237422 29:0.50140362 30:-0.077845138 31:-0.34159854 32:0.3480854 33:-0.0091242921 34:0.17132281 35:-0.08136498 36:-0.36839998 37:-0.12181918 38:-0.37952463 39:0.34853669 
4.072183486799574 1:-0.14157733 2:0.19913732 3:0.25094742 4:0.23353602 5:-0.56400232 6:-0.23786868 7:-0.30057393 8:0.34425293 9:0.029012976 10:0.48819905 11:0.32680845 12:0.1902048 13:0.15279757 16:0.65984944 17:-0.20009972 18:0.26440357 19:-0.037767978 20:0.083612698 21:-0.37994146 22:-0.028634748 23:-0.24958309 24:-0.27036081 25:-0.211971 26:-0.089354729 27:0.070726024 28:0.33151549 29:0.35866528 30:0.026888223 31:-0.20288173 32:0.044496379 33:-0.067143345 34:0.20611064 35:-0.14448815 36:-0.29451919 37:-0.16192341 38:-0.6102512 39:0.55299329 
12.49350439168903 1:0.021698573 2:0.26524748 3:0.28337978 4:0.24537418 5:-0.44816738 6:-0.076181168 7:-0.22288832 8:0.1969685 9:-0.21014836 10:0.1441599 11:0.15926841 12:0.07446862 13:0.12249382 16:0.50163912 17:-0.21434926 18:-0.16428466 19:0.057184159 20:-0.14398157 21:-0.12879671 22:0.14065213 23:-0.33468974 24:-0.25115081 25:-0.21546483 26:-0.041861662 27:-0.021684222 28:0.35367077 29:0.37782322 30:-0.05926263 31:-0.19599431 32:0.022341694 33:-0.0031289712 34:0.23171534 35:-0.16175824 36:-0.34314735 37:-0.16228429 38:-0.56444408 39:0.33866019 
1.326658667294895 1:0.052764906 2:0.46599331 3:0.31942237 4:-0.081793501 5:-0.51153744 6:-0.040495766 7:-0.035066284 8:-0.019555155 9:-0.29483828 10:-0.12127859 11:0.25175021 12:-0.13631314 13:0.027299474 16:0.38927565 17:-0.25906246 18:0.13734942 19:0.43054151 20:-0.34027708 21:-0.45319071 22:0.29132644 23:-0.065795398 24:-0.83288822 25:-0.057925733 26:-0.21340488 27:-0.1079796 28:0.3276037 29:0.40010189 30:-0.03565375 31:-0.12994524 32:0.0075591793 33:0.063490193 34:0.24616525 35:-0.29143433 36:-0.28869132 37:-0.18975749 38:-0.47526737 39:0.28250567 
2.563672000293349 1:0.094623345 2:0.14299861 3:0.1527788 4:0.13180412 5:-0.47157738 6:-0.0016960788 7:-0.094313243 8:0.25830787 9:-0.21856438 10:0.057633819 11:0.04901967 12:-0.093140937 13:-0.091340778 15:1 16:0.49803986 17:-0.66446314 18:-0.24841267 19:0.17386035 20:-0.19899947 21:-0.044146642 22:0.097215984 23:-0.12845798 24:-0.36717836 25:0.047583653 26:-0.19534766 27:0.056700736 28:0.36582601 29:0.35982883 30:-0.055128654 31:-0.17117767 32:-0.033527281 33:0.030273249 34:0.25343991 35:-0.20356925 36:-0.32180021 37:-0.19618027 38:-0.56970105 39:0.27069088 
2.875051038256143 1:0.038860239 2:0.064118969 3:0.12581388 4:0.2311665 5:-0.40157444 6:0.067347454 7:-0.14503257 8:0.26268722 9:-0.22334838 10:0.15508692 11:0.10765953 12:0.028487389 13:-0.046897992 16:0.43502508 17:-0.63919752 18:-0.6473234 19:0.20322557 20:-0.20829443 21:-0.36418647 22:0.15697299 23:-0.10465765 24:-0.30880592 25:0.037315707 26:-0.12296394 27:0.0042834039 28:0.37623719 29:0.36318885 30:-0.061343907 31:-0.16979151 32:-0.02985068 33:0.023570659 34:0.24893893 35:-0.21742655 36:-0.31976781 37:-0.19494602 38:-0.57445432 39:0.21175867 
4.483591165114127 1:0.22986982 2:0.30552663 3:0.17591744 4:-0.05664095 5:-0.38614377 6:0.048790615 7:0.16197259 8:0.19691132 9:-0.24429129 10:-0.30602799 11:-0.17791242 12:-0.2502942 13:0.25149275 16:0.93350902 17:-0.049386918 18:-0.41349889 19:-0.30477688 20:0.23960899 21:0.23480767 22:0.019086591 23:-0.5296414 24:-0.37391641 25:-0.49020301 26:-0.12133938 27:-0.029741862 28:0.32344668 29:0.32967038 30:-0.088762094 31:-0.17194738 32:-0.021331768 33:-0.04224691 34:0.26186078 35:-0.19422538 36:-0.30650475 37:-0.06445161 38:-0.39272287 39:0.37342747 
2.662044809803076 1:-0.11040403 2:0.19209558 3:0.12159576 4:0.040973298 5:-0.42276976 6:-0.059801952 7:-0.017897868 8:0.24713844 9:-0.19830791 10:-0.089307431 11:-0.14938304 12:-0.15345443 13:0.15649624 16:0.87527069 17:0.027308066 18:-0.37279295 19:0.34265851 20:0.091836222 21:0.32768323 22:-0.079087512 23:-0.58635454 24:-0.17736987 25:-0.40289876 26:-0.097051652 27:-0.036641634 28:0.35102607 29:0.33288621 30:-0.10085457 31:-0.18824311 32:-0.052547248 33:-0.024337038 34:0.23870775 35:-0.19334566 36:-0.28739618 37:-0.044362774 38:-0.39885092 39:0.32973976 
4.57569283198339 1:0.16410313 2:0.097817508 3:0.13433597 4:0.039449735 5:-0.53196698 6:-0.02606873 7:0.022526996 8:0.33037602 9:-0.19062962 10:-0.013862932 11:0.091743922 12:0.099947891 13:0.37269594 16:0.70488786 17:-0.10195349 18:0.63246612 19:0.11636296 20:0.087107072 21:0.052072421 22:0.15308991 23:-0.49006597 24:-0.55782052 25:-0.086860151 26:-0.056372264 27:0.00017027152 28:0.37491284 29:0.39167709 30:-0.054601249 31:-0.15639004 32:-0.042571767 33:0.057259609 34:0.22910457 35:-0.15390437 36:-0.34284273 37:-0.15860151 38:-0.54813393 39:0.35244108 
6.159586062161703 1:0.24475328 2:0.55080199 3:0.16979107 4:-0.22899731 5:-0.29080805 6:-0.22718305 7:0.22378023 8:0.079857723 9:-0.16869855 10:-0.24491231 11:0.22418571 12:0.034926043 13:0.50698401 16:0.27554914 17:-0.15530946 18:0.067131129 19:0.038723811 20:0.10068792 21:0.09419037 22:0.19503893 23:-0.25599595 24:-0.58839778 25:-0.24350518 26:-0.084054767 27:-0.064479539 28:0.23350743 29:0.24904348 30:-0.1839766 31:-0.3227714 32:-0.13519376 33:-0.095667426 34:0.18832151 35:-0.010123263 36:-0.15534971 37:0.13973132 38:-0.1612867 39:0.3176772 
1.124129261070312 1:0.29027023 2:0.17600111 3:0.061593065 4:-0.082113985 5:-0.52530101 6:-0.082717429 7:-0.021328094 8:0.16459939 9:-0.26186216 10:-0.22640497 11:-0.13203143 12:-0.28457658 13:0.050883254 16:0.9405412 17:-0.17123113 18:-0.42756 19:0.63754171 20:0.055518469 21:-0.37277196 22:0.1253528 23:-0.6964007 24:-0.31450173 25:-0.28478924 26:-0.1301117 27:-0.036020296 28:0.33649394 29:0.35676657 30:-0.065605751 31:-0.19021217 32:-0.015957973 33:-0.0065973341 34:0.23824829 35:-0.18044135 36:-0.34206434 37:-0.17269413 38:-0.55752242 39:0.3876037 
2.700201744444478 1:0.17473084 2:0.015437594 3:0.0083840027 4:0.022678001 5:-0.56102878 6:-0.10134654 7:-0.18287547 8:0.18959075 9:-0.30497829 10:-0.11727081 11:-0.20914474 12:-0.25730757 13:-0.13583587 16:0.84352429 17:-0.17945871 18:-0.3424367 19:0.53481906 20:0.064957143 21:-0.401134 22:0.080047314 23:-0.32259874 24:-0.41580024 25:-0.17119782 26:-0.089193791 27:-0.01202481 28:0.36394424 29:0.37363147 30:-0.0556245 31:-0.18949433 32:-0.0082123841 33:0.0085767403 34:0.24986267 35:-0.19063211 36:-0.34385395 37:-0.19413225 38:-0.60884797 39:0.36422154 
7.114321965015761 1:0.23911893 2:0.19743818 3:0.19873691 4:0.038319673 5:-0.48841007 6:0.042971404 7:0.13432859 8:0.39299261 9:-0.11657633 10:-0.017830069 11:0.043317423 12:-0.11391435 13:0.1239824 16:0.83196229 17:-0.097932274 18:-0.32628101 19:0.23376481 20:0.21048932 21:-0.36796133 22:0.26799378 23:-0.1698845 24:-0.43622927 25:-0.30821899 26:-0.022701338 27:-0.0039312711 28:0.38533727 29:0.38380824 30:-0.047398289 31:-0.17076763 32:-0.041839094 33:0.062796802 34:0.25687463 35:-0.21843378 36:-0.35005832 37:-0.12119283 38:-0.50833587 39:0.32434193 
1.315515132372241 1:-0.084219617 2:0.037748355 3:0.067702732 4:0.064952591 5:-0.46962111 6:0.044237948 7:-0.008286649 8:0.34301286 9:-0.13353794 10:0.17924976 11:0.17315566 12:-0.0070855945 13:0.019807594 16:0.30365155 17:-0.0057999739 18:0.3154116 19:0.22069815 20:-0.00068349126 21:-0.11974311 22:-0.11837183 23:0.22655729 24:-0.61827536 25:-0.19434612 26:-0.0058703802 27:0.0152224 28:0.344603 29:0.38117975 30:-0.05382316 31:-0.18766572 32:-0.03195611 33:0.038770615 34:0.25733037 35:-0.1897984 36:-0.34197977 37:-0.12536495 38:-0.49048784 39:0.19525256 
6.68736756545753 1:0.15092605 2:0.058476899 3:-0.0063026334 4:0.058077676 5:-0.34259702 6:0.25394299 7:0.18466161 8:0.39033421 9:-0.10653617 10:0.0086947576 11:-0.026026442 12:-0.2252825 13:0.040907056 16:-0.0089463962 17:-0.612254 18:-0.44956022 19:0.63929179 20:-0.062946499 21:0.0048206804 22:0.14092032 23:-0.26132522 24:-0.51305112 25:-0.14576498 26:-0.13385002 27:-0.067651097 28:0.3726086 29:0.35524265 30:-0.094627718 31:-0.17535746 32:-0.015140615 33:-0.014113888 34:0.24989345 35:-0.19479772 36:-0.35416136 37:-0.22080857 38:-0.72039895 39:0.32926946 
3.926997903385596 1:0.27329446 2:0.27746005 3:0.090766135 4:-0.12052361 5:-0.3650279 6:0.093021465 7:0.19424921 8:0.21536439 9:-0.10658848 10:0.071176745 11:0.3760972 12:0.026571793 13:0.18905062 16:-0.35920458 17:0.36641573 18:0.18950079 19:-0.11919956 20:0.29759618 21:0.07259649 22:-0.027380856 23:0.1218791 24:-0.69355207 25:-0.17721456 26:-0.13008195 27:-0.10446672 28:0.3069152 29:0.33831498 30:-0.13688398 31:-0.1523923 32:-0.042572137 33:-0.044895852 34:0.25187633 35:-0.18113647 36:-0.28774494 37:-0.089847458 38:-0.34898738 39:0.23329539 
4.432270284943552 1:0.25404445 2:0.23380428 3:0.10628912 4:-0.03777197 5:-0.38248423 6:0.14892879 7:0.17855697 8:0.22392961 9:-0.1895827 10:-0.12881233 11:0.11725701 12:-0.13053219 13:0.1991179 16:0.61700786 17:-0.25921891 18:-0.1513827 19:0.13222295 20:0.14489808 21:0.60440681 22:0.050553807 23:-0.53940977 24:-0.46169649 25:-0.069217261 26:-0.15798011 27:-0.053914101 28:0.34914208 29:0.36956698 30:-0.083830406 31:-0.19628288 32:0.0065452617 33:0.013301521 34:0.2148848 35:-0.19637878 36:-0.33917111 37:-0.16900823 38:-0.63478811 39:0.3649025 
10.3212621058756 1:-0.047599816 2:0.13547976 3:0.050534182 4:-0.046113389 5:-0.41765349 6:0.03728433 7:0.043549231 8:0.21668699 9:-0.15780014 10:0.089229692 11:0.28564922 12:0.093802282 13:0.22672315 16:-0.8756264 17:0.43712902 18:0.33625746 19:-0.15320145 20:-0.0060890012 21:0.34043679 22:-0.050309633 23:-0.0057480727 24:-0.68457949 25:-0.20107373 26:-0.11255439 27:-0.068097082 28:0.33193356 29:0.34725946 30:-0.10788872 31:-0.16069639 32:-0.022134062 33:-0.025594796 34:0.24872682 35:-0.19720691 36:-0.28616299 37:-0.11246455 38:-0.41171163 39:0.24863129 
2.489746247534541 1:0.16626926 2:0.51871741 3:0.16408204 4:-0.18645058 5:-0.33423073 6:0.21845388 7:0.34395774 8:0.13791696 9:-0.090938435 10:-0.10692981 11:0.35208203 12:-0.23078757 13:0.23557044 16:0.42338409 17:-0.45337985 18:-0.014711775 19:0.24027406 20:-0.036059112 21:0.26645955 22:0.049436864 23:-0.53689784 24:-0.53174754 25:-0.13399445 26:-0.27863316 27:-0.13594473 28:0.3088572 29:0.36627426 30:-0.11795039 31:-0.18312069 32:0.037371269 33:-0.041973129 34:0.20901047 35:-0.20766866 36:-0.27661867 37:-0.31513869 38:-0.64124663 39:0.3501389 
2.255985896041267 1:0.23131628 2:0.35015629 3:0.11296065 4:-0.25161987 5:-0.43709738 6:0.12677145 7:0.28320913 8:0.23732616 9:-0.043158685 10:0.1032595 11:0.53296057 12:0.016784793 13:0.46293844 16:-0.62344224 17:0.17263888 18:0.2568339 19:0.34706716 20:-0.071111714 21:0.50952414 22:-0.095021829 23:-0.12549914 24:-0.66324401 25:-0.50743966 26:-0.31041949 27:-0.043101176 28:0.37187026 29:0.32001213 30:-0.053645867 31:-0.21222974 32:-0.00011989935 33:0.034108064 34:0.26742144 35:-0.13106725 36:-0.37552867 37:-0.12807128 38:-0.39934777 39:0.31626147 
0.5694010702895823 1:0.16396011 2:0.63350901 3:0.18709336 4:-0.38055569 5:-0.2551738 6:0.29782935 7:0.40090396 8:0.08883731 9:0.043232028 10:0.038564298 11:0.37572989 12:-0.21920036 13:0.18340418 16:0.82590769 17:-0.29278951 18:-0.069914628 19:0.40429945 20:0.2024078 21:-0.13875684 22:-0.077190216 23:0.23097933 24:-0.72379587 25:-0.12748902 26:-0.50714134 27:-0.32688814 28:0.36953474 29:0.33085469 30:-0.14752924 31:-0.096737269 32:0.16281108 33:-0.15364131 34:0.22342565 35:0.16315319 36:-0.30348004 37:-0.20401211 38:-0.24928686 39:0.23508867 
1.727851472280158 1:-0.096079015 2:-0.08983693 3:0.036224185 4:0.054074413 5:-0.47557853 6:0.25177763 7:0.10705099 8:0.39405102 9:-0.12331858 10:0.21814769 11:0.29465725 12:0.1414428 13:0.25595544 14:1 16:-0.042291801 17:-0.034225949 18:0.09149403 19:0.44866449 20:0.088747811 21:0.36573377 22:-0.0060717104 23:-0.05491732 24:-0.5462695 25:-0.22005933 26:-0.20881133 27:0.05418845 28:0.36384519 29:0.42335023 30:0.0020789254 31:-0.12518202 32:0.047371148 33:0.042622949 34:0.26084097 35:-0.18530391 36:-0.36535502 37:-0.25759943 38:-0.59591764 39:0.20844793 
1.074363424437194 1:0.035334779 2:0.56046458 3:0.21818677 4:-0.26747444 5:-0.36699445 6:0.23258993 7:0.4275009 8:0.23079932 9:0.018841969 10:0.075278487 11:0.48798757 12:-0.17953539 13:0.026631164 16:0.66636421 17:-0.13247974 18:-0.047717639 19:0.31453827 20:0.1947458 21:-0.43928442 22:-0.0321897 23:0.19471282 24:-0.82405302 25:-0.34718139 26:-0.4310862 27:0.1512435 28:0.015539259 29:0.39265344 30:-0.044090685 31:-0.19627399 32:0.172487 33:-0.17536313 34:0.18655057 35:-0.13802136 36:-0.279818 37:-0.17829412 38:-0.29940882 39:0.26992706 
10.25694228154272 1:0.018038948 2:0.24965007 3:0.17305356 4:0.016289581 5:-0.37228209 6:0.14164758 7:0.10943399 8:0.23916764 9:-0.10340848 10:0.23215266 11:0.33693586 12:-0.13687282 13:-0.17916423 16:-0.49855132 17:-0.43722357 18:-0.17240299 19:0.71110684 20:-0.47244967 21:-0.011182529 22:0.22423402 23:0.11951283 24:-0.48858701 25:-0.60187419 26:0.0080661011 27:-0.079812166 28:0.41414086 29:0.36533551 30:-0.020207807 31:-0.24105493 32:0.066401752 33:-0.024675491 34:0.23224855 35:-0.20351695 36:-0.24359166 37:-0.1731072 38:-0.4667311 39:0.18758995 
1.855834561564757 1:-0.31122206 2:0.083795609 3:0.21158373 4:0.1705007 5:-0.41870117 6:0.25240063 7:0.033212922 8:0.28468635 9:-0.17486304 10:0.24964247 11:0.28552485 12:-0.037876879 13:-0.11873547 16:-0.50487721 17:-0.38122567 18:-0.31871056 19:0.59323476 20:-0.45151929 21:0.006854492 22:0.14513333 23:0.11704035 24:-0.46508599 25:-0.56626384 26:0.032763511 27:-0.022205393 28:0.43149492 29:0.43215315 30:0.057513318 31:-0.16731274 32:0.060923747 33:0.051611099 34:0.25905569 35:-0.23235241 36:-0.3159553 37:-0.27717421 38:-0.61394947 39:0.15679672 
0.5952471841007584 1:0.014653473 2:0.22827999 3:0.19355254 4:0.10356937 5:-0.32692711 6:0.25855018 7:0.27888487 8:0.40762423 9:-0.15182836 10:-0.067623198 11:0.058935658 12:-0.12174796 13:0.087690916 16:-0.5425182 17:-0.14579749 18:0.019762973 19:0.45393886 20:-0.37281084 21:0.53994903 22:-0.047639944 23:-0.20879112 24:-0.61782328 25:0.11717763 26:-0.12736641 27:-0.00013745461 28:0.39628429 29:0.35171333 30:-0.097411128 31:-0.14175895 32:-0.055641226 33:0.0073330648 34:0.26499374 35:-0.12967658 36:-0.39848043 37:-0.13957213 38:-0.55484341 39:0.30694944 
1.559807384431702 1:0.14498279 2:0.67603382 3:0.29135752 4:-0.44462135 5:-0.41543419 6:0.19552512 7:0.22812778 8:-0.042879431 9:-7.7721857e-005 10:0.067369785 11:0.52572238 12:-0.043957299 13:0.62656123 16:-0.072708517 17:-0.36128208 18:0.51213675 19:-0.44457144 20:0.032979355 21:0.0209022 22:-0.056168746 23:-0.24149015 24:-0.63056945 25:-0.45883226 26:-0.29973484 27:-0.17236549 28:-0.068018234 29:0.40910876 30:0.06197536 31:-0.11641688 32:0.23342282 33:-0.10305241 34:0.25392374 35:-0.075405193 36:-0.23588918 37:-0.27812519 38:-0.26166892 39:0.35349261 
0.2826501400771386 1:0.11716789 2:0.15129938 3:0.091281524 4:0.077260815 5:-0.36053379 6:0.080689028 7:0.0055008302 8:0.20491107 9:-0.25235411 10:-0.10630278 11:-0.067943807 12:-0.14091222 13:0.12997609 16:-0.66059778 17:0.083034328 18:-0.18963817 19:0.33033798 20:-0.26783978 21:0.63000728 22:0.13916805 23:-0.30308892 24:-0.57409074 25:0.0085945351 26:-0.18571189 27:-0.044748799 28:0.3417873 29:0.34200776 30:-0.071974971 31:-0.21565896 32:0.010922934 33:-0.042348978 34:0.24589775 35:-0.16005271 36:-0.34662742 37:-0.1558513 38:-0.44349738 39:0.28942472 
1.072605056045553 1:-0.19596966 2:-0.25700722 3:0.14057181 4:0.1762282 5:-0.76652747 6:0.054484464 7:-0.0099850006 8:0.5347654 9:-0.19236125 10:0.28541008 11:0.32277689 12:0.33938318 13:0.23952263 16:-0.13519349 17:0.072226916 18:0.68873603 19:-0.27872173 20:-0.12157705 21:0.31030759 22:-0.10350446 23:-0.34970731 24:-0.53278405 25:-0.42263078 26:0.27878349 27:0.1562536 28:0.53913929 29:0.4989977 30:0.10317486 31:-0.096570185 32:0.072740367 33:0.08173912 34:0.2710054 35:-0.19659788 36:-0.39851818 37:-0.30923452 38:-0.82719765 39:0.30379711 
24.44245353831563 1:0.021977324 2:0.19025875 3:0.12920858 4:0.092357223 5:-0.34860579 6:0.08220112 7:0.041478661 8:0.27219968 9:-0.17005781 10:0.0019859619 11:0.052633291 12:-0.083806476 13:0.13027627 16:-0.59737156 17:0.05088476 18:-0.032011838 19:0.11541122 20:-0.23315048 21:0.46668574 22:0.12392053 23:-0.25394795 24:-0.55810165 25:-0.038622739 26:-0.16897087 27:-0.026015877 28:0.33318283 29:0.34221477 30:-0.078778803 31:-0.2312286 32:0.025459053 33:-0.055398717 34:0.26316329 35:-0.16129416 36:-0.34543212 37:-0.15028027 38:-0.40732597 39:0.28018867 
6.068654024582001 1:0.087375066 2:0.23230363 3:0.20417899 4:0.083869515 5:-0.26581211 6:0.25880931 7:0.17171225 8:0.1696399 9:-0.24573234 10:-0.030903319 11:0.3397992 12:0.21268677 13:0.56512346 16:0.12654461 17:-0.2716798 18:0.15581947 19:-0.16708906 20:0.29575348 21:0.18968623 22:-0.0069043551 23:-0.36139637 24:-0.36693402 25:-0.31796883 26:-0.14311554 27:-0.012625689 28:0.35545732 29:0.33995466 30:-0.018069674 31:-0.19145239 32:0.038927374 33:-0.017703333 34:0.22694219 35:-0.16552573 36:-0.31471592 37:-0.11984082 38:-0.47918586 39:0.3072457 
1.595834779275407 1:-0.24321309 2:0.040588999 3:0.25824206 4:0.25434064 5:-0.35629173 6:0.32545708 7:0.099268535 8:0.2384104 9:-0.37889167 10:-0.028184836 11:0.3085868 12:0.28998835 13:0.39412209 16:0.056180852 17:-0.40900792 18:0.23008496 19:-0.2073654 20:0.17021193 21:0.088539528 22:0.034200841 23:-0.17786789 24:-0.46887536 25:-0.38410536 26:0.039954173 27:0.081753262 28:0.38774593 29:0.43013728 30:0.0041749005 31:-0.11511066 32:0.01583849 33:0.067050361 34:0.27699617 35:-0.18736612 36:-0.37884221 37:-0.26365159 38:-0.62439491 39:0.25082589 
1.854753268590703 1:0.0016863323 2:0.49264464 3:0.45198252 4:0.1830803 5:-0.42429603 6:0.0063087254 7:-0.057215262 8:0.22811158 9:-0.16180479 10:0.037734615 11:-0.0092522741 12:-0.18696326 13:-0.071157886 16:0.64562339 17:-0.32763432 18:-0.8193229 19:0.17909481 20:-0.044133319 21:-0.47545147 22:0.024369662 23:-0.095109944 24:-0.49500159 25:-0.23571767 26:0.069912377 27:-0.13939798 28:0.50926199 29:0.37403391 30:-0.086873631 31:-0.073615042 32:0.042212792 33:-0.1306997 34:0.34284764 35:-0.014317155 36:-0.4083877 37:-0.19733277 38:-0.44356753 39:0.37479542 
2.21676217888656 1:-0.13229603 2:0.049803037 3:0.1123507 4:0.20032455 5:-0.47463781 6:0.020257215 7:-0.11540587 8:0.39418997 9:-0.12136939 10:0.19838726 11:0.030122484 12:0.053359766 13:0.16310583 16:0.70139499 17:-0.53831808 18:0.5807223 19:0.47083759 20:-0.018078366 21:-0.09878965 22:-0.042187709 23:-0.29800383 24:-0.42341396 25:-0.13020776 26:0.038371019 27:-0.045268356 28:0.38304231 29:0.37592397 30:-0.070867299 31:-0.16668183 32:-0.014789629 33:0.029557992 34:0.2116243 35:-0.17603223 36:-0.31240209 37:-0.19085272 38:-0.60693031 39:0.37463647 
9.484729829306815 1:0.25341744 2:0.042232411 3:0.018208691 4:-0.013998381 5:-0.57930385 6:-0.15718167 7:-0.25795261 8:0.21995356 9:-0.055740696 10:0.41226178 11:0.31099745 12:-0.0088706106 13:-0.050121304 16:-0.20825579 17:-0.051589832 18:0.66288333 19:0.25653294 20:-0.29693185 21:-0.33598412 22:-0.16529233 23:0.1628005 24:-0.24267972 25:-0.27061527 26:-0.23432342 27:0.028247981 28:0.30831377 29:0.38501172 30:-0.056454791 31:-0.1716453 32:0.01273542 33:-0.0044106781 34:0.24366469 35:-0.16420046 36:-0.32685102 37:-0.16404553 38:-0.47917906 39:0.16710306 
11.60229680024074 1:0.20437099 2:0.008688844 3:0.080576343 4:0.13405747 5:-0.57294054 6:-0.13115293 7:-0.16552381 8:0.44107786 9:-0.0041200676 10:0.34378387 11:0.16815923 12:0.016326399 13:-0.10845677 16:-0.030667968 17:-0.079527404 18:0.19711307 19:0.71921547 20:-0.39447121 21:-0.31130716 22:0.26987032 23:-0.22123948 24:-0.39966019 25:-0.23901083 26:0.016248222 27:0.03093597 28:0.33317883 29:0.38773141 30:-0.063017865 31:-0.17862652 32:0.0007193183 33:0.0043704957 34:0.2441802 35:-0.17526744 36:-0.35136991 37:-0.15255101 38:-0.58085998 39:0.29222596 
13.86037209598741 1:-0.0044494611 2:-0.013323072 3:0.002196063 4:0.027293062 5:-0.58344405 6:-0.18258411 7:-0.29709987 8:0.26067169 9:-0.046427365 10:0.41417905 11:0.22610316 12:-0.022314445 13:-0.10465228 16:-0.10440331 17:-0.15380796 18:0.72686844 19:0.2545634 20:-0.2847172 21:-0.3397001 22:-0.15539409 23:0.02715179 24:-0.16944104 25:-0.18746895 26:-0.20278332 27:0.020880001 28:0.32020487 29:0.38281731 30:-0.061730109 31:-0.17425467 32:0.011800455 33:-0.0043069344 34:0.24457824 35:-0.16520375 36:-0.32525214 37:-0.15839407 38:-0.47482489 39:0.14258461 
1.5077492188082 1:0.042496182 2:0.14199371 3:0.090269709 4:0.05122892 5:-0.53719337 6:-0.095670382 7:-0.079826451 8:0.38834882 9:-0.0057735915 10:0.23662974 11:0.1455853 12:-0.099286379 13:-0.10870586 16:0.077830193 17:-0.19575497 18:-0.0071215798 19:0.8720364 20:-0.41776106 21:-0.10551227 22:0.18469801 23:-0.27644974 24:-0.41002187 25:-0.1821822 26:-0.070850725 27:-0.0013567308 28:0.30425097 29:0.37396306 30:-0.087267793 31:-0.19417135 32:0.00010632808 33:0.00088337529 34:0.22950387 35:-0.17465741 36:-0.36317761 37:-0.1146841 38:-0.59252823 39:0.32765659 
2.488280590828967 1:0.25577613 2:0.35827425 3:0.10545289 4:-0.16023849 5:-0.4198 6:0.0023169772 7:-0.040811491 8:0.20312537 9:0.22518694 10:0.5628302 11:0.35959956 12:-0.38902467 13:-0.050622191 16:-0.91212227 17:0.19811662 18:0.098483667 19:0.760456 20:-0.41515567 21:0.39649854 22:-0.36954228 23:-0.063394407 24:0.16319249 25:-0.16425461 26:-0.68186732 27:-0.21732896 28:0.38307663 29:0.37972955 30:-0.077566892 31:-0.17387733 32:0.021775437 33:-0.040693624 34:0.26879419 35:-0.17822653 36:-0.30774495 37:-0.10172444 38:-0.42133048 39:0.1652371 
2.301073124482014 1:0.11989802 2:0.35494104 3:0.16527319 4:-0.02283401 5:-0.43896387 6:-0.25518092 7:-0.097525974 8:0.27257304 9:-0.0086657971 10:0.094250187 11:0.12037596 12:-0.053431452 13:0.26006316 14:-1 16:-0.50611333 17:0.0070589462 18:0.25353621 19:0.28165223 20:-0.56977052 21:0.51073854 22:-0.26974845 23:-0.28159739 24:-0.31096497 25:-0.09307151 26:-0.17310353 27:0.0064625908 28:0.22668276 29:0.28918257 30:-0.14264418 31:-0.24280105 32:-0.025122917 33:-0.068445622 34:0.27715865 35:-0.14507165 36:-0.31531208 37:0.020874207 38:-0.26890192 39:0.39148998 
1.924594751939572 1:-0.4978442 2:0.33969283 3:0.25788286 4:0.032376657 5:-0.44162787 6:-0.046655474 7:-0.16691716 8:0.38221138 9:0.1413392 10:0.2631749 11:0.077134908 12:-0.1651647 13:0.015147305 16:-0.82837743 17:-0.23014653 18:0.29829531 19:0.6691919 20:-0.48547886 21:-0.060743742 22:-0.078930367 23:-0.064721713 24:-0.51538466 25:-0.057322886 26:0.12493419 27:-0.21779899 28:0.290947 29:0.4002859 30:-0.053214607 31:-0.1492364 32:-0.09364328 33:0.30583677 34:0.28897715 35:-0.49453777 36:-0.33167256 37:-0.070313251 38:-0.27581558 39:0.36170347 
1.410904358338458 1:0.0015981706 2:0.60994837 3:0.3669092 4:-0.16088946 5:-0.39034607 6:-0.034574411 7:-0.042593299 8:0.19167559 9:0.094960208 10:0.18414232 11:0.38302189 12:-0.0028480943 13:0.029920434 16:-0.67770082 17:0.069183112 18:0.5869926 19:0.11557089 20:-0.19658142 21:-0.61941242 22:0.61611186 23:0.025805624 24:-0.82928666 25:-0.35556467 26:-0.12709539 27:-0.16690664 28:0.049226194 29:0.29863896 30:-0.0664162 31:-0.30591922 32:0.52009851 33:-0.29797814 34:0.22584021 35:0.32925058 36:-0.28614615 37:-0.36117429 38:-0.16172291 39:0.32820106 
5.219756542074514 1:0.028254724 2:0.56132831 3:0.27877456 4:-0.097231091 5:-0.43159483 6:-0.16877362 7:-0.11534601 8:0.0079912964 9:-0.14418402 10:0.019841105 11:0.18672642 12:-0.17494303 13:-0.17178092 16:-0.40906629 17:-0.19946925 18:0.0069473307 19:-0.1709249 20:-0.077869066 21:-0.42302825 22:-0.10366524 23:0.25788839 24:-0.89549075 25:-0.27031598 26:-0.18434045 27:-0.03007671 28:0.16356775 29:0.3454438 30:-0.1544064 31:-0.10924825 32:0.01519668 33:-0.14604018 34:0.33686315 35:-0.36120218 36:-0.066142006 37:-0.3948769 38:-0.15097515 39:0.29765345 
1.850747430547521 1:-0.32108196 2:0.22822039 3:0.34274316 4:0.16372971 5:-0.57982115 6:-0.037707451 7:-0.10973149 8:0.34081417 9:-0.055088108 10:0.21017879 11:0.21956365 12:-0.0052501798 13:-0.010373384 16:-0.55808559 17:-0.23671919 18:0.65440501 19:0.18385348 20:-0.23150515 21:-0.5973629 22:0.63308182 23:-0.03001697 24:-0.80155266 25:-0.14234689 26:0.008820879 27:-0.023889346 28:0.37430595 29:0.45239619 30:0.012315543 31:-0.066442108 32:-0.0098163879 33:0.0896599 34:0.28286515 35:-0.21075142 36:-0.4404227 37:-0.18746048 38:-0.59136974 39:0.31731634 
3.561918476670187 1:0.042529583 2:0.49608036 3:0.39082935 4:0.040894192 5:-0.53475091 6:-0.1248307 7:-0.076994124 8:0.2458065 9:-0.056386721 10:0.20367501 11:0.39099618 12:-0.040865589 13:0.024380812 16:-0.92292809 17:0.38951755 18:-0.47882983 19:0.9528959 20:-0.56460544 21:-0.45406555 22:0.42129848 23:-0.18428092 24:-0.52962016 25:-0.18190183 26:-0.23359677 27:-0.029764847 28:0.4674959 29:0.30587288 30:-0.013134288 31:-0.22065877 32:0.027128018 33:0.09959647 34:0.17038772 35:-0.1331812 36:-0.30459208 37:-0.19191823 38:-0.50477647 39:0.42133593 
0.2839436678027409 1:0.049703489 2:0.12427754 3:0.19822796 4:0.19089668 5:-0.59758884 6:-0.19044107 7:-0.28538681 8:0.28856009 9:-0.17550164 10:0.23476236 11:0.078472763 12:0.029282309 13:-0.091087138 16:-0.30662365 17:0.062403665 18:-0.15937741 19:-0.010591061 20:0.2369065 21:-0.39205866 22:0.29111553 23:-0.11304881 24:-0.64240863 25:-0.056995922 26:-0.044766254 27:0.053169104 28:0.41707765 29:0.39094168 30:-0.048045637 31:-0.15366287 32:0.0012948482 33:-0.019553034 34:0.26653351 35:-0.16475511 36:-0.33480895 37:-0.16594703 38:-0.56652046 39:0.29169806 
4.135566277987653 1:-0.2891333 2:-0.020422306 3:0.28800882 4:0.37661539 5:-0.63525355 6:-0.12000049 7:-0.41509445 8:0.32763847 9:-0.19494706 10:0.34106558 11:0.052797112 12:0.015956029 13:-0.16907987 16:-0.6666529 17:0.29496432 18:-0.29472018 19:0.7053904 20:-0.50349909 21:-0.36298762 22:0.36457615 23:-0.17900652 24:-0.20977629 25:-0.013376259 26:-0.10504576 27:0.10647548 28:0.47598754 29:0.44091936 30:0.041421958 31:-0.12178132 32:0.040891045 33:0.083098076 34:0.25823879 35:-0.19049809 36:-0.38661529 37:-0.27316661 38:-0.70750362 39:0.14529607 
1.918013156811711 1:-0.022271753 2:0.11789422 3:0.15667032 4:0.14532056 5:-0.61119591 6:-0.1978839 7:-0.28077673 8:0.27342956 9:-0.16167197 10:0.26189091 11:0.1460679 12:0.052070384 13:-0.047362588 14:-1 16:-0.41152159 17:0.37325334 18:-0.037925891 19:-0.023112152 20:0.13741469 21:-0.43537163 22:0.24503604 23:-0.10287457 24:-0.58221342 25:-0.078241541 26:-0.068416241 27:0.050005097 28:0.3977686 29:0.39222239 30:-0.05672441 31:-0.1626238 32:0.006786095 33:-0.020670631 34:0.25035726 35:-0.13806632 36:-0.35028415 37:-0.16920003 38:-0.570074 39:0.32101029 
1.005302058307884 1:0.048194019 2:0.24613499 3:0.25645175 4:0.098859642 5:-0.60219681 6:-0.20908811 7:-0.171854 8:0.28208304 9:-0.068964816 10:0.29221472 11:0.31995474 12:0.12310336 13:0.0066227056 16:0.5382474 17:-0.63193747 18:0.75092988 19:0.0069350403 20:-0.37344256 21:-0.11629613 22:-0.059797324 23:0.096028543 24:-0.79124522 25:-0.18279311 26:0.12514906 27:-0.083558858 28:0.38634072 29:0.40436345 30:-0.044844344 31:-0.13666125 32:-0.0015565287 33:-0.0020364501 34:0.21010445 35:-0.17656666 36:-0.29655731 37:-0.15427727 38:-0.52532917 39:0.36276498 
1.279617585353131 1:0.074884071 2:0.5590586 3:0.25272295 4:-0.15197486 5:-0.47528555 6:-0.23679013 7:-0.1171237 8:0.097080227 9:0.018061422 10:0.33735916 11:0.66532317 12:0.070711967 13:0.10693344 16:0.17582515 17:-0.45104974 18:0.55248319 19:0.23717684 20:-0.51202379 21:-0.17094648 22:-0.32209446 23:0.29302536 24:-0.68422758 25:-0.55600602 26:-0.3192156 27:0.13667962 28:0.22446923 29:0.2674037 30:-0.093012027 31:-0.28088236 32:0.017011665 33:0.027276315 34:0.23532202 35:-0.30403405 36:-0.14942074 37:-0.18311023 38:-0.28750884 39:0.36256595 
2.586955609658111 1:-0.28211297 2:-0.055884543 3:0.25082499 4:0.32466014 5:-0.67381727 6:-0.15818579 7:-0.40598873 8:0.3270697 9:-0.17689217 10:0.37774694 11:0.19826849 12:0.18338955 13:-0.10518562 16:0.30910113 17:-0.41565923 18:0.84775574 19:-0.072761879 20:-0.44812724 21:-0.17329652 22:0.13333877 23:0.094422767 24:-0.77774552 25:-0.029663666 26:0.085425574 27:0.032978641 28:0.4441837 29:0.45915715 30:0.038213487 31:-0.10533409 32:0.063391437 33:0.048593748 34:0.25196886 35:-0.17526301 36:-0.36986424 37:-0.28665773 38:-0.70482435 39:0.19497339 
1.878803962099797 1:-0.025625874 2:0.53044466 3:0.21926453 4:-0.17381906 5:-0.45769717 6:-0.2201368 7:-0.093199183 8:0.090687759 9:-0.0049747569 10:0.3102803 11:0.60696039 12:0.034166616 13:0.087300928 16:0.038925609 17:-0.62920576 18:0.57969845 19:0.22948875 20:-0.40277487 21:-0.18461434 22:-0.37228307 23:0.33868629 24:-0.68568084 25:-0.56534418 26:-0.21196798 27:0.050945072 28:0.2105388 29:0.27953161 30:-0.0420353 31:-0.39773058 32:0.095701545 33:0.012362291 34:0.25446592 35:-0.36380527 36:-0.077950751 37:-0.1634862 38:-0.2879315 39:0.31635574 
2.061356315980194 1:0.085059506 2:0.37626829 3:0.16218938 4:-0.18842123 5:-0.55628274 6:-0.20298054 7:-0.15181165 8:0.030407774 9:-0.11932731 10:0.17380322 11:0.35852545 12:-0.15741614 13:-0.12482788 16:-0.24344123 17:0.010895796 18:0.16475575 19:0.088711762 20:-0.066644906 21:-0.60686788 22:0.28209295 23:0.14449641 24:-0.78762052 25:-0.15056365 26:-0.25177001 27:-0.22523189 28:0.453247 29:0.35620969 30:-0.043645337 31:-0.25262605 32:0.023148842 33:-0.0056388191 34:0.32177253 35:-0.21379114 36:-0.30016883 37:-0.10249372 38:-0.40135387 39:0.27634175 
3.738870776550856 1:0.050187114 2:0.41783674 3:0.22886233 4:-0.041081885 5:-0.51100484 6:-0.13217083 7:-0.16407672 8:0.054184712 9:-0.14602117 10:0.10626052 11:0.31041626 12:-0.073252967 13:-0.012619916 16:-0.0612267 17:-0.76154516 18:0.74311724 19:-0.40323551 20:-0.1407025 21:-0.34259291 22:-0.023356812 23:0.09329192 24:-0.64404856 25:-0.24944739 26:-0.068614588 27:-0.24220182 28:0.42869792 29:0.33020569 30:-0.11841735 31:-0.14529407 32:0.034111784 33:-0.027541883 34:0.27514808 35:-0.24271781 36:-0.26797889 37:-0.28619175 38:-0.41195234 39:0.30780759 
0.2260449762812165 1:-0.3971323 2:0.62071565 3:0.36802645 4:-0.032493641 5:-0.31282635 6:-0.13846013 7:-0.14281951 8:0.25681308 9:0.12388547 10:0.20110868 11:0.28419067 12:-0.022556011 13:-0.083391977 16:0.83950947 17:-0.34757495 18:-0.12104711 19:0.25476163 20:-0.35344578 21:-0.19465758 22:-0.26411903 23:0.2468429 24:-0.63068358 25:-0.351956 26:0.35601152 27:-0.31008944 28:0.16140675 29:0.28677021 30:-0.52664909 31:-0.13657337 32:0.18819531 33:-0.024745684 34:0.18407229 35:-0.15251854 36:-0.10409808 37:-0.21505784 38:-0.062132055 39:0.39707585 
7.255874024567708 1:0.010604834 2:0.26519121 3:0.22290414 4:0.070966804 5:-0.37609263 6:0.06016151 7:-0.063756111 8:0.01604744 9:-0.3523928 10:-0.064757544 11:0.2864044 12:0.047962831 13:0.15164539 16:-0.13866625 17:0.028441365 18:-0.75828173 19:0.39610429 20:-0.3643923 21:0.23280564 22:0.060261764 23:0.18762222 24:-0.83148562 25:-0.10579587 26:-0.29232224 27:0.072389135 28:0.29779412 29:0.37784682 30:-0.081129697 31:-0.14224057 32:-0.016412189 33:0.0045302253 34:0.27164015 35:-0.23567036 36:-0.33566033 37:-0.12569287 38:-0.4454086 39:0.19289074 
1.263059372718365 1:0.051911749 2:0.14688882 3:0.073114136 4:0.020957013 5:-0.47851703 6:0.02477355 7:0.0055317284 8:0.3375249 9:-0.013813837 10:0.28098381 11:0.42793182 12:0.06627637 13:0.020493645 15:1 16:-0.71825761 17:-0.61213468 18:0.73612119 19:0.26258084 20:-0.66188199 21:-0.19508816 22:0.1586454 23:0.003721456 24:-0.72227668 25:-0.12091236 26:-0.094157045 27:-0.12720526 28:0.37613673 29:0.36257413 30:-0.076678864 31:-0.1821865 32:-0.0082498956 33:0.026808584 34:0.23188559 35:-0.1320168 36:-0.40288309 37:-0.17870534 38:-0.66863267 39:0.29925289 
5.513626363121089 1:-0.29485093 2:0.06674264 3:0.21186823 4:0.082309301 5:-0.56380748 6:0.12794862 7:-0.12918933 8:0.063415402 9:-0.40952462 10:-0.016590495 11:0.18491314 12:0.011721639 13:0.093534544 16:-0.038778915 17:-0.20867482 18:-0.14547245 19:-0.17094196 20:-0.2515013 21:0.28009996 22:-0.0087835477 23:0.17603341 24:-0.82102312 25:-0.090463339 26:-0.19225611 27:-0.043047953 28:0.45848331 29:0.49775608 30:0.04910343 31:-0.12136446 32:0.076615869 33:0.094656492 34:0.2507307 35:-0.13646694 36:-0.40148903 37:-0.34924693 38:-0.68357431 39:0.20290755 
3.541210456757396 1:-0.056112296 2:0.17804644 3:0.13442056 4:0.10068832 5:-0.43163371 6:0.084803837 7:0.02675641 8:0.34686737 9:-0.03627 10:0.29454674 11:0.43474432 12:0.065421812 13:-0.0041333288 16:-0.93483577 17:0.072384049 18:0.80356951 19:0.22295102 20:-0.49270916 21:-0.22347132 22:0.19510148 23:0.075748777 24:-0.69053327 25:-0.25120914 26:-0.098488924 27:-0.060405571 28:0.37576298 29:0.35932343 30:-0.071912277 31:-0.17535284 32:-0.021146859 33:0.035401824 34:0.2384249 35:-0.15386906 36:-0.39975524 37:-0.19177084 38:-0.65833968 39:0.27567006 
1.282688360564684 1:0.32950921 2:0.28796452 3:0.038315363 4:-0.18738358 5:-0.37473908 6:-0.066666234 7:0.10421315 8:0.46027528 9:0.22282229 10:0.062344257 11:-0.087667177 12:-0.21855958 13:0.22785245 15:-1 16:-0.80058603 17:-0.20612192 18:0.23086404 19:0.48654829 20:0.16082844 21:0.1147506 22:-0.3623798 23:-0.18669233 24:-0.49103768 25:0.18085961 26:0.030490333 27:-0.27107019 28:0.018613528 29:0.31800414 30:-0.099476463 31:-0.23159867 32:-0.022670651 33:0.02107157 34:0.2578746 35:-0.16573133 36:-0.35882474 37:-0.027484143 38:0.16132721 39:0.37700847 
1.967515293927651 1:0.25202966 2:0.064489174 3:0.051646326 4:-0.1066877 5:-0.61608174 6:-0.10801158 7:0.14587923 8:0.4994957 9:-0.021169699 10:0.042453438 11:0.029392272 12:-0.14294792 13:-0.017448366 16:-0.17048408 17:0.19691808 18:-0.078486616 19:0.7819753 20:0.38487925 21:0.038095268 22:-0.29580321 23:-0.15346217 24:-0.75097686 25:-0.45379045 26:0.22329483 27:0.011008831 28:0.34671461 29:0.3611522 30:-0.048713885 31:-0.12572762 32:-0.093395143 33:0.0029126458 34:0.26758466 35:-0.1448481 36:-0.33972426 37:-0.14227455 38:-0.40867386 39:0.425346 
0.8293324509359898 1:-0.10191467 2:0.45376661 3:0.20572462 4:-0.12337416 5:-0.39625931 6:-0.06154402 7:0.035351074 8:0.21969424 9:-0.070112234 10:0.16344472 11:0.39369609 12:-0.093242157 13:0.12357674 16:-0.40427271 17:-0.042497986 18:-0.031378098 19:-0.014550112 20:-0.1272776 21:-0.15998332 22:0.23037297 23:-0.010414771 24:-0.65247071 25:-0.37087589 26:-0.20957208 27:0.002277592 28:0.28805756 29:0.29208028 30:-0.10169787 31:-0.22373744 32:-0.12974179 33:0.011307979 34:0.4201976 35:-0.40863117 36:-0.072337896 37:-0.23017683 38:-0.30335048 39:0.28915694 
