svm_type c_svc
kernel_type rbf
gamma 0.76923
nr_class 2
total_sv 2746
rho 0.414089
label 1 -1
nr_sv 1275 1471
SV
0.8989270581275176 1:-0.088380771 2:0.30311739 3:-0.26463332 4:-0.66731662 5:-0.26406364 6:-0.059372554 7:0.111702 8:0.04348728 9:0.22822866 10:0.25751019 11:0.41661488 12:-0.017269639 13:0.49900259 16:-0.93714749 17:0.5483251 18:0.3016493 19:0.28523252 20:0.1543131 21:0.11807179 22:-0.019850066 23:0.060197096 24:-0.39320114 25:-0.42943976 26:0.14124154 27:-0.45952209 28:-0.2344479 29:0.44058453 30:-0.16869168 31:-0.33272299 32:0.066273789 33:0.069938543 34:-0.10529482 35:0.31943866 36:-0.23878414 37:-0.10561155 38:0.55367173 39:0.17039556 
4.852703487354025 1:0.020960356 2:0.6428399 3:0.17752035 4:-0.27018277 5:-0.208695 6:-0.042931141 7:0.0768292 8:0.066102635 9:-0.0075314901 10:0.033941647 11:0.31362779 12:-0.13287453 13:0.11433044 16:-0.34897866 17:-0.34906318 18:0.59954178 19:0.055561533 20:-0.11731179 21:0.063391119 22:-0.021699869 23:-0.049890364 24:-0.4787207 25:-0.18251636 26:-0.18865648 27:-0.099842651 28:0.082351827 29:0.23501484 30:-0.29283248 31:-0.17882709 32:0.012139297 33:-0.1518538 34:0.36498928 35:-0.34186951 36:-0.072415068 37:-0.053341536 38:0.055446958 39:0.24689296 
0.7090743043065128 1:0.24595961 2:0.56564741 3:0.16093559 4:-0.22131227 5:-0.34765065 6:-0.056455884 7:-0.1854627 8:-0.14399909 9:-4.2747264e-005 10:0.17944434 11:0.055264926 12:-0.48050443 13:0.046541867 16:0.90980725 17:-0.21288107 18:-0.29746195 19:0.52169763 20:-0.59647463 21:0.68614637 22:-0.49925584 23:0.16324802 24:-0.17967431 25:-0.0039194065 26:-0.63173572 27:-0.30454368 28:0.26676286 29:0.33777036 30:-0.062554467 31:-0.16301534 32:0.050926002 33:-0.10781543 34:0.26503893 35:-0.23917851 36:-0.2039955 37:-0.17485845 38:0.064914959 39:0.17977784 
1.857679391666831 1:0.24961302 2:0.63466016 3:0.068838655 4:-0.31658938 5:-0.24355789 6:-0.11232065 7:-0.25525835 8:-0.28014982 9:0.022806632 10:0.11130534 11:0.059421026 12:-0.53372277 13:0.096092691 16:0.94720293 17:-0.11833837 18:-0.15010245 19:-0.11233711 20:-0.30286614 21:0.12796822 22:-0.16672764 23:0.17239375 24:-0.23553254 25:0.30144602 26:-0.76823883 27:-0.41106332 28:0.21621816 29:0.2396571 30:-0.16526602 31:-0.17230919 32:0.1046751 33:-0.27646659 34:0.3480922 35:-0.23361457 36:-0.12543956 37:-0.41361348 38:0.51284328 39:0.10358295 
1.566288920824456 1:-0.027381554 2:0.12119904 3:0.16060713 4:0.074682631 5:-0.53523585 6:0.047788392 7:-0.3243649 8:0.07438545 9:-0.16146072 10:0.25553323 11:-0.02715894 12:-0.30420787 13:-0.062587816 16:0.75952883 17:-0.18379086 18:-0.30592888 19:0.42318703 20:-0.55230173 21:0.60501733 22:-0.40484678 23:0.1600718 24:-0.24364966 25:0.064808517 26:-0.52266914 27:-0.10428299 28:0.40568257 29:0.44923857 30:0.053239552 31:-0.10189101 32:0.072736917 33:0.037752261 34:0.27869719 35:-0.19673912 36:-0.36979224 37:-0.29509681 38:-0.59705546 39:0.124242 
0.5371654260384912 1:0.1790307 2:0.71794588 3:0.15490517 4:-0.38935706 5:-0.31483878 6:-0.084703125 7:-0.265657 8:-0.36944559 9:-0.027108889 10:0.078292945 11:0.079780919 12:-0.55682233 13:0.075377887 16:0.47353395 17:-0.038047239 18:-0.44747108 19:0.16738056 20:-0.33563743 21:0.010771411 22:-0.13548579 23:0.011440892 24:-0.21822243 25:0.099726149 26:-0.78623341 27:-0.50236537 28:0.29413883 29:0.2510431 30:-0.088566328 31:-0.13767097 32:0.16898864 33:-0.26052453 34:0.29786645 35:-0.19363438 36:-0.12403745 37:-0.34362677 38:0.47160859 39:0.18371682 
2.878370088855037 1:0.26045461 2:0.4880235 3:0.15320814 4:-0.17379548 5:-0.36887084 6:-0.11747993 7:-0.23084913 8:-0.11852909 9:-0.060576702 10:0.18612194 11:0.2003881 12:-0.23480329 13:0.26211891 16:-0.90002038 17:0.13054279 18:-0.23365306 19:0.0065804416 20:-0.29704246 21:-0.021536679 22:-0.14114639 23:-0.15087438 24:-0.13570369 25:-0.24597229 26:-0.51778236 27:-0.19841471 28:0.30750277 29:0.33800625 30:-0.13607338 31:-0.12953541 32:0.0035718307 33:-0.079538774 34:0.25952598 35:-0.17363419 36:-0.27964485 37:-0.084616354 38:-0.024140641 39:0.24206407 
1.726178408834354 1:-0.030553719 2:0.072836889 3:0.19664036 4:0.067394692 5:-0.65587185 6:0.02303643 7:-0.33103076 8:0.0596617 9:-0.22819968 10:0.26826273 11:0.091015212 12:-0.13517583 13:0.21128934 16:-0.05520648 17:0.13545693 18:-0.49820454 19:0.19714924 20:-0.27050954 21:0.16112699 22:-0.1576499 23:-0.29800738 24:-0.1538021 25:-0.22320446 26:-0.45726111 27:-0.034955233 28:0.49419101 29:0.50716181 30:0.11612848 31:-0.090124278 32:0.071680478 33:0.087217452 34:0.2705104 35:-0.19786249 36:-0.38765536 37:-0.34828917 38:-0.73406659 39:0.2355929 
2.706562100455563 1:0.29704977 2:0.27672484 3:0.16521987 4:-0.070636753 5:-0.57885219 6:-0.17969246 7:-0.2432585 8:0.0098137274 9:-0.21635301 10:0.15977588 11:0.37061939 12:0.0011927812 13:0.20505826 16:-0.38290907 17:0.24654918 18:-0.46583813 19:-0.042095298 20:-0.31883858 21:0.20892316 22:-0.1544711 23:0.053014034 24:-0.25355384 25:-0.50894658 26:-0.22534891 27:0.02661827 28:0.34124205 29:0.38706405 30:-0.073930854 31:-0.16763914 32:0.017681033 33:0.012067908 34:0.25957924 35:-0.17455064 36:-0.32498806 37:-0.20787897 38:-0.47770615 39:0.30597343 
6.587277734056252 1:0.24085655 2:0.55243937 3:0.24306027 4:-0.15078004 5:-0.43348757 6:-0.15223251 7:-0.13341307 8:-0.14259236 9:-0.2729875 10:-0.037288499 11:0.35988525 12:-0.070670881 13:0.15000755 16:-0.21484145 17:0.17799261 18:-0.37359493 19:-0.095147329 20:-0.083021693 21:-0.093958141 22:0.047622418 23:-0.39728192 24:-0.14801008 25:-0.71240779 26:-0.14230032 27:-0.084041368 28:0.28873506 29:0.30306892 30:-0.13051439 31:-0.21970298 32:-0.0076256873 33:0.027975977 34:0.20012462 35:-0.22739373 36:-0.14782825 37:-0.20027685 38:-0.30281623 39:0.25296642 
4.018074129754995 1:-0.025533265 2:0.026099992 3:0.21513096 4:0.12536177 5:-0.71236998 6:-0.12285659 7:-0.35675615 8:0.095759293 9:-0.33949947 10:0.18032127 11:0.17937159 12:0.016712136 13:-0.0060803689 16:0.074744498 17:0.16922785 18:-0.45441429 19:0.45481697 20:-0.40069606 21:0.12795496 22:-0.13462442 23:-0.01421385 24:-0.28083388 25:-0.41956941 26:-0.12597167 27:0.093523715 28:0.45600643 29:0.4724733 30:0.060776258 31:-0.099736283 32:0.060515905 33:0.061631158 34:0.26777544 35:-0.18344126 36:-0.39001249 37:-0.28682542 38:-0.7387292 39:0.28577543 
1.819564173385659 1:0.2503275 2:0.15867195 3:0.088566624 4:-0.039300125 5:-0.60369919 6:-0.24951678 7:-0.45332981 8:-0.10488908 9:-0.29941573 10:0.18568159 11:0.21102212 12:-0.11109305 13:0.057233142 16:0.25492437 17:0.34202952 18:-0.52797685 19:0.21363992 20:-0.3323606 21:0.30677925 22:-0.2709997 23:-0.13172019 24:-0.084643572 25:-0.1158102 26:-0.43644588 27:0.0062133231 28:0.37147069 29:0.38930076 30:-0.049675762 31:-0.17047896 32:-0.0026301955 33:0.029975785 34:0.25921326 35:-0.1989893 36:-0.33406301 37:-0.1518135 38:-0.52959335 39:0.12275152 
1.726220778923811 1:0.24539054 2:0.13404995 3:0.13261188 4:0.13850297 5:-0.49088792 6:-0.15581295 7:-0.44924321 8:-0.013209074 9:-0.21768421 10:0.34173684 11:0.31590115 12:-0.0086741072 13:0.023763782 16:0.092797946 17:0.32755624 18:-0.48537224 19:0.10920469 20:-0.34869509 21:-0.45479391 22:-0.011417955 23:-0.025413778 24:-0.16301863 25:0.034401147 26:-0.35706574 27:-0.011125087 28:0.36415497 29:0.38759276 30:-0.05725916 31:-0.1721515 32:-0.01108042 33:0.024513486 34:0.24418275 35:-0.1747469 36:-0.35449661 37:-0.16956767 38:-0.61231632 39:0.13352694 
1.22693068424291 1:-0.056925941 2:0.248699 3:0.13976431 4:0.082996959 5:-0.42106472 6:-0.20749364 7:-0.33103215 8:-0.0018832387 9:-0.18735307 10:0.27491386 11:0.19302651 12:-0.052108828 13:0.060557959 16:0.80450893 17:0.25879648 18:-0.61277167 19:0.35733592 20:-0.39764987 21:0.32305894 22:-0.24855075 23:-0.1025848 24:-0.084619351 25:-0.084018091 26:-0.36257301 27:-0.034285325 28:0.33988602 29:0.35759988 30:-0.088475899 31:-0.23438839 32:-0.020402183 33:-0.049267772 34:0.19949995 35:-0.13000522 36:-0.25926223 37:-0.044230288 38:-0.41512302 39:0.092456895 
0.03528835863578578 1:0.18051221 2:0.44884095 3:0.27011826 4:-0.0080925111 5:-0.41897749 6:-0.039500601 7:-0.27641667 8:-0.13465871 9:-0.14668185 10:0.38146901 11:0.4932393 12:-0.1519309 13:0.042078931 16:0.75812561 17:0.23970554 18:-0.4912667 19:0.35696773 20:-0.40873417 21:-0.31052348 22:-0.037216493 23:0.028927918 24:-0.17427342 25:0.010890393 26:-0.8890636 27:-0.032776542 28:0.38415243 29:0.40230239 30:-0.054125189 31:-0.16099351 32:-0.020893388 33:0.043125976 34:0.23895727 35:-0.14989914 36:-0.35291991 37:-0.12102858 38:-0.53838994 39:0.13049889 
2.7699124358908 1:0.26620446 2:0.54938513 3:0.25352975 4:-0.10142166 5:-0.4172702 6:-0.094522207 7:-0.21765151 8:-0.10767626 9:-0.099679045 10:0.28716964 11:0.42855757 12:-0.11841737 13:0.26088137 16:0.51560194 17:0.34866153 18:-0.4198233 19:-0.094927725 20:-0.32386901 21:0.38913384 22:-0.090851455 23:-0.25720904 24:-0.16613024 25:-0.20954612 26:-0.70400014 27:-0.059206856 28:0.3404194 29:0.35919627 30:-0.098429646 31:-0.18640193 32:0.043577116 33:-0.043214293 34:0.25077025 35:-0.19937681 36:-0.25105439 37:-0.18125275 38:-0.39711241 39:0.24876502 
1.021663592566542 1:0.25065743 2:0.29811204 3:0.23848694 4:0.078358611 5:-0.5238056 6:-0.16357651 7:-0.32903033 8:-0.019833787 9:-0.18835348 10:0.33375243 11:0.53240351 12:0.097505742 13:0.18859227 16:0.32913989 17:0.45374742 18:-0.43923082 19:0.1047581 20:-0.38003122 21:-0.18189497 22:-0.17807666 23:0.36082494 24:-0.17405514 25:-0.075375833 26:-0.5388365 27:0.046499063 28:0.37079828 29:0.38403508 30:-0.037620664 31:-0.17668859 32:0.0072881522 33:0.024262406 34:0.2531561 35:-0.23324875 36:-0.34323303 37:-0.17104011 38:-0.56452481 39:0.18757776 
2.571339318769787 1:-0.057973445 2:0.13312193 3:0.23015706 4:0.17942119 5:-0.539806 6:-0.046699429 7:-0.35750334 8:0.083421437 9:-0.22999263 10:0.29921757 11:0.21190088 12:-0.025879266 13:0.075534149 16:0.95502658 17:0.28178516 18:-0.57827141 19:0.19585752 20:-0.3775935 21:0.50610856 22:-0.13413372 23:-0.34472288 24:-0.10711297 25:-0.096667438 26:-0.59171377 27:0.057333033 28:0.42300011 29:0.42603506 30:-0.0059037678 31:-0.11733328 32:0.028894526 33:0.052186588 34:0.26141101 35:-0.17507375 36:-0.37066927 37:-0.23810447 38:-0.64914158 39:0.16749845 
3.059226121711913 1:0.23429439 2:0.49962168 3:0.24366382 4:-0.057338331 5:-0.45863209 6:-0.27912447 7:-0.36503811 8:-0.21833175 9:-0.22199584 10:0.23503351 11:0.39183494 12:-0.10191578 13:0.037789957 16:0.4178953 17:0.46922844 18:-0.57595969 19:0.1538206 20:-0.41702019 21:0.083475025 22:-0.18084652 23:0.18542375 24:-0.12238984 25:-0.50451212 26:-0.38009138 27:-0.072583455 28:0.35631211 29:0.33921726 30:-0.10844907 31:-0.1709795 32:-0.021953656 33:-0.071874232 34:0.2650908 35:-0.25380157 36:-0.26942287 37:-0.052414017 38:-0.37517136 39:0.21682167 
0.7861320569419892 1:0.2377207 2:0.81842626 3:0.42688225 4:-0.4455552 5:-0.59593869 6:-0.029457662 7:-0.13904877 8:-0.44997532 9:-0.17072447 10:0.10724642 11:0.58885216 12:-0.11985906 13:0.26982236 15:-1 16:0.91706873 17:0.58584776 18:-0.51463328 19:0.020689056 20:-0.37745697 21:-0.20022314 22:-0.023455572 23:-0.34951116 24:-0.20222635 25:-0.69874756 26:-0.62548737 27:-0.14892198 28:0.025312823 29:0.60352032 30:-0.013841048 31:-0.19372034 32:0.22794037 33:0.13177889 34:-0.093932672 35:-0.079489025 36:-0.11629725 37:-0.44460357 38:-0.34125399 39:0.33103279 
0.8602275500059405 1:0.16896754 2:0.64263632 3:0.26676962 4:-0.30892144 5:-0.60172884 6:-0.22399838 7:-0.18779695 8:-0.29477639 9:-0.27009277 10:0.025996179 11:0.51960195 12:-0.06819584 13:0.24963125 16:0.82851106 17:0.484151 18:-0.57942695 19:0.24509392 20:-0.46888825 21:-0.041061365 22:-0.033387133 23:-0.44661 24:-0.1773833 25:-0.67587981 26:-0.33818183 27:-0.20666336 28:0.43689827 29:0.31930524 30:-0.0894226 31:-0.10913662 32:0.11656292 33:-0.17195164 34:0.28941988 35:-0.12353602 36:-0.18471175 37:-0.37614205 38:-0.47819332 39:0.33720956 
1.073576839953466 1:0.23640741 2:0.62414628 3:0.31026363 4:-0.22153947 5:-0.63629853 6:-0.28901049 7:-0.2849444 8:-0.29047106 9:-0.26058642 10:0.019328056 11:0.29399361 12:-0.25741225 13:0.057835353 15:1 16:0.98698209 17:0.64716831 18:-0.61173307 19:0.12748332 20:-0.37372359 21:0.27558975 22:-0.22054166 23:-0.29639389 24:-0.12559201 25:-0.41825327 26:-0.62984079 27:-0.09062664 28:0.31672394 29:0.41057651 30:-0.0049277642 31:-0.18363821 32:0.032353606 33:0.034670003 34:0.26495648 35:-0.31586388 36:-0.25722233 37:-0.22415814 38:-0.46331978 39:0.36563493 
0.3845135179368476 1:0.18187977 2:0.44813998 3:0.18607389 4:-0.12781878 5:-0.57562915 6:-0.20441447 7:-0.24424653 8:-0.098856587 9:-0.18106125 10:0.18460277 11:0.49817014 12:0.025890082 13:0.3849596 14:1 16:-0.33642861 17:0.58341113 18:-0.63932094 19:0.32155478 20:-0.62854331 21:0.74488955 22:-0.18062264 23:-0.20053635 24:-0.16912926 25:-0.3764072 26:-0.50956227 27:-0.006512119 28:0.2800432 29:0.37893084 30:-0.034717898 31:-0.15573015 32:0.0066666684 33:-0.034829922 34:0.22619967 35:-0.14228661 36:-0.36303426 37:-0.22110314 38:-0.59439262 39:0.31152869 
0.8015107261061715 1:0.22252049 2:0.75458944 3:0.34058147 4:-0.37720214 5:-0.48748194 6:-0.028958666 7:-0.31545068 8:-0.4948115 9:-0.11629367 10:0.26841621 11:0.47959273 12:-0.17514825 13:0.348142 14:1 16:0.1278871 17:0.69408399 18:-0.74014518 19:0.21004864 20:-0.46887105 21:0.1449884 22:-0.19530031 23:0.38411233 24:-0.17114653 25:-0.29897119 26:-0.81833188 27:-0.19068305 28:0.13483512 29:0.45423674 30:0.056180609 31:-0.22069016 32:0.30146209 33:-0.091307924 34:0.1466492 35:-0.087714581 36:-0.098365915 37:-0.44963527 38:-0.23216656 39:0.18200165 
0.2211485742373306 1:0.12306083 2:0.6011005 3:0.24954982 4:-0.3395679 5:-0.56894169 6:-0.14759289 7:-0.39170917 8:-0.46709196 9:-0.20640489 10:0.21160839 11:0.50497626 12:-0.15376491 13:0.36424314 16:-0.32986501 17:0.60428848 18:-0.80136889 19:0.33047898 20:-0.60023291 21:0.22925167 22:-0.1771988 23:0.29469142 24:-0.17248283 25:-0.24286059 26:-0.84293574 27:0.0023990079 28:0.29313058 29:0.38854973 30:0.028624154 31:-0.21017216 32:0.27447648 33:-0.08717799 34:0.24270066 35:-0.2297652 36:-0.21683055 37:-0.34538581 38:-0.40061487 39:0.1949715 
1.16185235004216 1:0.24435578 2:0.47040367 3:0.25579596 4:-0.10367715 5:-0.57558431 6:-0.2208847 7:-0.28468287 8:-0.12434244 9:-0.23630611 10:0.16104632 11:0.46242673 12:-0.0046081526 13:0.28372718 14:-1 16:-0.18405084 17:0.70870212 18:-0.6789637 19:0.29097791 20:-0.60283717 21:0.42930465 22:-0.16024679 23:-0.35557746 24:-0.13171396 25:-0.37789157 26:-0.57008579 27:0.043979941 28:0.28780552 29:0.39789253 30:-0.058290049 31:-0.16491724 32:0.0018977788 33:0.047802282 34:0.17816315 35:-0.10469072 36:-0.34534386 37:-0.18401701 38:-0.57668542 39:0.30487508 
0.06627794196654378 1:0.13817588 2:0.70781716 3:0.34410944 4:-0.27795333 5:-0.54980756 6:-0.12542997 7:-0.17749575 8:-0.30461604 9:-0.1460653 10:0.24988744 11:0.58984741 12:-0.05557611 13:0.41004549 16:-0.15891389 17:0.6672447 18:-0.80100998 19:0.34911948 20:-0.71589808 21:0.4882385 22:-0.15535247 23:-0.34117629 24:-0.13110867 25:-0.37147506 26:-0.66202916 27:-0.28284465 28:0.58451002 29:0.30626332 30:-0.022013092 31:-0.12721525 32:0.099628217 33:-0.05919867 34:0.23295207 35:-0.17457307 36:-0.14893936 37:-0.35801004 38:-0.36528015 39:0.30611983 
0.6026470251197091 1:0.23909825 2:0.33548167 3:0.19301679 4:-0.027341083 5:-0.51894882 6:-0.29771411 7:-0.31314508 8:0.040897699 9:-0.2067882 10:0.051831397 11:0.45675562 12:0.30441503 13:0.31096077 14:1 16:-0.5369797 17:0.70647636 18:-0.78602043 19:0.40281425 20:-0.60329059 21:0.22589024 22:-0.059272694 23:-0.3077608 24:-0.21155445 25:-0.37405767 26:-0.01700269 27:0.46246479 28:0.031249625 29:0.36075375 30:-0.054954505 31:-0.1690129 32:0.00843099 33:0.0149859 34:0.26281004 35:-0.25171729 36:-0.30286568 37:-0.15763053 38:-0.17603943 39:0.28357633 
0.2072470412127268 1:0.23026526 2:0.77717929 3:0.36299011 4:-0.42306843 5:-0.46661251 6:-0.058594034 7:-0.15958913 8:-0.28867882 9:-0.069886218 10:-0.032793355 11:0.46774595 12:0.23716147 13:0.54572975 15:-1 16:-0.45895479 17:0.76218346 18:-0.82079781 19:0.2974178 20:-0.5339521 21:0.7894943 22:-0.1976669 23:-0.24657943 24:-0.18566805 25:-0.4835024 26:-0.62804209 27:0.16275913 28:-0.11327291 29:0.43367362 30:0.043730858 31:-0.042079244 32:0.16650904 33:-0.056070245 34:0.24564166 35:-0.22891679 36:-0.13685844 37:-0.20923999 38:-0.20701466 39:0.33662863 
1.273465700578383 1:-0.13080622 2:0.070554211 3:0.14952042 4:0.13329433 5:-0.60241004 6:-0.25750548 7:-0.42795589 8:0.12768035 9:-0.23846148 10:0.23393209 11:0.32122158 12:0.30357423 13:0.34547447 16:0.59448392 17:0.65484368 18:-0.89508931 19:0.47302027 20:-0.57722101 21:0.17723718 22:-0.12233901 23:-0.21586936 24:-0.19747966 25:-0.12218944 26:-0.04485735 27:0.19256827 28:0.2023104 29:0.37995131 30:-0.021144467 31:-0.15979586 32:0.016983824 33:0.027943442 34:0.23445215 35:-0.13359077 36:-0.35015156 37:-0.2091682 38:-0.46879509 39:0.20854735 
0.6013342821544798 1:0.21035649 2:0.70667057 3:0.24564029 4:-0.4540718 5:-0.43379513 6:-0.14957634 7:-0.27746827 8:-0.50211338 9:-0.26636108 10:-0.19390875 11:0.40557072 12:0.18814002 13:0.40646563 15:-1 16:-0.37206132 17:0.77262971 18:-0.91388574 19:0.08680132 20:-0.46457617 21:0.78884864 22:-0.078965461 23:-0.09138347 24:-0.2235055 25:-0.64503513 26:-0.65678752 27:0.5053172 28:-0.064614233 29:0.5264049 30:0.071713955 31:-0.13587419 32:0.16160328 33:-0.1604953 34:0.28407053 35:-0.23681679 36:-0.015618147 37:-0.4855248 38:0.058016915 39:0.21257936 
0.4103211752555591 1:0.09582056 2:0.39818472 3:0.23464435 4:-0.10398197 5:-0.5282386 6:-0.1485348 7:-0.2264724 8:-0.19558054 9:-0.38185651 10:0.043272125 11:0.65045499 12:0.24793175 13:0.54189032 14:1 16:0.86045046 17:0.7725203 18:-0.95867578 19:0.029796253 20:-0.50339449 21:0.90793826 22:-0.10848413 23:-0.10816266 24:-0.20877679 25:-0.56718895 26:-0.45527396 27:0.19777801 28:0.28721774 29:0.34283323 30:-0.0022422537 31:-0.19855329 32:0.032099781 33:0.020588531 34:0.23416689 35:-0.14433075 36:-0.34539387 37:-0.16518528 38:-0.48999418 39:0.22883031 
0.142117241285787 1:0.19631327 2:0.8031117 3:0.35969233 4:-0.34142097 5:-0.40362048 6:-0.027860884 7:-0.25684641 8:-0.44062109 9:-0.11450112 10:0.22650741 11:0.5942367 12:0.16133719 13:0.53306738 16:0.38892266 17:0.74636038 18:-0.85919096 19:0.21123465 20:-0.89986017 21:0.3981838 22:-0.017098285 23:-0.42583287 24:-0.063316293 25:-0.45989699 26:-0.70931129 27:-0.14640434 28:0.24693849 29:0.23194876 30:-0.10444174 31:-0.040625366 32:0.20286776 33:-0.10473458 34:0.11378217 35:-0.023709134 36:-0.0061954341 37:-0.42539526 38:-0.13945966 39:0.2642248 
0.2594118195864277 1:0.11402506 2:0.67249796 3:0.40857856 4:-0.31582501 5:-0.5958418 6:-0.061201775 7:-0.065682329 8:-0.3512489 9:-0.29000527 10:0.18310986 11:0.65301962 12:0.091049606 13:0.52697963 16:0.52182058 17:0.76844447 18:-0.8627305 19:-0.19772134 20:-0.33323843 21:0.52764954 22:-0.16118051 23:-0.0087598412 24:-0.22135674 25:-0.76574364 26:-0.2394988 27:-0.3484976 28:0.37214952 29:0.46645775 30:0.13664038 31:-0.10680745 32:0.041164749 33:-0.053405612 34:0.21807617 35:0.10539994 36:-0.26410725 37:-0.29291559 38:-0.39976982 39:0.28639147 
0.2556913081876576 1:0.2047651 2:0.74309565 3:0.34628458 4:-0.31121231 5:-0.51409573 6:-0.22073553 7:-0.0565566 8:-0.24203047 9:-0.24115871 10:-0.0072681358 11:0.6108986 12:0.22794396 13:0.44935382 16:-0.065525428 17:0.78366348 18:-0.90486638 19:0.1834902 20:-0.77210619 21:0.72322436 22:-0.26349323 23:0.19619644 24:-0.34099006 25:-0.84475353 26:-0.014453278 27:-0.030702275 28:0.16021772 29:0.29364322 30:-0.1546036 31:-0.13112418 32:0.10192283 33:-0.13930345 34:0.22352074 35:-0.043792659 36:-0.063471753 37:-0.25287403 38:-0.35617264 39:0.31409474 
0.7837756586681657 1:0.20835842 2:0.40718218 3:0.24592101 4:-0.1679743 5:-0.69318037 6:-0.32362842 7:-0.19550405 8:-0.092099235 9:-0.35088378 10:-0.11028784 11:0.40015615 12:0.16714243 13:0.5823598 16:0.51172978 17:0.6861274 18:-0.79340977 19:0.042512477 20:-0.71612239 21:0.77963076 22:-0.1965935 23:-0.32630538 24:-0.3598451 25:-0.65699543 26:-0.024591613 27:-0.10692267 28:0.41375239 29:0.40833234 30:-0.048862114 31:-0.14410465 32:-0.056314694 33:0.038712035 34:0.2957242 35:-0.28989973 36:-0.3494104 37:-0.14414554 38:-0.523197 39:0.41997836 
0.4964076304868151 1:-0.15663334 2:0.21110072 3:0.47509594 4:0.074666091 5:-0.85644943 6:-0.01635809 7:0.01227734 8:0.14766147 9:-0.41235064 10:0.14840954 11:0.63658897 12:0.25709294 13:0.24873692 16:-0.036210156 17:0.86876843 18:-0.8137523 19:0.25291116 20:-0.68076482 21:0.6695582 22:-0.3282843 23:0.53537938 24:-0.34195045 25:-0.46982741 26:-0.3254672 27:0.41248055 28:0.61999728 29:0.56837056 30:0.13394838 31:-0.050491479 32:0.099971229 33:0.059353985 34:0.27378372 35:-0.17893841 36:-0.4104929 37:-0.37343832 38:-0.86856793 39:0.29377695 
1.213040948443335 1:0.17640385 2:0.63281807 3:0.32535209 4:-0.28212648 5:-0.49443418 6:-0.091631196 7:-0.084241478 8:-0.27912898 9:-0.34085603 10:-0.050580121 11:0.64035639 12:0.077804954 13:0.42410882 16:0.77608181 17:0.56914969 18:-0.84535792 19:-0.013149354 20:-0.29057512 21:0.48161504 22:-0.23466206 23:0.53098582 24:-0.38863331 25:-0.3547685 26:-0.40724583 27:-0.14109434 28:0.24165198 29:0.38344173 30:0.027023088 31:-0.24547831 32:0.048751962 33:0.033846598 34:0.2459578 35:-0.092549333 36:-0.22459147 37:-0.26542403 38:-0.47817863 39:0.15673976 
0.3792788463270793 1:0.093897769 2:0.49554008 3:0.2898706 4:-0.14673836 5:-0.60321782 6:-0.21280414 7:-0.051831668 8:0.022147846 9:-0.22592951 10:-0.050149483 11:0.35700457 12:-0.024463121 13:0.33810607 16:-0.096864131 17:0.57527133 18:-0.81590889 19:0.52756248 20:-0.52463642 21:0.51369954 22:-0.26608021 23:0.14757898 24:-0.4412805 25:-0.39789849 26:-0.26666467 27:0.015220083 28:0.33601844 29:0.39327578 30:-0.08362865 31:-0.17271736 32:0.021465855 33:0.010039287 34:0.22181674 35:-0.20123118 36:-0.32806159 37:-0.072351746 38:-0.58490072 39:0.40330027 
0.567761606892862 1:0.19717943 2:0.7865715 3:0.37170932 4:-0.30529873 5:-0.51048759 6:-0.1565163 7:0.011150225 8:-0.14118178 9:-0.13395824 10:0.0044753441 11:0.58038732 12:0.045668719 13:0.29766356 16:-0.1824564 17:0.55280917 18:-0.70845494 19:0.16169641 20:-0.46041855 21:0.67061777 22:-0.29683416 23:0.16869097 24:-0.42311424 25:-0.38345441 26:-0.34415214 27:-0.0063730259 28:0.19604265 29:0.29830347 30:-0.041251045 31:-0.24467018 32:0.13883426 33:-0.023973024 34:0.22371818 35:-0.52128803 36:-0.0067272338 37:-0.26918544 38:-0.3065179 39:0.30454894 
0.8798056346759242 1:0.19746169 2:0.84533572 3:0.50877172 4:-0.38974617 5:-0.67058888 6:-0.14446602 7:-0.072880999 8:-0.082247978 9:0.01336069 10:-0.0060652941 11:0.30111049 12:-0.026221311 13:0.3859202 16:0.56932958 17:0.31198943 18:-0.33490957 19:0.28124046 20:-0.64407284 21:0.63432347 22:-0.49093485 23:-0.053520283 24:-0.41724858 25:-0.39000331 26:-0.19693846 27:-0.11703464 28:-0.011019443 29:0.34014994 30:-0.030015133 31:0.15375923 32:0.27198602 33:-0.09547079 34:0.098212032 35:0.030150835 36:-0.08505827 37:-0.50220769 38:-0.47554842 39:0.52651228 
0.07313325640441916 1:-0.12161576 2:0.24057339 3:0.14830625 4:-0.08990209 5:-0.58078 6:-0.21387007 7:-0.082626251 8:0.089054289 9:-0.31262386 10:-0.095091996 11:0.2860125 12:0.20753307 13:0.51393818 14:-1 16:0.10762494 17:0.65609471 18:-0.79800276 19:-0.033079055 20:-0.39932442 21:0.91967297 22:-0.28312427 23:0.23155309 24:-0.57115399 25:-0.2048389 26:-0.0013444349 27:0.014876483 28:0.33198012 29:0.36163762 30:-0.056879648 31:-0.20073771 32:-0.053004938 33:0.027592764 34:0.2695998 35:-0.23915013 36:-0.32044531 37:-0.086363985 38:-0.45966397 39:0.31686108 
0.7929906875204781 1:0.19408816 2:0.53517226 3:0.31452081 4:-0.2293555 5:-0.62146656 6:-0.11239172 7:0.05190532 8:-0.037429828 9:-0.29738612 10:-0.085480639 11:0.41924733 12:-0.037177267 13:0.26037577 14:-1 16:0.71479023 17:0.33258199 18:-0.73525366 19:0.91310624 20:-0.58383486 21:0.75397077 22:-0.45564966 23:0.27216291 24:-0.56975484 25:-0.51784981 26:-0.11928304 27:-0.092785012 28:0.3737497 29:0.34576523 30:0.025456437 31:-0.14000411 32:-0.00028269043 33:-0.0029467062 34:0.30175748 35:-0.14098014 36:-0.36588836 37:-0.19946565 38:-0.54105633 39:0.31290182 
0.296372522150654 1:0.20762957 2:0.65954883 3:0.29485324 4:-0.41802013 5:-0.62593933 6:-0.15685955 7:0.076481961 8:-0.15250869 9:-0.27679119 10:-0.22321019 11:0.42922222 12:-0.064516164 13:0.23757542 16:0.68519862 17:0.26736421 18:-0.58068862 19:0.68429353 20:-0.36658175 21:0.60044881 22:-0.4755914 23:0.50460088 24:-0.64398691 25:-0.52083534 26:-0.070693162 27:-0.098168053 28:0.15182887 29:0.31952744 30:0.24650684 31:-0.25995002 32:0.033587448 33:0.023465436 34:0.17166118 35:-0.031487471 36:-0.23986024 37:-0.28287041 38:-0.47848496 39:0.24106215 
0.2034613318634742 1:0.094290154 2:0.52458221 3:0.30900287 4:-0.32281058 5:-0.66004334 6:-0.15498159 7:0.097509455 8:-0.06067208 9:-0.32752293 10:-0.15371565 11:0.50052475 12:0.026516699 13:0.15450553 16:0.79039893 17:0.28154582 18:-0.69046067 19:0.80263161 20:-0.47242064 21:0.60846209 22:-0.4400281 23:0.55838221 24:-0.63874799 25:-0.54312728 26:0.073857727 27:-0.00097362248 28:0.22199459 29:0.38220702 30:0.19936831 31:-0.23798257 32:-0.012853483 33:0.047517244 34:0.17399476 35:-0.094281502 36:-0.20647801 37:-0.27808806 38:-0.48907916 39:0.21355517 
1.219474268165011 1:0.18788692 2:0.26169637 3:0.13441237 4:-0.051966009 5:-0.4510239 6:0.043047611 7:0.042436093 8:0.10817991 9:-0.25194578 10:-0.050599995 11:0.25641546 12:-0.064166833 13:0.17815327 16:0.4442711 17:-0.033707721 18:-0.26343868 19:0.56369468 20:-0.32551252 21:0.6936938 22:-0.5160387 23:0.7073241 24:-0.61761814 25:-0.24266481 26:-0.10656814 27:-0.05581132 28:0.35403903 29:0.36184275 30:-0.058214144 31:-0.1703516 32:-0.02395415 33:-0.0092767878 34:0.27548758 35:-0.18478223 36:-0.35795675 37:-0.18336693 38:-0.59150578 39:0.19460439 
0.6367362800348734 1:-0.15190805 2:-0.078176396 3:0.037954501 4:0.096681402 5:-0.52549444 6:0.033964989 7:-0.12010776 8:0.32651662 9:-0.16348908 10:0.19866555 11:0.13128155 12:0.058800164 13:0.17705705 14:-1 16:0.43261011 17:0.038005923 18:-0.26906409 19:0.82094615 20:-0.52247906 21:0.76486167 22:-0.40069003 23:0.56101501 24:-0.44159288 25:-0.18391936 26:-0.065844918 27:0.038316755 28:0.35329304 29:0.40623501 30:-0.026375053 31:-0.1572593 32:0.011399602 33:0.046511765 34:0.250485 35:-0.16973274 36:-0.36351797 37:-0.19697919 38:-0.55548838 39:0.17395375 
0.02976121676602092 1:0.12196702 2:0.26640192 3:0.10125721 4:-0.1156397 5:-0.55735316 6:-0.15822799 7:-0.14350341 8:0.06595712 9:-0.23741422 10:-0.022889122 11:0.16549355 12:-0.17407268 13:-0.022602793 16:-0.10803732 17:0.11248345 18:-0.49698246 19:0.75397263 20:-0.50344097 21:0.70793909 22:-0.47621997 23:0.65073861 24:-0.52724515 25:-0.34039477 26:-0.099679712 27:-0.059896427 28:0.35268991 29:0.34194334 30:-0.086162065 31:-0.19542008 32:0.010390257 33:0.035773756 34:0.21909737 35:-0.23509097 36:-0.29476427 37:-0.19852555 38:-0.4637653 39:0.25058033 
1.893537257229278 1:-0.4303796 2:0.21474815 3:0.040151928 4:-0.21747143 5:-0.4181113 6:-0.070501983 7:0.17810403 8:0.52831484 9:0.085428094 10:0.24630193 11:0.28411762 12:0.0045931254 13:0.59479304 16:0.38919533 17:0.4455741 18:0.38133101 19:0.34224774 20:-0.3917591 21:0.69644974 22:-0.62811133 23:-0.019348714 24:-0.10699779 25:-0.53173345 26:-0.080090842 27:-0.19376941 28:0.34045559 29:0.31801304 30:-0.21999885 31:-0.24244432 32:-0.055011551 33:-0.09991268 34:0.27134748 35:0.36965569 36:-0.3788997 37:-0.10881535 38:-0.31355769 39:0.45782489 
1.281084234743374 1:0.20399802 2:0.26314546 3:0.10387614 4:-0.039291908 5:-0.34481796 6:-0.19323967 7:0.041252741 8:0.53460299 9:0.078511315 10:-0.2352441 11:-0.14178285 12:-0.092813971 13:-0.049927157 16:0.54578067 17:-0.042674274 18:0.45115236 19:0.18086669 20:0.84646958 21:-0.046927898 22:-0.5410076 23:0.45399189 24:-0.66784449 25:-0.13848395 26:-0.039929761 27:0.53941364 28:-0.33470522 29:0.11739591 30:-0.080542265 31:-0.19833664 32:-0.039910232 33:0.0018668484 34:0.30377528 35:-0.13956883 36:-0.42491984 37:-0.074637176 38:0.18080175 39:0.35332533 
0.4388263197188874 1:0.16903163 2:0.46227167 3:0.14052107 4:-0.12173116 5:-0.16141775 6:-0.3870492 7:0.016925204 8:0.40968252 9:-0.023228375 10:-0.50372113 11:-0.017948405 12:0.20431124 13:0.035527323 16:0.80366814 17:-0.065567304 18:0.006270356 19:0.037147008 20:0.59930135 21:0.10566263 22:-0.72307933 23:0.37486991 24:-0.68843743 25:-0.1782992 26:-0.064884167 27:0.49355927 28:-0.43229651 29:-0.27241133 30:-0.21191526 31:-0.26749 32:0.012065613 33:-0.072260834 34:0.19245751 35:0.094395188 36:-0.33035867 37:-0.14378691 38:0.35780908 39:0.22275541 
0.2827170863696087 1:0.043986401 2:0.28284585 3:0.20516197 4:0.034197891 5:-0.34053358 6:-0.20804798 7:-0.1435922 8:0.41832807 9:-0.049769781 10:-0.26916921 11:-0.091390275 12:0.18607261 13:0.087181833 16:0.44742534 17:-0.06372452 18:0.25080517 19:0.031455159 20:0.61193612 21:-0.018710211 22:-0.41450293 23:0.19303965 24:-0.66131035 25:0.20962834 26:0.1504154 27:0.43941945 28:-0.40548381 29:0.16299945 30:-0.010107008 31:-0.19261369 32:-0.0084093464 33:0.098706007 34:0.26015486 35:-0.16758268 36:-0.2773158 37:-0.18291497 38:0.12179059 39:0.22459895 
1.09040731974394 1:0.1983717 2:0.43733845 3:0.21624399 4:-0.20475976 5:-0.42798988 6:-0.40818739 7:-0.11367424 8:0.3632203 9:-0.0048687492 10:-0.62677257 11:-0.14673627 12:0.24849117 13:0.20039524 16:0.65687677 17:-0.13412382 18:0.11665992 19:0.45592103 20:0.46555046 21:-0.049229628 22:-0.31260327 23:0.012685228 24:-0.62121749 25:-0.0073075115 26:0.23866509 27:0.43660767 28:-0.36733058 29:-0.56410029 30:0.22321921 31:-0.11493006 32:0.071956389 33:0.056469323 34:0.21931693 35:-0.1913728 36:-0.35385238 37:-0.17780983 38:0.3411203 39:0.37267526 
1.443729181437102 1:0.19860872 2:0.036928155 3:0.081466166 4:0.18805973 5:-0.48836395 6:-0.079659149 7:-0.17912351 8:0.39599948 9:-0.11381613 10:0.11849938 11:-0.013649791 12:-0.010684239 13:0.026715628 16:0.80749138 17:-0.032135054 18:0.069948248 19:0.52731223 20:-0.30631651 21:0.12723607 22:-0.46620116 23:0.40458362 24:-0.49486663 25:-0.093616726 26:-0.088584187 27:0.36900697 28:0.0028866252 29:0.36181355 30:-0.061897464 31:-0.18639289 32:0.0013563573 33:0.011990826 34:0.25480937 35:-0.21638212 36:-0.35893652 37:-0.16930467 38:-0.46309941 39:0.32269156 
0.7566346095482243 1:0.18400785 2:0.57224058 3:0.32557137 4:-0.18262071 5:-0.36161422 6:-0.44457691 7:-0.14940218 8:0.3773251 9:0.11697613 10:-0.30385742 11:0.037930885 12:0.3181655 13:0.17192408 14:-1 16:-0.30625963 17:0.15731107 18:-0.22963353 19:0.16667041 20:-0.20429532 21:-0.04125543 22:-0.35964504 23:0.032942355 24:-0.50406829 25:-0.54161102 26:0.45115614 27:0.20177082 28:-0.75202938 29:-0.14639409 30:0.0079893453 31:-0.022035571 32:-0.12517865 33:0.15114215 34:0.12838557 35:-0.053724557 36:-0.1797157 37:-0.11119623 38:0.36195955 39:0.38691276 
0.5544982437783259 1:-0.093216129 2:0.20639625 3:0.26966711 4:0.13449947 5:-0.52070958 6:-0.197708 7:-0.23867776 8:0.43202875 9:-0.013335933 10:-0.10351571 11:-0.09763543 12:0.11284459 13:0.13106077 16:0.33356334 17:0.019148998 18:-0.48794348 19:0.18895168 20:0.22016965 21:-0.2532459 22:-0.56816391 23:0.18600258 24:-0.4889759 25:-0.13504289 26:-0.058506775 27:0.33413135 28:-0.57438961 29:0.35618755 30:0.05980628 31:-0.0992186 32:0.06147138 33:0.060413549 34:0.27581326 35:-0.22296965 36:-0.35492619 37:-0.33032526 38:0.052949434 39:0.33042983 
0.7029844348298971 1:0.11804378 2:0.57993463 3:0.26601336 4:-0.12943172 5:-0.2889807 6:-0.44159645 7:-0.19251731 8:0.34336716 9:0.15254436 10:-0.24993139 11:0.059541934 12:0.1685115 13:0.16274957 15:1 16:0.49309679 17:0.16854507 18:-0.37320416 19:0.21016721 20:-0.076966237 21:-0.12166096 22:-0.43487661 23:0.054339047 24:-0.56757534 25:-0.28438128 26:0.11662593 27:0.17475112 28:-0.77495218 29:-0.1211554 30:-0.13542008 31:-0.19782367 32:0.088194413 33:-0.065515777 34:0.27953011 35:-0.14013681 36:-0.28236652 37:-0.20369131 38:0.4615559 39:0.37419665 
0.5661415684881179 1:0.25385473 2:0.70588899 3:0.36997537 4:-0.28154465 5:-0.57190484 6:-0.40263193 7:-0.053512183 8:0.21595862 9:0.15567161 10:-0.10571084 11:0.20404677 12:0.099090934 13:0.41509322 16:-0.94321916 17:0.45816555 18:-0.35702637 19:0.17732183 20:0.00025413039 21:-0.19156326 22:-0.40289656 23:-0.025204557 24:-0.49470707 25:-0.26852131 26:-0.16907135 27:0.15709293 28:-0.37192552 29:0.24479078 30:-0.20269817 31:0.078559633 32:0.065608306 33:-0.0031261955 34:0.013324207 35:-0.041278661 36:-0.17894972 37:-0.31708951 38:0.18407063 39:0.62237733 
0.2574282063324127 1:-0.076258354 2:0.54719233 3:0.415621 4:-0.026541007 5:-0.57459155 6:-0.23578699 7:-0.064905556 8:0.34744116 9:0.067908014 10:-0.023152482 11:0.27188254 12:0.040421764 13:0.17333928 16:0.93499584 17:0.3576254 18:-0.41254709 19:-0.034916092 20:0.19756024 21:-0.32366861 22:-0.4819355 23:0.12842694 24:-0.5979488 25:-0.43173609 26:-0.16420951 27:0.42844844 28:-0.44542123 29:0.30838762 30:0.0086928135 31:-0.032012488 32:0.047956408 33:-0.012088168 34:0.31516349 35:-0.2085226 36:-0.40151224 37:-0.32190411 38:-0.045891389 39:0.58348966 
0.2707494068252802 1:0.15436553 2:0.27931014 3:0.26016772 4:0.08216804 5:-0.65700972 6:-0.34484574 7:-0.24884135 8:0.30867447 9:-0.042157118 10:0.16295194 11:0.069151885 12:-0.13920591 13:0.12082329 14:1 16:-0.38851707 17:0.43970247 18:-0.37462644 19:0.29569305 20:-0.081016648 21:-0.17394504 22:-0.46415683 23:0.046415624 24:-0.41002583 25:-0.17907807 26:-0.056703548 27:0.043571154 28:0.37673982 29:0.37174644 30:-0.08137272 31:-0.19934663 32:0.028924679 33:0.0086039416 34:0.24821053 35:-0.18245327 36:-0.34341421 37:-0.19555235 38:-0.55968552 39:0.61530329 
2.318382954215206 1:0.28030618 2:0.043031542 3:0.1268749 4:0.10408683 5:-0.65037713 6:-0.31088213 7:-0.30871646 8:0.3560807 9:-0.066055308 10:0.17901125 11:-0.028867067 12:0.0063042926 13:0.22072271 16:0.78101503 17:0.72156628 18:-0.50932753 19:0.098482699 20:-0.064426686 21:-0.075400726 22:-0.20144321 23:-0.20365682 24:-0.45442543 25:0.0048872026 26:-0.064835295 27:0.081006111 28:0.29242898 29:0.38998432 30:-0.04315579 31:-0.18807023 32:0.011055202 33:0.031590687 34:0.24206391 35:-0.18562069 36:-0.33768228 37:-0.15457015 38:-0.47145222 39:0.38738848 
0.8830506302727713 1:0.24222679 2:0.18306433 3:0.18917904 4:0.14820167 5:-0.63460346 6:-0.29656429 7:-0.33302741 8:0.30337306 9:-0.069133383 10:0.28101109 11:0.19887967 12:0.15409594 13:0.33990552 16:-0.4801014 17:0.6964818 18:-0.53509976 19:0.10982464 20:0.09359325 21:-0.28882811 22:-0.21207341 23:0.011642244 24:-0.39936174 25:-0.063491726 26:-0.065377508 27:0.075729052 28:0.30753634 29:0.36708447 30:-0.062619276 31:-0.17700204 32:0.012521533 33:0.0033292404 34:0.24358785 35:-0.19617595 36:-0.37217492 37:-0.1334821 38:-0.58971554 39:0.48813084 
0.1650360219201032 1:0.24895591 2:0.69183038 3:0.17526493 4:-0.25119355 5:-0.32770922 6:-0.64585329 7:-0.035138782 8:0.15269633 9:0.061627095 10:-0.17581242 11:0.20348989 12:0.39593214 13:0.38913835 16:-0.21305141 17:0.60683413 18:-0.38291725 19:-0.028503914 20:-0.16618493 21:0.16103738 22:-0.43634992 23:-0.028820168 24:-0.59150663 25:-0.14441071 26:-0.12792782 27:0.40784243 28:-0.4431285 29:-0.069772911 30:-0.14614707 31:-0.27671998 32:-0.10543264 33:0.038273502 34:-0.23313474 35:0.060729413 36:0.040560674 37:0.10404125 38:0.26770227 39:0.4474586 
1.401595228921527 1:-0.078330039 2:-0.06777269 3:0.12489923 4:0.1414536 5:-0.69573823 6:-0.15433022 7:-0.27213085 8:0.38106715 9:-0.14333246 10:0.20640339 11:0.071413749 12:0.15340463 13:0.29346745 16:-0.47048405 17:0.81134056 18:-0.25636501 19:-0.16996796 20:-0.18978555 21:0.31009717 22:-0.48903413 23:0.065286098 24:-0.51888956 25:-0.073574768 26:-0.053361683 27:0.19542653 28:0.26192807 29:0.4138038 30:0.03323526 31:-0.13914721 32:0.066985628 33:0.037005507 34:0.27289907 35:-0.19011665 36:-0.37548044 37:-0.25198618 38:-0.61641013 39:0.28637493 
9.280353228367915 1:0.27340723 2:0.048114085 3:0.17359073 4:0.21399076 5:-0.60163423 6:-0.2866675 7:-0.38729152 8:0.36061766 9:-0.0060424746 10:0.37753499 11:0.024455767 12:-0.039168178 13:-0.020081029 16:-0.25262884 17:0.72208227 18:-0.10274826 19:0.18225439 20:-0.19446023 21:-0.26333949 22:-0.47864767 23:0.20876823 24:-0.32627882 25:-0.0036960403 26:-0.004733476 27:-0.018818681 28:0.34580658 29:0.39571477 30:-0.045054122 31:-0.17649778 32:0.018925744 33:0.00012582796 34:0.25982222 35:-0.18671511 36:-0.32307848 37:-0.16788273 38:-0.50088269 39:0.27454329 
1.120360688365672 1:-0.10091897 2:-0.20895053 3:0.1364243 4:0.40007146 5:-0.55233385 6:-0.15050776 7:-0.46570257 8:0.45448663 9:0.017107916 10:0.51718715 11:-0.039477466 12:-0.011978434 13:-0.064133158 16:-0.18657414 17:0.48682336 18:0.027502757 19:-0.095600303 20:-0.17069367 21:-0.062895085 22:-0.52915148 23:0.35435973 24:-0.11111602 25:0.036220858 26:0.0041499469 27:0.01772544 28:0.37993762 29:0.42303488 30:-0.0014915545 31:-0.1414581 32:0.049319764 33:0.031651869 34:0.26712111 35:-0.18934239 36:-0.35982149 37:-0.24194507 38:-0.59280272 39:-0.25748818 
5.371517559937926 1:0.28161489 2:0.33963471 3:0.22507342 4:0.085067165 5:-0.4651978 6:-0.25933312 7:-0.32144198 8:0.26546801 9:0.091335475 10:0.28321351 11:0.10353977 12:-0.058654215 13:0.028699082 16:-0.18984199 17:-0.035559378 18:0.09057849 19:0.42293922 20:-0.18780589 21:-0.24044706 22:-0.61950525 23:0.050657661 24:-0.28652781 25:-0.14353524 26:0.027520116 27:-0.0063309351 28:-0.20743117 29:0.33630019 30:-0.078451032 31:-0.19339633 32:0.030063683 33:0.024625019 34:0.21107394 35:-0.17694974 36:-0.32740258 37:-0.13058784 38:-0.095560612 39:0.34140657 
0.2855216550367078 1:0.26776752 2:0.51291147 3:0.1832551 4:-0.19806047 5:-0.32378001 6:-0.47068654 7:-0.32290258 8:0.2674509 9:0.21467518 10:-0.14304462 11:-0.14994525 12:0.087552971 13:0.14512436 16:-0.042148104 17:0.40004167 18:0.018255232 19:-0.09394268 20:-0.21841035 21:0.077140773 22:-0.51081044 23:0.019425191 24:-0.41845207 25:-0.30159489 26:0.235163 27:0.14429651 28:-0.86455895 29:-0.0050899742 30:0.022678953 31:-0.049046158 32:-0.14151799 33:0.023632172 34:0.2291564 35:-0.069374922 36:-0.25320128 37:-0.12450737 38:0.4404935 39:0.32678176 
11.71793186852881 1:-0.054228081 2:0.075428626 3:0.2144076 4:0.28141502 5:-0.49265864 6:-0.053322811 7:-0.336424 8:0.32695291 9:0.0005897401 10:0.46914387 11:0.082015121 12:-0.059824451 13:-0.00035561756 16:-0.24688018 17:-0.37266814 18:0.14786652 19:0.26474805 20:-0.23400948 21:-0.011201669 22:-0.63863761 23:0.014014456 24:-0.081067889 25:-0.087200359 26:-0.026748134 27:-0.29493408 28:0.59720601 29:0.4049029 30:-0.024853847 31:-0.1537197 32:0.048948876 33:0.029974549 34:0.25082148 35:-0.19148908 36:-0.35328798 37:-0.21080356 38:-0.53619897 39:0.084857053 
2.361951279368293 1:0.13732033 2:0.45284991 3:0.19046332 4:-0.0032850086 5:-0.2876753 6:-0.29751879 7:-0.22831927 8:0.30858349 9:0.16943293 10:0.11808311 11:-0.067264862 12:-0.028997578 13:0.14695221 16:-0.096494068 17:-0.099293353 18:0.13268305 19:-0.33470987 20:-0.20407258 21:0.07304286 22:-0.39553149 23:-0.091179442 24:-0.22615961 25:-0.17823657 26:0.087402431 27:0.048815801 28:-0.63178414 29:0.25380448 30:-0.085232772 31:-0.21258518 32:-0.083706938 33:-0.025884391 34:0.21545055 35:-0.080309171 36:-0.20383976 37:-0.081636417 38:0.2488109 39:0.2804382 
1.359316065961188 1:-0.064280327 2:0.49224186 3:0.20998842 4:0.050634637 5:-0.29875002 6:-0.30536043 7:-0.19065447 8:0.23785136 9:0.16972656 10:0.35261358 11:0.095886835 12:-0.03256616 13:0.1068238 16:-0.16475654 17:-0.30060679 18:0.26813419 19:0.2223663 20:-0.25545405 21:-0.14816191 22:-0.48449272 23:0.23056149 24:-0.31255343 25:-0.053272167 26:0.033394013 27:-0.17933995 28:0.075081346 29:0.24869288 30:-0.10528843 31:-0.28829236 32:0.010323842 33:-0.17653358 34:0.18428808 35:-0.056490904 36:-0.17029616 37:0.0137556 38:0.084774688 39:0.29246756 
17.6019718260534 1:0.11772046 2:0.21834501 3:0.21807709 4:0.25999151 5:-0.46636606 6:-0.15853569 7:-0.32776532 8:0.33981404 9:0.011348467 10:0.37937325 11:0.14334474 12:0.070507306 13:0.081979016 16:-0.15491576 17:-0.089384179 18:0.15903335 19:-0.087744102 20:-0.097943612 21:-0.16140271 22:-0.13432904 23:-0.071204357 24:-0.24512205 25:-0.10146392 26:-0.10894179 27:0.046552185 28:0.22214653 29:0.32476411 30:-0.0588942 31:-0.20976687 32:0.052635387 33:-0.034743481 34:0.24763231 35:-0.15919577 36:-0.3638482 37:-0.16075506 38:-0.30478246 39:0.27360395 
0.144132343392985 1:0.20506285 2:0.43705233 3:0.26644248 4:-0.0090290096 5:-0.58438584 6:-0.50799126 7:-0.27334081 8:0.30324024 9:0.02244844 10:-0.15174178 11:-0.023745202 12:0.076509966 13:0.23422231 14:1 16:-0.15097615 17:0.68662216 18:-0.13389697 19:0.3023276 20:-0.23969267 21:0.13904159 22:-0.5850772 23:-0.10443148 24:-0.55875993 25:-0.19369256 26:0.16045188 27:0.16836072 28:-0.30836866 29:0.27869881 30:-0.064000574 31:-0.23769923 32:0.064876512 33:0.013735619 34:0.1789049 35:-0.14038363 36:-0.36197872 37:-0.094370535 38:0.048292822 39:0.51150805 
3.416628986965669 1:-0.138941 2:0.0710166 3:0.24955546 4:0.33969837 5:-0.51864676 6:-0.19146046 7:-0.37880953 8:0.44348229 9:0.044887325 10:0.39896947 11:0.0059693455 12:0.034154285 13:0.056583813 16:-0.1993685 17:0.018307196 18:0.15442978 19:-0.0087453516 20:-0.27761967 21:0.019386516 22:-0.56545827 23:0.024929141 24:-0.12168925 25:-0.016543664 26:-0.068410734 27:0.18141017 28:0.11288928 29:0.39389267 30:-0.035114849 31:-0.16373934 32:0.060213063 33:0.0034197391 34:0.26895651 35:-0.2011376 36:-0.3239632 37:-0.22822146 38:-0.4562178 39:0.11565991 
0.08255690065983082 1:0.19997878 2:0.44353103 3:0.21637364 4:-0.067699821 5:-0.51615029 6:-0.74824457 7:-0.4500494 8:0.22379792 9:-0.010355495 10:-0.14022944 11:0.1229239 12:0.053877146 13:-0.10414855 16:-0.18694604 17:0.78451312 18:-0.24217621 19:0.25950277 20:-0.31409664 21:-0.58649875 22:-0.16529535 23:-0.022057533 24:-0.44409289 25:-0.41000481 26:0.22443903 27:0.20133393 28:-0.27187715 29:0.052545465 30:-0.19106142 31:-0.28809074 32:0.0071499374 33:0.019599445 34:0.26030641 35:-0.19025583 36:-0.37059278 37:0.037306811 38:0.25351981 39:0.48078469 
0.4903268641400856 1:0.23114314 2:0.21095983 3:0.12173023 4:-0.081097023 5:-0.64856847 6:-0.54121711 7:-0.3706624 8:0.34855382 9:0.01690969 10:-0.1381813 11:-0.1580374 12:0.041556548 13:0.025026191 16:-0.39532117 17:0.78024851 18:-0.26634756 19:0.41097757 20:-0.28615355 21:0.018748485 22:-0.43187481 23:-0.076640225 24:-0.53499569 25:0.21221749 26:-0.017985378 27:0.2432521 28:-0.55487842 29:0.28110912 30:0.0070260861 31:-0.18474333 32:0.042649921 33:-0.0053507664 34:0.26313919 35:-0.15126904 36:-0.37269949 37:-0.12589111 38:0.091923796 39:0.40851484 
0.3225514363584686 1:-0.19620908 2:0.070454544 3:0.21512089 4:0.18789663 5:-0.68125359 6:-0.45806684 7:-0.55229435 8:0.32558454 9:-0.08435873 10:0.12705789 11:0.090919572 12:0.20477125 13:-0.061064856 16:-0.22587162 17:0.85475308 18:-0.23365721 19:0.17650561 20:-0.34841223 21:-0.31730502 22:-0.16456518 23:-0.053092269 24:-0.32687955 25:-0.37552286 26:0.16504262 27:0.26695517 28:0.043683437 29:0.20481425 30:-0.014151541 31:-0.096316096 32:0.061839465 33:0.064307747 34:0.24651309 35:-0.19216331 36:-0.3366046 37:-0.34897031 38:-0.17305346 39:0.23009839 
0.2634597937183697 1:0.11519407 2:0.035869152 3:0.049249879 4:0.020356468 5:-0.65912303 6:-0.41560127 7:-0.37790995 8:0.4218586 9:0.049333632 10:0.15983874 11:-0.022614127 12:0.14504269 13:0.2217115 16:-0.54992229 17:0.82644868 18:-0.59179155 19:0.55716015 20:-0.24635401 21:-0.048767588 22:-0.39306094 23:-0.079548431 24:-0.40346173 25:0.14602531 26:0.012484181 27:0.21611115 28:-0.31139849 29:0.38514191 30:-0.021374601 31:-0.19406087 32:0.062380456 33:-0.019268855 34:0.26354979 35:-0.15331193 36:-0.36591543 37:-0.11471064 38:-0.27519638 39:0.37682892 
0.06579495616247194 1:0.28379463 2:0.55028298 3:0.22480106 4:-0.27959516 5:-0.45153465 6:-0.66681122 7:-0.23524412 8:0.34887107 9:0.18043081 10:-0.36309599 11:0.12130999 12:0.42206503 13:0.13458837 16:0.28446955 17:0.5481371 18:-0.18592174 19:0.48555404 20:-0.33532491 21:0.054018545 22:-0.41864587 23:-0.0074574914 24:-0.54400739 25:-0.056763255 26:0.27404568 27:0.23839861 28:-0.69975625 29:-0.39283484 30:0.010526385 31:-0.13258674 32:0.026842484 33:0.084589068 34:0.12665112 35:-0.18751136 36:-0.23704498 37:-0.053256326 38:0.42996257 39:0.40674591 
0.2559004163922488 1:-0.13055686 2:0.47725955 3:0.14811835 4:-0.092307417 5:-0.44443827 6:-0.7463593 7:-0.31534038 8:0.17490661 9:0.057906143 10:-0.16504745 11:-0.21619902 12:-0.038443052 13:-0.064443875 16:-0.16153333 17:0.85256544 18:-0.61985419 19:0.65673091 20:-0.24480148 21:-0.087649218 22:-0.54082388 23:0.08657729 24:-0.48870613 25:0.16255412 26:0.11029462 27:0.180523 28:-0.40200222 29:0.067719601 30:-0.08674501 31:-0.29126252 32:-0.093672722 33:-0.03536901 34:0.022644815 35:-0.059927331 36:-0.096862999 37:0.032575971 38:0.26651066 39:0.45292789 
0.6708603570989418 1:-0.13657564 2:0.46076303 3:0.27777059 4:-0.24259905 5:-0.51598648 6:-0.44546034 7:-0.35708466 8:0.42488267 9:0.23265214 10:-0.37454451 11:0.045117325 12:0.42817074 13:0.41109278 16:0.2714983 17:0.70681003 18:-0.33315341 19:0.37420425 20:-0.21209442 21:0.16299338 22:-0.48211463 23:-0.19176591 24:-0.476839 25:-0.14799043 26:0.55136129 27:0.32710097 28:-0.43359491 29:-0.890008 30:0.49912026 31:0.032744545 32:0.083741194 33:0.26175739 34:0.21312607 35:-0.067725221 36:-0.49094402 37:-0.39495443 38:0.3932261 39:0.45335764 
0.2822526229167642 1:0.26131791 2:0.36058638 3:0.22302252 4:-0.077116812 5:-0.56861278 6:-0.4945726 7:-0.21490769 8:0.42145653 9:0.12711136 10:-0.19260327 11:-0.08718509 12:0.1595117 13:0.36057155 15:1 16:0.41324121 17:0.44942078 18:-0.61691194 19:0.29560532 20:-0.28152132 21:0.2522431 22:-0.36695456 23:-0.22238728 24:-0.52569701 25:0.041587753 26:0.22435063 27:0.28471313 28:-0.59506338 29:0.19690978 30:-0.0037770566 31:-0.12477161 32:-0.0072633348 33:0.005924724 34:0.2607977 35:-0.169878 36:-0.35665301 37:-0.14782393 38:0.21250075 39:0.47150094 
0.5174535041986363 1:0.13091346 2:0.45048191 3:0.17655059 4:-0.13802236 5:-0.53485588 6:-0.58734469 7:-0.13863524 8:0.38053352 9:0.099653327 10:-0.24965277 11:0.14020501 12:0.24775051 13:0.48073487 15:-1 16:0.27231012 17:0.57832155 18:-0.65042139 19:0.026242575 20:-0.14922845 21:0.1999886 22:-0.44564876 23:-0.0018871641 24:-0.47174596 25:0.29395741 26:0.092054746 27:0.40814215 28:-0.31608245 29:0.059848891 30:-0.19067288 31:-0.15347842 32:-0.044431965 33:-0.01407106 34:0.27549642 35:-0.23304012 36:-0.33725249 37:-0.24052191 38:0.32272215 39:0.4743674 
0.2357723592444072 1:0.18202155 2:0.51920054 3:0.14878851 4:-0.28515345 5:-0.39813468 6:-0.68201429 7:-0.31533464 8:0.28143418 9:0.07443699 10:-0.46391591 11:-0.12153068 12:0.16938313 13:0.20069284 16:0.1682511 17:0.32420848 18:-0.81702635 19:0.25157052 20:0.013445928 21:0.053878682 22:-0.42637818 23:-0.28335969 24:-0.43119195 25:0.028794368 26:0.091995864 27:0.46082278 28:-0.42474613 29:-0.39397485 30:-0.16605718 31:-0.1078215 32:-0.074977896 33:0.09827757 34:0.064474459 35:0.24441437 36:-0.33012217 37:-0.18125215 38:0.35979214 39:0.42104841 
0.4073041844002268 1:-0.19528044 2:0.028887702 3:0.28119013 4:0.21268708 5:-0.7327254 6:-0.27669111 7:-0.26505462 8:0.5326655 9:-0.066843874 10:-0.048561232 11:-0.17502702 12:0.1291828 13:0.31411744 16:0.30047258 17:0.35546107 18:-0.91694001 19:0.1109308 20:0.016042611 21:-0.058187427 22:-0.41165662 23:-0.14535717 24:-0.37341181 25:0.10287457 26:0.11619657 27:0.43059012 28:-0.15123324 29:0.47424204 30:0.11247324 31:-0.10262222 32:0.077659237 33:0.054399514 34:0.30043996 35:-0.25256679 36:-0.39018554 37:-0.30807114 38:-0.45648438 39:0.42439036 
0.7912870949811744 1:0.13145228 2:0.29573186 3:0.14246529 4:-0.17670214 5:-0.61115183 6:-0.4564796 7:-0.19371517 8:0.30739261 9:0.038651604 10:-0.3006243 11:-0.27847284 12:-0.12726182 13:0.36694561 16:0.76237558 17:0.24618929 18:-0.85547931 19:0.82502492 20:0.015763712 21:0.097787147 22:-0.3199294 23:-0.28012421 24:-0.37897143 25:-0.010288379 26:0.16820385 27:0.22894566 28:-0.2313865 29:0.39757709 30:0.02166572 31:-0.14729902 32:0.018296669 33:0.0026565017 34:0.20471481 35:-0.17445547 36:-0.2943224 37:-0.21800499 38:-0.026794084 39:0.51630255 
0.1174769702418959 1:0.14726017 2:0.29238882 3:0.15793843 4:-0.014603843 5:-0.39067132 6:-0.34479144 7:-0.17884634 8:0.42906613 9:0.0097501971 10:-0.29883443 11:-0.048819775 12:0.23375885 13:0.22550136 16:-0.068759183 17:0.14034787 18:-0.43112156 19:0.76990231 20:0.11614398 21:-0.21408839 22:-0.23165029 23:-0.18505591 24:-0.41652206 25:-0.0094865373 26:0.20189298 27:0.41750867 28:-0.44067405 29:0.11023063 30:-0.073245142 31:-0.17679551 32:0.0081561975 33:0.044456051 34:0.26072118 35:-0.15603753 36:-0.39257151 37:-0.11251037 38:0.26219433 39:0.22210642 
1.510186217700653 1:0.1236797 2:0.4063527 3:0.22547265 4:-0.052126451 5:-0.42071115 6:-0.38303294 7:-0.13135261 8:0.42349905 9:0.039391728 10:-0.35202687 11:-0.17330999 12:0.070109705 13:0.22650414 16:0.33354558 17:-0.0029424554 18:-0.21661344 19:0.41170889 20:0.11781174 21:-0.64219368 22:0.040350582 23:-0.70641311 24:-0.30026878 25:-0.72717786 26:0.5824115 27:0.23404231 28:-0.45956045 29:0.19990951 30:-0.074154415 31:-0.18933596 32:-0.057389499 33:0.11201172 34:0.22433816 35:-0.24784337 36:-0.23575366 37:-0.22151239 38:0.31297921 39:0.40409316 
0.9701570417453738 1:-0.0076704396 2:0.30667506 3:0.2159888 4:0.050132641 5:-0.44757214 6:-0.31117451 7:-0.11640235 8:0.4609036 9:-0.0108534 10:-0.29235123 11:-0.20729883 12:0.030949578 13:0.21429145 14:1 16:0.1248204 17:0.00082791008 18:-0.28967149 19:0.5874595 20:0.21748129 21:-0.73217512 22:0.031960776 23:-0.64966948 24:-0.36020723 25:-0.50207786 26:0.34084946 27:0.2458693 28:-0.32720669 29:0.26771175 30:-0.058794205 31:-0.20878082 32:-0.064222213 33:0.11923201 34:0.23408041 35:-0.27401188 36:-0.26582292 37:-0.23882037 38:0.21630995 39:0.36199559 
0.8293797299599462 1:0.13158153 2:0.26971489 3:0.19271404 4:-0.067051187 5:-0.55537993 6:-0.20772205 7:-0.03422306 8:0.34588922 9:-0.12183475 10:-0.26373183 11:-0.081270654 12:0.012094215 13:0.24826337 14:-1 16:0.5193629 17:-0.15862852 18:-0.069293728 19:0.66325877 20:0.17927751 21:-0.42901674 22:-0.11499719 23:-0.34314609 24:-0.36438891 25:-0.39145009 26:0.34283275 27:0.1912486 28:-0.093646586 29:0.42611647 30:-0.024270382 31:-0.16686731 32:0.02354951 33:0.03129548 34:0.2670001 35:-0.16399743 36:-0.3527973 37:-0.19614142 38:-0.16563128 39:0.40562241 
0.9771194639860455 1:0.075227646 2:0.20090345 3:0.20943977 4:0.091303279 5:-0.56230571 6:-0.14407437 7:-0.12335542 8:0.3734542 9:-0.093331769 10:-0.024660401 11:-0.20716134 12:-0.16210751 13:-0.016961592 15:-1 16:0.72362732 17:-0.26504672 18:-0.073486061 19:0.66061164 20:0.10996981 21:-0.62767151 22:0.061632251 23:-0.41279972 24:-0.74688273 25:0.083236172 26:0.0025378658 27:0.0669593 28:0.063141446 29:0.43808657 30:-0.0067558781 31:-0.16334901 32:0.020557273 33:0.0056891581 34:0.26863658 35:-0.19791861 36:-0.37549494 37:-0.10192883 38:-0.47441142 39:0.45100883 
2.166971425191623 1:-0.80471989 2:0.098147416 3:0.25621435 4:0.24338533 5:-0.35665517 6:0.11959743 7:-0.20643143 8:0.43507084 9:0.088149801 10:0.38590096 11:0.10466622 12:0.011411746 13:-0.12431641 14:-1 16:-0.69034787 17:-0.10682602 18:0.55853074 19:-0.01239356 20:-0.37060941 21:0.098610823 22:-0.10489673 23:-0.40891297 24:-0.0076901825 25:-0.18551837 26:-0.24148464 27:-0.01246271 28:0.44563874 29:0.20069665 30:0.06244994 31:-0.091155682 32:-0.12073823 33:0.22705273 34:0.27798283 35:-0.31118363 36:-0.37778753 37:0.21475916 38:-0.53795169 39:0.02553915 
4.450796938414769 1:0.041592795 2:0.068245563 3:0.32316206 4:0.52563015 5:-0.37037544 6:-0.12105809 7:-0.57047657 8:0.038474774 9:-0.43778356 10:0.082149027 11:0.0086339315 12:0.28284788 13:0.3250039 16:-0.064764326 17:0.17954476 18:-0.1760446 19:-0.67158714 20:-0.22156974 21:-0.39777601 22:0.16876264 23:-0.55912679 24:-0.10075804 25:0.071394965 26:-0.042443056 27:0.02018298 28:0.38600503 29:0.38563378 30:-0.053411121 31:-0.16788766 32:-0.021910119 33:0.061845095 34:0.24538272 35:-0.19698683 36:-0.33508062 37:-0.17611737 38:-0.5785385 39:0.11283996 
1.836716519149197 1:0.19787871 2:0.45396381 3:0.5403239 4:0.35737918 5:-0.4150477 6:-0.12406224 7:-0.3081739 8:-0.064006759 9:-0.48640864 10:-0.1284399 11:0.20207228 12:0.3065961 13:0.40834712 16:0.45177944 17:0.019740507 18:-0.25540671 19:-0.93572826 20:-0.18423525 21:0.26179844 22:0.032611734 23:-0.04286506 24:-0.78451003 25:-0.31411595 26:-0.036013923 27:0.09177504 28:0.38780142 29:0.37532867 30:-0.036445723 31:-0.19474888 32:0.073422961 33:-0.010639141 34:0.23353449 35:-0.1635977 36:-0.28197512 37:-0.22346844 38:-0.55053294 39:0.47479192 
4.131763809351758 1:0.19492884 2:0.10318733 3:0.26913014 4:0.31443619 5:-0.44098985 6:-0.1094276 7:-0.40565051 8:-0.025207403 9:-0.48006557 10:0.03307855 11:0.29901673 12:0.42400125 13:0.47179473 16:0.34531606 17:0.0060300888 18:0.25540787 19:-0.73603857 20:-0.54277804 21:-0.046046101 22:0.10034881 23:-0.012111411 24:-0.73362917 25:-0.077591636 26:0.016717193 27:0.028242244 28:0.39087081 29:0.39323831 30:-0.037621282 31:-0.17892401 32:-0.0025245634 33:0.041462525 34:0.23620402 35:-0.17595622 36:-0.32579879 37:-0.16734401 38:-0.57695875 39:0.23419374 
1.750163448944009 1:-0.11186748 2:0.073685701 3:0.46857273 4:0.55162772 5:-0.53503071 6:-0.11847778 7:-0.56880802 8:0.023042194 9:-0.54888763 10:0.002300659 11:0.082114322 12:0.36535059 13:0.37035168 16:0.38197761 17:0.25005997 18:-0.34782169 19:-0.91601848 20:-0.11716499 21:0.22417455 22:0.019328084 23:0.070995429 24:-0.83473705 25:0.049255864 26:0.091357221 27:0.072785206 28:0.45392039 29:0.45781133 30:0.043016895 31:-0.09387949 32:0.043910121 33:0.075535027 34:0.27000093 35:-0.19223147 36:-0.39564474 37:-0.2834307 38:-0.7185272 39:0.32230562 
0.8427277052733776 1:0.14168688 2:0.31279958 3:0.39805436 4:0.23142503 5:-0.41024123 6:-0.055704464 7:-0.20379876 8:-0.10557758 9:-0.55350897 10:-0.1348926 11:0.47242462 12:0.52796856 13:0.70373581 15:-1 16:0.89829401 17:0.10120643 18:-0.11319286 19:-0.85694298 20:-0.60997491 21:0.61350412 22:0.046161819 23:0.025720457 24:-0.83262471 25:-0.27075706 26:0.060243476 27:0.048925464 28:0.3751821 29:0.39531193 30:-0.03555845 31:-0.17613817 32:0.0001607058 33:0.015550336 34:0.23837461 35:-0.14243174 36:-0.30171502 37:-0.17793279 38:-0.54571329 39:0.29839697 
1.684593650679917 1:0.23039707 2:0.50017306 3:0.31571762 4:-0.14295721 5:-0.61253861 6:-0.30959589 7:-0.30221987 8:-0.41614595 9:-0.60945755 10:-0.33597602 11:0.31414121 12:0.12748588 13:0.3459037 14:-1 16:-0.80392334 17:0.14727243 18:0.027750652 19:-0.87852278 20:-0.56722087 21:0.45559304 22:0.092535945 23:0.0029868615 24:-0.76472753 25:-0.33143428 26:-0.18330194 27:0.028033 28:0.31703172 29:0.36031681 30:-0.05477366 31:-0.11571652 32:-0.0026995517 33:-0.019457999 34:0.25682632 35:-0.28182561 36:-0.18797192 37:-0.22951426 38:-0.48345201 39:0.32315569 
1.64774128696073 1:0.23628922 2:0.58293697 3:0.27250347 4:-0.11100052 5:-0.54402665 6:-0.27293886 7:-0.26050733 8:-0.20956525 9:-0.30775509 10:-0.073507706 11:0.51443214 12:0.29978251 13:0.7812406 16:-0.37501593 17:0.43251763 18:-0.094754234 19:-0.792201 20:-0.43264584 21:0.27002885 22:-0.025856856 23:-0.10026924 24:-0.62515638 25:-0.23701123 26:-0.1562083 27:-0.14709086 28:0.26003629 29:0.35149881 30:-0.14021447 31:-0.1393707 32:0.032094473 33:-0.032678385 34:0.25007576 35:-0.44466974 36:-0.16921875 37:-0.31786622 38:-0.519839 39:0.40742039 
0.6488820718677162 1:0.30911797 2:0.80229915 3:0.39255605 4:-0.32259873 5:-0.30779661 6:-0.29510346 7:-0.16907153 8:-0.32508556 9:-0.13902989 10:-0.37268309 11:0.400957 12:0.93907753 13:0.68930731 16:0.33737462 17:0.81695975 18:-0.2020535 19:-0.9013915 20:-0.1321681 21:-0.14275303 22:0.0026802158 23:-0.02970008 24:-0.86343678 25:-0.500201 26:-0.068237108 27:0.40398782 28:-0.53829645 29:-0.55863709 30:0.019552396 31:0.21049174 32:0.078654139 33:-0.15332859 34:0.10366408 35:-0.098786577 36:0.15139598 37:-0.37019822 38:0.35161114 39:0.3569885 
0.304372759670385 1:-0.083044485 2:0.5214874 3:0.30934343 4:0.029683141 5:-0.3542152 6:-0.4273547 7:-0.1054761 8:-0.011982859 9:-0.2962455 10:-0.23196312 11:0.4541888 12:0.71785174 13:0.77019852 16:0.67061827 17:0.75008242 18:-0.30887486 19:-0.88024959 20:-0.49560054 21:0.24753036 22:-0.012982608 23:-0.216408 24:-0.75489616 25:-0.48457969 26:0.057946156 27:0.45728035 28:-0.30542511 29:0.17735196 30:-0.14447447 31:-0.23924989 32:0.022098961 33:-0.17229439 34:0.19016411 35:-0.27822116 36:0.024202681 37:-0.021177247 38:-0.01617901 39:0.3843974 
0.6764687095196262 1:0.18340139 2:0.35669294 3:0.3386368 4:0.066580741 5:-0.53314363 6:-0.22782712 7:-0.21668158 8:-0.11170824 9:-0.44666182 10:-0.16000614 11:0.61938185 12:0.67389926 13:0.84260013 16:0.5662178 17:0.83846535 18:-0.22997821 19:-0.97215748 20:-0.00041478072 21:-0.25832537 22:-0.047204789 23:0.030930496 24:-0.92876244 25:-0.4505319 26:0.078185342 27:0.25562474 28:0.033471681 29:0.37945155 30:-0.02540825 31:-0.12659089 32:0.028793962 33:-0.022056562 34:0.19844866 35:-0.1658302 36:-0.31507243 37:-0.16864967 38:-0.40607 39:0.34313977 
0.05416837182557203 1:0.35818323 2:0.10204615 3:0.16676574 4:0.19534143 5:-0.52036642 6:-0.21808255 7:-0.37412382 8:0.098499097 9:-0.33197304 10:0.12424079 11:0.47659451 12:0.57681606 13:0.65817618 14:1 16:-0.75949151 17:0.75718753 18:-0.44611827 19:-0.42902261 20:-0.47710212 21:0.48592388 22:-0.20037617 23:0.26836103 24:-0.80674006 25:0.066560477 26:-0.10242508 27:0.36032234 28:0.024202582 29:0.36983573 30:-0.068885705 31:-0.15877373 32:-0.032626552 33:0.019692208 34:0.24144802 35:-0.17523285 36:-0.33776576 37:-0.20942541 38:-0.43756192 39:0.31641142 
0.8074525587269945 1:0.36794108 2:0.13584568 3:0.17761032 4:0.097839089 5:-0.58567307 6:-0.36698104 7:-0.41338097 8:-0.011218287 9:-0.48350328 10:-0.23918591 11:0.12136369 12:0.35045982 13:0.44160779 16:-0.074140769 17:0.68375272 18:-0.60472179 19:0.090648988 20:-0.6572221 21:0.49666639 22:-0.17231842 23:0.079704757 24:-0.77872178 25:0.014621585 26:0.0049439181 27:0.26761114 28:0.15178919 29:0.2890101 30:-0.085948614 31:-0.20509148 32:0.04544643 33:0.0033235322 34:0.22478992 35:-0.17852646 36:-0.29651137 37:-0.16287534 38:-0.37206796 39:0.28772584 
0.8539237829717998 1:0.069515032 2:0.028327795 3:0.20910652 4:0.24063293 5:-0.61008831 6:-0.24899686 7:-0.43331212 8:0.10320126 9:-0.43319286 10:-0.016385225 11:0.055939823 12:0.21968992 13:0.21335102 14:1 16:-0.010631065 17:0.55601456 18:-0.39618937 19:-0.056515911 20:-0.53185643 21:0.30585533 22:-0.10231189 23:-0.033034901 24:-0.62057847 25:0.053564784 26:-0.032598312 27:0.14990357 28:0.43389017 29:0.33935742 30:-0.047178903 31:-0.16833934 32:0.038888458 33:0.030302925 34:0.24459116 35:-0.17961661 36:-0.34139284 37:-0.19827206 38:-0.56050456 39:0.19763613 
0.01351879632629432 1:0.27302254 2:0.17868405 3:0.25671886 4:0.2368948 5:-0.54529863 6:-0.36202677 7:-0.45224311 8:0.051766829 9:-0.42724891 10:-0.15388404 11:0.17374793 12:0.4017737 13:0.47299475 14:1 16:-0.0022316103 17:0.64858869 18:-0.48998083 19:-0.025020834 20:-0.70279904 21:0.35275737 22:-0.10103946 23:-0.066491633 24:-0.77397697 25:-0.16468957 26:-0.096277062 27:0.51497831 28:-0.19391148 29:0.39482295 30:-0.060429783 31:-0.15848076 32:-0.043733265 33:0.0065412992 34:0.25571226 35:-0.15383387 36:-0.34207615 37:-0.23369854 38:-0.35716593 39:0.36188987 
0.2431053115284154 1:0.36829987 2:0.47676653 3:0.27345314 4:-0.0048778771 5:-0.311412 6:-0.2935602 7:-0.33376504 8:-0.067172552 9:-0.20902808 10:-0.23159411 11:0.30117079 12:0.65832412 13:0.92320348 16:0.32581876 17:0.68744738 18:-0.54192127 19:0.13377575 20:-0.65023483 21:0.46436435 22:-0.082864339 23:-0.10115298 24:-0.76605486 25:-0.23266136 26:-0.062576765 27:0.16696184 28:-0.65901327 29:0.30573201 30:-0.051866966 31:-0.30565142 32:0.22519928 33:-0.15360758 34:0.20516183 35:-0.16969578 36:-0.19425065 37:-0.26378359 38:0.28998582 39:0.35420671 
0.2474297781185809 1:0.35845776 2:0.37617138 3:0.28595309 4:0.072204066 5:-0.45220603 6:-0.19558881 7:-0.23519987 8:-0.04332961 9:-0.34971058 10:-0.010749324 11:0.44880774 12:0.45271257 13:0.76868707 16:-0.84376659 17:0.80982783 18:-0.45792027 19:0.020277281 20:-0.27664495 21:0.46231125 22:-0.10048561 23:0.0050050908 24:-0.76216379 25:-0.19887651 26:-0.098648985 27:0.012869462 28:0.29476489 29:0.33428813 30:-0.10094804 31:-0.21828595 32:0.053262187 33:-0.049150214 34:0.23303951 35:-0.1268444 36:-0.31224629 37:-0.13723479 38:-0.38430212 39:0.3677128 
1.501663064810618 1:0.010633701 2:-0.11277247 3:0.33903171 4:0.43513146 5:-0.68152138 6:-0.14339218 7:-0.42434655 8:0.2337678 9:-0.448415 10:0.064104503 11:0.16880047 12:0.58752918 13:0.65524772 16:0.79101731 17:0.64024768 18:-0.27149764 19:-0.58481578 20:-0.039661838 21:0.52310934 22:-0.062618604 23:-0.12036279 24:-0.85518616 25:0.22140341 26:0.093846561 27:0.17392118 28:0.45136815 29:0.48561644 30:0.067326792 31:-0.092678059 32:0.073176516 33:0.061530852 34:0.26970291 35:-0.19181844 36:-0.38535876 37:-0.30625635 38:-0.77445646 39:0.23281883 
1.130704057679897 1:0.23350714 2:0.70959741 3:0.33878906 4:-0.1774304 5:-0.25187868 6:-0.6998652 7:-0.26185151 8:0.0069253867 9:-0.093765327 10:-0.61412836 11:0.10152113 12:0.98218438 13:0.69586674 14:-1 16:-0.021530455 17:0.74630358 18:-0.25138349 19:-0.49527383 20:-0.064056732 21:0.62903419 22:0.010338341 23:-0.37881803 24:-0.90427902 25:-0.24737256 26:0.6146646 27:0.38343664 28:-0.50145011 29:-0.53346239 30:-0.36662779 31:0.16500122 32:0.060991839 33:-0.18455606 34:0.102917 35:-0.058948137 36:0.24816833 37:-0.33364046 38:0.38115967 39:0.43210732 
0.7901493000125005 1:0.2971926 2:0.78623399 3:0.31415402 4:-0.23544773 5:-0.12302057 6:-0.40658186 7:-0.18221498 8:-0.13346585 9:-0.055297379 10:-0.35964398 11:0.25605353 12:0.80241226 13:0.55121976 14:1 16:0.29254905 17:0.60342421 18:-0.19471213 19:-0.16417822 20:0.010290261 21:0.3304633 22:0.081214374 23:-0.023842271 24:-0.88189163 25:-0.27104131 26:0.46627405 27:0.13837911 28:-0.48261229 29:-0.45367353 30:-0.21044429 31:0.068856629 32:0.03236552 33:-0.055263771 34:-0.019026464 35:0.047407235 36:0.036845239 37:-0.1878051 38:0.41335086 39:0.30753244 
0.319866052146853 1:0.23582751 2:0.57447679 3:0.32417025 4:-0.112697 5:-0.35145125 6:-0.33643776 7:-0.30437084 8:-0.14933808 9:-0.21505913 10:-0.31488327 11:0.35793817 12:0.71495685 13:0.84060784 14:-1 16:0.50798526 17:0.58887381 18:-0.17945947 19:-0.52795905 20:-0.11317992 21:0.48708623 22:0.10385059 23:-0.013569737 24:-0.9049529 25:-0.1915589 26:0.42082262 27:0.1401875 28:-0.48031089 29:0.38327763 30:-0.028181743 31:-0.093666244 32:0.011840799 33:0.035892164 34:0.18184557 35:-0.14724324 36:-0.24278942 37:-0.16281766 38:0.25565314 39:0.32073782 
0.5112271738244861 1:0.27991496 2:0.08911855 3:0.17794131 4:0.23922916 5:-0.48224046 6:-0.23229172 7:-0.50168499 8:-0.0027967341 9:-0.40575867 10:-0.064868134 11:0.06552371 12:0.36835111 13:0.65717544 14:-1 16:0.75724897 17:0.63582036 18:-0.27186954 19:-0.27766308 20:-0.21164917 21:0.68496382 22:-0.056414242 23:-0.24201166 24:-0.36128892 25:-0.023002817 26:0.058595316 27:0.025136467 28:0.12611197 29:0.38973675 30:-0.038155508 31:-0.17190036 32:-0.013165447 33:0.024735705 34:0.24881779 35:-0.20362506 36:-0.33958212 37:-0.18219819 38:-0.41540833 39:0.32241207 
3.182459718437959 1:0.25998287 2:0.32001542 3:0.34018926 4:0.18902801 5:-0.53740914 6:-0.29252707 7:-0.48320737 8:-0.058545564 9:-0.36666652 10:0.024279071 11:0.2146235 12:0.25213666 13:0.49232234 16:0.94227097 17:0.56269343 18:-0.21710462 19:-0.44007001 20:-0.3354307 21:0.52946942 22:-0.072053834 23:-0.16957764 24:-0.51843263 25:-0.23266284 26:-0.014537882 27:-0.093716996 28:0.39249783 29:0.40852677 30:-0.035929628 31:-0.18028325 32:-0.02679161 33:0.074259413 34:0.22562615 35:-0.13292759 36:-0.34502143 37:-0.17526469 38:-0.47401638 39:0.45191873 
0.7664162296600543 1:-0.063538357 2:-0.053539004 3:0.2958253 4:0.44124545 5:-0.57288892 6:-0.16257459 7:-0.62845645 8:0.047817047 9:-0.41961173 10:0.24116089 11:0.21571823 12:0.40434641 13:0.39452445 14:1 16:0.94785441 17:0.50977935 18:-0.15814017 19:-0.63655272 20:-0.36269369 21:0.66881204 22:-0.093659059 23:0.012252667 24:-0.43169218 25:-0.11502202 26:-0.0075563408 27:0.047018699 28:0.43492765 29:0.45525253 30:0.039752223 31:-0.11794012 32:0.043616889 33:0.070552406 34:0.26225071 35:-0.17520923 36:-0.38556906 37:-0.27327798 38:-0.69229537 39:0.12832969 
0.5503976030425082 1:-0.12473103 2:0.041963489 3:0.24076352 4:0.23823966 5:-0.60527037 6:-0.19276162 7:-0.54533079 8:-0.061055177 9:-0.49341801 10:0.01033087 11:0.25052952 12:0.40539223 13:0.40856005 14:-1 16:0.88384771 17:0.46084653 18:-0.099843514 19:-0.75194069 20:-0.33675704 21:0.5363021 22:-0.16879961 23:0.29096588 24:-0.78675139 25:-0.011859382 26:-0.017468541 27:0.12458675 28:0.26004216 29:0.45659433 30:0.034487413 31:-0.11786869 32:0.043413694 33:0.069763196 34:0.24937419 35:-0.1736999 36:-0.37470053 37:-0.27114794 38:-0.60569216 39:0.23274178 
0.4910785511432182 1:0.11759123 2:0.65170344 3:0.32597531 4:-0.16139123 5:-0.09178196 6:-0.40385204 7:-0.3090322 8:0.039291237 9:-0.087458613 10:-0.59131711 11:0.37684282 12:0.92650165 13:0.40406895 16:0.81804788 17:0.23624794 18:0.0010798161 19:-0.75815636 20:0.063487812 21:0.53843506 22:-0.21559072 23:0.26104423 24:-0.83444308 25:-0.35513831 26:0.2562169 27:0.6147538 28:-0.18798548 29:-0.78470813 30:0.14912807 31:0.024144565 32:0.036528247 33:0.028554893 34:0.26187433 35:-0.29047622 36:-0.070220645 37:-0.12567218 38:0.31274176 39:0.15634929 
2.085957971400948 1:0.18092379 2:0.5768404 3:0.29424487 4:0.013922011 5:-0.23593985 6:-0.30113927 7:-0.36575372 8:-0.09475456 9:-0.19096357 10:-0.076563449 11:0.37466839 12:0.45924021 13:0.40118671 16:0.86743964 17:0.34757612 18:0.2349281 19:-0.87864142 20:-0.6128939 21:0.16294304 22:-0.11380695 23:0.17347773 24:-0.52078982 25:-0.20925532 26:-0.088717438 27:0.27591447 28:-0.13606093 29:0.20613657 30:-0.11549389 31:-0.14767605 32:-0.063412427 33:0.022197207 34:0.17828672 35:-0.070301051 36:-0.15446498 37:-0.21063925 38:0.15654822 39:0.27970215 
0.2606482845301053 1:0.20747305 2:0.39468764 3:0.33840377 4:0.1924921 5:-0.41162442 6:-0.24777019 7:-0.36845627 8:0.064075822 9:-0.2574336 10:-0.021243148 11:0.35460576 12:0.40663033 13:0.39054108 16:0.83747457 17:0.3376552 18:0.18824558 19:-0.8728366 20:-0.54489049 21:0.66959246 22:-0.51955651 23:0.57073856 24:-0.64751192 25:-0.20604979 26:0.10055236 27:0.23588456 28:0.031804715 29:0.29854603 30:-0.081223159 31:-0.16680756 32:-0.010271967 33:0.070003474 34:0.21991505 35:-0.20996358 36:-0.3020143 37:-0.18874908 38:-0.14417017 39:0.29108278 
2.991122395609625 1:-0.099918641 2:0.10994458 3:0.30579875 4:0.37560576 5:-0.47049663 6:-0.099634593 7:-0.4698092 8:0.12183097 9:-0.30571491 10:0.18908675 11:0.21257561 12:0.31983851 13:0.31486578 16:0.82841646 17:0.20314674 18:0.11379825 19:-0.65847933 20:-0.46975526 21:0.58926102 22:-0.48172308 23:0.59151947 24:-0.56037919 25:-0.11820702 26:0.062959168 27:0.055062313 28:0.28660082 29:0.3887757 30:-0.0045247901 31:-0.1371674 32:0.032809089 33:0.06011682 34:0.26033469 35:-0.20500947 36:-0.35972584 37:-0.23613755 38:-0.51347156 39:0.10285502 
0.370217699213732 1:0.16935925 2:0.01989919 3:0.09661715 4:0.19434648 5:-0.50549933 6:-0.36779642 7:-0.63918241 8:-0.033993516 9:-0.38462406 10:0.041545453 11:0.1557796 12:0.27909689 13:0.12278418 16:0.35966259 17:0.3327933 18:-0.23736235 19:-0.098525434 20:-0.97197494 21:0.72866056 22:-0.35202667 23:0.46007722 24:-0.5066941 25:-0.15231329 26:-0.087042322 27:0.44606439 28:-0.028503516 29:0.38289984 30:-0.066596613 31:-0.17261716 32:-0.010083519 33:0.026147393 34:0.24248875 35:-0.18579959 36:-0.33313835 37:-0.12963364 38:-0.25980468 39:-0.052071305 
0.5393902779739532 1:-0.13557802 2:0.13864588 3:-0.029570502 4:0.056048372 5:-0.40335759 6:-0.62914806 7:-0.56100792 8:-0.12965068 9:-0.30595128 10:0.050540198 11:0.048173912 12:0.32026045 13:0.18619099 16:0.41510794 17:0.21583361 18:-0.22319662 19:-0.053056795 20:-0.89588598 21:0.6968463 22:-0.39305883 23:0.43344696 24:-0.47662558 25:-0.10883137 26:-0.075737919 27:0.38856697 28:-0.18855978 29:0.42207555 30:-0.13315315 31:-0.25422037 32:-0.15591763 33:-0.12211125 34:0.080330512 35:-0.14151653 36:-0.078837396 37:0.18473555 38:-0.058557087 39:-0.085133659 
0.334595996795131 1:0.15997419 2:0.77411013 3:0.39239041 4:-0.014309668 5:-0.21093282 6:-0.38155992 7:-0.2593902 8:0.15499369 9:0.08899883 10:-0.19146675 11:0.35268194 12:0.301106 13:0.018161128 16:0.060503149 17:-0.10524897 18:-0.067297977 19:-0.10135105 20:0.24670236 21:-0.16075583 22:-0.31338586 23:0.2513156 24:-0.6848398 25:-0.068401258 26:0.11471333 27:0.26539712 28:-0.11730139 29:-0.11179057 30:-0.28593618 31:-0.13631689 32:0.1362425 33:0.13119643 34:-0.066711042 35:-0.21862674 36:-0.12066638 37:-0.25150088 38:0.26736729 39:0.40394302 
0.7785730937951734 1:0.082230743 2:0.60246581 3:0.39077785 4:-0.070440235 5:-0.26296288 6:-0.2771085 7:-0.29134657 8:0.2402054 9:-0.027148013 10:-0.34081605 11:0.2449636 12:0.34666939 13:-0.13611363 16:0.059015677 17:-0.077024382 18:-0.25059607 19:0.24256155 20:-0.47573054 21:0.092753898 22:-0.40292327 23:0.1796969 24:-0.58563468 25:-0.48550972 26:0.13762018 27:0.63407445 28:-0.24921035 29:-0.64278874 30:0.1614482 31:-0.23189804 32:0.16681038 33:0.33351004 34:-0.02326023 35:-0.18602295 36:-0.13890497 37:-0.11142452 38:0.19765312 39:0.23915881 
5.55986978854818 1:-0.13278785 2:-0.091227004 3:0.30931068 4:0.48366479 5:-0.60628171 6:-0.12142876 7:-0.5182747 8:0.2566416 9:-0.2972582 10:0.33080521 11:0.099224846 12:0.17781796 13:-0.094753584 16:0.036278993 17:0.054408744 18:-0.059071558 19:-0.15296046 20:-0.032931177 21:-0.27541707 22:-0.22652852 23:0.30234225 24:-0.55299379 25:0.028251745 26:0.028243234 27:0.13730869 28:0.44123028 29:0.46232988 30:0.046996968 31:-0.10766175 32:0.054591009 33:0.067422567 34:0.26770364 35:-0.19332157 36:-0.38134869 37:-0.29081534 38:-0.71892624 39:-0.057498022 
3.960948236120408 1:0.10625227 2:0.1978687 3:0.27733286 4:0.31184849 5:-0.38483785 6:-0.058248059 7:-0.24055999 8:0.30917915 9:-0.10585161 10:0.26901698 11:0.20268108 12:0.089946867 13:-0.099381345 16:0.088986421 17:-0.25331419 18:-0.082342312 19:0.41374057 20:-0.49671244 21:-0.074963149 22:-0.34985621 23:0.40074001 24:-0.67201509 25:-0.12157631 26:0.024038418 27:0.10655823 28:0.25293531 29:0.35340846 30:-0.054808454 31:-0.16388238 32:-0.013915104 33:0.041262551 34:0.22588971 35:-0.15065065 36:-0.34425858 37:-0.16214499 38:-0.37624404 39:0.10436986 
0.4196031540571682 1:0.12142639 2:0.71614807 3:0.39070735 4:0.037330352 5:-0.2472249 6:-0.31140085 7:-0.15506619 8:0.18997188 9:0.11333784 10:0.18892653 11:0.32816052 12:0.042306619 13:-0.19305517 16:0.09251039 17:-0.13278533 18:-0.097895652 19:0.80730206 20:-0.76353175 21:-0.091420933 22:-0.33101487 23:0.34583131 24:-0.71768548 25:-0.24215058 26:-0.01354174 27:0.15551786 28:-0.16794365 29:0.16062888 30:-0.28563026 31:-0.1980457 32:0.21174236 33:-0.24019808 34:0.1818849 35:-0.0054165806 36:0.011111602 37:-0.31898452 38:0.14938696 39:0.4181411 
1.919650574006716 1:0.018904563 2:0.42949261 3:0.37545853 4:0.24829862 5:-0.41727646 6:-0.16274259 7:-0.31101934 8:0.24089163 9:0.035140117 10:0.37816323 11:0.28226371 12:0.011802653 13:-0.015461238 16:-0.075698909 17:0.13443729 18:-0.081347345 19:0.69513896 20:-0.87313114 21:-0.018867343 22:-0.58798508 23:0.40605829 24:-0.63358419 25:-0.077991958 26:-0.031080104 27:-0.014841504 28:0.076320649 29:0.40283129 30:-0.056231657 31:-0.19752763 32:0.13073442 33:-0.12678907 34:0.28410135 35:-0.13430268 36:-0.37306823 37:-0.17977901 38:-0.40582612 39:0.43044195 
0.2245269385845871 1:0.082793131 2:0.43195038 3:0.42003611 4:0.18949478 5:-0.48038065 6:-0.14761236 7:-0.20479322 8:0.2074265 9:-0.11855207 10:0.19885818 11:0.37166155 12:0.11596616 13:-0.080253682 16:0.16914918 17:-0.21074717 18:0.15860981 19:0.50392212 20:-0.83863001 21:0.28673263 22:-0.54725517 23:0.34439209 24:-0.87681363 25:0.0056403661 26:-0.058080766 27:0.19300132 28:0.00074745774 29:0.43718814 30:-0.039693583 31:-0.13971207 32:-0.01132594 33:0.066640378 34:0.21034352 35:-0.071209667 36:-0.42041179 37:-0.08945228 38:-0.44288254 39:0.34284227 
1.271702959403228 1:0.070398314 2:0.10891252 3:0.18402054 4:0.19541005 5:-0.63758828 6:-0.40684609 7:-0.63869241 8:0.015114329 9:-0.29658799 10:0.14246505 11:-0.1190919 12:-0.28335877 13:-0.50701541 16:0.40280782 17:-0.3217961 18:0.085088455 19:0.56573755 20:-0.70162723 21:-0.35877899 22:0.025664148 23:0.21949825 24:-0.45924824 25:-0.081388418 26:-0.054983903 27:-0.007517486 28:0.37636238 29:0.37433266 30:-0.029153056 31:-0.17836073 32:-0.018414659 33:0.043515085 34:0.26293473 35:-0.22130439 36:-0.31683709 37:-0.19795378 38:-0.59972331 39:0.40581114 
0.7167753189158874 1:-0.22437247 2:0.42457281 3:0.55533338 4:0.22663865 5:-0.64377184 6:-0.14048549 7:-0.10833533 8:0.30212368 9:-0.17421958 10:0.14930473 11:0.43737089 12:0.2259034 13:0.052214593 16:-0.2643519 17:0.17698679 18:0.085732056 19:0.29211173 20:-0.67224113 21:-0.09716071 22:-0.23133371 23:0.20844306 24:-0.91578731 25:-0.010716916 26:0.21433501 27:0.1010943 28:0.27132833 29:0.46876168 30:0.02909037 31:-0.12455069 32:0.026318289 33:0.13235925 34:0.1995227 35:-0.081485055 36:-0.43497517 37:-0.17782852 38:-0.68662458 39:0.4319189 
1.130197850354309 1:-0.015869877 2:-0.030626323 3:0.1249467 4:0.30596966 5:-0.54487356 6:-0.2345626 7:-0.55156934 8:0.20590095 9:-0.17117201 10:0.38117598 11:0.016177341 12:-0.089554555 13:-0.33942373 14:-1 15:-1 16:0.3396537 17:-0.38945609 18:0.12572863 19:0.50048618 20:-0.58300323 21:-0.46157067 22:0.018028374 23:0.24497407 24:-0.31288673 25:-0.082817012 26:-0.044344563 27:0.013171663 28:0.37162805 29:0.38367919 30:-0.039740281 31:-0.18062912 32:-0.013060755 33:0.032644935 34:0.26972196 35:-0.21051887 36:-0.33570868 37:-0.18658114 38:-0.60156758 39:0.23370247 
0.8429910444587523 1:0.09160891 2:0.35597021 3:0.35375615 4:0.1323522 5:-0.60333205 6:-0.31885916 7:-0.28900133 8:0.20089373 9:-0.10132252 10:0.19762534 11:0.14080266 12:-0.14121842 13:-0.27178262 16:0.39351059 17:-0.46766816 18:0.41914975 19:0.59144969 20:-0.55766296 21:-0.016644193 22:-0.48046813 23:0.27547966 24:-0.72103314 25:-0.21771503 26:-0.022228863 27:0.0220199 28:0.35753132 29:0.36923425 30:-0.052138644 31:-0.17214953 32:0.041039827 33:-0.016513003 34:0.21641388 35:-0.12556594 36:-0.30173565 37:-0.18425114 38:-0.49691666 39:0.50665416 
0.8476766705853449 1:0.070011499 2:0.54108111 3:0.43193043 4:0.074336281 5:-0.48862575 6:-0.23615845 7:-0.17840671 8:0.1888937 9:0.042839097 10:0.25965994 11:0.26557204 12:-0.14127693 13:-0.18790774 16:0.61906516 17:-0.17023339 18:0.11939496 19:0.50253933 20:-0.26121663 21:-0.24873808 22:-0.018902728 23:0.28340225 24:-0.76098239 25:-0.33475288 26:-0.25416643 27:0.15407236 28:0.12480733 29:0.40753317 30:-0.095542027 31:-0.074686765 32:-0.04163238 33:0.060275703 34:0.16316501 35:0.062031599 36:-0.30313686 37:-0.14940367 38:-0.37704833 39:0.53292777 
1.152172291083193 1:-0.28952599 2:0.36962741 3:0.23411967 4:0.23678284 5:-0.35902236 6:-0.54045399 7:-0.22774614 8:0.16799205 9:-0.003117556 10:0.42935863 11:-0.068703163 12:0.00066530171 13:-0.35558349 15:1 16:0.29288456 17:-0.72666175 18:0.22816516 19:0.45812339 20:-0.56974278 21:-0.039998446 22:-0.4567551 23:0.20522352 24:-0.35255674 25:-0.12120878 26:-0.032957184 27:-0.0017189213 28:0.3453279 29:0.33394211 30:-0.15405865 31:-0.25805443 32:-0.10446654 33:-0.25989425 34:-0.047007341 35:-0.043025962 36:0.19994105 37:0.093813401 38:-0.35747211 39:0.32100663 
0.6653695462937652 1:-0.065610064 2:0.29242061 3:0.32392527 4:0.18063657 5:-0.51254997 6:-0.1682795 7:-0.19335657 8:0.30051846 9:0.016681335 10:0.34738432 11:0.16733765 12:-0.14714122 13:-0.20559176 16:0.8004709 17:-0.3837279 18:0.46187493 19:0.55650346 20:-0.27806016 21:-0.17388038 22:-0.30035606 23:0.34872812 24:-0.67622297 25:-0.20439697 26:-0.15623454 27:-0.021676189 28:0.32810918 29:0.41744072 30:-0.083711691 31:-0.073895522 32:-0.090497198 33:0.079291855 34:0.21162134 35:-0.09538283 36:-0.33459234 37:-0.16258236 38:-0.46537679 39:0.45610094 
2.161852726168213 1:-0.30656252 2:0.13711116 3:0.28274573 4:0.25067066 5:-0.55001776 6:-0.16787895 7:-0.37490002 8:0.30061218 9:0.017690899 10:0.48025987 11:0.11260489 12:-0.22295299 13:-0.30298896 16:0.83051806 17:-0.50806937 18:0.20595139 19:0.37814964 20:-0.2811008 21:-0.287176 22:0.22394297 23:0.3183024 24:-0.4808638 25:-0.1339419 26:-0.068898609 27:-0.017879479 28:0.33073556 29:0.42305472 30:0.01096776 31:-0.14413868 32:0.00021508803 33:0.069950374 34:0.25169725 35:-0.18632449 36:-0.32675684 37:-0.25722803 38:-0.57609251 39:0.39982253 
3.164519577347982 1:0.056345857 2:0.3109696 3:0.38673275 4:0.21489287 5:-0.55432577 6:-0.26201253 7:-0.22019862 8:0.36226569 9:0.025221287 10:0.24596157 11:-0.052731313 12:-0.35553819 13:-0.24478846 16:0.1704465 17:-0.3142021 18:-0.013926939 19:0.13177832 20:-0.14454578 21:-0.52564259 22:-0.52296911 23:0.17731178 24:-0.39829412 25:0.031166577 26:-0.21607589 27:0.041753684 28:0.38959963 29:0.41246138 30:-0.05683103 31:-0.18036372 32:0.00043325675 33:0.013092696 34:0.29298473 35:-0.18326005 36:-0.34974972 37:-0.19889508 38:-0.50621506 39:0.62925711 
2.160297780309459 1:0.014390115 2:0.63303597 3:0.66881148 4:0.10792286 5:-0.50708555 6:-0.25665374 7:-0.23946969 8:0.34159922 9:0.29011099 10:0.1617994 11:-0.11739456 12:-0.46372118 13:-0.12426266 16:0.26739393 17:-0.22137514 18:-0.22284081 19:0.29771283 20:-0.17130397 21:-0.48226994 22:-0.27361973 23:-0.074415351 24:-0.37946045 25:-0.033156199 26:-0.18750839 27:0.043451051 28:-0.10741798 29:0.54228739 30:-0.11739015 31:-0.051773033 32:0.4481803 33:-0.089779308 34:0.27668411 35:-0.10202793 36:-0.25733942 37:-0.33464988 38:-0.41388476 39:0.77005394 
0.6383071092367328 1:-0.31560731 2:0.3582001 3:0.45813252 4:0.13394387 5:-0.60089551 6:-0.52312829 7:-0.24516823 8:0.42051916 9:0.1282424 10:0.0086189796 11:-0.22179903 12:-0.55958562 13:-0.13683344 16:-0.28149025 17:-0.55333512 18:-0.30318483 19:0.46720688 20:0.52436419 21:-0.58224845 22:-0.12708337 23:-0.23897434 24:-0.35981816 25:-0.21653244 26:0.029367769 27:0.11483205 28:0.21523577 29:0.34759928 30:-0.14972824 31:-0.13231533 32:-0.068700247 33:0.09327742 34:0.25965058 35:-0.17967103 36:-0.22457399 37:-0.30473749 38:-0.29507117 39:0.70945935 
0.6282447667962215 1:-0.035361277 2:0.60971625 3:0.61018029 4:-0.15868188 5:-0.68649413 6:-0.28711289 7:-0.25334409 8:0.15475539 9:0.29829158 10:-0.032385455 11:-0.37015448 12:-0.63496435 13:-0.12249216 16:-0.10987442 17:-0.27786292 18:0.051674381 19:0.48567476 20:0.1271506 21:-0.89921824 22:-0.36218327 23:0.023842335 24:-0.78000777 25:0.26208989 26:-0.32377936 27:-0.045669839 28:-0.63144089 29:0.56201688 30:0.13545298 31:0.32101673 32:0.1502614 33:0.014967725 34:0.2512658 35:-0.3098229 36:-0.15827441 37:-0.31254653 38:-0.3889887 39:0.77021312 
1.206972341781163 1:0.085310674 2:0.66437739 3:0.48822468 4:-0.18804295 5:-0.4849319 6:-0.15475929 7:0.084508654 8:0.29790356 9:0.11476323 10:0.12315511 11:0.13112198 12:-0.31479217 13:-0.20098034 16:-0.35338418 17:-0.28052726 18:-0.0065938999 19:0.3343786 20:0.31783503 21:-0.67865998 22:-0.052683514 23:0.099884936 24:-0.82385513 25:-0.33795169 26:-0.17024912 27:0.038426106 28:0.013610174 29:0.27194123 30:-0.17666899 31:0.29503783 32:-0.1251451 33:-0.12899512 34:0.2065391 35:0.2923235 36:-0.2825857 37:-0.1917477 38:-0.369658 39:0.61601696 
1.54249634332772 1:0.073890619 2:0.20323544 3:0.2648736 4:0.15998157 5:-0.53429186 6:-0.18037802 7:-0.1023804 8:0.41933775 9:0.086780909 10:0.2119188 11:-0.14140262 12:-0.51310992 13:-0.41903466 16:-0.90706083 17:-0.013100635 18:0.10705355 19:0.70090046 20:0.4402045 21:-0.69636825 22:-0.92762766 23:0.41901775 24:-0.51843363 25:0.016304406 26:-0.11819448 27:0.015360099 28:0.35039736 29:0.37752908 30:-0.036524761 31:-0.13412517 32:-0.019285006 33:-0.0095714531 34:0.23692719 35:-0.12593067 36:-0.39954745 37:-0.12107309 38:-0.61976428 39:0.66529715 
2.862203639821841 1:-0.70441602 2:-0.10479223 3:0.15965943 4:0.32413324 5:-0.54068609 6:-0.033187236 7:-0.29029786 8:0.4766763 9:-0.015788123 10:0.40048466 11:0.23986966 12:0.42916978 13:0.47605899 16:0.72568271 17:0.40522866 18:0.25066767 19:-0.21629843 20:-0.35820545 21:0.38753893 22:-0.21082035 23:-0.24281307 24:-0.37078282 25:0.12214663 26:0.28523295 27:-0.038018913 28:0.3347538 29:0.424782 30:-0.029484335 31:-0.11223567 32:0.10634449 33:0.042132994 34:0.19793364 35:-0.10454322 36:-0.38729446 37:-0.28091736 38:-0.48468874 39:-0.020712769 
2.147523282667617 1:0.026619617 2:0.26719236 3:0.34742659 4:0.2038131 5:-0.59057306 6:-0.27946293 7:-0.26841177 8:0.224819 9:-0.24200851 10:-0.14640064 11:-0.3359718 12:-0.2639098 13:0.10945209 16:0.12895183 17:0.0014026674 18:-0.73348194 19:0.44656224 20:-0.47185132 21:0.59742406 22:-0.39832096 23:-0.34836967 24:-0.11808011 25:-0.052765481 26:-0.15975253 27:0.10517808 28:0.37149192 29:0.3934309 30:-0.035119254 31:-0.16625549 32:-0.0019646361 33:0.013801536 34:0.25266262 35:-0.20299776 36:-0.33807637 37:-0.15551106 38:-0.55568422 39:0.48268062 
1.844908833510238 1:0.11498469 2:0.86008294 3:0.71474543 4:-0.095582852 5:-0.54368095 6:-0.039161086 7:-0.15500298 8:0.042939302 9:-0.005632261 10:-0.15689261 11:-0.085166588 12:0.050975526 13:0.47239747 16:0.89392417 17:0.125883 18:-0.65805672 19:-0.38442579 20:-0.054934668 21:-0.020302845 22:-0.28533939 23:-0.22245182 24:-0.40880816 25:-0.41676611 26:0.20811676 27:-0.42757374 28:0.22650506 29:0.32673322 30:0.17762947 31:-0.07320374 32:0.650017 33:-0.31457896 34:0.24474298 35:0.070872844 36:0.057643372 37:-0.72912891 38:-0.15305676 39:0.57025526 
0.1336239084403467 1:0.11902558 2:0.28711442 3:0.36177074 4:0.1897915 5:-0.63285121 6:-0.35323121 7:-0.2507424 8:0.32703735 9:-0.12710551 10:-0.053776703 11:-0.18264106 12:-0.045503814 13:0.40891398 14:-1 16:0.026114676 17:0.040556096 18:-0.1783475 19:0.26138633 20:-0.57750103 21:0.68821782 22:-0.37725712 23:-0.52588563 24:-0.22393115 25:0.055464336 26:-0.006849142 27:-0.028776158 28:0.38777486 29:0.39770872 30:-0.079918396 31:-0.14465848 32:-0.010702666 33:0.034513871 34:0.20927567 35:-0.10336994 36:-0.3488664 37:-0.20204225 38:-0.58440934 39:0.52057457 
5.481034834004102 1:-0.22217984 2:-0.064620552 3:0.36850704 4:0.57811324 5:-0.54774756 6:-0.07719774 7:-0.51308235 8:0.30192452 9:-0.29456605 10:0.21030028 11:-0.20715371 12:0.04473912 13:0.055496659 16:0.8631204 17:0.014586394 18:-0.65980515 19:-0.28674902 20:-0.16050189 21:-0.10382057 22:-0.22554773 23:-0.12602316 24:-0.12696065 25:0.046145312 26:0.0066079023 27:0.078264344 28:0.46360773 29:0.45980335 30:0.048933398 31:-0.10649679 32:0.057574566 33:0.067502596 34:0.26666502 35:-0.19570131 36:-0.39123084 37:-0.28499133 38:-0.71731 39:-0.13039106 
2.20255738991598 1:0.13979804 2:0.39398815 3:0.36484774 4:0.10202365 5:-0.61709491 6:-0.34297931 7:-0.22902167 8:0.23061042 9:-0.12164152 10:0.018492778 11:-0.017875346 12:-0.056457108 13:0.36090908 16:0.11414636 17:0.085262112 18:-0.098088845 19:0.37705538 20:-0.73547429 21:0.67326682 22:-0.47222551 23:-0.39436725 24:-0.2669301 25:-0.12143664 26:-0.0121118 27:-0.13250009 28:0.40149534 29:0.38310306 30:-0.027529768 31:-0.19523329 32:0.0093745579 33:-0.03838768 34:0.31355017 35:-0.2328392 36:-0.32760146 37:-0.11689507 38:-0.51460856 39:0.51236548 
0.933611731324533 1:-0.19973166 2:0.34532685 3:0.21160358 4:0.095446613 5:-0.46076641 6:-0.40520806 7:-0.15269365 8:0.19898873 9:-0.15001129 10:0.022576175 11:-0.13350185 12:-0.041533291 13:0.25758028 16:0.61411837 17:0.096910114 18:-0.42757531 19:0.55257147 20:-0.7388859 21:0.63908674 22:-0.39131609 23:-0.43700622 24:-0.21604915 25:-0.054616632 26:-0.029253686 27:-0.097952705 28:0.3753667 29:0.34106786 30:-0.099527785 31:-0.28990845 32:-0.088634573 33:-0.15370419 34:0.23175675 35:-0.18552863 36:-0.14235745 37:0.1135942 38:-0.39610658 39:0.40429217 
0.4981429191038352 1:0.18221888 2:0.83042901 3:0.63486409 4:-0.12058172 5:-0.63761544 6:-0.44198399 7:-0.13105934 8:0.16114529 9:0.12277778 10:-0.080477903 11:0.11349705 12:0.072695859 13:0.4627191 16:0.69190399 17:0.50037338 18:-0.55698665 19:0.32929761 20:-0.72220926 21:0.48685342 22:-0.40668684 23:-0.63332338 24:-0.23401885 25:-0.020470576 26:-0.053730778 27:-0.16446115 28:0.42571821 29:0.18947207 30:-0.14655477 31:-0.091034851 32:0.15037716 33:0.13494904 34:-0.089247053 35:-0.16339529 36:0.090864799 37:-0.44093528 38:-0.31609145 39:0.65270274 
0.3109366684219294 1:0.20693202 2:0.77935972 3:0.60548902 4:-0.21982303 5:-0.76385233 6:-0.40755686 7:-0.1984626 8:-0.047539231 9:0.018259329 10:-0.11267396 11:0.055212436 12:0.06205792 13:0.51285099 16:0.2604291 17:0.62647021 18:-0.46700201 19:0.17642692 20:-0.52684525 21:0.24464691 22:-0.21540291 23:-0.605314 24:-0.45867312 25:-0.084149957 26:-0.037414385 27:-0.25670017 28:0.14320196 29:0.62132748 30:-0.31991915 31:0.15929316 32:0.16063303 33:-0.013539879 34:0.075476045 35:-0.29801032 36:0.072459255 37:-0.58364553 38:-0.32682438 39:0.60929442 
0.2515899833332223 1:-0.1677693 2:0.71698533 3:0.49529044 4:0.0029415635 5:-0.54119184 6:-0.52364339 7:-0.065554448 8:0.22423278 9:-0.024468575 10:-0.0090107309 11:0.082615771 12:-0.052933964 13:0.37809452 16:-0.1200166 17:0.78115521 18:-0.9056893 19:0.48212738 20:-0.4339256 21:0.27922833 22:-0.35938712 23:-0.25257602 24:-0.39164389 25:0.1013993 26:-0.17473624 27:0.011017892 28:0.38559416 29:0.3381834 30:-0.15046384 31:-0.28600051 32:-0.09416028 33:0.092766689 34:0.10924516 35:-0.4372869 36:-0.16126036 37:-0.0073646993 38:-0.43441489 39:0.61235441 
0.1399303822328387 1:0.25916505 2:0.50643677 3:0.44882741 4:-0.0088164253 5:-0.70824655 6:-0.41628369 7:-0.14950451 8:0.30440185 9:0.085234451 10:0.28964843 11:0.45436874 12:0.27464699 13:0.71311647 16:0.051664426 17:0.73903279 18:-0.75516263 19:0.7922668 20:-0.32335215 21:-0.48889838 22:-0.1480431 23:-0.45601112 24:-0.50051142 25:0.0051981569 26:0.0078813449 27:-0.15089896 28:0.41255698 29:0.41205205 30:-0.09755223 31:-0.20661898 32:0.12358227 33:-0.045991102 34:0.26480401 35:-0.17648173 36:-0.2809118 37:-0.19737221 38:-0.45852539 39:0.65091965 
3.487196416238165 1:-0.097346425 2:-0.05433584 3:0.38209034 4:0.55537806 5:-0.58556777 6:-0.12335595 7:-0.44214222 8:0.46418607 9:-0.11908927 10:0.27178566 11:-0.3051682 12:-0.069864723 13:0.082364648 16:-0.16391901 17:0.69560907 18:-0.73493039 19:0.39586785 20:-0.16756978 21:0.1237138 22:-0.55852653 23:0.070944966 24:0.019351259 25:0.039232564 26:0.014700589 27:0.056269221 28:0.45735119 29:0.46462852 30:0.056938398 31:-0.10121147 32:0.044637976 33:0.073289658 34:0.26591477 35:-0.18784842 36:-0.39491179 37:-0.27866405 38:-0.72989207 39:0.054587089 
1.360519521213272 1:-0.035321347 2:0.29835911 3:0.55970541 4:0.33097652 5:-0.7143132 6:-0.20080916 7:-0.20179612 8:0.40124232 9:-0.15502203 10:0.11390477 11:0.057623677 12:0.10453479 13:0.32972147 16:-0.1087131 17:0.60384482 18:-0.47467617 19:-0.2492951 20:-0.14161431 21:-0.4559384 22:-0.077687313 23:-0.55361145 24:-0.46183124 25:-0.10565369 26:0.081631624 27:0.058111945 28:0.48794967 29:0.48230268 30:0.053433141 31:-0.07669592 32:0.038976537 33:0.06727866 34:0.27287375 35:-0.18536673 36:-0.38773021 37:-0.29669866 38:-0.746176 39:0.55388196 
0.20076198815209 1:0.26500884 2:0.22188097 3:0.27957703 4:0.21234322 5:-0.63164794 6:-0.30039023 7:-0.33200108 8:0.33347527 9:-0.07218089 10:0.31419353 11:0.2161833 12:0.22589797 13:0.4727993 15:-1 16:-0.097580177 17:0.79085125 18:-0.50411239 19:0.12772143 20:-0.15193695 21:-0.23470762 22:-0.25907474 23:-0.33659013 24:-0.36585244 25:-0.009329802 26:-0.034146402 27:0.014657411 28:0.39396118 29:0.38788945 30:-0.040403375 31:-0.156829 32:-0.021856483 33:-0.00044592895 34:0.26915964 35:-0.19535168 36:-0.33015431 37:-0.20682074 38:-0.58514699 39:0.59379209 
1.893407010019803 1:0.25125096 2:0.069839902 3:0.2237592 4:0.28959636 5:-0.5793426 6:-0.28010273 7:-0.41115679 8:0.32345221 9:-0.097112708 10:0.27696906 11:0.019730287 12:0.14080578 13:0.3606694 15:1 16:-0.33290382 17:0.82061426 18:-0.32478438 19:-0.49206886 20:-0.27377348 21:0.32462359 22:-0.23846938 23:-0.35282067 24:-0.11707026 25:-0.0044947161 26:-0.038996933 27:0.0062022743 28:0.38117636 29:0.39803859 30:-0.039956397 31:-0.16788176 32:-0.016606133 33:0.018477191 34:0.25606428 35:-0.20598173 36:-0.33877911 37:-0.15751352 38:-0.5668619 39:0.32321517 
0.8353001211925992 1:-0.030223466 2:-0.31558142 3:0.028842624 4:0.15714596 5:-0.95449077 6:-0.57527014 7:-0.79051399 8:0.17103711 9:-0.3141884 10:0.17866496 11:-0.18416502 12:0.081292485 13:0.13203808 16:0.21797291 17:0.50297373 18:-0.068240698 19:-0.28089709 20:-0.23305614 21:-0.057834972 22:-0.25251848 23:-0.26123149 24:-0.26010595 25:0.076544678 26:0.0076216002 27:0.083649429 28:0.44730901 29:0.45412368 30:0.042753071 31:-0.10793762 32:0.051196429 33:0.055141985 34:0.27044211 35:-0.19180035 36:-0.37997882 37:-0.27607125 38:-0.70807359 39:0.085228462 
2.181517163121156 1:0.28451359 2:0.53232858 3:0.36735501 4:-0.16014359 5:-0.75144246 6:-0.4872963 7:-0.099861857 8:0.19538199 9:-0.013539365 10:-0.012606266 11:0.24391572 12:0.12736671 13:0.64965622 16:0.13550446 17:0.59255636 18:-0.15875358 19:-0.31499194 20:-0.29923084 21:0.21217784 22:-0.24151054 23:-0.51465752 24:-0.27736374 25:-0.30034238 26:-0.048097796 27:-0.059586384 28:0.35234999 29:0.35370548 30:-0.07887529 31:-0.14249576 32:0.017128637 33:0.02627335 34:0.15279927 35:-0.21136757 36:-0.18506803 37:-0.17917706 38:-0.4631341 39:0.56806823 
0.153898662325606 1:0.27072155 2:0.79979762 3:0.44753365 4:-0.42247742 5:-0.74116267 6:-0.46374502 7:-0.070893886 8:0.017928072 9:0.07046845 10:-0.17700814 11:0.1035848 12:0.07187354 13:0.53246786 16:-0.032141671 17:0.75772187 18:-0.20127105 19:-0.051041736 20:-0.18957305 21:0.19445175 22:-0.36003355 23:-0.64899964 24:-0.66290099 25:-0.22534489 26:-0.1228187 27:-0.2075331 28:0.021791614 29:0.30458948 30:-0.24325009 31:0.071663521 32:0.054225083 33:0.1692004 34:-0.23809759 35:0.32273839 36:-0.21289232 37:-0.32772623 38:-0.10186564 39:0.59072673 
1.646900167503247 1:-0.013238228 2:0.13241345 3:0.46741845 4:0.26794598 5:-0.83119935 6:-0.27404232 7:-0.19026543 8:0.48913493 9:-0.12755693 10:0.082009554 11:0.0082959238 12:0.16799962 13:0.47998909 16:0.37459813 17:0.29958595 18:-0.12626817 19:-0.14426944 20:-0.32080993 21:0.28359894 22:-0.26027919 23:-0.53567905 24:-0.50977708 25:-0.040745698 26:0.067686614 27:0.093018775 28:0.4920194 29:0.49713327 30:0.087777615 31:-0.08440487 32:0.061660419 33:0.066844428 34:0.28422415 35:-0.18464109 36:-0.40973149 37:-0.31593827 38:-0.78720124 39:0.51870592 
0.299691835421724 1:0.28337829 2:0.87325751 3:0.54987478 4:-0.32199606 5:-0.6913157 6:-0.42149971 7:-0.032758876 8:0.10483632 9:0.23945599 10:-0.019392415 11:0.098127452 12:0.050295774 13:0.48779999 16:0.061691722 17:0.47760259 18:-0.12337248 19:0.16605229 20:-0.23908675 21:0.10308995 22:-0.51646224 23:-0.64490427 24:-0.65747351 25:-0.19662061 26:-0.14874562 27:-0.20749228 28:0.039018793 29:0.30972922 30:0.06222893 31:0.014135999 32:0.084991356 33:0.1491029 34:-0.29909601 35:-0.19472207 36:-0.013390903 37:-0.30434585 38:-0.16185986 39:0.66524723 
0.3094054268184079 1:0.26232161 2:0.73394214 3:0.50788532 4:-0.20685055 5:-0.73022888 6:-0.45271836 7:-0.021122301 8:0.20623939 9:0.13465995 10:-0.1276555 11:0.13386683 12:0.061619813 13:0.54103457 14:1 16:-0.095914071 17:0.63768912 18:-0.22014936 19:0.27512601 20:-0.20632868 21:0.09534767 22:-0.39407065 23:-0.74187511 24:-0.6585812 25:-0.33776752 26:0.24736883 27:-0.35521549 28:0.28405723 29:0.3284089 30:-0.12726772 31:-0.059879046 32:0.165747 33:-0.0057778813 34:-0.00098879254 35:0.036941749 36:-0.30814418 37:-0.24035243 38:-0.19389379 39:0.61015015 
0.9186386463960304 1:0.27787219 2:0.52935483 3:0.38950247 4:-0.060116011 5:-0.6763408 6:-0.30883431 7:-0.025160908 8:0.2341239 9:-0.044638701 10:0.14823378 11:0.36147468 12:0.085250752 13:0.30388295 16:0.054198733 17:0.41543712 18:-0.14147226 19:0.14248493 20:-0.13264431 21:0.086222181 22:-0.48582343 23:-0.072170985 24:-0.60764331 25:-0.033622957 26:-0.10696078 27:-0.021162046 28:0.46558735 29:0.36461102 30:-0.052105896 31:-0.13279834 32:0.013857494 33:-0.034954158 34:0.21882721 35:-0.26521815 36:-0.19178699 37:-0.19595989 38:-0.50863408 39:0.52942585 
1.198038877380018 1:0.18660347 2:0.1367716 3:0.18438113 4:0.11404602 5:-0.68910689 6:-0.33727165 7:-0.3325199 8:0.31586898 9:-0.075097153 10:0.28137169 11:0.18314912 12:0.16343576 13:0.3531977 16:0.42863274 17:0.47711944 18:-0.15591644 19:0.2426963 20:-0.23736602 21:0.1344837 22:-0.40184519 23:-0.22103999 24:-0.34174322 25:0.041725687 26:-0.046461336 27:0.041442779 28:0.38402108 29:0.38615208 30:-0.047489678 31:-0.1711274 32:0.011354925 33:0.011353321 34:0.24198303 35:-0.17936061 36:-0.33430544 37:-0.17647452 38:-0.59029963 39:0.46968956 
0.8729168462406755 1:-0.012119549 2:0.43864683 3:0.17242737 4:-0.019887512 5:-0.52405244 6:-0.74963175 7:-0.0051223445 8:0.19505157 9:-0.012047063 10:0.18896603 11:-0.099634047 12:0.20867853 13:0.1939303 16:0.5273139 17:0.26564932 18:-0.074684415 19:0.34262512 20:-0.27516602 21:0.2358181 22:-0.49473176 23:-0.38148664 24:-0.3154965 25:-0.0024903113 26:0.044923077 27:-0.0016995002 28:0.36162014 29:0.34667456 30:-0.13191138 31:-0.27928491 32:-0.20219255 33:-0.17495858 34:-0.36770015 35:0.86169498 36:0.17345458 37:0.20895157 38:-0.38493986 39:0.52454769 
0.7578648785491905 1:0.21925756 2:0.70646692 3:0.32952964 4:-0.22222145 5:-0.53712634 6:-0.30865345 7:0.018632197 8:0.13772249 9:0.025590381 10:0.011836511 11:0.52606357 12:0.17090164 13:0.32792677 16:0.26428535 17:0.2044834 18:-0.080283391 19:0.48204185 20:-0.25484998 21:-0.11701701 22:-0.25703705 23:-0.031976416 24:-0.61297335 25:-0.54190064 26:-0.025224758 27:0.052806308 28:0.049738081 29:0.33543501 30:-0.11229714 31:-0.18765358 32:0.072747197 33:0.070750571 34:-0.028957148 35:-0.067797712 36:-0.25705354 37:-0.14386202 38:-0.063172047 39:0.43506603 
3.53537216822874 1:0.29788053 2:0.19018112 3:0.24485768 4:0.12199528 5:-0.65101291 6:-0.2908583 7:-0.24683977 8:0.35076524 9:-0.034929848 10:0.27044843 11:0.168752 12:0.11670871 13:0.28504241 16:0.10688294 17:-0.022079667 18:-0.011668707 19:0.54406088 20:-0.40618643 21:-0.2432104 22:-0.21024851 23:-0.1587466 24:-0.48385068 25:-0.049484445 26:-0.042158933 27:-0.011266961 28:0.3907023 29:0.40415736 30:-0.03102106 31:-0.17041077 32:-0.012112824 33:0.035983446 34:0.23827717 35:-0.18579118 36:-0.32343861 37:-0.14969634 38:-0.54524369 39:0.43155068 
4.894064283340438 1:0.30859052 2:0.10989873 3:0.17189685 4:0.13817118 5:-0.59345564 6:-0.20560982 7:-0.25181067 8:0.34971039 9:-0.05000267 10:0.34018729 11:0.20875434 12:0.088499466 13:0.048101412 16:0.01957967 17:-0.54106309 18:0.08696415 19:0.5403666 20:-0.4090455 21:-0.37118738 22:-0.10080477 23:-0.020927418 24:-0.33229028 25:-0.04976388 26:-0.079326448 27:0.087411595 28:0.27464499 29:0.39682069 30:-0.055137898 31:-0.17482841 32:0.0084244098 33:0.021343109 34:0.25440613 35:-0.19285082 36:-0.32902172 37:-0.15558369 38:-0.50596707 39:0.27412604 
1.747592302427952 1:0.26414355 2:0.35061287 3:0.31808808 4:0.14315688 5:-0.55926868 6:-0.21023488 7:-0.12659349 8:0.37658515 9:-0.0074715788 10:0.17053329 11:0.1306266 12:0.00052519546 13:0.13493167 15:-1 16:-0.036429137 17:-0.27434409 18:-0.077083627 19:0.48827405 20:-0.29543929 21:-0.11821347 22:-0.26429613 23:-0.13396076 24:-0.51408309 25:-0.096612527 26:-0.017882276 27:0.041010088 28:0.27835076 29:0.39204024 30:-0.045075632 31:-0.21295538 32:0.020547723 33:0.011052356 34:0.24253007 35:-0.21275484 36:-0.31510956 37:-0.15919672 38:-0.55120152 39:0.46801834 
3.784954772469233 1:0.20548588 2:0.59881701 3:0.32176904 4:-0.091825213 5:-0.49647769 6:-0.31052334 7:0.064402648 8:0.29354668 9:0.032104691 10:0.041540065 11:0.27048984 12:0.0035007939 13:0.14879479 16:0.0018738083 17:-0.50201065 18:0.13474345 19:0.34685694 20:-0.11516694 21:-0.13022909 22:-0.21831674 23:-0.3195466 24:-0.50066429 25:-0.16681338 26:-0.16565648 27:0.15644362 28:0.20206765 29:0.3014306 30:-0.13990966 31:-0.18639126 32:-0.11269409 33:0.056661496 34:0.091226542 35:-0.14967364 36:-0.22785665 37:-0.0031111689 38:-0.26898282 39:0.49149726 
3.29288681465207 1:0.29771882 2:0.16236858 3:0.24317153 4:0.15286444 5:-0.62957193 6:-0.3126144 7:-0.19704067 8:0.47618637 9:-0.0098907206 10:0.12177563 11:0.014858208 12:0.087292428 13:0.15206793 16:0.097610928 17:-0.38493463 18:0.059629114 19:0.50516518 20:-0.30817669 21:-0.18248544 22:-0.18586945 23:-0.29489101 24:-0.35250762 25:-0.072621146 26:0.019727439 27:0.28383151 28:-0.021855001 29:0.4240535 30:-0.051357846 31:-0.17666017 32:0.0053344748 33:0.041099902 34:0.22198724 35:-0.1865378 36:-0.32012494 37:-0.15603784 38:-0.41482773 39:0.4048642 
2.916724011549645 1:0.31774241 2:-0.076984783 3:0.025663473 4:0.18196481 5:-0.58788253 6:-0.22917502 7:-0.40219151 8:0.31981242 9:-0.11547474 10:0.28722529 11:0.077167003 12:0.15767519 13:0.18343174 16:-0.048390137 17:0.31945168 18:-0.084808663 19:0.4749594 20:-0.4881636 21:0.31231002 22:-0.10323928 23:-0.64597732 24:-0.01170593 25:-0.10020645 26:-0.0691458 27:0.15845177 28:0.12224355 29:0.39732674 30:-0.055602114 31:-0.17740832 32:-0.0020597415 33:0.016821627 34:0.24835879 35:-0.19786686 36:-0.33749051 37:-0.18050508 38:-0.5752318 39:0.32646963 
2.208153997741021 1:0.024418209 2:-0.28849553 3:0.07982257 4:0.21151883 5:-0.84787115 6:-0.32775711 7:-0.43496612 8:0.47728292 9:-0.14979777 10:0.20970606 11:-0.15360805 12:0.069903359 13:0.0061969976 16:0.19323011 17:-0.023546478 18:0.22870268 19:0.22719955 20:-0.15378668 21:-0.11357895 22:-0.18298643 23:-0.37358708 24:-0.19433648 25:-0.0021848873 26:0.027926581 27:0.2878787 28:0.29003833 29:0.46543443 30:0.043020091 31:-0.11069643 32:0.06353052 33:0.064903434 34:0.26127036 35:-0.18612587 36:-0.38185396 37:-0.28770206 38:-0.69445615 39:0.14579371 
2.992321623260585 1:0.23824958 2:0.074378643 3:0.063200238 4:-0.021469272 5:-0.6897721 6:-0.33854482 7:-0.23807542 8:0.32980906 9:-0.094923538 10:0.071052572 11:0.12265661 12:0.14318288 13:0.32016155 16:-0.025259336 17:-0.17834022 18:0.20052567 19:0.20581331 20:-0.40378231 21:0.25415761 22:-0.14936832 23:-0.51594449 24:-0.15668042 25:-0.24095771 26:-0.055691887 27:0.25383267 28:-0.027354476 29:0.39446525 30:-0.065871417 31:-0.17564245 32:-0.00032086637 33:0.024911276 34:0.24516755 35:-0.21743582 36:-0.32449651 37:-0.17711135 38:-0.45338787 39:0.41080947 
1.609116649034122 1:0.33152614 2:0.19397175 3:0.17394675 4:-0.050588946 5:-0.6642121 6:-0.28617775 7:-0.094082967 8:0.30447981 9:-0.11165544 10:0.094319105 11:0.34564596 12:0.16438942 13:0.30696951 15:-1 16:-0.033730871 17:0.76137836 18:-0.045084034 19:0.096029487 20:-0.36584885 21:0.47632318 22:-0.19477317 23:-0.1981048 24:-0.46590867 25:-0.23744209 26:-0.053188881 27:0.17131335 28:0.31734475 29:0.32180266 30:-0.073685594 31:-0.19203867 32:0.028228434 33:0.017634739 34:0.2354004 35:-0.19535408 36:-0.31826183 37:-0.15700865 38:-0.47577428 39:0.42152142 
1.371024516556312 1:0.30107409 2:0.30414236 3:-0.028383535 4:-0.32288623 5:-0.76383076 6:-0.55026052 7:-0.30555539 8:0.0069777725 9:-0.15300427 10:-0.13871447 11:0.19568243 12:-0.054066187 13:0.35621976 14:1 16:0.32431384 17:0.81457918 18:-0.016397877 19:0.0091339915 20:-0.35119782 21:0.26631913 22:-0.13186 23:-0.62785339 24:-0.32628697 25:-0.36342179 26:-0.16873083 27:0.18896183 28:-0.12741388 29:0.36253165 30:-0.094208235 31:-0.22109044 32:-0.03653686 33:0.017512759 34:0.2085061 35:-0.19391526 36:-0.36299197 37:-0.21315438 38:-0.33844639 39:0.46946056 
2.142904460955302 1:0.021915896 2:-0.14960336 3:0.062946024 4:-0.081182375 5:-0.95521651 6:-0.33739828 7:-0.30558568 8:0.26954748 9:-0.26827199 10:0.01916443 11:0.060504337 12:0.12995296 13:0.30793884 15:-1 16:0.11180841 17:0.50509986 18:0.17394713 19:-0.060305769 20:-0.14354456 21:0.20599078 22:-0.18149884 23:-0.29006129 24:-0.52260581 25:-0.15198779 26:0.00315982 27:0.04930889 28:0.4855141 29:0.48216425 30:0.074325846 31:-0.1121062 32:0.085814033 33:0.064489994 34:0.26799678 35:-0.19010762 36:-0.38432239 37:-0.31990656 38:-0.74597799 39:0.40619887 
